1.592745631933212280e-01 2.103979289531707764e-01 1.998472213745117188e-01 -2.081350833177566528e-01 2.624421417713165283e-01 1.576680988073348999e-01 2.131058573722839355e-01 1.837810128927230835e-01 -9.787743538618087769e-02 9.937754273414611816e-02 -7.242550700902938843e-02 -2.371403574943542480e-02 1.903284899890422821e-02 -9.907284379005432129e-02 2.698364257812500000e-01 1.373153030872344971e-01 1.377877444028854370e-01 1.670426577329635620e-01 -1.447956711053848267e-01 -6.381841003894805908e-02 1.691070497035980225e-01 3.554660826921463013e-02 -1.571742445230484009e-01 -1.574217230081558228e-01 2.336785942316055298e-01 -1.885550767183303833e-01 9.933971613645553589e-02 4.129017889499664307e-02 -2.332212030887603760e-02 7.103855162858963013e-02 -4.977932944893836975e-02 2.600690722465515137e-01 -1.443177834153175354e-02 5.940617620944976807e-02 2.047902941703796387e-01 -1.137185171246528625e-01 1.946153789758682251e-01 2.591048479080200195e-01 7.309158146381378174e-02 -2.210198789834976196e-01 -1.834633946418762207e-02 2.351823598146438599e-01 1.733658760786056519e-01 7.400829344987869263e-02 1.482912153005599976e-01 -3.543018130585551262e-03 -1.290209889411926270e-01 7.215563207864761353e-02 -4.453778266906738281e-02 1.243420615792274475e-01 -1.519451737403869629e-01 9.640689194202423096e-02 3.098031505942344666e-02 -2.113826572895050049e-01 1.623420715332031250e-01 -2.173264883458614349e-02 2.065658867359161377e-01 4.610194265842437744e-02 2.010771781206130981e-01 -1.518621593713760376e-01 1.850619316101074219e-01 1.782544329762458801e-02 -3.781537339091300964e-02 -1.421828567981719971e-01 1.216201577335596085e-02 -1.790747940540313721e-01 2.592156454920768738e-02 -9.129472076892852783e-02 -1.094587594270706177e-01 -1.680359840393066406e-01 2.260153591632843018e-01 -2.396776676177978516e-01 -2.140364795923233032e-01 1.615392565727233887e-01 -8.094994723796844482e-02 1.333375424146652222e-01 -5.025446042418479919e-02 -3.194553405046463013e-02 2.085110545158386230e-02 3.112841583788394928e-02 1.125652790069580078e-01 9.833672642707824707e-02 -5.396985448896884918e-03 -1.749563068151473999e-01 -2.131116688251495361e-01 1.899539232254028320e-01 -1.917153298854827881e-01 1.175306588411331177e-01 -3.999860212206840515e-02 2.472293227910995483e-01 4.136374965310096741e-02 -1.126258634030818939e-02 -3.578799543902277946e-03 -6.418447196483612061e-02 -1.276810187846422195e-02 -9.776747971773147583e-02 8.316246420145034790e-02 6.909459829330444336e-02 2.329030781984329224e-01 6.048284843564033508e-02 -5.098294839262962341e-02 -2.422837773337960243e-03 -1.094132438302040100e-01 -2.263594269752502441e-01 2.176684886217117310e-01 1.621450036764144897e-01 4.646667838096618652e-02 4.317607358098030090e-02 1.211477518081665039e-01 6.735017895698547363e-02 7.885590195655822754e-02 1.891793496906757355e-02 2.106059491634368896e-01 2.303904145956039429e-01 -2.179171144962310791e-01 -1.121132969856262207e-01 -1.795608997344970703e-01 2.365316152572631836e-01 -1.689008176326751709e-01 3.915228322148323059e-02 1.176109835505485535e-01 1.208857372403144836e-01 1.267444938421249390e-01 -1.516607552766799927e-01 -8.635183423757553101e-02 -1.838642060756683350e-01 -1.592802852392196655e-01 9.772270917892456055e-02 2.029146626591682434e-02 -1.351484060287475586e-01 -1.618007570505142212e-01 -1.255967170000076294e-01 2.473788708448410034e-01 6.472119688987731934e-02 1.759714186191558838e-01 -3.381646797060966492e-02 1.119749397039413452e-01 2.619175910949707031e-01 4.764594137668609619e-02 2.103312909603118896e-01 -1.611906886100769043e-01 2.037314474582672119e-01 1.684736013412475586e-01 1.424608826637268066e-01 -8.127010613679885864e-02 -1.997774839401245117e-01 -1.418052762746810913e-01 1.515388190746307373e-01 -1.393259614706039429e-01 2.363446354866027832e-01 2.053683698177337646e-01 1.553728878498077393e-01 1.625880300998687744e-01 -1.521502286195755005e-01 -4.847653582692146301e-02 -1.513611823320388794e-01 -7.235264405608177185e-03 1.361974030733108521e-01 -8.688443899154663086e-02 -8.406715840101242065e-02 -6.929200887680053711e-02 1.171505544334650040e-02 2.593175321817398071e-02 -1.450383663177490234e-01 1.591362655162811279e-01 -4.159147292375564575e-02 1.506577283143997192e-01 8.011661469936370850e-02 2.411297708749771118e-01 6.359844468533992767e-03 -2.339908154681324959e-03 -9.251078218221664429e-02 -2.281604707241058350e-01 -1.600537896156311035e-01 -1.928700953722000122e-01 -1.696397201158106327e-03 -8.444698154926300049e-02 1.518489569425582886e-01 2.783459797501564026e-02 2.125598490238189697e-01 -2.397583238780498505e-02 -2.334559261798858643e-01 2.253292202949523926e-01 -2.159824520349502563e-01 2.792068012058734894e-02 8.632941544055938721e-02 8.331005228683352470e-04 -8.151467144489288330e-02 1.560111343860626221e-01 -3.867958206683397293e-03 7.408986985683441162e-02 6.628850102424621582e-02 1.050174608826637268e-01 -8.071368932723999023e-02 -5.496792867779731750e-02 1.466615945100784302e-01 -1.783508807420730591e-01 -1.877935975790023804e-01 1.701302230358123779e-01 -1.481855362653732300e-01 2.259408235549926758e-01 2.853072285652160645e-01 2.248998135328292847e-01 1.827859133481979370e-01 1.595423966646194458e-01 -1.320980861783027649e-02 4.447436332702636719e-02 -4.337215423583984375e-02 -2.567016053944826126e-03 -1.228251829743385315e-01 1.584619432687759399e-01 1.144585832953453064e-01 7.914291322231292725e-02 -1.945356279611587524e-01 2.126921713352203369e-01 3.073711134493350983e-02 
9.861407876014709473e-01 9.637442231178283691e-01 9.717930555343627930e-01 1.043900012969970703e+00 1.026095867156982422e+00 9.575172662734985352e-01 9.794645309448242188e-01 9.887314438819885254e-01 
3.809049353003501892e-02 8.319417946040630341e-03 -1.640001498162746429e-02 4.439264535903930664e-02 2.632497809827327728e-02 -2.001142501831054688e-02 1.130557153373956680e-02 -4.703261889517307281e-03 
1.192635446786880493e-01 1.103324741125106812e-01 6.083848699927330017e-02 3.181665390729904175e-02 4.935279488563537598e-02 2.931561879813671112e-02 -6.656430661678314209e-02 2.811082303524017334e-01 
1.094313114881515503e-01 7.656612247228622437e-02 5.761798471212387085e-02 3.919127956032752991e-02 3.840444609522819519e-02 1.165440529584884644e-01 6.072329357266426086e-02 7.707089930772781372e-02 
2.482221461832523346e-02 -4.350954666733741760e-02 -1.426124870777130127e-01 -7.300623506307601929e-02 -2.812732756137847900e-02 3.232612088322639465e-02 1.000561788678169250e-01 -3.870262205600738525e-02 4.198674112558364868e-03 1.163311898708343506e-01 8.698337525129318237e-02 5.729942396283149719e-02 4.127317294478416443e-02 -2.359222769737243652e-01 1.733787953853607178e-01 1.165272444486618042e-01 9.787793457508087158e-02 1.906943470239639282e-01 4.639453813433647156e-02 -1.881673000752925873e-02 -1.532289534807205200e-01 1.852349340915679932e-01 1.322196573019027710e-01 -1.470390856266021729e-01 -4.720109328627586365e-02 -3.391683101654052734e-02 1.289822310209274292e-01 -1.373384594917297363e-01 2.070948481559753418e-01 1.354199498891830444e-01 -1.716201454401016235e-01 1.345970928668975830e-01 8.070252090692520142e-02 -2.056860178709030151e-01 9.257202595472335815e-02 1.228706017136573792e-01 1.478262692689895630e-01 1.701873242855072021e-01 1.232304275035858154e-01 -1.573827303946018219e-02 3.791374620050191879e-04 -1.444598138332366943e-01 3.415548428893089294e-02 1.407764256000518799e-01 1.876057237386703491e-01 2.956004347652196884e-03 -1.296661347150802612e-01 1.100952029228210449e-01 1.505502164363861084e-01 1.092200353741645813e-01 -5.903049185872077942e-02 1.452859304845333099e-02 6.769873201847076416e-02 -1.174636259675025940e-01 -1.804839223623275757e-01 -1.200685277581214905e-01 -4.904847592115402222e-02 -6.025762483477592468e-02 1.489935666322708130e-01 6.019493192434310913e-02 1.620741486549377441e-01 -1.973328739404678345e-01 1.327342987060546875e-01 -6.242027133703231812e-02 1.615737825632095337e-01 -1.108973920345306396e-01 9.998386353254318237e-02 1.176210120320320129e-03 -1.380070745944976807e-01 1.084544360637664795e-01 -4.297303408384323120e-02 1.099368631839752197e-01 1.812843680381774902e-01 -1.409380584955215454e-01 -1.312597393989562988e-01 8.202947676181793213e-02 -9.325389564037322998e-02 1.762322336435317993e-01 -5.676078423857688904e-02 1.207972839474678040e-01 -7.383270189166069031e-03 -1.760325133800506592e-01 -5.915840715169906616e-02 2.033379487693309784e-02 1.444503292441368103e-02 -6.361910700798034668e-02 -1.910314410924911499e-01 7.114912569522857666e-02 4.611629620194435120e-02 -1.201342567801475525e-01 3.977521136403083801e-02 -1.869410574436187744e-01 2.278453558683395386e-01 -4.602073132991790771e-02 -1.185640022158622742e-01 4.664636030793190002e-02 1.726732850074768066e-01 5.893766134977340698e-02 1.573777012526988983e-02 1.028929464519023895e-02 -1.304504275321960449e-01 -8.905139565467834473e-02 1.020854432135820389e-02 -1.087314933538436890e-01 -2.590903453528881073e-02 1.829008907079696655e-01 9.060959517955780029e-02 -1.647686511278152466e-01 8.771515637636184692e-02 1.928844749927520752e-01 1.615778058767318726e-01 -1.609095558524131775e-02 -6.956855207681655884e-02 -1.372829228639602661e-01 -6.590957194566726685e-02 8.611027896404266357e-02 -9.224617481231689453e-02 3.966284543275833130e-02 1.475035250186920166e-01 -8.909985423088073730e-02 -1.920483559370040894e-01 6.297337263822555542e-02 6.980810314416885376e-02 -1.107514351606369019e-01 -1.511626243591308594e-01 1.315307468175888062e-01 1.017084941267967224e-01 -4.905874282121658325e-02 -1.941219419240951538e-01 -2.165953069925308228e-01 -1.120371818542480469e-01 -1.739305257797241211e-01 1.146290525794029236e-01 8.456783369183540344e-03 2.133760750293731689e-01 2.281357198953628540e-01 1.429548710584640503e-01 6.930056959390640259e-02 -3.465711697936058044e-02 7.939904183149337769e-02 -7.631752640008926392e-02 -1.378862410783767700e-01 -1.184087097644805908e-01 1.233020648360252380e-01 -1.964813657104969025e-02 1.283199042081832886e-01 2.340459376573562622e-01 -8.873984217643737793e-02 2.797568403184413910e-02 -1.368131786584854126e-01 1.571462005376815796e-01 1.528519093990325928e-01 1.156360190361738205e-02 1.670631170272827148e-01 4.367303475737571716e-02 -1.072599664330482483e-01 -1.553480029106140137e-01 1.837635040283203125e-01 -1.474941670894622803e-01 -1.482589989900588989e-01 9.688068181276321411e-02 -1.904449313879013062e-01 1.325845718383789062e-01 -1.093965396285057068e-01 1.059456914663314819e-01 6.760452687740325928e-02 -2.603149041533470154e-02 -1.125004813075065613e-01 1.123796105384826660e-01 -3.865481540560722351e-02 -1.520304232835769653e-01 -1.024413183331489563e-01 1.058566477149724960e-02 -6.262048333883285522e-02 -1.409596763551235199e-02 -1.681809276342391968e-01 -1.989464461803436279e-01 9.430636465549468994e-02 7.226674258708953857e-02 1.222827509045600891e-01 4.988210648298263550e-02 -9.932381659746170044e-02 -1.489338427782058716e-01 -2.262021303176879883e-01 1.826204508543014526e-01 2.486243098974227905e-01 9.306355565786361694e-02 -2.089720219373703003e-01 -5.940264090895652771e-04 1.332409828901290894e-01 -1.502745747566223145e-01 1.338391751050949097e-01 -1.738578677177429199e-01 1.309659183025360107e-01 -4.473234713077545166e-02 -1.622596755623817444e-02 9.522067755460739136e-02 -1.237159669399261475e-01 -1.203878521919250488e-01 1.601371020078659058e-01 1.995829194784164429e-01 1.482392251491546631e-01 -2.196592045947909355e-03 -1.616732031106948853e-02 1.887671500444412231e-01 -5.601904541254043579e-02 1.806527078151702881e-01 -1.438146978616714478e-01 -2.172635793685913086e-01 1.442112028598785400e-01 7.875624112784862518e-03 -1.171031445264816284e-01 1.580625325441360474e-01 4.594420641660690308e-02 -1.803104765713214874e-02 -1.311622709035873413e-01 1.754530519247055054e-01 4.479897022247314453e-02 -6.574743241071701050e-02 -1.011579204350709915e-02 1.005018875002861023e-02 2.736220834776759148e-03 -1.313967257738113403e-01 1.500813066959381104e-01 -1.103834584355354309e-01 -1.326054036617279053e-01 5.805581435561180115e-02 1.589333862066268921e-01 -5.355020239949226379e-02 -4.022944346070289612e-02 8.159632235765457153e-02 -4.457421228289604187e-02 -1.163900345563888550e-01 -1.175947561860084534e-01 3.645387291908264160e-02 -1.116951182484626770e-01 -4.481774196028709412e-02 1.689807474613189697e-01 -6.426190584897994995e-02 1.421845704317092896e-02 5.749515071511268616e-02 -4.667556658387184143e-02 4.675524681806564331e-02 -2.134169936180114746e-01 -1.406981796026229858e-01 -1.791434437036514282e-01 2.068765759468078613e-01 -1.522765159606933594e-01 -1.483390182256698608e-01 9.817918390035629272e-02 6.290732324123382568e-02 2.725698985159397125e-02 4.818706214427947998e-02 1.473969072103500366e-01 9.980262815952301025e-02 1.251331120729446411e-01 -9.182882308959960938e-02 -1.662849038839340210e-01 -9.152032434940338135e-02 -1.000941265374422073e-02 2.421851307153701782e-01 -1.727937161922454834e-01 -1.725639700889587402e-01 -1.496210992336273193e-01 1.210395172238349915e-01 -1.553980708122253418e-01 -4.451451078057289124e-02 -5.991375818848609924e-02 2.024547606706619263e-01 1.732328832149505615e-01 -1.845732629299163818e-01 -1.608277261257171631e-01 9.701207280158996582e-02 1.749179065227508545e-01 4.775089398026466370e-02 1.791846305131912231e-01 -1.610907018184661865e-01 1.866536289453506470e-01 4.786166176199913025e-02 -2.436090633273124695e-02 -2.009818404912948608e-01 5.455583333969116211e-02 -8.272449672222137451e-02 1.397122144699096680e-01 5.093789100646972656e-02 1.879846006631851196e-01 -1.735783368349075317e-01 -1.081725582480430603e-01 -1.538372337818145752e-01 -4.984440654516220093e-02 4.233754053711891174e-02 -1.430571675300598145e-01 -4.041260108351707458e-03 -1.780969351530075073e-01 -1.899001896381378174e-01 -1.641155630350112915e-01 -2.065605074167251587e-01 3.761545941233634949e-02 1.231508255004882812e-01 -1.106330286711454391e-02 -1.988250464200973511e-01 -2.104962915182113647e-01 -1.667904555797576904e-01 -9.856185317039489746e-02 -8.271310478448867798e-02 -1.187560781836509705e-01 1.731223240494728088e-02 2.207442931830883026e-02 7.707034051418304443e-02 -2.354325354099273682e-01 1.002480387687683105e-01 -7.848063856363296509e-02 1.680544465780258179e-01 1.097470000386238098e-01 -1.164673417806625366e-01 1.518507152795791626e-01 3.793534636497497559e-02 -1.401233077049255371e-01 -9.135731309652328491e-02 1.189901158213615417e-01 6.751456856727600098e-02 -1.023617312312126160e-01 -6.448984146118164062e-02 7.812634110450744629e-02 -9.004157781600952148e-02 1.717952191829681396e-01 7.719917595386505127e-02 1.605751458555459976e-05 -1.188639551401138306e-02 5.548553168773651123e-02 -9.496808797121047974e-02 -1.949561201035976410e-02 -1.830063164234161377e-01 -9.306029230356216431e-02 1.628168225288391113e-01 -1.248900517821311951e-01 2.758040465414524078e-02 1.759968996047973633e-01 -9.248515218496322632e-02 -4.998907819390296936e-02 6.079786922782659531e-03 8.731744438409805298e-02 8.839677274227142334e-02 8.311387896537780762e-02 -1.109352707862854004e-01 4.346682503819465637e-02 1.035587489604949951e-01 2.284952849149703979e-01 -2.240793406963348389e-01 1.539713144302368164e-01 1.622563302516937256e-01 1.237349212169647217e-01 -1.223107427358627319e-01 1.768478751182556152e-02 -5.513865873217582703e-02 -2.182251811027526855e-01 -1.559516638517379761e-01 -2.999090775847434998e-02 -1.290690004825592041e-01 2.120859026908874512e-01 1.594694852828979492e-01 2.120518982410430908e-01 1.754608750343322754e-01 -1.279220730066299438e-01 -1.374618709087371826e-01 4.198132827877998352e-02 1.681606471538543701e-01 -1.906971782445907593e-01 -8.421155810356140137e-02 -1.411273032426834106e-01 1.716290116310119629e-01 1.378915160894393921e-01 -1.539751142263412476e-01 -1.317283660173416138e-01 1.898677200078964233e-01 -1.367655396461486816e-01 1.787732392549514771e-01 4.556104540824890137e-02 6.488990783691406250e-02 7.329750061035156250e-02 2.155095189809799194e-01 -9.668061882257461548e-02 -1.214946899563074112e-02 -8.077384531497955322e-02 2.554794214665889740e-02 1.519719958305358887e-01 -3.794124722480773926e-02 1.915288418531417847e-01 -3.341691941022872925e-02 3.965346887707710266e-02 -1.217887327075004578e-01 -2.377290129661560059e-01 1.907261461019515991e-01 -8.504712581634521484e-02 -1.934923790395259857e-02 -7.665047794580459595e-02 1.316030919551849365e-01 -5.904513970017433167e-02 7.801601290702819824e-02 -1.250877380371093750e-01 -6.213477347046136856e-03 -1.537734121084213257e-01 -1.197694465517997742e-01 4.275057464838027954e-02 -1.520633697509765625e-01 1.942767500877380371e-01 7.449202984571456909e-02 -1.361103802919387817e-01 9.071017801761627197e-02 1.626597791910171509e-01 1.618177890777587891e-01 1.660508811473846436e-01 1.757336556911468506e-01 -8.745844662189483643e-02 4.852718114852905273e-02 1.323928683996200562e-01 -2.631249651312828064e-02 -7.137981802225112915e-02 1.217135041952133179e-01 1.553240865468978882e-01 -1.033508181571960449e-01 -7.111641764640808105e-02 -1.221993565559387207e-02 -1.453199684619903564e-01 -6.723200529813766479e-02 1.712069511413574219e-01 1.536233276128768921e-01 5.583113431930541992e-02 -2.230598777532577515e-02 3.713356330990791321e-02 1.185102015733718872e-01 4.230108461342751980e-04 -2.170337587594985962e-01 -8.418577164411544800e-02 1.299710664898157120e-02 2.991368994116783142e-02 -1.488395780324935913e-01 -1.731152087450027466e-01 -1.913416683673858643e-01 -1.312534362077713013e-01 4.331962764263153076e-02 -1.314612478017807007e-01 4.325692076236009598e-03 -1.380609720945358276e-01 4.342529922723770142e-02 -1.216986104846000671e-01 -1.071247621439397335e-03 2.426052233204245567e-03 1.410731673240661621e-01 -1.940893083810806274e-01 1.099863797426223755e-01 1.801993846893310547e-01 -6.310502998530864716e-03 1.834427267313003540e-01 -1.070026606321334839e-01 -1.051563099026679993e-01 -6.202666461467742920e-02 -1.687254458665847778e-01 1.599764227867126465e-01 1.934984028339385986e-01 3.057219646871089935e-02 -6.027019768953323364e-02 -2.675297260284423828e-01 -4.846841469407081604e-02 9.485644847154617310e-02 1.344041079282760620e-01 -7.489559054374694824e-02 -4.143398255109786987e-03 -1.898295879364013672e-01 5.668358877301216125e-02 -1.399205029010772705e-01 1.754219383001327515e-01 -9.026569873094558716e-02 -1.250381320714950562e-01 -1.485606729984283447e-01 -1.186556369066238403e-01 -2.042248845100402832e-02 -1.922901272773742676e-01 1.746812164783477783e-01 1.538619399070739746e-01 -4.687541630119085312e-03 1.622317582368850708e-01 -3.669886663556098938e-02 7.692810893058776855e-02 -1.415116190910339355e-01 1.631044596433639526e-01 5.601385235786437988e-02 -1.529459208250045776e-01 -6.864213384687900543e-03 1.255459338426589966e-01 2.165037542581558228e-01 6.897285580635070801e-02 -1.823077648878097534e-01 -1.290080696344375610e-01 1.507279127836227417e-01 1.468085348606109619e-01 -1.401347219944000244e-01 -1.475829482078552246e-01 1.727721840143203735e-01 8.656305074691772461e-02 -2.019275277853012085e-01 -1.999842524528503418e-01 1.475988775491714478e-01 -1.781796477735042572e-02 1.090603098273277283e-01 -8.382514119148254395e-02 9.606710821390151978e-02 -4.178573563694953918e-02 -1.741759926080703735e-01 1.011421903967857361e-01 -1.150380820035934448e-02 4.718920961022377014e-02 -7.977294176816940308e-02 -9.136960655450820923e-02 -3.895099461078643799e-02 3.940962627530097961e-02 6.834312528371810913e-02 1.116523519158363342e-01 -1.939211040735244751e-01 9.194319695234298706e-02 -1.254736930131912231e-01 1.123863235116004944e-01 -7.113547623157501221e-02 -4.721784591674804688e-02 7.126615196466445923e-02 3.471917286515235901e-02 1.105482876300811768e-01 4.548233747482299805e-02 8.737004548311233521e-02 -2.398985251784324646e-02 1.407629996538162231e-01 1.082941982895135880e-02 -5.943722650408744812e-02 -4.850273951888084412e-02 -7.034706324338912964e-02 9.995171427726745605e-02 -8.207289129495620728e-02 2.016020566225051880e-01 1.017992943525314331e-01 -4.250172525644302368e-03 -1.559304893016815186e-01 1.006081625819206238e-01 7.145254313945770264e-02 6.692356616258621216e-02 3.760882094502449036e-02 -2.348355799913406372e-01 1.462326794862747192e-01 -1.742587983608245850e-02 -9.203310124576091766e-03 8.115536719560623169e-02 -9.050102904438972473e-03 1.085637435317039490e-01 -6.927666813135147095e-02 8.400343358516693115e-02 1.215874254703521729e-01 4.053544998168945312e-02 1.468041539192199707e-01 -2.121140994131565094e-02 -1.163550186902284622e-02 -1.195267066359519958e-01 -2.524534240365028381e-02 -2.112470380961894989e-02 -1.369171142578125000e-01 1.397857367992401123e-01 1.857510358095169067e-01 1.302606463432312012e-01 2.286495566368103027e-01 1.148018464446067810e-01 1.885001659393310547e-01 -6.096478179097175598e-02 -2.062221765518188477e-01 1.690133512020111084e-01 3.088044561445713043e-02 8.473661541938781738e-02 -8.985558524727821350e-03 -2.310331165790557861e-02 
9.851872920989990234e-01 9.856250882148742676e-01 9.675213098526000977e-01 9.980139136314392090e-01 1.034207463264465332e+00 9.474683403968811035e-01 1.045044541358947754e+00 1.053938746452331543e+00 
-1.973017677664756775e-02 -1.242222497239708900e-03 -2.684970758855342865e-02 2.941967174410820007e-02 7.760967314243316650e-02 2.879713289439678192e-02 3.702620416879653931e-02 4.452659562230110168e-02 
3.228772878646850586e-01 -1.472339481115341187e-01 -3.666263772174715996e-03 -1.847701072692871094e-01 -3.440498411655426025e-01 3.132995963096618652e-01 -3.557635545730590820e-01 2.133543193340301514e-01 
3.661102950572967529e-01 4.192247390747070312e-01 5.744191408157348633e-01 4.502871334552764893e-01 8.677524924278259277e-01 4.185370802879333496e-01 6.847480535507202148e-01 2.679847478866577148e-01 
1.154684424400329590e-01 1.415613740682601929e-01 9.213334321975708008e-02 1.071763485670089722e-01 2.458958700299263000e-02 1.467230319976806641e-01 7.008559256792068481e-02 -1.899732053279876709e-01 1.754025928676128387e-02 -1.591608971357345581e-01 3.512018918991088867e-02 7.068724930286407471e-02 9.735173732042312622e-02 -4.335817322134971619e-02 2.182743102312088013e-01 1.526092439889907837e-01 2.581153064966201782e-02 1.031311787664890289e-02 -1.273609101772308350e-01 2.357717975974082947e-02 -8.386012166738510132e-02 2.067846059799194336e-01 3.751496225595474243e-02 1.847417950630187988e-01 5.124161392450332642e-02 -2.485783584415912628e-02 9.195623546838760376e-02 -1.161069720983505249e-01 -1.253303438425064087e-01 6.240968592464923859e-03 1.245240680873394012e-02 -1.043667569756507874e-01 1.640304028987884521e-01 5.258310958743095398e-02 -1.480310261249542236e-01 2.014486677944660187e-02 -4.714223369956016541e-02 -9.247658401727676392e-02 -2.531598806381225586e-01 -6.714130192995071411e-02 8.031371980905532837e-02 1.932581812143325806e-01 9.153593331575393677e-02 -1.329705026000738144e-02 2.074562162160873413e-01 -1.134192869067192078e-01 2.004964090883731842e-02 -4.991374909877777100e-02 1.720991358160972595e-02 4.051931202411651611e-02 -1.042204722762107849e-01 9.806032478809356689e-02 -2.706208452582359314e-02 -8.324736356735229492e-02 -1.478496193885803223e-01 2.775363437831401825e-02 -2.010805457830429077e-01 9.445267170667648315e-02 -1.804871112108230591e-01 -2.466671913862228394e-02 1.269437968730926514e-01 6.585342437028884888e-02 -4.102361388504505157e-03 -1.017609536647796631e-01 -9.730516374111175537e-02 -2.713814005255699158e-02 -4.547524079680442810e-02 2.371782436966896057e-02 -9.704411774873733521e-02 3.382723033428192139e-02 -1.325619667768478394e-01 -4.180569201707839966e-02 1.302292943000793457e-01 1.465498842298984528e-02 -1.171261966228485107e-01 2.223862260580062866e-01 1.399549990892410278e-01 1.077401172369718552e-02 -1.854663155972957611e-02 1.920410990715026855e-01 -1.312099248170852661e-01 -3.108333051204681396e-02 -2.094427049160003662e-01 -9.845837950706481934e-02 -3.265133500099182129e-02 -1.757830828428268433e-01 1.125518530607223511e-01 -1.918987333774566650e-01 -6.460675597190856934e-02 1.149693876504898071e-01 -1.088374992832541466e-03 -1.292713284492492676e-01 -1.582430303096771240e-01 1.160801276564598083e-01 1.292890012264251709e-01 7.569436915218830109e-03 -8.574136346578598022e-02 1.415420621633529663e-01 -1.782550066709518433e-01 -5.453488230705261230e-02 1.151275858283042908e-01 -1.697878837585449219e-01 -1.864261627197265625e-01 -2.798007102683186531e-03 1.497639119625091553e-01 -8.668662607669830322e-02 -1.147539913654327393e-01 -6.032874435186386108e-02 -1.991065740585327148e-01 1.563236266374588013e-01 -1.715528070926666260e-01 -6.801971793174743652e-02 1.174199059605598450e-01 -9.408367425203323364e-02 5.762263014912605286e-02 3.642892464995384216e-02 2.677445672452449799e-02 -1.279668360948562622e-01 3.612284734845161438e-02 -1.957431063055992126e-02 1.697568595409393311e-01 1.560336798429489136e-01 -1.416292637586593628e-01 4.550379514694213867e-02 1.433909684419631958e-01 1.945468187332153320e-01 1.426069885492324829e-01 -6.273146718740463257e-02 1.591577976942062378e-01 -4.326793923974037170e-02 -1.506921052932739258e-01 -8.396647870540618896e-03 -1.682261228561401367e-01 -2.284636944532394409e-01 1.992845088243484497e-01 -1.084701418876647949e-01 -1.442553251981735229e-01 8.865041285753250122e-02 1.593391597270965576e-01 2.665225788950920105e-02 -4.251492768526077271e-02 1.669872105121612549e-01 -1.318771243095397949e-01 -9.597536176443099976e-02 -3.347000107169151306e-02 -1.542246490716934204e-01 1.855300962924957275e-01 -5.961968749761581421e-02 -4.165360704064369202e-02 -1.621239930391311646e-01 1.881590783596038818e-01 -7.776496559381484985e-02 3.908602148294448853e-02 8.012279868125915527e-02 -4.919583722949028015e-02 5.726131424307823181e-02 6.315216422080993652e-02 1.232624277472496033e-01 -1.477516144514083862e-01 -4.830465093255043030e-02 5.444342736154794693e-03 -8.075536042451858521e-02 -7.868925482034683228e-02 -1.491937935352325439e-01 2.086960244923830032e-03 1.131612882018089294e-01 -8.539675176143646240e-02 6.327078491449356079e-02 -6.574080139398574829e-02 -9.762638807296752930e-02 1.453844457864761353e-01 -1.190402209758758545e-01 -3.088311105966567993e-02 6.965219974517822266e-02 -1.356505602598190308e-01 -1.339441388845443726e-01 -1.401647627353668213e-01 -2.365781813859939575e-01 2.347105927765369415e-02 1.273827105760574341e-01 -6.429962068796157837e-02 -1.897427737712860107e-01 1.265981197357177734e-01 4.523729439824819565e-03 -9.162183851003646851e-02 1.554385125637054443e-01 7.335769385099411011e-02 6.053271144628524780e-02 1.032597012817859650e-02 2.040484249591827393e-01 1.873958855867385864e-01 -4.321395233273506165e-02 -1.599768847227096558e-01 -1.409104019403457642e-01 -2.115760929882526398e-02 4.193128645420074463e-02 1.689345538616180420e-01 -1.642590016126632690e-01 1.695280671119689941e-01 1.236498057842254639e-01 -5.469020456075668335e-02 4.925355315208435059e-03 1.605188399553298950e-01 2.865283936262130737e-02 -5.266033858060836792e-02 1.354662515223026276e-02 -7.343739271163940430e-02 1.260465085506439209e-01 -1.349362134933471680e-01 1.604056805372238159e-01 -3.383609652519226074e-02 -1.105170026421546936e-01 -6.436024606227874756e-02 1.466465145349502563e-01 5.030243098735809326e-02 -6.621805578470230103e-02 -8.648827672004699707e-02 -5.890204757452011108e-02 1.342783272266387939e-01 1.299932450056076050e-01 -1.059288233518600464e-01 2.705387957394123077e-02 -1.480404883623123169e-01 3.821995481848716736e-02 1.292435377836227417e-01 4.723509401082992554e-02 -3.694159537553787231e-02 -8.053238689899444580e-02 -3.317872062325477600e-02 -1.573764234781265259e-01 1.582152023911476135e-02 -7.731796056032180786e-02 1.649184674024581909e-01 -2.492823451757431030e-02 -1.716735512018203735e-01 -9.410054981708526611e-02 1.389362104237079620e-02 -1.864996403455734253e-01 1.842341125011444092e-01 -1.091017946600914001e-01 -2.425466477870941162e-02 -1.521152108907699585e-01 1.234688311815261841e-01 -1.822468638420104980e-01 -3.688489273190498352e-02 3.939205408096313477e-02 -5.828047171235084534e-02 2.285469174385070801e-01 -8.119598031044006348e-02 2.162472009658813477e-01 1.147186309099197388e-01 1.645589619874954224e-01 1.706037670373916626e-01 1.259747892618179321e-01 -1.676088199019432068e-02 -1.307276934385299683e-01 -4.183195903897285461e-02 -8.558795601129531860e-02 -1.732473075389862061e-01 -1.694896072149276733e-01 9.239679574966430664e-02 -2.395880408585071564e-02 -3.848520666360855103e-02 7.489674538373947144e-02 1.130324080586433411e-01 -7.948225736618041992e-02 1.836672797799110413e-02 -2.013032287359237671e-01 -3.731218352913856506e-02 -1.493688225746154785e-01 1.407346427440643311e-01 1.148375421762466431e-01 1.273243222385644913e-02 2.827256917953491211e-02 3.539174795150756836e-02 8.750855177640914917e-02 -2.384341359138488770e-01 -3.350350260734558105e-02 4.572314023971557617e-02 1.308759599924087524e-01 2.707461128011345863e-03 5.583597347140312195e-02 2.056311219930648804e-01 -2.338478341698646545e-02 9.991372376680374146e-02 -3.692369163036346436e-02 6.372100859880447388e-02 -1.135375350713729858e-01 2.623228169977664948e-02 1.092699170112609863e-01 5.301946774125099182e-02 2.781665418297052383e-03 -8.121565729379653931e-02 -6.653822213411331177e-02 2.813681215047836304e-02 -9.230089932680130005e-02 1.410642415285110474e-01 1.532787233591079712e-01 1.199817582964897156e-01 -1.499437093734741211e-01 1.476239413022994995e-01 8.300388604402542114e-02 -1.408615112304687500e-01 8.622228354215621948e-02 6.674191914498806000e-03 9.341856837272644043e-02 1.132620498538017273e-01 -1.800967454910278320e-01 2.311327867209911346e-02 -1.496736519038677216e-02 -7.567821443080902100e-02 -1.337632536888122559e-01 1.147358193993568420e-01 1.574776172637939453e-01 -2.287000603973865509e-02 9.938251972198486328e-02 1.406887620687484741e-01 4.840832203626632690e-02 1.032188236713409424e-01 -2.445435896515846252e-02 1.382046788930892944e-01 -1.399245262145996094e-01 -1.874654591083526611e-01 1.665154658257961273e-02 9.926620125770568848e-02 -2.107996940612792969e-01 1.529316306114196777e-01 -5.670390650629997253e-02 -2.105587720870971680e-01 -9.042520076036453247e-03 -8.369729667901992798e-02 -1.290938109159469604e-01 -8.540335297584533691e-02 -8.122551441192626953e-02 -1.810405850410461426e-01 -3.803485259413719177e-02 -2.150582671165466309e-01 -1.036835461854934692e-02 -1.107159480452537537e-01 8.318804204463958740e-02 -2.280298992991447449e-02 -5.017141345888376236e-03 1.767073869705200195e-01 -1.290230080485343933e-02 1.341013312339782715e-01 -1.297551952302455902e-02 -2.031397521495819092e-01 1.137919500470161438e-01 -2.827288769185543060e-02 -2.021824419498443604e-01 -8.546095341444015503e-02 1.722893267869949341e-01 1.636191755533218384e-01 -1.962493062019348145e-01 7.676813751459121704e-02 -4.395578429102897644e-02 -7.072659581899642944e-02 -1.833418011665344238e-01 1.294898390769958496e-01 4.055376723408699036e-02 6.449951231479644775e-02 -2.000384926795959473e-01 1.615610271692276001e-01 2.362509816884994507e-02 -3.336111828684806824e-02 1.397315412759780884e-01 1.509169936180114746e-01 -1.519867330789566040e-01 1.334511302411556244e-02 -1.820738613605499268e-01 9.429631754755973816e-03 2.497109770774841309e-02 7.760543376207351685e-02 7.611664012074470520e-03 2.317496091127395630e-01 1.484859287738800049e-01 -2.991681545972824097e-02 -2.403379231691360474e-02 -1.474720388650894165e-01 -1.747302114963531494e-01 1.168255973607301712e-02 -1.242605447769165039e-01 7.971467822790145874e-02 -2.222049683332443237e-01 4.398784786462783813e-02 -8.702173829078674316e-02 1.503287106752395630e-01 -8.505992591381072998e-02 4.062163457274436951e-02 1.923333480954170227e-02 5.375200882554054260e-02 -1.405445933341979980e-01 1.990175060927867889e-02 1.765569671988487244e-02 -2.104234993457794189e-01 -7.273339480161666870e-02 1.277612298727035522e-01 9.278043359518051147e-02 1.712413430213928223e-01 -4.131871089339256287e-02 1.107179000973701477e-01 2.027553319931030273e-01 1.550392359495162964e-01 -1.267873346805572510e-01 -1.542644924484193325e-03 1.963338442146778107e-02 2.914019487798213959e-02 -8.494679629802703857e-02 1.267722845077514648e-01 1.021906509995460510e-01 -2.145354449748992920e-01 -2.298021465539932251e-01 -3.886498045176267624e-03 1.421201378107070923e-01 -6.317548453807830811e-02 -2.381562069058418274e-02 5.354896560311317444e-02 -1.123154535889625549e-01 -1.769372522830963135e-01 7.595485448837280273e-02 5.296396836638450623e-02 1.207495480775833130e-02 1.862551718950271606e-01 -6.757255643606185913e-02 -2.180411070585250854e-01 -1.428408771753311157e-01 1.656732112169265747e-01 -1.520046889781951904e-01 2.015663078054785728e-03 3.684944659471511841e-02 -1.768542826175689697e-01 -1.861532628536224365e-01 1.210136190056800842e-01 1.616861969232559204e-01 -1.432632803916931152e-01 -2.904323861002922058e-02 -1.912298202514648438e-01 1.556968837976455688e-01 4.143765568733215332e-02 -1.252830624580383301e-01 7.356290519237518311e-02 7.195997238159179688e-02 2.691317582502961159e-03 -6.042837630957365036e-03 6.472096592187881470e-02 6.598345935344696045e-02 1.250309590250253677e-02 4.708923026919364929e-02 4.934944584965705872e-02 1.264804750680923462e-01 -5.027832835912704468e-02 -5.712337419390678406e-02 -5.721873138099908829e-03 1.594315469264984131e-01 8.671613782644271851e-02 -1.429486423730850220e-01 -1.058783456683158875e-01 -2.647388353943824768e-02 -1.577153503894805908e-01 1.530892215669155121e-02 -1.077779233455657959e-01 2.540006674826145172e-02 -3.096882998943328857e-02 1.742946207523345947e-01 1.735672652721405029e-01 -1.635543107986450195e-01 1.332094054669141769e-02 -6.586553901433944702e-02 -5.637642368674278259e-02 6.638139486312866211e-02 -6.867046002298593521e-03 1.005051359534263611e-01 -1.410883963108062744e-01 -1.489491611719131470e-01 -9.841835498809814453e-02 1.055799201130867004e-01 1.024617180228233337e-01 -6.348061561584472656e-02 6.025656312704086304e-02 1.179607585072517395e-01 5.317495763301849365e-02 -1.051361262798309326e-01 1.550013870000839233e-01 -1.324365194886922836e-02 -4.371317103505134583e-02 1.116510331630706787e-01 2.052830308675765991e-01 2.243571877479553223e-01 -1.469963937997817993e-01 -7.306727766990661621e-02 -1.278156638145446777e-01 -1.244365349411964417e-01 -1.689180433750152588e-01 1.568738818168640137e-01 -5.601575225591659546e-02 4.117628186941146851e-02 1.341116726398468018e-01 -9.014543145895004272e-02 -1.597678475081920624e-02 7.213952392339706421e-02 8.505585789680480957e-02 -1.414078325033187866e-01 -1.340624392032623291e-01 1.501772403717041016e-01 1.925724148750305176e-01 -9.016130119562149048e-02 1.800377070903778076e-01 1.354559883475303650e-02 1.165196895599365234e-01 9.806871414184570312e-02 -1.444513797760009766e-01 2.055079340934753418e-01 -1.648087203502655029e-01 1.250702291727066040e-01 1.300142407417297363e-01 1.514164507389068604e-01 6.078537553548812866e-02 -2.191051691770553589e-01 -1.429096013307571411e-01 -8.888667821884155273e-02 4.397950321435928345e-02 -2.011492848396301270e-01 1.202418431639671326e-01 -2.101672254502773285e-02 -1.169039607048034668e-01 -2.039009630680084229e-01 5.778902396559715271e-02 -9.640034288167953491e-02 -2.207746058702468872e-01 2.585785649716854095e-02 -1.670996099710464478e-01 1.339269522577524185e-02 -1.317044496536254883e-01 -1.178886145353317261e-01 2.769710496068000793e-02 -6.075056269764900208e-03 1.097131073474884033e-01 7.725277543067932129e-02 1.968831717967987061e-01 -1.679776310920715332e-01 4.605064541101455688e-02 -1.269726157188415527e-01 -1.377968192100524902e-01 1.421559751033782959e-01 -7.357414811849594116e-02 -2.077662199735641479e-01 -1.780776828527450562e-01 1.824684143066406250e-01 -2.164806053042411804e-02 -1.131158545613288879e-01 1.449145376682281494e-01 -1.748675554990768433e-01 1.551386564970016479e-01 9.636392444372177124e-02 8.802815526723861694e-02 8.168541640043258667e-02 1.149912644177675247e-02 1.654858738183975220e-01 1.375639438629150391e-01 -3.409011662006378174e-02 8.274604380130767822e-02 2.719451673328876495e-02 1.349775046110153198e-01 6.100863963365554810e-02 1.015555933117866516e-01 -3.654960170388221741e-02 -1.723439199849963188e-03 1.493467688560485840e-01 1.098739877343177795e-01 -7.349561899900436401e-02 1.006032451987266541e-01 7.400566246360540390e-03 1.423704326152801514e-01 1.492636203765869141e-01 1.290342360734939575e-01 -4.497030284255743027e-03 
9.775703549385070801e-01 9.650899767875671387e-01 9.673752188682556152e-01 1.053875446319580078e+00 9.951652288436889648e-01 1.006922483444213867e+00 9.928938150405883789e-01 9.948061108589172363e-01 
2.700277790427207947e-02 -8.119623176753520966e-03 -6.020824611186981201e-02 6.633102893829345703e-02 1.627259515225887299e-02 -1.144360052421689034e-03 4.680750425904989243e-03 -3.704818338155746460e-02 
1.001447141170501709e-01 6.319680251181125641e-03 -1.639165133237838745e-01 -1.010397076606750488e-01 -1.617117822170257568e-01 -9.222525358200073242e-02 1.705414503812789917e-01 2.662607729434967041e-01 
1.959032416343688965e-01 6.666035652160644531e-01 3.003260791301727295e-01 2.609998583793640137e-01 4.667555987834930420e-01 5.604780316352844238e-01 2.044367492198944092e-01 5.051773190498352051e-01 
5.307008698582649231e-02 -1.302490681409835815e-01 1.333986222743988037e-01 1.633694618940353394e-01 1.792895495891571045e-01 -1.135193929076194763e-01 1.687877178192138672e-01 -1.493903845548629761e-01 5.585558712482452393e-02 2.151838503777980804e-02 -1.186677142977714539e-01 -6.913543492555618286e-02 -1.548863649368286133e-01 -9.026910364627838135e-02 -1.416701078414916992e-01 1.064540669322013855e-01 -8.394905179738998413e-02 1.582828015089035034e-01 -4.656197503209114075e-02 2.058927565813064575e-01 -3.735180199146270752e-02 -9.963203221559524536e-02 2.303193882107734680e-02 -1.319929361343383789e-01 -1.349723190069198608e-01 1.901193857192993164e-01 -4.090461507439613342e-02 -4.720653966069221497e-02 1.545669734477996826e-01 1.772447377443313599e-01 -1.397932469844818115e-01 -4.025445878505706787e-02 -4.797345027327537537e-02 1.726612746715545654e-01 4.351267218589782715e-02 -1.177114620804786682e-01 -1.632288098335266113e-01 -1.499652117490768433e-01 -7.421295344829559326e-02 1.057584956288337708e-01 2.168881446123123169e-01 -1.409854441881179810e-01 3.595398738980293274e-02 1.481683552265167236e-01 3.417257219552993774e-02 -1.934518665075302124e-01 -3.678868710994720459e-02 9.717962145805358887e-02 -1.596557796001434326e-01 -1.119124889373779297e-01 3.120530955493450165e-02 7.563234865665435791e-02 2.097596973180770874e-01 4.982901364564895630e-02 1.101868897676467896e-01 -1.188018396496772766e-01 4.278706386685371399e-02 -6.642027944326400757e-02 -2.170139364898204803e-02 -4.087783768773078918e-02 5.143212899565696716e-02 1.182503402233123779e-01 -1.407574713230133057e-01 1.751573383808135986e-01 2.015282213687896729e-01 6.947571039199829102e-02 -9.501349925994873047e-02 1.246126964688301086e-01 3.173966333270072937e-02 -1.941575109958648682e-01 -4.676221683621406555e-02 8.995822072029113770e-02 -1.143145933747291565e-01 -6.974941492080688477e-02 -2.004388719797134399e-01 -6.464090198278427124e-02 6.651990860700607300e-02 5.768683552742004395e-02 1.504426300525665283e-01 -2.021007984876632690e-02 5.524873360991477966e-02 -1.678717732429504395e-01 2.259748242795467377e-02 -1.170286238193511963e-01 2.896265126764774323e-02 -3.592620790004730225e-02 1.133043393492698669e-01 -7.193882763385772705e-02 -1.369432061910629272e-01 -1.887209564447402954e-01 -1.599430292844772339e-01 -2.714946307241916656e-02 2.256457228213548660e-03 9.512123465538024902e-02 2.007457427680492401e-02 -8.292645215988159180e-02 -8.875287324190139771e-02 1.475954651832580566e-01 -1.552946567535400391e-01 8.764173090457916260e-02 -6.172854825854301453e-02 -1.596000939607620239e-01 7.408233731985092163e-02 -1.005369052290916443e-01 4.384180530905723572e-02 1.029702648520469666e-01 1.084197312593460083e-01 -1.103247702121734619e-01 -1.138195842504501343e-01 -5.120753124356269836e-02 -1.017327457666397095e-01 5.950114130973815918e-02 1.464449912309646606e-01 1.708451658487319946e-02 3.738226369023323059e-02 7.023032754659652710e-02 4.802571237087249756e-02 -1.374542415142059326e-01 5.655200779438018799e-02 8.199579268693923950e-02 1.116696968674659729e-01 1.562711000442504883e-01 1.199694126844406128e-01 1.581043601036071777e-01 -2.231306880712509155e-01 3.009152226150035858e-02 -1.530071604065597057e-03 5.878619104623794556e-02 -1.353307720273733139e-02 -1.537484079599380493e-01 -4.118747264146804810e-02 -1.386576741933822632e-01 -3.692154213786125183e-02 1.179808080196380615e-01 -1.880349069833755493e-01 1.700170636177062988e-01 1.159421205520629883e-01 -8.454257249832153320e-02 5.633997917175292969e-02 3.253579884767532349e-02 -5.305467918515205383e-02 7.358671724796295166e-02 1.121489107608795166e-01 -5.187826231122016907e-02 -8.207418024539947510e-02 -2.141857892274856567e-01 -5.668652802705764771e-02 1.089609637856483459e-01 1.284063309431076050e-01 -1.599172875285148621e-02 6.278814375400543213e-02 -1.180077567696571350e-01 -7.656821608543395996e-02 -7.892949879169464111e-02 -1.094559486955404282e-02 -1.777247339487075806e-01 1.185928806662559509e-01 1.238550767302513123e-01 1.016959920525550842e-01 1.161957234144210815e-01 1.467539221048355103e-01 1.327826529741287231e-01 1.661548912525177002e-01 1.461509913206100464e-01 5.108080431818962097e-02 -1.019341200590133667e-01 1.183030754327774048e-02 -2.952017262578010559e-02 6.519293785095214844e-02 1.216886118054389954e-01 8.869855105876922607e-02 -2.374059520661830902e-02 1.614462584257125854e-02 1.039092391729354858e-01 2.000724375247955322e-01 1.527525633573532104e-01 1.264096144586801529e-02 -6.825193017721176147e-02 1.861788928508758545e-01 -1.663353592157363892e-01 -1.573357135057449341e-01 9.828410297632217407e-02 -4.695160780102014542e-03 1.360285729169845581e-01 1.716689951717853546e-02 -1.753332167863845825e-01 2.142624258995056152e-01 8.643021434545516968e-02 -6.274266634136438370e-03 -7.424824684858322144e-02 2.222180366516113281e-01 -3.128304332494735718e-02 -6.232580170035362244e-03 7.003846019506454468e-02 6.464770436286926270e-02 1.709355600178241730e-02 2.048103660345077515e-01 9.174433350563049316e-02 -1.089944913983345032e-01 -5.107490345835685730e-02 -2.039301097393035889e-01 -1.187405735254287720e-01 -9.133344143629074097e-02 -1.993659436702728271e-01 -4.456114768981933594e-02 1.494503468275070190e-01 -1.999536901712417603e-01 -1.755839288234710693e-01 -9.409680962562561035e-02 -3.681844845414161682e-02 -6.504676491022109985e-02 -1.505301743745803833e-01 1.563004553318023682e-01 -1.828642934560775757e-01 -1.865940093994140625e-01 -1.230491995811462402e-01 -1.867739260196685791e-01 -1.012270078063011169e-01 -2.176245450973510742e-01 -6.495808064937591553e-02 -1.640063971281051636e-01 -1.899960935115814209e-01 -7.492259889841079712e-02 -1.304994970560073853e-01 1.270186305046081543e-01 1.389762908220291138e-01 1.530385389924049377e-02 -1.489489078521728516e-01 -1.342281699180603027e-01 -1.628058701753616333e-01 -2.380848489701747894e-02 9.622835367918014526e-02 -1.461389362812042236e-01 -1.379956398159265518e-02 -4.340350627899169922e-02 1.802164018154144287e-01 -1.795893013477325439e-01 -1.716129481792449951e-02 -1.873989701271057129e-01 1.805942207574844360e-01 9.481909126043319702e-02 1.686458140611648560e-01 -6.968525052070617676e-02 8.827068842947483063e-03 -1.068857833743095398e-01 -1.381796896457672119e-01 1.918535120785236359e-02 1.248957589268684387e-01 -1.084536463022232056e-01 -1.620201617479324341e-01 1.100501045584678650e-02 5.874313786625862122e-02 1.977275125682353973e-02 -1.508869528770446777e-01 -1.978826820850372314e-01 -5.735535174608230591e-02 -1.780550926923751831e-01 5.835027899593114853e-03 1.484652329236268997e-02 1.042130514979362488e-01 2.061655372381210327e-01 -1.412972509860992432e-01 2.117494866251945496e-02 -2.595835737884044647e-02 3.937885910272598267e-02 9.880240261554718018e-02 1.155734583735466003e-01 -6.685464084148406982e-02 -1.802877187728881836e-01 -1.458663376979529858e-03 7.686476409435272217e-02 -1.065268665552139282e-01 1.377978026866912842e-01 -1.266039907932281494e-01 6.122004985809326172e-02 1.000588685274124146e-01 1.415382176637649536e-01 9.296831488609313965e-02 3.519959002733230591e-02 1.135505363345146179e-01 -4.300229996442794800e-02 -6.276447325944900513e-02 -3.130514547228813171e-02 -1.283710747957229614e-01 -6.254268437623977661e-02 3.710259043145924807e-04 7.014170289039611816e-02 1.813076287508010864e-01 -1.023514270782470703e-01 6.917932536453008652e-03 -1.714022606611251831e-01 7.871368527412414551e-02 1.744395494461059570e-01 -4.016104154288768768e-03 -9.368406981229782104e-02 1.059678718447685242e-01 -8.790292590856552124e-02 7.559711486101150513e-02 -1.204236410558223724e-02 1.599759757518768311e-01 -1.532020140439271927e-02 -8.098660409450531006e-02 1.067625954747200012e-01 8.475560694932937622e-02 -3.460671380162239075e-02 -6.695666164159774780e-02 -1.448482424020767212e-01 9.099038690328598022e-02 2.056234143674373627e-02 -2.198116332292556763e-01 -7.543829083442687988e-02 2.592458575963973999e-02 6.320558488368988037e-02 -1.380011737346649170e-01 1.546360403299331665e-01 5.759802088141441345e-02 -1.857618689537048340e-01 1.000093296170234680e-01 -1.149569675326347351e-01 -1.238412633538246155e-01 -1.032934039831161499e-01 2.720963582396507263e-02 2.102499753236770630e-01 -1.269495189189910889e-01 1.383801084011793137e-02 -1.404013186693191528e-01 -1.129836812615394592e-01 -3.830206021666526794e-02 -1.405951380729675293e-01 -1.944145113229751587e-01 -1.265572309494018555e-01 1.836158782243728638e-01 -7.934474945068359375e-02 2.310509979724884033e-01 -1.502520292997360229e-01 8.909139782190322876e-02 -1.898488253355026245e-01 -1.389185935258865356e-01 6.739181280136108398e-02 -1.182896941900253296e-01 -1.432117521762847900e-01 1.318845152854919434e-01 -2.153117358684539795e-01 -5.635126680135726929e-02 -1.014308929443359375e-01 1.812917143106460571e-01 -1.566506475210189819e-01 8.334467560052871704e-02 1.414023488759994507e-01 -8.290732651948928833e-02 1.468752771615982056e-01 -8.473910391330718994e-02 -8.593113720417022705e-02 1.060275882482528687e-01 1.487132906913757324e-01 6.560204178094863892e-02 1.822469010949134827e-02 1.113781780004501343e-01 1.711180359125137329e-01 2.225964367389678955e-01 1.202611178159713745e-01 1.896153688430786133e-01 7.175564020872116089e-02 -1.511969715356826782e-01 -1.886048465967178345e-01 1.782166063785552979e-01 1.888828724622726440e-01 -4.008396062999963760e-03 -1.736471503973007202e-01 -3.413516283035278320e-02 1.831893175840377808e-01 4.539155215024948120e-02 -1.806427538394927979e-01 1.813647300004959106e-01 -1.026475876569747925e-01 -8.109036833047866821e-02 1.342268437147140503e-01 4.440874606370925903e-02 1.557899564504623413e-01 1.660520136356353760e-01 6.465526670217514038e-02 1.412498950958251953e-01 -1.194883957505226135e-01 3.441423922777175903e-02 7.342541217803955078e-02 -5.767614766955375671e-02 -1.455989927053451538e-01 2.035833597183227539e-01 -1.575710773468017578e-01 2.525923401117324829e-02 8.889454603195190430e-02 5.344821140170097351e-02 -1.815387755632400513e-01 -9.894052892923355103e-02 -1.240455582737922668e-01 1.955707222223281860e-01 1.091780364513397217e-01 1.513893995434045792e-02 9.345839172601699829e-02 -1.207731440663337708e-01 -9.032952040433883667e-02 1.960237920284271240e-01 1.533051431179046631e-01 1.454385817050933838e-01 1.954832822084426880e-01 8.796074986457824707e-02 1.754786223173141479e-01 9.250488132238388062e-02 2.034293413162231445e-01 -8.675647526979446411e-02 -1.508626639842987061e-01 5.698389559984207153e-02 -7.078726589679718018e-02 -1.441846340894699097e-01 2.987089380621910095e-02 6.550153344869613647e-02 1.729080528020858765e-01 2.220787294209003448e-02 -1.645527184009552002e-01 -1.221956759691238403e-01 -5.129420012235641479e-02 8.065999299287796021e-02 2.085519768297672272e-02 -4.673128202557563782e-02 -1.787994205951690674e-01 1.038139685988426208e-01 -2.013353258371353149e-02 -1.700149029493331909e-01 -1.715949028730392456e-01 -1.306137889623641968e-01 -5.613428540527820587e-03 1.488680243492126465e-01 5.581974983215332031e-03 1.456851214170455933e-01 -1.642879247665405273e-01 -2.031666785478591919e-01 1.269483566284179688e-01 -4.003883898258209229e-02 -2.362674623727798462e-01 1.563656181097030640e-01 4.290735349059104919e-02 6.152087077498435974e-02 1.596529334783554077e-01 1.209027692675590515e-01 -3.118823282420635223e-02 -2.530360780656337738e-02 8.561111986637115479e-02 1.618641801178455353e-02 -1.168225333094596863e-01 -2.042837589979171753e-01 1.122759282588958740e-01 5.242882668972015381e-02 -1.155632734298706055e-01 8.732859790325164795e-02 7.989209890365600586e-02 -1.362434215843677521e-02 -1.084345951676368713e-01 -4.092511162161827087e-02 -1.212695892900228500e-02 -1.064301058650016785e-01 -1.663146913051605225e-01 6.230327114462852478e-02 1.766502112150192261e-02 -3.287709131836891174e-02 -1.881871223449707031e-01 2.033029198646545410e-01 -8.791323751211166382e-03 -1.886580735445022583e-01 -4.119324311614036560e-02 -5.289433151483535767e-02 -7.128784805536270142e-02 1.080538257956504822e-01 -1.461286842823028564e-01 4.132364690303802490e-02 -1.547560542821884155e-01 1.446446031332015991e-02 1.755746901035308838e-01 1.061070710420608521e-01 -1.703479737043380737e-01 -1.111680716276168823e-01 -2.094670534133911133e-01 1.761927604675292969e-01 1.810437142848968506e-01 -1.880128085613250732e-01 -1.166217625141143799e-01 1.360989511013031006e-01 9.981188923120498657e-02 -1.959174871444702148e-01 7.290819287300109863e-02 5.791056528687477112e-02 4.511365666985511780e-02 -1.225332990288734436e-01 1.808772832155227661e-01 -1.914810836315155029e-01 1.339694559574127197e-01 1.445195227861404419e-01 9.476108103990554810e-02 -1.529672890901565552e-01 2.207179963588714600e-01 5.089744925498962402e-02 -1.450131982564926147e-01 -1.103685572743415833e-01 -7.542198151350021362e-02 7.576419413089752197e-02 -1.182072162628173828e-01 -4.605547711253166199e-02 -4.433327913284301758e-02 -5.893348902463912964e-02 -9.678513556718826294e-02 -1.244700103998184204e-01 1.389778684824705124e-02 -9.191002696752548218e-02 7.966640591621398926e-02 -1.069715619087219238e-01 1.370729506015777588e-01 1.181390434503555298e-01 -1.663812696933746338e-01 8.478108793497085571e-02 -4.724365100264549255e-02 -2.015416510403156281e-02 2.091182768344879150e-01 -9.858635812997817993e-02 -1.444376707077026367e-01 1.498874872922897339e-01 -1.271085292100906372e-01 -1.343195885419845581e-02 1.953172832727432251e-01 1.552571207284927368e-01 9.453449398279190063e-02 -1.329881101846694946e-01 1.254655271768569946e-01 -1.573504507541656494e-01 3.798672184348106384e-02 3.965976461768150330e-02 4.649366810917854309e-02 -7.887358963489532471e-02 4.935197159647941589e-02 -1.444750726222991943e-01 -9.256090223789215088e-02 -7.452479004859924316e-02 7.713936269283294678e-02 -5.481806024909019470e-02 4.583700560033321381e-03 -6.067844480276107788e-02 -1.680868864059448242e-01 1.202989295125007629e-01 -2.032633423805236816e-01 3.645924851298332214e-02 1.303133964538574219e-01 -3.272042050957679749e-02 1.519109159708023071e-01 1.040517687797546387e-01 -2.499315142631530762e-01 -1.650288254022598267e-01 -1.765985786914825439e-01 -1.593294292688369751e-01 -2.154395878314971924e-01 -1.451416909694671631e-01 1.032393798232078552e-01 2.257576771080493927e-02 7.178285717964172363e-02 -7.092964649200439453e-02 -4.919826984405517578e-02 -7.449358701705932617e-02 -8.109612762928009033e-02 1.797558218240737915e-01 1.820294260978698730e-01 3.741189464926719666e-02 2.104209363460540771e-01 1.059972122311592102e-01 -7.690951973199844360e-02 -2.541873790323734283e-02 -5.287790670990943909e-02 9.969028830528259277e-02 -3.519794438034296036e-03 -8.230680227279663086e-02 
1.007984757423400879e+00 9.906801581382751465e-01 9.991593360900878906e-01 9.949942231178283691e-01 1.008604288101196289e+00 1.020908713340759277e+00 9.848729968070983887e-01 1.003136396408081055e+00 
-2.377367764711380005e-02 -4.514666274189949036e-03 9.126735851168632507e-03 -1.017264183610677719e-02 -7.389587163925170898e-02 3.137326240539550781e-02 -3.563445433974266052e-02 -1.273814961314201355e-02 
1.296758502721786499e-01 -1.342331916093826294e-01 1.902300678193569183e-02 -8.405406475067138672e-01 -3.204527199268341064e-01 3.425131738185882568e-01 -2.129440605640411377e-01 -3.814161419868469238e-01 
5.497282743453979492e-01 5.398607850074768066e-01 1.094836950302124023e+00 1.532207012176513672e+00 6.096205711364746094e-01 6.061419844627380371e-01 4.541533291339874268e-01 8.094105720520019531e-01 
1.218064129352569580e-01 1.504100393503904343e-02 -2.380331046879291534e-03 -1.194732040166854858e-01 1.010089926421642303e-02 5.339947342872619629e-02 1.731271147727966309e-01 -1.316100507974624634e-01 -1.804372817277908325e-01 -1.418043375015258789e-01 -1.299741398543119431e-02 -1.316178590059280396e-01 5.252281576395034790e-02 4.474297165870666504e-02 4.025854915380477905e-02 -3.292491286993026733e-02 1.315094623714685440e-02 -1.950614303350448608e-01 -1.399603486061096191e-01 -1.463556289672851562e-01 1.310861408710479736e-01 1.066993400454521179e-01 -4.917639121413230896e-02 -1.504422724246978760e-01 -2.053464017808437347e-02 1.542980670928955078e-01 1.773118227720260620e-01 1.248051375150680542e-01 -1.174123063683509827e-01 1.295051574707031250e-01 -1.694342792034149170e-01 1.151807047426700592e-02 -3.399707749485969543e-02 9.711829014122486115e-03 -1.799511350691318512e-02 -1.985119469463825226e-02 9.653234481811523438e-02 -5.567164346575737000e-02 -3.420433029532432556e-02 9.534960240125656128e-02 -8.633167296648025513e-02 -1.415148377418518066e-02 4.963450878858566284e-02 -9.813502430915832520e-03 1.594823002815246582e-01 -1.369903385639190674e-01 3.045179508626461029e-02 5.471785087138414383e-03 1.581134200096130371e-01 -1.299503445625305176e-01 7.913348823785781860e-02 7.117273658514022827e-02 -5.483156442642211914e-02 1.301192343235015869e-01 1.377431005239486694e-01 -3.297887975350022316e-03 1.131252497434616089e-01 -3.462752699851989746e-02 -1.110278144478797913e-01 3.619832685217261314e-03 9.571290016174316406e-02 -2.067599678412079811e-03 -1.758294999599456787e-01 1.588585227727890015e-01 1.524180769920349121e-01 7.076374441385269165e-02 1.380417048931121826e-01 2.189611345529556274e-01 -1.218130579218268394e-03 7.437032461166381836e-02 -2.134114354848861694e-01 -8.327698707580566406e-02 -2.607309725135564804e-03 -4.932076856493949890e-02 2.123395502567291260e-01 -1.254211664199829102e-01 -1.028631180524826050e-01 1.729627549648284912e-01 3.571813181042671204e-02 -5.946180596947669983e-02 -2.258714102208614349e-02 7.550644874572753906e-02 -3.950887918472290039e-02 7.152498513460159302e-02 -5.261153727769851685e-02 3.038771077990531921e-02 -4.291275888681411743e-02 7.409849017858505249e-02 2.225606143474578857e-01 -1.468662619590759277e-01 -3.699516505002975464e-02 -7.186003029346466064e-02 1.215975657105445862e-01 -1.407583206892013550e-01 1.349888443946838379e-01 -9.650021046400070190e-02 -5.527313798666000366e-02 9.329159557819366455e-02 1.448070406913757324e-01 -1.350721437484025955e-02 1.803190857172012329e-01 -1.234163120388984680e-01 -1.532527618110179901e-02 6.060640141367912292e-02 -2.434566169977188110e-01 2.189391702413558960e-01 5.975976213812828064e-02 -1.673819273710250854e-01 2.369323074817657471e-01 -1.267237514257431030e-01 -1.703226864337921143e-01 -1.907438039779663086e-01 1.251157671213150024e-01 8.133364468812942505e-02 -9.632796794176101685e-02 4.906864836812019348e-02 -1.656261384487152100e-01 4.007863625884056091e-02 -7.909972965717315674e-02 -2.947644516825675964e-02 2.709945477545261383e-02 -4.273076076060533524e-03 8.194942027330398560e-02 -2.783725969493389130e-03 -8.189058303833007812e-02 -1.579938083887100220e-01 -1.955598145723342896e-01 9.976191073656082153e-02 3.659174311906099319e-03 1.124788150191307068e-01 -1.743150800466537476e-01 -8.344688266515731812e-02 1.952137798070907593e-01 1.732222288846969604e-01 2.203929424285888672e-02 2.205394059419631958e-01 1.921856030821800232e-02 -8.432971686124801636e-02 -1.248983889818191528e-01 9.676200896501541138e-02 -6.148950196802616119e-03 -2.302576601505279541e-02 1.255226731300354004e-01 7.336654514074325562e-02 1.058765277266502380e-01 1.186125203967094421e-01 1.227244809269905090e-01 -9.718689322471618652e-02 -5.836657807230949402e-02 1.377033293247222900e-01 8.182591199874877930e-02 -3.901592269539833069e-02 1.101226434111595154e-01 -2.106937766075134277e-02 -1.460933685302734375e-01 -2.662643417716026306e-02 9.583597630262374878e-02 1.299985051155090332e-01 1.007018461823463440e-01 -8.820046484470367432e-02 1.283383220434188843e-01 -2.047695219516754150e-01 1.282931864261627197e-01 -1.556916981935501099e-01 -9.325978904962539673e-02 1.872501820325851440e-01 -4.988335445523262024e-02 -1.819007992744445801e-01 -6.677974015474319458e-02 -1.233190596103668213e-01 8.571056649088859558e-03 2.800187095999717712e-02 -7.693604566156864166e-03 2.708252891898155212e-02 1.781668663024902344e-01 2.168274670839309692e-01 1.685030460357666016e-01 -2.282802611589431763e-01 -1.144853308796882629e-01 1.725497692823410034e-01 7.040150463581085205e-02 -9.729597717523574829e-02 -1.580465883016586304e-01 8.264702558517456055e-02 9.559706784784793854e-03 -1.301885545253753662e-01 -5.986856296658515930e-02 1.666865646839141846e-01 2.354280352592468262e-01 6.492207199335098267e-02 3.839632868766784668e-02 -8.678266406059265137e-02 1.889852732419967651e-01 -2.061361074447631836e-01 3.887370601296424866e-02 -1.061877012252807617e-01 3.887055441737174988e-02 -1.736354529857635498e-01 1.216218769550323486e-01 -5.237785726785659790e-02 1.540930867195129395e-01 -1.021094471216201782e-01 5.973462760448455811e-02 -8.627175539731979370e-02 1.208327561616897583e-01 1.222340166568756104e-01 1.370151489973068237e-01 -1.857979744672775269e-01 -1.219846159219741821e-01 -1.667650490999221802e-01 1.022945344448089600e-01 -1.542515009641647339e-01 -1.383969187736511230e-01 -5.543717369437217712e-02 2.032316625118255615e-01 1.706306338310241699e-01 1.456345617771148682e-01 2.139587551355361938e-01 2.730625122785568237e-02 8.339907228946685791e-02 -3.501693904399871826e-02 -4.011552780866622925e-02 6.640429049730300903e-02 3.235778585076332092e-02 -5.567885818891227245e-05 -3.220775723457336426e-02 -1.573179215192794800e-01 -1.018519401550292969e-01 -1.282655633985996246e-02 -1.729825288057327271e-01 -1.361963301897048950e-01 8.802130818367004395e-02 5.703611299395561218e-02 1.939320564270019531e-02 -1.570406854152679443e-01 -1.326523125171661377e-01 -1.789940595626831055e-01 6.200876832008361816e-02 -1.171282306313514709e-01 -1.230779290199279785e-01 8.337209373712539673e-02 -1.612879633903503418e-01 -8.475800603628158569e-02 6.786740850657224655e-04 1.935573667287826538e-01 1.140742450952529907e-01 -1.834180653095245361e-01 1.056291982531547546e-01 1.546660810708999634e-01 -1.409942656755447388e-01 4.082726687192916870e-02 1.534058749675750732e-01 6.270857900381088257e-02 1.550661921501159668e-01 -1.070936992764472961e-01 -7.103201001882553101e-02 -1.137015372514724731e-01 -1.175466552376747131e-01 8.284100145101547241e-02 7.478332519531250000e-02 -1.157134771347045898e-01 -1.095556393265724182e-01 1.452413946390151978e-01 2.884234301745891571e-02 -1.046231836080551147e-01 2.579022385179996490e-02 1.561796367168426514e-01 1.365684866905212402e-01 1.805984675884246826e-01 -1.820904165506362915e-01 -1.505175083875656128e-01 -5.015846714377403259e-02 -2.564223408699035645e-01 1.062973812222480774e-01 7.327985763549804688e-02 9.999775886535644531e-02 7.991089485585689545e-03 -2.090397179126739502e-01 7.717269659042358398e-02 -2.428204864263534546e-01 1.342108696699142456e-01 -1.116404235363006592e-01 -1.787146925926208496e-01 -1.518054679036140442e-02 1.394546180963516235e-01 1.887991726398468018e-01 -1.188173294067382812e-01 -2.749210596084594727e-01 1.118478104472160339e-01 1.357845496386289597e-02 -1.063778474926948547e-01 7.333365827798843384e-02 -3.447488695383071899e-02 -5.313722044229507446e-02 1.969283446669578552e-02 1.029866710305213928e-01 -1.197048798203468323e-01 -1.520489007234573364e-01 -8.977162092924118042e-02 9.148152917623519897e-02 -8.715537190437316895e-02 1.762599498033523560e-01 9.140186011791229248e-02 -1.891756355762481689e-01 1.193063184618949890e-01 -9.908749908208847046e-02 2.088052928447723389e-01 -1.277097612619400024e-01 1.286356002092361450e-01 -9.011848305817693472e-05 -1.377793252468109131e-01 1.364138722419738770e-02 7.670500874519348145e-02 -2.449754066765308380e-02 2.173197269439697266e-02 -1.978613287210464478e-01 2.950892969965934753e-02 -9.408691525459289551e-02 1.743180155754089355e-01 -1.741529256105422974e-01 -5.393537878990173340e-02 -2.960387058556079865e-02 -1.721110790967941284e-01 5.151720345020294189e-02 -1.801021397113800049e-01 1.250729262828826904e-01 -1.862300187349319458e-02 -6.723649054765701294e-02 -5.059598945081233978e-03 -1.581357717514038086e-01 7.203792035579681396e-02 -9.629288315773010254e-02 9.032138437032699585e-02 4.535451158881187439e-02 1.875048279762268066e-01 -2.097977995872497559e-01 -1.205604448914527893e-01 -1.741134524345397949e-01 1.491086035966873169e-01 -1.085783019661903381e-01 1.055108159780502319e-01 -5.878768861293792725e-02 4.685632139444351196e-02 -3.466119524091482162e-03 1.141952723264694214e-01 3.627240285277366638e-02 -9.298931062221527100e-02 -1.546559762209653854e-02 -1.022477596998214722e-01 1.841786503791809082e-01 1.969809085130691528e-01 1.913301199674606323e-01 8.608783781528472900e-02 -1.367542296648025513e-01 -1.651369184255599976e-01 -2.353146523237228394e-01 -7.661851495504379272e-02 1.870305836200714111e-01 -1.270099729299545288e-01 6.030959263443946838e-02 -8.222091197967529297e-02 9.380866773426532745e-03 1.569761335849761963e-01 -1.811700463294982910e-01 -3.715863451361656189e-03 -7.042081654071807861e-02 -1.949468851089477539e-01 7.302005589008331299e-02 9.164140373468399048e-02 -1.510597020387649536e-01 1.203509643673896790e-01 -1.359093636274337769e-01 9.594075381755828857e-02 1.243516057729721069e-01 7.827761769294738770e-02 -4.700823221355676651e-03 1.507183164358139038e-01 7.948133349418640137e-02 3.911380097270011902e-02 -3.487377241253852844e-02 3.980607911944389343e-02 -9.505809284746646881e-03 -1.371102333068847656e-01 1.705303639173507690e-01 -6.805014610290527344e-02 2.603053674101829529e-02 -1.966826766729354858e-01 6.292884051799774170e-02 -1.328612715005874634e-01 -6.430578976869583130e-02 -1.605221629142761230e-01 -7.138750050216913223e-03 -2.750463783740997314e-02 -1.014105826616287231e-01 1.003274098038673401e-01 1.040657311677932739e-01 1.880322955548763275e-02 9.709560871124267578e-02 1.474013775587081909e-01 1.459150165319442749e-01 -1.182174012064933777e-01 1.634189160540699959e-03 1.397799700498580933e-01 5.592707917094230652e-02 -3.412815928459167480e-02 -1.792324632406234741e-01 2.850896678864955902e-02 -1.221528649330139160e-01 -1.453910022974014282e-01 -2.110771387815475464e-01 -4.022004827857017517e-02 -2.019780427217483521e-01 7.638750225305557251e-02 -6.234477832913398743e-02 6.984380632638931274e-02 1.387944519519805908e-01 1.430031955242156982e-01 -1.158768087625503540e-01 -2.161375135183334351e-01 5.925947055220603943e-02 1.813514828681945801e-01 5.920751392841339111e-02 6.078051775693893433e-02 1.752505004405975342e-01 -1.187774464488029480e-01 5.850213021039962769e-02 -6.780233234167098999e-02 1.640084087848663330e-01 1.674806885421276093e-02 1.316700130701065063e-01 8.252958953380584717e-02 1.440401822328567505e-01 -1.685144305229187012e-01 -1.070548668503761292e-01 -8.922772482037544250e-03 2.883164025843143463e-02 -1.352368481457233429e-02 -2.360393479466438293e-02 -1.290812045335769653e-01 1.853034943342208862e-01 -9.435539692640304565e-02 1.033414900302886963e-01 5.271119624376296997e-02 3.798620030283927917e-02 1.449423879384994507e-01 -1.479657739400863647e-01 -1.536063700914382935e-01 2.101749330759048462e-01 -9.462174773216247559e-02 8.982156962156295776e-02 -6.792077422142028809e-02 -9.666107594966888428e-02 1.484117843210697174e-02 2.125160545110702515e-01 -1.160494312644004822e-01 -1.281085759401321411e-01 1.085378751158714294e-01 1.656412035226821899e-01 3.039415739476680756e-02 -9.187656641006469727e-02 1.952023953199386597e-01 -1.735517978668212891e-01 2.570913732051849365e-02 1.774489693343639374e-02 -1.180292516946792603e-01 -2.472251467406749725e-02 3.242688998579978943e-02 -6.382852047681808472e-02 1.486442238092422485e-01 -1.608503013849258423e-01 -1.465873420238494873e-01 -1.960375905036926270e-01 7.083194702863693237e-02 -1.017762795090675354e-01 -2.387571781873703003e-01 4.625517502427101135e-02 -1.381201744079589844e-01 1.581584960222244263e-01 5.549896508455276489e-02 -1.793246567249298096e-01 5.724770203232765198e-02 -9.908125549554824829e-02 -1.921149492263793945e-01 1.279604434967041016e-01 -9.778769314289093018e-02 -7.632783800363540649e-02 2.711340598762035370e-02 -1.371349543333053589e-01 -1.877310872077941895e-01 -1.298529505729675293e-01 -6.721916794776916504e-02 2.114576660096645355e-02 -1.569371521472930908e-01 -1.502094566822052002e-01 6.134491413831710815e-02 2.196827530860900879e-01 -6.331000477075576782e-02 -1.109746401198208332e-03 5.432922393083572388e-02 -1.658656448125839233e-01 -1.429254114627838135e-01 9.540784358978271484e-02 1.517907232046127319e-01 -1.535078436136245728e-01 3.391864895820617676e-02 -1.749353408813476562e-01 2.160843908786773682e-01 -2.947731316089630127e-02 1.540412008762359619e-01 1.444265693426132202e-01 -2.808007411658763885e-02 -2.738702483475208282e-02 -5.876260623335838318e-02 3.641714109107851982e-03 -5.982602760195732117e-02 -2.270440384745597839e-02 4.235196858644485474e-02 9.473747760057449341e-02 1.816708445549011230e-01 1.775899678468704224e-01 1.495006680488586426e-01 1.396961063146591187e-01 -1.334305852651596069e-01 -1.358927637338638306e-01 2.108909189701080322e-01 -1.077859923243522644e-01 -2.092401087284088135e-01 -1.962263509631156921e-02 -5.168965458869934082e-02 9.428883343935012817e-02 -1.864000558853149414e-01 1.415524035692214966e-01 1.550309807062149048e-01 -1.761065274477005005e-01 1.559984236955642700e-01 1.583869755268096924e-01 -1.825765520334243774e-01 1.306100636720657349e-01 -9.187734127044677734e-02 -2.693999372422695160e-02 -1.735573559999465942e-01 -8.321093022823333740e-02 -1.864745914936065674e-01 -2.543216645717620850e-01 -1.842660456895828247e-01 6.089221313595771790e-02 -1.653183251619338989e-02 1.219454631209373474e-01 3.442057967185974121e-02 1.076325997710227966e-01 1.174916326999664307e-01 1.152278408408164978e-01 1.286611855030059814e-01 -7.793806493282318115e-02 -3.287370130419731140e-02 1.836510598659515381e-01 -1.554977446794509888e-01 1.453142315149307251e-01 6.239063292741775513e-02 9.269325435161590576e-02 -9.936266392469406128e-02 1.138270497322082520e-01 1.040870621800422668e-01 -3.331683203577995300e-02 -4.820856079459190369e-02 -3.507769107818603516e-02 -1.359605938196182251e-01 -2.331587225198745728e-01 -9.655260294675827026e-02 4.259685054421424866e-02 -5.547525733709335327e-02 -3.805962577462196350e-02 4.019814543426036835e-03 -2.396168187260627747e-02 1.831718832254409790e-01 1.372393816709518433e-01 
9.145181179046630859e-01 1.072229623794555664e+00 9.728394746780395508e-01 1.034871339797973633e+00 1.003399729728698730e+00 1.029260993003845215e+00 1.035491466522216797e+00 9.945302009582519531e-01 
-4.223255068063735962e-02 -1.133675687015056610e-02 -5.094026774168014526e-02 3.437972441315650940e-02 -7.514175958931446075e-03 -7.051144260913133621e-03 8.198081050068140030e-04 -4.882789775729179382e-02 
2.668459527194499969e-02 3.637913987040519714e-02 1.214971095323562622e-01 -1.814417541027069092e-01 -1.273525357246398926e-01 4.585969075560569763e-02 -4.036222994327545166e-01 3.580411523580551147e-02 
3.060868978500366211e-01 1.892945021390914917e-01 3.875645399093627930e-01 3.241885602474212646e-01 3.382418155670166016e-01 3.838450610637664795e-01 4.813131093978881836e-01 4.388262033462524414e-01 
1.004400011152029037e-02 8.534904569387435913e-02 -3.602927923202514648e-02 -6.456476449966430664e-02 8.213456720113754272e-03 1.758809387683868408e-01 -2.121576368808746338e-01 8.797614276409149170e-02 -1.571536995470523834e-02 -3.726808354258537292e-02 -5.356484279036521912e-02 -1.288329362869262695e-01 2.095337361097335815e-01 6.429344415664672852e-02 -7.065926492214202881e-02 1.872895099222660065e-02 7.686898857355117798e-02 1.474584043025970459e-01 -3.554104641079902649e-02 1.784322410821914673e-01 1.012460142374038696e-02 -5.561055243015289307e-02 1.923258006572723389e-01 -4.112549871206283569e-02 -1.793033927679061890e-01 -7.735125720500946045e-03 4.407131578773260117e-03 6.532910745590925217e-03 -1.130380779504776001e-01 -1.241856440901756287e-01 8.117120712995529175e-02 -4.982504993677139282e-02 -2.179502695798873901e-01 1.194069832563400269e-01 -1.898237466812133789e-01 1.578969806432723999e-01 -1.478375643491744995e-01 1.204815283417701721e-01 -2.190807759761810303e-01 -1.686354167759418488e-02 -4.924858454614877701e-03 1.076267063617706299e-01 1.068011820316314697e-01 -1.287907958030700684e-01 1.584763377904891968e-01 1.937539726495742798e-01 -1.453535407781600952e-01 1.297550499439239502e-01 -9.706059470772743225e-03 -1.007597669959068298e-01 5.638664960861206055e-02 1.416707634925842285e-01 -1.284289658069610596e-01 -1.504532396793365479e-01 9.230334311723709106e-03 -3.773267939686775208e-02 2.057957053184509277e-01 -8.714648336172103882e-02 -7.033928483724594116e-02 1.501435935497283936e-01 1.236028000712394714e-01 7.267632335424423218e-02 3.306771442294120789e-02 -5.090594664216041565e-02 -8.969531208276748657e-02 -1.730330735445022583e-01 -1.515886783599853516e-01 -2.174700051546096802e-01 -6.347542256116867065e-02 -5.795843433588743210e-03 1.812720149755477905e-01 6.475012004375457764e-02 -1.554737687110900879e-01 1.774031817913055420e-01 9.419137239456176758e-02 1.648167222738265991e-01 4.125896096229553223e-02 -7.135533541440963745e-02 1.861324161291122437e-01 -1.575419008731842041e-01 -2.100470215082168579e-01 -1.252163499593734741e-01 -1.004948765039443970e-01 -3.993934765458106995e-02 -1.298198550939559937e-01 8.311545103788375854e-02 3.301500529050827026e-02 -1.077298894524574280e-01 -6.098420172929763794e-02 -2.152168601751327515e-01 1.853534728288650513e-01 -2.088492065668106079e-01 -1.390023976564407349e-01 9.817460551857948303e-03 1.159024089574813843e-01 2.055899202823638916e-01 -5.882319237571209669e-05 1.978669762611389160e-01 4.308311641216278076e-02 -5.090113729238510132e-02 -5.222376435995101929e-02 5.923769623041152954e-02 1.683343797922134399e-01 -1.902368217706680298e-01 1.811142563819885254e-01 2.041966617107391357e-01 1.161734461784362793e-01 1.287617981433868408e-01 7.106902450323104858e-02 1.251118183135986328e-01 -4.423017613589763641e-03 9.631028771400451660e-02 -8.131653070449829102e-02 -4.989341646432876587e-02 1.636016666889190674e-01 1.878786087036132812e-01 1.226169094443321228e-01 -1.475075632333755493e-01 -3.509072121232748032e-03 1.672098636627197266e-01 7.965523749589920044e-02 5.633376911282539368e-02 1.862522065639495850e-01 -5.405864492058753967e-02 1.308070272207260132e-01 1.313097923994064331e-01 6.065015867352485657e-02 -1.074092835187911987e-01 -5.278192833065986633e-02 1.823630779981613159e-01 6.323257088661193848e-02 1.973787695169448853e-01 2.091865837574005127e-01 -8.403229713439941406e-02 -5.077596008777618408e-02 6.958291679620742798e-02 -3.990822657942771912e-02 -1.362162232398986816e-01 1.074454002082347870e-02 6.519868969917297363e-02 3.008788637816905975e-02 1.629025936126708984e-01 -1.341084425803273916e-04 -1.810704618692398071e-01 8.436842821538448334e-03 -1.290654242038726807e-01 1.088879480957984924e-01 2.946864441037178040e-02 -6.585439294576644897e-02 6.697835773229598999e-02 -1.231179237365722656e-01 -1.034646779298782349e-01 -1.341821849346160889e-01 1.362841576337814331e-01 1.160077750682830811e-02 -1.112283114343881607e-02 1.510717123746871948e-01 -2.146976813673973083e-02 5.630485340952873230e-02 -7.390722632408142090e-02 1.612407714128494263e-01 1.886281073093414307e-01 -1.131876483559608459e-01 1.155929043889045715e-01 9.306810796260833740e-02 -1.798320412635803223e-01 2.116141319274902344e-01 1.803459972143173218e-01 -7.463096827268600464e-02 2.308408170938491821e-02 1.454219073057174683e-01 -7.981996983289718628e-02 -1.509619690477848053e-02 -1.703583002090454102e-01 1.624381989240646362e-01 8.052539825439453125e-02 -1.417611092329025269e-01 -1.737760193645954132e-02 1.245400235056877136e-01 -1.618658453226089478e-01 1.038846597075462341e-01 -1.081465482711791992e-01 1.701304912567138672e-01 -1.479647904634475708e-01 -6.474761664867401123e-02 8.613472431898117065e-02 -5.277543328702449799e-03 1.667204499244689941e-01 2.130145020782947540e-02 -1.870699226856231689e-02 1.283980906009674072e-01 1.520407944917678833e-01 1.696607470512390137e-01 2.030062824487686157e-01 1.196428984403610229e-01 1.322672218084335327e-01 2.207844890654087067e-02 -1.279415786266326904e-01 -9.196285158395767212e-02 1.515450775623321533e-01 -1.314438879489898682e-01 -3.285782411694526672e-02 -3.858244791626930237e-02 9.819457307457923889e-03 2.143108844757080078e-02 2.436380237340927124e-01 7.383946329355239868e-02 -3.218748606741428375e-03 9.540200233459472656e-02 1.003042161464691162e-01 -3.822001442313194275e-02 -1.610977202653884888e-01 -1.761136651039123535e-01 1.524122357368469238e-01 9.792357683181762695e-02 8.007934689521789551e-02 1.281919181346893311e-01 -1.886904798448085785e-02 -1.534894853830337524e-01 -1.451514363288879395e-01 -1.804900467395782471e-01 -1.582660675048828125e-01 -8.090940117835998535e-02 1.002763882279396057e-01 1.136231049895286560e-01 -1.023544818162918091e-01 1.250641047954559326e-02 -1.416707336902618408e-01 -1.901307255029678345e-01 1.875011324882507324e-01 7.384745869785547256e-03 -1.165875867009162903e-01 -3.347241505980491638e-02 9.472128003835678101e-02 -2.058562338352203369e-01 2.031527645885944366e-02 -6.112850084900856018e-02 2.425171621143817902e-02 -1.548321545124053955e-01 -1.321910321712493896e-01 2.477655932307243347e-02 1.206628456711769104e-01 -4.422973841428756714e-02 1.210147514939308167e-02 5.551765114068984985e-02 -3.017458878457546234e-02 4.416717588901519775e-02 1.742456555366516113e-01 1.558444350957870483e-01 2.189606577157974243e-01 -1.296584010124206543e-01 1.799569837749004364e-02 1.931052207946777344e-01 -3.075881674885749817e-02 5.958055332303047180e-02 -2.353101270273327827e-03 7.272392511367797852e-02 1.763507127761840820e-01 -1.221112906932830811e-01 1.157284453511238098e-01 -9.878518059849739075e-03 1.382058858871459961e-02 -1.011737659573554993e-01 -1.394372284412384033e-01 5.277491733431816101e-02 -7.336585223674774170e-02 8.448793739080429077e-02 7.346401363611221313e-02 8.828465640544891357e-02 -8.133349567651748657e-02 8.191108703613281250e-02 9.113800525665283203e-02 -1.442727912217378616e-02 2.419326640665531158e-02 7.238925993442535400e-02 1.150792241096496582e-01 -3.483763337135314941e-02 3.775888308882713318e-02 1.706007272005081177e-01 8.294612169265747070e-02 6.589737534523010254e-02 1.435966789722442627e-01 -1.027207002043724060e-01 1.737134307622909546e-01 1.980010420083999634e-02 -8.119187504053115845e-02 -1.566903442144393921e-01 1.582181304693222046e-01 -1.543223559856414795e-01 -6.843196600675582886e-02 3.557970002293586731e-02 -6.030665338039398193e-02 1.285060942173004150e-01 -1.297551095485687256e-01 5.118956044316291809e-02 -1.678377687931060791e-01 1.756089627742767334e-01 -1.177217140793800354e-01 1.145386174321174622e-01 6.856171786785125732e-02 -1.225152835249900818e-01 -3.403898328542709351e-02 4.507858678698539734e-02 7.003746926784515381e-02 -1.780377030372619629e-01 1.666813045740127563e-01 1.054192185401916504e-01 -1.416838020086288452e-01 1.271040141582489014e-01 -8.288847655057907104e-02 1.901541203260421753e-01 1.683813482522964478e-01 1.790133863687515259e-01 1.253029108047485352e-01 1.272393763065338135e-01 8.243501931428909302e-02 -1.670716404914855957e-01 9.077308699488639832e-03 -1.231002137064933777e-01 -2.108476161956787109e-01 -7.879652082920074463e-02 1.365794688463211060e-01 -3.002857975661754608e-02 -1.172319427132606506e-01 -1.869270354509353638e-01 1.863232702016830444e-01 1.506652534008026123e-01 -1.134427413344383240e-01 1.675304472446441650e-01 -7.801181077957153320e-02 8.359535038471221924e-02 1.565493941307067871e-01 -1.687196493148803711e-01 -4.079951345920562744e-02 -4.479028657078742981e-02 1.108622550964355469e-01 8.283063024282455444e-02 1.259635388851165771e-01 -1.610420048236846924e-01 -3.862314391881227493e-03 1.405785679817199707e-01 -1.742163598537445068e-01 -6.524506956338882446e-02 4.033409431576728821e-02 1.783812791109085083e-01 7.820922881364822388e-02 -1.201417148113250732e-01 3.743536770343780518e-02 -5.016612261533737183e-02 -7.791014760732650757e-02 7.681734114885330200e-02 1.312419474124908447e-01 1.791877299547195435e-01 -1.454469859600067139e-01 -2.169644236564636230e-01 -1.993285566568374634e-01 -9.780167602002620697e-03 -1.802447587251663208e-01 1.052408292889595032e-01 4.596477374434471130e-02 -2.802696079015731812e-02 1.679961197078227997e-02 1.243971660733222961e-01 1.802314966917037964e-01 -1.977453827857971191e-01 6.736481934785842896e-02 2.176619134843349457e-02 4.791890829801559448e-02 1.428206413984298706e-01 -1.304808855056762695e-01 -2.183532565832138062e-01 -1.030973717570304871e-01 -1.653181314468383789e-01 -1.897282749414443970e-01 6.799954921007156372e-02 4.039842635393142700e-02 7.993941754102706909e-02 -5.190080404281616211e-02 -2.599785476922988892e-02 -1.385496705770492554e-01 2.382736839354038239e-02 -9.911097586154937744e-03 4.489571228623390198e-02 9.283221513032913208e-02 -3.742599859833717346e-02 -1.457789689302444458e-01 7.440173625946044922e-02 -1.501539498567581177e-01 1.818990409374237061e-01 -1.113943457603454590e-01 -1.966125331819057465e-03 -1.379315257072448730e-01 6.917508691549301147e-02 2.072172313928604126e-01 -1.560013145208358765e-01 8.586341142654418945e-02 1.676436811685562134e-01 -1.900715231895446777e-01 -5.317864567041397095e-02 -8.983582258224487305e-02 1.404172927141189575e-01 -1.699655130505561829e-02 2.013593167066574097e-01 1.846671849489212036e-01 -1.641559302806854248e-01 1.470380723476409912e-01 5.351968109607696533e-02 4.526465758681297302e-02 7.449414581060409546e-03 -1.873345524072647095e-01 -2.032012343406677246e-01 -1.629803143441677094e-02 -1.276600062847137451e-01 1.116248518228530884e-01 3.452667593955993652e-02 -2.800091728568077087e-02 -5.670462548732757568e-02 -1.590604633092880249e-01 9.856526553630828857e-02 3.229625895619392395e-02 1.063400600105524063e-02 3.260796517133712769e-02 -1.390290558338165283e-01 -6.608939170837402344e-02 1.168513000011444092e-01 -1.097977980971336365e-01 8.995550125837326050e-02 1.511663943529129028e-01 5.731810256838798523e-02 -1.074313074350357056e-01 -1.278080046176910400e-01 5.529895797371864319e-02 -1.331645846366882324e-01 -1.655406206846237183e-01 -4.889667779207229614e-02 6.104783713817596436e-02 3.744824230670928955e-02 -5.678082816302776337e-03 -1.512262225151062012e-01 1.031811535358428955e-01 1.135490685701370239e-01 1.635334044694900513e-01 8.486562967300415039e-02 -2.356258407235145569e-02 1.508455723524093628e-01 -2.232102006673812866e-01 -1.262544691562652588e-01 -4.386214539408683777e-02 1.651713252067565918e-01 1.005871891975402832e-01 1.089233681559562683e-01 1.152600394561886787e-03 1.749704480171203613e-01 -2.800156734883785248e-02 -1.701660081744194031e-02 8.143680170178413391e-03 1.669483780860900879e-01 -5.876668170094490051e-02 1.247067153453826904e-01 -1.157982274889945984e-01 -1.682936251163482666e-01 -1.021382212638854980e-02 2.024315744638442993e-01 -1.522254897281527519e-03 -1.176199764013290405e-01 -9.754201024770736694e-02 6.362345069646835327e-02 1.816269904375076294e-01 8.049094676971435547e-02 1.807747781276702881e-01 7.350132614374160767e-02 -1.267017871141433716e-01 -1.956852674484252930e-01 1.687940508127212524e-01 1.532278507947921753e-01 1.124386116862297058e-01 -1.726717054843902588e-01 -1.820669770240783691e-01 3.655943274497985840e-02 -1.197384372353553772e-01 -4.829202219843864441e-02 -2.054304778575897217e-01 -2.134789228439331055e-01 4.296513739973306656e-03 1.288809329271316528e-01 -1.489127278327941895e-01 -1.415660530328750610e-01 -6.047007814049720764e-02 -3.464536368846893311e-02 -8.628254383802413940e-02 1.377416849136352539e-01 1.705725491046905518e-01 -1.171936020255088806e-01 -9.520551562309265137e-02 -1.878941655158996582e-01 -1.159438341856002808e-01 6.320890039205551147e-02 -3.648266941308975220e-02 -2.088006287813186646e-01 1.271359026432037354e-01 -1.856149286031723022e-01 1.384924650192260742e-01 1.751526743173599243e-01 1.242002472281455994e-01 -5.312176048755645752e-02 3.783681988716125488e-02 -9.352955222129821777e-02 -1.922861486673355103e-01 -8.219258487224578857e-02 1.017498150467872620e-01 -1.393787413835525513e-01 2.685125358402729034e-02 -3.537096083164215088e-02 -5.089077632874250412e-03 1.568412333726882935e-01 7.383007556200027466e-02 -1.098597645759582520e-01 -1.295883655548095703e-01 7.353171706199645996e-02 -9.291744232177734375e-02 -5.050766468048095703e-02 -1.055647879838943481e-01 -7.331467419862747192e-02 1.015824824571609497e-01 6.702768057584762573e-02 -1.420988440513610840e-01 -5.634100362658500671e-02 -2.726574242115020752e-02 1.497242506593465805e-02 -4.665490984916687012e-02 1.976574659347534180e-01 1.479997634887695312e-01 -5.478901416063308716e-02 -9.764954447746276855e-02 -2.101142108440399170e-01 7.295435667037963867e-02 9.281739592552185059e-02 5.351604521274566650e-02 -6.354477256536483765e-02 1.661336421966552734e-02 2.019730582833290100e-02 2.798378840088844299e-02 -1.266908496618270874e-01 5.750426277518272400e-02 -1.320348083972930908e-01 -1.255080662667751312e-02 -1.457912027835845947e-01 1.459527313709259033e-01 -6.734566763043403625e-03 9.900321811437606812e-02 1.591323167085647583e-01 -1.027865931391716003e-01 -1.643518209457397461e-01 8.848990499973297119e-02 -1.721851527690887451e-01 -4.308550432324409485e-02 1.248299926519393921e-01 3.670157864689826965e-02 5.251102894544601440e-02 2.119875997304916382e-01 2.009330131113529205e-02 2.101199179887771606e-01 -7.168123871088027954e-02 -1.715863347053527832e-01 1.249375939369201660e-01 -5.067728087306022644e-02 -4.462641477584838867e-02 -2.971665561199188232e-02 4.260127991437911987e-02 -1.413767039775848389e-01 6.817172467708587646e-02 -1.277313083410263062e-01 1.757088452577590942e-01 -1.610871404409408569e-01 1.736308634281158447e-01 -1.964843273162841797e-01 
9.858679771423339844e-01 9.982357025146484375e-01 1.002468228340148926e+00 9.899365901947021484e-01 9.589606523513793945e-01 1.066159248352050781e+00 1.015345335006713867e+00 9.871277213096618652e-01 
-3.041361458599567413e-02 4.012977704405784607e-02 -3.141117841005325317e-02 -1.041910797357559204e-02 8.818585192784667015e-04 4.432865232229232788e-02 -2.050583623349666595e-02 6.216157227754592896e-03 
-4.792727064341306686e-03 8.245190978050231934e-01 1.075881719589233398e+00 3.690994679927825928e-01 -8.036357909440994263e-02 -3.422712683677673340e-01 -1.289978623390197754e-01 -4.324910640716552734e-01 
7.088427543640136719e-01 1.241041541099548340e+00 1.405430197715759277e+00 9.682157635688781738e-01 1.023006677627563477e+00 1.179947018623352051e+00 7.185704708099365234e-01 8.454847335815429688e-01 
5.780673027038574219e-02 -2.400219589471817017e-01 1.236843019723892212e-01 6.032511219382286072e-02 4.229499772191047668e-02 -1.671656519174575806e-01 -1.514740884304046631e-01 -7.110225409269332886e-02 -1.419109851121902466e-01 -3.109100833535194397e-02 1.037956848740577698e-01 -2.154549211263656616e-01 -1.409491300582885742e-01 8.300524950027465820e-02 -1.776252388954162598e-01 5.552112683653831482e-02 1.362035572528839111e-01 2.031045705080032349e-01 4.250643774867057800e-02 -1.336077302694320679e-01 -1.103376038372516632e-02 5.322089791297912598e-02 1.248180493712425232e-01 -2.139954715967178345e-01 1.941761821508407593e-01 1.360384374856948853e-01 -1.755357086658477783e-01 1.905474439263343811e-02 8.423103019595146179e-03 -1.568372845649719238e-01 -1.493754833936691284e-01 5.493594706058502197e-02 -1.270769089460372925e-01 4.528394713997840881e-02 1.457032859325408936e-01 1.437720507383346558e-01 -1.763270795345306396e-01 -1.867884248495101929e-01 1.327848732471466064e-01 -1.233301758766174316e-01 -1.609865576028823853e-01 -1.168982535600662231e-01 4.070634022355079651e-02 -1.571116298437118530e-01 1.018623262643814087e-01 -1.327437907457351685e-01 -1.335857361555099487e-01 -8.048348873853683472e-02 -1.925221532583236694e-01 6.948225200176239014e-02 8.071467280387878418e-02 2.067371085286140442e-02 -3.002040088176727295e-02 -4.365110024809837341e-02 1.863395124673843384e-01 2.114712297916412354e-01 9.935812652111053467e-02 3.087100572884082794e-02 -1.927024424076080322e-01 5.250101536512374878e-02 -1.675503849983215332e-01 4.688165709376335144e-02 -2.882981486618518829e-02 -2.076213061809539795e-01 1.529630869626998901e-01 1.686385273933410645e-01 -1.907362192869186401e-01 6.866596639156341553e-02 -9.115542471408843994e-02 -8.316161483526229858e-02 -8.826736360788345337e-02 -1.292395144701004028e-01 3.439132496714591980e-02 -6.801830232143402100e-02 1.885582804679870605e-01 -5.901274830102920532e-02 -6.509011238813400269e-02 1.904565244913101196e-01 -9.568921476602554321e-02 -1.291491687297821045e-01 1.521338075399398804e-01 -1.147323176264762878e-01 -2.568302117288112640e-02 -1.174067799001932144e-02 7.341472804546356201e-02 -1.829453371465206146e-02 1.943268924951553345e-01 1.474582403898239136e-02 2.589790709316730499e-02 2.717990055680274963e-02 -2.116431146860122681e-01 4.256893694400787354e-02 -1.233393922448158264e-01 1.749593466520309448e-01 -1.023574918508529663e-01 9.205915778875350952e-02 4.306340962648391724e-02 1.467559337615966797e-01 1.616476029157638550e-01 -1.196499392390251160e-01 9.397057443857192993e-02 -3.688374906778335571e-02 -1.578018218278884888e-01 1.340554803609848022e-01 1.811782866716384888e-01 -1.295970380306243896e-01 -7.518943399190902710e-02 -1.879140734672546387e-01 -1.985784173011779785e-01 5.415207892656326294e-02 1.817869991064071655e-01 -6.946785748004913330e-02 -1.388714015483856201e-01 5.016775429248809814e-02 -6.883195787668228149e-02 -2.012424170970916748e-01 1.839864552021026611e-01 -2.094949223101139069e-02 2.249052971601486206e-01 -1.877461969852447510e-01 -6.155157834291458130e-02 -5.698601156473159790e-02 -1.297309696674346924e-01 -1.227635890245437622e-02 -1.697757244110107422e-01 -1.674703359603881836e-01 -1.091265380382537842e-01 -1.192754134535789490e-01 1.984434202313423157e-02 -4.442056268453598022e-02 -1.172572821378707886e-01 -1.271238923072814941e-01 1.373524367809295654e-01 -1.076022833585739136e-01 7.402151823043823242e-02 -1.176738813519477844e-01 -1.303388625383377075e-01 5.235268920660018921e-02 1.822605133056640625e-01 -1.543138772249221802e-01 -1.302586346864700317e-01 -1.480526924133300781e-01 1.508320420980453491e-01 8.079216629266738892e-02 8.961246907711029053e-02 2.980203740298748016e-02 -6.851992756128311157e-02 -7.305044680833816528e-02 -3.258191794157028198e-02 2.050018906593322754e-01 -1.255836784839630127e-01 8.354768157005310059e-02 -1.703522540628910065e-02 9.685664623975753784e-02 1.405118405818939209e-01 1.220305338501930237e-01 1.671683788299560547e-01 1.752962023019790649e-01 6.051579117774963379e-02 2.464579232037067413e-02 6.730758398771286011e-02 9.170866757631301880e-02 -1.965788155794143677e-01 1.816169321537017822e-01 -1.483749896287918091e-01 -2.186045497655868530e-01 6.085090711712837219e-02 -4.994000494480133057e-02 -1.602209918200969696e-02 -5.909129977226257324e-02 3.447720780968666077e-02 1.045728027820587158e-01 -1.436657607555389404e-01 -7.348143309354782104e-02 -1.207432821393013000e-01 2.576457336544990540e-02 5.893217027187347412e-02 1.087887063622474670e-01 3.055894002318382263e-02 5.163224041461944580e-02 -4.853534325957298279e-02 -1.096865385770797729e-01 9.522590786218643188e-02 6.901321560144424438e-02 -1.515098661184310913e-01 4.369880072772502899e-03 -1.003582999110221863e-01 -1.287770569324493408e-01 2.048362046480178833e-01 -1.502157151699066162e-01 2.032545357942581177e-01 1.972807198762893677e-01 -1.560944318771362305e-01 7.640730123966932297e-03 7.386582344770431519e-02 1.983030438423156738e-01 -1.136528421193361282e-02 2.017454057931900024e-01 2.330000698566436768e-01 -1.444921344518661499e-01 -7.744145393371582031e-02 1.789621561765670776e-01 1.661999523639678955e-01 -6.475964188575744629e-02 -2.147763520479202271e-01 -7.387290894985198975e-02 -1.237438023090362549e-01 4.651906341314315796e-02 -4.590699449181556702e-03 6.026822328567504883e-02 2.093941569328308105e-01 -1.493600308895111084e-01 -6.947916932404041290e-03 -1.413503885269165039e-01 -1.651815026998519897e-01 6.270677596330642700e-02 -1.727726906538009644e-01 -1.441930979490280151e-01 2.373190782964229584e-02 1.476845890283584595e-01 2.629995904862880707e-02 2.057001292705535889e-01 -1.293275207281112671e-01 -7.590780034661293030e-03 1.477676481008529663e-01 1.010516583919525146e-01 -1.693095564842224121e-01 2.022115588188171387e-01 -1.699829101562500000e-01 -7.297647651284933090e-03 8.879514038562774658e-02 9.092562645673751831e-02 3.822421655058860779e-02 -1.017342787235975266e-02 -1.511776447296142578e-01 1.300729215145111084e-01 -3.812021017074584961e-02 -1.149808689951896667e-01 4.073522239923477173e-02 -9.938298910856246948e-02 7.218942791223526001e-02 -2.000468820333480835e-01 -1.490920335054397583e-01 -1.773383468389511108e-01 -9.357284754514694214e-02 -7.931819558143615723e-02 -1.841931343078613281e-01 1.377287507057189941e-01 -6.353107892209663987e-06 9.626237303018569946e-02 -6.155933812260627747e-02 -1.585766822099685669e-01 1.353800296783447266e-02 1.518594622611999512e-01 -1.635091155767440796e-01 6.768949329853057861e-02 -1.199338808655738831e-01 -1.340730637311935425e-01 -2.317037582397460938e-01 7.228960841894149780e-02 7.766832411289215088e-02 -5.515017360448837280e-02 8.932190388441085815e-02 -3.060347400605678558e-03 -1.427635252475738525e-01 2.075051367282867432e-01 1.013205870985984802e-01 -7.939832657575607300e-02 2.239245325326919556e-01 1.740107387304306030e-01 -3.970261290669441223e-02 1.647751778364181519e-01 1.497980058193206787e-01 -1.100087910890579224e-01 6.038684397935867310e-02 -5.423469003289937973e-03 1.169886365532875061e-01 -8.730398863554000854e-02 -8.954688906669616699e-02 1.944717615842819214e-01 -1.982250660657882690e-01 6.723137944936752319e-02 1.557112187147140503e-01 -1.397544145584106445e-01 1.612114906311035156e-01 1.805021762847900391e-01 -1.522654891014099121e-01 -2.693858742713928223e-02 1.312771886587142944e-01 6.611599028110504150e-02 -8.138719201087951660e-02 -5.342868342995643616e-02 -1.054595932364463806e-01 -9.108528494834899902e-03 4.008453339338302612e-02 6.243442371487617493e-02 -1.132638975977897644e-01 1.493108719587326050e-01 -1.830901354551315308e-01 9.183572232723236084e-02 -6.156538426876068115e-02 -1.653782725334167480e-01 -2.776676602661609650e-02 -1.486206501722335815e-01 -1.912357360124588013e-01 1.233258470892906189e-01 1.140891611576080322e-01 7.340218871831893921e-02 -2.689498476684093475e-02 -7.549744565039873123e-03 1.700082868337631226e-01 1.505112498998641968e-01 -1.503988504409790039e-01 1.165244132280349731e-01 -2.378628402948379517e-02 -1.196313723921775818e-01 2.518272772431373596e-02 -3.434879705309867859e-02 -1.476075053215026855e-01 -9.484194964170455933e-02 -3.452847152948379517e-02 3.204086795449256897e-02 -2.084217965602874756e-01 5.635171756148338318e-02 -1.640016138553619385e-01 -3.149012848734855652e-02 3.953589498996734619e-02 -1.341747343540191650e-01 -7.555321604013442993e-02 -8.046449720859527588e-02 1.639953255653381348e-02 -7.432600110769271851e-02 1.625201851129531860e-01 1.117279008030891418e-01 6.902082823216915131e-03 -2.143984436988830566e-01 -1.013829112052917480e-01 2.176096737384796143e-01 -2.992833964526653290e-02 1.527929902076721191e-01 -3.600418195128440857e-02 9.684121608734130859e-02 4.520305432379245758e-03 -4.062099382281303406e-03 5.229583010077476501e-02 -1.173215135931968689e-01 -1.008784249424934387e-01 1.137100681662559509e-01 1.192126870155334473e-01 -2.092153877019882202e-01 -1.668991893529891968e-01 -2.423496246337890625e-01 -1.519459784030914307e-01 -1.195307374000549316e-01 8.755739778280258179e-02 -1.558262556791305542e-01 8.992287516593933105e-02 -8.250105381011962891e-02 1.232901513576507568e-01 -1.339118927717208862e-01 -1.016053408384323120e-01 -1.093090251088142395e-01 -7.691431045532226562e-02 -1.209750771522521973e-01 -1.623207032680511475e-01 -5.863229557871818542e-02 -5.216578021645545959e-02 -2.046161741018295288e-01 7.195843756198883057e-02 5.785645451396703720e-03 -8.588319271802902222e-02 -9.898629784584045410e-02 -1.014062836766242981e-01 -1.743607968091964722e-01 -5.894003063440322876e-02 1.655715703964233398e-01 3.478775173425674438e-02 4.793857783079147339e-02 4.314942657947540283e-02 -9.984629601240158081e-02 5.990865826606750488e-02 -6.747405230998992920e-02 1.422301679849624634e-01 -5.889881774783134460e-02 -1.607438027858734131e-01 -6.856596469879150391e-02 -1.191219836473464966e-01 1.242380514740943909e-01 -3.559385892003774643e-03 -9.053613990545272827e-02 1.744439154863357544e-01 -4.265797138214111328e-02 -1.975427567958831787e-01 -1.246964409947395325e-01 1.411813199520111084e-01 8.961343206465244293e-03 -1.743253618478775024e-01 -1.628446877002716064e-01 1.608026474714279175e-01 -1.521232575178146362e-01 4.386644065380096436e-02 5.376054719090461731e-02 -7.268773764371871948e-02 -1.785214692354202271e-01 -1.496904790401458740e-01 -8.448056131601333618e-02 1.553410887718200684e-01 5.241997912526130676e-02 1.443177312612533569e-01 2.118512615561485291e-02 1.263223886489868164e-01 -2.026646025478839874e-02 -1.890007555484771729e-01 -1.577270925045013428e-01 -1.667937822639942169e-02 1.693068258464336395e-02 -1.008805725723505020e-02 1.514102071523666382e-01 1.764619201421737671e-01 -1.308300197124481201e-01 -1.651194840669631958e-01 9.658049792051315308e-02 1.760233379900455475e-02 1.089128013700246811e-02 7.572034746408462524e-02 1.700584888458251953e-01 1.584135293960571289e-01 -8.568237721920013428e-02 1.144836284220218658e-02 1.019664406776428223e-01 -1.435425728559494019e-01 1.882283538579940796e-01 7.983426004648208618e-02 -1.283731013536453247e-01 -1.915480345487594604e-01 5.083252489566802979e-02 2.043637633323669434e-01 6.362108886241912842e-02 4.206313937902450562e-02 1.113613843917846680e-01 6.916698068380355835e-02 5.946686491370201111e-02 -3.944721817970275879e-02 1.253153532743453979e-01 -1.053226068615913391e-01 -1.853000372648239136e-03 -5.633177980780601501e-02 7.914879173040390015e-02 -2.118977755308151245e-01 -2.131503969430923462e-01 8.245377242565155029e-02 9.186937659978866577e-02 1.132064610719680786e-01 -6.971316784620285034e-02 -1.562297493219375610e-01 1.015713214874267578e-01 1.471128761768341064e-01 -1.173818036913871765e-01 -6.272738426923751831e-02 1.348143368959426880e-01 -8.247783035039901733e-02 1.401115357875823975e-01 -1.206561103463172913e-01 1.214730441570281982e-01 3.097459301352500916e-02 -5.999819934368133545e-02 1.794001460075378418e-02 7.641988992691040039e-02 8.437909185886383057e-02 7.151941955089569092e-02 1.370220482349395752e-01 -1.290084272623062134e-01 -4.676480218768119812e-02 -1.924972049891948700e-03 2.028519660234451294e-02 -1.442181318998336792e-02 -1.359537392854690552e-01 2.074566930532455444e-01 1.256670802831649780e-02 -8.741736412048339844e-03 -3.820122033357620239e-02 -1.714739054441452026e-01 5.502679944038391113e-02 5.625593662261962891e-02 -1.721530221402645111e-02 -2.166734635829925537e-01 -1.342336237430572510e-01 -5.860077589750289917e-02 1.441267281770706177e-01 9.942675381898880005e-02 -5.881854891777038574e-02 -1.632666289806365967e-01 -8.943131566047668457e-02 1.700224578380584717e-01 -9.842492640018463135e-02 -1.390945352613925934e-02 1.262422353029251099e-01 1.200397163629531860e-01 -1.319364737719297409e-02 -1.630766391754150391e-01 -3.666758537292480469e-02 -7.863225787878036499e-02 1.412971317768096924e-01 -8.737457543611526489e-02 6.787335965782403946e-03 3.125445218756794930e-03 -1.711500734090805054e-01 1.097761914134025574e-01 1.197358593344688416e-01 9.794129431247711182e-02 1.791963279247283936e-01 -9.405907243490219116e-02 -1.412553787231445312e-01 1.406074464321136475e-01 -2.026018053293228149e-01 1.021575257182121277e-01 -2.325540632009506226e-01 -8.411446958780288696e-02 4.401591420173645020e-02 1.718293875455856323e-01 -8.307749778032302856e-02 1.539998352527618408e-01 -4.782769829034805298e-02 1.016749441623687744e-01 1.127435266971588135e-01 1.747267991304397583e-01 1.497770398855209351e-01 -1.807044893503189087e-01 -1.642535179853439331e-01 5.177247803658246994e-03 -1.357829421758651733e-01 3.517152369022369385e-02 1.746393442153930664e-01 -1.766557097434997559e-01 -5.892286542803049088e-03 1.056968197226524353e-01 2.106951326131820679e-01 9.187123179435729980e-02 5.198974534869194031e-02 -1.214758232235908508e-01 1.097765564918518066e-01 -5.179580301046371460e-02 -6.249502673745155334e-02 1.451292932033538818e-01 7.861147820949554443e-02 1.388802677392959595e-01 1.446270495653152466e-01 -4.170406609773635864e-02 8.046405017375946045e-02 -6.637848168611526489e-02 -1.492905914783477783e-01 1.506742183119058609e-02 1.675667911767959595e-01 -1.618557572364807129e-01 1.430486142635345459e-01 1.404891461133956909e-01 -1.547147184610366821e-01 -7.920648902654647827e-02 7.283290475606918335e-02 8.555306494235992432e-02 1.680381149053573608e-01 1.053881496191024780e-01 -5.830311402678489685e-02 -8.145315200090408325e-02 -4.154577478766441345e-02 1.440564692020416260e-01 1.947790533304214478e-01 -2.369073927402496338e-01 5.181822925806045532e-02 5.396933853626251221e-02 -1.108730137348175049e-01 -7.286605983972549438e-02 6.408651173114776611e-02 5.753665044903755188e-02 3.582268580794334412e-02 -1.155850887298583984e-01 
1.030656456947326660e+00 9.730088114738464355e-01 1.044013261795043945e+00 1.000571370124816895e+00 1.033339977264404297e+00 1.006095767021179199e+00 9.731694459915161133e-01 1.033926963806152344e+00 
-1.348182559013366699e-02 -2.700988203287124634e-03 -1.904375967569649220e-03 -1.677422784268856049e-02 -3.362457826733589172e-02 -2.666466310620307922e-02 3.665909171104431152e-02 -6.702215969562530518e-02 
-3.970552682876586914e-01 -2.329374551773071289e-01 2.062254995107650757e-01 -1.207958813756704330e-02 -2.881023883819580078e-01 -3.211330175399780273e-01 -3.087965957820415497e-02 2.920066416263580322e-01 
4.345162212848663330e-01 4.474889039993286133e-01 3.594110310077667236e-01 5.255646109580993652e-01 3.383683860301971436e-01 4.868676364421844482e-01 3.108871579170227051e-01 3.617788851261138916e-01 
