-1.542330831289291382e-01 -4.622788727283477783e-01 -6.487585306167602539e-01 -2.285156846046447754e-01 7.757701277732849121e-01 -6.279425621032714844e-01 1.650783419609069824e-01 -4.975286126136779785e-01 -3.648791015148162842e-01 3.706527948379516602e-01 2.188871651887893677e-01 7.566950917243957520e-01 -8.199162483215332031e-01 -3.593039512634277344e-01 -5.828754305839538574e-01 -9.491060860455036163e-03 6.501459479331970215e-01 -2.050510793924331665e-01 4.664551932364702225e-03 3.320386633276939392e-02 1.284032594412565231e-02 -1.625791192054748535e-01 1.464207023382186890e-01 1.207340806722640991e-01 1.366813927888870239e-01 -1.448332816362380981e-01 -1.887803524732589722e-01 4.797717034816741943e-01 2.800095677375793457e-01 -4.879709780216217041e-01 -8.782601952552795410e-01 7.483242750167846680e-01 -3.638277351856231689e-01 4.093691706657409668e-01 6.696220636367797852e-01 5.208927392959594727e-01 -3.301981389522552490e-01 -1.569750756025314331e-01 4.236343130469322205e-02 4.161410406231880188e-02 -5.563034415245056152e-01 1.031680703163146973e-01 -4.897913336753845215e-01 -9.913421869277954102e-01 -6.056196689605712891e-01 -9.477091953158378601e-03 1.730057597160339355e-01 -7.389397919178009033e-02 -1.728424727916717529e-01 1.296438723802566528e-01 2.456638813018798828e-01 1.583288758993148804e-01 -8.372157812118530273e-02 3.244429826736450195e-02 -1.051560416817665100e-01 -3.704735934734344482e-01 1.780983060598373413e-01 -2.270470708608627319e-01 -8.865373134613037109e-01 7.924640178680419922e-02 6.104215607047080994e-02 -1.213346049189567566e-01 1.030750051140785217e-01 -5.638531446456909180e-01 2.852543890476226807e-01 -2.590011060237884521e-01 9.616153836250305176e-01 6.246396806091070175e-03 4.397884905338287354e-01 2.897401154041290283e-02 9.312962293624877930e-01 -4.213103055953979492e-01 -3.267003297805786133e-01 2.073801159858703613e-01 -1.010629311203956604e-01 1.505824178457260132e-01 3.859536051750183105e-01 9.492990374565124512e-02 5.062383413314819336e-02 1.158632710576057434e-02 -3.155778944492340088e-01 3.839098513126373291e-01 3.746163249015808105e-01 -5.677216127514839172e-02 -1.026745200157165527e+00 -3.146846592426300049e-01 3.253928124904632568e-01 -1.010145187377929688e+00 7.258991599082946777e-01 5.076118707656860352e-01 -4.258517548441886902e-02 -7.854525446891784668e-01 1.074541509151458740e-01 -5.354854464530944824e-01 -2.199387699365615845e-01 2.292107641696929932e-01 3.575433790683746338e-01 5.589048862457275391e-01 -2.313799262046813965e-01 -9.599343687295913696e-02 2.289896756410598755e-01 -1.677432954311370850e-01 -1.305080205202102661e-02 4.867692478001117706e-03 -1.653321683406829834e-01 1.206313297152519226e-01 1.927867829799652100e-01 -1.588509827852249146e-01 2.309489399194717407e-01 -7.803099155426025391e-01 -6.337262392044067383e-01 5.427698493003845215e-01 2.702569365501403809e-01 -7.932548522949218750e-01 1.910680085420608521e-01 -4.827237725257873535e-01 -5.412616133689880371e-01 -4.511658549308776855e-01 2.819336950778961182e-01 7.179855108261108398e-01 -5.631351470947265625e-01 1.893938332796096802e-01 5.880198478698730469e-01 1.911756694316864014e-01 -1.012453556060791016e+00 2.027248404920101166e-02 1.177087202668190002e-01 -1.476211398839950562e-01 -2.291954010725021362e-01 -1.228869557380676270e-01 1.195164248347282410e-01 5.041203275322914124e-02 -6.429418176412582397e-02 7.639537006616592407e-02 6.640174239873886108e-02 -4.643063247203826904e-01 4.168270528316497803e-01 -6.000332236289978027e-01 -9.812120199203491211e-01 -9.565945863723754883e-01 3.727887198328971863e-02 -5.555424094200134277e-01 -4.592555463314056396e-01 -3.422247767448425293e-01 6.727458834648132324e-01 -4.731421545147895813e-02 3.714919686317443848e-01 3.531371057033538818e-01 -3.849783912301063538e-02 -4.035906493663787842e-01 7.539601325988769531e-01 5.971422791481018066e-01 -2.247864305973052979e-01 1.020591799169778824e-02 -2.643906138837337494e-02 -2.870119810104370117e-01 -1.960612088441848755e-01 4.308418929576873779e-02 2.753862142562866211e-01 -8.433689922094345093e-02 7.135165482759475708e-02 2.013126313686370850e-01 1.051007136702537537e-01 5.122763514518737793e-01 -7.080154120922088623e-02 -3.093649744987487793e-01 1.284118741750717163e-01 -4.213354587554931641e-01 -9.947835654020309448e-02 -1.744561195373535156e-01 2.114315629005432129e-01 -1.156130194664001465e+00 -8.710252642631530762e-01 -3.303411006927490234e-01 5.364702343940734863e-01 -1.028577923774719238e+00 -1.852836161851882935e-01 6.278427243232727051e-01 -1.076763629913330078e+00 -9.887386560440063477e-01 -4.913306236267089844e-02 -1.210108473896980286e-01 -3.045407533645629883e-01 -3.596895188093185425e-02 1.404320169240236282e-02 -2.477479428052902222e-01 3.813807293772697449e-02 1.219256669282913208e-01 4.864839091897010803e-02 -6.467086672782897949e-01 -4.396241307258605957e-01 4.955414682626724243e-02 -8.884869217872619629e-01 -1.293830424547195435e-01 6.051413416862487793e-01 2.286889255046844482e-01 7.082680463790893555e-01 -1.349764704704284668e+00 2.511763870716094971e-01 -3.184829354286193848e-01 -2.588028013706207275e-01 -5.844358801841735840e-01 -2.286242544651031494e-01 1.968864947557449341e-01 -7.249885201454162598e-01 4.795958697795867920e-01 3.286646306514739990e-01 -8.065498620271682739e-02 4.981712624430656433e-02 -1.459238976240158081e-01 9.284243732690811157e-02 -7.760607451200485229e-02 7.465204596519470215e-02 -2.377344667911529541e-02 1.746062785387039185e-01 1.660829335451126099e-01 -1.192981839179992676e+00 -2.446000576019287109e-01 -3.495973646640777588e-01 7.914462685585021973e-01 -9.152006357908248901e-02 3.108443319797515869e-01 -2.244898378849029541e-01 7.007260322570800781e-01 1.323428153991699219e-01 2.187170982360839844e-01 1.296488642692565918e-01 7.803911566734313965e-01 -3.391229212284088135e-01 1.287902295589447021e-01 -5.631167441606521606e-02 -6.528337597846984863e-01 -6.757031679153442383e-01 -6.194871068000793457e-01 -2.252551354467868805e-02 1.237850114703178406e-01 -7.472305744886398315e-02 -3.408323228359222412e-02 4.986462742090225220e-02 1.215572655200958252e-01 -3.710175224114209414e-04 5.200241506099700928e-02 4.543506354093551636e-02 3.176175057888031006e-03 2.420631349086761475e-01 2.949994206428527832e-01 5.658877491950988770e-01 -5.795751214027404785e-01 8.380087614059448242e-01 2.740030586719512939e-01 -7.622308284044265747e-02 -1.977662593126296997e-01 -1.278250068426132202e-01 -7.418846487998962402e-01 -3.549824059009552002e-01 2.148497253656387329e-01 -8.511893153190612793e-01 4.670425653457641602e-01 -1.001448392868041992e+00 -6.843252182006835938e-01 6.552435755729675293e-01 4.002320766448974609e-02 -1.225669234991073608e-01 -1.790580153465270996e-01 -1.733171194791793823e-01 1.546197235584259033e-01 1.353944987058639526e-01 -9.408606588840484619e-02 2.587318718433380127e-01 9.172685444355010986e-03 5.293211340904235840e-01 -5.638148784637451172e-01 -4.281083941459655762e-01 3.630704581737518311e-01 3.048106729984283447e-01 5.850599408149719238e-01 8.472817540168762207e-01 -3.027684092521667480e-01 6.699910163879394531e-01 -5.808835625648498535e-01 -6.904120091348886490e-03 -1.134129017591476440e-01 -7.646315097808837891e-01 -7.014038562774658203e-01 -3.226619958877563477e-01 -5.520833134651184082e-01 2.076445668935775757e-01 -1.585592478513717651e-01 1.276780962944030762e-01 -1.277732998132705688e-01 3.399850055575370789e-02 1.962021738290786743e-01 1.765625476837158203e-01 -1.102608218789100647e-01 -2.206337079405784607e-02 -4.489429667592048645e-02 -2.289175428450107574e-02 1.239355131983757019e-01 -7.832102179527282715e-01 -6.539209485054016113e-01 -4.955572783946990967e-01 1.407178491353988647e-01 2.626856863498687744e-01 -4.101149439811706543e-01 -7.886763662099838257e-02 -4.041456580162048340e-01 -5.001382231712341309e-01 8.734470605850219727e-01 -6.627282500267028809e-01 7.298324704170227051e-01 6.120297312736511230e-01 -2.144778519868850708e-02 -1.922883652150630951e-02 6.001662015914916992e-01 1.428339723497629166e-02 -2.415858805179595947e-01 2.134347334504127502e-02 2.618636488914489746e-01 -4.089638218283653259e-02 1.352499127388000488e-01 -4.106001555919647217e-02 -1.754393875598907471e-01 2.801378630101680756e-02 4.471606761217117310e-02 -5.778234004974365234e-01 -3.653722405433654785e-01 -3.156379461288452148e-01 3.704234957695007324e-01 -1.209808140993118286e-01 -1.864224076271057129e-01 -1.898052245378494263e-01 5.742127895355224609e-01 5.668957829475402832e-01 -1.029477477073669434e+00 -2.543542385101318359e-01 -3.327455818653106689e-01 1.910820901393890381e-01 9.837734103202819824e-01 3.856879472732543945e-01 1.876502782106399536e-01 -7.892879247665405273e-01 -1.260887086391448975e-01 -5.843210220336914062e-02 1.448268741369247437e-01 -3.443714976310729980e-01 -2.367394864559173584e-01 8.096628636121749878e-02 5.476602166891098022e-02 -1.178211420774459839e-01 1.089369878172874451e-01 -4.259430617094039917e-02 2.930688560009002686e-01 -2.709753811359405518e-02 1.682716794312000275e-02 -2.359238862991333008e-01 -5.617663264274597168e-01 -4.663888216018676758e-01 -2.926501333713531494e-01 3.325767442584037781e-02 -1.833003312349319458e-01 -1.555460840463638306e-01 6.024882793426513672e-01 -3.967059850692749023e-01 5.982921123504638672e-01 7.812274694442749023e-01 7.221981883049011230e-01 -5.710742473602294922e-01 5.505697131156921387e-01 9.664975106716156006e-02 -2.648503482341766357e-01 3.474056348204612732e-02 -3.682332038879394531e-01 1.216982007026672363e-01 9.136575460433959961e-02 -2.493607997894287109e-01 -2.449126392602920532e-01 1.233970820903778076e-01 -1.115559637546539307e-01 -8.861629664897918701e-02 1.517751961946487427e-01 -1.834761947393417358e-01 1.135969758033752441e-01 -3.621571362018585205e-01 1.956447958946228027e-01 -7.974728196859359741e-02 1.895042806863784790e-01 2.652906477451324463e-01 6.286671161651611328e-01 4.957799315452575684e-01 -3.351747989654541016e-01 -1.525016188621520996e+00 9.047784805297851562e-01 4.727087318897247314e-01 2.920155525207519531e-01 3.335675299167633057e-01 -5.573728680610656738e-01 -3.344044983386993408e-01 2.772787213325500488e-02 -2.216835618019104004e-01 8.113271743059158325e-02 2.901172935962677002e-01 -3.447406738996505737e-02 2.952354960143566132e-02 -8.539468795061111450e-02 -1.293018907308578491e-01 -2.835818529129028320e-01 6.228910088539123535e-01 -7.387009914964437485e-03 -5.112268924713134766e-01 -3.723196387290954590e-01 -8.650987148284912109e-01 6.911218166351318359e-01 2.645029425621032715e-01 -9.440410882234573364e-02 -3.568990826606750488e-01 -4.695339202880859375e-01 8.238835930824279785e-01 6.828835010528564453e-01 2.112496793270111084e-01 4.838303029537200928e-01 -1.167106181383132935e-01 -8.230878114700317383e-01 -4.841481149196624756e-02 1.920021697878837585e-02 1.413481235504150391e-01 -1.748087704181671143e-01 -1.250835955142974854e-01 9.399555623531341553e-02 -1.829466037452220917e-02 -1.214218419045209885e-02 1.813724339008331299e-01 -5.427997931838035583e-02 -9.852522611618041992e-01 -2.031250149011611938e-01 3.061378598213195801e-01 -6.455842256546020508e-01 1.196703687310218811e-01 -3.893943130970001221e-01 -9.413053989410400391e-01 -1.070050895214080811e-01 5.820696949958801270e-01 9.865173697471618652e-01 -3.244262337684631348e-01 -4.529182612895965576e-01 5.288929343223571777e-01 -2.106277197599411011e-01 -2.653360962867736816e-01 5.625625252723693848e-01 -1.132108345627784729e-01 -2.733184993267059326e-01 -8.178004063665866852e-03 2.384824678301811218e-03 -4.514016211032867432e-02 1.354486942291259766e-01 3.394478932023048401e-03 -1.124400794506072998e-01 -2.590508759021759033e-01 7.136133313179016113e-02 5.115294083952903748e-02 -6.034960746765136719e-01 4.626458510756492615e-02 4.084456562995910645e-01 -9.604306891560554504e-03 9.097886085510253906e-01 4.917916357517242432e-01 -2.344356775283813477e-01 -5.679838359355926514e-02 1.505534797906875610e-01 -6.879659891128540039e-01 1.284876018762588501e-01 -8.662514090538024902e-01 -5.832632184028625488e-01 5.947576761245727539e-01 -3.987376689910888672e-01 -2.641467750072479248e-01 -7.331240773200988770e-01 -7.250085473060607910e-01 -1.113509014248847961e-02 -4.110915586352348328e-02 3.567732870578765869e-02 4.257339611649513245e-02 2.011844813823699951e-01 5.654546245932579041e-02 -1.216366048902273178e-02 1.748036965727806091e-02 -2.025015503168106079e-01 3.581815063953399658e-01 -3.202731907367706299e-01 -1.034211590886116028e-01 1.318018883466720581e-01 1.464347690343856812e-01 -5.415992140769958496e-01 -2.490011006593704224e-01 4.796890616416931152e-01 -4.649950265884399414e-01 8.413632512092590332e-01 4.197669923305511475e-01 -4.880258440971374512e-01 -9.899878501892089844e-01 -2.493779361248016357e-01 5.826497673988342285e-01 6.215220093727111816e-01 -9.718980789184570312e-01 6.004517078399658203e-01 -1.445273309946060181e-01 -9.906550869345664978e-03 -5.344951525330543518e-03 -5.519661307334899902e-02 1.262093931436538696e-01 2.477730251848697662e-02 2.435844391584396362e-01 1.615283265709877014e-02 -7.292241603136062622e-02 -4.167756438255310059e-01 5.961373448371887207e-01 -2.145683765411376953e-02 6.476952433586120605e-01 -9.477158188819885254e-01 -4.460196197032928467e-01 -6.254542469978332520e-01 -1.423339098691940308e-01 3.395962417125701904e-01 -6.164073944091796875e-02 -5.386783480644226074e-01 -5.828453898429870605e-01 -2.734264433383941650e-01 -3.229931592941284180e-01 5.413529276847839355e-01 2.223210036754608154e-01 -4.362140595912933350e-02 -1.088761910796165466e-01 -4.684246703982353210e-02 3.293586969375610352e-01 -3.429923355579376221e-01 -2.850777208805084229e-01 5.298845171928405762e-01 1.020784825086593628e-01 -2.905219197273254395e-01 1.941659301519393921e-01 -2.800338268280029297e-01 2.233143001794815063e-01 -3.199761509895324707e-01 -1.232744336128234863e+00 -2.811506390571594238e-01 -6.254479885101318359e-01 6.230770945549011230e-01 -6.196447014808654785e-01 -1.449007727205753326e-02 1.152805313467979431e-01 -3.287241980433464050e-02 8.887948989868164062e-01 6.936879754066467285e-01 -7.310741394758224487e-02 1.114671379327774048e-01 5.024416372179985046e-02 7.330984473228454590e-01 -2.628438770771026611e-01 -4.807569086551666260e-01 1.745339632034301758e-01 7.815416902303695679e-02 -2.111531049013137817e-01 3.585619479417800903e-02 -3.513790667057037354e-02 1.242976784706115723e-01 -1.380972713232040405e-01 1.958404667675495148e-02 2.680019848048686981e-02 1.641538441181182861e-01 -6.742212921380996704e-02 -2.433293163776397705e-01 7.167909741401672363e-01 -1.154025569558143616e-01 7.786191701889038086e-01 -5.238757729530334473e-01 5.436162352561950684e-01 -7.630336880683898926e-01 -2.822842001914978027e-01 9.434225559234619141e-01 9.479032456874847412e-02 1.024880930781364441e-01 -6.109894514083862305e-01 -1.100668609142303467e-01 4.864308983087539673e-02 -3.457890152931213379e-01 -5.246028304100036621e-01 -1.983864158391952515e-01 1.687804609537124634e-01 -1.365823745727539062e-01 6.129324808716773987e-02 7.713426649570465088e-02 -2.985561033710837364e-03 -1.522229332476854324e-02 8.068393170833587646e-02 5.993917956948280334e-02 -8.470450043678283691e-01 -4.615355134010314941e-01 -6.253034472465515137e-01 -5.535424351692199707e-01 -2.795898616313934326e-01 5.225580930709838867e-01 7.884971797466278076e-02 -4.373965859413146973e-01 -1.942022144794464111e-02 8.798699826002120972e-03 3.348828554153442383e-01 7.869436740875244141e-01 -5.944148898124694824e-01 7.638522386550903320e-01 1.485432591289281845e-02 -2.075468450784683228e-01 1.110253483057022095e-01 5.903602242469787598e-01 1.208777576684951782e-01 -3.894427716732025146e-01 -1.181374788284301758e-01 2.313036471605300903e-01 -3.043774068355560303e-01 -1.073313504457473755e-01 1.391334235668182373e-01 -5.011980235576629639e-02 -5.764748156070709229e-02 -6.008925437927246094e-01 -5.987654626369476318e-02 -2.798694372177124023e-01 5.914172902703285217e-02 3.922409936785697937e-02 3.020750731229782104e-02 5.707378983497619629e-01 1.639426946640014648e-01 -7.257582545280456543e-01 7.270649671554565430e-01 6.216262001544237137e-03 -2.625345289707183838e-01 -2.941529639065265656e-02 -2.445729672908782959e-01 -2.423251569271087646e-01 -8.964372277259826660e-01 4.243354499340057373e-01 7.526159882545471191e-01 2.699252367019653320e-01 -2.269193381071090698e-01 1.678099632263183594e-01 -1.674338430166244507e-01 -6.882640719413757324e-01 -8.461485803127288818e-02 3.627228736877441406e-01 -1.484254449605941772e-01 1.096590906381607056e-01 -8.259062655270099640e-03 1.017692848108708858e-03 -7.638098299503326416e-02 5.188614502549171448e-02 1.308088183403015137e+00 5.796066252514719963e-04 -3.071870654821395874e-02 4.975474998354911804e-02 2.694653347134590149e-02 1.048483513295650482e-02 2.479616738855838776e-02 -4.589502885937690735e-02 7.233791798353195190e-02 1.334554433822631836e+00 1.077976301312446594e-01 -3.901584446430206299e-02 9.975425899028778076e-02 2.131447382271289825e-02 2.169576138257980347e-01 -3.745706751942634583e-02 -1.288143247365951538e-01 -2.242981642484664917e-02 2.417895793914794922e-01 7.594322413206100464e-02 -1.046434566378593445e-01 7.062797248363494873e-02 -3.477433323860168457e-02 3.267591446638107300e-02 6.252825260162353516e-01 2.769035995006561279e-01 -1.219894364476203918e-01 2.593450844287872314e-01 -2.037105262279510498e-01 9.249317646026611328e-02 -2.662664651870727539e-01 -5.932692289352416992e-01 -4.581063389778137207e-01 4.683496057987213135e-01 -8.327454924583435059e-01 -6.993781328201293945e-01 2.480639815330505371e-01 9.092765450477600098e-01 -3.160583376884460449e-01 8.780550956726074219e-01 -4.308471679687500000e-01 -1.252857595682144165e-01 2.254442870616912842e-02 -2.086408585309982300e-01 1.280100345611572266e-01 7.280270010232925415e-02 1.265223622322082520e-01 -1.064953685272485018e-04 -2.783880941569805145e-02 -5.387778580188751221e-02 -1.057842731475830078e+00 7.498642802238464355e-01 8.028198778629302979e-02 -2.291186153888702393e-01 -4.684081673622131348e-01 7.164121419191360474e-02 5.908697843551635742e-01 -5.929940938949584961e-01 -7.450944781303405762e-01 1.958612352609634399e-01 4.864847958087921143e-01 -8.828114867210388184e-01 -4.468626976013183594e-01 -2.145802229642868042e-01 1.866795569658279419e-01 2.210391014814376831e-01 -4.172363877296447754e-01 4.126474857330322266e-01 3.984662890434265137e-02 1.777350455522537231e-01 2.192529886960983276e-01 -1.436440646648406982e-01 8.484904468059539795e-02 -3.089898824691772461e-02 7.720278948545455933e-02 -5.347175523638725281e-02 -2.842509150505065918e-01 3.495543897151947021e-01 -8.910644054412841797e-02 6.869150400161743164e-01 2.394474297761917114e-01 2.936116755008697510e-01 3.546760380268096924e-01 -5.026093721389770508e-01 4.326648414134979248e-01 6.676732897758483887e-01 -1.368135958909988403e-01 -2.460924535989761353e-01 -6.804214715957641602e-01 -4.052373394370079041e-02 7.232094407081604004e-01 -2.212741523981094360e-01 3.119018860161304474e-02 -2.564067542552947998e-01 9.322297573089599609e-01 -1.455323100090026855e-01 2.781392633914947510e-01 -1.240140870213508606e-01 2.565813064575195312e-01 3.858572840690612793e-01 -4.818885400891304016e-02 -3.522934913635253906e-01 -1.069778650999069214e-01 -2.137078642845153809e-01 -1.761118173599243164e-01 -3.399823904037475586e-01 2.799877822399139404e-01 6.244721412658691406e-01 3.293888568878173828e-01 6.802486777305603027e-01 -9.060683250427246094e-01 -8.231433033943176270e-01 8.945294022560119629e-01 -3.078454434871673584e-01 -1.482301205396652222e-01 -2.359096407890319824e-01 -4.875273704528808594e-01 -1.755860000848770142e-01 -7.031031250953674316e-01 -1.744764894247055054e-01 -1.477319896221160889e-01 -2.191700041294097900e-01 1.048766002058982849e-01 -1.042559370398521423e-01 -1.344545483589172363e-01 9.315164387226104736e-02 1.660087257623672485e-01 2.064180821180343628e-01 -2.978096157312393188e-02 -1.911733597517013550e-01 1.180914863944053650e-01 1.115688532590866089e-01 -4.859393537044525146e-01 3.469598293304443359e-01 -3.794066905975341797e-01 -7.967621684074401855e-01 4.396959245204925537e-01 6.083757281303405762e-01 1.989581733942031860e-01 7.351615428924560547e-01 -1.324730515480041504e-01 3.636611998081207275e-01 -9.246528744697570801e-01 -3.864660263061523438e-01 -1.038088873028755188e-01 -4.754486680030822754e-01 -7.138674259185791016e-01 3.822749853134155273e-01 -1.140134096145629883e+00 5.320850014686584473e-02 2.866966836154460907e-02 2.872446179389953613e-02 5.155603215098381042e-02 8.704012632369995117e-02 -1.065738052129745483e-01 -7.618215680122375488e-02 -1.745533794164657593e-01 -1.166131943464279175e-01 3.292474448680877686e-01 -2.883503437042236328e-01 1.335761845111846924e-01 -1.962229907512664795e-01 -8.453565239906311035e-01 -5.274060368537902832e-01 -8.039585500955581665e-02 -6.958804726600646973e-01 -3.510179817676544189e-01 -1.506250351667404175e-01 5.570787191390991211e-01 -2.982833683490753174e-01 8.057907223701477051e-01 5.280318260192871094e-01 6.279363036155700684e-01 7.530705630779266357e-02 -7.090296149253845215e-01 6.950934976339340210e-02 -9.575296938419342041e-02 9.538928419351577759e-02 2.945301532745361328e-01 -4.223044216632843018e-01 8.591286838054656982e-02 1.258435752242803574e-02 2.818984389305114746e-01 -7.383546233177185059e-02 -1.071943640708923340e-01 3.247458934783935547e-01 1.843055151402950287e-02 -8.688001036643981934e-01 -6.265228241682052612e-02 7.179836034774780273e-01 -4.041899144649505615e-01 -2.432838380336761475e-01 6.474982500076293945e-01 3.771836757659912109e-01 -2.154553681612014771e-01 -4.167576506733894348e-02 -1.874102205038070679e-01 2.366138696670532227e-01 -2.826682627201080322e-01 1.197125986218452454e-01 -1.139038577675819397e-01 -1.363799273967742920e-01 -1.255362033843994141e+00 5.518853664398193359e-02 -6.599166244268417358e-02 -2.004448622465133667e-01 -6.339964270591735840e-02 5.939206480979919434e-01 1.408311426639556885e-01 -1.142473369836807251e-01 4.917341768741607666e-01 2.599120140075683594e-01 
1.184627294540405273e+00 1.417648196220397949e+00 1.330858469009399414e+00 1.179391741752624512e+00 1.293141961097717285e+00 1.112751603126525879e+00 1.500086188316345215e+00 1.235863804817199707e+00 1.099298715591430664e+00 9.586848020553588867e-01 1.269710421562194824e+00 1.243931651115417480e+00 1.219927787780761719e+00 1.120589852333068848e+00 1.072998404502868652e+00 1.209536790847778320e+00 1.343196749687194824e+00 1.063740015029907227e+00 1.137583136558532715e+00 1.236242771148681641e+00 1.297856092453002930e+00 1.073884367942810059e+00 1.092170000076293945e+00 6.583473086357116699e-01 1.179517030715942383e+00 1.150886893272399902e+00 1.091074109077453613e+00 1.060005426406860352e+00 1.260828495025634766e+00 1.215718865394592285e+00 1.404781341552734375e+00 1.024108409881591797e+00 
-4.030869603157043457e-01 -5.217987671494483948e-02 5.975776910781860352e-02 -1.480881422758102417e-01 -2.856011986732482910e-01 -3.655838966369628906e-02 1.341855525970458984e-01 -2.706187665462493896e-01 -4.820361435413360596e-01 -2.373814396560192108e-02 5.549511872231960297e-03 -2.565039098262786865e-01 -2.945474386215209961e-01 -8.045915365219116211e-01 -4.517906308174133301e-01 -2.887644171714782715e-01 -3.695586919784545898e-01 -3.263150155544281006e-01 8.593864738941192627e-02 -1.512703448534011841e-01 -3.476013541221618652e-01 -3.949255645275115967e-01 2.364582121372222900e-01 2.388779819011688232e-01 4.433217942714691162e-01 -1.239141076803207397e-01 -1.448152065277099609e-01 -3.131406903266906738e-01 -1.106466650962829590e-01 9.249819070100784302e-02 1.684126816689968109e-02 -7.605390548706054688e-01 
-3.006691336631774902e-01 4.224948212504386902e-02 1.413540095090866089e-01 -7.763766497373580933e-02 -3.009292483329772949e-01 -3.247431218624114990e-01 -6.869270205497741699e-01 -2.649394273757934570e-01 -2.287198416888713837e-02 -6.443602591753005981e-02 4.184107854962348938e-02 -6.239314004778862000e-02 -1.886521428823471069e-01 -1.782859563827514648e-01 4.236765950918197632e-02 4.530187696218490601e-03 -3.303899466991424561e-01 -8.083863556385040283e-02 -1.151644624769687653e-02 -1.903182119131088257e-01 -8.659550547599792480e-02 8.851838111877441406e-02 -4.353221952915191650e-01 -3.895023763179779053e-01 5.712544918060302734e-01 3.749326989054679871e-02 -2.311628907918930054e-01 4.525932669639587402e-01 -7.393376529216766357e-02 -2.596184313297271729e-01 -1.951509118080139160e-01 4.418430626392364502e-01 
5.150678753852844238e-01 6.095591187477111816e-01 4.193185865879058838e-01 4.728829562664031982e-01 5.673404932022094727e-01 5.912798047065734863e-01 8.564736843109130859e-01 6.022768616676330566e-01 5.703371763229370117e-01 4.715076088905334473e-01 5.014868378639221191e-01 4.817247092723846436e-01 5.344476699829101562e-01 4.881849884986877441e-01 5.538753271102905273e-01 5.237594842910766602e-01 5.926012992858886719e-01 4.073409736156463623e-01 5.678959488868713379e-01 5.221850872039794922e-01 5.332692861557006836e-01 4.134818613529205322e-01 5.065342783927917480e-01 4.855214059352874756e-01 4.100388586521148682e-01 4.355590045452117920e-01 5.364332795143127441e-01 4.262358546257019043e-01 5.199207067489624023e-01 6.336112618446350098e-01 4.808824360370635986e-01 7.052301764488220215e-01 
-2.669077217578887939e-01 -1.797825694084167480e-01 -4.986577928066253662e-01 4.020697772502899170e-01 5.129996538162231445e-01 -4.176152348518371582e-01 -4.458217918872833252e-01 1.853605210781097412e-01 2.273571938276290894e-01 -1.666835546493530273e-01 3.821751475334167480e-02 4.271992146968841553e-01 3.825238943099975586e-01 2.330005615949630737e-01 1.482944190502166748e-01 -1.888177171349525452e-02 -3.835168480873107910e-01 -2.721155583858489990e-01 5.932334065437316895e-01 1.442666724324226379e-02 -8.026406168937683105e-01 1.914562657475471497e-02 -6.099625229835510254e-01 3.717153668403625488e-01 -5.501958131790161133e-01 4.828826487064361572e-01 -4.529548585414886475e-01 -3.926952555775642395e-02 3.785910308361053467e-01 2.854162012226879597e-04 1.701059788465499878e-01 -4.052012413740158081e-02 4.385553598403930664e-01 -8.825213313102722168e-01 1.806576550006866455e-01 -2.912360429763793945e-01 -2.668862342834472656e-01 -3.779621720314025879e-01 -8.949556946754455566e-01 -1.882014572620391846e-01 6.548989415168762207e-01 3.545704782009124756e-01 1.952597945928573608e-01 -4.795475304126739502e-01 -1.834465563297271729e-01 1.889853328466415405e-01 -2.681728899478912354e-01 4.569284915924072266e-01 5.389460921287536621e-01 -5.169025063514709473e-01 -3.200983405113220215e-01 -4.340651035308837891e-01 -1.326687783002853394e-01 -4.621130228042602539e-01 4.933636263012886047e-02 1.299308687448501587e-01 4.533263146877288818e-01 1.226018816232681274e-01 3.006279468536376953e-02 -1.939121186733245850e-01 7.495205849409103394e-02 -5.900589823722839355e-01 2.683502137660980225e-01 -5.468610525131225586e-01 4.916495084762573242e-01 2.525442540645599365e-01 2.129582166671752930e-01 -3.477946221828460693e-01 -2.717436756938695908e-03 1.332277059555053711e-01 2.595639228820800781e-01 7.501251697540283203e-01 2.426954656839370728e-01 2.469668164849281311e-03 -4.311920702457427979e-01 -2.574503123760223389e-01 -2.779464423656463623e-01 3.408606350421905518e-01 6.915861368179321289e-01 -3.396025896072387695e-01 4.223346710205078125e-01 -1.621253192424774170e-01 -2.405669987201690674e-01 -5.042584240436553955e-02 -1.087491363286972046e-01 -5.387195348739624023e-01 -2.789978384971618652e-01 4.602752923965454102e-01 -1.496752798557281494e-01 -1.145865395665168762e-01 -1.517957448959350586e-01 -3.212747871875762939e-01 -6.818289160728454590e-01 3.818258345127105713e-01 1.228856891393661499e-01 4.945513308048248291e-01 6.990811228752136230e-01 2.886501252651214600e-01 2.158633470535278320e-01 1.158005222678184509e-01 -5.870454311370849609e-01 -8.859288692474365234e-01 -6.600258350372314453e-01 3.416199684143066406e-01 1.842734962701797485e-01 -2.760778665542602539e-01 2.037745267152786255e-01 -5.833544135093688965e-01 1.132081523537635803e-01 4.250606596469879150e-01 -2.353472560644149780e-01 -9.125313758850097656e-01 -1.316169351339340210e-01 3.671147227287292480e-01 -1.786847859621047974e-01 -7.347612977027893066e-01 1.673721224069595337e-01 -4.179385006427764893e-01 -3.027530312538146973e-01 1.890714764595031738e-01 -3.401416540145874023e-01 -4.281741678714752197e-01 -3.356285989284515381e-01 3.539766073226928711e-01 3.900355994701385498e-01 -6.492148637771606445e-01 -5.604033470153808594e-01 -7.980060577392578125e-01 -5.193004012107849121e-01 -8.313705027103424072e-02 2.420662343502044678e-01 1.746690720319747925e-01 -2.239216566085815430e-01 -1.036475598812103271e-01 -8.771566748619079590e-01 -2.422751672565937042e-02 6.190046668052673340e-02 5.487897992134094238e-01 -3.479838967323303223e-01 -3.731107115745544434e-01 -4.223369807004928589e-02 4.303092658519744873e-01 -8.422372937202453613e-01 6.158107519149780273e-01 6.285942792892456055e-01 3.046055436134338379e-01 -4.843996763229370117e-01 2.719143331050872803e-01 3.189707100391387939e-01 1.014885082840919495e-01 -9.830107092857360840e-01 -1.698372364044189453e-01 -1.495570242404937744e-01 -5.505836755037307739e-02 2.031104117631912231e-01 2.525649592280387878e-02 -2.840022146701812744e-01 5.387055873870849609e-01 8.774650096893310547e-02 -6.460818648338317871e-01 -5.013458803296089172e-02 8.163430094718933105e-01 5.675166472792625427e-02 3.941186368465423584e-01 -4.743947088718414307e-01 4.936946928501129150e-01 3.760591149330139160e-01 4.756054654717445374e-02 -2.926536202430725098e-01 -3.997449204325675964e-02 -1.125094652175903320e+00 5.246369913220405579e-02 5.963920429348945618e-02 6.330165266990661621e-01 -2.131902128458023071e-01 3.126449286937713623e-01 1.302740275859832764e-01 -2.797448039054870605e-01 -5.248966217041015625e-01 -4.497080147266387939e-01 -1.506965011358261108e-01 -7.943593263626098633e-01 -7.493557929992675781e-01 1.366609334945678711e-01 -1.504558920860290527e-01 4.877257049083709717e-01 2.898052036762237549e-01 -1.455617547035217285e-01 -4.663439989089965820e-01 3.211271166801452637e-01 3.346157819032669067e-02 -5.996531248092651367e-01 1.470603495836257935e-01 -1.925979852676391602e-01 2.654977142810821533e-01 -3.613865375518798828e-01 7.882271707057952881e-02 1.567507684230804443e-01 -3.175452947616577148e-01 -5.566934943199157715e-01 -2.970578968524932861e-01 5.500889569520950317e-02 6.731222569942474365e-02 1.610973328351974487e-01 6.317126750946044922e-01 -5.643330812454223633e-01 1.634061187505722046e-01 -2.097276970744132996e-02 3.593789339065551758e-01 -3.848402574658393860e-02 7.855099439620971680e-02 -3.762347102165222168e-01 -3.393253684043884277e-01 7.020133733749389648e-01 1.963542401790618896e-01 1.299765706062316895e-01 1.831127852201461792e-01 -1.030351966619491577e-01 -2.724013328552246094e-01 -1.896869391202926636e-01 4.947305023670196533e-01 -4.646337330341339111e-01 -1.846226453781127930e-01 -3.715139329433441162e-01 -7.779016345739364624e-02 5.495554767549037933e-03 -1.008730679750442505e-01 3.956373929977416992e-01 1.180320084095001221e-01 2.948417961597442627e-01 2.719992995262145996e-01 -4.667653143405914307e-01 1.749614030122756958e-01 -5.705057978630065918e-01 -9.315769374370574951e-02 -6.039097905158996582e-01 4.670598730444908142e-02 7.443078756332397461e-01 -4.820483550429344177e-02 -5.604231264442205429e-03 5.891185998916625977e-02 2.366486638784408569e-01 1.512825638055801392e-01 5.423977226018905640e-02 3.306677937507629395e-01 -2.166543900966644287e-01 -1.525445580482482910e-01 6.871452182531356812e-02 -1.365950107574462891e-01 1.973716914653778076e-01 -3.837250173091888428e-01 5.119584128260612488e-02 9.787404537200927734e-02 -1.658708453178405762e-01 -8.322412520647048950e-02 -1.520232409238815308e-01 2.099988162517547607e-01 1.098815798759460449e-01 -2.639234066009521484e-02 -4.501657783985137939e-01 6.269152760505676270e-01 1.442585587501525879e-01 -1.494057942181825638e-02 -3.857366740703582764e-01 3.031595349311828613e-01 -5.533806681632995605e-01 7.916072607040405273e-01 -5.890787243843078613e-01 5.888003110885620117e-01 3.668934339657425880e-03 3.979136347770690918e-01 4.213960096240043640e-02 -3.246560692787170410e-01 -6.916220784187316895e-01 2.680165469646453857e-01 9.987425804138183594e-02 4.383504018187522888e-02 -1.626522392034530640e-01 -7.400901317596435547e-01 4.432483315467834473e-01 -5.090661644935607910e-01 3.501230180263519287e-01 -5.831658244132995605e-01 3.804026544094085693e-01 3.658069968223571777e-01 8.679831027984619141e-02 -7.330621033906936646e-02 -8.169958740472793579e-02 6.083809733390808105e-01 2.674199640750885010e-01 -1.675863564014434814e-01 -9.288349002599716187e-02 2.778656184673309326e-01 6.381123661994934082e-01 1.080241575837135315e-01 -4.244054257869720459e-01 3.486891090869903564e-01 -2.931293249130249023e-01 -2.999134361743927002e-01 -5.859795212745666504e-01 2.297320067882537842e-01 -1.442749202251434326e-01 1.700793802738189697e-01 -3.906690478324890137e-01 -1.477210968732833862e-01 -2.186487168073654175e-01 -3.886366784572601318e-01 2.626386582851409912e-01 2.110161930322647095e-01 -5.782432109117507935e-02 4.552277922630310059e-01 3.804184198379516602e-01 1.323852688074111938e-01 -7.626001834869384766e-01 6.973392516374588013e-02 -2.660964429378509521e-01 4.748451709747314453e-02 1.263793408870697021e-01 3.575145900249481201e-01 1.719816476106643677e-01 -6.196817755699157715e-01 -6.006693243980407715e-01 -3.602630794048309326e-01 -2.221289575099945068e-01 7.477511167526245117e-01 -7.362917065620422363e-01 -7.299995422363281250e-01 -2.623898983001708984e-01 4.949143901467323303e-02 -2.834646701812744141e-01 -1.733799427747726440e-01 2.485200613737106323e-01 -1.851578354835510254e-01 8.812420070171356201e-02 6.687732338905334473e-01 3.026200532913208008e-01 -3.612380623817443848e-01 -5.848604440689086914e-02 4.838890582323074341e-02 -6.961913406848907471e-02 2.089573591947555542e-01 1.506307125091552734e-01 -7.140842080116271973e-02 -8.888975977897644043e-01 1.151366275735199451e-03 -1.003086119890213013e-01 -6.174308434128761292e-02 2.684296667575836182e-02 1.192655712366104126e-01 3.645378947257995605e-01 -4.151909351348876953e-01 -5.220034718513488770e-01 7.317711710929870605e-01 6.330738067626953125e-01 7.847097516059875488e-01 3.200253844261169434e-01 2.072466611862182617e-01 -3.776078671216964722e-02 2.375348657369613647e-02 -3.810771703720092773e-01 5.110462307929992676e-01 1.810300350189208984e-01 -1.584697812795639038e-01 -4.910405278205871582e-01 4.253908991813659668e-01 5.836173892021179199e-01 -4.094023406505584717e-01 1.506281048059463501e-01 -7.318977713584899902e-01 -3.666297197341918945e-01 8.786770701408386230e-02 -2.426458895206451416e-01 -2.131173610687255859e-01 -3.951092809438705444e-02 -1.935247778892517090e-01 -1.068559437990188599e-01 2.394117414951324463e-02 -1.052459955215454102e+00 -3.213265910744667053e-02 -1.401757746934890747e-01 4.331709817051887512e-02 3.571279644966125488e-01 -3.434474170207977295e-01 -6.605915427207946777e-01 -4.258593618869781494e-01 -6.295380592346191406e-01 -1.165236998349428177e-02 -2.887591123580932617e-01 1.733159869909286499e-01 1.916401982307434082e-01 3.301416039466857910e-01 4.581973254680633545e-01 -2.199453264474868774e-01 2.963419258594512939e-01 1.080114841461181641e-01 2.161551825702190399e-02 -5.433035492897033691e-01 -1.892712265253067017e-01 7.233590353280305862e-03 4.322447478771209717e-01 3.388569653034210205e-01 1.230389699339866638e-01 -2.090566307306289673e-01 -1.664213091135025024e-01 -4.585418403148651123e-01 -5.086527466773986816e-01 -4.386293888092041016e-01 -1.540508121252059937e-02 -3.954103887081146240e-01 3.493572175502777100e-01 3.687091767787933350e-01 -1.335403788834810257e-02 1.552555412054061890e-01 1.608339101076126099e-01 -7.728661894798278809e-01 6.385121345520019531e-01 6.939287185668945312e-01 -2.305819839239120483e-01 -2.082000374794006348e-01 -8.045994639396667480e-01 -4.022344946861267090e-02 -4.713095128536224365e-01 1.608222872018814087e-01 -3.112773001194000244e-01 -4.945672154426574707e-01 -4.150885939598083496e-01 1.460176408290863037e-01 1.524583548307418823e-01 4.398661255836486816e-01 -5.515359044075012207e-01 -6.466601788997650146e-02 -5.780270099639892578e-01 2.239888533949851990e-03 2.442230284214019775e-01 4.084557592868804932e-01 -2.094794511795043945e-01 4.012970626354217529e-01 3.814054653048515320e-02 5.531093478202819824e-02 1.900028251111507416e-02 -1.175806373357772827e-01 -1.043566837906837463e-01 1.125498339533805847e-01 7.556893825531005859e-01 9.082525968551635742e-02 1.008393764495849609e-01 -6.912290453910827637e-01 8.406715095043182373e-02 -3.166114911437034607e-03 -2.638449668884277344e-01 3.587228953838348389e-01 1.287406086921691895e-01 -1.948837004601955414e-02 -5.939318537712097168e-01 -1.726519763469696045e-01 -7.383179068565368652e-01 -2.175439149141311646e-01 5.884114503860473633e-01 -4.261973500251770020e-01 -3.518500030040740967e-01 -3.491923213005065918e-02 -1.864566951990127563e-01 -1.413072645664215088e-01 1.414288133382797241e-01 2.966907322406768799e-01 4.298197850584983826e-02 1.636238247156143188e-01 2.612717151641845703e-01 2.378284335136413574e-01 4.405157864093780518e-01 3.473859727382659912e-01 -6.533922255039215088e-02 1.955976337194442749e-02 -4.907250404357910156e-01 2.538509368896484375e-01 -6.452201008796691895e-01 -2.069521844387054443e-01 4.909117519855499268e-01 3.935654088854789734e-02 1.786485165357589722e-01 -6.273384094238281250e-01 3.772800862789154053e-01 3.743032813072204590e-01 -4.509909152984619141e-01 -5.141927003860473633e-01 -5.205523967742919922e-01 2.230738997459411621e-01 4.644381999969482422e-01 -3.569079339504241943e-01 9.742417186498641968e-02 -1.733569651842117310e-01 -3.833561837673187256e-01 -2.873403728008270264e-01 8.970756828784942627e-02 -6.011705398559570312e-01 2.142577022314071655e-01 2.498445957899093628e-01 -4.711463749408721924e-01 3.509110212326049805e-01 -3.294312357902526855e-01 -5.736946687102317810e-02 -7.812852859497070312e-01 1.015608906745910645e-01 -3.250471353530883789e-01 -8.177366256713867188e-01 -3.381129205226898193e-01 2.592336237430572510e-01 -2.083925604820251465e-01 1.202406287193298340e-01 -1.353031545877456665e-01 4.439278841018676758e-01 5.871147513389587402e-01 2.018349766731262207e-01 -7.937965542078018188e-02 8.556743711233139038e-02 -2.907243324443697929e-03 -4.455447494983673096e-01 5.192536711692810059e-01 2.005091607570648193e-01 1.889153420925140381e-01 1.081806793808937073e-01 8.695925772190093994e-02 3.574345111846923828e-01 2.231083512306213379e-01 -3.549799025058746338e-01 -9.966003298759460449e-01 8.065015077590942383e-02 1.128995046019554138e-01 2.859663963317871094e-01 2.190980166196823120e-01 2.102195173501968384e-01 -8.441756367683410645e-01 -3.505407273769378662e-01 -1.716224849224090576e-01 1.899179369211196899e-01 -2.382324635982513428e-02 -1.257365494966506958e-01 -6.741657108068466187e-02 8.447329401969909668e-01 -5.698040127754211426e-02 -1.666526310145854950e-02 2.153081744909286499e-01 -4.340547323226928711e-01 3.201377093791961670e-01 -8.091195821762084961e-01 -2.135740518569946289e-01 -1.477840095758438110e-01 -1.328569501638412476e-01 6.548231840133666992e-01 -6.915822159498929977e-03 4.972976446151733398e-01 2.384252697229385376e-01 -6.814302802085876465e-01 3.191259130835533142e-02 -5.476667881011962891e-01 2.189208418130874634e-01 -1.383546113967895508e+00 1.620323657989501953e-01 4.346175491809844971e-02 -4.807224124670028687e-02 2.352798134088516235e-01 -2.765833437442779541e-01 -4.931457638740539551e-01 3.878583312034606934e-01 7.528753578662872314e-02 4.118811488151550293e-01 -3.418388962745666504e-01 -3.471444547176361084e-01 -1.197988167405128479e-01 5.061113238334655762e-01 7.619147896766662598e-01 4.954417347908020020e-01 -7.682949304580688477e-02 -9.432632923126220703e-01 -6.205941438674926758e-01 2.480595856904983521e-01 1.255105994641780853e-02 2.775075659155845642e-02 -1.240751743316650391e-01 -3.106931410729885101e-02 -3.243627548217773438e-01 5.717157721519470215e-01 9.006052017211914062e-01 -2.313317358493804932e-02 -7.871159315109252930e-01 2.294616252183914185e-01 -1.438171863555908203e-01 3.266097605228424072e-01 2.156729400157928467e-01 -1.338178757578134537e-03 9.913124144077301025e-02 3.395445942878723145e-01 2.646680474281311035e-01 2.101512551307678223e-01 -2.858479619026184082e-01 5.660909414291381836e-01 1.833586096763610840e-01 1.849220693111419678e-01 3.271358013153076172e-01 1.903737187385559082e-01 -3.919085860252380371e-01 -5.982325598597526550e-02 -5.028534531593322754e-01 1.496001631021499634e-01 1.319463998079299927e-01 -1.492255479097366333e-01 7.856156677007675171e-02 -4.170585274696350098e-01 -1.959247700870037079e-02 -4.495352208614349365e-01 2.522131204605102539e-01 -5.712109208106994629e-01 -6.430975794792175293e-01 -9.676454216241836548e-02 3.413309752941131592e-01 1.683824956417083740e-01 -3.416805714368820190e-02 -1.888523697853088379e-01 1.402677893638610840e-01 4.155279099941253662e-01 5.202401876449584961e-01 3.300782144069671631e-01 5.367014557123184204e-03 6.758902221918106079e-02 8.242282271385192871e-02 8.357321470975875854e-02 -6.757556796073913574e-01 5.931667089462280273e-01 -2.162675410509109497e-01 -5.743827819824218750e-01 3.113096654415130615e-01 2.068153209984302521e-02 9.202942848205566406e-01 -2.656085789203643799e-01 -1.007422581315040588e-01 -3.473909199237823486e-01 2.610217332839965820e-01 1.714919060468673706e-01 -3.264450132846832275e-01 5.614424943923950195e-01 -9.587740898132324219e-02 -7.455360889434814453e-01 -3.511968255043029785e-01 -2.235685139894485474e-01 4.671200215816497803e-01 -5.930586904287338257e-02 -5.422531962394714355e-01 3.915639594197273254e-02 -8.328075408935546875e-01 -1.890463829040527344e-01 -4.374659359455108643e-01 3.687662184238433838e-01 2.900276780128479004e-01 1.449713855981826782e-01 -3.392794728279113770e-01 -1.348250657320022583e-01 6.793404370546340942e-02 -1.902651786804199219e-02 -3.929661810398101807e-01 -5.045733451843261719e-01 -3.322091996669769287e-01 -5.631449222564697266e-01 -3.066901862621307373e-01 -1.250344663858413696e-01 2.054040282964706421e-01 -1.427775472402572632e-01 -9.340005517005920410e-01 -2.272130846977233887e-01 2.450893521308898926e-01 -5.608690977096557617e-01 3.536784648895263672e-02 4.758814275264739990e-01 6.161022782325744629e-01 -2.569685280323028564e-01 2.972704591229557991e-03 -3.595481626689434052e-03 8.933953642845153809e-01 -3.940642178058624268e-01 2.059211954474449158e-02 5.097749829292297363e-01 1.521143317222595215e-01 9.017024934291839600e-02 -6.075894236564636230e-01 -4.453670233488082886e-02 4.871090129017829895e-02 3.048447072505950928e-01 -4.017083942890167236e-01 -4.545789062976837158e-01 -4.460608959197998047e-01 -1.539075523614883423e-01 -1.137978196144104004e+00 -3.438036516308784485e-02 -1.890446245670318604e-01 4.428654443472623825e-03 5.605065226554870605e-01 -5.960532426834106445e-01 7.214205861091613770e-01 2.227579802274703979e-01 3.355294167995452881e-01 -4.279319643974304199e-01 3.677618801593780518e-01 -2.426870763301849365e-01 5.504788756370544434e-01 1.073400527238845825e-01 -4.491323530673980713e-01 6.098318472504615784e-02 1.359736472368240356e-01 -1.970566064119338989e-02 6.791683435440063477e-01 1.249927356839179993e-01 1.709040254354476929e-01 3.920589387416839600e-02 -4.311252757906913757e-02 6.021507382392883301e-01 -4.000868201255798340e-01 1.009251773357391357e-01 -6.457055807113647461e-01 -3.324472159147262573e-02 -1.067211255431175232e-01 -7.431147247552871704e-02 7.324012517929077148e-01 -4.122559428215026855e-01 2.879577279090881348e-01 3.476962745189666748e-01 -5.224854946136474609e-01 -3.540371954441070557e-01 4.000341594219207764e-01 4.591572582721710205e-01 -9.606361985206604004e-01 -5.969845652580261230e-01 3.938902318477630615e-01 7.815840840339660645e-02 -5.404148697853088379e-01 4.702420905232429504e-03 1.146261021494865417e-01 -1.935193389654159546e-01 1.887579858303070068e-01 -3.455286324024200439e-01 6.142289042472839355e-01 -2.550559118390083313e-02 -1.293890476226806641e-01 1.245419979095458984e-01 2.576633989810943604e-01 3.076561987400054932e-01 5.587596297264099121e-01 4.709100723266601562e-01 3.140684366226196289e-01 4.598571658134460449e-01 1.196411326527595520e-01 2.115511447191238403e-01 -6.086590290069580078e-01 1.652721017599105835e-01 -4.177389144897460938e-01 1.226340755820274353e-01 1.007175520062446594e-01 7.232739925384521484e-01 -2.325295805931091309e-01 -1.338943839073181152e-01 -3.263143897056579590e-01 -1.827055364847183228e-01 1.944414824247360229e-01 -2.717634439468383789e-01 2.906560897827148438e-01 -3.327587544918060303e-01 -8.139340579509735107e-02 -4.616397619247436523e-01 -3.556645214557647705e-01 -6.637122631072998047e-01 2.642839550971984863e-01 4.531259238719940186e-01 -2.178677916526794434e-01 -3.547472953796386719e-01 -1.334812790155410767e-01 -5.092276334762573242e-01 -6.070430576801300049e-02 -7.541207075119018555e-01 -1.820942759513854980e-01 4.888398945331573486e-02 4.111926257610321045e-02 -3.337197005748748779e-01 -6.412516813725233078e-03 -1.339218765497207642e-01 5.105636119842529297e-01 5.514011979103088379e-01 -2.640406787395477295e-01 -1.599120348691940308e-01 -5.384050682187080383e-02 3.279109895229339600e-01 6.120156049728393555e-01 2.596496641635894775e-01 -6.289830207824707031e-01 6.303575634956359863e-01 -3.120926022529602051e-01 2.349525094032287598e-01 -9.485744833946228027e-01 2.903223223984241486e-02 -1.048776283860206604e-01 2.493120171129703522e-02 -4.264423549175262451e-01 -4.210972785949707031e-01 -2.314413040876388550e-01 3.009267151355743408e-01 -3.236471116542816162e-02 -2.031291723251342773e-01 4.946403801441192627e-01 -1.257711052894592285e-01 -2.344927750527858734e-02 3.616466224193572998e-01 -8.781111985445022583e-02 -2.064305841922760010e-01 -1.150573715567588806e-01 -6.458681821823120117e-02 -4.891598969697952271e-02 -3.612102866172790527e-01 6.370018124580383301e-01 -2.567857503890991211e-01 1.020413041114807129e+00 3.816025555133819580e-01 4.684761464595794678e-01 -4.985099285840988159e-02 9.483293443918228149e-02 -6.310310959815979004e-01 1.188123300671577454e-01 5.790713429450988770e-02 -9.529187679290771484e-01 -6.220431923866271973e-01 -1.801809370517730713e-01 7.471096515655517578e-01 -9.832877665758132935e-02 -2.409827560186386108e-01 6.075024604797363281e-02 -6.181596219539642334e-02 6.689465790987014771e-02 -1.514969021081924438e-01 -4.989062547683715820e-01 2.184640914201736450e-01 4.785802662372589111e-01 -1.806468367576599121e-01 1.324658095836639404e-01 -1.755694150924682617e-01 -4.011871218681335449e-01 1.694824732840061188e-02 5.109252333641052246e-01 1.017615675926208496e+00 -1.744370311498641968e-01 -1.023170277476310730e-01 4.048040509223937988e-01 -2.678729593753814697e-01 4.572400450706481934e-01 3.460205793380737305e-01 2.731034755706787109e-01 -1.743078231811523438e-01 -2.484626919031143188e-01 3.184424936771392822e-01 -4.836256504058837891e-01 -1.767328083515167236e-01 2.632283866405487061e-01 1.498690694570541382e-01 5.180575251579284668e-01 3.118431568145751953e-01 1.431724876165390015e-01 -3.932783305644989014e-01 3.492839634418487549e-01 -4.015443027019500732e-01 -2.968516647815704346e-01 -2.053960114717483521e-01 1.543699204921722412e-01 -2.810548841953277588e-01 1.836883872747421265e-01 5.419418215751647949e-01 2.185163833200931549e-02 -1.111098006367683411e-02 -4.126522243022918701e-01 -2.050080001354217529e-01 -7.573869079351425171e-02 -1.734089553356170654e-01 4.016147851943969727e-01 -6.701828539371490479e-02 6.440979838371276855e-01 5.139536783099174500e-02 -8.596042543649673462e-02 -4.724781811237335205e-01 -6.931436061859130859e-02 7.961376011371612549e-02 8.442302048206329346e-02 -3.709971606731414795e-01 5.735797435045242310e-02 -2.585574286058545113e-03 -6.936189532279968262e-01 -2.416369616985321045e-01 -3.363167643547058105e-01 -7.302064895629882812e-01 -1.793195009231567383e-01 2.014883905649185181e-01 1.797848045825958252e-01 -1.068408638238906860e-01 9.799998998641967773e-02 1.054095387458801270e+00 -2.723374664783477783e-01 -5.881715416908264160e-01 -2.726592421531677246e-01 -3.836976587772369385e-01 6.271890997886657715e-01 -3.387529551982879639e-01 -2.257450670003890991e-02 2.279517799615859985e-01 -2.119149118661880493e-01 4.114796519279479980e-01 -1.902544647455215454e-01 -1.006572246551513672e+00 -3.508321046829223633e-01 -2.137102335691452026e-01 -7.321432232856750488e-02 -4.532351791858673096e-01 1.109284758567810059e-01 6.170287132263183594e-01 5.227584764361381531e-02 5.392037332057952881e-02 -8.395563364028930664e-01 -4.008167982101440430e-01 2.805925719439983368e-02 -1.406816244125366211e-01 2.642054855823516846e-01 8.210398554801940918e-01 4.889420568943023682e-01 3.758134245872497559e-01 7.212924957275390625e-02 2.516827881336212158e-01 2.317732423543930054e-01 4.451709985733032227e-02 -1.535766273736953735e-01 -1.646139286458492279e-02 1.409068256616592407e-01 9.188916683197021484e-01 -1.581195890903472900e-01 -3.762902021408081055e-01 6.917077302932739258e-01 4.452212154865264893e-02 -2.790540158748626709e-01 6.504456996917724609e-01 -4.191781207919120789e-02 4.599386081099510193e-02 -4.268489181995391846e-01 -7.323193829506635666e-03 6.044618487358093262e-01 5.333299189805984497e-02 9.710614085197448730e-01 -1.766304224729537964e-01 3.475983142852783203e-01 3.994573652744293213e-01 -3.239843845367431641e-01 -4.560142159461975098e-01 -3.804554641246795654e-01 -2.386977970600128174e-01 -1.948278844356536865e-01 2.462039329111576080e-02 2.083293721079826355e-02 1.031745448708534241e-01 2.126464694738388062e-01 5.818876028060913086e-01 -1.006830334663391113e+00 7.323116064071655273e-01 -9.458019137382507324e-01 -2.249805629253387451e-01 -5.602815747261047363e-01 -5.185162276029586792e-02 -1.715219169855117798e-01 -3.178494572639465332e-01 -9.895635396242141724e-02 3.782078251242637634e-02 -2.458619177341461182e-01 -1.355073601007461548e-01 6.317820549011230469e-01 -2.715819776058197021e-01 4.285164773464202881e-01 -1.969968527555465698e-01 -1.374954134225845337e-01 -2.231944203376770020e-01 -2.967872917652130127e-01 3.205499351024627686e-01 2.881031036376953125e-01 -6.446330547332763672e-01 -4.432797729969024658e-01 -1.152890175580978394e-01 -1.775901615619659424e-01 -6.082973480224609375e-01 -4.797325655817985535e-02 -3.575126230716705322e-01 -1.531422287225723267e-01 -1.511274427175521851e-01 -1.512037068605422974e-01 2.297144830226898193e-01 -1.704203784465789795e-01 -5.333685278892517090e-01 -1.581658273935317993e-01 -1.634847372770309448e-01 6.004583463072776794e-02 5.303711071610450745e-02 -3.267668485641479492e-01 4.889168739318847656e-01 -8.687350898981094360e-02 -6.681339144706726074e-01 3.466737107373774052e-04 3.406724631786346436e-01 6.876264810562133789e-01 -1.405992545187473297e-02 2.033312916755676270e-01 -3.134686052799224854e-01 4.370189085602760315e-02 2.146010249853134155e-01 -4.731596708297729492e-01 -7.102845311164855957e-01 -4.172506630420684814e-01 -2.024381905794143677e-01 7.725510597229003906e-01 2.301620990037918091e-01 -2.680587954819202423e-02 1.023244857788085938e+00 5.049431230872869492e-03 -1.169279962778091431e-01 1.412143260240554810e-01 -5.235518328845500946e-03 -7.771634310483932495e-02 -4.802400991320610046e-02 -2.352925017476081848e-02 -4.732720553874969482e-01 8.000759035348892212e-02 4.461133778095245361e-01 9.526041150093078613e-01 -1.705513745546340942e-01 2.417370676994323730e-01 -5.537153482437133789e-01 6.961637735366821289e-01 -6.462484598159790039e-01 -8.530202321708202362e-03 -2.530037462711334229e-01 5.099985003471374512e-02 5.341236591339111328e-01 4.406993687152862549e-01 -5.768641233444213867e-01 -1.542980670928955078e-01 5.382213275879621506e-03 4.874611273407936096e-02 3.813642263412475586e-01 -4.111699461936950684e-01 -2.226146906614303589e-01 8.744554966688156128e-02 -3.852094709873199463e-01 3.793034553527832031e-01 1.400456577539443970e-01 3.835989534854888916e-01 3.875567018985748291e-01 5.539945363998413086e-01 8.582718968391418457e-01 -1.993338949978351593e-02 3.446015417575836182e-01 9.802508167922496796e-03 6.277284771203994751e-02 -1.616341322660446167e-01 -5.824657082557678223e-01 -3.521023988723754883e-01 1.444276422262191772e-01 8.112132549285888672e-02 -4.377641677856445312e-01 -3.482909798622131348e-01 -5.096657276153564453e-01 -2.490614056587219238e-01 5.729327797889709473e-01 1.620951294898986816e-01 2.743884623050689697e-01 2.053003385663032532e-02 -2.166160196065902710e-02 2.965389490127563477e-01 -2.656576931476593018e-01 -3.920781612396240234e-01 1.387778818607330322e-01 2.846761345863342285e-01 -5.400848984718322754e-01 6.637803912162780762e-01 -3.263898491859436035e-01 3.002642393112182617e-01 -1.385060548782348633e-01 -7.428558915853500366e-02 -1.518112272024154663e-01 -4.402576088905334473e-01 -1.611129641532897949e-01 1.149336174130439758e-01 6.675795465707778931e-02 -2.717648744583129883e-01 2.422585189342498779e-01 1.515522003173828125e-01 3.625469505786895752e-01 5.287390202283859253e-02 -1.624476723372936249e-02 -1.343602389097213745e-01 1.080275103449821472e-01 6.675133109092712402e-02 -6.154086589813232422e-01 1.288313031196594238e+00 1.166824847459793091e-01 -5.517204403877258301e-01 -1.487926691770553589e-01 -8.176270127296447754e-02 -6.294862926006317139e-02 -4.425532817840576172e-01 -1.648266166448593140e-01 3.262408375740051270e-01 -1.769858598709106445e-02 -1.270038336515426636e-01 3.272356390953063965e-01 5.088900681585073471e-03 -1.382186412811279297e-01 -9.207319021224975586e-01 -4.470208883285522461e-01 -4.351350665092468262e-01 -2.603932321071624756e-01 6.324294209480285645e-01 6.263654828071594238e-01 2.826224267482757568e-02 4.156596958637237549e-01 1.575377285480499268e-01 4.116050004959106445e-01 -8.875443935394287109e-01 3.856540918350219727e-01 2.791705168783664703e-02 6.979618966579437256e-02 -1.263457387685775757e-01 -5.839028395712375641e-03 -6.008468568325042725e-02 3.905930221080780029e-01 -4.652158543467521667e-02 -2.811301052570343018e-01 -2.128791660070419312e-01 -2.224488109350204468e-01 -4.632020294666290283e-01 -2.624984681606292725e-01 5.959842801094055176e-01 -1.015774831175804138e-01 3.183503746986389160e-01 -3.195050656795501709e-01 -1.037495434284210205e-01 2.153021693229675293e-01 1.151534467935562134e-01 1.794045269489288330e-01 9.786943346261978149e-02 2.165101915597915649e-01 8.355932235717773438e-01 -1.880790740251541138e-01 -3.593094646930694580e-01 4.075517058372497559e-01 1.744272261857986450e-01 -2.452352344989776611e-01 -1.292385011911392212e-01 1.582593023777008057e-01 -5.351223051548004150e-02 7.429289817810058594e-02 3.559194207191467285e-01 -1.777603030204772949e-01 2.650074958801269531e-01 -2.698568105697631836e-01 -4.881763160228729248e-01 -4.304544627666473389e-01 1.038857474923133850e-01 1.633470058441162109e-01 -9.097067266702651978e-02 -8.105224967002868652e-01 -3.512255847454071045e-01 5.378049612045288086e-02 6.263482500799000263e-04 2.131322324275970459e-01 2.954239547252655029e-01 3.560588359832763672e-01 1.983680874109268188e-01 -3.925230801105499268e-01 8.196773380041122437e-02 -8.724696934223175049e-02 -4.243839383125305176e-01 1.770821213722229004e-01 8.005285635590553284e-04 -6.631726026535034180e-01 -2.263217121362686157e-01 -6.066347360610961914e-01 8.903253823518753052e-02 -3.340937793254852295e-01 -3.922681212425231934e-01 -2.624133527278900146e-01 1.174589842557907104e-01 8.026842027902603149e-02 2.423211745917797089e-02 -1.272822767496109009e-01 9.465339034795761108e-02 3.149578571319580078e-01 9.789481759071350098e-02 1.996118426322937012e-01 1.553926430642604828e-02 -2.046945691108703613e-01 2.911207675933837891e-01 4.664643406867980957e-01 -1.019886806607246399e-01 -2.306109666824340820e-01 2.083325982093811035e-01 -2.475584298372268677e-01 -4.899689257144927979e-01 2.306451201438903809e-01 2.150927484035491943e-01 -2.457885295152664185e-01 -8.190477490425109863e-01 4.037192091345787048e-03 -1.282072961330413818e-01 -5.779230594635009766e-02 -3.597937524318695068e-02 -3.589356541633605957e-01 -5.432223081588745117e-01 1.222331151366233826e-01 7.352391481399536133e-01 7.276351004838943481e-02 -2.110680043697357178e-01 3.432847857475280762e-01 -8.224376440048217773e-01 -5.726151466369628906e-01 1.592431813478469849e-01 -2.725993692874908447e-01 -5.646196007728576660e-01 -1.071835830807685852e-01 6.112391129136085510e-04 2.188428491353988647e-01 2.248840481042861938e-01 -3.707142770290374756e-01 1.317216306924819946e-01 -4.454842209815979004e-02 1.097007561475038528e-02 -1.438329964876174927e-01 3.183954060077667236e-01 5.575315952301025391e-01 -3.561628758907318115e-01 3.881808519363403320e-01 -4.933066368103027344e-01 -3.724382817745208740e-01 8.356320112943649292e-02 5.695479456335306168e-03 -4.775420725345611572e-01 -3.827972114086151123e-01 -6.990053653717041016e-01 2.418120391666889191e-02 -4.114384204149246216e-02 5.086188316345214844e-01 1.821652054786682129e-01 6.245892643928527832e-01 3.176051378250122070e-01 -4.769002199172973633e-01 -1.061151981353759766e+00 1.855407804250717163e-01 2.120518684387207031e-01 -4.806780219078063965e-01 8.901967108249664307e-02 1.385562270879745483e-01 -6.450505256652832031e-01 2.052463889122009277e-01 -1.421090960502624512e-01 1.700619310140609741e-01 -3.722365200519561768e-01 -6.911614537239074707e-01 -6.916439533233642578e-02 3.776752576231956482e-02 -1.759599708020687103e-02 -4.786538183689117432e-01 2.898740209639072418e-02 -1.223857328295707703e-01 -2.876291871070861816e-01 -2.528205513954162598e-02 3.978054821491241455e-01 -6.275647878646850586e-01 -3.203665371984243393e-03 9.940236061811447144e-02 -3.983489274978637695e-01 -3.653287589550018311e-01 8.462502062320709229e-02 2.066733837127685547e-01 -1.633093357086181641e-01 1.634140610694885254e-01 -2.948430478572845459e-01 -1.464439034461975098e-01 1.485843360424041748e-01 8.695117235183715820e-01 1.348641365766525269e-01 3.208374679088592529e-01 -2.605837956070899963e-02 -5.952531937509775162e-03 6.838614493608474731e-02 -1.687756180763244629e-01 8.362302184104919434e-02 1.433253884315490723e-01 -4.399083554744720459e-01 -3.075282573699951172e-01 -1.579999364912509918e-02 3.380228281021118164e-01 -5.754689574241638184e-01 -1.537684202194213867e-01 1.476972103118896484e-01 -1.192119941115379333e-01 -2.993218600749969482e-01 -1.394171714782714844e-01 -5.603751540184020996e-01 -5.623011291027069092e-02 -3.116069138050079346e-01 1.528874039649963379e-01 3.988786935806274414e-01 9.575408697128295898e-02 -2.506234496831893921e-02 1.700612306594848633e-01 4.365338683128356934e-01 3.038828969001770020e-01 2.426879703998565674e-01 -2.850502543151378632e-02 2.273126542568206787e-01 3.926246166229248047e-01 -4.988213777542114258e-01 -9.210800379514694214e-02 1.497312486171722412e-01 4.093245267868041992e-01 -6.396687626838684082e-01 -3.984123766422271729e-01 5.772768259048461914e-01 -5.136705636978149414e-01 -2.241465896368026733e-01 -5.851686373353004456e-02 -3.266226127743721008e-02 -5.547836422920227051e-01 -2.890833020210266113e-01 -6.488607525825500488e-01 -1.139627024531364441e-01 -3.432252258062362671e-02 -1.315537393093109131e-01 -1.960390359163284302e-01 -1.252839207649230957e+00 -1.557375043630599976e-01 -1.677532941102981567e-01 -3.650065660476684570e-01 -1.018985137343406677e-01 9.960124641656875610e-02 1.720976531505584717e-01 3.430838882923126221e-01 -5.896062850952148438e-01 -9.926339611411094666e-03 5.343348905444145203e-02 2.279393672943115234e-01 7.665890455245971680e-01 -1.534135639667510986e-01 -5.330078005790710449e-01 5.916554927825927734e-01 -4.955865144729614258e-01 4.010181874036788940e-02 7.143293973058462143e-03 -8.348121047019958496e-01 -3.239818289875984192e-02 2.046260386705398560e-01 -1.735214889049530029e-01 3.135275542736053467e-01 -3.576877713203430176e-01 4.449656009674072266e-01 -2.715847268700599670e-02 -2.713289558887481689e-01 1.479710042476654053e-01 3.666450828313827515e-02 -3.304676115512847900e-01 -3.753012418746948242e-01 -9.308775886893272400e-03 -7.150056362152099609e-01 -1.513098776340484619e-01 -2.548113167285919189e-01 -4.574377238750457764e-01 4.162476658821105957e-01 5.280668735504150391e-01 3.329898118972778320e-01 1.797732859849929810e-01 -3.305494040250778198e-02 -1.999330706894397736e-02 -6.271921843290328979e-02 5.735681653022766113e-01 1.338637173175811768e-01 -1.576967239379882812e-01 3.040289580821990967e-01 3.571977019309997559e-01 -2.790773808956146240e-01 -1.511240750551223755e-01 -4.982260465621948242e-01 1.827829033136367798e-01 -2.066691219806671143e-01 3.037405908107757568e-01 -2.237165272235870361e-01 -2.874884940683841705e-02 9.828159958124160767e-02 -7.547737956047058105e-01 -5.833838582038879395e-01 -5.386860966682434082e-01 -5.244093537330627441e-01 -6.421311199665069580e-02 2.224796414375305176e-01 -8.652659133076667786e-03 2.786473929882049561e-01 -2.334206849336624146e-01 -5.980328656733036041e-03 4.252134561538696289e-01 5.148987174034118652e-01 -8.534698486328125000e-01 4.069612324237823486e-01 5.974494814872741699e-01 7.378574609756469727e-01 1.038524985313415527e+00 7.419949769973754883e-01 -6.943220645189285278e-02 5.299779176712036133e-01 -1.303754687309265137e+00 -3.696061074733734131e-01 1.572441607713699341e-01 6.952770948410034180e-01 4.409518092870712280e-02 2.375355809926986694e-01 5.809327960014343262e-01 -3.870487213134765625e-01 9.615842252969741821e-02 -4.622219204902648926e-01 -1.612867414951324463e-01 -8.393415063619613647e-02 -4.280926287174224854e-01 3.958909213542938232e-01 -5.102931261062622070e-01 -2.418168336153030396e-01 1.046249493956565857e-01 -8.644351735711097717e-03 4.447793960571289062e-01 -4.300352632999420166e-01 2.620546519756317139e-01 -9.751179814338684082e-02 8.209297657012939453e-01 -3.714187443256378174e-01 8.158512711524963379e-01 2.589413821697235107e-01 5.981714725494384766e-01 6.367851495742797852e-01 -4.916649460792541504e-01 -3.798555955290794373e-02 -1.149671077728271484e-01 8.942117542028427124e-02 2.250980436801910400e-01 2.412587255239486694e-01 6.492333412170410156e-01 -7.109800726175308228e-02 -2.784664556384086609e-02 3.942727446556091309e-01 2.337768375873565674e-01 -6.380838900804519653e-02 -1.100891008973121643e-01 -2.786085605621337891e-01 -2.396733686327934265e-02 -2.917996607720851898e-02 -3.630546033382415771e-01 -3.230699598789215088e-01 8.759588003158569336e-02 -5.091106891632080078e-01 5.256834030151367188e-01 -9.953324198722839355e-01 4.253583848476409912e-01 5.108866468071937561e-02 4.846592545509338379e-01 -2.181377708911895752e-01 8.637617826461791992e-01 -2.927510142326354980e-01 1.004363149404525757e-01 -1.078017115592956543e+00 -1.537255793809890747e-01 5.682961940765380859e-01 -4.133187234401702881e-01 -2.289094924926757812e-01 -2.510244548320770264e-01 -2.685485966503620148e-02 1.213865652680397034e-01 1.835543215274810791e-01 -1.185656189918518066e-01 5.500614047050476074e-01 3.555805087089538574e-01 1.756103336811065674e-01 -2.814754247665405273e-01 2.411501705646514893e-01 -2.270321100950241089e-01 -5.955303907394409180e-01 -3.154621720314025879e-01 -1.080550178885459900e-01 -1.188322305679321289e-01 9.227104019373655319e-04 -2.792139947414398193e-01 1.864751875400543213e-01 -1.142424624413251877e-02 1.465154439210891724e-01 5.414588004350662231e-02 1.833999305963516235e-01 -1.119173690676689148e-01 1.717599034309387207e-01 -3.899265229701995850e-01 1.791240721940994263e-01 6.699151396751403809e-01 -4.634290635585784912e-01 -2.057028859853744507e-01 -8.820800185203552246e-01 4.127292037010192871e-01 7.308545112609863281e-01 -2.379289865493774414e-01 3.046429157257080078e-01 4.751563072204589844e-01 -3.784314990043640137e-01 -2.440720349550247192e-01 -3.565533161163330078e-01 1.351273208856582642e-01 -3.191176950931549072e-01 -3.289557397365570068e-01 -1.352578960359096527e-02 4.672735929489135742e-02 9.440271556377410889e-02 -4.826122522354125977e-01 -1.608328223228454590e-01 -2.898194268345832825e-02 -1.915910542011260986e-01 -3.979631662368774414e-01 -1.178956851363182068e-01 -6.144974827766418457e-01 -8.130805194377899170e-02 -3.524753153324127197e-01 3.121126890182495117e-01 -7.097811996936798096e-02 -3.012917935848236084e-01 2.525423765182495117e-01 -3.404425382614135742e-01 1.663253642618656158e-02 -4.197995737195014954e-02 2.949441373348236084e-01 -3.930370211601257324e-01 5.782176926732063293e-02 -7.139004468917846680e-01 1.320085721090435982e-03 -9.370659291744232178e-02 -4.047407507896423340e-01 -3.860383033752441406e-01 -4.456465542316436768e-01 -2.279107123613357544e-01 2.247084677219390869e-01 -2.347461134195327759e-02 1.817775964736938477e-01 1.241356320679187775e-02 -2.631002478301525116e-02 1.433487683534622192e-01 -2.398710995912551880e-01 3.269141614437103271e-01 7.636548876762390137e-01 8.293026685714721680e-02 -1.560931205749511719e-01 7.433758676052093506e-02 -5.268534272909164429e-02 2.965073585510253906e-01 -8.724457770586013794e-02 5.044006556272506714e-02 -2.094190716743469238e-01 3.307879567146301270e-01 1.240557879209518433e-01 -6.651898473501205444e-02 4.046893715858459473e-01 1.159620046615600586e+00 -5.039644837379455566e-01 -7.007892727851867676e-01 1.813785880804061890e-01 -2.946908958256244659e-02 -7.662227153778076172e-01 -1.560358554124832153e-01 9.564741700887680054e-02 -2.707833647727966309e-01 4.386901110410690308e-02 3.128177523612976074e-01 4.198300838470458984e-01 -3.212831318378448486e-01 -3.422535061836242676e-01 -1.173631772398948669e-01 -3.343366384506225586e-01 -5.686371028423309326e-02 9.739635139703750610e-02 3.141103684902191162e-01 -6.508669257164001465e-02 -1.058267280459403992e-01 -7.356718778610229492e-01 -1.585587561130523682e-01 -3.572195470333099365e-01 -4.843321144580841064e-01 -1.714667677879333496e-01 -1.445168405771255493e-01 -2.448434233665466309e-01 -4.733509719371795654e-01 1.731783002614974976e-01 3.233684301376342773e-01 -3.143320977687835693e-01 -3.042814135551452637e-01 -9.651257842779159546e-02 -4.061146974563598633e-01 3.872673809528350830e-01 -3.927351236343383789e-01 1.494057029485702515e-01 -7.470307499170303345e-02 -7.210317254066467285e-02 7.016875147819519043e-01 -3.968702852725982666e-01 3.709929585456848145e-01 -1.750513017177581787e-01 3.594812452793121338e-01 -2.750499248504638672e-01 -2.449744194746017456e-01 2.220710664987564087e-01 2.212181687355041504e-01 -1.718073338270187378e-01 3.477917909622192383e-01 -1.581435948610305786e-01 8.350551873445510864e-02 -5.346732214093208313e-02 5.582149624824523926e-01 -3.445852398872375488e-01 -4.444046914577484131e-01 -6.377130150794982910e-01 -4.336633384227752686e-01 -1.888539344072341919e-01 -4.818832874298095703e-01 1.162602007389068604e-01 -2.358384430408477783e-01 -1.189030706882476807e-01 1.696004420518875122e-01 -2.883767783641815186e-01 -3.858737349510192871e-01 1.218100562691688538e-01 2.190651595592498779e-01 -3.214394748210906982e-01 -2.780873775482177734e-01 1.061052978038787842e-01 -9.537562131881713867e-01 -9.129672050476074219e-01 -2.768672406673431396e-01 -1.258987784385681152e-01 -3.011881140992045403e-03 5.823537707328796387e-01 -2.139832824468612671e-01 -2.200529128313064575e-01 3.653001487255096436e-01 3.614108562469482422e-01 -8.467165231704711914e-01 -2.274332791566848755e-01 4.263032600283622742e-02 2.707706391811370850e-01 2.746406793594360352e-01 -2.456794865429401398e-02 2.766146063804626465e-01 2.669218182563781738e-01 -1.892175674438476562e-01 -7.702119350433349609e-01 -3.403202295303344727e-01 -4.754091501235961914e-01 3.896199166774749756e-01 -5.117724537849426270e-01 2.872353196144104004e-01 7.633422315120697021e-02 5.540579929947853088e-02 -3.596048653125762939e-01 -9.783080816268920898e-01 -3.005314990878105164e-02 -4.715943336486816406e-02 -6.211299300193786621e-01 -2.706760168075561523e-01 -2.206064164638519287e-01 4.795083776116371155e-02 -1.847119778394699097e-01 3.415876626968383789e-01 -9.011276364326477051e-01 9.923461079597473145e-02 3.292987346649169922e-01 -5.921091437339782715e-01 -7.021653652191162109e-02 -8.063648641109466553e-02 1.096017137169837952e-01 -1.097653135657310486e-01 -3.329071700572967529e-01 -5.418860167264938354e-02 -4.326952993869781494e-01 -4.597071409225463867e-01 -1.574677228927612305e-01 -5.658594369888305664e-01 6.251035332679748535e-01 -4.266010224819183350e-01 -7.840100675821304321e-02 -5.014941096305847168e-01 -4.610468149185180664e-01 -4.371379017829895020e-01 -5.391473174095153809e-01 7.847778201103210449e-01 1.498152017593383789e-01 -8.494213968515396118e-02 -1.694057136774063110e-01 3.399214148521423340e-01 6.699512004852294922e-01 2.604659199714660645e-01 -3.309637904167175293e-01 3.852615356445312500e-01 -6.801628470420837402e-01 4.555008187890052795e-02 -2.497949600219726562e-01 -4.104696214199066162e-01 -8.687504529953002930e-01 -1.198528185486793518e-01 2.581718564033508301e-01 -4.908823072910308838e-01 -2.966266870498657227e-01 -5.089953541755676270e-01 -8.085851669311523438e-01 -4.636745899915695190e-02 7.233422994613647461e-01 6.202324628829956055e-01 7.866972684860229492e-01 7.365171313285827637e-01 5.495171546936035156e-01 -2.910636067390441895e-01 5.821290016174316406e-01 2.051257789134979248e-01 3.076958656311035156e-01 3.479772508144378662e-01 1.353262215852737427e-01 2.881027758121490479e-01 -7.080176472663879395e-01 2.643980383872985840e-01 4.052585065364837646e-01 -2.097041457891464233e-01 -9.034944325685501099e-02 9.037907421588897705e-02 -1.557247936725616455e-01 -4.573979079723358154e-01 -5.996622145175933838e-02 4.471419379115104675e-02 -2.930736839771270752e-01 5.330029726028442383e-01 1.699191629886627197e-01 -4.324117004871368408e-01 2.819450497627258301e-01 -1.030982285737991333e-01 -2.476689666509628296e-01 -3.860101699829101562e-01 9.886918216943740845e-02 8.367825299501419067e-03 -6.524305343627929688e-01 -4.218364953994750977e-01 3.868149518966674805e-01 -1.892829388380050659e-01 -3.714310824871063232e-01 -2.923331856727600098e-01 -1.638313010334968567e-02 9.485355019569396973e-02 3.395557701587677002e-01 -2.048179209232330322e-01 -8.482993245124816895e-01 -1.333119720220565796e-01 2.259621024131774902e-01 1.885604709386825562e-01 3.916640207171440125e-02 5.635660141706466675e-03 -4.299568235874176025e-01 -2.586958110332489014e-01 4.948279261589050293e-01 5.062194466590881348e-01 -3.450947580859065056e-03 -4.572421908378601074e-01 8.124526143074035645e-01 -4.435788989067077637e-01 1.308446973562240601e-01 -6.527252793312072754e-01 2.951105684041976929e-02 -6.809342503547668457e-01 -6.782895922660827637e-01 -7.609205693006515503e-02 2.366706430912017822e-01 -9.361676126718521118e-02 9.112805128097534180e-02 -3.352889418601989746e-01 7.810686528682708740e-02 -1.216817945241928101e-01 1.530743688344955444e-01 -7.251787781715393066e-01 1.884584873914718628e-01 7.338455319404602051e-01 -1.960246264934539795e-01 -4.208213686943054199e-01 4.090211987495422363e-01 4.748319461941719055e-02 6.086400747299194336e-01 -5.055561661720275879e-01 1.758848428726196289e-01 9.339914470911026001e-02 3.824286460876464844e-01 -1.661584377288818359e+00 -3.521564975380897522e-02 -8.826809525489807129e-01 -1.505340933799743652e-01 -2.228317856788635254e-01 2.932796776294708252e-01 3.032219409942626953e-01 -1.632997840642929077e-01 -1.312648039311170578e-02 1.544737219810485840e-01 -6.231268122792243958e-02 -6.888799667358398438e-01 2.620514333248138428e-01 2.944998741149902344e-01 -3.747776448726654053e-01 3.910723626613616943e-01 -9.316763840615749359e-03 -2.371565550565719604e-01 -5.447101593017578125e-01 -2.489939630031585693e-01 -8.304942399263381958e-03 -2.149149589240550995e-02 2.724387682974338531e-02 9.220479726791381836e-01 2.763107419013977051e-01 -4.708893895149230957e-01 -1.027254462242126465e-01 7.208631038665771484e-01 -6.357983946800231934e-01 1.188119053840637207e-01 5.436142086982727051e-01 -6.517268419265747070e-01 -3.237229287624359131e-01 -2.650442421436309814e-01 3.346656858921051025e-01 3.285539448261260986e-01 -1.021416336297988892e-01 -1.729733049869537354e-01 -2.553600631654262543e-02 1.249137055128812790e-02 -3.389533162117004395e-01 -2.245163917541503906e-01 -1.417856216430664062e-01 5.277079343795776367e-01 -5.898420810699462891e-01 6.787610054016113281e-02 1.428244411945343018e-01 1.095225960016250610e-01 -1.108228340744972229e-01 -6.762807369232177734e-01 -2.656346559524536133e-01 -2.895595431327819824e-01 -1.176011785864830017e-01 1.148809865117073059e-02 -5.728210210800170898e-01 -3.183985054492950439e-01 -1.681596487760543823e-01 -1.932909637689590454e-01 -2.081972546875476837e-02 -9.374686330556869507e-02 -4.210594594478607178e-01 -4.724388420581817627e-01 -2.516693249344825745e-02 4.785753190517425537e-01 -6.912628412246704102e-01 1.544727832078933716e-01 7.933019101619720459e-02 -1.385598927736282349e-01 5.275791883468627930e-01 5.157808065414428711e-01 1.486901640892028809e-01 5.736334621906280518e-02 -4.843802750110626221e-01 1.028072983026504517e-01 -2.131669223308563232e-02 -2.841347754001617432e-01 -6.443845629692077637e-01 1.566984951496124268e-01 -5.349909067153930664e-01 3.465948998928070068e-01 1.322510559111833572e-02 -1.958283483982086182e-01 2.078879997134208679e-02 2.990729212760925293e-01 -2.393523901700973511e-01 -1.036024540662765503e-01 -1.826620697975158691e-01 -4.574228525161743164e-01 -1.248748376965522766e-01 4.351585507392883301e-01 -3.851013779640197754e-01 2.966642677783966064e-01 1.794909089803695679e-01 1.495720595121383667e-01 -3.297441303730010986e-01 -1.831541806459426880e-01 -7.130435854196548462e-02 -4.039610922336578369e-01 -4.479063302278518677e-02 2.525001764297485352e-01 -2.960007786750793457e-01 1.531667560338973999e-01 -2.217823863029479980e-01 -1.118155643343925476e-01 -6.224115490913391113e-01 2.959305047988891602e-01 7.784684747457504272e-02 -2.932179570198059082e-01 2.655617594718933105e-01 -8.816457390785217285e-01 6.921868920326232910e-01 2.853533029556274414e-01 3.838225826621055603e-02 6.039745211601257324e-01 -1.229507088661193848e+00 -5.273351073265075684e-01 3.087311983108520508e-01 5.817095637321472168e-01 -3.904177546501159668e-01 2.294896915555000305e-02 4.388425871729850769e-02 5.162701383233070374e-02 1.598864942789077759e-01 -3.507556915283203125e-01 -5.484899878501892090e-02 6.452894806861877441e-01 8.477164059877395630e-02 5.283202603459358215e-02 -5.884739756584167480e-01 -8.101007938385009766e-01 1.496681421995162964e-01 7.314537167549133301e-01 -1.298578679561614990e-01 -7.920153439044952393e-02 1.539585292339324951e-01 -6.935806870460510254e-01 -1.273039877414703369e-01 -7.588523030281066895e-01 -2.357213050127029419e-01 2.057916074991226196e-01 -1.978671550750732422e-01 7.073662877082824707e-01 -4.526202082633972168e-01 -1.256176382303237915e-01 -1.081343650817871094e+00 -4.112804830074310303e-01 -6.899254918098449707e-01 -7.150027155876159668e-01 -3.651776313781738281e-01 4.951862618327140808e-02 5.875970721244812012e-01 -1.450177282094955444e-01 -1.802341639995574951e-01 -2.295173704624176025e-01 -2.733452618122100830e-01 -1.927133351564407349e-01 -8.811419606208801270e-01 8.328631520271301270e-03 -1.872215569019317627e-01 3.155178427696228027e-01 4.740813001990318298e-02 -1.886959373950958252e-01 -5.850973725318908691e-01 -8.085774630308151245e-02 3.677327632904052734e-01 -7.100900411605834961e-01 -2.458016276359558105e-01 -4.570432007312774658e-01 3.147590458393096924e-01 -2.947161495685577393e-01 2.959517836570739746e-01 -9.167463779449462891e-01 -1.384304910898208618e-01 8.711055666208267212e-02 1.111851930618286133e-01 -3.383938074111938477e-01 -5.912742614746093750e-01 1.349581778049468994e-01 -1.050315052270889282e-01 -2.210868000984191895e-01 7.638434320688247681e-02 1.286174207925796509e-01 1.688651144504547119e-01 -1.735983341932296753e-01 -6.102608144283294678e-02 3.424951434135437012e-01 1.846773028373718262e-01 4.648002609610557556e-02 1.643163412809371948e-01 3.886411711573600769e-02 -1.943115592002868652e-01 4.930584728717803955e-01 -1.597020179033279419e-01 1.536816805601119995e-01 2.126676887273788452e-01 -2.734862565994262695e-01 -6.473018974065780640e-02 1.118700578808784485e-01 9.060110896825790405e-04 -2.687288522720336914e-01 5.597102046012878418e-01 2.467080019414424896e-02 -4.357558190822601318e-01 -7.117602974176406860e-02 -2.277581691741943359e-01 1.945726722478866577e-01 -1.183287128806114197e-01 1.450473964214324951e-01 -1.381954401731491089e-01 3.626420199871063232e-01 4.699163436889648438e-01 -6.907651424407958984e-01 1.896604001522064209e-01 5.974966287612915039e-01 -4.419309496879577637e-01 -4.744339883327484131e-01 8.226010799407958984e-01 4.604288339614868164e-01 -5.584004521369934082e-01 3.862310051918029785e-01 1.006564870476722717e-01 1.849366724491119385e-01 1.920036524534225464e-01 1.412410009652376175e-02 -4.824761748313903809e-01 4.600379616022109985e-02 -3.221003413200378418e-01 4.375897115096449852e-04 -5.766930580139160156e-01 3.963288664817810059e-01 -8.608200550079345703e-01 7.155582308769226074e-02 9.892161935567855835e-02 5.815609693527221680e-01 1.763425208628177643e-02 -8.903530240058898926e-02 1.142788231372833252e-01 3.352544829249382019e-02 -6.135338544845581055e-01 -7.044176757335662842e-02 5.881893038749694824e-01 -1.885977089405059814e-01 -1.737913191318511963e-01 2.304394096136093140e-01 -4.049784541130065918e-01 3.399891033768653870e-02 3.070297539234161377e-01 1.133402925916016102e-03 -3.471415638923645020e-01 -1.769804805517196655e-01 1.671812683343887329e-01 -6.241311430931091309e-01 6.324731558561325073e-02 5.531397461891174316e-01 -4.345425665378570557e-01 1.842647343873977661e-01 3.441645205020904541e-01 6.251541376113891602e-01 2.159523963928222656e-02 7.532415911555290222e-03 1.797952800989151001e-01 -2.549318075180053711e-01 -3.642451763153076172e-02 1.351815015077590942e-01 5.858041048049926758e-01 -3.607094287872314453e-01 -6.014201045036315918e-01 -1.763642951846122742e-02 -2.279193252325057983e-01 -3.372904956340789795e-01 -2.280650734901428223e-01 -1.714725792407989502e-01 -1.562953591346740723e-01 -2.331388592720031738e-01 3.031219542026519775e-01 -3.675598800182342529e-01 1.109862327575683594e-01 -2.899882197380065918e-01 -9.066983312368392944e-02 -2.956341505050659180e-01 2.402825057506561279e-01 -1.875938773155212402e-01 -5.489086508750915527e-01 -6.923816204071044922e-01 -2.440236955881118774e-01 4.042381793260574341e-02 -6.526138167828321457e-03 -6.394460797309875488e-02 1.313229352235794067e-01 -3.258396983146667480e-01 -1.598410159349441528e-01 5.594735741615295410e-01 -3.605220913887023926e-01 1.152311190962791443e-01 -2.951562702655792236e-01 -1.617221832275390625e-01 -7.408575415611267090e-01 1.413553506135940552e-01 -5.704602003097534180e-01 4.668744280934333801e-02 -1.035543009638786316e-01 -8.458227515220642090e-01 6.684058904647827148e-02 1.682981550693511963e-01 -2.014586776494979858e-01 -2.711043655872344971e-01 -6.655572652816772461e-01 -3.528577387332916260e-01 2.697339281439781189e-02 -9.523580223321914673e-02 -9.227433800697326660e-02 -3.184658885002136230e-01 -4.672010838985443115e-01 -8.853429555892944336e-02 1.274190843105316162e-01 -7.377348840236663818e-02 -2.738968133926391602e-01 5.130047351121902466e-02 -6.163638830184936523e-01 4.113076925277709961e-01 -2.885920405387878418e-01 2.379290759563446045e-01 8.831695318222045898e-01 -1.887626349925994873e-01 -3.498452007770538330e-01 -9.599761106073856354e-03 -3.636485338211059570e-01 -4.864240884780883789e-01 -3.056965470314025879e-01 1.550654619932174683e-01 2.215399295091629028e-01 3.795691728591918945e-01 -3.391225039958953857e-01 3.552586734294891357e-01 -3.402023613452911377e-01 -1.264462023973464966e-01 -3.089251816272735596e-01 -4.738833010196685791e-01 4.595854282379150391e-01 -4.884386658668518066e-01 -2.513271868228912354e-01 -2.757101655006408691e-01 -2.595687806606292725e-01 3.075646236538887024e-02 4.578359797596931458e-02 8.039163053035736084e-02 -9.181195870041847229e-03 -7.550672292709350586e-01 3.043146431446075439e-01 8.567596226930618286e-02 2.328979521989822388e-01 2.268152236938476562e-01 3.842568695545196533e-01 2.258874177932739258e-01 3.376617431640625000e-01 -2.994307577610015869e-01 -3.205036818981170654e-01 2.532508373260498047e-01 -1.952300816774368286e-01 -1.802546679973602295e-01 2.307983487844467163e-01 1.294657960534095764e-02 4.330639839172363281e-01 3.214851319789886475e-01 7.333941757678985596e-02 -5.533131361007690430e-01 -3.112562894821166992e-01 -1.203257367014884949e-01 -1.938544400036334991e-02 -2.706165313720703125e-01 -1.795510947704315186e-01 -9.977735280990600586e-01 -9.682817012071609497e-02 1.518854260211810470e-04 -7.802715897560119629e-01 -2.655283212661743164e-01 9.694372862577438354e-02 -8.284714818000793457e-01 2.439188063144683838e-01 -2.050394564867019653e-01 -6.138174608349800110e-02 3.228611350059509277e-01 7.806923985481262207e-01 4.503428041934967041e-01 -5.229453444480895996e-01 -2.336599230766296387e-01 4.416968524456024170e-01 -4.212006926536560059e-01 9.385337233543395996e-01 2.030290216207504272e-01 -9.956242889165878296e-02 -1.863698512315750122e-01 -2.190382182598114014e-01 -9.131183475255966187e-02 -2.906934320926666260e-01 1.625240892171859741e-01 2.544807493686676025e-01 3.964066803455352783e-01 -5.258939787745475769e-02 1.664016842842102051e-01 1.287814825773239136e-01 -3.559178858995437622e-02 -5.459962487220764160e-01 4.201729968190193176e-02 -2.870979607105255127e-01 -4.621668457984924316e-01 5.476776361465454102e-01 -5.835682153701782227e-01 9.214161634445190430e-01 4.164320826530456543e-01 2.547133862972259521e-01 -4.748042225837707520e-01 -3.279843032360076904e-01 -2.510997056961059570e-01 -1.457091420888900757e-01 -4.062483906745910645e-01 -6.679095029830932617e-01 -6.688693910837173462e-02 -3.010232448577880859e-01 -1.066976785659790039e+00 -3.543094396591186523e-01 9.099269285798072815e-03 -8.431050181388854980e-01 -7.143174856901168823e-02 1.200415268540382385e-01 1.316400244832038879e-02 5.901775788515806198e-03 -1.074387133121490479e-01 6.931914687156677246e-01 -2.597671449184417725e-01 -1.180169954895973206e-01 4.016312062740325928e-01 5.368506908416748047e-01 -1.776998117566108704e-02 2.789653837680816650e-01 3.164986371994018555e-01 -5.726611614227294922e-02 -6.812282204627990723e-01 -1.647882014513015747e-01 7.577773928642272949e-01 -2.070242352783679962e-02 -1.843663752079010010e-01 1.259377896785736084e-01 9.655808098614215851e-03 1.891169250011444092e-01 -7.567156553268432617e-01 -7.766054868698120117e-01 1.226424127817153931e-01 3.436769843101501465e-01 2.639748454093933105e-01 6.473999619483947754e-01 3.758367896080017090e-02 2.399508208036422729e-01 3.340412676334381104e-01 2.448239028453826904e-01 -1.759728938341140747e-01 -9.374240040779113770e-02 -3.164952099323272705e-01 -3.375735878944396973e-01 9.756027720868587494e-03 1.466711461544036865e-01 -1.449048966169357300e-01 -9.984520673751831055e-01 -2.648307681083679199e-01 2.574709355831146240e-01 1.698659956455230713e-01 2.730985283851623535e-01 -8.515967130661010742e-01 -5.316622853279113770e-01 -6.938270479440689087e-02 3.507890105247497559e-01 8.300479650497436523e-01 2.541792392730712891e-01 -3.562725186347961426e-01 -1.016297578811645508e+00 -1.058090031147003174e-01 -8.091909289360046387e-01 -3.152424097061157227e-02 -5.257950425148010254e-01 2.343998998403549194e-01 -6.487309336662292480e-01 -3.359262943267822266e-01 -6.441275477409362793e-01 9.281451255083084106e-02 -2.171558588743209839e-01 -1.325747519731521606e-01 5.157877206802368164e-01 2.257865667343139648e-02 1.201199181377887726e-02 -1.277503371238708496e-01 -1.692891865968704224e-01 4.161622226238250732e-01 4.992477297782897949e-01 -3.653220236301422119e-01 -8.535111546516418457e-01 -2.824789583683013916e-01 -3.708245456218719482e-01 4.466994106769561768e-02 3.511309623718261719e-01 7.457256913185119629e-01 -6.504302620887756348e-01 -4.390230476856231689e-01 -1.572784483432769775e-01 4.557362496852874756e-01 1.621206253767013550e-01 6.030851602554321289e-01 7.282532751560211182e-02 6.501790881156921387e-01 -1.622672379016876221e-01 5.423677340149879456e-02 -3.072392344474792480e-01 5.407518148422241211e-01 2.670722305774688721e-01 -1.652152687311172485e-01 -2.455565333366394043e-01 2.052805572748184204e-01 7.391579151153564453e-01 -2.314577549695968628e-01 -1.014134287834167480e-01 2.429052442312240601e-01 8.775221556425094604e-02 -1.235970333218574524e-01 -6.266166269779205322e-02 1.661372631788253784e-01 -1.329855471849441528e-01 -1.793432831764221191e-01 2.950993776321411133e-01 3.981765732169151306e-02 -9.996985197067260742e-01 -5.709354579448699951e-02 4.211308434605598450e-02 -1.220271829515695572e-02 -2.604211568832397461e-01 1.409944891929626465e-01 -4.701601862907409668e-01 -2.790074944496154785e-01 2.501528859138488770e-01 -2.258062958717346191e-01 -3.444432020187377930e-01 -1.716858148574829102e-01 5.974506139755249023e-01 -4.938031733036041260e-01 5.029700994491577148e-01 6.991395354270935059e-01 2.411912381649017334e-01 -1.715880781412124634e-01 -7.288196682929992676e-01 -1.406553983688354492e-01 -4.545061588287353516e-01 3.575480878353118896e-01 1.185180842876434326e-01 1.884493976831436157e-01 -4.465563893318176270e-01 -6.356563419103622437e-02 -3.676783442497253418e-01 -2.392971962690353394e-01 -5.778353214263916016e-01 -8.001579046249389648e-01 -5.575231835246086121e-02 -5.372205376625061035e-02 1.850041300058364868e-01 -5.728309750556945801e-01 -7.071049809455871582e-01 2.514739036560058594e-01 -1.807643622159957886e-01 -8.349865674972534180e-03 1.206137705594301224e-02 1.521382667124271393e-02 -2.257749587297439575e-01 -2.982749342918395996e-01 -6.938501596450805664e-01 -8.750523924827575684e-01 -3.494792878627777100e-01 -4.415896534919738770e-01 4.165049195289611816e-01 4.213327765464782715e-01 4.907734990119934082e-01 2.506293058395385742e-01 7.070835232734680176e-01 7.393475174903869629e-01 3.862739503383636475e-01 4.122368395328521729e-01 1.630482524633407593e-01 -3.719125986099243164e-01 9.701158106327056885e-02 5.549610257148742676e-01 4.634667336940765381e-01 2.382283657789230347e-01 -7.552866935729980469e-01 -5.829263851046562195e-02 4.568085372447967529e-01 3.835042715072631836e-01 1.356217861175537109e-01 1.212301626801490784e-01 -4.134449362754821777e-01 1.848210096359252930e-01 2.505610585212707520e-01 1.068719476461410522e-01 -5.928657054901123047e-01 5.813505500555038452e-02 3.850447237491607666e-01 5.376140475273132324e-01 6.922596096992492676e-01 -5.893829464912414551e-01 3.754831850528717041e-01 -3.193895518779754639e-01 6.017664074897766113e-01 1.177174374461174011e-01 -7.710675895214080811e-02 -1.717222183942794800e-01 1.861402392387390137e-02 -9.661462903022766113e-02 -1.408541798591613770e-01 -2.373618483543395996e-01 -3.803900778293609619e-01 -6.699097901582717896e-02 4.225640371441841125e-02 7.376379370689392090e-01 -1.762326657772064209e-01 -3.012506961822509766e-01 -5.386155247688293457e-01 4.564860165119171143e-01 3.413886725902557373e-01 1.050136759877204895e-01 1.229233890771865845e-01 9.191191941499710083e-02 -8.485950827598571777e-01 3.412778079509735107e-01 -3.397763073444366455e-01 -2.959154546260833740e-01 1.897658109664916992e-01 3.328769803047180176e-01 -1.134364232420921326e-01 4.713497161865234375e-01 9.960443377494812012e-01 2.473802119493484497e-01 -2.918128967285156250e-01 -2.257373631000518799e-01 -3.913379013538360596e-01 6.654813289642333984e-01 -3.728308677673339844e-01 -1.632467210292816162e-01 -5.506423115730285645e-02 -2.701868116855621338e-01 7.979135215282440186e-02 -4.337514638900756836e-01 2.819831073284149170e-01 -3.045614659786224365e-01 2.630366086959838867e-01 -4.097232967615127563e-02 -2.363127768039703369e-01 -2.953625917434692383e-01 1.362768560647964478e-01 5.889747738838195801e-01 -1.490837037563323975e-01 -3.490706384181976318e-01 1.500873565673828125e-01 1.616320163011550903e-01 -3.147817403078079224e-02 -2.823627293109893799e-01 -4.175798594951629639e-01 -3.767154514789581299e-01 3.210226595401763916e-01 -8.892122656106948853e-02 -7.857306301593780518e-02 8.650107383728027344e-01 1.052357628941535950e-01 -1.602243632078170776e-01 2.739807665348052979e-01 -1.301928162574768066e-01 6.618651151657104492e-01 -5.604238510131835938e-01 -7.772368937730789185e-02 -4.673539474606513977e-02 -1.013106554746627808e-01 4.080677926540374756e-01 -2.051387727260589600e-01 -1.590024977922439575e-01 1.088911518454551697e-01 8.384233117103576660e-01 -2.919048964977264404e-01 9.060083329677581787e-02 -4.437863826751708984e-01 -5.179117321968078613e-01 -4.259991049766540527e-01 -2.020389884710311890e-01 -7.425484061241149902e-02 -1.928320527076721191e-01 4.160776436328887939e-01 1.391782611608505249e-01 -6.832078564912080765e-03 3.611983358860015869e-01 -5.464537739753723145e-01 1.325282603502273560e-01 -4.951928853988647461e-01 -2.339383661746978760e-01 5.571752190589904785e-01 -5.383635312318801880e-02 4.151768237352371216e-02 3.720630705356597900e-01 4.761885404586791992e-01 7.429911494255065918e-01 7.120152711868286133e-01 -4.856473803520202637e-01 9.357354789972305298e-02 5.331730097532272339e-02 -4.337235987186431885e-01 1.140240550041198730e+00 -3.087495565414428711e-01 -1.360521279275417328e-02 -8.868692070245742798e-02 -1.797164529561996460e-01 -2.089023888111114502e-01 -1.547161340713500977e-01 5.558511018753051758e-01 2.171919941902160645e-01 -3.531154394149780273e-01 -2.640520632266998291e-01 1.782652884721755981e-01 3.490481376647949219e-01 -8.026047348976135254e-01 6.591729521751403809e-01 6.993049979209899902e-01 1.243605837225914001e-01 -6.764396280050277710e-02 -1.274833176285028458e-02 1.468514353036880493e-01 -2.746360599994659424e-01 1.394370198249816895e-01 -1.015926301479339600e-01 -1.404526680707931519e-01 -2.257024645805358887e-01 -1.943413317203521729e-01 8.018197417259216309e-01 -5.539213418960571289e-01 4.440452158451080322e-01 -4.818734526634216309e-01 1.400251835584640503e-01 1.967287063598632812e-02 -5.636143684387207031e-02 1.793490350246429443e-01 1.250353753566741943e-01 1.876807510852813721e-01 -4.980358183383941650e-01 -9.118518233299255371e-02 4.022583961486816406e-01 6.140685081481933594e-01 -2.879613041877746582e-01 -1.365503855049610138e-02 -1.516959369182586670e-01 1.415036022663116455e-01 -3.205727636814117432e-01 1.831137984991073608e-01 -5.850257873535156250e-01 1.243171840906143188e-01 -1.349018365144729614e-01 -3.732933104038238525e-02 -1.900967210531234741e-02 2.713468372821807861e-01 4.120012745261192322e-03 -2.321902066469192505e-01 4.041703939437866211e-01 5.940240025520324707e-01 8.322532773017883301e-01 1.047572970390319824e+00 -3.475742340087890625e-01 -3.018759787082672119e-01 -8.693344891071319580e-02 -4.460497573018074036e-02 1.645874530076980591e-01 5.262313485145568848e-01 -2.939089536666870117e-01 -3.980794176459312439e-02 4.109853506088256836e-01 -5.164623856544494629e-01 -1.228905245661735535e-01 7.806715369224548340e-02 -6.066276431083679199e-01 1.109077483415603638e-01 -9.286989271640777588e-02 -3.557592332363128662e-01 -1.833504289388656616e-01 -3.184285163879394531e-01 3.612911105155944824e-01 1.308365762233734131e-01 -4.134782254695892334e-01 6.103461384773254395e-01 1.813809573650360107e-01 -3.397416174411773682e-01 -1.309982314705848694e-02 -2.328973561525344849e-01 -2.361391931772232056e-01 3.354556262493133545e-01 1.811025142669677734e-01 -3.470571339130401611e-02 -2.638494074344635010e-01 -3.804531991481781006e-01 -1.255841702222824097e-01 4.366733431816101074e-01 -1.042966097593307495e-01 3.477469980716705322e-01 3.251203000545501709e-01 -3.504884541034698486e-01 -3.381482064723968506e-01 1.249138787388801575e-01 -1.607702970504760742e-01 -5.126143097877502441e-01 -1.584404110908508301e-01 1.536503583192825317e-01 -7.937404513359069824e-01 -5.739399790763854980e-02 -6.707949042320251465e-01 3.292116103693842888e-03 6.213417053222656250e-01 1.450398117303848267e-01 4.532165527343750000e-01 4.465085566043853760e-01 -3.781549632549285889e-01 7.808741927146911621e-01 -5.038998723030090332e-01 4.297790825366973877e-01 -4.447617828845977783e-01 2.155429422855377197e-01 3.914866596460342407e-02 3.355778753757476807e-01 1.390705257654190063e-01 -3.967791497707366943e-01 -4.211379960179328918e-02 -1.008840575814247131e-01 4.138235747814178467e-01 9.987971931695938110e-02 -9.316222667694091797e-01 -4.126624017953872681e-02 -9.924617595970630646e-03 1.370166148990392685e-02 6.611733436584472656e-01 -1.797741651535034180e-01 8.778416365385055542e-02 -3.652618229389190674e-01 -1.691635400056838989e-01 9.484368562698364258e-01 -2.592727839946746826e-01 4.293850362300872803e-01 1.309481412172317505e-01 6.417432799935340881e-03 4.743818640708923340e-01 2.958738505840301514e-01 -9.983299672603607178e-02 -7.451513409614562988e-01 1.139458894729614258e+00 -3.817279040813446045e-01 2.507177591323852539e-01 -3.483592271804809570e-01 -1.757239997386932373e-01 -3.488638401031494141e-01 -5.264111757278442383e-01 4.635874927043914795e-01 -7.706526517868041992e-01 1.791010051965713501e-01 -5.529993772506713867e-02 3.402978777885437012e-01 5.953084826469421387e-01 7.197052985429763794e-02 5.135390162467956543e-01 -2.417605668306350708e-01 8.796388655900955200e-02 3.752934560179710388e-02 -3.916491568088531494e-02 -2.779180705547332764e-01 -2.976984083652496338e-01 1.808466762304306030e-01 4.529517292976379395e-01 -4.399041235446929932e-01 2.507146820425987244e-02 9.626317769289016724e-02 5.271731019020080566e-01 5.378783941268920898e-01 2.861035168170928955e-01 3.037615120410919189e-01 -7.260641455650329590e-02 1.948592066764831543e-01 -2.074954360723495483e-01 -1.040723919868469238e+00 2.765034735202789307e-01 2.756090462207794189e-01 -4.211913347244262695e-01 -1.552776992321014404e-01 -1.443833019584417343e-02 -3.185257315635681152e-01 -3.053805828094482422e-01 -1.926573067903518677e-01 7.192901968955993652e-01 -8.251404166221618652e-01 2.324800044298171997e-01 5.687159895896911621e-01 2.486840188503265381e-01 -1.028801202774047852e+00 -3.048136532306671143e-01 6.104097142815589905e-02 9.183284044265747070e-01 4.724679291248321533e-01 -8.438429832458496094e-01 -1.228933408856391907e-01 1.603293269872665405e-01 -2.593652307987213135e-01 2.210508137941360474e-01 -2.133326828479766846e-01 -8.832796663045883179e-02 -8.035887032747268677e-02 -1.155712231993675232e-01 1.551283299922943115e-01 6.111108660697937012e-01 2.477511614561080933e-01 1.724879145622253418e-01 -6.987181901931762695e-01 -3.437947332859039307e-01 -1.018392205238342285e+00 6.263014674186706543e-01 -6.471242308616638184e-01 -3.284702897071838379e-01 -2.222153097391128540e-01 -4.263856709003448486e-01 -6.486195325851440430e-02 -2.442863285541534424e-01 8.664014190435409546e-02 -1.962801367044448853e-01 -7.552782297134399414e-01 8.477470278739929199e-02 -2.390493303537368774e-01 5.112121105194091797e-01 8.204613924026489258e-01 -9.194489717483520508e-01 2.941133081912994385e-01 -1.762603521347045898e-01 6.539188623428344727e-01 2.020079791545867920e-01 -3.915486335754394531e-01 -2.568828687071800232e-02 5.209641456604003906e-01 1.123037654906511307e-03 6.973154842853546143e-02 6.616526246070861816e-01 2.450283914804458618e-01 1.175693571567535400e-01 -4.990905895829200745e-02 1.853142306208610535e-02 4.503952264785766602e-01 -1.062860414385795593e-01 -2.463602423667907715e-01 -2.936419546604156494e-01 5.288495868444442749e-02 2.900038613006472588e-03 1.918892608955502510e-03 -4.682206511497497559e-01 -5.009852051734924316e-01 -1.992534399032592773e-01 5.558593943715095520e-02 -7.366321086883544922e-01 9.158285856246948242e-01 -1.844316273927688599e-01 -2.370488047599792480e-01 -6.131944432854652405e-02 -2.131855189800262451e-01 3.861753940582275391e-01 -1.060404404997825623e-01 2.748950123786926270e-01 5.216925144195556641e-01 9.097822755575180054e-02 7.449094057083129883e-01 1.019095703959465027e-01 -7.135108858346939087e-02 -5.807661414146423340e-01 3.086284995079040527e-01 2.942806482315063477e-01 1.272989995777606964e-02 2.497405558824539185e-01 -2.204479724168777466e-01 -1.734850108623504639e-01 -5.464106798171997070e-01 2.466694563627243042e-01 2.691732347011566162e-01 3.311860561370849609e-01 2.670190334320068359e-01 5.818069353699684143e-02 -4.178110361099243164e-01 -3.997941911220550537e-01 -1.939612776041030884e-01 -4.125609397888183594e-01 -6.149020418524742126e-02 -3.763765394687652588e-01 -1.133604273200035095e-01 3.898196294903755188e-02 -1.882846653461456299e-01 -3.032851219177246094e-01 -5.477793216705322266e-01 2.461663931608200073e-01 1.999780833721160889e-01 -3.371215611696243286e-02 1.954432427883148193e-01 7.688663154840469360e-02 -6.306054443120956421e-02 7.271997332572937012e-01 -2.744012475013732910e-01 -7.845573127269744873e-02 -4.950215816497802734e-01 3.002708554267883301e-01 3.714906796813011169e-02 1.474512815475463867e-01 -2.698510326445102692e-02 -2.927066385746002197e-01 3.357333838939666748e-01 -1.504199057817459106e-01 -3.993571400642395020e-01 -4.959148466587066650e-01 -7.176595926284790039e-02 1.204345077276229858e-01 -7.916223257780075073e-02 -2.476462572813034058e-01 -4.697627723217010498e-01 2.055936157703399658e-01 2.503944933414459229e-01 9.596944600343704224e-02 5.196583271026611328e-01 1.530382186174392700e-01 -8.988602161407470703e-01 -5.185515284538269043e-01 -4.040475189685821533e-01 -1.563606560230255127e-01 3.326159417629241943e-01 -2.252155095338821411e-01 -1.183079704642295837e-01 2.714361250400543213e-01 3.538202643394470215e-01 3.690125048160552979e-01 -3.412015363574028015e-02 -3.359758853912353516e-01 -4.174699485301971436e-01 -2.129119485616683960e-01 -7.636427134275436401e-02 1.371829211711883545e-01 1.622229442000389099e-02 8.807914704084396362e-02 -2.264882773160934448e-01 2.629479765892028809e-01 2.249010838568210602e-02 8.397274464368820190e-02 4.785813987255096436e-01 -2.410072386264801025e-01 1.223964691162109375e-01 2.367677539587020874e-01 -2.464954406023025513e-01 2.729410529136657715e-01 2.752577662467956543e-01 6.903646886348724365e-02 -7.217568159103393555e-01 4.074160009622573853e-02 -1.463713347911834717e-01 2.671537697315216064e-01 3.629234135150909424e-01 1.360723823308944702e-01 -5.477520823478698730e-01 9.938247501850128174e-02 4.273543059825897217e-01 -2.645986378192901611e-01 1.646933555603027344e-01 -4.046200588345527649e-02 8.063772320747375488e-01 -3.038642406463623047e-01 -2.018057852983474731e-01 3.221519291400909424e-01 5.591900944709777832e-01 3.571859300136566162e-01 8.958740532398223877e-02 -1.897275894880294800e-01 1.463120281696319580e-01 -8.308482915163040161e-02 -2.979501783847808838e-01 1.029451861977577209e-01 -1.458061039447784424e-01 -5.821671485900878906e-01 5.629415391013026237e-04 4.869002997875213623e-01 5.515851825475692749e-02 -1.431825309991836548e-01 5.492754578590393066e-01 -4.535749554634094238e-01 3.010516464710235596e-01 -2.699684798717498779e-01 2.820586562156677246e-01 -5.428998470306396484e-01 3.660258650779724121e-01 -7.161178588867187500e-01 -2.285774052143096924e-01 -2.526766359806060791e-01 -6.772587299346923828e-01 3.685928583145141602e-01 1.568212807178497314e-01 1.342667490243911743e-01 -6.116662025451660156e-01 -1.295903027057647705e-01 9.729705005884170532e-02 -1.364258229732513428e-01 -2.103373780846595764e-02 -4.365155845880508423e-02 -3.228427469730377197e-01 -2.730365395545959473e-01 3.038241863250732422e-01 3.634733259677886963e-01 -4.225605428218841553e-01 -3.668935298919677734e-01 -2.424935400485992432e-01 -3.292808532714843750e-01 3.242925703525543213e-01 -3.127087056636810303e-01 1.185514926910400391e-01 -1.711377054452896118e-01 -5.525001287460327148e-01 6.840151548385620117e-02 6.525838971138000488e-01 5.211058259010314941e-01 1.616863012313842773e-01 1.600115150213241577e-01 8.675586432218551636e-02 2.136363238096237183e-01 4.681204259395599365e-01 -6.960681676864624023e-01 -2.731142006814479828e-02 -6.947309970855712891e-01 