6.344303488731384277e-02 4.728764295578002930e-02 -9.548248350620269775e-02 3.956142067909240723e-02 -6.488817930221557617e-02 1.270202845335006714e-01 -8.269222080707550049e-02 -1.145190820097923279e-01 8.577278256416320801e-02 -6.314945220947265625e-02 -9.297013282775878906e-02 6.916140019893646240e-02 1.018228977918624878e-01 -2.297620475292205811e-02 6.844635307788848877e-02 7.390375435352325439e-02 -2.423402667045593262e-02 -8.884455263614654541e-02 4.684722423553466797e-02 -1.526217907667160034e-02 -7.403833419084548950e-02 4.434019327163696289e-02 -1.338590681552886963e-01 1.054197549819946289e-02 8.249166607856750488e-02 -1.156847029924392700e-01 -6.699313968420028687e-02 2.778291702270507812e-03 -1.104150563478469849e-01 -8.702369034290313721e-02 -4.982083290815353394e-02 -1.145564988255500793e-01 5.745650827884674072e-02 -5.534454435110092163e-02 -4.190000146627426147e-02 -9.577830135822296143e-02 9.437866508960723877e-02 -9.668767452239990234e-04 -1.242231279611587524e-01 -3.465213626623153687e-02 -8.529603481292724609e-03 5.027067661285400391e-02 8.555853366851806641e-02 3.966063261032104492e-02 1.348413974046707153e-01 -1.076874062418937683e-01 9.237492084503173828e-02 1.352802067995071411e-01 7.439568638801574707e-03 1.284025460481643677e-01 -7.353469729423522949e-02 2.692094445228576660e-02 -2.538859099149703979e-02 7.922382652759552002e-02 4.916447401046752930e-02 5.734358727931976318e-02 -5.571972578763961792e-02 -6.122991442680358887e-02 -9.756892919540405273e-03 -9.871463477611541748e-02 9.851232171058654785e-03 -8.902430534362792969e-02 2.921400964260101318e-02 3.925622999668121338e-02 -3.927415609359741211e-02 5.359883606433868408e-02 9.420450031757354736e-02 -1.845595985651016235e-02 3.869006037712097168e-02 -3.088005632162094116e-02 2.058167755603790283e-02 -1.106877401471138000e-01 -8.464858680963516235e-02 -1.312074959278106689e-01 -2.524957060813903809e-02 5.713243782520294189e-02 -1.121487468481063843e-01 -2.682383358478546143e-02 -3.530994057655334473e-03 -9.392535686492919922e-02 -1.301016509532928467e-01 -4.996617138385772705e-02 -8.735044300556182861e-02 4.803222417831420898e-02 1.041010618209838867e-01 5.605238676071166992e-02 -1.222821027040481567e-01 3.940659761428833008e-02 -1.110706180334091187e-01 -1.348112970590591431e-01 -5.252972990274429321e-02 -1.337208300828933716e-01 -6.585834920406341553e-02 -8.845768868923187256e-02 -5.638153851032257080e-02 1.028747409582138062e-01 -1.024444699287414551e-01 1.359102278947830200e-01 -1.142355427145957947e-01 -2.533107250928878784e-02 -1.241461336612701416e-01 9.243127703666687012e-02 3.858232498168945312e-02 -2.006296813488006592e-02 7.374295592308044434e-02 -8.374778181314468384e-02 7.042907178401947021e-02 1.746147871017456055e-02 7.948645949363708496e-02 9.868255257606506348e-02 5.735838413238525391e-02 -7.174739986658096313e-02 1.039705723524093628e-01 -6.371919810771942139e-02 -1.211992353200912476e-01 2.878414094448089600e-02 -1.339821964502334595e-01 -1.820996403694152832e-03 7.685664296150207520e-02 -8.439669758081436157e-02 -5.990137904882431030e-02 -1.011682599782943726e-01 1.258571296930313110e-01 -3.412733972072601318e-02 -4.775707423686981201e-02 6.729774177074432373e-02 -4.338697344064712524e-02 9.902499616146087646e-02 4.479326307773590088e-02 8.586965501308441162e-02 -8.576425909996032715e-02 1.334993094205856323e-01 7.039748132228851318e-02 -2.942101657390594482e-02 9.365102648735046387e-02 -1.212379038333892822e-01 -1.226008832454681396e-01 1.167084127664566040e-01 -3.630238771438598633e-02 1.145788282155990601e-01 -8.251696825027465820e-03 -2.648290991783142090e-02 -4.448273777961730957e-02 -1.100011169910430908e-02 -1.092802956700325012e-01 1.639489829540252686e-02 8.943510055541992188e-02 1.140998154878616333e-01 7.485237717628479004e-02 7.570555806159973145e-02 -1.179854124784469604e-01 -9.900146722793579102e-02 6.671614944934844971e-02 9.671325981616973877e-02 -1.316876709461212158e-01 -1.020693555474281311e-01 -1.024551987648010254e-01 9.532517194747924805e-02 -6.600141525268554688e-02 -4.215806722640991211e-03 -7.759805023670196533e-02 8.194936811923980713e-02 2.351653575897216797e-02 1.016585677862167358e-01 -8.477352559566497803e-02 -6.573041528463363647e-02 4.871964454650878906e-03 7.039813697338104248e-02 -3.140241652727127075e-02 -4.209923744201660156e-02 -4.012013971805572510e-02 -5.465269088745117188e-03 -6.362143903970718384e-02 1.372999399900436401e-01 3.575047850608825684e-02 -8.190165460109710693e-02 -1.162942051887512207e-01 1.090652048587799072e-01 -1.106056049466133118e-01 -8.384034037590026855e-02 -1.898452639579772949e-03 -1.255018413066864014e-01 9.582819044589996338e-02 -7.780380547046661377e-02 -2.842024713754653931e-02 9.277823567390441895e-02 1.173638552427291870e-01 -1.372699588537216187e-01 4.400730133056640625e-02 -1.807011663913726807e-02 -5.350518971681594849e-02 -3.520678728818893433e-02 -5.498707294464111328e-03 -5.535990744829177856e-02 -4.137828946113586426e-03 1.267883032560348511e-01 3.883481025695800781e-02 8.358506858348846436e-02 -7.528115808963775635e-02 -7.208243012428283691e-03 -2.058491110801696777e-03 -5.523733794689178467e-02 7.718986272811889648e-02 1.219901591539382935e-01 -9.937746822834014893e-02 2.500985562801361084e-02 -7.125606387853622437e-02 5.904853343963623047e-03 1.343311220407485962e-01 -3.616576641798019409e-02 2.311575412750244141e-02 -4.904743283987045288e-02 -3.917632997035980225e-02 -6.255601346492767334e-02 -2.338021993637084961e-03 -9.348627924919128418e-02 1.330651789903640747e-01 -7.342860847711563110e-02 6.848633289337158203e-02 8.363591134548187256e-02 5.150654911994934082e-02 5.234403908252716064e-02 7.640646398067474365e-02 -7.902451604604721069e-02 -1.153821498155593872e-01 9.835992753505706787e-02 -8.405096828937530518e-02 -6.367092579603195190e-02 4.654332995414733887e-03 7.163226604461669922e-02 -2.041814476251602173e-02 1.104232817888259888e-01 -1.295660287141799927e-01 5.262759327888488770e-02 6.950367987155914307e-02 1.901727914810180664e-02 5.083176493644714355e-02 -1.076429784297943115e-01 1.305114775896072388e-01 4.857781529426574707e-02 1.315544992685317993e-01 -1.127933561801910400e-01 -1.063353121280670166e-01 1.549082994461059570e-02 1.079040467739105225e-01 -1.128111779689788818e-02 8.694754540920257568e-02 1.118362843990325928e-01 -1.035580709576606750e-01 9.112292528152465820e-02 1.006587147712707520e-01 1.280975490808486938e-01 5.164518952369689941e-03 8.826325833797454834e-02 1.061746627092361450e-01 7.675917446613311768e-02 -1.317726373672485352e-01 1.233716458082199097e-01 1.367926150560379028e-01 1.341912001371383667e-01 5.971184372901916504e-02 8.051247894763946533e-02 7.538536190986633301e-02 1.188417524099349976e-01 8.940215408802032471e-02 1.320065408945083618e-01 6.351166963577270508e-02 1.189642101526260376e-01 -4.525744915008544922e-02 -1.344474405050277710e-01 -1.153498366475105286e-01 -1.340497434139251709e-01 -1.229416504502296448e-01 -8.594566583633422852e-02 -4.065642505884170532e-02 -1.227092742919921875e-01 -8.933447301387786865e-02 -6.043822318315505981e-02 6.048911809921264648e-02 1.062174439430236816e-01 9.637084603309631348e-02 -4.795791953802108765e-02 -5.880206823348999023e-03 5.025096237659454346e-02 -1.345541179180145264e-01 -7.577048242092132568e-02 -5.084894597530364990e-02 -2.221883088350296021e-02 7.937955856323242188e-02 -1.137575358152389526e-01 3.277882933616638184e-03 1.052046269178390503e-01 -4.150109738111495972e-02 -4.805867373943328857e-02 8.057667315006256104e-02 6.113889813423156738e-02 8.583354949951171875e-02 -1.055540442466735840e-01 -2.530971914529800415e-02 3.703708946704864502e-02 1.009007096290588379e-01 -1.344471126794815063e-01 7.390148937702178955e-02 -7.897759228944778442e-02 9.261851012706756592e-02 9.516477584838867188e-04 -7.022657245397567749e-02 5.592860281467437744e-02 -2.825727313756942749e-02 2.188797295093536377e-02 -2.034782618284225464e-02 1.041337847709655762e-03 8.350914716720581055e-02 1.320669203996658325e-01 -1.200636252760887146e-01 7.543084025382995605e-02 4.741413891315460205e-02 -1.708763837814331055e-02 9.287670254707336426e-03 4.380786418914794922e-02 -1.379359215497970581e-01 1.295432001352310181e-01 -1.278549432754516602e-01 -5.066240578889846802e-02 4.189226031303405762e-02 -2.524347603321075439e-02 -1.143668666481971741e-01 3.338305652141571045e-02 5.867056548595428467e-02 -2.954441308975219727e-02 1.178821474313735962e-01 -5.047527700662612915e-02 -1.280032396316528320e-01 -5.310440808534622192e-02 -9.081403911113739014e-02 1.198654919862747192e-01 -1.055436506867408752e-01 -5.432182550430297852e-02 3.644897043704986572e-02 -6.391955912113189697e-02 -8.646914362907409668e-02 -1.196225658059120178e-01 -1.242501139640808105e-01 -6.292892247438430786e-02 -4.972621798515319824e-03 3.778949379920959473e-02 9.477944672107696533e-02 1.309610456228256226e-01 -1.193380057811737061e-01 -5.806557834148406982e-02 1.089039295911788940e-01 -1.567924767732620239e-02 7.996065914630889893e-02 1.160966306924819946e-01 -8.150245249271392822e-02 1.062323898077011108e-01 7.476687431335449219e-03 -6.264972686767578125e-02 3.594259917736053467e-02 -5.880459398031234741e-02 -8.477006852626800537e-02 -1.203162372112274170e-01 1.355103105306625366e-01 -1.044827625155448914e-01 1.269869506359100342e-02 1.305112093687057495e-01 -3.944302350282669067e-02 -9.557531028985977173e-02 -5.952405929565429688e-02 -7.997480779886245728e-02 -1.223460361361503601e-01 -5.162671208381652832e-03 1.228585690259933472e-01 -1.158577501773834229e-01 5.622945725917816162e-02 7.027734816074371338e-02 1.013657897710800171e-01 1.923294365406036377e-02 -3.004968166351318359e-03 6.703476607799530029e-02 -1.057565435767173767e-01 -3.406715393066406250e-02 -2.732731401920318604e-02 5.264624953269958496e-03 -6.818804889917373657e-02 2.620542049407958984e-02 -8.945230394601821899e-02 8.028990030288696289e-02 -5.878987908363342285e-02 -1.035774797201156616e-01 7.277512550354003906e-02 6.030350923538208008e-03 4.915474355220794678e-02 6.242752075195312500e-02 1.134069412946701050e-01 -1.181850880384445190e-01 -5.559921264648437500e-04 -5.327001214027404785e-03 -1.719997823238372803e-02 6.024925410747528076e-02 9.658637642860412598e-02 -8.912934362888336182e-02 6.181035935878753662e-02 -1.053780764341354370e-01 -1.216346025466918945e-02 -1.366004645824432373e-01 1.269013732671737671e-01 -1.148528382182121277e-01 4.750254750251770020e-02 -8.736324310302734375e-02 3.411249816417694092e-02 3.962452709674835205e-02 -1.342378258705139160e-01 2.944418787956237793e-02 1.792767643928527832e-02 4.082792997360229492e-02 5.078613758087158203e-03 6.220474839210510254e-03 -2.909138053655624390e-02 1.178099066019058228e-01 8.610188961029052734e-02 -9.634992480278015137e-02 -8.427622914314270020e-02 6.364144384860992432e-02 -5.022674798965454102e-02 -1.277374029159545898e-01 -2.636688202619552612e-02 5.803714692592620850e-02 2.413001656532287598e-02 -5.272685736417770386e-02 6.874988973140716553e-02 1.254795342683792114e-01 -6.557068973779678345e-02 -8.324311673641204834e-02 -1.330767869949340820e-01 3.604102134704589844e-02 7.280690968036651611e-02 -3.429729491472244263e-02 -8.149191737174987793e-02 8.640454709529876709e-02 5.256980657577514648e-02 1.227183192968368530e-01 1.207094341516494751e-01 9.986917674541473389e-02 3.537367284297943115e-02 -2.913296222686767578e-03 9.518603980541229248e-02 -5.301846563816070557e-02 -1.281744539737701416e-01 -7.455497980117797852e-02 5.487209558486938477e-02 -8.538775891065597534e-02 -8.453509211540222168e-02 2.433180809020996094e-03 -1.300846785306930542e-01 9.610179066658020020e-02 5.870172381401062012e-02 1.282624751329421997e-01 1.224194914102554321e-01 -3.134049475193023682e-02 -9.020197391510009766e-02 -9.279847145080566406e-02 1.822921633720397949e-02 1.140922456979751587e-01 6.529192626476287842e-02 -6.883762031793594360e-02 5.423772335052490234e-02 -1.203820779919624329e-01 -8.719667792320251465e-03 -3.145707398653030396e-02 5.315548181533813477e-02 9.288579225540161133e-02 1.019951254129409790e-01 1.673674583435058594e-02 -9.147559106349945068e-02 -1.103883981704711914e-02 -8.641031384468078613e-02 -6.559447944164276123e-02 1.152126640081405640e-01 -3.957833349704742432e-02 1.065342575311660767e-01 -1.318164318799972534e-01 4.397109150886535645e-03 -6.281829625368118286e-02 2.399332821369171143e-02 1.234520822763442993e-01 9.161306917667388916e-02 -1.111590713262557983e-01 2.951960265636444092e-02 7.102866470813751221e-02 1.324322074651718140e-01 6.320308148860931396e-02 6.792217493057250977e-02 -5.417563021183013916e-02 -1.198507994413375854e-01 -4.528713226318359375e-02 9.502455592155456543e-02 -5.720992386341094971e-02 -8.708417415618896484e-03 -3.724780678749084473e-02 -1.726118475198745728e-02 1.906028389930725098e-02 -7.422551512718200684e-03 1.122876256704330444e-01 -8.492034673690795898e-02 7.780927419662475586e-02 8.812893927097320557e-02 1.236975044012069702e-01 1.113236844539642334e-01 -9.991540014743804932e-02 9.132038056850433350e-02 1.088388711214065552e-01 -1.238959580659866333e-01 -8.011405915021896362e-02 5.328430235385894775e-02 -8.089278638362884521e-02 -1.091161370277404785e-01 1.332523375749588013e-01 -9.742489457130432129e-02 8.462637662887573242e-02 -2.936737984418869019e-02 -7.843419909477233887e-02 -8.106938749551773071e-02 -5.962517112493515015e-02 -2.874676138162612915e-02 4.114973545074462891e-02 3.497081995010375977e-02 -5.630786716938018799e-02 -1.315093040466308594e-02 2.033975720405578613e-02 9.441053867340087891e-02 1.098753511905670166e-01 -7.079634815454483032e-02 6.713172793388366699e-02 -5.577997118234634399e-02 -5.475828051567077637e-02 -7.667583227157592773e-02 -3.407709300518035889e-02 -4.398433119058609009e-02 -1.253246217966079712e-01 8.995433151721954346e-02 -1.197729110717773438e-01 2.043920755386352539e-02 -9.878827631473541260e-02 1.017322093248367310e-01 7.914251089096069336e-02 1.667618751525878906e-03 -1.238830238580703735e-01 1.316077858209609985e-01 -1.167586594820022583e-01 2.372455596923828125e-02 -2.311588078737258911e-02 -6.557921320199966431e-02 -9.243641793727874756e-02 -1.362864226102828979e-01 1.081567555665969849e-01 -1.095111593604087830e-01 -8.896939456462860107e-02 -2.882927656173706055e-03 -3.452077507972717285e-03 4.048192501068115234e-02 1.254560500383377075e-01 1.564720273017883301e-02 8.044551312923431396e-02 -1.193561404943466187e-01 1.073453575372695923e-01 3.083524107933044434e-02 4.093299806118011475e-02 -4.791511595249176025e-02 3.556798398494720459e-02 -6.724271923303604126e-02 -1.226045712828636169e-01 -8.463947474956512451e-02 4.372599720954895020e-02 3.450350463390350342e-02 5.292481184005737305e-02 2.384057641029357910e-02 -3.505015373229980469e-02 1.205971091985702515e-01 -1.249642819166183472e-01 -1.170908659696578979e-01 4.329085350036621094e-02 1.053261160850524902e-01 1.151379197835922241e-01 -4.466798901557922363e-02 -1.179834082722663879e-01 1.378572732210159302e-01 -4.538143426179885864e-02 7.525871694087982178e-02 6.188316643238067627e-02 9.420901536941528320e-03 -1.170731633901596069e-01 4.792100191116333008e-02 1.144952028989791870e-01 8.741690218448638916e-02 1.151466220617294312e-01 -4.833063483238220215e-02 5.672822892665863037e-02 6.582751870155334473e-03 1.173181980848312378e-01 -8.284282684326171875e-02 -1.247135102748870850e-01 8.181580901145935059e-02 -4.328280687332153320e-03 -4.341527074575424194e-02 4.032731056213378906e-03 -1.376984715461730957e-01 2.990669012069702148e-02 -6.893482059240341187e-02 -5.397063493728637695e-02 5.157276988029479980e-03 1.283399313688278198e-01 -4.297000169754028320e-02 3.787849843502044678e-02 -1.061040163040161133e-01 7.269193232059478760e-02 3.902596235275268555e-02 -5.896905064582824707e-02 -9.066738188266754150e-02 7.254083454608917236e-02 1.026065200567245483e-01 4.455019533634185791e-02 -1.197807416319847107e-01 6.948916614055633545e-02 -5.364714562892913818e-02 -4.028400778770446777e-02 -2.398871630430221558e-02 1.707166433334350586e-03 1.096552610397338867e-02 5.153807997703552246e-02 2.109992504119873047e-02 -9.806838631629943848e-02 4.875274002552032471e-02 2.819642424583435059e-02 1.313696056604385376e-01 -1.165848225355148315e-01 3.294466435909271240e-02 7.119596004486083984e-03 7.751266658306121826e-02 -6.414262205362319946e-02 1.081238538026809692e-01 1.272589117288589478e-01 -1.082720905542373657e-01 1.363443285226821899e-01 1.705546677112579346e-02 -2.974177896976470947e-02 -5.886214226484298706e-02 -3.004541993141174316e-02 2.454823255538940430e-02 -6.071830540895462036e-02 -1.076165586709976196e-01 8.116583526134490967e-02 1.031951010227203369e-01 -1.337991654872894287e-02 -1.061880588531494141e-02 7.286576926708221436e-02 5.279615521430969238e-02 -4.896553605794906616e-02 -1.096585690975189209e-01 7.320491969585418701e-02 -1.281478255987167358e-01 1.047638058662414551e-01 -7.010136544704437256e-02 -6.698146462440490723e-03 6.471407413482666016e-02 -7.247430086135864258e-02 1.969465613365173340e-02 1.216185092926025391e-02 -3.213593363761901855e-02 -1.033814996480941772e-01 -1.135465130209922791e-01 -1.225645244121551514e-01 5.518649518489837646e-02 2.574698626995086670e-02 3.590942919254302979e-02 -1.121519729495048523e-01 3.811816871166229248e-02 -1.079224124550819397e-01 -1.326006501913070679e-01 1.142401248216629028e-01 9.806615114212036133e-02 5.545023083686828613e-02 6.081679463386535645e-02 4.281356930732727051e-02 -2.697213739156723022e-02 -3.513837605714797974e-02 1.083004921674728394e-01 -1.241022050380706787e-01 2.483059465885162354e-02 -7.060220837593078613e-02 -4.719725996255874634e-02 3.889068961143493652e-02 6.424792110919952393e-02 6.499350070953369141e-02 -6.671591103076934814e-02 -1.195198744535446167e-01 3.494262695312500000e-02 -3.757224977016448975e-02 4.533746838569641113e-02 5.343547463417053223e-02 1.360165923833847046e-01 -7.076163589954376221e-02 5.829374492168426514e-02 -1.158585771918296814e-01 9.312450885772705078e-03 -9.830411523580551147e-02 -4.496765881776809692e-02 -7.113859057426452637e-02 7.377566397190093994e-02 -3.916698694229125977e-02 -1.155569404363632202e-01 -2.622213959693908691e-02 -1.323908418416976929e-01 6.105150282382965088e-02 1.235522329807281494e-02 -9.541071951389312744e-02 -1.080799251794815063e-01 1.022148132324218750e-02 2.201758325099945068e-02 8.449518680572509766e-02 4.126711189746856689e-02 1.036339998245239258e-02 -1.044327467679977417e-01 1.286625713109970093e-01 -6.260618567466735840e-03 9.175297617912292480e-02 -5.385441333055496216e-02 -1.117427349090576172e-01 -9.473179280757904053e-02 9.954176843166351318e-02 -4.056004434823989868e-02 -1.355499774217605591e-01 2.960327267646789551e-02 -3.166559338569641113e-02 9.309682250022888184e-02 -3.560125082731246948e-02 -4.636187106370925903e-02 -5.303531140089035034e-02 -7.203304767608642578e-02 -1.394575089216232300e-02 2.574597299098968506e-02 -9.384110569953918457e-03 1.196503192186355591e-01 5.372141301631927490e-02 9.284885227680206299e-02 -4.008358716964721680e-02 2.875301241874694824e-02 -8.238776028156280518e-02 4.367300868034362793e-02 -2.293414622545242310e-02 2.625036239624023438e-02 -4.639951139688491821e-02 1.142719238996505737e-01 8.460409939289093018e-02 -5.188653618097305298e-02 4.621492326259613037e-02 1.198725551366806030e-01 -5.833332985639572144e-02 2.403214573860168457e-02 -1.371562927961349487e-01 4.884710907936096191e-02 -1.272283494472503662e-02 -5.531732738018035889e-02 3.783693909645080566e-02 3.515058755874633789e-02 -2.600493282079696655e-02 1.704466342926025391e-02 -6.624126434326171875e-02 -1.992388069629669189e-02 -3.088220953941345215e-03 2.877180278301239014e-02 3.120489418506622314e-02 1.296305805444717407e-01 -5.455742776393890381e-02 -1.416160911321640015e-02 -1.370099782943725586e-01 -1.086660623550415039e-01 -6.260480731725692749e-02 -3.755382448434829712e-02 4.416036605834960938e-02 7.039767503738403320e-02 8.695739507675170898e-02 4.768984019756317139e-02 -1.323855519294738770e-01 -1.152506917715072632e-01 9.622284770011901855e-02 1.265376657247543335e-01 5.146190524101257324e-03 -1.266078501939773560e-01 -2.807257324457168579e-02 1.294253021478652954e-01 1.347392797470092773e-03 7.089750468730926514e-02 1.292179673910140991e-01 5.517962574958801270e-02 -4.420133680105209351e-02 -8.626010268926620483e-02 5.304442346096038818e-02 1.371391564607620239e-01 -2.737604826688766479e-02 -4.624058306217193604e-02 5.469875037670135498e-02 1.236536353826522827e-01 -9.190507233142852783e-02 -6.243383884429931641e-02 4.128536581993103027e-02 -4.193452000617980957e-02 -6.065487861633300781e-03 9.999598562717437744e-02 1.092764735221862793e-01 -5.799980461597442627e-02 5.862374603748321533e-02 6.053657829761505127e-02 -7.029122859239578247e-02 -1.077213585376739502e-01 -1.156156063079833984e-01 -8.625055849552154541e-02 9.821330010890960693e-02 1.241838783025741577e-01 1.072709262371063232e-01 2.098074555397033691e-02 -1.177556440234184265e-01 -6.510610878467559814e-02 1.252550035715103149e-01 -1.353880614042282104e-01 -2.889138460159301758e-02 -4.698650538921356201e-02 4.427984356880187988e-03 6.617854535579681396e-02 2.271546423435211182e-02 -5.761330574750900269e-02 1.294931769371032715e-02 7.823666930198669434e-02 -7.854256033897399902e-02 -1.215068995952606201e-01 -4.913976788520812988e-02 1.161487847566604614e-01 -9.767949581146240234e-03 6.796656548976898193e-02 -1.499712467193603516e-02 2.034351229667663574e-03 9.201884269714355469e-03 -1.087267026305198669e-01 -3.483275324106216431e-02 -6.710172444581985474e-02 1.115434616804122925e-01 8.687999844551086426e-02 -2.641436457633972168e-02 -1.329833269119262695e-01 8.676278591156005859e-02 -5.033566057682037354e-02 -9.396372735500335693e-02 7.391922175884246826e-02 1.035407334566116333e-01 -7.170932739973068237e-02 -1.122017204761505127e-01 1.147074550390243530e-01 -1.282207071781158447e-01 9.748551249504089355e-02 3.905293345451354980e-02 9.750711917877197266e-02 1.188312917947769165e-01 -9.559120237827301025e-02 1.230937093496322632e-01 
1.000000000000000000e+00 1.000000000000000000e+00 1.000000000000000000e+00 1.000000000000000000e+00 1.000000000000000000e+00 1.000000000000000000e+00 1.000000000000000000e+00 1.000000000000000000e+00 1.000000000000000000e+00 1.000000000000000000e+00 1.000000000000000000e+00 1.000000000000000000e+00 1.000000000000000000e+00 1.000000000000000000e+00 1.000000000000000000e+00 1.000000000000000000e+00 1.000000000000000000e+00 1.000000000000000000e+00 1.000000000000000000e+00 1.000000000000000000e+00 1.000000000000000000e+00 1.000000000000000000e+00 1.000000000000000000e+00 1.000000000000000000e+00 1.000000000000000000e+00 1.000000000000000000e+00 1.000000000000000000e+00 1.000000000000000000e+00 1.000000000000000000e+00 1.000000000000000000e+00 1.000000000000000000e+00 1.000000000000000000e+00 
0.000000000000000000e+00 0.000000000000000000e+00 0.000000000000000000e+00 0.000000000000000000e+00 0.000000000000000000e+00 0.000000000000000000e+00 0.000000000000000000e+00 0.000000000000000000e+00 0.000000000000000000e+00 0.000000000000000000e+00 0.000000000000000000e+00 0.000000000000000000e+00 0.000000000000000000e+00 0.000000000000000000e+00 0.000000000000000000e+00 0.000000000000000000e+00 0.000000000000000000e+00 0.000000000000000000e+00 0.000000000000000000e+00 0.000000000000000000e+00 0.000000000000000000e+00 0.000000000000000000e+00 0.000000000000000000e+00 0.000000000000000000e+00 0.000000000000000000e+00 0.000000000000000000e+00 0.000000000000000000e+00 0.000000000000000000e+00 0.000000000000000000e+00 0.000000000000000000e+00 0.000000000000000000e+00 0.000000000000000000e+00 
0.000000000000000000e+00 0.000000000000000000e+00 0.000000000000000000e+00 0.000000000000000000e+00 0.000000000000000000e+00 0.000000000000000000e+00 0.000000000000000000e+00 0.000000000000000000e+00 0.000000000000000000e+00 0.000000000000000000e+00 0.000000000000000000e+00 0.000000000000000000e+00 0.000000000000000000e+00 0.000000000000000000e+00 0.000000000000000000e+00 0.000000000000000000e+00 0.000000000000000000e+00 0.000000000000000000e+00 0.000000000000000000e+00 0.000000000000000000e+00 0.000000000000000000e+00 0.000000000000000000e+00 0.000000000000000000e+00 0.000000000000000000e+00 0.000000000000000000e+00 0.000000000000000000e+00 0.000000000000000000e+00 0.000000000000000000e+00 0.000000000000000000e+00 0.000000000000000000e+00 0.000000000000000000e+00 0.000000000000000000e+00 
1.000000000000000000e+00 1.000000000000000000e+00 1.000000000000000000e+00 1.000000000000000000e+00 1.000000000000000000e+00 1.000000000000000000e+00 1.000000000000000000e+00 1.000000000000000000e+00 1.000000000000000000e+00 1.000000000000000000e+00 1.000000000000000000e+00 1.000000000000000000e+00 1.000000000000000000e+00 1.000000000000000000e+00 1.000000000000000000e+00 1.000000000000000000e+00 1.000000000000000000e+00 1.000000000000000000e+00 1.000000000000000000e+00 1.000000000000000000e+00 1.000000000000000000e+00 1.000000000000000000e+00 1.000000000000000000e+00 1.000000000000000000e+00 1.000000000000000000e+00 1.000000000000000000e+00 1.000000000000000000e+00 1.000000000000000000e+00 1.000000000000000000e+00 1.000000000000000000e+00 1.000000000000000000e+00 1.000000000000000000e+00 
7.709121704101562500e-02 -5.186679586768150330e-02 -3.260583430528640747e-02 -8.079595863819122314e-03 3.531567752361297607e-03 -8.102560043334960938e-02 -5.536916479468345642e-02 -3.068482875823974609e-02 -8.796025812625885010e-02 1.920012384653091431e-02 7.655940949916839600e-02 1.831338554620742798e-02 4.899610579013824463e-02 5.557233095169067383e-02 5.062259733676910400e-02 -8.025003969669342041e-02 3.716082870960235596e-02 4.434597492218017578e-02 -6.677751243114471436e-02 -3.383353352546691895e-02 3.080394864082336426e-02 -7.718156278133392334e-02 3.338968753814697266e-02 5.552352964878082275e-02 6.520839035511016846e-02 -1.345133781433105469e-02 7.469090819358825684e-02 2.239368110895156860e-02 5.929754674434661865e-02 -3.013923764228820801e-03 5.308826267719268799e-02 1.893240958452224731e-02 4.765279591083526611e-02 5.623938143253326416e-02 -4.413901269435882568e-02 1.559280604124069214e-02 -1.066178083419799805e-05 8.860801160335540771e-02 -9.476217627525329590e-02 8.329509198665618896e-02 -8.722285181283950806e-02 6.190392374992370605e-02 6.072948873043060303e-02 1.831799000501632690e-02 6.105761229991912842e-02 4.355651140213012695e-02 2.731622755527496338e-02 -4.162514582276344299e-02 3.910526633262634277e-02 2.916933596134185791e-02 7.722711563110351562e-02 -7.084998488426208496e-02 -8.156488090753555298e-02 -3.751470893621444702e-02 -4.960137233138084412e-02 -1.670990884304046631e-02 9.927023947238922119e-02 -7.240453362464904785e-02 5.235521495342254639e-02 9.728367626667022705e-02 1.502469182014465332e-02 7.359723746776580811e-02 -8.121175318956375122e-02 3.429658710956573486e-03 6.978340446949005127e-02 9.225426614284515381e-02 4.385949671268463135e-02 -3.081832081079483032e-02 3.393800556659698486e-02 4.534617066383361816e-03 -4.371826350688934326e-02 -4.695726931095123291e-02 9.968429803848266602e-02 7.405896484851837158e-02 9.271346032619476318e-02 6.845258176326751709e-02 -5.733499675989151001e-02 -2.817458659410476685e-02 -4.495043680071830750e-02 -9.249575436115264893e-02 2.777597308158874512e-02 7.598097622394561768e-02 -6.482888758182525635e-02 -5.206869170069694519e-02 -9.811133891344070435e-02 -7.992633432149887085e-02 -4.785383865237236023e-02 8.279627561569213867e-02 -8.428879082202911377e-03 -7.070049643516540527e-03 -5.826241895556449890e-02 6.059361994266510010e-02 2.457544207572937012e-02 -5.384981632232666016e-03 7.196675240993499756e-02 -4.038988053798675537e-02 5.689913034439086914e-02 6.670440733432769775e-02 8.914293348789215088e-02 -7.002939283847808838e-02 9.356226027011871338e-02 8.536450564861297607e-02 6.683614850044250488e-02 -1.945859938859939575e-02 1.237805932760238647e-02 -6.611762940883636475e-02 1.838354021310806274e-02 -1.893629878759384155e-02 -7.220565527677536011e-02 -4.961682483553886414e-02 2.275943756103515625e-02 -4.887640476226806641e-02 -5.308264493942260742e-02 4.831592738628387451e-02 -6.499527394771575928e-02 -9.995328634977340698e-02 8.608186244964599609e-02 3.785900771617889404e-02 -9.497851133346557617e-03 -6.411641836166381836e-02 3.371244668960571289e-02 -6.872706115245819092e-03 3.720887005329132080e-03 7.526965439319610596e-02 -7.119949162006378174e-02 -9.534296393394470215e-02 -1.806864142417907715e-02 -4.482974484562873840e-02 -2.331627905368804932e-02 -1.379068940877914429e-02 -2.626888453960418701e-02 7.684099674224853516e-02 -2.450522035360336304e-02 1.293843239545822144e-02 2.304072678089141846e-02 4.922407865524291992e-02 9.575320780277252197e-02 -8.038190752267837524e-02 1.919596642255783081e-02 -5.389913171529769897e-02 -7.303267717361450195e-02 -5.313074961304664612e-02 -7.444112747907638550e-02 -7.408513128757476807e-02 -5.141898617148399353e-02 -5.815900862216949463e-03 -1.006958261132240295e-01 2.534070611000061035e-02 -9.965147823095321655e-02 5.722373723983764648e-02 -2.832876145839691162e-02 6.496548652648925781e-02 -1.525478810071945190e-02 -6.368328630924224854e-02 8.442959189414978027e-02 2.659244835376739502e-02 -9.245929867029190063e-02 5.975151062011718750e-02 6.641532480716705322e-02 -6.941787898540496826e-03 -4.464909061789512634e-02 6.840367615222930908e-02 5.518673360347747803e-02 -3.420301526784896851e-02 -6.400619447231292725e-02 1.130787283182144165e-02 -8.528237789869308472e-02 -7.094569504261016846e-02 1.823142170906066895e-03 1.332670450210571289e-02 6.828682124614715576e-02 7.966372370719909668e-02 -5.460998415946960449e-02 9.169742465019226074e-02 8.194558322429656982e-02 7.228705286979675293e-02 -2.553654462099075317e-02 -4.924296587705612183e-02 -8.077418804168701172e-02 7.584105432033538818e-02 4.880467057228088379e-02 -6.086975336074829102e-03 -6.635126471519470215e-02 2.095680683851242065e-02 -8.510863780975341797e-02 6.991496682167053223e-02 -1.835256814956665039e-03 5.250425636768341064e-02 8.973889052867889404e-02 6.379035115242004395e-02 -7.756388932466506958e-02 -7.743251323699951172e-02 6.760764122009277344e-02 -1.445178687572479248e-02 -4.279959946870803833e-02 -9.116616845130920410e-02 -5.665061622858047485e-02 -5.860067903995513916e-02 -2.737557142972946167e-02 2.263844013214111328e-03 -5.526482313871383667e-02 -1.874421536922454834e-02 -5.175145715475082397e-02 8.420106768608093262e-02 -5.089788511395454407e-02 -1.374559849500656128e-02 7.895149290561676025e-03 1.693755388259887695e-03 3.702314198017120361e-02 7.779423892498016357e-02 -2.163510769605636597e-02 3.936682641506195068e-02 -2.954765409231185913e-02 6.884914636611938477e-02 1.009140461683273315e-01 1.175572723150253296e-02 7.421857118606567383e-02 -5.979932844638824463e-03 7.113595306873321533e-02 -1.019309461116790771e-01 -9.707295894622802734e-02 -2.811015397310256958e-02 1.000919342041015625e-01 9.792236983776092529e-02 -1.697502285242080688e-02 9.497073292732238770e-02 2.856616675853729248e-02 2.835723757743835449e-02 6.906661391258239746e-02 9.309484064579010010e-02 -7.690192759037017822e-02 5.908890068531036377e-02 -9.589127451181411743e-02 6.063021719455718994e-02 -2.697200328111648560e-02 -8.030523359775543213e-02 -9.865207970142364502e-02 7.710210978984832764e-02 6.411194801330566406e-03 -8.386860787868499756e-02 -8.210586011409759521e-02 -1.215168833732604980e-02 8.854566514492034912e-02 -6.658276915550231934e-02 5.331030488014221191e-02 -2.650567144155502319e-02 -7.518667727708816528e-02 -3.264258056879043579e-02 -7.383875548839569092e-03 1.886714249849319458e-02 2.930590510368347168e-02 -3.199973702430725098e-02 -9.967175126075744629e-02 1.851171255111694336e-03 -5.665042251348495483e-02 3.689885139465332031e-03 -5.056218057870864868e-02 -3.554532676935195923e-02 3.919871151447296143e-02 9.359823167324066162e-02 9.354394674301147461e-02 2.104334533214569092e-03 7.091666758060455322e-02 -4.962434247136116028e-02 7.411386072635650635e-02 6.899073719978332520e-02 3.073979914188385010e-02 -3.200240433216094971e-03 8.209191262722015381e-02 -1.065887510776519775e-02 5.752328038215637207e-02 4.179421067237854004e-02 -7.449006289243698120e-02 9.271450340747833252e-03 9.064367413520812988e-02 -9.549638628959655762e-02 4.855431616306304932e-03 -3.749445825815200806e-02 -9.967254847288131714e-02 9.122140705585479736e-02 -9.655642509460449219e-02 -3.693677484989166260e-03 1.192971318960189819e-02 -9.024451673030853271e-02 8.730262517929077148e-02 6.089119613170623779e-02 4.378737509250640869e-02 9.420651197433471680e-02 3.081202507019042969e-02 9.042547643184661865e-02 4.576049745082855225e-02 -7.896761596202850342e-02 -8.094760775566101074e-02 3.126257658004760742e-02 1.333305239677429199e-02 1.502843946218490601e-02 -4.063056036829948425e-02 7.094034552574157715e-02 -8.560778945684432983e-02 -6.527338922023773193e-02 2.169771492481231689e-02 -7.372832298278808594e-02 -6.859225034713745117e-02 -7.788339257240295410e-02 -3.985741361975669861e-02 -5.722520127892494202e-02 -6.191640719771385193e-02 8.550824224948883057e-02 4.365059733390808105e-02 -8.943831920623779297e-02 6.198135018348693848e-02 -6.402872502803802490e-02 -8.657872676849365234e-04 1.747597754001617432e-02 -5.292459949851036072e-02 1.841960102319717407e-02 -3.293959796428680420e-02 -9.695440530776977539e-04 9.917324781417846680e-02 -6.094143912196159363e-02 1.270488649606704712e-02 -6.317123770713806152e-03 4.439622163772583008e-02 -2.944861352443695068e-02 -1.434169709682464600e-03 9.405535459518432617e-02 8.217029273509979248e-03 -9.621288627386093140e-02 3.476823866367340088e-02 -7.641781121492385864e-02 1.612563431262969971e-02 3.043887019157409668e-02 -7.404463738203048706e-02 -3.198516368865966797e-02 -3.921546787023544312e-02 2.748638391494750977e-03 -8.886346966028213501e-02 7.054655253887176514e-02 -2.123642712831497192e-02 1.146214455366134644e-02 2.917084097862243652e-02 6.473179161548614502e-02 -6.357610225677490234e-03 -3.153166174888610840e-02 -5.002122372388839722e-02 -6.135931611061096191e-02 9.655727446079254150e-02 -6.546355038881301880e-02 7.421967387199401855e-02 8.047488331794738770e-02 4.421988129615783691e-02 8.485956490039825439e-02 -9.481548517942428589e-02 8.242873847484588623e-02 -4.650856181979179382e-02 3.465496003627777100e-02 -7.150337100028991699e-02 -4.181691631674766541e-02 -5.406420677900314331e-02 2.899308502674102783e-02 -5.299866944551467896e-02 1.002869457006454468e-01 7.216076552867889404e-02 2.572359144687652588e-02 4.091961681842803955e-02 1.055394858121871948e-02 -6.307159364223480225e-02 -1.065804809331893921e-02 6.077323853969573975e-02 -4.396945610642433167e-02 -7.255299389362335205e-02 5.391740798950195312e-02 4.113499820232391357e-02 4.467447102069854736e-02 -4.841669648885726929e-02 6.600087881088256836e-02 -4.585065692663192749e-02 3.180536627769470215e-02 -2.104518562555313110e-02 4.845309257507324219e-02 5.957795679569244385e-02 -8.685134351253509521e-03 1.114564388990402222e-02 1.393572241067886353e-02 4.167400300502777100e-03 9.158156812191009521e-02 3.546774387359619141e-02 3.509491682052612305e-02 4.302099347114562988e-02 6.044474244117736816e-02 -5.315841734409332275e-02 2.884611487388610840e-02 1.713012158870697021e-02 -5.393429100513458252e-02 -3.925211727619171143e-02 -9.292134642601013184e-02 -9.284846484661102295e-02 1.078010350465774536e-02 6.521996855735778809e-02 3.914870321750640869e-02 6.789712607860565186e-02 4.508215188980102539e-02 -7.113208621740341187e-02 -9.069210290908813477e-02 -8.629920333623886108e-02 -4.627766087651252747e-02 6.026151776313781738e-02 -8.191488683223724365e-02 3.974755108356475830e-02 8.418691158294677734e-02 -7.239090651273727417e-02 7.325543463230133057e-02 6.789380311965942383e-02 9.711839258670806885e-02 -4.601072147488594055e-02 2.725487947463989258e-02 -9.255822002887725830e-02 7.465083897113800049e-02 3.857077658176422119e-02 -5.046623200178146362e-02 4.069618880748748779e-02 -7.555757462978363037e-02 -8.890052884817123413e-02 -2.530770748853683472e-02 -8.863651007413864136e-02 -1.021273434162139893e-03 -6.290644407272338867e-02 -8.313251286745071411e-02 -3.929319232702255249e-02 3.996372222900390625e-02 -2.485778182744979858e-02 1.794320344924926758e-02 -3.453120589256286621e-03 8.261582255363464355e-02 -3.925058245658874512e-02 -3.454241901636123657e-02 -1.956237852573394775e-02 2.596357464790344238e-02 7.248991727828979492e-02 9.219436347484588623e-02 -2.684518694877624512e-03 -9.936772286891937256e-02 -6.507073342800140381e-02 8.504006266593933105e-02 -1.349362730979919434e-02 -5.845693871378898621e-02 -5.989852920174598694e-02 9.686784446239471436e-02 -7.881743460893630981e-02 -3.817268460988998413e-02 7.228489220142364502e-02 -7.768115401268005371e-02 6.792059540748596191e-02 7.955934107303619385e-02 3.129567205905914307e-02 8.264851570129394531e-02 4.257057607173919678e-02 4.322589933872222900e-02 9.909263253211975098e-02 1.001786589622497559e-01 -3.795158863067626953e-02 8.843174576759338379e-02 -9.134280681610107422e-02 1.118822395801544189e-02 -9.062876552343368530e-02 -1.312969624996185303e-02 -2.143615484237670898e-02 -3.540883958339691162e-02 6.988231837749481201e-02 5.621163547039031982e-02 4.942955076694488525e-02 -5.751316621899604797e-02 9.802198410034179688e-02 -4.384489357471466064e-02 4.969848692417144775e-02 3.252273797988891602e-02 6.486864387989044189e-02 3.025415539741516113e-02 -5.449449643492698669e-02 4.854288697242736816e-02 3.370748460292816162e-02 8.717413246631622314e-02 -8.451540768146514893e-02 7.755389809608459473e-02 -8.643111586570739746e-02 1.501600444316864014e-02 5.221581459045410156e-02 -3.183950483798980713e-02 5.396211147308349609e-02 -9.771290421485900879e-02 4.255001246929168701e-02 1.460140943527221680e-02 -6.251902878284454346e-02 -9.928783774375915527e-02 -1.828864216804504395e-02 -6.766863167285919189e-02 9.077355265617370605e-02 8.830066025257110596e-02 -6.547231227159500122e-02 -9.297001361846923828e-02 -5.983440950512886047e-02 -6.905748695135116577e-02 7.376199960708618164e-02 -7.772332429885864258e-02 3.768265247344970703e-02 -7.608626782894134521e-02 -3.615458309650421143e-02 8.552043139934539795e-02 -4.688407480716705322e-02 5.955854058265686035e-02 -5.217001587152481079e-02 -6.830188632011413574e-02 -1.166484504938125610e-02 8.765019476413726807e-02 1.646187901496887207e-02 -6.186503916978836060e-02 7.393310964107513428e-02 -6.955771148204803467e-02 -1.699651032686233521e-02 -6.252579391002655029e-02 -8.465659618377685547e-02 8.769840002059936523e-02 -1.964533329010009766e-02 -8.320672810077667236e-02 -2.348498255014419556e-02 -8.729079365730285645e-02 4.475934803485870361e-02 9.404139220714569092e-02 3.277446329593658447e-02 -9.268166124820709229e-02 8.756792545318603516e-02 5.898021161556243896e-02 3.841811418533325195e-02 -1.616805046796798706e-02 -1.760973781347274780e-02 -6.990358233451843262e-03 8.077770471572875977e-03 -1.972433924674987793e-02 7.313698530197143555e-03 2.293118089437484741e-02 7.875272631645202637e-02 1.627852767705917358e-02 6.383936107158660889e-02 7.876472175121307373e-02 4.851366579532623291e-02 -4.782643914222717285e-02 -3.119157254695892334e-02 -2.968934923410415649e-02 1.958113908767700195e-02 -5.170558765530586243e-02 -2.443666756153106689e-02 4.659080505371093750e-02 -8.119769394397735596e-03 -6.911532580852508545e-02 4.849691689014434814e-02 8.382998406887054443e-02 -7.620328664779663086e-02 6.299783289432525635e-02 9.924377501010894775e-02 -9.323322772979736328e-02 2.182245254516601562e-02 1.942988485097885132e-02 3.650271892547607422e-02 -8.169489353895187378e-02 -6.128609925508499146e-02 5.593664944171905518e-03 -7.129409909248352051e-02 -4.656024649739265442e-02 -1.012936234474182129e-01 -1.584877073764801025e-02 -6.152969971299171448e-02 3.209729492664337158e-02 6.152595579624176025e-02 3.497609496116638184e-02 3.406979143619537354e-02 -5.342041701078414917e-02 2.199698984622955322e-02 -2.047614753246307373e-02 3.670892119407653809e-02 -8.214080333709716797e-02 7.640568912029266357e-02 1.622036844491958618e-02 6.602805852890014648e-02 8.673228323459625244e-02 -4.991529881954193115e-02 -5.147171765565872192e-02 4.315592348575592041e-03 -1.590546965599060059e-02 5.408351123332977295e-02 -4.671864211559295654e-03 8.641989529132843018e-02 8.189742267131805420e-02 -4.060880839824676514e-02 5.091148614883422852e-02 -3.658869862556457520e-02 8.265733718872070312e-02 -9.334012120962142944e-02 4.284627735614776611e-02 9.533843398094177246e-02 5.389462411403656006e-02 3.223489224910736084e-02 1.783212274312973022e-02 -2.670399099588394165e-02 6.971432268619537354e-02 8.517789840698242188e-02 -6.417548656463623047e-02 -9.653024375438690186e-03 2.484665811061859131e-02 -3.733679652214050293e-03 2.756075561046600342e-02 1.949794590473175049e-03 -6.570708006620407104e-02 6.993374228477478027e-02 4.457868635654449463e-03 -4.475158452987670898e-02 7.120579481124877930e-02 -1.403529196977615356e-02 8.550286293029785156e-02 3.851352632045745850e-02 5.449903011322021484e-02 7.623943686485290527e-02 2.349050343036651611e-02 9.810462594032287598e-03 7.231657207012176514e-02 -7.747928798198699951e-02 8.104601502418518066e-02 7.015824317932128906e-02 -7.341977953910827637e-02 -1.846607774496078491e-02 5.284789204597473145e-02 4.567311704158782959e-02 7.771931588649749756e-02 -5.450870841741561890e-02 9.502027928829193115e-02 -7.776931673288345337e-02 -9.715868532657623291e-02 5.631437897682189941e-02 -9.959901869297027588e-02 2.496920526027679443e-02 4.824349284172058105e-02 2.559764683246612549e-02 8.400246500968933105e-02 -6.929641962051391602e-02 2.870388329029083252e-02 7.789985835552215576e-02 -7.838755846023559570e-04 -3.104177862405776978e-02 8.289840817451477051e-02 -8.956648409366607666e-03 -2.416598051786422729e-02 5.586287379264831543e-02 4.057194292545318604e-02 7.928499579429626465e-02 -2.301131188869476318e-02 8.961416780948638916e-03 4.869210720062255859e-02 -2.453407645225524902e-02 -8.939537405967712402e-02 9.349036216735839844e-02 6.803423166275024414e-02 -1.064442098140716553e-03 7.514312863349914551e-02 8.773249387741088867e-02 2.749499678611755371e-02 -5.916606634855270386e-02 1.015203148126602173e-01 1.742735505104064941e-02 -8.750006556510925293e-03 6.017103791236877441e-02 7.732196152210235596e-02 5.607549846172332764e-02 -8.801642060279846191e-02 -8.766535669565200806e-02 7.756133377552032471e-02 -7.491465657949447632e-02 4.384428262710571289e-02 -3.848045319318771362e-02 -1.543821394443511963e-02 9.141023457050323486e-02 -5.257375910878181458e-02 -9.237912297248840332e-02 -8.229787647724151611e-02 4.736475646495819092e-02 9.241837263107299805e-02 -5.932554602622985840e-03 -2.519796788692474365e-02 -7.762683928012847900e-02 3.917524218559265137e-02 -4.870095849037170410e-02 -3.182434290647506714e-02 -7.688690721988677979e-02 -9.702270478010177612e-02 6.257209181785583496e-02 7.752911746501922607e-02 -1.404336839914321899e-02 -3.854065388441085815e-02 4.726767539978027344e-02 6.135219335556030273e-02 -8.439007401466369629e-02 7.924181222915649414e-02 -6.760878860950469971e-02 -9.527680277824401855e-02 2.879166603088378906e-02 -2.736873179674148560e-02 4.363107681274414062e-02 -1.243580132722854614e-02 -1.857334375381469727e-02 6.976346671581268311e-02 -5.752082914113998413e-02 -3.463573753833770752e-02 -5.836656317114830017e-02 1.016189903020858765e-01 -7.310098409652709961e-02 1.338753104209899902e-02 7.176677882671356201e-02 3.456738591194152832e-02 -3.540372848510742188e-02 4.686921834945678711e-03 6.771303713321685791e-02 -6.503836810588836670e-02 9.280367195606231689e-02 -9.384577721357345581e-02 7.322019338607788086e-02 3.122927248477935791e-02 4.267099499702453613e-02 -2.436252683401107788e-02 6.315325200557708740e-02 1.312981545925140381e-02 -1.960422843694686890e-02 8.910886943340301514e-02 -2.235710620880126953e-03 6.918510794639587402e-02 3.351937234401702881e-02 7.344089448451995850e-02 -8.565487712621688843e-02 -1.577596366405487061e-02 -9.262272715568542480e-02 3.388933837413787842e-02 7.631905376911163330e-03 -6.361330300569534302e-02 6.223905086517333984e-02 6.257650256156921387e-02 -8.759617805480957031e-02 4.363322257995605469e-02 1.121701300144195557e-02 3.823931515216827393e-02 -9.549632668495178223e-03 4.859484732151031494e-02 -6.746369600296020508e-02 -9.647914767265319824e-02 9.949530661106109619e-02 8.368548750877380371e-02 1.587942987680435181e-02 7.033458352088928223e-02 3.397883474826812744e-02 4.309420287609100342e-02 8.296100795269012451e-02 -1.638084650039672852e-02 4.910852015018463135e-02 8.328330516815185547e-02 1.062402874231338501e-02 -9.492744505405426025e-02 7.836042344570159912e-02 -9.571003913879394531e-02 9.983156621456146240e-02 4.372709989547729492e-02 -9.811377525329589844e-02 -3.846582770347595215e-02 -4.273582249879837036e-02 -5.655616521835327148e-03 1.086272299289703369e-03 6.679259240627288818e-02 -6.994067132472991943e-02 -2.288545668125152588e-02 9.160487353801727295e-02 6.593255698680877686e-02 7.708241045475006104e-02 -7.683308422565460205e-02 -1.504917442798614502e-02 9.734721481800079346e-02 7.657434046268463135e-02 6.835179030895233154e-02 -4.919337108731269836e-02 -2.130225300788879395e-03 -5.063396319746971130e-02 1.542281359434127808e-02 -4.115112125873565674e-03 -4.157372936606407166e-02 9.520509839057922363e-02 -8.798830956220626831e-02 1.333609223365783691e-02 -9.359044581651687622e-02 -2.610839903354644775e-03 -1.496367156505584717e-03 2.457451820373535156e-02 -3.292935341596603394e-02 4.018476605415344238e-02 4.813604056835174561e-02 6.689321994781494141e-02 5.591019988059997559e-02 -1.300294697284698486e-02 4.819697141647338867e-02 -8.092882484197616577e-02 -7.431169599294662476e-02 -3.291161358356475830e-02 9.149312973022460938e-05 7.072009146213531494e-02 -1.717559993267059326e-02 2.215817570686340332e-02 -3.647547215223312378e-02 8.542679250240325928e-02 -9.616553783416748047e-02 8.878572285175323486e-02 -6.670124828815460205e-02 -8.389882743358612061e-02 8.159008622169494629e-02 -9.146462380886077881e-02 5.285875499248504639e-02 2.037044614553451538e-02 -7.607059180736541748e-02 5.178450047969818115e-02 5.548433959484100342e-02 1.502882689237594604e-02 9.279140830039978027e-02 -6.615717709064483643e-02 3.337503969669342041e-02 -5.358868464827537537e-02 -3.348267078399658203e-02 -2.836295217275619507e-02 8.964467048645019531e-02 1.748222857713699341e-02 -3.180813789367675781e-02 -9.492311626672744751e-02 5.783811211585998535e-02 -4.070838168263435364e-02 1.619002223014831543e-02 6.205672025680541992e-02 5.747567117214202881e-02 -1.630302518606185913e-02 8.318822085857391357e-02 -9.481298178434371948e-02 -9.979473054409027100e-02 -5.225428193807601929e-02 5.954335629940032959e-02 1.019138097763061523e-02 -2.640478312969207764e-02 -3.646931797266006470e-02 4.741106927394866943e-02 -9.331926703453063965e-02 1.148645579814910889e-02 7.522651553153991699e-02 1.603723317384719849e-02 -3.548482805490493774e-02 -9.879685938358306885e-02 -5.278565362095832825e-02 -1.002997159957885742e-04 8.685305714607238770e-02 -3.166758269071578979e-02 -2.631793916225433350e-02 9.618233144283294678e-02 3.923471271991729736e-02 -8.574131131172180176e-02 6.942121684551239014e-02 1.868851482868194580e-02 -7.054525613784790039e-02 -4.714882373809814453e-02 -9.873685240745544434e-02 -5.400305986404418945e-02 5.030909180641174316e-02 -9.034927189350128174e-02 4.684519767761230469e-02 -4.069102928042411804e-02 -5.162504315376281738e-02 -1.010625511407852173e-01 8.451677858829498291e-02 6.559331715106964111e-02 3.780993819236755371e-02 -5.853337049484252930e-02 7.403373718261718750e-02 5.922533571720123291e-02 7.004094123840332031e-02 -3.204210102558135986e-02 -3.470987826585769653e-02 2.672448754310607910e-03 6.583815813064575195e-02 -9.006505459547042847e-02 3.140710294246673584e-02 -2.679461240768432617e-02 1.320168375968933105e-03 3.753764927387237549e-02 -2.531800419092178345e-02 -2.516244351863861084e-02 4.580323398113250732e-02 2.358463406562805176e-02 -5.004210025072097778e-02 3.379218280315399170e-03 4.691216349601745605e-02 -4.403031617403030396e-02 4.043594002723693848e-02 6.803363561630249023e-02 -5.591323599219322205e-02 -6.045367196202278137e-02 1.006225496530532837e-01 9.669145941734313965e-02 -7.812884449958801270e-02 8.397708833217620850e-02 -6.902281194925308228e-02 -8.699066191911697388e-02 3.444571793079376221e-02 8.249828219413757324e-02 -1.637873053550720215e-02 7.257901132106781006e-03 -9.565993398427963257e-02 5.085442960262298584e-02 8.417341113090515137e-02 -2.467024326324462891e-02 4.057805240154266357e-02 -7.387678325176239014e-02 7.293432950973510742e-02 -8.590944111347198486e-03 1.418355852365493774e-02 7.736153900623321533e-03 5.222851037979125977e-02 3.913433849811553955e-02 -3.261193633079528809e-04 -9.361793845891952515e-02 -9.020796418190002441e-02 -8.946917951107025146e-03 8.532761037349700928e-02 8.412787318229675293e-02 1.004900634288787842e-01 5.085101723670959473e-02 3.231391310691833496e-02 1.018029004335403442e-01 3.835566341876983643e-03 -6.082390621304512024e-02 -8.249782025814056396e-02 -6.679172068834304810e-02 -2.918182313442230225e-02 -8.434162288904190063e-02 9.740053117275238037e-02 -7.401713728904724121e-02 -1.012452989816665649e-01 5.151799321174621582e-02 -4.459726065397262573e-02 -9.455093741416931152e-02 -4.111925140023231506e-02 9.409947693347930908e-02 8.983041346073150635e-02 -9.342653304338455200e-02 5.567078292369842529e-02 5.033908784389495850e-02 -3.442277014255523682e-02 -2.383986860513687134e-02 3.315344452857971191e-03 -1.150429248809814453e-02 -3.891568630933761597e-02 -8.420267701148986816e-02 -7.231567054986953735e-02 8.966165781021118164e-02 -4.945729300379753113e-02 2.655509114265441895e-02 -4.178409278392791748e-02 2.336601912975311279e-02 -2.803773432970046997e-02 -1.379580050706863403e-02 8.856390416622161865e-02 2.794976532459259033e-02 7.940512895584106445e-02 5.238550901412963867e-02 6.285862624645233154e-02 -7.142800837755203247e-02 7.870812714099884033e-02 -4.058561846613883972e-02 -3.826434910297393799e-02 -1.366444677114486694e-02 -3.970944136381149292e-02 3.927476704120635986e-02 -4.188543930649757385e-02 1.480033993721008301e-02 3.209699690341949463e-02 8.015112578868865967e-02 -5.894908308982849121e-02 1.009687930345535278e-01 9.494669735431671143e-02 -3.816847503185272217e-02 -5.707539618015289307e-03 7.018874585628509521e-02 -1.689158380031585693e-02 -2.631676942110061646e-02 -4.177197441458702087e-02 -8.498592674732208252e-02 -6.341934204101562500e-02 -2.997570484876632690e-02 -6.303738057613372803e-02 4.220710694789886475e-02 8.784219622611999512e-02 3.049093484878540039e-02 -4.770053550601005554e-02 -6.885495781898498535e-02 -8.228349685668945312e-02 -7.965362817049026489e-02 -4.967540502548217773e-03 -9.792625904083251953e-03 -2.663473784923553467e-02 -2.499461174011230469e-02 -3.567203134298324585e-02 5.125176906585693359e-02 -6.819795072078704834e-02 -2.648525685071945190e-02 -2.304975688457489014e-02 -1.258306950330734253e-02 6.319645047187805176e-02 -1.827097684144973755e-02 -2.048892527818679810e-02 -7.851068675518035889e-02 -3.577588498592376709e-02 7.066838443279266357e-03 5.704584717750549316e-02 3.530390560626983643e-02 -3.180791437625885010e-02 -6.872178614139556885e-02 3.270815312862396240e-02 -3.065122663974761963e-02 2.438446879386901855e-02 1.385257393121719360e-02 -1.150205731391906738e-02 4.157631099224090576e-02 -4.917546361684799194e-02 5.478665232658386230e-03 -3.292193263769149780e-02 -5.979267880320549011e-02 -9.494930505752563477e-03 8.285182714462280273e-02 -2.857917547225952148e-02 -1.697443425655364990e-02 1.580662280321121216e-02 8.680611848831176758e-02 5.860289931297302246e-02 -7.231564819812774658e-02 2.986155450344085693e-03 -5.397619307041168213e-02 7.480350136756896973e-02 1.766239106655120850e-02 -3.038484603166580200e-02 -9.723801165819168091e-02 -6.847015023231506348e-02 -3.503824025392532349e-02 -1.414155960083007812e-02 -8.732714504003524780e-02 -4.294606298208236694e-02 3.455348312854766846e-02 -9.140320122241973877e-03 2.555042505264282227e-03 3.439055383205413818e-02 8.188836276531219482e-02 -5.374288558959960938e-02 6.044994294643402100e-02 7.383227348327636719e-02 -6.882057338953018188e-02 -7.886643707752227783e-02 -6.642540544271469116e-02 -3.187612444162368774e-02 6.536726653575897217e-02 -6.814916431903839111e-02 -1.135028898715972900e-02 7.147662341594696045e-02 -6.891842186450958252e-02 -1.608271151781082153e-02 -1.019282415509223938e-01 -3.770779073238372803e-02 -7.676780223846435547e-03 -2.041713893413543701e-02 -3.924866020679473877e-02 -6.586332619190216064e-02 -3.018533438444137573e-02 1.365575939416885376e-02 5.736443400382995605e-02 -6.617759168148040771e-02 4.531522095203399658e-02 7.120299339294433594e-02 9.597957134246826172e-02 -4.648096486926078796e-02 -4.317594319581985474e-02 -2.054426074028015137e-02 6.538182497024536133e-04 -8.804712444543838501e-02 1.703724265098571777e-02 9.017795324325561523e-03 -4.460397735238075256e-02 -9.631708264350891113e-03 -7.315830886363983154e-02 9.880371391773223877e-03 -3.636212646961212158e-02 -4.912331700325012207e-02 -8.930130302906036377e-02 3.165785968303680420e-02 -9.793277829885482788e-02 1.554206013679504395e-03 1.876056194305419922e-05 -5.800157785415649414e-03 5.652108788490295410e-02 -2.881372720003128052e-02 -5.545409023761749268e-02 -2.147625386714935303e-02 -2.009768784046173096e-02 -1.826807856559753418e-02 3.020694851875305176e-02 -1.736100018024444580e-02 -2.546575665473937988e-02 -4.082101956009864807e-02 7.919844985008239746e-02 1.497510075569152832e-02 -3.046505153179168701e-03 7.025077939033508301e-03 2.730447053909301758e-02 7.917223870754241943e-02 8.608840405941009521e-02 7.766488194465637207e-02 -5.898597463965415955e-02 6.512723863124847412e-02 6.438329815864562988e-03 -7.885363698005676270e-02 -4.247654974460601807e-02 -8.349291980266571045e-02 -8.113449066877365112e-02 4.762497544288635254e-02 3.883497416973114014e-02 -9.429986029863357544e-02 -4.690568521618843079e-02 2.235578745603561401e-02 6.437450647354125977e-03 9.015172719955444336e-02 -4.891008138656616211e-02 -8.774948120117187500e-02 -1.617880910634994507e-02 8.590616285800933838e-02 -3.350512683391571045e-02 -6.124877184629440308e-02 5.815491080284118652e-02 -2.972835302352905273e-02 -8.872189372777938843e-02 7.998831570148468018e-02 -5.451440811157226562e-04 3.325951099395751953e-02 -9.249553084373474121e-03 5.974075198173522949e-02 2.379491925239562988e-02 1.442407071590423584e-02 1.299547404050827026e-02 3.677555918693542480e-02 -5.967342108488082886e-02 -5.362474545836448669e-02 2.579216659069061279e-02 2.055116742849349976e-02 -1.765365898609161377e-02 5.256052315235137939e-02 -3.539625555276870728e-02 6.854350864887237549e-02 -4.226852208375930786e-02 -3.484252095222473145e-02 9.226019680500030518e-02 6.859812140464782715e-02 6.657750904560089111e-02 4.223075509071350098e-02 -9.410906583070755005e-02 -7.595916837453842163e-02 -6.377342343330383301e-02 -9.015098214149475098e-03 -1.511059701442718506e-03 -8.150212466716766357e-02 5.375668406486511230e-02 8.942854404449462891e-02 -1.745553314685821533e-02 -4.701338335871696472e-02 5.388320982456207275e-02 -3.131504356861114502e-02 -9.100970625877380371e-02 -1.020535826683044434e-01 5.505752563476562500e-02 7.017882168292999268e-02 3.572817146778106689e-02 -1.799931377172470093e-02 1.014363914728164673e-01 4.807500541210174561e-02 7.319016754627227783e-02 -1.899255812168121338e-02 -9.847694635391235352e-02 8.447000384330749512e-02 2.911716699600219727e-02 -6.944888830184936523e-02 1.364576071500778198e-02 7.023081183433532715e-03 -4.846949875354766846e-02 5.833831429481506348e-02 4.290233552455902100e-02 3.862147033214569092e-02 1.068855822086334229e-02 4.162664711475372314e-02 6.691056489944458008e-02 8.083945512771606445e-02 -1.757963746786117554e-02 -4.965249821543693542e-02 8.783113956451416016e-02 3.260739147663116455e-02 9.269222617149353027e-02 7.596236467361450195e-02 -1.808745414018630981e-02 -9.790559858083724976e-02 -1.748149842023849487e-02 1.984053105115890503e-02 -9.459938108921051025e-02 -2.447336167097091675e-02 8.741365373134613037e-02 6.660845875740051270e-02 6.568129360675811768e-02 3.576926887035369873e-02 7.630899548530578613e-02 9.249152243137359619e-02 2.862884104251861572e-02 -3.878727555274963379e-02 -7.514915615320205688e-02 4.286997020244598389e-02 -5.293019488453865051e-02 4.369893670082092285e-02 3.348132967948913574e-02 6.104712188243865967e-02 3.660587966442108154e-02 9.335681796073913574e-02 6.198398768901824951e-02 5.075524747371673584e-02 3.125642240047454834e-02 -4.599974676966667175e-02 -2.453587949275970459e-02 4.575634002685546875e-02 -2.194665372371673584e-03 -4.729845002293586731e-02 -5.478722974658012390e-02 -8.641225844621658325e-02 4.053892195224761963e-02 1.142469793558120728e-02 6.514562666416168213e-02 -6.395657360553741455e-02 -7.053900510072708130e-02 3.191527724266052246e-02 -9.354355186223983765e-02 -9.501930326223373413e-02 8.785930275917053223e-02 9.853383898735046387e-02 -1.710111647844314575e-02 -9.267453104257583618e-02 5.172207951545715332e-03 -5.180467292666435242e-02 3.587409853935241699e-02 9.145303070545196533e-02 -1.027509570121765137e-03 -4.595577716827392578e-03 -8.689761161804199219e-02 -6.059999018907546997e-02 -1.132063567638397217e-03 -8.418552577495574951e-02 -5.821669474244117737e-02 6.454391777515411377e-02 -4.164896905422210693e-03 2.182697504758834839e-02 -8.443469554185867310e-02 9.648941457271575928e-02 3.272736072540283203e-02 -5.409026890993118286e-02 -1.391679048538208008e-02 -2.843760699033737183e-02 4.190526902675628662e-02 9.874206781387329102e-02 -3.406783938407897949e-02 -7.410921901464462280e-02 3.739279508590698242e-02 6.847932934761047363e-02 2.496150135993957520e-02 -1.341512799263000488e-02 -6.992704421281814575e-02 -6.300553679466247559e-03 8.636984229087829590e-02 6.368808448314666748e-03 7.838366925716400146e-02 -1.079390197992324829e-02 -7.009053975343704224e-02 7.754340767860412598e-02 -8.820568025112152100e-02 9.275281429290771484e-02 -8.744671940803527832e-02 -5.520530417561531067e-02 -7.429028302431106567e-02 -2.280732244253158569e-02 -9.800672531127929688e-02 -8.631010353565216064e-02 3.378829360008239746e-02 -1.971501857042312622e-02 -6.952749192714691162e-02 -5.806473270058631897e-02 -4.275363311171531677e-02 -5.503949522972106934e-02 6.158107519149780273e-02 -7.878097891807556152e-02 -2.746679633855819702e-02 -6.626942753791809082e-02 7.862441241741180420e-02 -9.714262187480926514e-02 9.712125360965728760e-02 2.795699238777160645e-02 -9.484378993511199951e-02 -7.699042558670043945e-03 2.424409985542297363e-02 8.104373514652252197e-02 6.925724446773529053e-03 6.055830419063568115e-02 4.213877022266387939e-03 4.659794270992279053e-03 -3.917887806892395020e-03 -3.355152904987335205e-03 -7.455629855394363403e-02 1.107422262430191040e-02 1.722918450832366943e-02 -3.733120858669281006e-03 7.094551622867584229e-02 -3.541886061429977417e-02 -2.096678316593170166e-02 5.609142780303955078e-02 5.354337394237518311e-02 4.842631518840789795e-03 -1.553197205066680908e-02 -1.635799556970596313e-02 -9.743554890155792236e-02 6.690056622028350830e-02 -4.554159566760063171e-02 -4.753901064395904541e-02 6.984353065490722656e-02 9.999392926692962646e-02 -1.394954323768615723e-02 6.101171672344207764e-02 7.004776597023010254e-02 -7.793094217777252197e-02 -9.995549917221069336e-02 4.482789337635040283e-02 -3.629922121763229370e-02 1.941788941621780396e-02 2.395264804363250732e-02 6.499837338924407959e-02 8.369112014770507812e-02 -2.466440200805664062e-04 -3.888130187988281250e-02 4.222632944583892822e-02 -5.119339004158973694e-02 -8.523003756999969482e-02 -5.441312491893768311e-02 -5.329852923750877380e-02 -4.910428822040557861e-02 7.422129809856414795e-02 3.948500752449035645e-02 7.234245538711547852e-02 4.324600100517272949e-03 -3.988486155867576599e-02 -3.835576772689819336e-02 -8.421942591667175293e-03 8.198276162147521973e-02 8.690141141414642334e-02 -9.420048445463180542e-02 8.355374634265899658e-02 8.368147909641265869e-02 4.521135985851287842e-02 -9.756342321634292603e-02 6.431169807910919189e-03 -8.347742259502410889e-02 6.847965717315673828e-02 -4.513826966285705566e-02 -2.931504696607589722e-02 -9.153632819652557373e-02 -5.542807653546333313e-02 -5.091187730431556702e-02 9.809839725494384766e-02 -2.797006070613861084e-02 3.871679306030273438e-03 3.967075049877166748e-02 4.740418493747711182e-02 -5.699289217591285706e-02 9.839318692684173584e-02 -7.440141588449478149e-02 6.982907652854919434e-03 -2.626065909862518311e-02 6.293617188930511475e-02 1.020172536373138428e-01 9.683401882648468018e-02 1.362203806638717651e-02 7.091583311557769775e-02 -7.669068872928619385e-03 5.987168848514556885e-02 8.369278907775878906e-02 -6.085510179400444031e-02 -9.705589711666107178e-02 -5.775675177574157715e-03 7.469601929187774658e-03 3.536774218082427979e-02 -1.850270479917526245e-02 4.630833864212036133e-02 -6.723826378583908081e-02 4.296953976154327393e-02 7.286022603511810303e-02 -6.484827399253845215e-02 2.059990912675857544e-02 -1.389153301715850830e-03 -8.831135928630828857e-03 -2.581844478845596313e-02 -8.693905174732208252e-02 -3.936794400215148926e-02 -3.414458781480789185e-02 -1.433554291725158691e-02 -6.673656404018402100e-03 -7.109524309635162354e-02 4.153299331665039062e-02 -6.278555095195770264e-02 9.376102685928344727e-02 6.714779138565063477e-02 -7.580462843179702759e-02 -1.004392504692077637e-01 7.010532915592193604e-02 4.010806977748870850e-02 4.650960862636566162e-02 9.585693478584289551e-03 -2.648754417896270752e-02 3.268569707870483398e-02 4.950724542140960693e-03 -4.850030690431594849e-02 1.075144112110137939e-02 7.407838106155395508e-02 -6.470678001642227173e-02 4.512062668800354004e-02 -1.001846715807914734e-01 6.022140383720397949e-02 7.327577471733093262e-02 -6.663391739130020142e-02 8.513616025447845459e-02 6.635408103466033936e-02 3.266128897666931152e-02 8.907584846019744873e-02 1.606156677007675171e-02 4.791928827762603760e-02 -9.911696612834930420e-02 3.497514128684997559e-02 7.901082932949066162e-02 8.505636453628540039e-02 9.873235225677490234e-02 1.983848959207534790e-02 1.838714629411697388e-02 2.437530457973480225e-02 -5.705058574676513672e-02 6.127212941646575928e-02 7.317593693733215332e-02 1.890467107295989990e-02 -8.242229372262954712e-02 1.871664077043533325e-02 -6.613208353519439697e-02 6.620100140571594238e-02 8.310042321681976318e-02 1.508861780166625977e-02 -7.659424841403961182e-02 -6.137844175100326538e-02 -3.624595701694488525e-03 -1.220908761024475098e-02 6.242185831069946289e-02 -2.650326490402221680e-02 -5.048499628901481628e-02 -5.306222662329673767e-02 -1.376533508300781250e-02 8.859489858150482178e-02 5.476355552673339844e-02 -7.021330296993255615e-03 -1.028420776128768921e-02 2.645909786224365234e-02 -8.823471516370773315e-02 -2.170922607183456421e-02 -4.378384351730346680e-02 -7.765804231166839600e-02 -3.091098368167877197e-02 9.272240102291107178e-02 5.772298574447631836e-02 6.391431391239166260e-02 -2.164120972156524658e-02 1.510628312826156616e-02 -1.004221215844154358e-01 -9.706480056047439575e-02 4.157963395118713379e-02 -5.700271949172019958e-02 6.048379838466644287e-02 -4.216600582003593445e-02 -3.895705193281173706e-02 -5.450593307614326477e-02 1.765324175357818604e-02 -1.060441136360168457e-04 -2.679755538702011108e-02 1.167917996644973755e-02 -3.538326174020767212e-02 -4.742004349827766418e-02 -4.663949832320213318e-02 -1.774931699037551880e-02 -9.870960563421249390e-02 2.060650289058685303e-02 -8.695504069328308105e-02 -2.876099944114685059e-02 -7.200972735881805420e-02 -7.693549990653991699e-02 -8.810783922672271729e-02 7.419762015342712402e-02 9.482876956462860107e-02 -9.393252432346343994e-02 -1.724008470773696899e-02 6.862427294254302979e-02 1.667670905590057373e-03 3.513151407241821289e-02 1.897219568490982056e-02 -2.277851104736328125e-02 1.016372144222259521e-01 7.343132793903350830e-02 -6.826708465814590454e-02 -2.280812710523605347e-02 1.245449483394622803e-02 4.873064160346984863e-02 -2.758515626192092896e-02 -5.939054116606712341e-02 -5.346589535474777222e-02 5.960732698440551758e-02 1.143661886453628540e-02 4.419948160648345947e-02 1.611176878213882446e-02 -4.918091371655464172e-02 -3.483930975198745728e-02 2.612616121768951416e-02 -2.309297025203704834e-02 -7.466100156307220459e-02 8.083847165107727051e-02 7.230019569396972656e-02 -7.537251710891723633e-02 -1.460058242082595825e-02 6.680174171924591064e-02 -1.822712272405624390e-02 -7.805071026086807251e-02 8.858677744865417480e-02 -7.432308793067932129e-02 -3.035812824964523315e-02 8.134911954402923584e-02 -6.759273260831832886e-02 -8.103569597005844116e-02 6.674645841121673584e-02 6.743021309375762939e-02 1.952368766069412231e-02 -6.380872428417205811e-02 6.261348724365234375e-03 -9.199345856904983521e-02 7.152135670185089111e-02 8.038835227489471436e-02 4.777322709560394287e-02 -4.982584714889526367e-02 4.600949585437774658e-03 -1.000008136034011841e-01 -4.671213403344154358e-02 -4.171710088849067688e-02 -3.966496139764785767e-02 -5.972155183553695679e-02 7.075867056846618652e-02 5.524002015590667725e-02 5.601735413074493408e-02 4.466287791728973389e-03 -9.070433676242828369e-03 7.035543024539947510e-02 6.006404757499694824e-03 -6.305256485939025879e-02 -8.960561454296112061e-02 7.156325876712799072e-02 -1.018817871809005737e-01 3.425012528896331787e-02 9.134243428707122803e-02 7.563546299934387207e-02 9.715627133846282959e-02 -2.976538985967636108e-02 -6.623825430870056152e-02 3.694629669189453125e-02 8.917967975139617920e-02 -3.977842628955841064e-02 1.983389258384704590e-02 -6.916589289903640747e-02 1.397290080785751343e-02 7.971307635307312012e-02 8.569838106632232666e-02 1.871537417173385620e-02 4.673488438129425049e-03 6.150704622268676758e-02 5.724258720874786377e-03 -7.813541591167449951e-02 6.323474645614624023e-02 -2.649214118719100952e-02 -1.723565906286239624e-02 -9.486033767461776733e-02 1.007753163576126099e-01 -1.785190403461456299e-02 -3.068643808364868164e-02 -2.481877803802490234e-02 3.823335468769073486e-02 1.286699622869491577e-02 -5.688341334462165833e-02 7.042984664440155029e-02 8.705222606658935547e-02 -7.898623496294021606e-02 2.922415733337402344e-02 2.618408203125000000e-02 -7.042030990123748779e-02 7.361006736755371094e-02 2.773237228393554688e-02 6.837943196296691895e-02 4.867723584175109863e-02 4.208651185035705566e-02 -6.269098818302154541e-02 1.998186111450195312e-02 -8.412952721118927002e-02 1.541035622358322144e-02 3.497433662414550781e-02 -1.001688539981842041e-01 4.980689287185668945e-02 -9.127907454967498779e-02 4.837155342102050781e-03 3.013953566551208496e-02 -5.601174011826515198e-02 5.156606435775756836e-03 6.188236176967620850e-02 -1.152621954679489136e-02 -2.699049562215805054e-02 5.948758125305175781e-02 -7.191662490367889404e-02 -7.514013350009918213e-02 5.258208513259887695e-02 -8.346386253833770752e-02 -9.056822210550308228e-02 2.335071563720703125e-02 -9.686101227998733521e-02 4.828770458698272705e-02 -8.835784345865249634e-02 -1.740086078643798828e-02 7.732652127742767334e-03 -6.261042505502700806e-02 1.355253159999847412e-03 -9.286455065011978149e-02 -4.357133805751800537e-02 -1.640839129686355591e-02 -8.445911109447479248e-03 -9.065871685743331909e-02 5.222164094448089600e-03 -8.313635736703872681e-02 8.464702963829040527e-02 6.325474381446838379e-02 8.450114727020263672e-02 -8.659463375806808472e-02 -4.015766456723213196e-02 1.013308614492416382e-01 -4.608318582177162170e-02 3.170511126518249512e-02 8.583621680736541748e-02 2.315497398376464844e-02 -7.843709737062454224e-02 -9.353213757276535034e-02 -9.881491959095001221e-02 7.513768970966339111e-02 -3.859243541955947876e-02 4.579566419124603271e-03 -2.832151204347610474e-02 -8.826841413974761963e-02 -3.946102410554885864e-02 4.399093985557556152e-02 6.369353830814361572e-02 -1.013513207435607910e-01 -5.925649031996726990e-02 -9.228920936584472656e-02 -4.756808280944824219e-03 -3.455850481986999512e-02 1.793403178453445435e-02 -6.315028667449951172e-02 3.532274067401885986e-02 -6.607145071029663086e-02 -1.921258121728897095e-02 7.759341597557067871e-02 3.894968330860137939e-02 -2.401012927293777466e-02 6.184180080890655518e-02 -3.476932644844055176e-02 4.006755352020263672e-02 -8.108511567115783691e-02 -6.156225875020027161e-02 4.820778965950012207e-02 7.059903442859649658e-02 -8.848186582326889038e-02 -5.237283557653427124e-02 -3.956864774227142334e-02 1.743025332689285278e-02 6.462268531322479248e-03 -1.134510338306427002e-02 2.473075687885284424e-02 -2.630032598972320557e-02 -7.891686260700225830e-02 -2.626248449087142944e-02 7.984824478626251221e-02 3.466673195362091064e-02 -5.666429176926612854e-02 2.071281522512435913e-02 -5.935056135058403015e-02 -3.870481252670288086e-02 3.445938229560852051e-03 5.433939397335052490e-03 9.387354552745819092e-02 1.958525180816650391e-02 6.211876869201660156e-02 3.851555287837982178e-03 4.804775118827819824e-02 -3.870247304439544678e-02 -5.018581449985504150e-02 -6.332658231258392334e-02 -8.949759602546691895e-02 4.074025154113769531e-02 1.374365389347076416e-02 -4.389368370175361633e-02 -1.367247849702835083e-02 4.640440642833709717e-02 -1.008429229259490967e-01 9.625656902790069580e-02 9.756791591644287109e-02 5.768218636512756348e-02 -5.329023301601409912e-02 -6.670655310153961182e-02 -6.028279662132263184e-03 5.242374539375305176e-02 -2.452940493822097778e-02 -9.156012535095214844e-02 -6.768622249364852905e-02 -2.328968793153762817e-02 5.619591474533081055e-02 1.511111855506896973e-03 -4.686743021011352539e-02 6.898719072341918945e-02 6.599061191082000732e-02 8.185836672782897949e-02 1.947765052318572998e-02 -1.080487668514251709e-02 3.248907625675201416e-03 5.374656617641448975e-02 -4.804702103137969971e-02 -5.752547830343246460e-02 4.743826389312744141e-02 8.817088603973388672e-02 3.420822322368621826e-02 4.003007709980010986e-02 -6.823715567588806152e-02 8.467425405979156494e-02 2.779746055603027344e-02 -8.474010974168777466e-02 -7.770483195781707764e-02 -9.979543834924697876e-02 -7.371774315834045410e-02 -8.629903197288513184e-02 -5.935259163379669189e-03 -2.375973761081695557e-02 -2.403967082500457764e-02 -6.022435426712036133e-02 -7.651832699775695801e-02 4.855825006961822510e-02 6.726425886154174805e-02 -2.295701950788497925e-02 -1.752302050590515137e-03 -1.822702586650848389e-03 8.037652075290679932e-02 2.345432341098785400e-02 7.167942821979522705e-03 3.522838652133941650e-02 5.064797401428222656e-02 2.317561209201812744e-02 -9.600527584552764893e-02 2.538543939590454102e-02 -8.205050230026245117e-02 6.099177896976470947e-02 7.441148161888122559e-02 3.363950550556182861e-02 -8.766110241413116455e-02 -3.590650856494903564e-03 -1.014201566576957703e-01 2.614155411720275879e-02 9.578534960746765137e-02 1.109517365694046021e-02 7.541841268539428711e-02 1.700276136398315430e-02 -9.495440870523452759e-02 -9.860761463642120361e-03 8.290737867355346680e-02 -5.935971066355705261e-02 1.005132943391799927e-01 3.929606080055236816e-02 9.332187473773956299e-03 5.667251348495483398e-02 -9.106299281120300293e-02 -8.537545800209045410e-02 1.273257285356521606e-02 8.887514472007751465e-03 -7.278972864151000977e-02 6.923252344131469727e-02 8.970163762569427490e-02 5.086183547973632812e-03 -5.732476711273193359e-04 -8.400221914052963257e-02 -5.515225604176521301e-02 -4.153385758399963379e-03 2.813704311847686768e-02 -2.128300070762634277e-02 4.363752901554107666e-03 9.916906058788299561e-02 -2.415048331022262573e-02 -3.411536663770675659e-02 4.846884310245513916e-02 -7.342147827148437500e-02 -2.990768849849700928e-02 4.456728696823120117e-03 2.915272116661071777e-02 -1.015811711549758911e-01 -1.681899279356002808e-02 4.272744059562683105e-03 1.800201833248138428e-02 -9.708777070045471191e-02 8.128312230110168457e-02 -7.229493558406829834e-02 6.293304264545440674e-02 8.442547917366027832e-02 -7.372801005840301514e-02 -3.843309730291366577e-02 6.024698913097381592e-02 1.169671863317489624e-02 5.475588142871856689e-02 -4.105128720402717590e-02 -3.282573819160461426e-02 -6.660394370555877686e-02 5.937778949737548828e-02 -8.397909998893737793e-02 7.628962397575378418e-02 4.406788945198059082e-02 -8.787997812032699585e-02 6.206545233726501465e-02 -6.098083406686782837e-02 6.351587176322937012e-02 -8.387364447116851807e-02 -9.160140156745910645e-02 -3.096345067024230957e-02 -6.643433868885040283e-02 3.858329355716705322e-02 -1.977008581161499023e-02 -2.798220515251159668e-02 -1.700271666049957275e-02 -3.249704092741012573e-02 -6.848756968975067139e-02 -7.473497837781906128e-02 -3.763866424560546875e-02 7.941319048404693604e-02 -1.414239406585693359e-03 -8.358061313629150391e-02 7.336223125457763672e-02 -7.495278865098953247e-02 1.456084847450256348e-02 6.259465217590332031e-02 -1.191117614507675171e-02 2.832876145839691162e-02 2.519905567169189453e-03 4.161171615123748779e-03 9.561547636985778809e-02 -9.946520626544952393e-02 7.262322306632995605e-02 -4.491603001952171326e-02 6.242111325263977051e-02 -7.721343636512756348e-02 4.743625223636627197e-02 5.356486141681671143e-02 7.792413234710693359e-02 -8.815575391054153442e-02 -3.953122347593307495e-02 -7.379105687141418457e-02 9.499272704124450684e-02 3.946574032306671143e-02 4.073174297809600830e-02 -4.270243644714355469e-02 -7.598525285720825195e-02 -2.853462100028991699e-02 -4.633657634258270264e-03 5.073583126068115234e-02 -2.484716475009918213e-03 -4.201382398605346680e-02 -6.610581278800964355e-02 -4.158444702625274658e-03 -5.404751375317573547e-02 -9.056194126605987549e-02 1.608222723007202148e-03 9.906657040119171143e-02 -2.365554124116897583e-02 -7.852090150117874146e-02 -5.455203354358673096e-03 -2.603265643119812012e-02 -3.079749643802642822e-02 9.829038381576538086e-02 -5.351531878113746643e-02 2.519875764846801758e-03 -2.797315269708633423e-02 -5.658355355262756348e-02 -6.979727745056152344e-02 -8.306338638067245483e-02 2.773305773735046387e-02 -3.801804780960083008e-02 -3.307425975799560547e-02 5.089245736598968506e-02 6.559616327285766602e-02 -1.768884807825088501e-02 -7.039020955562591553e-02 -6.598389893770217896e-02 5.347302556037902832e-02 -6.431096792221069336e-02 6.351040303707122803e-02 9.864901006221771240e-02 -1.427716761827468872e-02 -7.568559050559997559e-02 2.179393172264099121e-02 6.982730329036712646e-02 -1.004233583807945251e-01 -4.598468542098999023e-02 3.805272281169891357e-02 -7.822330296039581299e-02 -2.593524754047393799e-02 -1.406984776258468628e-02 -5.403332784771919250e-02 -1.397158950567245483e-02 -9.668797254562377930e-02 5.678279697895050049e-02 1.019444316625595093e-02 5.594548583030700684e-02 -5.190448835492134094e-02 9.395529329776763916e-02 -6.370219588279724121e-02 -8.995988965034484863e-02 -7.683948427438735962e-02 -9.888723492622375488e-02 -8.308080583810806274e-02 8.183139562606811523e-02 4.918769001960754395e-03 4.886852204799652100e-02 8.515883982181549072e-02 7.195755839347839355e-02 -3.576952964067459106e-02 -1.726931333541870117e-02 -6.778250634670257568e-02 -5.711153894662857056e-02 1.141133904457092285e-02 -9.283520281314849854e-03 4.404082894325256348e-02 1.012649387121200562e-01 8.720177412033081055e-02 -6.457160413265228271e-02 7.725395262241363525e-03 2.478937804698944092e-02 -2.640921622514724731e-02 -1.542614400386810303e-02 -8.060351014137268066e-02 1.986284554004669189e-02 3.484636545181274414e-02 -1.290952414274215698e-02 -5.234796553850173950e-02 1.017162799835205078e-01 2.145450562238693237e-02 -2.765506505966186523e-02 -2.669721841812133789e-03 3.848634660243988037e-02 3.340609371662139893e-02 8.472624421119689941e-02 -6.043076515197753906e-03 1.341724395751953125e-02 -5.156749486923217773e-02 -2.969511598348617554e-02 -2.056343108415603638e-02 -1.178055256605148315e-02 6.383228302001953125e-02 -2.269446104764938354e-02 -6.748412549495697021e-02 -5.565252900123596191e-02 7.958537340164184570e-02 -1.958427578210830688e-02 -7.230184972286224365e-02 -8.191561698913574219e-02 1.664138585329055786e-02 6.249196827411651611e-02 -6.800579279661178589e-02 -9.119259566068649292e-02 5.055950582027435303e-02 -7.612940669059753418e-02 -2.336154133081436157e-02 -2.986330538988113403e-02 -7.202157378196716309e-02 7.358135282993316650e-02 4.116207361221313477e-02 7.505483925342559814e-02 9.742043912410736084e-02 -4.301887005567550659e-02 -4.200085252523422241e-02 6.486266851425170898e-03 8.791159093379974365e-02 9.762792289257049561e-02 2.224699407815933228e-02 -1.668328791856765747e-02 -8.585287630558013916e-02 -1.016033440828323364e-01 -6.203199177980422974e-02 -7.821172475814819336e-02 -5.418268963694572449e-02 -4.960896447300910950e-02 7.975032925605773926e-02 -9.273801743984222412e-02 -2.556245774030685425e-02 -4.665816202759742737e-02 -8.254233002662658691e-02 -7.777958363294601440e-02 -6.283300369977951050e-02 7.430499792098999023e-02 -2.737946808338165283e-02 -4.296246543526649475e-02 -2.281136065721511841e-02 7.869763672351837158e-02 -5.674580857157707214e-02 -8.176205307245254517e-02 -7.497110962867736816e-02 3.221566975116729736e-02 -4.755502194166183472e-02 -4.232443869113922119e-03 -4.943913966417312622e-02 -5.065781250596046448e-02 1.068788021802902222e-02 8.205446600914001465e-02 -7.455895096063613892e-02 8.758303523063659668e-02 -7.200456410646438599e-02 4.305021464824676514e-02 -8.962483704090118408e-02 7.021595537662506104e-02 3.668247163295745850e-02 -3.081041574478149414e-02 -9.890974313020706177e-02 6.967411935329437256e-02 7.908670604228973389e-02 -6.627991795539855957e-02 9.984588623046875000e-02 3.899867832660675049e-02 -4.405455291271209717e-02 6.670440733432769775e-02 -1.737307012081146240e-02 -2.201787382364273071e-02 2.961547672748565674e-02 4.624478518962860107e-02 -5.907943844795227051e-02 -4.805568605661392212e-02 4.322275519371032715e-02 5.087459087371826172e-02 -9.495754539966583252e-02 5.853040516376495361e-02 5.746933817863464355e-02 -5.166276171803474426e-02 7.017418742179870605e-03 2.307131886482238770e-02 -1.459062844514846802e-02 2.716107666492462158e-02 -2.477410435676574707e-02 -8.859862387180328369e-02 -2.043154835700988770e-02 9.406407177448272705e-02 -2.780208736658096313e-02 8.461099863052368164e-02 8.859048783779144287e-02 8.344702422618865967e-02 -5.678337812423706055e-02 9.738279879093170166e-02 5.889526009559631348e-02 -1.019050553441047668e-01 1.368746906518936157e-02 2.579551935195922852e-02 -7.119491696357727051e-02 8.220323920249938965e-02 -8.815024793148040771e-02 4.192191362380981445e-02 -5.319380015134811401e-02 -6.204148381948471069e-02 -2.112023532390594482e-02 9.481646120548248291e-03 -2.891802042722702026e-02 5.827249586582183838e-02 6.538721919059753418e-02 -9.765880554914474487e-02 8.608801662921905518e-02 -3.463318198919296265e-02 -2.598931640386581421e-02 -9.007418155670166016e-02 -7.110697031021118164e-02 -8.568351715803146362e-02 -4.289527982473373413e-02 7.073362171649932861e-02 2.624262869358062744e-02 2.633662521839141846e-02 8.242341876029968262e-02 1.704984903335571289e-02 -9.396435320377349854e-02 -4.635961726307868958e-02 5.829167366027832031e-02 7.813385128974914551e-02 6.147852540016174316e-02 9.759001433849334717e-02 -7.556302100419998169e-02 3.237204253673553467e-02 -5.186876654624938965e-02 9.611099958419799805e-03 2.683429419994354248e-02 -9.827556461095809937e-02 -2.449684590101242065e-02 5.057376623153686523e-02 8.896270394325256348e-02 1.340580731630325317e-02 5.453526973724365234e-03 -4.079962894320487976e-02 3.428526222705841064e-02 -2.255225926637649536e-02 3.000314533710479736e-02 5.418308079242706299e-02 3.573834896087646484e-03 -5.293961241841316223e-02 1.171202957630157471e-02 -7.868982851505279541e-02 6.831800937652587891e-02 4.318253695964813232e-02 -2.521422505378723145e-02 3.759719431400299072e-02 5.656605958938598633e-02 3.779700398445129395e-02 -7.133352011442184448e-02 7.939635217189788818e-02 -9.938210994005203247e-02 -3.038860857486724854e-03 6.593126058578491211e-02 -3.419882804155349731e-02 -1.364199072122573853e-02 -2.942418307065963745e-02 -3.229609876871109009e-02 -7.607665657997131348e-02 7.767981290817260742e-02 3.687514364719390869e-02 1.846455037593841553e-02 5.529910326004028320e-03 9.098483622074127197e-02 -4.526930302381515503e-02 -5.185136944055557251e-02 -3.161079436540603638e-02 -3.407625854015350342e-02 -6.167487427592277527e-02 2.856537699699401855e-02 -8.887811750173568726e-02 9.660331904888153076e-02 -3.932161629199981689e-02 -5.984187126159667969e-03 4.905596375465393066e-02 -6.978668272495269775e-02 3.017459809780120850e-02 -9.205261617898941040e-02 4.726311564445495605e-02 2.975729107856750488e-02 -2.647895365953445435e-02 -5.152637138962745667e-02 -4.747807979583740234e-03 -4.399904608726501465e-02 4.222072660923004150e-02 5.678975582122802734e-02 3.337399661540985107e-02 9.102208912372589111e-02 -3.349719941616058350e-02 4.739941656589508057e-02 -5.196291208267211914e-02 3.516586124897003174e-02 -8.584329485893249512e-02 3.667593002319335938e-02 -8.138286322355270386e-02 -8.110745996236801147e-02 8.272197842597961426e-02 -1.200336962938308716e-02 -6.189314648509025574e-02 7.902565598487854004e-02 -8.428832888603210449e-02 4.980684816837310791e-02 -2.523558586835861206e-02 4.977948963642120361e-02 7.321254909038543701e-02 3.818570077419281006e-02 -5.304351449012756348e-02 -4.164378345012664795e-02 4.124787449836730957e-02 -5.932077765464782715e-02 -6.819184124469757080e-02 -7.426762580871582031e-02 7.396019995212554932e-03 -8.621066808700561523e-03 -1.010280475020408630e-01 -7.627246528863906860e-02 9.359246492385864258e-02 -7.695304602384567261e-02 6.687003374099731445e-02 -8.925606310367584229e-02 9.332583844661712646e-02 -1.856636255979537964e-02 -5.215412750840187073e-02 -4.743617773056030273e-02 -2.488569170236587524e-02 8.799895644187927246e-03 -7.943987846374511719e-03 -2.999042719602584839e-02 -2.674326300621032715e-02 -9.771207720041275024e-02 -6.198111176490783691e-02 8.415046334266662598e-02 7.219517230987548828e-02 7.388958334922790527e-02 -5.169793963432312012e-03 -7.616238296031951904e-02 -7.686223834753036499e-02 -8.395817875862121582e-02 -1.669182628393173218e-02 -1.299656927585601807e-02 -3.238734602928161621e-02 -7.970407605171203613e-04 7.970434427261352539e-02 3.976412117481231689e-02 1.893083006143569946e-02 -8.215007185935974121e-02 -6.407062709331512451e-02 -3.367488086223602295e-02 -2.313971519470214844e-02 4.267090559005737305e-02 7.934539020061492920e-02 7.100392878055572510e-02 -7.291986793279647827e-02 -4.713325202465057373e-02 4.996827244758605957e-02 9.207296371459960938e-02 2.253957837820053101e-02 -5.226610973477363586e-02 -2.413439750671386719e-02 -7.128112763166427612e-02 3.655380010604858398e-02 2.404798567295074463e-02 2.239195257425308228e-02 9.741856157779693604e-02 2.620841562747955322e-02 -6.304484605789184570e-02 -7.491628825664520264e-02 -1.121868938207626343e-02 -6.743677705526351929e-02 -1.723986864089965820e-02 -7.992146909236907959e-02 8.422017097473144531e-03 -9.641672670841217041e-02 -6.478581577539443970e-02 2.941073477268218994e-02 -9.200735390186309814e-02 -8.066478371620178223e-02 3.718312084674835205e-02 3.821828961372375488e-02 -6.905622035264968872e-02 4.831419885158538818e-02 -1.073489338159561157e-02 -1.715085655450820923e-02 -5.190744996070861816e-03 -8.049863576889038086e-02 -8.415330946445465088e-02 5.571368336677551270e-02 1.781649887561798096e-03 -8.395174890756607056e-02 -4.718549549579620361e-02 -6.295880675315856934e-02 8.308558166027069092e-02 -3.128980845212936401e-02 3.271757066249847412e-02 -3.430358320474624634e-02 -1.006910279393196106e-01 -3.066092729568481445e-03 -6.412804126739501953e-03 7.967577874660491943e-02 1.083244383335113525e-02 1.256727427244186401e-02 -8.139843493700027466e-02 -6.145467981696128845e-02 7.006084918975830078e-02 5.696052312850952148e-02 -6.993173807859420776e-02 1.383072137832641602e-02 7.390253245830535889e-03 8.877861499786376953e-02 7.165026664733886719e-02 8.798970282077789307e-02 -8.108397573232650757e-02 9.672228991985321045e-02 9.991131722927093506e-02 4.317454993724822998e-02 7.919827103614807129e-02 -7.979038357734680176e-02 9.926483035087585449e-03 -5.248992890119552612e-02 3.108566999435424805e-02 5.903710424900054932e-02 7.514864206314086914e-03 9.252139925956726074e-02 6.344367563724517822e-02 -3.365896642208099365e-02 6.355358660221099854e-02 -2.209600806236267090e-02 -1.979352533817291260e-02 1.007231026887893677e-01 4.365560412406921387e-02 -9.112438559532165527e-02 9.078615903854370117e-02 -7.089434564113616943e-02 7.265850901603698730e-02 -3.838304430246353149e-02 -5.871584638953208923e-02 -4.871059581637382507e-02 -7.703517377376556396e-02 3.628909587860107422e-02 -9.848955273628234863e-02 -1.873774081468582153e-02 3.102281689643859863e-02 7.864563167095184326e-02 -8.677928149700164795e-02 6.011468172073364258e-02 -1.550988107919692993e-02 -8.600316196680068970e-02 8.411094546318054199e-02 1.754856109619140625e-02 -3.644271939992904663e-02 -8.696459978818893433e-02 -5.540050566196441650e-02 3.384144604206085205e-02 2.478864789009094238e-02 -6.987328827381134033e-02 -5.349330604076385498e-03 -7.747252285480499268e-02 -2.806898206472396851e-02 1.433590799570083618e-02 8.393734693527221680e-02 -3.671854734420776367e-03 -5.631498247385025024e-02 -8.170387148857116699e-02 7.541304826736450195e-02 4.600211977958679199e-04 4.639394581317901611e-02 1.230213791131973267e-02 -2.246201038360595703e-03 -6.670436263084411621e-02 -4.667738825082778931e-02 3.009065985679626465e-04 -9.625899791717529297e-02 -9.154776483774185181e-02 5.445434153079986572e-02 -2.542808651924133301e-02 -6.762251257896423340e-02 4.265539348125457764e-02 3.456899523735046387e-02 3.427572548389434814e-02 -5.228017270565032959e-02 -6.237497180700302124e-02 1.922066509723663330e-02 2.667337656021118164e-03 6.396864354610443115e-02 1.189338415861129761e-02 6.368240714073181152e-02 8.889581263065338135e-02 -9.680769592523574829e-02 8.687539398670196533e-02 1.454716920852661133e-02 6.727148592472076416e-02 6.770673394203186035e-02 -1.222505420446395874e-02 4.580458998680114746e-02 -8.011433482170104980e-02 2.229193598031997681e-02 9.317146241664886475e-02 1.764114946126937866e-02 -1.788142323493957520e-02 -6.619744747877120972e-02 1.005170643329620361e-01 -8.952952921390533447e-03 1.017157137393951416e-01 -8.399754762649536133e-02 -6.210265681147575378e-02 8.022184669971466064e-02 4.964216053485870361e-02 -6.282358616590499878e-02 -1.018597409129142761e-01 -4.912338778376579285e-02 3.689493238925933838e-02 -6.119437515735626221e-03 9.244471788406372070e-02 -9.804147481918334961e-02 5.111014842987060547e-02 9.187123179435729980e-02 1.321150362491607666e-02 1.969188451766967773e-02 3.078773617744445801e-02 -5.470775067806243896e-03 -2.493112534284591675e-02 7.030817866325378418e-02 -5.151101574301719666e-02 -9.024044871330261230e-02 2.847537398338317871e-04 7.880550622940063477e-02 6.899680197238922119e-02 8.617401123046875000e-02 -2.108141779899597168e-02 5.704417824745178223e-02 5.398291349411010742e-02 -6.468567997217178345e-02 -6.348949670791625977e-02 -8.108697086572647095e-02 6.864532828330993652e-02 -7.230739295482635498e-02 -8.446201682090759277e-03 -2.155806869268417358e-02 9.893128275871276855e-02 -9.207072108983993530e-02 -9.414242208003997803e-02 1.517122983932495117e-02 -5.187297612428665161e-02 2.486392855644226074e-03 8.025445044040679932e-02 4.260763525962829590e-02 5.574379861354827881e-02 2.547264099121093750e-02 2.832695841789245605e-02 8.154349029064178467e-02 -3.656046837568283081e-02 -7.312589883804321289e-02 2.605637907981872559e-02 -6.143093109130859375e-02 -4.637677222490310669e-02 4.145699739456176758e-02 -2.183172106742858887e-02 5.292266607284545898e-03 -4.502672329545021057e-02 -5.756913125514984131e-02 -9.845529496669769287e-02 6.800773739814758301e-02 5.926106870174407959e-02 4.662381112575531006e-02 -2.999392896890640259e-02 -7.554822415113449097e-02 4.368735849857330322e-02 -7.554362714290618896e-02 -3.789676725864410400e-02 4.879702627658843994e-02 -5.342024564743041992e-02 -7.380322366952896118e-02 -1.201719045639038086e-02 9.326075017452239990e-02 3.675796091556549072e-03 -4.101739078760147095e-02 -4.663455858826637268e-02 -7.967930287122726440e-02 4.729928076267242432e-02 -3.903119266033172607e-02 3.874403238296508789e-02 -7.242604345083236694e-02 -8.280880749225616455e-03 7.546065747737884521e-02 9.420666098594665527e-02 6.324082612991333008e-02 2.378475666046142578e-02 6.648658215999603271e-02 -9.138904511928558350e-03 5.055166780948638916e-02 1.680463552474975586e-02 2.649891376495361328e-02 8.323740959167480469e-02 9.361992776393890381e-02 -5.714806541800498962e-02 5.805750191211700439e-02 -9.663426876068115234e-02 3.766119480133056641e-04 3.603449463844299316e-02 6.239685416221618652e-02 -1.949706673622131348e-02 -4.565457627177238464e-02 -8.953198045492172241e-02 -4.796484857797622681e-02 1.502515375614166260e-02 -4.854919016361236572e-02 -9.671218693256378174e-02 4.293408989906311035e-02 2.609789371490478516e-02 4.052522778511047363e-02 7.869783043861389160e-02 -1.430583000183105469e-02 -3.232393413782119751e-02 9.838891029357910156e-02 3.345087170600891113e-02 6.697137653827667236e-02 8.454084396362304688e-02 -4.046129807829856873e-02 6.154254078865051270e-03 -4.006176441907882690e-02 -5.806677788496017456e-02 6.125731766223907471e-02 6.361143290996551514e-02 -3.874364495277404785e-02 -5.854412540793418884e-02 -9.112597256898880005e-02 9.506314992904663086e-03 8.246144652366638184e-02 -6.409318745136260986e-02 -1.823688298463821411e-02 -2.439452707767486572e-02 5.326506495475769043e-02 -2.484206855297088623e-02 5.118419229984283447e-02 3.475183248519897461e-02 1.311908662319183350e-02 -1.295593380928039551e-02 -1.035574823617935181e-02 -4.669955372810363770e-02 2.820181846618652344e-02 -3.650280088186264038e-02 6.983010470867156982e-02 7.206609845161437988e-02 -2.194263041019439697e-02 -3.875357657670974731e-02 -3.171956539154052734e-02 9.875413775444030762e-02 7.908505201339721680e-02 -6.458915770053863525e-03 -4.343855008482933044e-02 6.006455421447753906e-02 -1.435783505439758301e-02 5.175955593585968018e-03 3.807051479816436768e-02 5.024959146976470947e-02 -5.734197795391082764e-02 -2.557846903800964355e-02 4.661551117897033691e-02 8.852225542068481445e-02 9.217834472656250000e-02 7.351958751678466797e-02 -2.331659197807312012e-04 3.177672624588012695e-02 1.994983851909637451e-02 7.236643135547637939e-02 5.686584115028381348e-02 -5.769970640540122986e-02 1.076260954141616821e-02 -5.738139897584915161e-02 -7.548148185014724731e-02 9.220053255558013916e-02 -2.341553568840026855e-02 -6.910201907157897949e-02 4.157440364360809326e-02 -2.208225429058074951e-02 -8.344098925590515137e-02 4.965627193450927734e-02 -4.832907021045684814e-02 9.578461945056915283e-02 -7.370394468307495117e-02 5.132384598255157471e-02 -8.259002864360809326e-02 2.929183840751647949e-02 -6.127587705850601196e-02 -9.685754776000976562e-06 -5.895540118217468262e-03 -8.646092563867568970e-02 -9.973798692226409912e-02 -2.760279923677444458e-02 -3.047572821378707886e-02 -3.081931918859481812e-02 -7.748125493526458740e-02 4.778823256492614746e-02 -9.852605313062667847e-02 3.021714091300964355e-02 -3.361025452613830566e-02 -5.327035114169120789e-02 2.532370388507843018e-02 2.702139317989349365e-02 -7.290679961442947388e-02 -1.677835732698440552e-02 -4.110440611839294434e-03 3.743034601211547852e-02 8.658626675605773926e-02 -7.317787408828735352e-02 -6.987114995718002319e-02 -6.370574235916137695e-02 -3.702548146247863770e-02 7.642956078052520752e-02 -2.268426865339279175e-02 7.686917483806610107e-02 1.291619241237640381e-02 4.199218750000000000e-02 8.236627280712127686e-02 9.696444869041442871e-02 6.492541730403900146e-02 -2.071909606456756592e-02 4.265861213207244873e-02 -8.387295901775360107e-02 -7.932534813880920410e-02 7.280878722667694092e-02 -9.672404080629348755e-02 -5.543805658817291260e-03 -2.018816024065017700e-02 -6.133658811450004578e-02 -9.995815157890319824e-02 -9.205900132656097412e-03 -6.131627038121223450e-02 -8.919890224933624268e-02 9.044668078422546387e-02 6.947129964828491211e-02 8.301250636577606201e-03 -8.666118979454040527e-02 -6.821549683809280396e-02 7.993599772453308105e-02 -8.143068104982376099e-02 4.409681260585784912e-02 1.342437416315078735e-02 4.324257373809814453e-03 4.022300243377685547e-02 1.000144183635711670e-01 6.560948491096496582e-02 1.204536855220794678e-02 8.110910654067993164e-03 7.806117832660675049e-02 -7.622433453798294067e-02 4.371142387390136719e-02 9.897118806838989258e-02 1.230211555957794189e-02 -1.678237318992614746e-02 -3.862443566322326660e-02 -2.936659008264541626e-02 2.317230403423309326e-02 -6.059595197439193726e-02 6.333926320075988770e-02 -5.312456935644149780e-02 -1.012364178895950317e-01 9.868319332599639893e-02 2.119956165552139282e-02 -6.447205692529678345e-02 -1.411931961774826050e-02 5.980795621871948242e-02 3.686128556728363037e-02 9.494027495384216309e-02 7.161043584346771240e-02 3.814218938350677490e-02 -6.259974092245101929e-02 8.452585339546203613e-02 9.664322435855865479e-02 4.974181950092315674e-02 -4.597052186727523804e-02 1.289385557174682617e-02 8.071064949035644531e-02 9.803259372711181641e-02 -6.509251892566680908e-02 -9.484926611185073853e-02 -8.798101544380187988e-02 7.100664079189300537e-02 9.647868573665618896e-02 -3.297156840562820435e-02 2.193227410316467285e-03 1.014096736907958984e-01 -1.701173931360244751e-02 6.370238959789276123e-03 -3.919026255607604980e-02 4.148013889789581299e-02 1.062130182981491089e-02 6.574426591396331787e-02 8.128657937049865723e-02 -1.013003885746002197e-01 -2.173998206853866577e-02 -9.281775355339050293e-02 3.877812623977661133e-02 5.688293278217315674e-02 9.471186995506286621e-02 -7.130651175975799561e-02 2.088497579097747803e-02 4.252484440803527832e-02 9.421157836914062500e-02 9.468807280063629150e-02 -2.164781093597412109e-03 3.979942202568054199e-02 3.465625643730163574e-02 -3.540000319480895996e-02 -2.670552581548690796e-02 -6.781302392482757568e-02 -8.391140401363372803e-02 -7.239480316638946533e-02 5.674865841865539551e-02 -6.647363305091857910e-02 -3.878068178892135620e-02 7.208834588527679443e-02 9.546692669391632080e-02 5.038829147815704346e-02 4.222238063812255859e-02 -5.196897312998771667e-02 7.538709044456481934e-02 6.752629578113555908e-02 -8.510060608386993408e-02 -7.563541829586029053e-02 -4.074801877140998840e-02 9.888716042041778564e-03 4.262006282806396484e-02 6.501342356204986572e-02 6.810729205608367920e-02 -9.375087916851043701e-03 -7.687819749116897583e-02 -8.327233791351318359e-02 -8.371815085411071777e-03 6.885647773742675781e-03 3.169511258602142334e-02 9.647499024868011475e-02 9.252300858497619629e-02 6.729263067245483398e-02 5.552135407924652100e-02 2.897007763385772705e-02 -1.496864855289459229e-02 -3.755497932434082031e-02 2.820074558258056641e-02 -3.580749034881591797e-03 -8.289232105016708374e-02 -5.852655693888664246e-02 3.990975022315979004e-02 -5.425469204783439636e-02 7.594303786754608154e-02 6.340804696083068848e-02 1.605428755283355713e-02 -1.397885382175445557e-03 4.987132549285888672e-02 3.113733232021331787e-02 9.059587121009826660e-02 9.203684329986572266e-02 -6.035957485437393188e-02 6.452980637550354004e-02 -4.610784351825714111e-03 -8.440946042537689209e-02 -4.121622070670127869e-02 -1.497281342744827271e-02 -6.890501081943511963e-02 -3.288506716489791870e-02 -2.051383256912231445e-03 7.981617748737335205e-02 3.978708386421203613e-02 5.652965605258941650e-02 -2.163588255643844604e-02 -1.877869665622711182e-02 7.198920845985412598e-02 -4.270343482494354248e-02 -6.035709381103515625e-02 -8.506671339273452759e-02 -6.128592789173126221e-02 -2.842959761619567871e-02 6.784242391586303711e-02 -9.223389625549316406e-02 -8.846337348222732544e-02 -4.059367254376411438e-02 -9.837195277214050293e-02 -6.642900407314300537e-03 2.798140048980712891e-02 7.017993927001953125e-02 3.378358483314514160e-02 -3.509595990180969238e-02 -3.703361004590988159e-02 9.054848551750183105e-02 -4.983460903167724609e-02 -3.575466573238372803e-03 -3.227492421865463257e-02 -7.553350925445556641e-02 -1.905884593725204468e-02 -2.850379049777984619e-02 5.731083452701568604e-02 -8.942593634128570557e-02 -8.700399845838546753e-02 -6.177089363336563110e-02 6.631451845169067383e-02 6.725677847862243652e-02 2.925279736518859863e-02 7.054708898067474365e-02 2.125472575426101685e-02 -3.709042817354202271e-02 1.209241151809692383e-02 4.167334735393524170e-02 -6.324470043182373047e-03 2.536772191524505615e-02 -2.359580248594284058e-02 5.852502584457397461e-02 6.053327023983001709e-02 1.390074938535690308e-02 9.221643209457397461e-03 6.992234289646148682e-02 -2.090807259082794189e-02 9.209018945693969727e-02 -6.806728243827819824e-02 -5.476912483572959900e-02 4.888294637203216553e-02 -9.167211502790451050e-02 -3.529907017946243286e-02 9.062883257865905762e-02 7.734689116477966309e-02 -5.467342212796211243e-02 -4.067718610167503357e-02 -1.302146166563034058e-02 5.144412815570831299e-02 3.053151071071624756e-03 2.693888545036315918e-02 1.231328397989273071e-02 7.988800108432769775e-02 5.272261798381805420e-03 4.750730097293853760e-02 -9.944427758455276489e-02 -3.908631205558776855e-02 -7.986019551753997803e-02 1.156084239482879639e-02 -6.919398903846740723e-03 9.042645990848541260e-02 6.750918924808502197e-02 1.219551265239715576e-02 8.432231843471527100e-02 -5.683995410799980164e-02 -8.496054261922836304e-02 -2.057392150163650513e-02 -3.305048495531082153e-02 5.097746849060058594e-03 -9.260968118906021118e-02 -3.437875211238861084e-02 -4.205532371997833252e-03 -1.771891862154006958e-02 -1.158817112445831299e-02 -2.258887887001037598e-02 -9.830077737569808960e-02 5.765570700168609619e-02 -9.198132157325744629e-02 -4.120022058486938477e-03 -4.717975854873657227e-03 5.353325605392456055e-02 -4.641266167163848877e-02 -2.058195322751998901e-02 -4.195914790034294128e-02 8.532625436782836914e-02 8.181020617485046387e-03 2.252578735351562500e-03 1.924723386764526367e-02 1.001077890396118164e-02 8.668409287929534912e-02 -4.827252030372619629e-02 7.307054102420806885e-02 4.005351662635803223e-02 4.722955822944641113e-02 -7.993900775909423828e-02 4.390178620815277100e-02 9.549616277217864990e-02 -5.401037633419036865e-03 9.843477606773376465e-02 -3.243789076805114746e-02 -1.570782810449600220e-02 -3.599963337182998657e-02 8.085522055625915527e-02 6.430239975452423096e-02 1.331312209367752075e-02 -1.835876703262329102e-02 -8.002968132495880127e-02 6.575915217399597168e-02 8.829244971275329590e-02 -2.795546501874923706e-02 4.737176001071929932e-02 9.395590424537658691e-02 -3.955300152301788330e-02 -9.302393347024917603e-02 -8.213326334953308105e-02 4.267488420009613037e-02 -6.226578727364540100e-02 -9.824527055025100708e-02 3.787465393543243408e-02 -7.559032738208770752e-02 6.137347221374511719e-02 1.369225978851318359e-02 -1.724480837583541870e-02 -9.368512779474258423e-02 8.649219572544097900e-02 2.109304070472717285e-03 -2.782359719276428223e-02 1.010918319225311279e-01 9.159959852695465088e-02 -2.393218874931335449e-02 1.166990399360656738e-02 8.570641279220581055e-02 2.864977717399597168e-02 3.164519369602203369e-02 7.186564803123474121e-02 -7.494869828224182129e-02 4.288299381732940674e-02 4.870419204235076904e-02 -1.018937826156616211e-01 4.896283149719238281e-02 -3.730239719152450562e-02 -4.613652825355529785e-03 -9.501322358846664429e-02 7.886017858982086182e-02 7.178477942943572998e-03 -6.847309321165084839e-02 8.926279842853546143e-03 4.322408139705657959e-02 -5.250409245491027832e-02 -8.229434490203857422e-02 7.817181944847106934e-02 6.679016351699829102e-02 3.973163664340972900e-02 2.332261204719543457e-02 -9.190641343593597412e-03 3.065596520900726318e-02 -3.577629476785659790e-02 -9.792353212833404541e-02 -4.593614116311073303e-02 -6.947035342454910278e-02 -8.019833266735076904e-02 1.016588509082794189e-01 -1.612661033868789673e-02 -3.624965995550155640e-02 