-1.018310308456420898e+00 7.498228549957275391e-02 3.600314855575561523e-01 3.966739177703857422e-01 -1.426895428448915482e-02 4.204662740230560303e-01 6.742428541183471680e-01 -1.104606270790100098e+00 -1.184352874755859375e+00 9.011080265045166016e-01 1.328339874744415283e-01 -1.200604811310768127e-01 -2.714017331600189209e-01 -3.713393807411193848e-01 -3.271453380584716797e-01 -4.358524680137634277e-01 -1.282258778810501099e-01 -2.105399221181869507e-01 -1.137406677007675171e-01 2.282454371452331543e-01 4.178337752819061279e-02 2.057706117630004883e-01 1.690579801797866821e-01 9.571118652820587158e-02 -6.680739670991897583e-02 -2.805579900741577148e-01 -4.469512961804866791e-03 -3.310121297836303711e-01 2.183225303888320923e-01 2.510280311107635498e-01 7.707257866859436035e-01 1.553970724344253540e-01 -8.304820060729980469e-01 -9.833819866180419922e-01 -8.634163141250610352e-01 -2.230370491743087769e-01 3.146226406097412109e-01 -2.311075180768966675e-01 -9.667497873306274414e-01 -1.881178468465805054e-01 6.157386302947998047e-01 1.820186711847782135e-02 1.828092336654663086e-01 -1.740473508834838867e-01 4.887764453887939453e-01 -1.225693002343177795e-01 -1.653797179460525513e-01 2.530684471130371094e-01 -1.909648030996322632e-01 -3.685094788670539856e-02 -2.993035316467285156e-01 2.561451792716979980e-01 2.680330872535705566e-01 1.158026158809661865e-01 5.739467740058898926e-01 8.564617484807968140e-02 9.634999185800552368e-02 -4.789421558380126953e-01 -5.446527600288391113e-01 -5.553089976310729980e-01 -5.307444930076599121e-01 6.868379712104797363e-01 -4.435989856719970703e-01 -5.615621805191040039e-01 -9.836677908897399902e-01 -4.202965199947357178e-01 -3.253845572471618652e-01 -2.544819712638854980e-01 -7.858150005340576172e-01 -7.160586863756179810e-02 7.811033129692077637e-01 -7.279706001281738281e-01 -2.427778691053390503e-01 8.423078805208206177e-02 4.969039186835289001e-02 -9.046434611082077026e-02 1.643885672092437744e-01 1.116014644503593445e-01 3.308176100254058838e-01 -1.055490151047706604e-01 -2.674124240875244141e-01 -6.553868651390075684e-01 1.971523165702819824e-01 -1.737679839134216309e-01 7.112333178520202637e-01 -5.405740737915039062e-01 -4.570027291774749756e-01 -6.353480815887451172e-01 -2.267034649848937988e-01 -9.229974150657653809e-01 -3.338591456413269043e-01 1.094347611069679260e-01 2.509089112281799316e-01 7.424902915954589844e-01 -1.216598868370056152e+00 9.220197051763534546e-02 4.556589126586914062e-01 3.052797317504882812e-01 -2.826970517635345459e-01 -1.178250461816787720e-01 5.960637703537940979e-02 8.501841872930526733e-02 9.836916625499725342e-02 1.472034305334091187e-01 -6.338560581207275391e-02 3.393229842185974121e-02 8.907462656497955322e-02 -4.133158624172210693e-01 2.595863640308380127e-01 -1.900285631418228149e-01 5.576186180114746094e-01 3.511691987514495850e-01 3.506054878234863281e-01 -2.798489332199096680e-01 2.742978036403656006e-01 1.051212847232818604e-01 3.752625584602355957e-01 4.166941344738006592e-01 -2.209124267101287842e-01 6.164000630378723145e-01 2.414702773094177246e-01 8.525275439023971558e-02 -1.154774203896522522e-01 -1.637585759162902832e+00 -1.548040151596069336e+00 -9.747763276100158691e-01 -5.337873101234436035e-02 1.246586721390485764e-02 -1.210913434624671936e-01 -3.327174484729766846e-02 -1.132673621177673340e-01 -9.450346231460571289e-02 -2.541641891002655029e-01 1.449359059333801270e-01 3.882771432399749756e-01 -8.821070194244384766e-01 4.850959181785583496e-01 -7.516596317291259766e-01 -6.155866384506225586e-01 -2.124354392290115356e-01 -6.820222735404968262e-01 6.423416733741760254e-02 -7.773579955101013184e-01 -7.559834718704223633e-01 -1.130845919251441956e-01 -4.791072607040405273e-01 8.901597857475280762e-01 1.074852645397186279e-01 5.486879944801330566e-01 3.939221501350402832e-01 -3.868568241596221924e-01 -9.391655772924423218e-02 5.452489852905273438e-01 -2.390040084719657898e-02 7.110014557838439941e-02 -4.451052099466323853e-02 7.106582052074372768e-04 8.855393528938293457e-02 -1.402952373027801514e-01 2.333349138498306274e-01 4.399373009800910950e-02 -2.628473043441772461e-01 2.303583472967147827e-01 -3.083837628364562988e-01 -4.984351098537445068e-01 1.566502004861831665e-01 3.042894229292869568e-02 2.139585316181182861e-01 1.645220667123794556e-01 6.339607834815979004e-01 -3.386028409004211426e-01 -1.428557932376861572e-01 -1.736086606979370117e+00 5.097025632858276367e-01 4.153639972209930420e-01 8.295112848281860352e-02 -1.119673132896423340e+00 -1.612287998199462891e+00 2.759290933609008789e-01 1.225777119398117065e-01 1.022365763783454895e-01 1.572021394968032837e-01 -2.783053815364837646e-01 -3.290797472000122070e-01 5.196630023419857025e-03 -1.471538394689559937e-01 -2.050282359123229980e-01 1.932108849287033081e-01 1.286949962377548218e-01 1.032155826687812805e-01 -9.901413321495056152e-01 -1.961605995893478394e-01 -1.482350081205368042e-01 -7.520760893821716309e-01 2.361068725585937500e-01 1.554065197706222534e-01 -6.351451873779296875e-01 7.132194191217422485e-02 -3.790882602334022522e-02 4.909214675426483154e-01 4.506033062934875488e-01 6.511695981025695801e-01 8.010860681533813477e-01 -6.362649202346801758e-01 -4.799190461635589600e-01 6.717154979705810547e-01 -1.337838321924209595e-01 -1.562001258134841919e-01 -2.203630059957504272e-01 -1.840297430753707886e-01 1.771597415208816528e-01 1.916479766368865967e-01 1.820562630891799927e-01 3.891820833086967468e-02 -2.998234033584594727e-01 -2.063472867012023926e-01 -4.341532289981842041e-02 1.828693002462387085e-01 7.395753860473632812e-01 -1.875811666250228882e-01 9.712316393852233887e-01 9.095215201377868652e-01 -1.329384148120880127e-01 2.506749927997589111e-01 -8.843035101890563965e-01 -3.818041980266571045e-01 -5.956475734710693359e-01 -3.951928913593292236e-01 -2.106319814920425415e-01 -1.620234996080398560e-01 1.156341657042503357e-01 3.924835938960313797e-03 -7.802050113677978516e-01 -1.376621872186660767e-01 5.834529548883438110e-02 2.313490509986877441e-01 -7.206138223409652710e-02 1.992614008486270905e-02 1.699518412351608276e-01 -1.922700703144073486e-01 -8.191162347793579102e-02 1.845775991678237915e-01 1.405373811721801758e-01 -8.527778387069702148e-01 -1.153023600578308105e+00 -7.191174030303955078e-01 -6.445935964584350586e-01 -2.574362754821777344e-01 -2.333472073078155518e-01 1.769681274890899658e-01 5.448367595672607422e-01 6.630790829658508301e-01 4.445325210690498352e-02 -6.141151189804077148e-01 5.569634214043617249e-02 -2.308800071477890015e-01 -5.623876452445983887e-01 -2.645556330680847168e-01 7.551897764205932617e-01 -2.726384997367858887e-01 -8.133327960968017578e-01 -1.800701618194580078e-01 -1.605709791183471680e-01 -1.063609942793846130e-01 1.714056730270385742e-01 2.121936231851577759e-01 -2.976639196276664734e-02 5.515259690582752228e-03 -9.846347570419311523e-02 -1.493905037641525269e-01 -1.926544308662414551e-01 5.375515222549438477e-01 -1.064113616943359375e+00 1.700980812311172485e-01 2.571517229080200195e-01 -9.612964391708374023e-01 3.866719901561737061e-01 4.675595164299011230e-01 -7.694165688008069992e-03 6.515060067176818848e-01 -1.192556262016296387e+00 -5.006192997097969055e-02 -7.260741591453552246e-01 -3.177237808704376221e-01 4.784724712371826172e-01 4.194508194923400879e-01 7.040493935346603394e-02 3.412397205829620361e-02 -4.156481847167015076e-02 1.799680143594741821e-01 1.699399352073669434e-01 -2.879840135574340820e-01 2.543375790119171143e-01 1.844747960567474365e-01 -3.404008448123931885e-01 -6.565580517053604126e-02 -1.858977824449539185e-01 -7.555946707725524902e-01 -6.047082543373107910e-01 3.451761901378631592e-01 2.305831164121627808e-01 9.231352806091308594e-01 -3.350503742694854736e-02 5.479571223258972168e-01 -4.306844770908355713e-01 -5.404877662658691406e-01 4.052482917904853821e-02 -5.267453789710998535e-01 -2.219874262809753418e-01 5.092545151710510254e-01 8.873339295387268066e-01 1.977177411317825317e-01 2.730242609977722168e-01 -1.500422954559326172e-01 2.075228393077850342e-01 6.766617298126220703e-02 -8.086273819208145142e-02 6.484600901603698730e-02 -8.186647295951843262e-02 -2.162327989935874939e-02 7.891874015331268311e-02 -2.757935822010040283e-01 1.294290870428085327e-01 7.749260962009429932e-02 -1.433611661195755005e-01 -1.495883315801620483e-01 4.664641618728637695e-01 -8.836264610290527344e-01 -1.162071347236633301e+00 -1.036635041236877441e+00 -3.402495384216308594e-01 4.959956556558609009e-02 -2.658248245716094971e-01 -2.519347071647644043e-01 -5.960196256637573242e-02 -5.371794104576110840e-01 8.041035532951354980e-01 3.315925896167755127e-01 8.128096461296081543e-01 -9.308496862649917603e-02 3.688806667923927307e-02 5.199514627456665039e-01 1.993844956159591675e-01 1.588491648435592651e-01 -1.654791831970214844e-01 1.382490843534469604e-01 2.328385785222053528e-02 -2.946444451808929443e-01 -4.111133515834808350e-02 -4.876765608787536621e-02 7.557024806737899780e-02 -1.688682436943054199e-01 -7.270349562168121338e-02 -2.123919315636157990e-02 -3.429718315601348877e-01 -1.227985993027687073e-01 -4.056869447231292725e-01 8.818857371807098389e-02 -2.782793641090393066e-01 2.162390500307083130e-01 -7.771283984184265137e-01 -1.513694822788238525e-01 8.572664260864257812e-01 6.827616691589355469e-01 5.146178007125854492e-01 3.381020724773406982e-01 7.544288635253906250e-01 -6.666725277900695801e-01 2.346980422735214233e-01 9.672600030899047852e-02 2.914780676364898682e-01 1.179338544607162476e-01 -4.274131059646606445e-01 -4.961577430367469788e-02 -1.108565628528594971e-01 -5.419380664825439453e-01 -3.306598365306854248e-01 -2.932100370526313782e-02 -4.139471054077148438e-02 -2.851560413837432861e-01 -1.079327583312988281e+00 -7.934974879026412964e-02 -2.854131460189819336e-01 8.063531517982482910e-01 6.106683611869812012e-01 -6.621600985527038574e-01 -7.656326293945312500e-01 -2.646816074848175049e-01 3.686505183577537537e-02 5.308293700218200684e-01 -1.397042255848646164e-02 5.444021821022033691e-01 -6.571081876754760742e-01 -5.799372196197509766e-01 -5.349661111831665039e-01 -5.351462364196777344e-01 4.029462486505508423e-02 -4.246965423226356506e-02 3.520318865776062012e-02 -1.437217276543378830e-02 -1.380730569362640381e-01 1.963507086038589478e-01 5.419369414448738098e-02 -6.079590693116188049e-02 -8.868753910064697266e-02 -6.318953037261962891e-01 -3.792296350002288818e-01 5.345401763916015625e-01 -5.777745246887207031e-01 -2.961866259574890137e-01 2.701105475425720215e-01 -4.479728043079376221e-01 2.934785187244415283e-01 -4.765999913215637207e-01 1.129396438598632812e+00 -4.077806770801544189e-01 -7.447480410337448120e-02 -7.566097378730773926e-02 4.938956797122955322e-01 -8.586924523115158081e-02 -9.350697398185729980e-01 -6.471182405948638916e-02 5.194231867790222168e-01 -7.762616127729415894e-02 -1.542898267507553101e-01 -1.795242875814437866e-01 -2.232793718576431274e-01 3.266253471374511719e-01 3.447597920894622803e-01 -2.344372421503067017e-01 -3.497553989291191101e-02 8.051205426454544067e-02 -4.939537346363067627e-01 -2.576464414596557617e-01 2.297813445329666138e-01 -1.012091279029846191e+00 -1.661508381366729736e-01 5.064831376075744629e-01 3.555916249752044678e-01 2.981694936752319336e-01 -4.846404865384101868e-02 -2.098415791988372803e-01 1.109135508537292480e+00 -1.431317627429962158e-01 1.521350294351577759e-01 -2.819175720214843750e-01 -2.214262038469314575e-01 -1.828924864530563354e-01 -6.620300412178039551e-01 8.164952993392944336e-01 -1.203091293573379517e-01 1.023961510509252548e-02 -7.279614359140396118e-02 -1.040468811988830566e-01 1.466838419437408447e-01 -3.619096055626869202e-02 2.016967348754405975e-02 -1.462167650461196899e-01 1.084066182374954224e-01 9.374994635581970215e-01 -2.399987280368804932e-01 4.977284669876098633e-01 -3.823793530464172363e-01 2.045589964836835861e-03 -1.887218952178955078e-01 2.425675094127655029e-01 -2.257336378097534180e-01 4.736602306365966797e-01 -1.407259702682495117e-01 -5.029203295707702637e-01 -1.385719776153564453e+00 -3.905653357505798340e-01 4.467838108539581299e-01 4.687055051326751709e-01 -9.494436532258987427e-02 2.270401269197463989e-01 6.874714493751525879e-01 -3.387348353862762451e-02 -2.207531183958053589e-01 7.587045431137084961e-02 2.612864673137664795e-01 2.898412197828292847e-02 1.668039113283157349e-01 -2.189079485833644867e-02 -4.505297541618347168e-02 -2.723121345043182373e-01 -2.021826207637786865e-01 -2.012681216001510620e-01 1.832651048898696899e-01 8.450297638773918152e-03 -3.160904049873352051e-01 -2.627984881401062012e-01 -6.745048612356185913e-02 6.159142851829528809e-01 -5.143856629729270935e-02 -7.306996732950210571e-02 6.521821618080139160e-01 1.566125452518463135e-02 5.326769351959228516e-01 3.326843678951263428e-01 3.724908828735351562e-01 -5.714185535907745361e-04 1.559372544288635254e+00 -1.217327192425727844e-01 -3.250470161437988281e-01 1.630618125200271606e-01 -9.945897012948989868e-02 -2.293734252452850342e-02 1.677854210138320923e-01 -1.297998577356338501e-01 1.633148491382598877e-01 -1.367802023887634277e-01 -1.062727794051170349e-01 2.475054711103439331e-01 -1.065902233123779297e+00 -2.160558849573135376e-01 8.330026268959045410e-01 -6.637672781944274902e-01 1.671173572540283203e-01 6.911283135414123535e-01 -1.200618222355842590e-01 4.233256578445434570e-01 -6.183472871780395508e-01 -2.366381585597991943e-01 -4.250507801771163940e-03 -3.601533472537994385e-01 -3.303351104259490967e-01 2.668565809726715088e-01 -8.215284347534179688e-01 -4.065640270709991455e-01 -6.774950623512268066e-01 -2.466278970241546631e-01 2.538684010505676270e-02 -8.921207487583160400e-02 -1.908944100141525269e-01 2.877685725688934326e-01 1.597347259521484375e-01 -3.370975330471992493e-02 1.769664287567138672e-01 -2.761490456759929657e-02 -7.186319679021835327e-02 1.252513676881790161e-01 5.371386185288429260e-03 1.117259613238275051e-03 1.453513741493225098e+00 -6.131652370095252991e-02 -1.423122882843017578e-01 2.852297946810722351e-02 -2.371665276587009430e-02 -1.526695340871810913e-01 -6.932767108082771301e-03 -1.430986076593399048e-01 -3.604191169142723083e-02 1.208128333091735840e+00 -1.135546416044235229e-01 -1.418562978506088257e-01 1.301369667053222656e-01 2.013985998928546906e-02 -7.890026271343231201e-02 -8.589726686477661133e-02 1.144497841596603394e-02 5.571489036083221436e-02 1.414884179830551147e-01 -1.768798008561134338e-02 -1.077575534582138062e-01 -1.566071063280105591e-01 9.255149960517883301e-02 1.063572168350219727e+00 -3.637766242027282715e-01 9.270564466714859009e-02 -6.093495488166809082e-01 2.936225384473800659e-03 1.057075783610343933e-01 9.251956939697265625e-01 1.127946376800537109e-01 4.173031747341156006e-01 -4.236117005348205566e-01 7.897337526082992554e-02 9.316577762365341187e-02 4.617670178413391113e-01 -1.675875298678874969e-02 3.000391423702239990e-01 1.744094118475914001e-02 -5.354918837547302246e-01 -1.034531235694885254e+00 5.719128064811229706e-03 -1.184285432100296021e-01 -7.782314717769622803e-02 2.234164178371429443e-01 3.193753063678741455e-01 -4.838700219988822937e-02 -4.070170223712921143e-02 2.593591511249542236e-01 3.168882057070732117e-02 2.824000716209411621e-01 -9.974377751350402832e-01 5.460358858108520508e-01 -1.828603595495223999e-01 7.259386181831359863e-01 -6.801924109458923340e-01 4.637616276741027832e-01 5.852038264274597168e-01 4.194184839725494385e-01 -5.560759902000427246e-01 -7.742615789175033569e-02 -2.648484110832214355e-01 -9.438046216964721680e-01 -2.159179449081420898e-01 -8.356995135545730591e-02 -8.845518827438354492e-01 1.398018896579742432e-01 -6.743238866329193115e-02 1.949756145477294922e-01 9.752104431390762329e-02 1.057823672890663147e-01 -6.917460262775421143e-02 -2.797069251537322998e-01 -2.246423363685607910e-01 2.298666387796401978e-01 7.229885458946228027e-02 1.451034545898437500e-01 8.660400509834289551e-01 3.563143908977508545e-01 9.281624108552932739e-02 2.068756818771362305e-01 9.506278038024902344e-01 -5.362234115600585938e-01 -7.499302029609680176e-01 3.633838295936584473e-01 -2.708971127867698669e-02 -4.022536873817443848e-01 -9.380787014961242676e-01 1.970817148685455322e-01 -2.766347229480743408e-01 -6.930957436561584473e-01 2.894977331161499023e-01 3.219898939132690430e-01 -3.729673027992248535e-01 -7.839266210794448853e-02 2.576914988458156586e-02 2.729936242103576660e-01 2.913449332118034363e-02 -4.266178607940673828e-02 1.385025084018707275e-01 -2.046708911657333374e-01 1.701363176107406616e-01 1.187096312642097473e-01 -1.098222956061363220e-01 -5.957841873168945312e-01 -2.221307605504989624e-01 -8.310984373092651367e-01 -4.148672223091125488e-01 -1.305107474327087402e-01 -1.252516984939575195e+00 -2.036343067884445190e-01 2.938521206378936768e-01 -6.966843605041503906e-01 6.254917383193969727e-01 5.884026885032653809e-01 -1.519466787576675415e-01 3.604642748832702637e-01 7.523679733276367188e-02 -9.969586730003356934e-01 7.873104810714721680e-01 4.572116732597351074e-01 1.415759027004241943e-01 -7.486975938081741333e-02 -3.826529160141944885e-02 -1.180899813771247864e-01 -3.056906759738922119e-01 3.005447215400636196e-04 3.198563754558563232e-01 4.617982730269432068e-02 1.329238526523113251e-02 1.009462177753448486e-01 -8.784407377243041992e-02 -6.181448698043823242e-01 4.309217631816864014e-02 -4.489243030548095703e-01 -9.815187752246856689e-02 -3.999619781970977783e-01 -2.079021334648132324e-01 8.500799536705017090e-02 -3.818313777446746826e-01 -6.302246451377868652e-01 5.176492929458618164e-01 4.256459474563598633e-01 2.350837178528308868e-02 1.058035850524902344e+00 6.619262099266052246e-01 -7.198595404624938965e-01 -4.469954669475555420e-01 -4.573663175106048584e-01 -4.408566355705261230e-01 1.310044378042221069e-01 -5.428505688905715942e-02 -1.138181313872337341e-01 1.379535943269729614e-01 -1.655052751302719116e-01 -2.561320364475250244e-01 1.817474067211151123e-01 8.016511052846908569e-02 1.490569561719894409e-01 -3.079065084457397461e-01 -6.662345528602600098e-01 4.292553365230560303e-01 6.690714359283447266e-01 -1.032407760620117188e+00 -2.581391334533691406e-01 -8.515726327896118164e-01 5.780375003814697266e-01 -3.401003181934356689e-01 3.087217509746551514e-01 -4.489617422223091125e-02 -1.825556457042694092e-01 -7.817196846008300781e-02 7.230253815650939941e-01 -3.402532543987035751e-03 5.812317728996276855e-01 -1.105219125747680664e+00 1.393206119537353516e-01 -3.676171414554119110e-03 -1.320416182279586792e-01 -1.013900563120841980e-01 6.041311100125312805e-02 4.687472805380821228e-02 -1.119556576013565063e-01 1.880112439393997192e-01 -5.946027487516403198e-02 3.009692728519439697e-01 4.732654094696044922e-01 1.424544453620910645e-01 -5.086143612861633301e-01 -6.271559596061706543e-01 -3.417679667472839355e-01 1.208218336105346680e-01 -1.707375198602676392e-01 -7.680191993713378906e-01 -2.134799510240554810e-01 -1.014317631721496582e+00 -4.164751470088958740e-01 3.523370325565338135e-01 -3.949186503887176514e-01 9.282965660095214844e-01 -7.676982879638671875e-01 -5.155844688415527344e-01 -4.661991298198699951e-01 -1.603653132915496826e-01 -2.407527714967727661e-01 2.397966533899307251e-01 -1.665828227996826172e-01 -2.964642345905303955e-01 3.176058456301689148e-02 7.680595666170120239e-02 9.541075676679611206e-03 7.598143070936203003e-02 3.695161640644073486e-01 -4.277966916561126709e-01 -4.841917753219604492e-01 4.870579838752746582e-01 1.718773990869522095e-01 7.105683684349060059e-01 -4.001163840293884277e-01 -1.463448405265808105e-01 -8.083922415971755981e-02 1.221260502934455872e-01 -5.405566692352294922e-01 3.498092293739318848e-01 -1.414446353912353516e+00 -8.928995132446289062e-01 3.757980465888977051e-01 4.730654358863830566e-01 -2.762691676616668701e-01 3.724810108542442322e-02 -1.482243090867996216e-01 -4.528928101062774658e-01 -2.137200683355331421e-01 2.667395398020744324e-02 7.704418897628784180e-02 4.706726372241973877e-01 4.154719784855842590e-02 -3.078697025775909424e-01 3.295195102691650391e-01 -7.682101726531982422e-01 4.130310714244842529e-01 6.778281927108764648e-02 -3.213603794574737549e-02 -7.104358673095703125e-01 1.262874901294708252e-01 -1.025293707847595215e+00 -6.907578110694885254e-01 6.472087502479553223e-01 1.642736643552780151e-01 1.910170912742614746e-01 1.601936966180801392e-01 1.089697852730751038e-01 4.211232066154479980e-01 -1.548226237297058105e+00 3.813423812389373779e-01 -3.018402457237243652e-01 5.050082802772521973e-01 -9.270597994327545166e-02 -4.545404762029647827e-02 1.044915840029716492e-01 -1.176794990897178650e-01 7.198729366064071655e-02 -2.223437428474426270e-01 -2.371299266815185547e-01 -1.203736737370491028e-01 -8.334697037935256958e-02 -1.003155708312988281e+00 -5.036014318466186523e-01 1.568278670310974121e-01 1.791003197431564331e-01 3.404536843299865723e-01 7.856981754302978516e-01 4.208410680294036865e-01 -5.959168672561645508e-01 8.957341909408569336e-01 4.219812527298927307e-02 -2.031386643648147583e-01 -6.360929608345031738e-01 6.325002759695053101e-02 -2.125418633222579956e-01 -2.050536423921585083e-01 -1.732637286186218262e-01 2.641196846961975098e-01 -3.154944181442260742e-01 -4.924345389008522034e-02 2.672988176345825195e-01 -9.412510320544242859e-03 1.406845152378082275e-01 4.251318275928497314e-01 -4.736519455909729004e-01 3.388422727584838867e-02 1.562248468399047852e-01 -4.140504002571105957e-01 -4.766777455806732178e-01 1.111973166465759277e+00 2.447328418493270874e-01 2.183596640825271606e-01 7.971027493476867676e-02 4.281791746616363525e-01 -2.408314943313598633e-01 9.855511784553527832e-01 -3.787844181060791016e-01 -2.242367714643478394e-01 -2.066572606563568115e-01 -3.395514488220214844e-01 -3.335617482662200928e-01 -5.558674335479736328e-01 1.368011534214019775e-01 1.135796010494232178e-01 -9.110820293426513672e-01 -9.120986610651016235e-02 -1.442879736423492432e-01 -1.767163425683975220e-01 2.042556367814540863e-02 1.307720094919204712e-01 5.377971380949020386e-02 1.226244959980249405e-02 -2.899992465972900391e-02 2.318720519542694092e-01 -9.966407716274261475e-02 
1.086482524871826172e+00 1.104368686676025391e+00 1.117973685264587402e+00 1.132952809333801270e+00 1.241300940513610840e+00 1.342900037765502930e+00 1.274673938751220703e+00 1.363086223602294922e+00 1.172628283500671387e+00 9.794274568557739258e-01 1.149735569953918457e+00 9.326372742652893066e-01 1.492193818092346191e+00 1.017678737640380859e+00 1.261942148208618164e+00 1.379494667053222656e+00 1.105883240699768066e+00 1.153915882110595703e+00 8.376589417457580566e-01 1.056378364562988281e+00 1.313852906227111816e+00 9.868566989898681641e-01 1.330287218093872070e+00 1.181725740432739258e+00 1.052199244499206543e+00 1.354283094406127930e+00 1.561742186546325684e+00 1.200981020927429199e+00 1.212039351463317871e+00 1.192098975181579590e+00 1.338813900947570801e+00 1.356969475746154785e+00 
1.976190209388732910e-01 -2.815882265567779541e-01 -1.097281798720359802e-01 -1.575852781534194946e-01 1.669389307498931885e-01 -3.985893130302429199e-01 6.808302551507949829e-02 -4.275648891925811768e-01 -2.561142481863498688e-02 -2.485426515340805054e-01 -1.594613194465637207e-01 -1.347348093986511230e-01 -1.404752731323242188e-01 -2.824928462505340576e-01 -1.944145113229751587e-01 -3.561998009681701660e-01 1.259204745292663574e-01 -4.864660277962684631e-02 1.968390047550201416e-01 -3.166546523571014404e-01 4.712202847003936768e-01 -1.068890243768692017e-01 -9.904936701059341431e-02 -1.812290400266647339e-01 -1.667214781045913696e-01 -6.820623874664306641e-01 -2.383442074060440063e-01 1.157968491315841675e-01 1.866549849510192871e-01 4.121554791927337646e-01 -2.534065544605255127e-01 -4.556189775466918945e-01 
-9.257253259420394897e-02 -2.013066112995147705e-01 -4.284113049507141113e-01 -2.836822569370269775e-01 -1.471000164747238159e-01 -3.289726972579956055e-01 -3.971548080444335938e-01 -2.161684930324554443e-01 1.868206113576889038e-01 -5.919454693794250488e-01 -1.188333705067634583e-01 1.029678657650947571e-01 -2.544805109500885010e-01 -3.648999333381652832e-01 -3.761358261108398438e-01 -1.495558768510818481e-01 -9.279578179121017456e-02 3.077323175966739655e-02 2.197205573320388794e-01 -1.840468645095825195e-01 2.304199337959289551e-01 3.624570071697235107e-01 -1.272391378879547119e-01 1.541728526353836060e-01 -3.176909983158111572e-01 -3.127186596393585205e-01 -1.170440018177032471e-01 -6.513310074806213379e-01 -2.406943738460540771e-01 -5.211635231971740723e-01 7.369033247232437134e-02 4.427934810519218445e-02 
7.060356736183166504e-01 4.922219812870025635e-01 5.733599066734313965e-01 4.891041517257690430e-01 6.077540516853332520e-01 5.537455081939697266e-01 7.552461624145507812e-01 5.247898697853088379e-01 4.241816997528076172e-01 7.925341725349426270e-01 6.270008683204650879e-01 3.268229365348815918e-01 6.034243702888488770e-01 5.264239907264709473e-01 5.976827740669250488e-01 4.836600124835968018e-01 4.533289074897766113e-01 4.129638671875000000e-01 3.757134377956390381e-01 5.356544852256774902e-01 3.164016008377075195e-01 4.793353378772735596e-01 4.966333806514739990e-01 5.261799693107604980e-01 5.367322564125061035e-01 4.345126748085021973e-01 6.714977622032165527e-01 6.658791303634643555e-01 5.877665877342224121e-01 7.012946009635925293e-01 4.717633128166198730e-01 4.105739593505859375e-01 
-4.742178916931152344e-01 4.055672287940979004e-01 5.285345911979675293e-01 3.715351819992065430e-01 -9.294232726097106934e-02 2.076710015535354614e-01 -6.647465825080871582e-01 1.006898134946823120e-01 2.248458713293075562e-01 -7.237687706947326660e-02 -4.366736859083175659e-02 2.391892820596694946e-01 6.337601691484451294e-03 2.076777666807174683e-01 -2.872765958309173584e-01 -1.314462572336196899e-01 -2.192893624305725098e-01 1.086012348532676697e-01 6.694924086332321167e-02 6.067121624946594238e-01 -7.734492421150207520e-01 -3.128727078437805176e-01 2.013493031263351440e-01 -2.513463422656059265e-02 5.625676512718200684e-01 9.729216098785400391e-01 3.471626639366149902e-01 -4.618650767952203751e-03 1.149258092045783997e-01 2.405912578105926514e-01 4.078032672405242920e-01 2.726119458675384521e-01 -1.920033097267150879e-01 5.471477508544921875e-01 -2.552478611469268799e-01 -1.232615485787391663e-01 2.079699486494064331e-01 -1.948231086134910583e-02 -2.229668945074081421e-01 -3.788038194179534912e-01 -7.061405479907989502e-02 2.463029175996780396e-01 1.648999750614166260e-01 -3.091386985033750534e-03 -1.235020458698272705e-01 3.367570936679840088e-01 -2.965985238552093506e-01 1.713501662015914917e-01 -2.335034608840942383e-01 2.145783901214599609e-01 -5.735712647438049316e-01 -5.890390872955322266e-01 -3.043714538216590881e-02 -2.015071064233779907e-01 8.407219648361206055e-01 3.650161325931549072e-01 2.318380326032638550e-01 3.044102787971496582e-01 4.254985749721527100e-01 -5.689258575439453125e-01 -9.337835013866424561e-02 -3.558090925216674805e-01 4.848607778549194336e-01 8.163062334060668945e-01 -1.161747276782989502e-01 4.820521175861358643e-02 -6.758661866188049316e-01 -1.585891544818878174e-01 -3.828503889963030815e-03 -1.935620456933975220e-01 -2.837523221969604492e-01 4.315487146377563477e-01 -2.148088254034519196e-02 9.103623628616333008e-01 -1.520433556288480759e-02 -3.022137582302093506e-01 -2.033292055130004883e-01 -1.064058169722557068e-01 1.230198889970779419e-01 -2.063056379556655884e-01 3.003957569599151611e-01 7.440983057022094727e-01 -1.016293913125991821e-01 -5.559171363711357117e-02 -6.072470545768737793e-02 -8.123499900102615356e-02 5.214096903800964355e-01 -6.336582303047180176e-01 3.030943572521209717e-01 -2.426912337541580200e-01 -6.029779836535453796e-02 -8.190745711326599121e-01 1.670415699481964111e-02 3.116278052330017090e-01 1.339051965624094009e-02 -4.078013300895690918e-01 -3.209424018859863281e-01 2.535168528556823730e-01 -7.074446082115173340e-01 2.961316704750061035e-01 6.996392011642456055e-01 -7.335658883675932884e-04 2.657825350761413574e-01 -2.108329236507415771e-01 4.526473283767700195e-01 2.640028595924377441e-01 -1.667246222496032715e-01 8.965048007667064667e-03 -6.773976981639862061e-02 2.806674316525459290e-02 -3.915394470095634460e-02 3.335960805416107178e-01 4.473518431186676025e-01 -3.286539614200592041e-01 -4.813570380210876465e-01 -1.273289471864700317e-01 1.831445842981338501e-02 6.607416272163391113e-02 5.686380341649055481e-02 1.699824184179306030e-01 -7.304533123970031738e-01 -2.453034967184066772e-01 1.555441878736019135e-02 -5.472117662429809570e-01 -1.409681141376495361e-01 7.847125530242919922e-01 5.530905723571777344e-01 2.198947072029113770e-01 1.647289097309112549e-01 3.096752054989337921e-02 -4.574500024318695068e-01 1.338199377059936523e-01 3.908647894859313965e-01 -1.648607850074768066e-01 -3.071976453065872192e-02 -5.147902965545654297e-01 6.044139713048934937e-02 -2.887131869792938232e-01 5.613498762249946594e-02 -5.604967474937438965e-02 3.728136047720909119e-02 -5.197082161903381348e-01 5.573170185089111328e-01 3.623883938416838646e-03 -1.138683557510375977e-01 4.201059937477111816e-01 2.969632148742675781e-01 -1.374875158071517944e-01 -1.147917434573173523e-01 -6.643369793891906738e-01 -4.753228127956390381e-01 -9.909754991531372070e-01 5.841683149337768555e-01 -1.818399429321289062e-01 -2.769928574562072754e-01 4.837083518505096436e-01 6.536364555358886719e-01 -7.178624719381332397e-02 -1.281793415546417236e-01 5.426219701766967773e-01 -5.209063366055488586e-02 1.201212638989090919e-03 -3.851648271083831787e-01 3.375394344329833984e-01 -6.471754908561706543e-01 2.408105134963989258e-01 2.026337534189224243e-01 -1.366046965122222900e-01 4.020521938800811768e-01 -2.269381433725357056e-01 -2.210603803396224976e-01 5.181956291198730469e-01 1.435785889625549316e-01 3.219996392726898193e-01 1.097563982009887695e+00 6.266354322433471680e-01 7.298614978790283203e-01 7.697636485099792480e-01 -8.936732262372970581e-02 -7.281668782234191895e-01 -8.202239871025085449e-02 2.064555734395980835e-01 2.382085919380187988e-01 2.204005569219589233e-01 -3.666338026523590088e-01 -4.390006959438323975e-01 2.318398952484130859e-01 -3.265609443187713623e-01 -2.543339133262634277e-01 7.032700777053833008e-01 -4.111289680004119873e-01 4.261544942855834961e-01 4.725493863224983215e-02 2.873302102088928223e-01 1.191170662641525269e-01 2.924659550189971924e-01 -3.032544553279876709e-01 3.605999350547790527e-01 1.099843859672546387e+00 -1.456987019628286362e-02 -4.233196675777435303e-01 2.716641724109649658e-01 -2.139826565980911255e-01 -4.443345963954925537e-02 7.415381669998168945e-01 6.693571805953979492e-02 -1.166329622268676758e+00 -3.413500189781188965e-01 -5.867372080683708191e-02 4.772590100765228271e-01 -2.335755974054336548e-01 -1.199696734547615051e-01 -1.188636478036642075e-02 2.209981828927993774e-01 2.157772779464721680e-01 3.406285345554351807e-01 -7.838634252548217773e-01 5.604637861251831055e-01 -2.255936264991760254e-01 -1.537631303071975708e-01 -2.610712051391601562e-01 1.959346700459718704e-03 -8.616285026073455811e-02 2.663540244102478027e-01 -2.829043269157409668e-01 -3.666261732578277588e-01 2.903513908386230469e-01 -2.641615271568298340e-01 -6.889240145683288574e-01 4.058791399002075195e-01 -3.177793920040130615e-01 -2.262574136257171631e-01 -1.684995591640472412e-01 -7.941577583551406860e-02 -2.198978699743747711e-02 3.287186026573181152e-01 4.011661112308502197e-01 4.045624136924743652e-01 1.674645394086837769e-01 -6.362806558609008789e-01 9.389916062355041504e-01 -3.127548992633819580e-01 -3.423512876033782959e-01 2.236653268337249756e-01 -8.161202073097229004e-02 7.435749769210815430e-01 3.447720706462860107e-01 -4.651527479290962219e-02 -3.042353391647338867e-01 2.732773125171661377e-01 -7.511712610721588135e-02 1.727634221315383911e-01 -6.726648211479187012e-01 -4.403577744960784912e-01 -3.722203671932220459e-01 6.161186099052429199e-01 -3.188486695289611816e-01 1.250402212142944336e+00 9.063606709241867065e-02 2.618933916091918945e-01 -1.961261592805385590e-02 4.902452826499938965e-01 -2.632107734680175781e-01 -5.386497080326080322e-02 -4.383848011493682861e-01 4.213164150714874268e-01 2.371152639389038086e-01 -4.377014338970184326e-01 -2.830348610877990723e-01 3.922981023788452148e-01 2.204251736402511597e-01 -2.779893577098846436e-01 6.877046227455139160e-01 4.937429726123809814e-02 -1.661346852779388428e-02 2.660319209098815918e-01 1.978544890880584717e-02 -6.248953342437744141e-01 -3.008688688278198242e-01 -2.626122236251831055e-01 8.018845319747924805e-01 -3.342425525188446045e-01 3.502396047115325928e-01 -3.104441761970520020e-01 4.378229677677154541e-01 -3.989863097667694092e-01 -1.958851963281631470e-01 -4.066214859485626221e-01 -1.656303256750106812e-01 2.040027081966400146e-01 3.732422888278961182e-01 -2.692264616489410400e-01 -2.523334026336669922e-01 3.380061089992523193e-01 5.174331068992614746e-01 4.555073380470275879e-01 2.664463222026824951e-01 -6.606377363204956055e-01 3.270344734191894531e-01 -4.404899850487709045e-02 8.856927752494812012e-01 2.031638920307159424e-01 -3.178812861442565918e-01 2.169343531131744385e-01 -3.696050941944122314e-01 2.235516011714935303e-01 9.286594390869140625e-01 1.813934594392776489e-01 3.517343103885650635e-02 1.682172529399394989e-02 1.219526976346969604e-01 6.604840755462646484e-01 -3.743154108524322510e-01 6.616906523704528809e-01 1.347930580377578735e-01 -7.183235883712768555e-01 1.658346503973007202e-01 2.903336286544799805e-02 6.031463742256164551e-01 2.256098985671997070e-01 1.539144366979598999e-01 1.269474029541015625e-01 -2.528022415935993195e-02 -2.069367468357086182e-01 2.371251434087753296e-01 -5.162972211837768555e-01 1.455137431621551514e-01 1.369874775409698486e-01 -2.262154668569564819e-01 -6.735895276069641113e-01 -5.861595869064331055e-01 4.257559776306152344e-01 2.920985221862792969e-01 2.209396213293075562e-01 -5.128906369209289551e-01 8.078354597091674805e-01 4.423809051513671875e-01 2.137117683887481689e-01 1.265376657247543335e-01 4.804062247276306152e-01 -1.780361984856426716e-03 3.408374786376953125e-01 3.018268048763275146e-01 4.608712196350097656e-01 2.318725585937500000e-01 -6.916171312332153320e-02 5.782783031463623047e-01 -2.428607046604156494e-01 -1.906318664550781250e-01 4.590967595577239990e-01 2.225044071674346924e-01 1.429093480110168457e-01 -2.103701829910278320e-01 -1.733487397432327271e-01 4.854931235313415527e-01 4.071526825428009033e-01 -1.922934316098690033e-02 -8.173694610595703125e-01 1.013192310929298401e-01 1.791060715913772583e-01 2.686620354652404785e-01 -1.338961273431777954e-01 -2.370425760746002197e-01 -1.286520212888717651e-01 -2.553309500217437744e-01 -8.537033945322036743e-02 3.902738988399505615e-01 -1.266655474901199341e-01 -1.600762903690338135e-01 2.463356852531433105e-01 3.990254402160644531e-01 -5.233796834945678711e-01 -2.176358550786972046e-01 3.179024755954742432e-01 -5.017412900924682617e-01 8.353293687105178833e-02 4.583769142627716064e-01 -2.088379301130771637e-02 8.501977920532226562e-01 -2.527579367160797119e-01 4.238576889038085938e-01 -4.992253184318542480e-01 2.238423377275466919e-01 4.683429002761840820e-01 5.123800635337829590e-01 -2.365543693304061890e-01 5.704523622989654541e-02 -6.343750357627868652e-01 -1.068722158670425415e-01 9.816769510507583618e-02 5.210834741592407227e-01 -3.825248479843139648e-01 1.431217640638351440e-01 8.383046984672546387e-01 -1.494050770998001099e-01 -1.081193462014198303e-01 -9.980711340904235840e-01 3.996856212615966797e-01 -2.834921330213546753e-02 3.061566352844238281e-01 -5.725386552512645721e-03 -7.578530907630920410e-01 3.808283805847167969e-01 -4.830077588558197021e-01 2.741225361824035645e-01 2.523474097251892090e-01 4.287880361080169678e-01 2.953875064849853516e-01 -7.382398098707199097e-02 2.871239483356475830e-01 -4.705336391925811768e-01 1.538948565721511841e-01 -1.800986677408218384e-01 7.070382833480834961e-01 4.037658572196960449e-01 -6.328763067722320557e-02 1.954740285873413086e-01 2.439840734004974365e-01 8.149531483650207520e-02 2.103746831417083740e-01 -2.865414619445800781e-01 2.055927515029907227e-01 -5.181320905685424805e-01 2.624432742595672607e-01 -5.580881834030151367e-01 8.608169555664062500e-01 1.749532222747802734e-01 2.610159218311309814e-01 -7.520065307617187500e-01 3.334192335605621338e-01 1.867118030786514282e-01 3.523772582411766052e-02 -3.117484748363494873e-01 5.240431427955627441e-01 1.660026907920837402e-01 -5.390288773924112320e-03 5.416576936841011047e-02 -3.644517660140991211e-01 5.868763923645019531e-01 -6.769887804985046387e-01 4.760599136352539062e-01 9.480634704232215881e-03 8.689551949501037598e-01 -3.400343954563140869e-01 -1.467169076204299927e-01 -1.490294933319091797e-01 -3.192628026008605957e-01 2.879286408424377441e-01 3.379451110959053040e-02 -1.919833272695541382e-01 -6.605389714241027832e-01 -3.821439445018768311e-01 -2.571351826190948486e-01 2.151289135217666626e-01 -9.252251684665679932e-02 4.666090011596679688e-01 2.809653989970684052e-02 4.730600416660308838e-01 2.805546522140502930e-01 -3.516907095909118652e-01 1.298042684793472290e-01 3.382403254508972168e-01 9.055547118186950684e-01 3.516386076807975769e-02 -1.447877436876296997e-01 -1.912387013435363770e-01 2.873849570751190186e-01 -8.605454117059707642e-02 -1.324149966239929199e-02 -2.565922141075134277e-01 -1.586826741695404053e-01 2.964657545089721680e-01 -8.893502876162528992e-03 -7.670979201793670654e-02 -2.455164492130279541e-01 4.970859587192535400e-01 3.412078917026519775e-01 -2.032649964094161987e-01 5.193512141704559326e-02 -2.683734893798828125e-01 -3.627486526966094971e-01 1.681832224130630493e-01 -8.329501748085021973e-02 -5.474187135696411133e-01 4.346719980239868164e-01 -1.302300989627838135e-01 2.711531519889831543e-01 2.699837088584899902e-01 7.868211865425109863e-01 -2.867259383201599121e-01 3.227793872356414795e-01 -7.875925302505493164e-02 2.845358289778232574e-02 4.458777010440826416e-01 1.115490123629570007e-01 7.940614223480224609e-01 2.688488960266113281e-01 2.352441400289535522e-01 -4.213377535343170166e-01 7.339523434638977051e-01 -4.307787399739027023e-03 -4.181553721427917480e-01 5.128617286682128906e-01 2.564100027084350586e-01 -3.770854771137237549e-01 -4.976301640272140503e-02 -3.093858361244201660e-01 -9.488508850336074829e-02 8.065728470683097839e-03 -2.804820835590362549e-01 6.034858226776123047e-01 -7.860913276672363281e-01 4.906497895717620850e-01 2.966405749320983887e-01 -1.224421337246894836e-01 -5.945585370063781738e-01 -2.173465639352798462e-01 -2.720426917076110840e-01 -1.093686446547508240e-01 3.310813605785369873e-01 6.578174829483032227e-01 7.317441105842590332e-01 2.692631445825099945e-02 -2.123936265707015991e-01 -2.394655533134937286e-02 8.451553434133529663e-02 -8.491625189781188965e-01 -5.012325048446655273e-01 -3.637395799160003662e-02 8.592052459716796875e-01 -7.644827961921691895e-01 -5.318201705813407898e-02 -2.620384097099304199e-01 -7.535755634307861328e-02 -6.192981600761413574e-01 4.311614930629730225e-01 3.389576375484466553e-01 -2.090014964342117310e-01 3.109438344836235046e-02 -8.863020688295364380e-02 1.233794316649436951e-01 2.616956830024719238e-01 1.831621974706649780e-01 -6.763534545898437500e-01 6.689116358757019043e-02 1.014538407325744629e+00 4.410964548587799072e-01 5.944931507110595703e-02 -2.890270352363586426e-01 -6.301258802413940430e-01 3.303677141666412354e-01 3.466784656047821045e-01 9.172030091285705566e-01 3.071146644651889801e-02 -3.676955103874206543e-01 -4.314860999584197998e-01 1.846521347761154175e-01 1.058636233210563660e-01 8.757175803184509277e-01 -4.875988140702247620e-02 5.750060454010963440e-02 4.836951494216918945e-01 1.077368184924125671e-01 -1.681712716817855835e-01 1.130408942699432373e-01 5.664247274398803711e-01 -7.504703998565673828e-01 4.076019823551177979e-01 -3.531988859176635742e-01 -7.519122958183288574e-02 -1.382501721382141113e-01 -1.790496855974197388e-01 3.688567876815795898e-01 1.084381937980651855e-01 -4.390951097011566162e-01 2.124281078577041626e-01 1.516670361161231995e-02 6.247103214263916016e-01 -2.041344493627548218e-01 -9.597167372703552246e-02 -3.105602860450744629e-01 -2.349571734666824341e-01 4.873947240412235260e-03 3.604224622249603271e-01 2.889232337474822998e-01 -8.269936442375183105e-01 2.823255062103271484e-01 1.735816150903701782e-01 -5.960229635238647461e-01 -3.809701800346374512e-01 2.929225564002990723e-01 -7.837326079607009888e-02 1.772174239158630371e-01 3.538299202919006348e-01 2.212167531251907349e-01 1.636755764484405518e-01 1.044938638806343079e-01 1.988561153411865234e-01 -1.281432807445526123e-01 2.359950989484786987e-01 1.126485839486122131e-01 6.961218267679214478e-02 -6.471387576311826706e-03 -1.254965364933013916e-01 -6.263980269432067871e-02 2.716006338596343994e-01 -8.526489138603210449e-01 -8.305105566978454590e-02 -4.758490622043609619e-01 -1.522993594408035278e-01 5.039570331573486328e-01 1.215874701738357544e-01 -1.891814470291137695e-01 4.158753752708435059e-01 3.505938500165939331e-02 -6.596589684486389160e-01 -6.967457532882690430e-01 1.632995456457138062e-01 -2.690573930740356445e-01 -3.125060498714447021e-01 2.548280656337738037e-01 -1.022076681256294250e-01 -2.112666815519332886e-01 3.245013952255249023e-01 4.687289893627166748e-01 -2.324137538671493530e-01 -2.368966676294803619e-02 4.822499752044677734e-01 2.065671980381011963e-02 1.803705841302871704e-01 -3.209426403045654297e-01 1.355311274528503418e-01 -7.765970826148986816e-01 2.546438947319984436e-02 3.396724462509155273e-01 -1.377441883087158203e-01 3.310267925262451172e-01 -3.682862818241119385e-01 -9.028206467628479004e-01 -5.042583346366882324e-01 4.239756464958190918e-01 -3.542027473449707031e-01 -1.617168337106704712e-01 1.006081223487854004e+00 -3.310076296329498291e-01 -5.283315777778625488e-01 9.215561151504516602e-01 -4.929843842983245850e-01 -3.233828544616699219e-01 -4.252452850341796875e-01 -3.669046461582183838e-01 -8.387044072151184082e-03 1.059014797210693359e-01 5.263571143150329590e-01 -3.784541785717010498e-01 -5.373076796531677246e-01 -5.514761805534362793e-01 1.732078194618225098e-01 -6.447671353816986084e-02 4.640380144119262695e-01 5.351996794342994690e-02 -1.217660754919052124e-01 -1.613408625125885010e-01 -2.818146646022796631e-01 3.760689795017242432e-01 -6.561911664903163910e-03 -1.346234232187271118e-02 -6.789481639862060547e-01 2.568552494049072266e-01 7.665590196847915649e-02 2.332515418529510498e-01 -5.474961996078491211e-01 -2.110768482089042664e-02 -2.202927917242050171e-01 6.912029385566711426e-01 -4.407554864883422852e-01 6.760191172361373901e-02 -1.842989027500152588e-01 -7.539477944374084473e-01 -3.238859176635742188e-01 2.978451922535896301e-02 -4.136198386549949646e-02 -4.855926930904388428e-01 1.310244053602218628e-01 -1.755926012992858887e-01 -5.671089887619018555e-01 -7.019462585449218750e-01 -7.171252965927124023e-01 -1.698880046606063843e-01 2.196937650442123413e-01 8.987940847873687744e-02 6.770420074462890625e-01 -1.636029183864593506e-01 -1.108771841973066330e-02 -3.449490964412689209e-01 -3.690629601478576660e-01 -1.077634915709495544e-01 -5.808811187744140625e-01 -5.150405764579772949e-01 9.238903224468231201e-02 4.271237850189208984e-01 -4.843527078628540039e-01 -6.026473045349121094e-01 7.848095893859863281e-01 -5.540694296360015869e-02 3.244684636592864990e-01 6.139992922544479370e-02 4.792807698249816895e-01 -1.685354560613632202e-01 1.691031083464622498e-02 2.513423934578895569e-02 -4.580742120742797852e-01 2.469298541545867920e-01 5.684275925159454346e-02 6.455575227737426758e-01 -1.955571621656417847e-01 -2.366291731595993042e-02 8.612242341041564941e-02 -5.241989716887474060e-02 -6.838684678077697754e-01 4.944220930337905884e-02 -7.565972954034805298e-02 -8.206385970115661621e-01 1.701368689537048340e-01 -4.710937738418579102e-01 -3.653941676020622253e-02 3.735203295946121216e-02 -2.087686955928802490e-01 -3.630667626857757568e-01 -5.766823291778564453e-01 -8.215763568878173828e-01 -2.306642830371856689e-01 -4.285082817077636719e-01 -1.122098714113235474e-01 2.802033424377441406e-01 -2.376064658164978027e-01 -3.321074247360229492e-01 1.047775032930076122e-03 1.700673699378967285e-01 7.618264555931091309e-01 -1.035600066184997559e+00 -7.791261076927185059e-01 7.805771827697753906e-01 2.014967352151870728e-01 -6.405311822891235352e-01 1.139883399009704590e+00 -9.948455542325973511e-02 -6.422898918390274048e-02 4.124563634395599365e-01 -3.003242909908294678e-01 -2.191237509250640869e-01 5.464525222778320312e-01 -1.287144869565963745e-01 6.841226816177368164e-01 1.225443705916404724e-01 -6.392667889595031738e-01 -3.028520345687866211e-01 -7.765632122755050659e-02 -4.422922134399414062e-01 -1.527961045503616333e-01 2.097829282283782959e-01 1.317727267742156982e-01 -6.967856315895915031e-04 9.525447338819503784e-02 6.608278304338455200e-02 3.840890526771545410e-01 -7.555015087127685547e-01 -4.230884611606597900e-01 -2.456481456756591797e-01 1.267720311880111694e-01 -2.986291423439979553e-02 1.264987885951995850e-01 -1.675615087151527405e-02 -5.333501696586608887e-01 -2.054041028022766113e-01 -4.436896145343780518e-01 -2.484203726053237915e-01 1.623899042606353760e-01 -7.539910078048706055e-01 1.854083836078643799e-01 4.348986148834228516e-01 -6.951945424079895020e-01 -2.027333378791809082e-01 4.093859717249870300e-02 -3.549633026123046875e-01 -5.460537075996398926e-01 3.076332211494445801e-01 -6.304006278514862061e-02 2.527536824345588684e-02 -2.113639265298843384e-01 -1.029520183801651001e-01 1.816902011632919312e-01 -4.728398099541664124e-02 2.359733283519744873e-01 1.068356111645698547e-01 -7.527932524681091309e-01 -6.271563470363616943e-02 7.290484905242919922e-01 -2.843488007783889771e-02 4.785676673054695129e-02 6.101796030998229980e-01 2.498615533113479614e-01 8.784856200218200684e-01 1.954119205474853516e-01 -2.735037803649902344e-01 -1.653091609477996826e-01 2.558363676071166992e-01 -2.537277042865753174e-01 2.426721900701522827e-01 -5.059852600097656250e-01 2.939786314964294434e-01 4.249247610569000244e-01 -2.426318079233169556e-01 -5.790175497531890869e-02 2.344659715890884399e-01 -3.654120266437530518e-01 3.726693689823150635e-01 -7.002047300338745117e-01 -8.576779812574386597e-02 -8.909939527511596680e-01 -6.442006230354309082e-01 3.463420644402503967e-02 9.676939994096755981e-02 1.652731746435165405e-01 -4.078232944011688232e-01 -1.243254244327545166e-01 2.309030294418334961e-01 3.890303075313568115e-01 2.843892574310302734e-01 -1.107374429702758789e-01 2.103297412395477295e-01 4.618875682353973389e-01 1.869796514511108398e-01 -1.267062127590179443e-01 -3.099601864814758301e-01 -1.791155785322189331e-01 -6.245105341076850891e-02 -5.392921566963195801e-01 1.946737319231033325e-01 5.988491177558898926e-01 -5.072806477546691895e-01 -8.129148185253143311e-02 1.681813299655914307e-01 7.292478531599044800e-02 8.225857466459274292e-02 2.849455773830413818e-01 -2.953156530857086182e-01 -3.244943618774414062e-01 -5.140663683414459229e-02 2.557180821895599365e-01 3.356500267982482910e-01 -4.590797722339630127e-01 2.791630327701568604e-01 5.048425868153572083e-02 -4.411391913890838623e-01 -9.370018839836120605e-01 -5.632953718304634094e-02 3.704559504985809326e-01 -3.952670469880104065e-02 3.264679610729217529e-01 -1.451715379953384399e-01 -5.455924272537231445e-01 -8.061291277408599854e-02 -2.579492926597595215e-01 7.013759016990661621e-01 -7.863346338272094727e-01 -3.436330258846282959e-01 1.909794062376022339e-01 3.334678709506988525e-01 1.974220722913742065e-01 5.246341824531555176e-01 1.198562458157539368e-01 5.165241658687591553e-02 -5.947442650794982910e-01 -8.835967630147933960e-02 -2.302709519863128662e-01 4.472993910312652588e-01 -1.073233559727668762e-01 -2.006077021360397339e-02 3.760694861412048340e-01 -6.463507562875747681e-02 -4.613191187381744385e-01 -5.102108120918273926e-01 3.764707446098327637e-01 1.051578879356384277e+00 -2.712404727935791016e-01 -9.826321154832839966e-02 -3.014904558658599854e-01 1.268280148506164551e-01 -3.008125126361846924e-01 -4.366634786128997803e-02 4.356426373124122620e-02 -4.198401570320129395e-01 9.300173819065093994e-02 1.106842637062072754e+00 2.309685014188289642e-02 1.456784456968307495e-01 -1.415966451168060303e-01 2.066102772951126099e-01 -3.570034801959991455e-01 1.146580930799245834e-02 2.906773090362548828e-01 7.343223690986633301e-02 3.488744795322418213e-01 -9.611714631319046021e-02 -1.450067162513732910e-01 -4.258779883384704590e-01 2.387039661407470703e-01 -2.751190364360809326e-01 1.570452898740768433e-01 -1.308974981307983398e+00 2.764321863651275635e-01 -3.517533540725708008e-01 -1.237084791064262390e-01 -1.298632919788360596e-01 6.892501711845397949e-01 2.991161048412322998e-01 -3.927202820777893066e-01 3.087067306041717529e-01 -2.398023903369903564e-01 -3.624226152896881104e-01 3.569376468658447266e-01 3.498817980289459229e-02 2.031804919242858887e-01 -1.242027431726455688e-01 2.944860756397247314e-01 2.647755146026611328e-01 7.010273635387420654e-02 -3.125643134117126465e-01 2.824859879910945892e-02 3.346053510904312134e-02 -4.289914965629577637e-01 -1.660566329956054688e-01 3.233322203159332275e-01 1.586940605193376541e-03 8.593825101852416992e-01 -3.997593373060226440e-02 -8.844737708568572998e-02 6.629900932312011719e-01 1.707746237516403198e-01 9.302793145179748535e-01 -2.466125488281250000e-01 -2.824754221364855766e-03 3.773342072963714600e-01 4.866980612277984619e-01 -3.480812301859259605e-03 -1.060926169157028198e-01 -4.068561494350433350e-01 -3.731000125408172607e-01 4.280763864517211914e-01 -4.154090285301208496e-01 4.992481470108032227e-01 1.321372091770172119e-01 5.542095899581909180e-01 8.219036459922790527e-01 -1.431478857994079590e-01 -6.038266420364379883e-01 1.024951785802841187e-01 -2.695101499557495117e-01 6.919605135917663574e-01 3.472351282835006714e-02 -4.911236464977264404e-02 1.275097846984863281e+00 -6.363652944564819336e-01 -8.935008645057678223e-01 -9.745803475379943848e-02 -4.155412316322326660e-01 5.701449513435363770e-01 1.003553345799446106e-01 2.824099361896514893e-01 -1.491058617830276489e-01 8.568957448005676270e-01 -1.668421328067779541e-01 6.827585101127624512e-01 1.142889186739921570e-01 -7.052920013666152954e-02 1.240470483899116516e-01 1.652832478284835815e-01 2.173472642898559570e-01 -7.882112264633178711e-01 -6.364979147911071777e-01 -2.682017087936401367e-01 -1.810140758752822876e-01 -1.762071847915649414e-01 -4.208081066608428955e-01 3.719497472047805786e-02 -1.343122720718383789e-01 -3.486180007457733154e-01 -2.856547534465789795e-01 -5.534452199935913086e-01 6.146908402442932129e-01 -8.643981218338012695e-01 -1.752272993326187134e-01 1.126661971211433411e-01 -4.657121896743774414e-01 -2.341894954442977905e-01 -6.663462519645690918e-02 4.056670665740966797e-01 6.383534073829650879e-01 -1.014404073357582092e-01 3.761595189571380615e-01 -1.842829585075378418e-01 9.930409491062164307e-02 8.138546347618103027e-02 1.323770284652709961e-01 6.833158731460571289e-01 -2.499838173389434814e-01 -1.179899461567401886e-02 -2.082065492868423462e-01 6.313875317573547363e-01 -2.863429188728332520e-01 4.702725708484649658e-01 4.385973885655403137e-02 6.311190724372863770e-01 2.483051270246505737e-01 2.967370152473449707e-01 -4.927454516291618347e-02 -4.232813715934753418e-01 9.658151865005493164e-02 3.319150954484939575e-02 -3.768612444400787354e-01 -4.679803252220153809e-01 1.290095150470733643e-01 5.252547264099121094e-01 -3.634871840476989746e-01 1.070850789546966553e-01 1.960330307483673096e-01 1.931000500917434692e-01 -4.088006019592285156e-01 -5.925681591033935547e-01 -3.069286048412322998e-01 -2.889379560947418213e-01 -1.354216635227203369e-01 -1.171369031071662903e-01 -3.268590569496154785e-01 -1.016931980848312378e-01 8.336365222930908203e-02 -6.733415722846984863e-01 5.458008125424385071e-02 -4.145111739635467529e-01 -2.907148301601409912e-01 2.278012335300445557e-01 1.340952813625335693e-01 3.078278303146362305e-01 -6.623724102973937988e-01 -3.743222951889038086e-01 4.791497439146041870e-02 -6.689403057098388672e-01 4.949360787868499756e-01 -1.081110090017318726e-01 -2.126252055168151855e-01 -2.108064852654933929e-02 2.739489078521728516e-01 6.900404691696166992e-01 3.978884518146514893e-01 2.838469445705413818e-01 -5.859805345535278320e-01 3.494414687156677246e-01 -5.992650389671325684e-01 -5.217798352241516113e-01 -1.177677363157272339e-01 -5.559093356132507324e-01 -1.297497004270553589e-01 6.686995029449462891e-01 3.162845969200134277e-01 -1.045134782791137695e+00 3.788675665855407715e-01 -8.656222373247146606e-02 -3.165403604507446289e-01 7.994998097419738770e-01 1.216328293085098267e-01 -2.801467776298522949e-01 -5.506460666656494141e-01 1.574942916631698608e-01 -3.061561882495880127e-01 5.864589214324951172e-01 -2.277361601591110229e-01 -6.087011694908142090e-01 8.566310256719589233e-02 3.400156497955322266e-01 1.603095382452011108e-01 7.762020826339721680e-02 1.409751772880554199e-01 -1.834264397621154785e-01 -2.918935418128967285e-01 -1.592558026313781738e-01 7.621932774782180786e-02 3.056356608867645264e-01 -1.350641250610351562e-01 -2.981428503990173340e-01 4.154090285301208496e-01 -8.492406457662582397e-02 -3.872571885585784912e-01 4.380861297249794006e-02 -2.081519551575183868e-02 2.349631041288375854e-01 2.056605517864227295e-01 -5.162116885185241699e-01 -1.232677549123764038e-01 -7.324258089065551758e-01 -3.398327827453613281e-01 -2.810250520706176758e-01 3.992267251014709473e-01 6.002369150519371033e-02 1.869181543588638306e-01 -5.945823788642883301e-01 -2.572784721851348877e-01 7.033413648605346680e-02 2.210277318954467773e-01 -1.183828525245189667e-02 -4.345619678497314453e-01 -2.522602081298828125e-01 5.228267312049865723e-01 1.577048897743225098e-01 -2.814077772200107574e-03 -3.112536668777465820e-01 -7.419930770993232727e-03 -9.652737528085708618e-02 -3.692043721675872803e-01 -8.735208958387374878e-02 -1.432213336229324341e-01 1.166420578956604004e-01 2.647221088409423828e-01 2.354355454444885254e-01 6.905863881111145020e-01 -2.369674444198608398e-01 -3.143473267555236816e-01 6.181312352418899536e-02 2.979409694671630859e-01 -1.110404878854751587e-01 4.078608155250549316e-01 5.594828352332115173e-02 2.712964415550231934e-01 -2.975034713745117188e-01 -2.328997291624546051e-02 -5.740113854408264160e-01 -6.097090244293212891e-01 1.309898197650909424e-01 2.632645964622497559e-01 -3.412023186683654785e-02 3.914107084274291992e-01 4.583737254142761230e-01 7.396662235260009766e-01 7.286260277032852173e-02 2.299366295337677002e-01 5.322333574295043945e-01 -5.363281369209289551e-01 -6.721214652061462402e-01 2.479812204837799072e-01 3.847362473607063293e-02 -2.637337446212768555e-01 4.516842961311340332e-01 -2.408829778432846069e-01 -1.292313486337661743e-01 4.300319254398345947e-01 4.995543360710144043e-01 -4.004761204123497009e-02 2.297419607639312744e-01 3.442907705903053284e-03 -2.827518880367279053e-01 1.449243575334548950e-01 -6.288803815841674805e-01 5.407408475875854492e-01 -4.370566010475158691e-01 -1.544779837131500244e-01 5.388681292533874512e-01 -6.189695000648498535e-02 5.142385959625244141e-01 -2.042730897665023804e-01 -1.143879964947700500e-01 -2.315461188554763794e-01 7.509284187108278275e-03 -3.878721892833709717e-01 -7.905005663633346558e-02 2.063401043415069580e-01 6.187515854835510254e-01 3.856420889496803284e-02 4.796984195709228516e-01 -4.818758070468902588e-01 -7.344502210617065430e-02 1.965052038431167603e-01 -9.018874913454055786e-02 2.780482769012451172e-01 2.895598411560058594e-01 6.844899803400039673e-02 -1.400922387838363647e-01 6.817610561847686768e-02 1.258744001388549805e-01 -3.360750153660774231e-02 -2.619941830635070801e-01 4.691956341266632080e-01 -2.777312397956848145e-01 2.433159649372100830e-01 2.275546491146087646e-01 -4.647235274314880371e-01 1.081951186060905457e-01 5.671941861510276794e-02 2.510621845722198486e-01 2.317608594894409180e-01 1.615579426288604736e-01 5.628888010978698730e-01 2.033999413251876831e-01 -7.744794487953186035e-01 -5.394592508673667908e-02 6.328818798065185547e-01 7.016557455062866211e-02 1.257521063089370728e-01 1.036520227789878845e-01 -1.281971335411071777e-01 2.293542474508285522e-01 3.487828969955444336e-01 -1.041215181350708008e+00 2.209587097167968750e-01 -1.060188338160514832e-01 -2.192154377698898315e-01 6.637051701545715332e-01 -4.507974684238433838e-01 -1.012183502316474915e-01 1.836410462856292725e-01 -3.524655699729919434e-01 -8.782988041639328003e-02 5.729973912239074707e-01 2.874592542648315430e-01 2.023235261440277100e-01 3.037119098007678986e-02 3.224976956844329834e-01 6.212112903594970703e-01 3.969028592109680176e-01 2.056210041046142578e-01 -4.450131952762603760e-01 -7.064211964607238770e-01 6.020544767379760742e-01 -5.748529359698295593e-02 9.192512184381484985e-02 5.579618215560913086e-01 -4.093768894672393799e-01 1.233146861195564270e-01 1.427590548992156982e-01 5.606235936284065247e-02 -3.588979244232177734e-01 5.176636576652526855e-02 1.805596351623535156e-01 5.883576273918151855e-01 8.700917661190032959e-02 4.778240025043487549e-01 -3.551369160413742065e-02 3.180346190929412842e-01 2.196351587772369385e-01 3.790740370750427246e-01 -3.540022969245910645e-01 -4.579483866691589355e-01 -4.916507005691528320e-01 3.621090352535247803e-01 -1.105060148984193802e-02 5.759087204933166504e-01 5.422629117965698242e-01 -4.464155733585357666e-01 -3.222998678684234619e-01 1.019492372870445251e-01 2.334980070590972900e-01 -3.803383409976959229e-01 -1.997462846338748932e-02 6.274504959583282471e-02 -1.486332267522811890e-01 1.605652123689651489e-01 4.111747816205024719e-02 -2.187835723161697388e-01 -9.560595499351620674e-04 -2.795709967613220215e-01 -4.324329197406768799e-01 1.932332068681716919e-01 -1.385845988988876343e-02 -2.126330882310867310e-01 1.989968270063400269e-01 2.489447593688964844e-01 -4.851922690868377686e-01 5.822888612747192383e-01 6.369574368000030518e-02 5.622075200080871582e-01 6.596822738647460938e-01 4.514926075935363770e-01 6.012228131294250488e-01 1.233498677611351013e-01 -1.075846076011657715e+00 5.143320560455322266e-01 1.147137135267257690e-01 -1.039014607667922974e-01 2.570304870605468750e-01 2.317791879177093506e-01 -5.982011556625366211e-01 -2.628564238548278809e-01 -8.522212505340576172e-02 2.817614674568176270e-01 -1.759646274149417877e-02 6.999726407229900360e-03 -6.616992503404617310e-02 -2.134854719042778015e-02 4.614239633083343506e-01 -5.566417798399925232e-02 -1.188959479331970215e-01 2.040941864252090454e-01 -4.330244064331054688e-01 -8.355935811996459961e-01 -5.904862880706787109e-01 8.198115229606628418e-01 -2.283039540052413940e-01 -5.504741519689559937e-02 -1.046895503997802734e+00 -1.807414889335632324e-01 2.706056535243988037e-01 -5.325836539268493652e-01 1.328303068876266479e-01 -6.060613393783569336e-01 -1.539748162031173706e-01 -1.319703459739685059e-01 -2.667335271835327148e-01 -9.709513187408447266e-02 -2.390475571155548096e-01 5.634209886193275452e-02 5.923477001488208771e-04 9.312920272350311279e-02 -3.332070708274841309e-01 -1.353025287389755249e-01 2.919574081897735596e-01 2.636129260063171387e-01 -2.111986838281154633e-02 2.408201992511749268e-01 -2.694199085235595703e-01 -2.040574401617050171e-01 2.073003053665161133e-01 3.527522459626197815e-02 -1.929058283567428589e-01 -4.207635298371315002e-03 -6.499589085578918457e-01 2.351945042610168457e-01 -1.465264521539211273e-02 1.076071187853813171e-01 -5.977345108985900879e-01 -3.385647386312484741e-02 1.121383011341094971e-01 -2.206167280673980713e-01 -1.898655742406845093e-01 2.240317910909652710e-01 -2.608580887317657471e-01 1.234624981880187988e-01 -8.998749852180480957e-01 -7.788010686635971069e-02 -3.558840155601501465e-01 -3.712138831615447998e-01 -2.739324793219566345e-02 -3.073418885469436646e-02 -5.568033829331398010e-02 7.212902307510375977e-01 2.468885183334350586e-01 2.102110683917999268e-01 2.375940084457397461e-01 -1.626313805580139160e+00 -4.379887282848358154e-01 -2.628834545612335205e-01 1.958264559507369995e-01 -9.570257067680358887e-01 -5.152205228805541992e-01 -4.613681733608245850e-01 7.267829179763793945e-01 2.431022375822067261e-01 -6.029790043830871582e-01 2.255163341760635376e-01 -6.467530727386474609e-01 1.393584161996841431e-01 1.086724549531936646e-01 -1.431851029396057129e+00 -4.701291918754577637e-01 -6.923291832208633423e-02 1.795992255210876465e-01 -5.721048116683959961e-01 -4.696174263954162598e-01 -2.167121767997741699e-01 -3.629085123538970947e-01 4.348670542240142822e-01 4.804716110229492188e-01 4.672289267182350159e-02 5.141000151634216309e-01 -3.093609213829040527e-01 -3.297171592712402344e-01 8.012685179710388184e-01 -4.551934897899627686e-01 2.559513449668884277e-01 2.442736476659774780e-01 4.017491340637207031e-01 -2.157365977764129639e-01 6.736180186271667480e-01 -3.568165004253387451e-01 8.257530927658081055e-01 -1.924064569175243378e-02 -3.012348413467407227e-01 1.401468813419342041e-01 -5.821516513824462891e-01 -1.348256617784500122e-01 -7.490448188036680222e-03 -4.948788881301879883e-01 2.102060168981552124e-01 4.326238930225372314e-01 -2.667886316776275635e-01 -2.096176892518997192e-01 -1.583261042833328247e-01 -3.525410890579223633e-01 -3.448907434940338135e-01 -1.152584776282310486e-01 -3.300420343875885010e-01 -6.969083100557327271e-02 1.845822632312774658e-01 1.243435218930244446e-01 -4.617691934108734131e-01 1.727278679609298706e-01 -2.487926185131072998e-01 6.191788241267204285e-03 -1.483325213193893433e-01 3.539790213108062744e-02 5.473108887672424316e-01 -1.145935058593750000e-01 -9.764567017555236816e-02 5.486525893211364746e-01 -7.197412252426147461e-01 -1.643263548612594604e-01 5.451907515525817871e-01 7.055204510688781738e-01 3.251391649246215820e-01 -3.277769386768341064e-01 2.256444692611694336e-01 -3.647739887237548828e-01 7.846673130989074707e-01 -4.840311110019683838e-01 9.394395351409912109e-02 1.458002477884292603e-01 -8.736844658851623535e-01 -3.516113162040710449e-01 6.557884812355041504e-01 -5.012910962104797363e-01 -1.575180911459028721e-03 -8.245970308780670166e-02 5.698438882827758789e-01 -2.413024008274078369e-01 -6.115521788597106934e-01 5.587501525878906250e-01 2.823613286018371582e-01 -2.245633155107498169e-01 -2.227389365434646606e-01 -5.105136632919311523e-01 1.730867475271224976e-02 2.948073446750640869e-01 6.096097230911254883e-01 -2.642464041709899902e-01 -9.543583542108535767e-02 4.195607304573059082e-01 1.061857715249061584e-01 4.077741503715515137e-01 8.994860202074050903e-02 -4.730701446533203125e-01 -3.077679872512817383e-01 2.026536613702774048e-01 4.514444470405578613e-01 -6.131067276000976562e-01 -2.415406405925750732e-01 -5.243760943412780762e-01 -1.629521548748016357e-01 4.107939600944519043e-01 -4.336169734597206116e-02 9.904153347015380859e-01 -9.776978939771652222e-02 8.391218632459640503e-02 -3.264295458793640137e-01 5.610046535730361938e-02 3.851117491722106934e-01 2.805833220481872559e-01 1.339132189750671387e-01 5.163224339485168457e-01 3.715149164199829102e-01 -2.685070633888244629e-01 -7.927651405334472656e-01 4.328205287456512451e-01 2.247281223535537720e-01 1.714906692504882812e-01 -9.471860527992248535e-01 -2.160666733980178833e-01 -3.805824518203735352e-01 2.447201013565063477e-01 7.898589968681335449e-02 2.407637387514114380e-01 -4.132051169872283936e-01 6.809006333351135254e-01 7.953928709030151367e-01 -5.424420237541198730e-01 -6.961741298437118530e-02 -3.839034438133239746e-01 4.040526598691940308e-02 -3.252802789211273193e-01 7.062891721725463867e-01 4.088739454746246338e-01 -2.454932928085327148e-01 6.346422433853149414e-02 -5.241338014602661133e-01 -6.952884793281555176e-02 -5.217013955116271973e-01 -4.003506600856781006e-01 -1.145551502704620361e-01 4.913195073604583740e-01 -5.160852074623107910e-01 -7.013784646987915039e-01 -3.390110433101654053e-01 -5.470600128173828125e-01 7.994016408920288086e-01 2.048308849334716797e-01 -6.379391998052597046e-02 9.499981254339218140e-02 9.397989511489868164e-02 -2.574960887432098389e-01 -2.778202295303344727e-01 -8.553376048803329468e-02 -1.792542189359664917e-01 2.046824246644973755e-01 5.710806250572204590e-01 -7.208082079887390137e-01 -1.686703711748123169e-01 1.302464157342910767e-01 2.785531878471374512e-01 -5.921254158020019531e-01 2.616472542285919189e-01 -4.315791428089141846e-01 9.562761336565017700e-02 9.672540426254272461e-02 -3.056767880916595459e-01 -2.010422945022583008e-02 1.071208357810974121e+00 -3.664397597312927246e-01 1.288290619850158691e-01 1.620921343564987183e-01 8.580780029296875000e-01 -6.407295465469360352e-01 -5.264986157417297363e-01 2.386048138141632080e-01 3.961360156536102295e-01 4.159432053565979004e-01 -1.268813163042068481e-01 3.479928374290466309e-01 1.419034898281097412e-01 -3.336877822875976562e-01 -4.950439631938934326e-01 7.546141743659973145e-02 7.537172436714172363e-01 -6.063383817672729492e-02 -4.843754172325134277e-01 3.138217329978942871e-01 -2.462102323770523071e-01 5.543348789215087891e-01 3.367693349719047546e-02 -1.552829146385192871e-01 -1.073678210377693176e-01 -2.941369116306304932e-01 -3.509107232093811035e-01 2.562886178493499756e-01 -2.254752814769744873e-01 -1.422463059425354004e-01 1.179875135421752930e-01 1.815059483051300049e-01 2.462707310914993286e-01 -2.002073228359222412e-01 -5.604695677757263184e-01 -3.109047710895538330e-01 5.872289538383483887e-01 -5.992991849780082703e-03 1.594423502683639526e-01 -1.359501034021377563e-01 -8.085250854492187500e-01 4.291814565658569336e-01 -2.808738946914672852e-01 -1.251470148563385010e-01 -1.027721539139747620e-01 -2.975154221057891846e-01 7.356497645378112793e-02 2.742290869355201721e-02 3.984473943710327148e-01 -1.335833072662353516e-01 -2.144324779510498047e-01 7.156384587287902832e-01 1.489148885011672974e-01 -3.687381744384765625e-01 2.640075385570526123e-01 -3.152765706181526184e-02 1.906853616237640381e-01 6.453410536050796509e-02 2.199231982231140137e-01 -4.386644661426544189e-01 -1.587583683431148529e-02 -1.520598232746124268e-01 6.917440891265869141e-01 -1.011864561587572098e-02 1.075786575675010681e-01 -4.006405174732208252e-01 2.617072463035583496e-01 7.698677182197570801e-01 -2.990756928920745850e-01 -1.743654310703277588e-01 1.586730182170867920e-01 -2.563600838184356689e-01 -3.402790725231170654e-01 -1.790072619915008545e-01 -1.276528388261795044e-01 -8.293846994638442993e-02 -4.018670916557312012e-01 2.905256450176239014e-01 -3.225183784961700439e-01 -3.065379261970520020e-01 1.053358241915702820e-01 -3.479019105434417725e-01 -4.992164671421051025e-01 1.701342016458511353e-01 1.802666783332824707e-01 -6.810731887817382812e-01 5.239977836608886719e-01 2.405985295772552490e-01 -3.121701180934906006e-01 1.367535889148712158e-01 1.241367403417825699e-02 -1.930199861526489258e-01 -2.572520673274993896e-01 7.021261006593704224e-02 -5.465080589056015015e-02 -1.380208581686019897e-01 -2.625833749771118164e-01 -5.316475406289100647e-02 5.414135456085205078e-01 -5.723443627357482910e-01 4.976842701435089111e-01 1.409033779054880142e-02 3.674521669745445251e-02 -4.480677843093872070e-01 1.179166063666343689e-01 -7.223221063613891602e-01 -5.211222171783447266e-01 -2.065553963184356689e-01 -3.965074419975280762e-01 8.539406657218933105e-01 -9.419085830450057983e-02 2.475206404924392700e-01 1.560420095920562744e-01 -4.522470831871032715e-01 -4.750940501689910889e-01 -1.760587990283966064e-01 -1.267433017492294312e-01 7.158225178718566895e-01 -1.119871258735656738e+00 8.809027820825576782e-02 1.514423489570617676e-01 3.708531260490417480e-01 4.163198918104171753e-02 2.535139322280883789e-01 5.541881322860717773e-01 -1.913575828075408936e-01 3.589754700660705566e-01 -1.521229594945907593e-01 -6.693525705486536026e-03 -6.054701805114746094e-01 -2.726342342793941498e-02 2.928457856178283691e-01 1.889556199312210083e-01 4.423401504755020142e-02 -2.247694134712219238e-01 -2.836936414241790771e-01 5.310505628585815430e-01 2.448326647281646729e-01 4.882320463657379150e-01 -9.115610122680664062e-01 -8.148565143346786499e-02 -9.669868648052215576e-02 5.526815652847290039e-01 -3.491880744695663452e-02 -1.749377325177192688e-02 -2.307406812906265259e-02 4.525594115257263184e-01 -1.813484542071819305e-02 7.182972878217697144e-02 4.866808354854583740e-01 -4.476101994514465332e-01 9.290179610252380371e-01 2.506659626960754395e-01 -4.973627030849456787e-01 4.306225478649139404e-02 1.880184002220630646e-02 4.203662574291229248e-01 -1.832928657531738281e-01 -8.108329772949218750e-01 -6.113002300262451172e-01 -1.287843883037567139e-01 -9.343050420284271240e-02 -3.233246505260467529e-02 -5.260067582130432129e-01 3.901720792055130005e-02 -8.012101650238037109e-01 6.400066614151000977e-01 7.617505267262458801e-03 3.342139720916748047e-01 5.534453392028808594e-01 3.272278606891632080e-01 5.671632885932922363e-01 6.513439118862152100e-02 8.973226696252822876e-02 -1.543556898832321167e-01 -4.452553391456604004e-02 6.592955589294433594e-01 -2.852737307548522949e-01 -4.479272067546844482e-01 7.575476765632629395e-01 6.104679703712463379e-01 1.411687284708023071e-01 3.545578718185424805e-01 5.290056467056274414e-01 -1.636894196271896362e-01 3.027790784835815430e-01 -1.216483041644096375e-01 1.838637590408325195e-01 6.537394970655441284e-02 -4.023380279541015625e-01 -6.160671114921569824e-01 -3.251557946205139160e-01 8.335866034030914307e-02 6.046390533447265625e-01 -5.444037318229675293e-01 8.107429742813110352e-01 -1.070565804839134216e-01 1.644254475831985474e-01 9.723815321922302246e-01 -1.723841726779937744e-01 -1.541758030652999878e-01 -7.283501327037811279e-02 -2.892037108540534973e-02 2.078292518854141235e-01 4.214353859424591064e-01 -1.843764632940292358e-01 5.956019759178161621e-01 -6.533967703580856323e-02 1.613442003726959229e-01 2.755012810230255127e-01 8.933965116739273071e-03 -1.734380573034286499e-01 -5.664892122149467468e-02 -4.784945398569107056e-02 -4.338423311710357666e-01 -1.517861187458038330e-01 5.773574709892272949e-01 -1.912185400724411011e-01 -1.201653555035591125e-01 -3.335488438606262207e-01 -8.461022973060607910e-01 -5.446696281433105469e-01 -1.076820373535156250e+00 -1.252164877951145172e-02 -5.141993165016174316e-01 -5.666037201881408691e-01 2.430927157402038574e-01 1.995640061795711517e-02 1.388256102800369263e-01 -2.417360991239547729e-01 -4.586114883422851562e-01 -1.934555321931838989e-01 -5.506290793418884277e-01 6.258919239044189453e-01 6.012586355209350586e-01 5.653948187828063965e-01 -3.768897652626037598e-01 -3.095043003559112549e-01 1.672310829162597656e-01 2.391088604927062988e-01 5.619111657142639160e-01 -1.576675474643707275e-01 -3.051720261573791504e-01 -3.770180940628051758e-01 -2.833090424537658691e-01 -4.155173599720001221e-01 5.252573490142822266e-01 -5.268818885087966919e-02 -8.248542994260787964e-02 -5.101992562413215637e-02 -7.272955179214477539e-01 8.010159134864807129e-01 4.191100597381591797e-01 -2.091878801584243774e-01 9.544130414724349976e-02 1.728745549917221069e-01 2.257689088582992554e-01 3.051238656044006348e-01 1.558695137500762939e-01 2.250831723213195801e-01 4.507191777229309082e-01 4.114824533462524414e-01 -4.316504895687103271e-01 -4.637194275856018066e-01 1.203540060669183731e-02 -4.427007734775543213e-01 -4.207719862461090088e-01 3.610017597675323486e-01 3.958255350589752197e-01 -2.434096485376358032e-01 4.004428982734680176e-01 2.225182950496673584e-01 -5.279906392097473145e-01 -1.009651660919189453e+00 5.009574815630912781e-02 -7.575809359550476074e-01 -2.792732119560241699e-01 2.907472252845764160e-01 3.382068872451782227e-01 -6.757417321205139160e-02 8.353241086006164551e-01 4.040362536907196045e-01 -8.700612932443618774e-02 2.016376703977584839e-01 -1.018787547945976257e-01 -5.711286514997482300e-02 3.491916656494140625e-01 2.646857202053070068e-01 1.626625843346118927e-02 3.191149234771728516e-01 4.932625293731689453e-01 7.858561873435974121e-01 3.157286345958709717e-01 -2.116640508174896240e-01 2.828429453074932098e-03 -2.009754776954650879e-01 -4.866294562816619873e-01 -4.308062493801116943e-01 -1.462012082338333130e-01 -3.056515753269195557e-01 2.164625376462936401e-01 2.695086598396301270e-01 3.770588040351867676e-01 -1.189898103475570679e-01 -5.015554428100585938e-01 -7.904973030090332031e-01 -2.110476344823837280e-01 -3.550026118755340576e-01 -9.632123708724975586e-01 4.837773367762565613e-02 2.196725690737366676e-03 -2.048867940902709961e-01 -4.773531854152679443e-01 8.502616882324218750e-01 1.119578406214714050e-01 2.205264270305633545e-01 9.963066130876541138e-02 -4.674846827983856201e-01 2.516111731529235840e-01 1.427155494689941406e+00 5.079590082168579102e-01 3.744798600673675537e-01 -1.822650581598281860e-01 4.415031969547271729e-01 -3.717982769012451172e-01 -2.005717903375625610e-01 2.782573103904724121e-01 -6.382120400667190552e-02 2.305341660976409912e-01 -2.542724460363388062e-02 3.545904457569122314e-01 8.580083250999450684e-01 -1.279838290065526962e-02 3.048238456249237061e-01 4.664185643196105957e-02 1.729497909545898438e-01 6.238392367959022522e-02 4.210889637470245361e-01 -4.623523652553558350e-01 4.209284186363220215e-01 6.415595412254333496e-01 5.292914509773254395e-01 7.854681611061096191e-01 8.465351164340972900e-02 3.336550295352935791e-01 5.876216664910316467e-02 -1.752574741840362549e-01 6.814439594745635986e-02 -7.367723621428012848e-03 -1.106723863631486893e-02 -3.082651197910308838e-01 3.640146255493164062e-01 -3.787317574024200439e-01 -3.144950568675994873e-01 -5.427736416459083557e-02 -6.145648956298828125e-01 -4.646626859903335571e-02 -2.491611093282699585e-01 -2.497259080410003662e-01 1.367856562137603760e-01 2.010961025953292847e-01 2.101756632328033447e-01 -5.208712220191955566e-01 -1.849391758441925049e-01 -4.901891946792602539e-02 1.431476324796676636e-01 1.542508900165557861e-01 -1.540391594171524048e-01 1.637498587369918823e-01 -1.558121591806411743e-01 8.072357624769210815e-02 3.424592614173889160e-01 3.014809787273406982e-01 -1.247378513216972351e-01 1.915996670722961426e-01 3.952728509902954102e-01 5.368958711624145508e-01 1.799897849559783936e-01 9.566408582031726837e-03 2.625679969787597656e-01 -1.356797479093074799e-02 6.390642374753952026e-02 8.595305681228637695e-02 3.523435816168785095e-02 -1.212493106722831726e-01 -6.762473583221435547e-01 -3.709589540958404541e-01 4.511947929859161377e-01 -5.513298511505126953e-01 1.226270198822021484e-01 9.316961281001567841e-03 -2.836629152297973633e-01 -2.659009099006652832e-01 3.705085217952728271e-01 -3.514708578586578369e-01 -1.239012852311134338e-01 2.769616842269897461e-01 1.366111338138580322e-01 4.382808804512023926e-01 -2.087673097848892212e-01 -3.228794634342193604e-01 3.844267725944519043e-01 -5.021679773926734924e-02 -4.375433325767517090e-01 -5.955693721771240234e-01 5.384799838066101074e-01 2.018525302410125732e-01 -2.076176553964614868e-01 3.188957870006561279e-01 -1.331099271774291992e-01 -4.027285277843475342e-01 -5.666768550872802734e-01 1.144108295440673828e+00 -3.027772605419158936e-01 -3.503506481647491455e-01 4.366220831871032715e-01 1.291996985673904419e-01 -3.900924026966094971e-01 -3.059168756008148193e-01 -6.933091878890991211e-01 -1.584094017744064331e-01 -3.608520030975341797e-01 4.538742899894714355e-01 -4.263852909207344055e-02 -2.646984159946441650e-01 -3.217788338661193848e-01 -4.916948825120925903e-02 8.218613266944885254e-01 3.853746354579925537e-01 3.054002225399017334e-01 -1.408064272254705429e-02 2.475592792034149170e-01 -4.887583255767822266e-01 2.355694472789764404e-01 -3.832389414310455322e-01 3.659723699092864990e-01 -1.307220757007598877e-01 -1.573528349399566650e-02 2.630701065063476562e-01 1.188615709543228149e-01 -1.523134559392929077e-01 2.128054648637771606e-01 -2.285827882587909698e-02 3.160434961318969727e-01 3.625524044036865234e-01 5.361999943852424622e-02 -5.933078527450561523e-01 2.901263833045959473e-01 -2.405158132314682007e-01 -1.304452419281005859e-01 4.164795875549316406e-01 5.202407836914062500e-01 -3.334833681583404541e-02 4.818018898367881775e-02 2.243405729532241821e-01 -4.587420821189880371e-01 -3.183030188083648682e-01 9.431345462799072266e-01 4.776738882064819336e-01 -4.991332292556762695e-01 4.169377684593200684e-01 6.242465227842330933e-02 3.622868359088897705e-01 -2.338230842724442482e-03 -9.613495469093322754e-01 -2.059160470962524414e-01 8.219668269157409668e-02 2.965402007102966309e-01 -9.863796234130859375e-01 2.127812057733535767e-01 -8.102824091911315918e-01 -2.750561237335205078e-01 -4.326703846454620361e-01 -5.446645617485046387e-01 6.129322052001953125e-01 -3.242793083190917969e-01 3.993564546108245850e-01 4.813858568668365479e-01 -9.987352043390274048e-02 2.388452179729938507e-02 -5.638144016265869141e-01 6.161103844642639160e-01 -2.351087033748626709e-01 -3.751721605658531189e-02 3.042879700660705566e-02 -3.192439302802085876e-02 4.927075654268264771e-02 2.528797090053558350e-01 -4.203169941902160645e-01 -2.490272074937820435e-01 5.397071838378906250e-01 -4.510664641857147217e-01 2.900640070438385010e-01 -6.506083905696868896e-02 9.206188842654228210e-03 -1.011398136615753174e-01 2.264437824487686157e-01 4.067388176918029785e-01 -4.769355356693267822e-01 4.555034637451171875e-01 -4.350500404834747314e-01 -3.279476463794708252e-01 4.602992534637451172e-01 1.663455218076705933e-01 4.076426625251770020e-01 3.076076209545135498e-01 -1.581728756427764893e-01 1.439031511545181274e-01 2.208587378263473511e-01 1.636485755443572998e-01 -5.735846161842346191e-01 -4.756085574626922607e-02 -8.537952899932861328e-01 6.342143416404724121e-01 -9.248676300048828125e-01 -4.567676484584808350e-01 -2.766214609146118164e-01 -3.295219242572784424e-01 -1.571607775986194611e-02 1.386476010084152222e-01 -3.493452072143554688e-01 8.676492571830749512e-01 -8.781846165657043457e-01 -2.934649586677551270e-01 -1.761610060930252075e-01 -1.289007663726806641e-01 -1.659150570631027222e-01 6.677319407463073730e-01 -2.587411999702453613e-01 8.549860119819641113e-01 -7.476104497909545898e-01 8.350710570812225342e-02 -1.061172224581241608e-03 -1.565521061420440674e-01 3.112866356968879700e-02 2.981789112091064453e-01 -7.938879728317260742e-01 2.832915782928466797e-01 -4.992925226688385010e-01 -6.354026794433593750e-01 -8.292019367218017578e-01 -7.826040983200073242e-01 1.709832549095153809e-01 -6.105106696486473083e-02 -7.339871525764465332e-01 -4.781180322170257568e-01 2.063554823398590088e-01 -4.577740654349327087e-02 6.467589735984802246e-01 -5.969158411026000977e-01 6.091058254241943359e-02 1.143119096755981445e+00 2.527213692665100098e-01 -1.499278694391250610e-01 3.794317245483398438e-01 4.926079511642456055e-02 5.578985810279846191e-01 5.287713408470153809e-01 2.791051864624023438e-01 -1.728312969207763672e-01 -5.059258341789245605e-01 5.404034256935119629e-01 3.498045355081558228e-02 -1.449843049049377441e-01 -3.521087467670440674e-01 -5.148009061813354492e-01 -1.511266380548477173e-01 -2.002217471599578857e-01 2.769631743431091309e-01 2.075881659984588623e-01 3.521779775619506836e-01 -3.752424120903015137e-01 2.721130549907684326e-01 7.025348544120788574e-01 2.812151312828063965e-01 -4.147659242153167725e-01 -4.791383445262908936e-02 5.923968553543090820e-01 1.798187792301177979e-01 -9.732037782669067383e-02 -3.810822963714599609e-02 7.914212942123413086e-01 2.646112740039825439e-01 1.873116493225097656e-01 -3.249961435794830322e-01 -5.729771256446838379e-01 -1.186193674802780151e-01 -8.628726005554199219e-03 3.205482661724090576e-01 3.717679083347320557e-01 -6.668756008148193359e-01 2.550174295902252197e-01 -3.791500031948089600e-01 -1.539152264595031738e-01 -1.453875154256820679e-01 -4.308588206768035889e-01 -4.416888058185577393e-01 9.859373420476913452e-02 3.239185512065887451e-01 4.123949632048606873e-02 -5.856721401214599609e-01 3.859595656394958496e-01 1.385356336832046509e-01 -1.827432513236999512e-01 1.482824534177780151e-01 4.252508580684661865e-01 1.419030725955963135e-01 4.616973102092742920e-01 -3.931447491049766541e-02 2.866008281707763672e-01 -5.396332591772079468e-02 -2.292411029338836670e-01 -8.217296004295349121e-01 6.004954501986503601e-02 6.071550846099853516e-01 4.343881607055664062e-01 -2.419329285621643066e-01 -5.298045873641967773e-01 6.640779376029968262e-01 -5.207520443946123123e-03 -2.515135109424591064e-01 -5.806634947657585144e-02 -1.399856060743331909e-01 4.849135279655456543e-01 -2.501562833786010742e-01 -7.334587574005126953e-01 5.839622616767883301e-01 -4.319452345371246338e-01 -5.757893919944763184e-01 -1.901848763227462769e-01 -3.552811741828918457e-01 3.641526773571968079e-02 5.570471286773681641e-02 -1.831324547529220581e-01 1.328697800636291504e-01 -5.941112041473388672e-01 9.570334106683731079e-02 -5.571833252906799316e-01 -2.384136915206909180e-01 -1.403670851141214371e-02 -3.240934610366821289e-01 2.519517242908477783e-01 -4.584462344646453857e-01 -1.822238713502883911e-01 -5.393701791763305664e-01 3.990495800971984863e-01 -2.464854121208190918e-01 1.525077596306800842e-02 -4.210412502288818359e-02 -3.692810535430908203e-01 6.321728974580764771e-02 5.773254483938217163e-02 4.660619199275970459e-01 9.697139263153076172e-01 -3.608132898807525635e-01 -4.522775113582611084e-01 2.247651666402816772e-01 -5.028876066207885742e-01 -1.913935504853725433e-02 1.475271731615066528e-01 -3.155184388160705566e-01 -6.151686906814575195e-01 2.376639097929000854e-01 1.573715955018997192e-01 -3.482585400342941284e-02 2.421635948121547699e-02 1.734022051095962524e-01 -2.601827383041381836e-01 1.889600008726119995e-01 9.881905466318130493e-02 2.614320218563079834e-01 1.449362337589263916e-01 2.945221774280071259e-02 -1.611030101776123047e-01 4.873088300228118896e-01 -1.762261092662811279e-01 -7.165914177894592285e-01 9.063020348548889160e-02 -5.066139698028564453e-01 -7.406479865312576294e-02 2.206425368785858154e-01 9.314288496971130371e-01 -6.202251315116882324e-01 2.538411691784858704e-02 -3.838790357112884521e-01 2.535127699375152588e-01 -3.119505643844604492e-01 3.464016020298004150e-01 3.621929287910461426e-01 -7.944586873054504395e-02 4.745092391967773438e-01 6.140573881566524506e-03 2.868307530879974365e-01 -1.059674192219972610e-02 -4.558857679367065430e-01 -1.308354884386062622e-01 -1.120344698429107666e-01 1.832716166973114014e-01 -1.815221011638641357e-01 -2.414205223321914673e-01 -6.967802643775939941e-01 -2.623947560787200928e-01 4.413192272186279297e-01 5.249708294868469238e-01 -3.231722414493560791e-01 6.791032552719116211e-01 2.582007944583892822e-01 2.455372922122478485e-02 1.354611217975616455e-01 1.636396050453186035e-01 3.958969414234161377e-01 2.333348691463470459e-01 4.219621121883392334e-01 1.458418220281600952e-01 7.972528785467147827e-02 -5.557188391685485840e-01 2.799215912818908691e-01 -2.972512841224670410e-01 5.066367387771606445e-01 2.697708010673522949e-01 3.694713711738586426e-01 -2.837568223476409912e-01 -5.293574556708335876e-02 6.620167940855026245e-02 4.696514308452606201e-01 -3.187669813632965088e-01 -8.211516737937927246e-01 4.880909323692321777e-01 -2.638896107673645020e-01 4.889708161354064941e-01 -1.885364502668380737e-01 -1.054472252726554871e-01 -4.864840954542160034e-02 -2.516676485538482666e-01 -9.523211419582366943e-02 -6.783762574195861816e-01 -5.334714651107788086e-01 5.744925737380981445e-01 -5.857514739036560059e-01 3.460380434989929199e-02 2.836147844791412354e-01 -5.452012419700622559e-01 -2.926961891353130341e-02 -8.226634562015533447e-02 -5.267367362976074219e-01 -8.011965751647949219e-01 2.858035266399383545e-01 1.689433865249156952e-02 -2.349236514419317245e-03 4.299239814281463623e-02 -4.240987002849578857e-01 -2.736382186412811279e-01 -1.388752162456512451e-01 1.305715143680572510e-01 1.437668502330780029e-01 -5.563874244689941406e-01 -4.490160942077636719e-01 6.843310594558715820e-01 2.042032033205032349e-01 -1.577289700508117676e-01 1.987202316522598267e-01 -5.190184116363525391e-01 5.336859226226806641e-01 7.612248063087463379e-01 -2.982953190803527832e-01 5.619555711746215820e-01 3.024513721466064453e-01 -4.301561117172241211e-01 -4.737989604473114014e-02 4.662935808300971985e-02 2.626308202743530273e-01 -6.002246737480163574e-01 -8.113352954387664795e-02 -2.200980484485626221e-01 -3.955698013305664062e-01 -6.345509886741638184e-01 -8.773632347583770752e-02 5.375090241432189941e-01 6.112942472100257874e-02 2.355578541755676270e-01 3.549800813198089600e-02 3.866435289382934570e-01 -1.859141886234283447e-01 -2.981388568878173828e-01 -2.667728066444396973e-01 -4.330465793609619141e-01 2.210519611835479736e-01 -9.485598802566528320e-01 -2.141944617033004761e-01 1.874184310436248779e-01 -1.982998847961425781e-01 -5.598123669624328613e-01 3.427316248416900635e-01 8.879239112138748169e-02 2.255697399377822876e-01 -2.094226181507110596e-01 5.152698159217834473e-01 -6.205976009368896484e-01 -6.421994417905807495e-02 -5.885025262832641602e-01 1.835966855287551880e-01 -1.975411176681518555e-01 1.429488658905029297e-01 -6.077821180224418640e-02 -3.855671882629394531e-01 3.695250451564788818e-01 -2.564693987369537354e-01 3.022585809230804443e-01 -8.363881111145019531e-01 -6.675611138343811035e-01 -2.502284944057464600e-01 -6.272620558738708496e-01 -9.245441854000091553e-02 -2.235525287687778473e-03 -1.508849859237670898e-01 -2.040786743164062500e-01 -3.809142708778381348e-01 9.992038458585739136e-02 4.130647778511047363e-01 -1.518232822418212891e-01 -8.716800808906555176e-02 -2.860619723796844482e-01 4.362016618251800537e-01 -4.856552556157112122e-02 -5.110085010528564453e-01 -8.465407788753509521e-02 1.395981013774871826e-01 9.982056170701980591e-02 -5.950569510459899902e-01 -3.985945582389831543e-01 -3.069072030484676361e-02 5.198524594306945801e-01 -1.892343536019325256e-02 -3.000741004943847656e-01 -3.072162270545959473e-01 3.152958452701568604e-01 3.803795278072357178e-01 -2.665023207664489746e-01 -3.149868547916412354e-01 1.484135240316390991e-01 2.131468057632446289e-01 6.638510525226593018e-02 2.813161313533782959e-01 -9.531061649322509766e-01 -6.666446477174758911e-02 -1.910743713378906250e-01 2.930655181407928467e-01 1.459250301122665405e-01 1.304149478673934937e-01 3.654057979583740234e-01 5.972912311553955078e-01 -3.273126482963562012e-01 6.798034906387329102e-02 2.661491632461547852e-01 -2.762225866317749023e-01 -1.512299478054046631e-01 1.522128880023956299e-01 2.170067727565765381e-01 1.896514892578125000e-01 2.838252782821655273e-01 1.263438463211059570e-01 -5.799376964569091797e-01 7.195398807525634766e-01 -2.637679576873779297e-01 -1.115158200263977051e+00 -2.439401596784591675e-01 -4.687390327453613281e-01 4.854246079921722412e-01 -2.049183547496795654e-01 3.620092868804931641e-01 -1.367158889770507812e-01 -2.393473982810974121e-01 -2.213023453950881958e-01 6.836215406656265259e-02 -1.436609327793121338e-01 -7.502400875091552734e-01 2.184824943542480469e-01 -3.974770307540893555e-01 -5.486098676919937134e-02 -3.065052032470703125e-01 -2.644371390342712402e-01 1.300647575408220291e-02 5.731828212738037109e-01 -2.603555321693420410e-01 1.624543517827987671e-01 -6.581392288208007812e-01 2.464942038059234619e-01 -1.276748776435852051e+00 5.427587628364562988e-01 -1.187279745936393738e-01 2.960364222526550293e-01 -1.549799144268035889e-01 4.035154415760189295e-04 -5.012907385826110840e-01 -5.612010359764099121e-01 2.489546388387680054e-01 -2.370920479297637939e-01 -5.438284873962402344e-01 3.876387178897857666e-01 -2.268320024013519287e-01 -3.923042714595794678e-01 6.508177518844604492e-02 1.353430151939392090e-01 8.308030962944030762e-01 -2.121106982231140137e-01 3.767848014831542969e-01 -6.011267304420471191e-01 4.223974049091339111e-01 -2.858409285545349121e-01 -3.932687342166900635e-01 -5.389271676540374756e-02 2.717747688293457031e-01 2.844173312187194824e-01 2.575929164886474609e-01 -1.906642913818359375e-01 -7.852721214294433594e-02 -4.257901906967163086e-01 4.450858831405639648e-01 4.007430374622344971e-01 -2.360506057739257812e-01 -1.577039994299411774e-02 1.531220823526382446e-01 2.571474313735961914e-01 -2.966546416282653809e-01 6.160632148385047913e-02 -5.232273340225219727e-01 4.766163602471351624e-02 4.406541585922241211e-01 2.614239454269409180e-01 4.895721673965454102e-01 -7.871689647436141968e-02 2.454521209001541138e-01 -5.738871097564697266e-01 -2.125971913337707520e-01 4.933244585990905762e-01 -4.020413458347320557e-01 1.987733840942382812e-01 -3.997117280960083008e-01 2.504737675189971924e-01 -1.364051461219787598e+00 2.600388526916503906e-01 -7.505596280097961426e-01 1.432261615991592407e-01 6.221829652786254883e-01 1.197148486971855164e-01 -2.344425171613693237e-01 1.207515075802803040e-01 -4.775207638740539551e-01 5.987032636767253280e-05 -1.750521659851074219e-01 2.411090433597564697e-01 5.427933484315872192e-02 1.242555081844329834e-01 -5.181496739387512207e-01 -1.068591997027397156e-01 -2.828785181045532227e-01 3.071613013744354248e-01 1.788112223148345947e-01 -5.941196903586387634e-02 -4.766952246427536011e-02 -1.051403805613517761e-01 -6.444775462150573730e-01 1.035610511898994446e-01 -8.229498751461505890e-03 1.377853937447071075e-02 -5.884871631860733032e-02 -3.927664160728454590e-01 2.618888020515441895e-01 -5.230478048324584961e-01 -2.605070471763610840e-01 -2.676768004894256592e-01 -3.037794828414916992e-01 1.310054212808609009e-01 -9.961604326963424683e-02 3.514438271522521973e-01 -7.817062735557556152e-01 5.049689412117004395e-01 -2.308825254440307617e-01 1.249087154865264893e-01 -1.141064882278442383e+00 3.306618332862854004e-01 4.663611948490142822e-02 6.529520452022552490e-02 -5.709769725799560547e-01 1.014633402228355408e-01 -2.517585456371307373e-02 -2.888970673084259033e-01 1.147998729720711708e-03 -5.356920957565307617e-01 2.504900097846984863e-01 1.055282473564147949e+00 2.360051572322845459e-01 -1.062619090080261230e-01 -2.149950712919235229e-01 1.852511800825595856e-02 2.859067916870117188e-01 -3.443211913108825684e-01 -7.081495225429534912e-02 -2.508086524903774261e-02 4.109267890453338623e-01 -1.508937031030654907e-01 5.796098113059997559e-01 -4.438738822937011719e-01 2.853516116738319397e-02 -6.703799366950988770e-01 8.753131628036499023e-01 2.016328126192092896e-01 4.416185617446899414e-01 -4.445132911205291748e-01 -1.915696561336517334e-01 -1.074861586093902588e-01 -3.424976766109466553e-01 2.731043696403503418e-01 1.707967668771743774e-01 -7.048733234405517578e-01 -9.527306556701660156e-01 9.746930748224258423e-02 -4.307690560817718506e-01 6.241824105381965637e-02 1.373512148857116699e-01 -1.006289646029472351e-01 3.505593836307525635e-01 -4.175494313240051270e-01 1.377265155315399170e-01 -8.083103299140930176e-01 4.042150974273681641e-01 -1.246070414781570435e-01 1.258673906326293945e+00 -2.224285602569580078e-01 2.431800812482833862e-01 -2.693771719932556152e-01 7.722780704498291016e-01 -1.015790551900863647e-01 -1.914710998535156250e-01 -3.896786272525787354e-02 -2.134861797094345093e-01 7.208442687988281250e-01 1.239808648824691772e-01 1.393905133008956909e-01 -1.028755679726600647e-01 6.362178325653076172e-01 -9.885843396186828613e-01 4.725818634033203125e-01 5.843034014105796814e-02 -6.409948468208312988e-01 -1.935574263334274292e-01 5.576035380363464355e-01 3.643247187137603760e-01 2.094824165105819702e-01 3.121782839298248291e-01 -2.235635668039321899e-01 -3.559133708477020264e-01 -6.389382481575012207e-01 -3.992886748164892197e-03 2.270197123289108276e-01 -4.664830267429351807e-01 -9.411407262086868286e-02 3.936525881290435791e-01 -7.972500286996364594e-03 3.435248509049415588e-02 -5.316855311393737793e-01 -7.228068113327026367e-01 8.012119214981794357e-04 3.330436944961547852e-01 5.331827998161315918e-01 6.431559920310974121e-01 -2.259072959423065186e-01 -8.941724151372909546e-02 -4.088287353515625000e-01 1.423232164233922958e-02 -5.151779204607009888e-02 -1.876494586467742920e-01 4.580723643302917480e-01 -5.461695790290832520e-01 2.334371022880077362e-02 -4.990043938159942627e-01 -1.456001494079828262e-02 5.421210546046495438e-03 -6.337383389472961426e-01 5.932977199554443359e-01 -3.578321933746337891e-01 1.594029739499092102e-02 -2.410293556749820709e-02 -5.375818014144897461e-01 -1.857589334249496460e-01 5.116936936974525452e-02 4.595843553543090820e-01 1.173200532793998718e-01 -1.656519919633865356e-01 1.609547287225723267e-01 -3.756403625011444092e-01 -3.375960886478424072e-01 -2.017857283353805542e-01 3.722004592418670654e-01 -2.073414772748947144e-01 -1.817486584186553955e-01 -2.020229995250701904e-01 -1.108832508325576782e-01 8.814106136560440063e-02 -1.109350845217704773e-01 3.341215550899505615e-01 -2.640781402587890625e-01 8.436750620603561401e-02 2.044584136456251144e-03 -6.590683013200759888e-02 3.707283437252044678e-01 3.797685801982879639e-01 -5.405335426330566406e-01 9.646061658859252930e-01 6.543108820915222168e-02 -5.478690266609191895e-01 -4.618939459323883057e-01 7.303173542022705078e-01 1.175867915153503418e-01 -1.667071431875228882e-01 1.309869140386581421e-01 -1.609791219234466553e-01 -3.963419198989868164e-01 -2.348699271678924561e-01 -2.567646503448486328e-01 -4.963361918926239014e-01 -3.858875036239624023e-01 5.070751905441284180e-01 5.300564318895339966e-02 7.742916941642761230e-01 -1.804672628641128540e-01 -6.039978861808776855e-01 9.997195750474929810e-02 -1.933123450726270676e-03 -3.141549825668334961e-01 1.255797967314720154e-02 -3.497181832790374756e-02 2.726478576660156250e-01 -2.439435422420501709e-01 -1.090565323829650879e-01 5.301527380943298340e-01 -1.171478442847728729e-02 9.725217819213867188e-01 5.324800014495849609e-01 1.939192563295364380e-01 5.319471359252929688e-01 -1.115700840950012207e+00 -2.239532619714736938e-01 4.509877562522888184e-01 -2.068663537502288818e-01 2.244890294969081879e-02 -9.562802501022815704e-03 3.667645454406738281e-01 -2.754266262054443359e-01 -2.204980999231338501e-01 -1.892550736665725708e-01 7.707653641700744629e-01 -1.794025301933288574e-01 2.359232455492019653e-01 -4.223283231258392334e-01 -4.076358675956726074e-01 -6.576530337333679199e-01 -2.099891901016235352e-01 1.847309293225407600e-03 2.812193334102630615e-01 -1.693824678659439087e-01 -1.746641844511032104e-01 6.240672897547483444e-03 1.103622317314147949e-01 3.256351128220558167e-02 3.438819050788879395e-01 -7.792115211486816406e-02 -3.024281263351440430e-01 7.361073046922683716e-02 1.964712888002395630e-01 -1.088822633028030396e-02 -2.316895127296447754e-01 -1.781107485294342041e-01 1.766611784696578979e-01 4.076927900314331055e-01 1.558345705270767212e-01 2.686117589473724365e-01 -9.251201152801513672e-01 -2.381428927183151245e-01 5.949417948722839355e-01 5.210341215133666992e-01 -8.444661498069763184e-01 -2.634656131267547607e-01 4.814109802246093750e-01 -7.229818701744079590e-01 -1.747191548347473145e-01 1.119236946105957031e-01 -2.098683565855026245e-01 -3.242434263229370117e-01 -4.936854243278503418e-01 -3.357339203357696533e-01 -1.436843872070312500e-01 1.130262240767478943e-01 -1.103811264038085938e-01 -6.184473633766174316e-01 -5.580205321311950684e-01 -2.664091885089874268e-01 1.355791557580232620e-02 2.655006349086761475e-01 -3.656548857688903809e-01 2.211485505104064941e-01 -8.654535412788391113e-01 3.655240237712860107e-01 -1.070166155695915222e-01 -4.650281369686126709e-01 -2.073235958814620972e-01 4.526335895061492920e-01 4.964755475521087646e-02 -5.368300080299377441e-01 -2.933593094348907471e-01 -8.401992172002792358e-02 2.157272845506668091e-01 1.602108925580978394e-01 -4.961702525615692139e-01 3.552490472793579102e-01 -7.701577544212341309e-01 3.711343407630920410e-01 -1.351307928562164307e-01 -9.316199272871017456e-02 1.814279109239578247e-01 1.243375539779663086e-01 4.720919430255889893e-01 8.189156651496887207e-02 3.443863689899444580e-01 -3.907590806484222412e-01 -3.443776667118072510e-01 -3.151802718639373779e-01 -3.729540407657623291e-01 -1.241927266120910645e+00 -6.613516807556152344e-01 3.811434209346771240e-01 4.801163971424102783e-01 -2.481031417846679688e-01 1.651610285043716431e-01 -6.235040426254272461e-01 4.943015798926353455e-02 5.326822400093078613e-02 5.634298920631408691e-01 2.060878723859786987e-01 -2.635444402694702148e-01 2.283588200807571411e-01 1.918168514966964722e-01 -4.762903749942779541e-01 -1.280408054590225220e-01 -5.870329588651657104e-02 -1.383039802312850952e-01 -2.207663059234619141e-01 1.963020861148834229e-01 -9.086098521947860718e-03 -6.508886814117431641e-01 2.391973882913589478e-01 -9.460236430168151855e-01 -6.216841563582420349e-02 -5.014677047729492188e-01 -2.664359807968139648e-01 1.057449132204055786e-01 2.435762137174606323e-01 -1.891206949949264526e-01 -8.229110389947891235e-03 3.073273003101348877e-01 -4.131599068641662598e-01 -1.314997114241123199e-02 8.138979226350784302e-02 1.046544075012207031e+00 -5.979518890380859375e-01 -3.985738754272460938e-01 9.716071188449859619e-02 3.103208243846893311e-01 6.285994052886962891e-01 -5.595943331718444824e-01 8.228915333747863770e-01 -1.589642912149429321e-01 -4.306818917393684387e-02 1.649578362703323364e-01 2.993131577968597412e-01 3.407276272773742676e-01 -7.087634205818176270e-01 4.082616865634918213e-01 -5.730064585804939270e-02 3.862479329109191895e-01 1.472499072551727295e-01 -3.243706822395324707e-01 -9.502964019775390625e-01 -6.551055908203125000e-01 -4.908875748515129089e-02 4.224448502063751221e-01 3.848284110426902771e-02 -8.470655083656311035e-01 4.342369437217712402e-01 2.275077253580093384e-01 -2.499045245349407196e-02 -1.505279392004013062e-01 -3.325137197971343994e-01 -7.627207636833190918e-01 -2.936537563800811768e-01 -2.685638070106506348e-01 -7.135879397392272949e-01 5.205351114273071289e-02 1.009157579392194748e-02 -1.926909238100051880e-01 -8.510046452283859253e-02 -2.920494675636291504e-01 -8.388933539390563965e-01 3.930138349533081055e-01 -4.863913357257843018e-01 2.215932756662368774e-01 -2.137898057699203491e-01 -3.042874336242675781e-01 4.722124040126800537e-01 1.745328158140182495e-01 -1.436554640531539917e-01 -4.036940634250640869e-01 -4.118828773498535156e-01 -4.749685823917388916e-01 -4.877812266349792480e-01 7.071847319602966309e-01 2.987458705902099609e-01 5.420332551002502441e-01 1.765518933534622192e-01 -6.704464554786682129e-01 -1.880582720041275024e-01 -2.284426987171173096e-01 6.466167420148849487e-02 3.375650346279144287e-01 -7.864526510238647461e-01 -5.581594705581665039e-01 -4.718649387359619141e-01 2.066582888364791870e-01 2.852123677730560303e-01 2.104304283857345581e-01 3.661183118820190430e-01 -4.681398868560791016e-01 2.373746186494827271e-01 -5.438064932823181152e-01 2.192907929420471191e-01 2.812633812427520752e-01 -6.508308649063110352e-01 3.642628192901611328e-01 -2.132587730884552002e-01 7.465977668762207031e-01 -4.366717934608459473e-01 -7.019294053316116333e-02 1.156673729419708252e-01 2.174484133720397949e-01 3.537835776805877686e-01 -4.783332645893096924e-01 2.687129676342010498e-01 1.977267563343048096e-01 3.313752710819244385e-01 -2.138109654188156128e-01 -1.961667463183403015e-02 1.055683046579360962e-01 4.426693916320800781e-01 -2.916080057621002197e-01 2.026601135730743408e-01 3.877900838851928711e-01 -3.107478618621826172e-01 -5.928863212466239929e-02 -2.515024244785308838e-01 2.797938138246536255e-02 -1.866651922464370728e-01 -2.256965935230255127e-01 4.269272983074188232e-01 2.372004091739654541e-01 1.016908288002014160e+00 -4.152069091796875000e-01 -1.154967069625854492e+00 -8.705639243125915527e-01 6.729699373245239258e-01 -6.050696596503257751e-02 -4.274324178695678711e-01 1.637724488973617554e-01 3.177931904792785645e-01 1.384033709764480591e-01 4.804756641387939453e-01 3.574957549571990967e-01 -6.319519281387329102e-01 -4.425899088382720947e-01 2.967278361320495605e-01 2.127903401851654053e-01 -4.171216487884521484e-01 -1.037000179290771484e+00 -7.028377801179885864e-02 3.833606839179992676e-02 1.027083769440650940e-01 -2.108272314071655273e-01 -9.246289134025573730e-01 -2.549501322209835052e-02 8.195748925209045410e-02 -6.690601706504821777e-01 -6.369322538375854492e-03 -1.545891016721725464e-01 1.369103640317916870e-01 -5.354988574981689453e-01 -2.020689547061920166e-01 