1.470456868410110474e-01 9.103716909885406494e-02 -2.099865078926086426e-01 1.588110029697418213e-01 -2.917767688632011414e-02 -8.698806166648864746e-02 -1.362076587975025177e-02 2.110094279050827026e-01 5.137306638062000275e-03 -6.582856178283691406e-02 2.336524799466133118e-02 -3.618282731622457504e-03 2.496777474880218506e-01 -2.330299317836761475e-01 1.502556055784225464e-01 -1.754866689443588257e-01 1.342802196741104126e-01 4.705126956105232239e-02 -9.133786708116531372e-02 -2.117227949202060699e-02 -2.408283501863479614e-01 -1.199478432536125183e-01 -9.717474877834320068e-02 8.898976445198059082e-02 -1.519585102796554565e-01 2.384771406650543213e-01 2.224878966808319092e-01 -2.011353671550750732e-01 -1.663267761468887329e-01 1.378897577524185181e-01 1.267886012792587280e-01 1.255322396755218506e-01 2.274426519870758057e-01 -7.551567256450653076e-02 -1.983133256435394287e-01 -9.481950849294662476e-02 -2.528360784053802490e-01 -1.918549537658691406e-01 7.061322778463363647e-02 -2.269730269908905029e-01 2.082167565822601318e-01 -1.591743230819702148e-01 -1.669433563947677612e-01 9.381279349327087402e-02 2.244080603122711182e-01 -4.754215478897094727e-02 1.918794512748718262e-01 -1.626929044723510742e-01 4.749619960784912109e-02 -2.185408920049667358e-01 -1.803357750177383423e-01 1.919809430837631226e-01 -2.396092265844345093e-01 -5.104061961174011230e-02 -1.008854657411575317e-01 -1.967868655920028687e-01 -5.601391941308975220e-02 8.378448337316513062e-02 -1.968499571084976196e-01 1.484106108546257019e-02 -5.396313592791557312e-02 2.254237383604049683e-01 1.803116798400878906e-01 -7.575423270463943481e-02 2.463642358779907227e-01 7.572723180055618286e-02 1.574453413486480713e-01 1.081882603466510773e-02 4.055083729326725006e-03 1.673388183116912842e-01 1.533925235271453857e-01 -2.204347848892211914e-01 2.427838183939456940e-02 -1.607286483049392700e-01 -1.819873452186584473e-01 1.201382726430892944e-01 -2.260669916868209839e-01 -2.493076026439666748e-01 2.959438040852546692e-02 1.892091184854507446e-01 2.139290980994701385e-02 -2.072463780641555786e-01 1.959298551082611084e-01 -1.593497246503829956e-01 -1.861711740493774414e-01 -1.627236753702163696e-01 1.208551600575447083e-01 -1.960483193397521973e-01 2.340567708015441895e-01 -4.838334396481513977e-02 9.821272641420364380e-02 -1.132541820406913757e-01 -8.988060057163238525e-02 1.512554734945297241e-01 1.408438533544540405e-01 -7.587977498769760132e-02 -1.928094178438186646e-01 -1.988224387168884277e-01 -2.432708293199539185e-01 -2.019822150468826294e-01 1.333403736352920532e-01 1.881909221410751343e-01 -2.394861280918121338e-01 7.330386340618133545e-02 1.943912655115127563e-01 1.177075132727622986e-01 3.430161252617835999e-02 2.082357257604598999e-01 1.357199400663375854e-01 9.551861882209777832e-02 2.238901257514953613e-01 1.798188537359237671e-01 -1.140624433755874634e-01 -1.823910623788833618e-01 7.321668416261672974e-02 1.702371388673782349e-01 6.710179895162582397e-02 -2.370306700468063354e-01 -1.178052350878715515e-01 1.573435515165328979e-01 1.459418446756899357e-03 1.972605735063552856e-01 -1.238075317814946175e-03 -2.166604101657867432e-01 -1.278072148561477661e-01 -2.240506745874881744e-02 -7.494372129440307617e-02 4.487530887126922607e-02 1.600483357906341553e-01 1.678163111209869385e-01 -6.301690638065338135e-02 -9.124821424484252930e-02 -1.424823999404907227e-01 -1.057365089654922485e-01 5.036395415663719177e-02 -1.947085857391357422e-01 -4.965824633836746216e-02 -5.118655972182750702e-04 1.243640631437301636e-01 1.061545591801404953e-02 1.072208359837532043e-01 1.048376969993114471e-02 7.327686995267868042e-02 -2.094031572341918945e-01 1.317609250545501709e-01 -1.399717032909393311e-01 -3.574000671505928040e-02 -1.686928123235702515e-01 3.965364396572113037e-02 2.788507379591464996e-02 2.217819839715957642e-01 -8.589391410350799561e-02 7.713351398706436157e-02 -2.104800939559936523e-01 7.054357230663299561e-02 -1.322618424892425537e-01 -1.273029297590255737e-01 -5.449408199638128281e-03 1.045691817998886108e-01 5.983297526836395264e-02 1.117042005062103271e-01 -2.244822382926940918e-01 2.073867917060852051e-01 -2.453340291976928711e-01 5.825704708695411682e-02 2.051528692245483398e-01 5.025120917707681656e-03 -1.604654937982559204e-01 8.558418601751327515e-03 -8.835946768522262573e-02 1.565173417329788208e-01 1.774583011865615845e-01 2.012502700090408325e-01 8.037097007036209106e-02 1.042834389954805374e-02 7.561108469963073730e-02 2.001629471778869629e-01 1.827048510313034058e-01 1.268060505390167236e-01 -1.782776415348052979e-01 9.273653477430343628e-02 1.213131919503211975e-01 1.849010400474071503e-02 8.742290735244750977e-02 9.860618971288204193e-03 -1.203310266137123108e-01 -2.269198149442672729e-01 -7.014272361993789673e-02 -1.455634385347366333e-01 -2.390570342540740967e-01 5.092611536383628845e-02 2.014437168836593628e-01 -1.953119784593582153e-01 1.127717867493629456e-01 1.824514716863632202e-01 1.822711080312728882e-01 2.171920984983444214e-01 2.267298847436904907e-01 -1.897923052310943604e-01 2.284435629844665527e-01 -3.525533527135848999e-02 1.899024397134780884e-01 -1.728802174329757690e-01 1.279764771461486816e-01 -1.019637137651443481e-01 -9.209540486335754395e-02 1.587812900543212891e-01 1.324560493230819702e-01 1.053882390260696411e-01 -7.531496137380599976e-02 -6.525395065546035767e-02 -1.109364405274391174e-01 5.229176953434944153e-02 -2.930693095549941063e-03 -2.095145136117935181e-01 1.114014536142349243e-01 
9.928977489471435547e-01 1.014860510826110840e+00 9.930425286293029785e-01 1.011516094207763672e+00 9.964959621429443359e-01 1.004621505737304688e+00 9.908921122550964355e-01 9.676096439361572266e-01 
-1.386354211717844009e-02 -1.311093103140592575e-02 -2.204928174614906311e-02 -5.364046897739171982e-03 -1.489271968603134155e-02 8.667030371725559235e-03 -2.823290973901748657e-02 -2.689738757908344269e-02 
-8.868491277098655701e-03 -2.444493025541305542e-01 -1.848429590463638306e-01 8.458047360181808472e-02 9.222849272191524506e-03 -9.853797405958175659e-02 3.677163645625114441e-02 8.125169575214385986e-02 
5.977589637041091919e-02 1.040289029479026794e-01 1.112564653158187866e-01 1.437716484069824219e-01 4.786827787756919861e-02 4.373463615775108337e-02 8.136506378650665283e-02 8.321278542280197144e-02 
1.316255927085876465e-01 -1.769872903823852539e-01 9.797953814268112183e-02 -2.997607365250587463e-02 1.058356985449790955e-01 1.461524516344070435e-01 9.851430356502532959e-02 1.746430397033691406e-01 -6.471443921327590942e-02 -1.334773600101470947e-01 -4.967301711440086365e-02 1.343141943216323853e-01 -4.611635208129882812e-02 -1.239734962582588196e-01 -1.679310053586959839e-01 4.546802863478660583e-02 -8.439276367425918579e-02 1.331002861261367798e-01 -2.130679637193679810e-01 1.122742518782615662e-01 1.191658228635787964e-01 2.302463538944721222e-02 -1.480897814035415649e-01 -1.148841604590415955e-01 -1.091356128454208374e-01 3.633977100253105164e-02 6.498809903860092163e-02 9.836004674434661865e-02 1.940823495388031006e-01 2.238546162843704224e-01 1.423708349466323853e-01 1.311295628547668457e-01 2.170315571129322052e-02 1.665008217096328735e-01 1.034290064126253128e-02 1.784864664077758789e-01 1.500906050205230713e-01 5.033883824944496155e-02 -5.235437676310539246e-02 1.264297068119049072e-01 1.864298582077026367e-01 7.615227252244949341e-02 -2.190618403255939484e-02 6.166753172874450684e-02 1.606367528438568115e-02 1.348726898431777954e-01 8.189402520656585693e-02 2.007846022024750710e-03 1.807858049869537354e-01 1.601782441139221191e-01 3.284842520952224731e-02 4.590654373168945312e-02 -1.367747485637664795e-01 -3.494469076395034790e-02 -7.341338694095611572e-02 1.407995671033859253e-01 -1.035908833146095276e-01 -1.272165030241012573e-01 7.108464092016220093e-02 7.307000458240509033e-02 -1.138991266489028931e-01 -1.245775297284126282e-01 6.918004155158996582e-02 -1.483417898416519165e-01 -8.604357391595840454e-02 -1.992039829492568970e-01 -1.074041351675987244e-01 -9.916998445987701416e-02 1.526925861835479736e-01 -1.185306683182716370e-01 2.151608914136886597e-01 1.140744835138320923e-01 9.181980043649673462e-02 5.456523597240447998e-02 1.600924879312515259e-01 -3.531427308917045593e-02 4.758724942803382874e-02 1.698394417762756348e-01 -2.416916377842426300e-02 -1.746252626180648804e-01 1.325914710760116577e-01 -1.119902878999710083e-01 1.032610535621643066e-01 2.720099687576293945e-02 -1.376756429672241211e-01 -1.030675023794174194e-01 1.905972212553024292e-01 1.457315962761640549e-02 3.523626551032066345e-02 2.201505601406097412e-01 4.633333161473274231e-02 -1.202282980084419250e-01 1.010181941092014313e-02 -1.563095897436141968e-01 -9.587128460407257080e-02 -1.489201635122299194e-01 1.469967365264892578e-01 -8.582301437854766846e-02 -1.917749792337417603e-01 2.131666988134384155e-01 4.363075643777847290e-02 -4.808890447020530701e-02 4.647976905107498169e-02 -1.767564564943313599e-01 5.272022634744644165e-02 2.518559806048870087e-02 2.168603427708148956e-02 6.686387956142425537e-02 -8.461745828390121460e-02 -9.367925673723220825e-02 6.642004102468490601e-02 1.448026895523071289e-01 -1.781313568353652954e-01 -9.376134723424911499e-03 -5.850741639733314514e-02 1.528103500604629517e-01 -8.804097771644592285e-02 1.665645688772201538e-01 1.599525362253189087e-01 1.865872144699096680e-01 -1.902733743190765381e-01 -3.468812257051467896e-02 -1.703033149242401123e-01 1.209913715720176697e-01 -2.819968387484550476e-02 -5.271035060286521912e-02 2.814322710037231445e-02 9.313822537660598755e-02 -1.268649697303771973e-01 -9.357519447803497314e-02 -2.864961326122283936e-02 7.080608606338500977e-02 5.500282719731330872e-02 -3.577611595392227173e-02 1.323696076869964600e-01 9.268881380558013916e-02 -5.740659683942794800e-02 -2.729245088994503021e-02 9.301453828811645508e-02 6.943628937005996704e-02 4.681723192334175110e-02 1.468659937381744385e-01 1.293686032295227051e-01 7.973609864711761475e-02 1.070926263928413391e-01 -3.605147451162338257e-02 1.939173042774200439e-02 -1.852486878633499146e-01 5.498535558581352234e-02 -1.963648945093154907e-01 -1.704337149858474731e-01 1.704848855733871460e-01 -5.279005318880081177e-02 7.728593051433563232e-02 3.585512563586235046e-02 -6.205452606081962585e-02 2.040607482194900513e-01 1.797993779182434082e-01 1.352851837873458862e-01 1.678590476512908936e-01 -5.269709974527359009e-02 -1.066404301673173904e-02 1.457949429750442505e-01 8.366163820028305054e-02 1.013790741562843323e-01 9.975543618202209473e-02 7.938968390226364136e-02 3.100858256220817566e-02 1.182660236954689026e-01 8.221619576215744019e-02 5.803862959146499634e-02 8.552139252424240112e-02 2.457644045352935791e-02 -1.593339443206787109e-01 -1.725113242864608765e-01 -1.009534373879432678e-01 9.017858654260635376e-02 1.004320606589317322e-01 1.154793798923492432e-01 9.917179122567176819e-03 1.029964610934257507e-01 -8.728340268135070801e-03 1.119119208306074142e-02 -1.033510640263557434e-01 -1.280688643455505371e-01 -2.753096818923950195e-02 -1.690464615821838379e-01 7.742261886596679688e-02 1.886848956346511841e-01 1.648236513137817383e-01 -1.496861875057220459e-01 -7.113592326641082764e-02 -1.518375426530838013e-01 -1.608383208513259888e-01 -1.172437816858291626e-01 1.371162086725234985e-01 -2.401287667453289032e-02 1.276785433292388916e-01 -6.174327433109283447e-02 1.728949248790740967e-01 -1.731878817081451416e-01 -1.018402725458145142e-01 6.169226765632629395e-02 1.708284765481948853e-01 -6.789665669202804565e-02 2.153295874595642090e-01 7.465601712465286255e-02 -5.828821659088134766e-02 1.495778858661651611e-01 5.707982927560806274e-02 1.817115349695086479e-03 5.441782251000404358e-02 -5.741522461175918579e-02 1.730951368808746338e-01 -2.842570841312408447e-02 -1.826515048742294312e-01 2.303270548582077026e-01 1.730395108461380005e-01 -1.855971962213516235e-01 -1.854578256607055664e-01 -9.407974779605865479e-02 -1.520389467477798462e-01 -5.638416483998298645e-02 -1.242731809616088867e-01 1.065602339804172516e-02 -1.741397529840469360e-01 -5.977060645818710327e-02 5.041215196251869202e-02 1.619934588670730591e-01 1.372596025466918945e-01 -1.378920227289199829e-01 5.761809274554252625e-02 -5.996539071202278137e-02 7.618677616119384766e-02 -8.294016122817993164e-02 1.050681713968515396e-02 5.334020033478736877e-02 1.118374094367027283e-01 1.872503943741321564e-02 1.276093274354934692e-01 9.028493426740169525e-03 1.098290383815765381e-01 -1.134283095598220825e-01 -7.919725775718688965e-02 -1.944076716899871826e-01 -9.725794941186904907e-02 1.628482937812805176e-01 -4.675875604152679443e-02 -1.481809318065643311e-01 1.921333372592926025e-01 2.870613336563110352e-02 -3.489057347178459167e-02 -1.538500040769577026e-01 -1.078808456659317017e-01 1.856660395860671997e-01 -1.798172891139984131e-01 -3.271942585706710815e-02 -2.125717997550964355e-01 5.377968773245811462e-03 -1.459543704986572266e-01 1.448480188846588135e-01 -3.541593998670578003e-02 -1.844996362924575806e-01 -1.357422769069671631e-01 9.178259223699569702e-02 1.100479508750140667e-03 1.886994242668151855e-01 1.017097905278205872e-01 1.078415568917989731e-02 -5.842454731464385986e-02 -1.170257031917572021e-01 1.683540493249893188e-01 4.514096304774284363e-02 4.668683931231498718e-02 1.871220171451568604e-01 -4.282099753618240356e-02 -1.303751468658447266e-01 6.514280289411544800e-02 -1.259213387966156006e-01 -8.544212207198143005e-03 1.825694739818572998e-01 1.591813415288925171e-01 -4.887739196419715881e-02 -7.558618485927581787e-02 -3.599426895380020142e-02 1.315407305955886841e-01 7.648937404155731201e-02 -1.285347640514373779e-01 -5.389205366373062134e-02 1.466389596462249756e-01 -1.277304738759994507e-01 -2.081521749496459961e-01 1.548154503107070923e-01 -4.853841289877891541e-02 2.033197432756423950e-01 -3.002877719700336456e-02 1.400585770606994629e-01 -5.051098391413688660e-02 -1.067840680480003357e-01 1.905208975076675415e-01 -1.224475428462028503e-01 -1.147480607032775879e-01 -1.933739036321640015e-01 3.915367182344198227e-03 3.200024738907814026e-02 1.568028479814529419e-01 1.125121638178825378e-01 -7.638259977102279663e-02 -2.629056386649608612e-02 -3.340641781687736511e-02 -1.884325295686721802e-01 -1.696356385946273804e-01 1.299888044595718384e-01 -1.332403570413589478e-01 1.023554578423500061e-01 -1.352813094854354858e-01 -1.475170254707336426e-01 1.956512928009033203e-01 -2.316982299089431763e-02 1.075514703989028931e-01 -5.006704851984977722e-02 -1.798922419548034668e-01 4.676026478409767151e-02 1.289823502302169800e-01 -4.620280861854553223e-02 3.802414238452911377e-02 1.661943644285202026e-01 7.159690558910369873e-02 3.090798109769821167e-02 -1.384364068508148193e-01 -1.064442172646522522e-01 3.766240179538726807e-02 1.662785857915878296e-01 -4.487776011228561401e-02 5.286203697323799133e-02 5.129078030586242676e-02 1.141771525144577026e-01 -1.626207232475280762e-01 7.256032526493072510e-02 1.011229380965232849e-01 1.242008730769157410e-01 1.972551047801971436e-01 1.767755150794982910e-01 -1.063778027892112732e-01 1.178378835320472717e-01 7.422797381877899170e-02 1.938843876123428345e-01 9.785437583923339844e-02 9.636475145816802979e-02 1.828316152095794678e-01 1.278962939977645874e-02 1.249788925051689148e-01 -1.370573043823242188e-01 -1.686847060918807983e-01 5.556323006749153137e-02 6.045976653695106506e-02 9.756693243980407715e-02 -8.771431446075439453e-02 -1.405069530010223389e-01 1.966646611690521240e-01 -8.610754460096359253e-02 1.353226006031036377e-01 5.899510160088539124e-02 -1.339569240808486938e-01 -1.728841662406921387e-01 5.978891626000404358e-02 -1.787068396806716919e-01 6.933504343032836914e-02 -9.916996955871582031e-02 5.429082363843917847e-02 -6.419493257999420166e-02 1.251861006021499634e-01 1.191543713212013245e-01 1.091181561350822449e-01 1.010008342564105988e-02 1.651168763637542725e-01 -9.621706604957580566e-02 -1.412829011678695679e-01 1.269406825304031372e-01 -2.189340442419052124e-02 -1.688266098499298096e-01 -1.781149059534072876e-01 -1.555037051439285278e-01 1.180891841650009155e-01 1.344384253025054932e-01 -8.554729074239730835e-02 -1.211539432406425476e-01 3.595609962940216064e-02 -7.647147029638290405e-02 2.059909701347351074e-01 -1.532455831766128540e-01 1.159699261188507080e-01 3.008792363107204437e-02 2.126645892858505249e-01 2.300760149955749512e-02 -2.840702049434185028e-02 -1.353692263364791870e-01 -1.055042073130607605e-01 4.699251428246498108e-02 -1.940905302762985229e-01 -5.684565380215644836e-02 -5.990345776081085205e-02 4.104826226830482483e-02 -3.507028892636299133e-02 1.805609315633773804e-01 -2.272196412086486816e-01 1.614514440298080444e-01 1.004937514662742615e-01 1.282084584236145020e-01 -9.857709519565105438e-03 2.786077384371310472e-04 -8.144634962081909180e-02 4.908459633588790894e-02 -3.980623558163642883e-02 -5.636820569634437561e-02 -9.293574839830398560e-02 -1.632556617259979248e-01 9.683188050985336304e-02 1.272116601467132568e-01 -1.049310564994812012e-01 -9.156725369393825531e-03 -1.540485024452209473e-01 1.218282133340835571e-01 1.081032212823629379e-02 -7.898795604705810547e-02 -6.113111600279808044e-02 -1.500945687294006348e-01 -1.395959705114364624e-01 -4.841005802154541016e-02 -1.439434289932250977e-01 1.811032444238662720e-01 -9.422681294381618500e-03 7.386542856693267822e-03 1.072255373001098633e-01 1.171873733401298523e-01 -3.302447125315666199e-02 -1.823150664567947388e-01 -1.375488340854644775e-01 -1.573458760976791382e-01 -1.506540328264236450e-01 7.113544642925262451e-02 -8.578664064407348633e-02 8.017870783805847168e-02 -8.202308416366577148e-02 1.801013015210628510e-02 -7.586257159709930420e-02 1.013696640729904175e-01 -2.840096689760684967e-02 -1.829182505607604980e-01 -9.356202185153961182e-02 -1.768231093883514404e-01 -7.556162774562835693e-02 1.764875501394271851e-01 -1.762496232986450195e-01 8.878881111741065979e-03 -8.004573732614517212e-02 -5.893524363636970520e-02 -5.340773612260818481e-02 1.429088562726974487e-01 -1.692903637886047363e-01 -1.239736601710319519e-01 -6.260000169277191162e-02 1.853043884038925171e-01 -8.826538175344467163e-02 1.557733118534088135e-01 -1.407041549682617188e-01 5.864769220352172852e-02 1.073544099926948547e-01 1.717822551727294922e-01 1.692004036158323288e-03 1.296271849423646927e-02 2.976117096841335297e-02 -1.724293269217014313e-02 -4.800800606608390808e-02 1.688717305660247803e-01 4.067121446132659912e-02 3.753639757633209229e-02 -1.072425171732902527e-01 1.758147329092025757e-01 -7.192943990230560303e-02 1.937655508518218994e-01 6.090977042913436890e-02 7.122924178838729858e-02 1.345579475164413452e-01 -1.982228159904479980e-01 -1.185395568609237671e-02 -4.547632113099098206e-02 1.962147206068038940e-01 1.345348209142684937e-01 4.945874959230422974e-02 -1.253361105918884277e-01 1.161115802824497223e-02 1.345180720090866089e-01 -4.936645552515983582e-02 -8.732678741216659546e-02 -6.684508919715881348e-02 1.045689284801483154e-01 2.286596782505512238e-02 -5.691693723201751709e-02 -2.050536274909973145e-01 5.607659742236137390e-02 2.112197428941726685e-01 -2.846879139542579651e-02 2.000787705183029175e-01 2.011542618274688721e-01 -2.117476910352706909e-01 5.018056184053421021e-02 1.362161934375762939e-01 1.506038606166839600e-01 5.828311666846275330e-02 -8.453835733234882355e-03 -6.235846504569053650e-02 -2.708972897380590439e-03 7.015345245599746704e-02 -8.181909471750259399e-02 -9.602551348507404327e-03 1.198976933956146240e-01 1.819977015256881714e-01 4.027558490633964539e-03 -2.701821923255920410e-02 2.805296145379543304e-02 6.887658685445785522e-02 -1.477743964642286301e-02 -2.114100307226181030e-01 -1.114042401313781738e-01 1.097674518823623657e-01 1.202123798429965973e-02 -6.827548146247863770e-02 -1.227766554802656174e-02 1.031893417239189148e-01 -1.226810216903686523e-01 -1.791058331727981567e-01 -2.072630822658538818e-01 1.596720665693283081e-01 1.732917726039886475e-01 -1.884470134973526001e-01 -1.907404363155364990e-01 -4.942797496914863586e-02 1.009894385933876038e-01 -1.950489729642868042e-01 -9.652891010046005249e-02 1.604954302310943604e-01 -2.026914507150650024e-01 4.094475880265235901e-02 6.867977231740951538e-02 9.579472243785858154e-02 -1.791719943284988403e-01 8.051756769418716431e-02 7.739742845296859741e-02 -1.482331901788711548e-01 1.425670683383941650e-01 -1.425328664481639862e-02 -2.028869092464447021e-01 1.889471523463726044e-02 -1.527378410100936890e-01 1.314397249370813370e-02 -1.577625423669815063e-01 1.793516613543033600e-02 -1.597143113613128662e-01 -6.919177621603012085e-02 1.037018820643424988e-01 -1.838516071438789368e-02 -1.601656675338745117e-01 8.415319770574569702e-02 2.109987735748291016e-01 -9.944480657577514648e-02 -9.873162955045700073e-02 1.931201666593551636e-01 -1.563461720943450928e-01 5.147849395871162415e-02 -7.050156593322753906e-02 -1.068899482488632202e-01 -1.725509911775588989e-01 -2.669851668179035187e-02 -1.648790389299392700e-01 -1.395082920789718628e-01 
9.827619194984436035e-01 9.859172701835632324e-01 9.764230251312255859e-01 1.008311271667480469e+00 1.010195016860961914e+00 1.024458885192871094e+00 1.008924484252929688e+00 1.012534856796264648e+00 
-2.987048588693141937e-02 -1.665343344211578369e-02 -1.623460091650485992e-02 5.881560035049915314e-03 2.499628812074661255e-02 -8.115261793136596680e-03 7.638634182512760162e-03 3.217686200514435768e-03 
3.650106489658355713e-01 2.133928984403610229e-01 2.935542762279510498e-01 -1.559094898402690887e-02 5.581446737051010132e-02 -1.365426182746887207e-01 -5.874728411436080933e-02 -2.688236236572265625e-01 
4.973690211772918701e-01 2.747243940830230713e-01 5.021933913230895996e-01 3.005189299583435059e-01 4.255851805210113525e-01 4.005694389343261719e-01 2.624722421169281006e-01 2.428606152534484863e-01 
-1.373327374458312988e-01 -1.737981848418712616e-02 -7.198883593082427979e-02 -1.224886029958724976e-01 9.214785695075988770e-02 2.965320833027362823e-02 -1.346348971128463745e-01 -7.888908684253692627e-02 2.375144045799970627e-03 8.324185013771057129e-02 -9.420733153820037842e-02 -1.100644469261169434e-01 1.170913055539131165e-01 -1.196922734379768372e-01 1.102294325828552246e-01 -1.376430317759513855e-02 -1.105858683586120605e-01 1.915883570909500122e-01 -1.469700783491134644e-01 1.462853550910949707e-01 -1.390599906444549561e-01 9.284582734107971191e-02 9.634741395711898804e-02 -5.156569927930831909e-02 -1.702259480953216553e-01 -7.263478636741638184e-02 5.707117915153503418e-02 -1.270424723625183105e-01 -1.721557676792144775e-01 -5.014467611908912659e-02 1.296129673719406128e-01 1.076886877417564392e-01 4.409241676330566406e-02 1.432182490825653076e-01 -1.829686164855957031e-01 1.732056140899658203e-01 1.208687052130699158e-01 -1.752575039863586426e-01 -3.526409715414047241e-02 -3.038152493536472321e-02 -1.795237064361572266e-01 6.081624329090118408e-02 1.220775321125984192e-01 8.471468836069107056e-02 2.804213762283325195e-02 -1.063210070133209229e-01 -1.704455763101577759e-01 6.786162406206130981e-02 -4.978107661008834839e-02 1.495987474918365479e-01 -6.889599561691284180e-02 1.258970238268375397e-02 -2.697257138788700104e-02 -1.074721664190292358e-01 4.741120710968971252e-02 5.308258696459233761e-04 -1.004964783787727356e-01 -4.268269054591655731e-03 -1.942583769559860229e-01 2.202437967061996460e-01 1.507999598979949951e-01 1.665736287832260132e-01 6.047719344496726990e-02 -8.947607129812240601e-02 6.604877114295959473e-02 1.462677028030157089e-02 3.264835104346275330e-02 -4.742427915334701538e-02 1.515476554632186890e-01 -1.406125817447900772e-02 -7.685822248458862305e-02 -9.087155759334564209e-02 -1.788166165351867676e-02 3.406928107142448425e-02 -1.126340925693511963e-01 8.660786598920822144e-02 -6.503321230411529541e-02 -7.356990128755569458e-02 1.366850882768630981e-01 -5.339433625340461731e-02 7.695469260215759277e-02 -1.532418876886367798e-01 1.620151847600936890e-01 -5.536866560578346252e-02 -1.266164481639862061e-01 6.110486388206481934e-02 -1.101003512740135193e-01 -2.907104603946208954e-02 -1.231131795793771744e-02 1.432608366012573242e-01 1.327460408210754395e-01 1.859086751937866211e-01 3.878555074334144592e-02 9.091413766145706177e-02 2.579078078269958496e-02 1.788107156753540039e-01 1.939544230699539185e-01 -5.035719648003578186e-02 8.053565770387649536e-02 1.003695651888847351e-01 -5.958570167422294617e-03 -6.573048233985900879e-02 -1.306247711181640625e-01 -8.245973289012908936e-02 -1.552627533674240112e-01 -8.539569377899169922e-02 5.490928888320922852e-03 1.584825515747070312e-01 -1.375669687986373901e-01 9.943266212940216064e-02 -1.768220067024230957e-01 1.214040815830230713e-01 -1.152488216757774353e-01 1.805379055440425873e-02 -1.398165058344602585e-02 -1.773639321327209473e-01 7.945837825536727905e-02 1.658403128385543823e-01 -3.608230501413345337e-02 9.548816084861755371e-02 -8.589904755353927612e-02 3.737889602780342102e-02 1.249266341328620911e-01 -1.165789291262626648e-01 1.191454678773880005e-01 -2.072520107030868530e-01 -1.323020905256271362e-01 -4.300630092620849609e-02 1.144222393631935120e-01 -9.526431560516357422e-02 9.088811278343200684e-02 -4.764571040868759155e-02 -1.757335364818572998e-01 -1.363428086042404175e-01 -2.001256793737411499e-01 1.962065398693084717e-01 -9.572657942771911621e-02 -9.165697544813156128e-02 -2.259000390768051147e-02 -3.966266661882400513e-02 -1.006252691149711609e-01 1.229276657104492188e-01 -1.244001910090446472e-01 1.446893364191055298e-01 4.427090659737586975e-02 -3.898581862449645996e-02 -3.053843416273593903e-02 -4.365599155426025391e-02 1.169961765408515930e-01 -1.655502170324325562e-01 -3.714200807735323906e-03 1.359537988901138306e-01 1.497378349304199219e-01 2.041047066450119019e-01 -1.260787900537252426e-02 1.763900965452194214e-01 -1.432186961174011230e-01 -8.455177396535873413e-02 1.642043888568878174e-01 9.781012684106826782e-02 -1.842258572578430176e-01 -1.112028062343597412e-01 -1.580500155687332153e-01 8.776230365037918091e-02 -8.726061135530471802e-02 6.102806888520717621e-03 1.314288377761840820e-01 8.548049628734588623e-02 -6.581163406372070312e-02 -1.747097522020339966e-01 1.374144405126571655e-01 6.782002747058868408e-02 2.092151492834091187e-01 1.839547008275985718e-01 -1.820291429758071899e-01 -2.257141098380088806e-02 -1.768157631158828735e-01 3.484132885932922363e-02 -5.067563429474830627e-02 -1.034792140126228333e-02 1.124818474054336548e-01 5.488274991512298584e-02 -1.413490530103445053e-02 -1.324828118085861206e-01 3.829646483063697815e-02 -5.736961588263511658e-02 1.692796796560287476e-01 9.420948475599288940e-02 2.226553484797477722e-02 -1.325801610946655273e-01 8.406949788331985474e-02 -2.005441337823867798e-01 1.766951233148574829e-01 -1.563084125518798828e-02 1.682503968477249146e-01 7.761454582214355469e-02 8.234415948390960693e-02 6.432855129241943359e-02 6.813994050025939941e-02 -7.228352874517440796e-02 1.414519101381301880e-01 -4.596330970525741577e-02 1.564947515726089478e-01 1.679471731185913086e-01 -9.756457805633544922e-02 -1.636693179607391357e-01 -4.274021461606025696e-02 -1.457604467868804932e-01 -1.407263725996017456e-01 -5.923964455723762512e-02 -1.480956226587295532e-01 -1.916454732418060303e-01 1.819681376218795776e-01 4.091249778866767883e-03 -9.313155710697174072e-02 7.790514826774597168e-02 8.384078741073608398e-02 1.104529500007629395e-01 1.772619783878326416e-01 -1.258959323167800903e-01 1.386768072843551636e-01 -1.602148711681365967e-01 2.709087170660495758e-02 -1.619669198989868164e-01 9.802674502134323120e-02 1.090096086263656616e-01 -6.674937158823013306e-02 -1.587313562631607056e-01 1.484732031822204590e-01 7.779741287231445312e-02 1.328573673963546753e-01 -1.465301364660263062e-01 -7.800748571753501892e-03 1.015553176403045654e-01 7.284851372241973877e-02 7.123608142137527466e-02 -1.704326868057250977e-01 -5.029723048210144043e-02 -6.029909476637840271e-02 1.342974901199340820e-01 1.352862864732742310e-01 -1.697396188974380493e-01 1.640229970216751099e-01 -9.637936949729919434e-02 2.134609036147594452e-02 -1.285785287618637085e-01 1.044328287243843079e-01 -1.736903935670852661e-01 6.073140073567628860e-03 1.581676900386810303e-01 -7.051043212413787842e-02 -1.856611818075180054e-01 -8.448448032140731812e-03 1.149233132600784302e-01 1.127352938055992126e-01 -8.223534375429153442e-02 3.259801492094993591e-02 1.432189196348190308e-01 9.957611560821533203e-03 3.045232594013214111e-02 2.903614193201065063e-02 1.238230764865875244e-01 3.740561753511428833e-02 -7.127546519041061401e-02 1.984897255897521973e-01 -6.960493326187133789e-02 -1.121725440025329590e-01 -1.245318725705146790e-01 2.695422433316707611e-02 -3.820113837718963623e-02 -3.906012699007987976e-02 -9.428599476814270020e-02 -3.313515707850456238e-02 -1.653058975934982300e-01 -8.531673997640609741e-02 7.833357900381088257e-02 -7.993685454130172729e-02 -9.699394553899765015e-02 -7.856774609535932541e-04 9.957911074161529541e-02 -1.243800893425941467e-01 -1.195497438311576843e-01 -1.083882749080657959e-01 1.311500668525695801e-01 -1.989539563655853271e-01 -1.285952031612396240e-01 -1.556234806776046753e-01 1.276136636734008789e-01 -5.644415691494941711e-02 8.828930556774139404e-02 1.516781300306320190e-01 4.135874658823013306e-02 -1.907129585742950439e-01 7.562933955341577530e-03 -1.832938194274902344e-01 -7.663121819496154785e-02 7.958914339542388916e-02 -1.826407909393310547e-01 1.339712440967559814e-01 2.057977914810180664e-01 -2.294784598052501678e-02 -2.017746269702911377e-01 -1.137779653072357178e-01 -1.414072364568710327e-01 6.217432022094726562e-02 3.905346989631652832e-02 -1.836810559034347534e-01 -8.221880346536636353e-02 1.199747994542121887e-01 1.451370567083358765e-01 5.442778021097183228e-02 -7.986977696418762207e-02 -1.856024265289306641e-01 -1.678818166255950928e-01 -1.725330762565135956e-02 -1.363357603549957275e-01 2.312754094600677490e-02 -1.169361472129821777e-01 5.795533582568168640e-02 -8.129225671291351318e-02 -4.622469097375869751e-02 -1.414909213781356812e-01 -2.784106507897377014e-02 -5.465853214263916016e-02 -5.641714110970497131e-02 8.194330334663391113e-02 2.852095291018486023e-02 1.088121440261602402e-02 -1.283288747072219849e-01 -5.425948649644851685e-02 1.023467928171157837e-01 1.565323323011398315e-01 1.243564933538436890e-01 1.197863295674324036e-01 -1.759806275367736816e-02 1.221496835350990295e-01 -1.191708445549011230e-01 1.769099980592727661e-01 -1.599153578281402588e-01 -9.272389858961105347e-02 -9.676402434706687927e-03 2.632081322371959686e-02 -6.081998720765113831e-02 -1.657924950122833252e-01 -3.007718361914157867e-02 -1.104782745242118835e-01 1.400997638702392578e-01 2.777751721441745758e-02 1.269899606704711914e-01 5.584632605314254761e-02 1.021731421351432800e-01 -1.033138632774353027e-01 1.363833099603652954e-01 1.263150870800018311e-01 -1.736889407038688660e-02 -1.523896604776382446e-01 -2.105474025011062622e-01 1.246338859200477600e-01 1.661812067031860352e-01 1.303856968879699707e-01 -6.172320991754531860e-02 1.449422687292098999e-01 1.775782704353332520e-01 -9.012767672538757324e-02 -1.864537894725799561e-01 -1.310804933309555054e-01 1.605972349643707275e-01 1.500928401947021484e-01 7.703894376754760742e-02 -1.909329593181610107e-01 1.681083440780639648e-01 9.691333025693893433e-02 -3.062409348785877228e-03 -5.039305612444877625e-02 -3.216370567679405212e-02 4.720999673008918762e-02 -1.747908592224121094e-01 1.062812209129333496e-01 1.485564261674880981e-01 8.648855984210968018e-02 8.891291916370391846e-02 -9.153369814157485962e-02 -2.730988152325153351e-02 1.054811775684356689e-01 9.912402927875518799e-02 -1.095301955938339233e-01 1.670438349246978760e-01 1.559655927121639252e-02 2.279269397258758545e-01 4.651279002428054810e-02 5.455074366182088852e-03 1.551589369773864746e-01 2.609214372932910919e-02 -1.563374251127243042e-01 -1.555518507957458496e-01 -3.601583093404769897e-02 -9.883884340524673462e-02 2.100032269954681396e-01 -1.850671619176864624e-01 4.592138528823852539e-02 -1.768920384347438812e-02 1.399068832397460938e-01 -6.344647705554962158e-02 8.837188594043254852e-03 -1.290984004735946655e-01 7.261855155229568481e-02 -1.653663665056228638e-01 1.367148905992507935e-01 1.247834339737892151e-01 -2.067158184945583344e-02 -6.110134348273277283e-02 -1.496166437864303589e-01 1.601644605398178101e-01 -1.799099743366241455e-01 -1.947190761566162109e-01 -2.769946679472923279e-02 -1.183071210980415344e-01 -2.034311443567276001e-01 9.719323366880416870e-02 -1.302571892738342285e-01 1.327313780784606934e-01 1.155131682753562927e-01 1.742997318506240845e-01 4.687928035855293274e-02 1.747581213712692261e-01 -4.009520635008811951e-02 3.175958245992660522e-02 1.169264912605285645e-01 8.724204450845718384e-02 2.305098474025726318e-01 -6.663916166871786118e-03 1.982705742120742798e-01 -5.086254701018333435e-02 1.882952898740768433e-01 -1.721652150154113770e-01 -1.766205206513404846e-02 1.512772738933563232e-01 -1.708750426769256592e-01 1.950249820947647095e-01 -1.196146458387374878e-01 1.557909548282623291e-01 2.794762328267097473e-02 1.875753551721572876e-01 1.492847949266433716e-01 -7.136213779449462891e-02 1.533322036266326904e-01 2.072676569223403931e-01 1.087738797068595886e-01 3.848052024841308594e-02 -7.063501328229904175e-02 -8.874069154262542725e-02 -1.073129624128341675e-01 1.059686541557312012e-01 -9.335279464721679688e-02 6.299246847629547119e-02 2.853580936789512634e-02 -5.208773910999298096e-02 7.915686815977096558e-02 -3.862709552049636841e-02 -1.210965774953365326e-02 -1.833311617374420166e-01 8.752455934882164001e-03 -7.421091198921203613e-02 -3.855768218636512756e-02 -1.401431858539581299e-01 -4.744746256619691849e-03 -4.995036125183105469e-02 1.173902675509452820e-01 1.948782652616500854e-01 -8.621726185083389282e-02 -1.359628587961196899e-01 -7.590577006340026855e-02 -1.778157502412796021e-01 1.697041392326354980e-01 -6.791621446609497070e-02 1.789021044969558716e-01 -1.905061602592468262e-01 8.938138931989669800e-02 2.813711576163768768e-02 8.160718530416488647e-02 1.201611459255218506e-01 -1.027547847479581833e-02 -3.145592659711837769e-02 -1.788778454065322876e-01 1.951154619455337524e-01 1.923306584358215332e-01 9.181007742881774902e-02 1.165452226996421814e-01 3.236678242683410645e-02 1.484158337116241455e-01 -1.974088549613952637e-01 5.750440433621406555e-02 2.087905406951904297e-01 -1.130458042025566101e-01 -1.118339896202087402e-01 1.535953581333160400e-01 1.043323725461959839e-01 3.564380109310150146e-02 -1.820749789476394653e-01 -7.015588693320751190e-03 7.459718734025955200e-02 8.227419853210449219e-02 4.715479165315628052e-02 -8.060251176357269287e-02 2.997334301471710205e-02 1.379721462726593018e-01 -9.721401333808898926e-02 1.939107626676559448e-01 9.143877774477005005e-02 -5.792851746082305908e-02 5.161498859524726868e-02 -1.346401572227478027e-01 -1.877828985452651978e-01 8.120843023061752319e-02 1.505882441997528076e-01 3.813178464770317078e-02 -9.082829207181930542e-02 -4.393050447106361389e-02 -1.064283251762390137e-01 1.677399724721908569e-01 2.032276690006256104e-01 -3.091295063495635986e-02 1.096750050783157349e-01 5.522170104086399078e-04 1.358087360858917236e-01 -6.688485294580459595e-02 -1.440938711166381836e-01 -1.653459221124649048e-01 1.487860977649688721e-01 -1.489361524581909180e-01 -5.286594969220459461e-04 -1.149187609553337097e-01 -2.396499738097190857e-03 1.713927686214447021e-01 1.385129243135452271e-01 1.331016272306442261e-01 1.880902349948883057e-01 1.327418684959411621e-01 -1.146035492420196533e-01 -4.121467843651771545e-02 -8.492791652679443359e-02 1.106442213058471680e-01 -9.864670783281326294e-02 -1.909373328089714050e-02 6.147570535540580750e-02 4.873947426676750183e-02 2.790226787328720093e-02 1.989675015211105347e-01 5.307696294039487839e-03 2.127617299556732178e-01 -5.171395838260650635e-02 6.657817214727401733e-02 1.481661945581436157e-01 2.416194416582584381e-02 -1.077841520309448242e-01 1.058596223592758179e-01 -7.111425697803497314e-02 -1.818977445363998413e-01 1.625210940837860107e-01 1.280504614114761353e-01 9.792814403772354126e-02 -1.196397766470909119e-01 -1.208314821124076843e-01 1.156781017780303955e-01 1.587948799133300781e-01 1.315936148166656494e-01 6.559139490127563477e-02 -2.518003620207309723e-02 -2.457299456000328064e-02 1.197204440832138062e-01 8.032247424125671387e-02 -1.161225661635398865e-01 -9.004621207714080811e-02 1.418231278657913208e-01 -5.708473920822143555e-02 -3.657089918851852417e-02 
9.920153617858886719e-01 1.031369328498840332e+00 1.005514025688171387e+00 1.008223772048950195e+00 9.956907033920288086e-01 9.753659963607788086e-01 9.934412837028503418e-01 1.009454727172851562e+00 
-1.712415553629398346e-02 -5.039010662585496902e-03 -5.159053020179271698e-03 -4.296256229281425476e-03 -2.755455300211906433e-02 1.160996779799461365e-02 -2.262898348271846771e-02 -8.179636672139167786e-03 
-1.025828942656517029e-01 -8.092371374368667603e-02 1.775224655866622925e-01 -5.801994353532791138e-02 -1.497494578361511230e-01 3.285869061946868896e-01 2.234317958354949951e-01 4.416982233524322510e-01 
3.305289447307586670e-01 2.783198058605194092e-01 3.592764735221862793e-01 2.789314985275268555e-01 5.643700361251831055e-01 3.381506204605102539e-01 5.854449868202209473e-01 4.459397792816162109e-01 
2.998881600797176361e-02 -4.212385043501853943e-02 -1.302326023578643799e-01 1.376025676727294922e-01 2.678352966904640198e-02 -1.157603487372398376e-01 -1.992167904973030090e-02 -1.816884875297546387e-01 -6.017657741904258728e-02 -1.011326014995574951e-01 1.585444509983062744e-01 -1.864991039037704468e-01 -2.072864025831222534e-01 -9.365866333246231079e-02 -1.731851994991302490e-01 9.563651680946350098e-02 8.976240456104278564e-02 1.195911318063735962e-01 6.336247175931930542e-02 -1.092899516224861145e-01 5.689585208892822266e-02 -1.979937702417373657e-01 -6.034689024090766907e-03 4.181459173560142517e-02 -1.750576347112655640e-01 -1.322841197252273560e-01 1.380855888128280640e-01 -5.074704438447952271e-02 -3.619724884629249573e-02 -1.509921401739120483e-01 3.079791180789470673e-02 -1.613583266735076904e-01 -2.983423322439193726e-02 -1.646950542926788330e-01 1.728902459144592285e-01 -3.417383506894111633e-02 -1.312408745288848877e-01 3.717729449272155762e-02 -5.197775363922119141e-02 -1.014232635498046875e-01 3.610646724700927734e-02 1.677428334951400757e-01 -3.782818466424942017e-02 -1.658311337232589722e-01 -5.838859826326370239e-02 1.701814383268356323e-01 2.695580758154392242e-02 -2.199662625789642334e-01 -6.675199419260025024e-02 -1.967267692089080811e-01 2.250129729509353638e-01 1.049451436847448349e-02 -1.180110201239585876e-01 1.170866712927818298e-01 7.456243038177490234e-02 -3.216875251382589340e-03 1.868560723960399628e-02 -1.516554225236177444e-02 1.645796000957489014e-01 4.795352742075920105e-02 -2.192360535264015198e-02 -1.171052232384681702e-01 2.497905306518077850e-02 1.608840227127075195e-01 -2.894743531942367554e-02 1.736441552639007568e-01 -5.875790491700172424e-02 -7.545547559857368469e-03 -9.317623078823089600e-02 -3.515696898102760315e-02 1.500035822391510010e-01 1.324324458837509155e-01 -1.440793424844741821e-01 -1.631225198507308960e-01 -7.044704258441925049e-02 -1.094831526279449463e-01 5.407385900616645813e-02 -1.760247163474559784e-02 1.041555032134056091e-01 -1.096477136015892029e-01 6.458890438079833984e-02 1.885695308446884155e-01 7.519587129354476929e-02 2.256613820791244507e-01 8.943224698305130005e-02 -5.885558947920799255e-02 1.558548659086227417e-01 -7.949271798133850098e-02 7.067024707794189453e-02 1.409379988908767700e-01 -1.346182525157928467e-01 -2.189216576516628265e-02 4.498504474759101868e-02 1.071997079998254776e-02 -5.087221413850784302e-02 -1.693341583013534546e-01 -2.012093067169189453e-01 -3.964559175074100494e-03 4.242511093616485596e-02 5.291818827390670776e-02 -1.430085301399230957e-01 -1.976094990968704224e-01 1.086784452199935913e-01 -2.149868458509445190e-01 -1.423047035932540894e-01 1.230844557285308838e-01 3.080622525885701180e-03 -1.113485768437385559e-01 1.160310059785842896e-01 7.024061679840087891e-02 -8.762542903423309326e-02 4.348154738545417786e-02 1.246958076953887939e-01 -9.209039807319641113e-02 1.761871576309204102e-01 -1.521941721439361572e-01 -1.333653181791305542e-01 9.673791378736495972e-02 1.067701578140258789e-01 8.757411688566207886e-02 -3.146087378263473511e-02 -5.797370895743370056e-02 2.063686996698379517e-01 1.581460982561111450e-02 6.431938614696264267e-03 -1.275397539138793945e-01 1.956502199172973633e-01 -1.811440736055374146e-01 -2.307897992432117462e-02 1.398233622312545776e-01 8.048593252897262573e-02 -6.779612600803375244e-02 -1.634716838598251343e-01 -1.534358412027359009e-01 -1.849279925227165222e-02 -1.021660715341567993e-01 1.096319556236267090e-01 -1.149709057062864304e-02 8.638845384120941162e-02 -1.833578944206237793e-01 8.383914828300476074e-02 1.086037009954452515e-01 3.306818753480911255e-02 1.737546622753143311e-01 -2.601999416947364807e-02 4.277517274022102356e-02 6.043776497244834900e-02 3.115801885724067688e-02 -4.446317907422780991e-03 -6.148247420787811279e-02 1.365973204374313354e-01 -2.659810334444046021e-02 1.192396972328424454e-03 -1.806579828262329102e-01 1.492823660373687744e-01 5.548146367073059082e-02 -4.702583327889442444e-02 -7.242164760828018188e-02 -7.824047654867172241e-02 -2.784391120076179504e-02 -5.550048779696226120e-03 -8.953842334449291229e-03 -3.247080370783805847e-02 -4.415182769298553467e-02 2.079121321439743042e-01 -1.660690605640411377e-01 1.275687813758850098e-01 -1.503699272871017456e-01 1.642567664384841919e-01 6.763649731874465942e-02 1.352847069501876831e-01 4.819335043430328369e-02 1.452221870422363281e-01 1.680815368890762329e-01 1.334644667804241180e-02 -1.331395190209150314e-02 -7.127495110034942627e-02 7.573972642421722412e-02 1.080875471234321594e-01 1.001431699842214584e-02 1.583638340234756470e-01 3.300907462835311890e-02 -1.791273206472396851e-01 -1.761195063591003418e-01 -6.356831640005111694e-02 5.281918123364448547e-02 6.490223854780197144e-02 1.835293918848037720e-01 2.123342156410217285e-01 9.196838736534118652e-02 1.672347784042358398e-01 1.069798469543457031e-01 6.181038543581962585e-02 -4.103909805417060852e-02 -3.159655630588531494e-02 2.887343987822532654e-02 5.915476381778717041e-02 4.480975493788719177e-02 5.954959988594055176e-02 -6.425446830689907074e-03 -7.916995137929916382e-02 -1.351103037595748901e-01 -1.667763888835906982e-01 1.672136336565017700e-01 1.946783214807510376e-01 2.122311145067214966e-01 -1.782739758491516113e-01 -4.890275374054908752e-02 3.210405632853507996e-02 -9.379066759720444679e-04 -3.974232077598571777e-02 -9.996815025806427002e-02 2.023747414350509644e-01 1.080271229147911072e-01 7.423040270805358887e-02 7.070339471101760864e-02 -9.397049993276596069e-02 1.461218595504760742e-01 -5.739462748169898987e-02 8.540973067283630371e-02 9.078682959079742432e-02 1.116758510470390320e-01 -1.252071112394332886e-01 -2.158547341823577881e-01 -1.756567507982254028e-01 -1.887734979391098022e-01 -6.193218380212783813e-02 1.735493838787078857e-01 4.151432216167449951e-02 1.820169687271118164e-01 -8.561655133962631226e-02 -8.602169901132583618e-02 -9.861417347565293312e-04 1.169618368148803711e-01 1.609237641096115112e-01 1.500640958547592163e-01 8.303129673004150391e-02 1.206187978386878967e-01 2.114541083574295044e-01 -1.217691451311111450e-01 -5.209413822740316391e-03 1.161206513643264771e-01 -1.261359751224517822e-01 -7.224780321121215820e-02 1.069728657603263855e-01 -1.867828816175460815e-01 -3.315066918730735779e-02 -2.778778597712516785e-02 -9.546199440956115723e-02 -2.804920077323913574e-02 -1.608487404882907867e-02 1.391418576240539551e-01 1.370212584733963013e-01 -1.120793819427490234e-01 6.278409808874130249e-02 7.173600792884826660e-02 1.168128922581672668e-01 9.175749868154525757e-02 -1.453864723443984985e-01 -3.665040060877799988e-02 -4.000221379101276398e-03 -1.738670095801353455e-02 -1.122574806213378906e-01 -1.613200008869171143e-01 -4.331040382385253906e-02 5.941175296902656555e-02 1.722334623336791992e-01 7.624220103025436401e-02 7.774243503808975220e-02 -1.616329848766326904e-01 -8.308649808168411255e-02 -7.078061252832412720e-02 1.265326440334320068e-01 1.835896968841552734e-01 -3.577103093266487122e-02 -4.874839261174201965e-02 -9.877267479896545410e-02 -8.793988078832626343e-02 1.992986910045146942e-02 8.025231212377548218e-02 -1.795216798782348633e-01 -5.744947865605354309e-02 -2.111666649580001831e-02 1.744092255830764771e-01 -3.344278410077095032e-02 -5.132244899868965149e-03 2.026914507150650024e-01 -6.048398092389106750e-02 2.538716048002243042e-02 -1.819391548633575439e-01 -1.950233727693557739e-01 4.699024837464094162e-03 -1.319032907485961914e-01 1.879411786794662476e-01 1.202346757054328918e-01 -3.470132872462272644e-02 -3.620802890509366989e-03 -1.482811123132705688e-01 8.747587911784648895e-03 7.653029263019561768e-02 1.008261665701866150e-01 1.180169805884361267e-01 -9.300455451011657715e-03 1.242104172706604004e-01 -9.791128337383270264e-03 1.950629055500030518e-02 -9.594718366861343384e-02 -9.653419256210327148e-02 -4.537953808903694153e-02 1.576885282993316650e-01 -9.121920168399810791e-02 -1.383858323097229004e-01 2.115732282400131226e-01 -9.144442528486251831e-02 -1.415791958570480347e-01 -1.529383100569248199e-02 1.190282925963401794e-01 1.773889660835266113e-01 -2.275286242365837097e-02 4.438969120383262634e-02 -5.085356533527374268e-02 5.675122141838073730e-03 2.183102667331695557e-01 1.036035716533660889e-01 -2.140575498342514038e-01 -8.201351016759872437e-02 2.046563662588596344e-03 -6.933017075061798096e-02 -1.832531839609146118e-01 -1.200187280774116516e-01 -2.270010113716125488e-02 -2.929290384054183960e-02 -2.778780087828636169e-02 -2.665424160659313202e-02 -8.481536060571670532e-02 8.753946423530578613e-02 -4.707215726375579834e-02 -1.542666256427764893e-01 -6.763211637735366821e-02 -2.302022464573383331e-02 -1.514101177453994751e-01 3.648654744029045105e-02 3.817448392510414124e-02 1.923945099115371704e-01 3.333551064133644104e-02 -5.025494098663330078e-02 1.740610599517822266e-01 1.070084944367408752e-01 -8.382831513881683350e-02 8.444328606128692627e-02 1.730526387691497803e-01 -1.312534660100936890e-01 -1.193699017167091370e-01 1.366852223873138428e-02 -5.475812777876853943e-02 2.051508724689483643e-01 1.337903589010238647e-01 7.103565335273742676e-02 -1.119712218642234802e-01 -1.337041892111301422e-02 -1.166320741176605225e-01 1.248890161514282227e-01 1.295733302831649780e-01 1.219127625226974487e-01 -1.436843276023864746e-01 -2.142479829490184784e-02 -5.825959146022796631e-02 5.880892649292945862e-02 1.996050179004669189e-01 1.617602556943893433e-01 -1.659054458141326904e-01 1.356227695941925049e-02 -1.927527934312820435e-01 -1.240988075733184814e-01 -5.467439442873001099e-02 1.456293910741806030e-01 7.103069871664047241e-02 -1.029376834630966187e-01 7.176607102155685425e-02 1.034313254058361053e-02 -1.658584028482437134e-01 1.226939782500267029e-01 -2.489390596747398376e-02 -1.938754171133041382e-01 -7.861750572919845581e-02 1.705902256071567535e-02 6.260602921247482300e-02 -1.514052748680114746e-01 1.355189085006713867e-01 -1.959556639194488525e-01 -1.916378885507583618e-01 1.316402852535247803e-01 6.077875196933746338e-02 1.535613089799880981e-01 -1.314525753259658813e-01 -8.926993608474731445e-02 -7.968942821025848389e-02 -1.336824148893356323e-01 7.280331850051879883e-02 -6.615607440471649170e-02 -1.347902417182922363e-01 9.732723236083984375e-02 7.610014081001281738e-02 5.579843651503324509e-03 -3.725826367735862732e-02 1.993759870529174805e-01 6.778206676244735718e-02 -4.096232727169990540e-02 1.598741263151168823e-01 6.969214975833892822e-02 8.039952814579010010e-02 -1.868047267198562622e-01 -1.853392720222473145e-01 6.921974569559097290e-02 -8.404844999313354492e-02 1.005517318844795227e-01 -1.655810475349426270e-01 -1.856073141098022461e-01 4.000768065452575684e-02 1.408766396343708038e-02 1.091077253222465515e-01 -4.659015685319900513e-02 1.304094027727842331e-02 -3.460167720913887024e-02 1.274945735931396484e-01 -9.536631405353546143e-02 -1.726292073726654053e-01 -4.721319675445556641e-02 -1.456483006477355957e-01 1.004489660263061523e-01 -4.983767122030258179e-02 9.792196564376354218e-03 1.289549618959426880e-01 -7.838649302721023560e-02 1.474087983369827271e-01 -6.254146248102188110e-02 -8.347710967063903809e-02 1.265088915824890137e-01 -2.690223790705204010e-02 4.095528274774551392e-03 -1.508425623178482056e-01 -1.776790916919708252e-01 -6.368459016084671021e-02 4.622785001993179321e-02 -5.190301686525344849e-02 4.645975306630134583e-02 2.493889257311820984e-02 1.829116046428680420e-01 2.073752582073211670e-01 -1.147646531462669373e-01 -9.942830353975296021e-02 7.117379456758499146e-02 2.502909488976001740e-02 -1.402196586132049561e-01 6.237112730741500854e-02 -1.759759634733200073e-01 -1.823469400405883789e-01 -1.440661698579788208e-01 3.641906753182411194e-02 -1.931682042777538300e-02 1.527172327041625977e-01 -1.561915129423141479e-01 1.724071204662322998e-01 -8.671375364065170288e-02 1.377001404762268066e-01 -6.939716637134552002e-02 9.555938839912414551e-02 3.319401293992996216e-02 9.978178888559341431e-02 -2.248198539018630981e-02 -1.601243019104003906e-01 -1.759704202413558960e-01 -2.020668983459472656e-01 -1.325305253267288208e-01 1.092484220862388611e-01 1.522305905818939209e-01 1.515857577323913574e-01 -1.476582605391740799e-02 6.570682674646377563e-02 -1.650365144014358521e-01 1.807411313056945801e-01 -1.261215656995773315e-01 -1.371220350265502930e-01 1.507968902587890625e-01 -9.150299429893493652e-02 5.096760764718055725e-02 -1.705825775861740112e-01 -1.728864312171936035e-01 -7.647533714771270752e-02 -1.486192643642425537e-01 2.044897899031639099e-02 -4.781267791986465454e-02 8.619526773691177368e-02 -8.171573281288146973e-02 1.493982970714569092e-01 1.438589096069335938e-01 -1.875413805246353149e-01 1.113731972873210907e-02 -1.435622572898864746e-01 -8.070766180753707886e-02 1.762231439352035522e-01 5.150237679481506348e-02 4.618259519338607788e-02 -8.673570305109024048e-02 6.224673986434936523e-02 -2.057960629463195801e-02 1.188029050827026367e-01 -1.932787895202636719e-01 -6.319944560527801514e-02 -2.077803462743759155e-01 -2.039016485214233398e-01 1.175401583313941956e-01 -7.179687917232513428e-02 1.323464214801788330e-01 2.846546471118927002e-02 1.104672327637672424e-01 -1.644865423440933228e-01 -4.957380518317222595e-02 6.952872872352600098e-02 -1.383916288614273071e-01 1.212438195943832397e-02 -8.904070407152175903e-02 -1.017735525965690613e-01 -9.196407347917556763e-02 1.805222183465957642e-01 1.241826415061950684e-01 -6.390480697154998779e-02 -2.163422480225563049e-02 -2.655276842415332794e-02 1.311950269155204296e-03 -1.656643301248550415e-01 1.742049306631088257e-01 1.050664335489273071e-01 5.079047009348869324e-02 -9.692708402872085571e-02 4.060855507850646973e-02 -1.633350402116775513e-01 9.537817537784576416e-02 -1.449611634016036987e-01 -1.486005336046218872e-01 -1.098707914352416992e-01 1.298405081033706665e-01 9.279972314834594727e-02 -9.718316048383712769e-02 -1.647437810897827148e-01 -7.345790416002273560e-02 -1.436776816844940186e-01 -1.997496783733367920e-01 -9.931368380784988403e-02 4.441070556640625000e-02 7.691226154565811157e-02 -1.902171969413757324e-01 1.165730357170104980e-01 -7.659252732992172241e-02 1.848425343632698059e-02 -1.131293326616287231e-01 8.269151300191879272e-02 -1.608498245477676392e-01 -6.376556307077407837e-02 -1.803406327962875366e-02 6.505242735147476196e-02 -2.393563836812973022e-02 1.943956315517425537e-02 -1.329367309808731079e-01 1.727499475236982107e-04 -1.784426867961883545e-01 1.704541780054569244e-02 8.451022207736968994e-02 -9.543979167938232422e-02 6.419534981250762939e-02 6.141692772507667542e-02 2.483609318733215332e-02 1.556442230939865112e-01 6.585197150707244873e-02 1.989443004131317139e-01 2.095893956720829010e-02 
1.009883046150207520e+00 9.800910353660583496e-01 9.990264773368835449e-01 1.009764075279235840e+00 9.960235953330993652e-01 9.916553497314453125e-01 1.001198649406433105e+00 1.025138378143310547e+00 
-6.767857354134321213e-03 -2.271830104291439056e-03 -1.830297149717807770e-02 1.552021875977516174e-02 -1.936448551714420319e-02 -1.149806939065456390e-02 -1.255065482109785080e-02 1.770630362443625927e-03 
-4.436057507991790771e-01 3.095160052180290222e-02 6.858638525009155273e-01 2.494655996561050415e-01 -6.521736085414886475e-02 -4.332343637943267822e-01 -2.924578487873077393e-01 -4.208269119262695312e-01 
5.613154172897338867e-01 1.073190927505493164e+00 7.394195199012756348e-01 3.644735813140869141e-01 7.270279526710510254e-01 5.606367588043212891e-01 6.579198837280273438e-01 5.956686139106750488e-01 
1.774527579545974731e-01 -1.943027079105377197e-01 -7.167122513055801392e-02 -8.114831894636154175e-02 7.825389504432678223e-03 1.006466299295425415e-01 -5.611927434802055359e-02 -1.194790154695510864e-01 1.684717088937759399e-01 7.830815017223358154e-02 5.456572771072387695e-02 7.588300853967666626e-02 -1.881277859210968018e-01 7.723683863878250122e-02 6.989450752735137939e-02 1.830127984285354614e-01 -6.463362276554107666e-02 7.971574366092681885e-02 -1.371226906776428223e-01 6.089177727699279785e-02 2.039479464292526245e-01 -9.861075878143310547e-02 6.978335231542587280e-02 1.593406200408935547e-01 1.854756474494934082e-01 8.789340406656265259e-02 7.418233901262283325e-02 6.242750957608222961e-02 -8.601828664541244507e-02 2.028920203447341919e-01 -1.579638123512268066e-01 -5.110096931457519531e-02 -9.793873876333236694e-02 4.283743724226951599e-02 -5.841992422938346863e-02 4.392042383551597595e-02 1.630616635084152222e-01 3.574580326676368713e-02 6.940106302499771118e-02 -9.925153851509094238e-02 -1.853730082511901855e-01 -4.207463189959526062e-02 -6.428565084934234619e-02 7.599005103111267090e-02 1.908055879175662994e-02 6.606986373662948608e-02 -2.294139936566352844e-02 -1.037639155983924866e-01 -1.796215027570724487e-01 4.378704354166984558e-02 -1.897762715816497803e-01 -8.680580556392669678e-02 1.524317078292369843e-02 8.583829551935195923e-02 1.261869668960571289e-01 1.623115986585617065e-01 -1.832777410745620728e-01 1.237976476550102234e-01 -1.536711603403091431e-01 -6.782955676317214966e-02 -1.674114912748336792e-02 1.320268958806991577e-01 -1.408635675907135010e-01 -1.761034689843654633e-02 -6.105054542422294617e-02 -1.687544882297515869e-01 9.389694035053253174e-02 -1.691588759422302246e-01 -5.303659290075302124e-02 9.505243599414825439e-02 1.345902979373931885e-01 -1.552093960344791412e-02 7.049141824245452881e-02 7.557697594165802002e-02 -1.208773255348205566e-01 -5.194491147994995117e-02 -1.810062229633331299e-01 -9.588179737329483032e-02 4.695685580372810364e-02 1.573482006788253784e-01 -8.079214394092559814e-02 1.688762754201889038e-01 -5.861737951636314392e-02 2.213781177997589111e-01 1.083667874336242676e-01 1.554886102676391602e-01 5.902563408017158508e-02 -1.363094989210367203e-02 -1.443519592285156250e-01 -1.385706663131713867e-01 -1.619481444358825684e-01 6.543260812759399414e-02 -1.431525349617004395e-01 5.774660035967826843e-02 -1.663767546415328979e-01 1.315371990203857422e-01 -1.477859914302825928e-01 1.769592761993408203e-01 -1.025721132755279541e-01 -5.555181577801704407e-02 -8.871394395828247070e-02 9.276325255632400513e-02 -4.862556234002113342e-02 -1.597875952720642090e-01 9.370705485343933105e-02 -3.194123134016990662e-02 -1.771073341369628906e-01 -1.472903974354267120e-02 1.789964586496353149e-01 1.547043323516845703e-01 -6.076439470052719116e-02 9.027974307537078857e-02 -1.548538357019424438e-01 -6.040459871292114258e-02 2.034430652856826782e-01 -1.623693853616714478e-01 -1.370337456464767456e-01 1.320391148328781128e-01 -5.641311407089233398e-02 -3.226896375417709351e-02 -8.076178282499313354e-02 -1.110499501228332520e-01 1.077954657375812531e-02 6.704743951559066772e-02 3.919009864330291748e-02 5.393452942371368408e-02 -5.736734718084335327e-02 3.974081203341484070e-02 -1.874652951955795288e-01 -1.882113814353942871e-01 -9.747654199600219727e-02 1.788996160030364990e-02 7.261240482330322266e-02 -1.465402096509933472e-01 1.971901953220367432e-01 2.758313529193401337e-02 -1.888440400362014771e-01 1.280161887407302856e-01 -5.394345149397850037e-02 1.639270484447479248e-01 -1.271401643753051758e-01 1.817566603422164917e-01 1.249940544366836548e-01 -1.050020009279251099e-01 -1.777909696102142334e-01 1.350481063127517700e-01 5.644589290022850037e-02 1.609450727701187134e-01 1.974225789308547974e-01 -1.136798784136772156e-01 -2.072101086378097534e-01 6.025441363453865051e-02 -1.164311096072196960e-01 -1.124890521168708801e-01 8.339601755142211914e-02 1.508379280567169189e-01 9.486898779869079590e-02 6.892368942499160767e-02 -1.051667630672454834e-01 6.838271394371986389e-03 -5.361220985651016235e-02 1.816159933805465698e-01 -1.709916293621063232e-01 1.089442074298858643e-01 3.960497677326202393e-02 1.236960440874099731e-01 1.028754487633705139e-01 -2.182434312999248505e-02 -1.028312295675277710e-01 -9.257207810878753662e-02 -6.640073377639055252e-03 3.748568892478942871e-02 -8.986949175596237183e-02 4.807095229625701904e-02 1.033680364489555359e-01 1.907811611890792847e-01 1.890507787466049194e-01 -1.580360680818557739e-01 1.360988616943359375e-01 1.350308805704116821e-01 2.665439434349536896e-02 -7.058708369731903076e-02 2.138847410678863525e-01 7.970596104860305786e-02 1.301420666277408600e-02 2.609330601990222931e-02 1.236217319965362549e-01 -9.304089099168777466e-02 -1.251820176839828491e-01 1.860688924789428711e-01 -5.592937022447586060e-02 1.357875466346740723e-01 -8.516785502433776855e-02 8.695411682128906250e-02 -1.578997261822223663e-02 9.202831983566284180e-02 4.313437268137931824e-02 -9.725778549909591675e-02 4.131759703159332275e-02 6.628689914941787720e-02 5.147195607423782349e-02 1.775864660739898682e-01 3.270950168371200562e-02 -3.498459607362747192e-02 5.914318561553955078e-02 1.397041231393814087e-01 -2.026802152395248413e-01 2.296741157770156860e-01 3.579009324312210083e-02 -8.043663948774337769e-02 -2.135228663682937622e-01 3.355296701192855835e-02 1.871693134307861328e-01 1.439087688922882080e-01 1.008637025952339172e-01 8.650950342416763306e-02 -1.452460587024688721e-01 1.107800304889678955e-01 -5.398583412170410156e-02 1.920221000909805298e-01 -9.544528275728225708e-02 -7.388511300086975098e-02 -1.082331910729408264e-01 1.947627216577529907e-01 1.672375015914440155e-02 4.425344988703727722e-02 3.201093524694442749e-02 -9.295577555894851685e-02 -1.141773834824562073e-01 4.178194701671600342e-02 -3.406640887260437012e-02 -1.202667690813541412e-02 8.539877017028629780e-04 1.704200506210327148e-01 1.816441118717193604e-02 7.461477816104888916e-02 1.939838677644729614e-01 -1.692055016756057739e-01 -7.480472326278686523e-02 -2.938497625291347504e-02 5.351164191961288452e-02 -1.204125210642814636e-01 -5.467603728175163269e-02 -1.114385575056076050e-02 -7.773412764072418213e-02 1.695225760340690613e-02 1.041017249226570129e-01 -2.294930815696716309e-02 -2.387864701449871063e-02 -1.373658925294876099e-01 2.701688790693879128e-03 -7.102468609809875488e-02 -4.117104411125183105e-02 1.824263483285903931e-01 5.092844367027282715e-03 -9.992155432701110840e-02 -1.438176482915878296e-01 1.168701052665710449e-01 1.767065674066543579e-01 5.377375707030296326e-02 -1.394914388656616211e-01 1.253506094217300415e-01 -1.486773323267698288e-02 -1.354331076145172119e-01 2.768328972160816193e-02 -7.336562126874923706e-02 -1.241102218627929688e-01 -5.175589770078659058e-02 -4.104771092534065247e-02 -4.668626561760902405e-02 1.419228315353393555e-01 3.604436665773391724e-02 9.165818244218826294e-02 -1.079621091485023499e-01 -1.576716005802154541e-01 8.490727096796035767e-02 2.164945602416992188e-01 1.812320947647094727e-01 -2.378853969275951385e-02 -1.330793946981430054e-01 5.827342718839645386e-02 -1.534330844879150391e-01 -9.715193510055541992e-02 1.390704661607742310e-01 -1.689604073762893677e-01 -1.156143844127655029e-01 2.488675061613321304e-03 -1.944074034690856934e-02 7.292871922254562378e-02 -1.317622214555740356e-01 -1.912266612052917480e-01 7.068580389022827148e-02 -1.446570754051208496e-01 -3.695784509181976318e-02 1.096488088369369507e-01 -1.018638610839843750e-01 3.566658124327659607e-02 1.225504130125045776e-01 -1.661849170923233032e-01 3.669822588562965393e-02 1.019675955176353455e-01 -1.525363326072692871e-01 -5.194956064224243164e-02 4.443412646651268005e-02 6.815605610609054565e-02 -1.526536494493484497e-01 1.862352341413497925e-01 1.084430143237113953e-01 1.794176250696182251e-01 -6.339097768068313599e-02 9.623316675424575806e-02 8.424537628889083862e-02 -1.620412021875381470e-01 1.693484932184219360e-01 -3.788131847977638245e-02 3.993777930736541748e-02 -3.424103185534477234e-02 -1.278960704803466797e-01 -3.467488288879394531e-02 -1.725036650896072388e-01 1.162275746464729309e-01 -1.866846680641174316e-01 -3.663705289363861084e-02 -1.103746294975280762e-01 -1.692562997341156006e-01 9.527803398668766022e-03 7.222092151641845703e-02 -1.674978137016296387e-01 -1.918278187513351440e-01 1.051720380783081055e-01 1.630302965641021729e-01 -1.673342138528823853e-01 -2.424848265945911407e-02 -9.326214343309402466e-02 -1.284645050764083862e-01 -1.052458435297012329e-01 1.803684532642364502e-01 -9.456750750541687012e-02 -1.829042285680770874e-01 1.114679351449012756e-01 -3.122410736978054047e-02 -1.690449118614196777e-01 5.570941790938377380e-02 -2.180901914834976196e-01 8.051387220621109009e-02 -6.802034378051757812e-02 9.462898969650268555e-02 2.810936234891414642e-02 1.826191097497940063e-01 1.997676044702529907e-01 -8.366498351097106934e-02 -6.002045050263404846e-02 1.466839760541915894e-01 -1.370560191571712494e-02 8.626131713390350342e-02 -7.354607433080673218e-02 -1.384757757186889648e-01 -1.669630259275436401e-01 -1.716609746217727661e-01 -1.551406681537628174e-01 -2.198135405778884888e-01 1.147310808300971985e-01 -1.148655638098716736e-01 8.405124768614768982e-03 -2.238173782825469971e-01 -1.561459600925445557e-01 -1.346206218004226685e-01 -1.146585792303085327e-01 -6.763128191232681274e-02 1.545660942792892456e-01 -1.223084032535552979e-01 -4.780306015163660049e-03 -2.396724373102188110e-02 1.586142927408218384e-01 -3.094269149005413055e-02 -1.735543832182884216e-02 -1.392065733671188354e-01 4.430622607469558716e-02 1.694792807102203369e-01 6.053498014807701111e-02 -4.425373300909996033e-02 1.649080961942672729e-01 -4.398838430643081665e-02 1.248541250824928284e-01 1.471741050481796265e-01 1.767268031835556030e-01 3.616341575980186462e-02 1.172877773642539978e-01 6.270888447761535645e-02 6.814336776733398438e-02 -6.514192372560501099e-02 5.143747478723526001e-02 6.048431247472763062e-02 -5.237134173512458801e-02 1.345339715480804443e-01 7.013328373432159424e-02 2.063472867012023926e-01 6.019741296768188477e-02 -2.016038149595260620e-01 -1.124352067708969116e-01 -6.517254561185836792e-02 -1.511262506246566772e-01 -1.783405840396881104e-01 -5.101159331388771534e-04 -1.855200678110122681e-01 1.625540703535079956e-01 8.180245012044906616e-02 2.813724800944328308e-02 7.881438732147216797e-02 -1.206124760210514069e-02 1.926559489220380783e-03 -2.121777981519699097e-01 -7.853843271732330322e-02 2.756237052381038666e-02 1.502808183431625366e-01 1.193099990487098694e-01 -3.011587075889110565e-03 6.287263333797454834e-02 8.724896609783172607e-02 4.944464936852455139e-02 1.758273690938949585e-01 1.331519931554794312e-01 -5.369085073471069336e-02 -5.732709541916847229e-02 -2.703623147681355476e-03 1.704133898019790649e-01 -7.356582581996917725e-02 2.703558653593063354e-02 -3.205914516001939774e-03 1.046843603253364563e-01 1.288140565156936646e-01 -1.414797157049179077e-01 -9.205811470746994019e-02 7.788627594709396362e-02 -3.641929104924201965e-02 -9.950324892997741699e-02 -3.366410359740257263e-02 1.412849128246307373e-01 -8.952061645686626434e-03 1.036569103598594666e-02 -8.156950771808624268e-02 -1.101716533303260803e-01 -9.784888476133346558e-02 -1.421944648027420044e-01 7.250621169805526733e-02 -6.569798290729522705e-02 -3.832126781344413757e-02 2.799977734684944153e-02 1.673202663660049438e-01 -1.066985279321670532e-01 1.418109536170959473e-01 8.763480931520462036e-03 -8.402996510267257690e-02 7.161133736371994019e-02 -1.760114282369613647e-01 1.131191253662109375e-01 -7.079379260540008545e-02 -1.017299816012382507e-01 7.927025854587554932e-02 2.162676490843296051e-02 -1.186725869774818420e-01 4.253629222512245178e-02 -1.755209267139434814e-01 -1.670244634151458740e-01 -6.566104292869567871e-02 1.309446841478347778e-01 -6.854230910539627075e-02 3.943387418985366821e-02 1.184477433562278748e-01 -1.685386151075363159e-01 -1.057894378900527954e-01 1.234675943851470947e-01 1.770331561565399170e-01 1.230276003479957581e-01 8.836971223354339600e-02 -2.393743954598903656e-02 1.653206199407577515e-01 2.757514594122767448e-03 1.625962108373641968e-01 4.220800846815109253e-02 -1.256815791130065918e-01 2.642745338380336761e-02 -5.491289868950843811e-02 -1.531012803316116333e-01 1.239953786134719849e-01 1.617801934480667114e-01 2.764841355383396149e-02 -1.175671964883804321e-01 1.404350697994232178e-01 -1.113237440586090088e-01 -9.458525478839874268e-02 -8.369603008031845093e-02 -5.012106150388717651e-02 -8.474972099065780640e-02 -1.768476814031600952e-01 1.139639914035797119e-01 -1.351118385791778564e-01 9.103693068027496338e-02 4.383663088083267212e-02 -1.059573143720626831e-01 -7.843468338251113892e-02 -1.018680185079574585e-01 1.056113764643669128e-01 1.359355449676513672e-01 1.129344180226325989e-01 -1.779625564813613892e-01 -5.837913602590560913e-02 8.627569675445556641e-02 2.155356854200363159e-01 3.335289424285292625e-03 6.775442045181989670e-03 1.946644484996795654e-01 -7.141735404729843140e-02 -4.070831090211868286e-02 1.646726578474044800e-01 -1.103746667504310608e-01 -5.665878206491470337e-02 -8.092536032199859619e-02 4.148004576563835144e-02 5.335419997572898865e-02 -1.295473724603652954e-01 1.046893000602722168e-01 -1.492438614368438721e-01 1.095902696251869202e-01 -1.895641982555389404e-01 -3.664603829383850098e-02 -1.788307726383209229e-01 1.814087927341461182e-01 1.707787066698074341e-01 6.101126596331596375e-02 1.860270947217941284e-01 -5.550757050514221191e-02 -8.710522949695587158e-02 -7.426667213439941406e-02 -9.070831537246704102e-02 -1.280269585549831390e-02 3.374543786048889160e-02 5.404114723205566406e-03 1.283759772777557373e-01 1.861751228570938110e-01 -9.067192673683166504e-03 8.995579183101654053e-02 -4.767758771777153015e-02 -1.542242318391799927e-01 6.708174198865890503e-02 -1.163308136165142059e-02 1.425125151872634888e-01 6.711256504058837891e-02 -1.787812560796737671e-01 -9.894692152738571167e-02 -5.925772711634635925e-02 6.498616188764572144e-02 1.767073012888431549e-02 -5.777778476476669312e-02 5.375934019684791565e-02 4.718074575066566467e-02 -8.314394205808639526e-02 1.316152978688478470e-02 5.042804777622222900e-02 -6.117760390043258667e-02 -7.833711057901382446e-02 5.602034926414489746e-02 -1.251778453588485718e-01 6.378379464149475098e-02 -1.512760370969772339e-01 -4.785912111401557922e-02 -4.728493839502334595e-02 4.314709827303886414e-02 -1.254187226295471191e-01 1.561657339334487915e-01 9.736807644367218018e-02 -1.647630929946899414e-01 -3.562564030289649963e-02 -3.519492223858833313e-02 2.178176194429397583e-01 -8.305183798074722290e-02 
9.744113087654113770e-01 1.007480978965759277e+00 9.788874983787536621e-01 1.014449954032897949e+00 1.012957453727722168e+00 9.873890280723571777e-01 9.870381951332092285e-01 9.858847856521606445e-01 
-1.135577540844678879e-02 2.718867966905236244e-03 -2.605707943439483643e-02 -7.732118014246225357e-03 -1.570731028914451599e-02 7.987828925251960754e-03 -7.930058985948562622e-03 -1.167608331888914108e-02 
6.126561388373374939e-02 -1.641004681587219238e-01 5.396285653114318848e-01 -8.408398926258087158e-02 -4.054147899150848389e-01 2.261528223752975464e-01 -1.563116461038589478e-01 -2.792601101100444794e-02 
3.280065953731536865e-01 4.113113880157470703e-01 4.296361207962036133e-01 3.143169283866882324e-01 4.258129298686981201e-01 3.431612551212310791e-01 2.559453845024108887e-01 2.478232979774475098e-01 
1.543563604354858398e-01 4.659898206591606140e-02 -7.259564101696014404e-02 -2.949441783130168915e-02 6.008614972233772278e-02 9.263835102319717407e-02 -9.670682996511459351e-02 -6.906335800886154175e-02 -1.334384977817535400e-01 6.107595190405845642e-02 1.602050513029098511e-01 1.050862744450569153e-01 -1.609077304601669312e-01 1.620110273361206055e-01 -9.880065172910690308e-02 -6.038364022970199585e-02 -4.401768371462821960e-02 1.743272691965103149e-01 1.513926386833190918e-01 -6.668636947870254517e-02 1.014294847846031189e-01 1.709569841623306274e-01 -4.379697516560554504e-02 -1.507401913404464722e-01 6.022749841213226318e-02 -6.591781973838806152e-02 -1.941027492284774780e-01 -5.320261791348457336e-02 -1.190710812807083130e-01 1.442234311252832413e-02 1.096744164824485779e-01 1.515676826238632202e-01 -1.098439544439315796e-01 -3.181600198149681091e-02 -8.203998953104019165e-02 1.558231115341186523e-01 -1.124628782272338867e-01 7.467306405305862427e-02 -4.638136830180883408e-03 -7.181958854198455811e-02 1.491302102804183960e-01 -2.356247603893280029e-02 7.865399867296218872e-02 1.839971542358398438e-01 1.524174064397811890e-01 5.341342650353908539e-03 -1.699381470680236816e-01 -2.947921678423881531e-02 8.381356298923492432e-02 4.651203379034996033e-02 -2.219373136758804321e-01 -2.504511037841439247e-03 -1.821286380290985107e-01 -1.089519113302230835e-01 3.856074810028076172e-02 -1.958461105823516846e-01 5.179037898778915405e-02 1.030995883047580719e-02 2.097866833209991455e-01 -1.011750102043151855e-01 6.869311630725860596e-02 -6.772259622812271118e-02 -1.783721381798386574e-03 -1.277483403682708740e-01 1.043771132826805115e-01 1.111890599131584167e-01 8.537895232439041138e-02 -4.776863381266593933e-02 -1.194235011935234070e-01 -1.841602623462677002e-01 1.591266244649887085e-01 -1.685138940811157227e-01 1.733678430318832397e-01 4.523376934230327606e-03 -2.033474743366241455e-01 3.382675349712371826e-02 -1.878481917083263397e-02 -7.193785905838012695e-02 -1.000599563121795654e-01 2.649114653468132019e-02 -4.959630221128463745e-02 2.026774585247039795e-01 -1.569825112819671631e-01 1.608265340328216553e-01 7.176429778337478638e-02 -3.898913040757179260e-02 4.367117583751678467e-02 -1.751468628644943237e-01 -2.511426620185375214e-02 -4.043498262763023376e-02 -1.908920109272003174e-01 7.649581879377365112e-02 1.844571977853775024e-01 1.133350953459739685e-01 -1.899328380823135376e-01 9.856423735618591309e-02 -7.624286413192749023e-02 2.284140884876251221e-02 1.265316158533096313e-01 7.521801628172397614e-03 -7.816916704177856445e-02 -5.962115246802568436e-03 -1.598788499832153320e-01 1.014100313186645508e-01 -5.159735679626464844e-03 7.711333781480789185e-02 -2.224726974964141846e-01 -8.971506357192993164e-02 5.159553140401840210e-02 -1.685073077678680420e-01 -1.351241320371627808e-01 3.756084665656089783e-02 4.785782657563686371e-03 -2.029910534620285034e-01 1.788279265165328979e-01 -4.120549932122230530e-02 8.993367850780487061e-02 -1.902422606945037842e-01 1.186450794339179993e-01 -6.059108301997184753e-02 3.518503159284591675e-02 -9.703496098518371582e-02 9.578260034322738647e-02 1.980314105749130249e-01 1.639393568038940430e-01 1.541451513767242432e-01 -1.991195231676101685e-02 7.684730738401412964e-02 6.217474490404129028e-02 -1.763508617877960205e-01 1.956105977296829224e-01 -2.352275513112545013e-02 -1.640786081552505493e-01 -6.290135532617568970e-02 3.940787911415100098e-02 1.047327071428298950e-01 1.935587525367736816e-01 -2.136671356856822968e-02 4.571748897433280945e-02 5.824916437268257141e-02 -1.743353554047644138e-03 -1.526075303554534912e-01 6.536354124546051025e-02 1.743030995130538940e-01 1.891716122627258301e-01 -1.776290684938430786e-02 -1.982924342155456543e-01 -1.463999450206756592e-01 1.268039196729660034e-01 -1.490366011857986450e-01 -1.973211318254470825e-01 7.399513572454452515e-02 3.064524754881858826e-02 2.137715071439743042e-01 -1.531358361244201660e-01 1.023467481136322021e-01 -3.650091961026191711e-02 8.824011683464050293e-02 -5.751906335353851318e-02 -1.306318789720535278e-01 -1.828504204750061035e-01 -1.134766265749931335e-01 -1.464550103992223740e-02 -7.192564755678176880e-02 1.634820699691772461e-01 7.228716462850570679e-02 1.310284137725830078e-01 -8.553302288055419922e-02 1.151325777173042297e-01 4.825973883271217346e-02 -4.110971838235855103e-02 1.601546555757522583e-01 -7.955353707075119019e-02 1.420768648386001587e-01 1.186189725995063782e-01 1.541015505790710449e-01 -1.081556528806686401e-01 -7.911475747823715210e-02 -1.837544888257980347e-02 7.508236914873123169e-02 -1.330004781484603882e-01 -7.724481821060180664e-02 -1.503522098064422607e-01 1.572191119194030762e-01 -6.660543382167816162e-02 1.555225253105163574e-01 8.516722591593861580e-04 9.614749252796173096e-02 1.731698960065841675e-01 -1.499881744384765625e-01 -7.373632490634918213e-02 -2.089484483003616333e-01 1.071553975343704224e-01 6.658405065536499023e-02 1.403303146362304688e-01 8.520153909921646118e-02 -8.770655840635299683e-02 1.715182811021804810e-01 5.539092421531677246e-02 -1.164753362536430359e-01 1.467496603727340698e-01 -8.367167413234710693e-02 1.370561867952346802e-01 -4.962484911084175110e-02 5.468712002038955688e-02 -3.915365785360336304e-02 -1.450460702180862427e-01 -1.929019093513488770e-01 -1.086564585566520691e-01 -2.572249993681907654e-02 8.329326659440994263e-02 3.834636509418487549e-02 4.095247422810643911e-04 1.604050546884536743e-01 7.118467986583709717e-02 -8.529280871152877808e-02 -3.877671435475349426e-02 -9.215556830167770386e-02 1.134343724697828293e-02 -1.388449072837829590e-01 6.790943443775177002e-02 -3.887486085295677185e-02 -1.690467447042465210e-01 1.163492798805236816e-01 -4.570525512099266052e-02 1.349476873874664307e-01 -1.885446310043334961e-01 -1.304593086242675781e-01 -1.916160434484481812e-01 8.259253948926925659e-02 -2.094100266695022583e-01 1.915563791990280151e-01 -1.549287736415863037e-01 2.162472456693649292e-01 -1.036599278450012207e-01 1.770560592412948608e-01 8.161436021327972412e-02 5.647918954491615295e-02 1.070231422781944275e-01 2.142999470233917236e-01 -1.469553560018539429e-01 -5.140231177210807800e-02 5.208923295140266418e-02 1.847503781318664551e-01 5.406977236270904541e-02 6.204438954591751099e-02 -1.311890687793493271e-02 7.753462344408035278e-02 8.902431465685367584e-03 1.645019054412841797e-01 1.183080375194549561e-01 -1.750057041645050049e-01 9.699515253305435181e-02 4.135020822286605835e-02 -5.406367406249046326e-02 -8.965227752923965454e-02 -1.263908594846725464e-01 9.067411720752716064e-02 -2.883591130375862122e-02 -6.429726630449295044e-02 -5.230186507105827332e-02 -1.591759733855724335e-03 1.711878180503845215e-01 -9.071212261915206909e-02 1.229097917675971985e-01 1.201571300625801086e-01 -3.650270029902458191e-02 1.190873533487319946e-01 6.388557702302932739e-02 4.163675755262374878e-02 -6.391608621925115585e-03 -1.523648053407669067e-01 -2.217947244644165039e-01 -4.020126536488533020e-02 1.588869839906692505e-01 1.189559176564216614e-01 2.376943081617355347e-02 4.142048954963684082e-02 -1.583444327116012573e-01 -1.953056454658508301e-01 1.111703217029571533e-01 1.041063759475946426e-02 1.360499858856201172e-01 -1.592010259628295898e-01 1.336911022663116455e-01 3.369743376970291138e-02 -1.154048666357994080e-01 -8.764412999153137207e-02 -1.487439721822738647e-01 7.827076315879821777e-02 1.717974692583084106e-01 9.964537620544433594e-02 3.505611047148704529e-02 -1.504150480031967163e-01 -6.392488628625869751e-02 1.016994640231132507e-01 -1.147589907050132751e-01 1.382637619972229004e-01 3.265173733234405518e-02 5.512401089072227478e-02 -1.221267953515052795e-01 -1.589170545339584351e-01 -9.314592182636260986e-02 8.991282433271408081e-02 -1.465266793966293335e-01 -2.193838590756058693e-03 5.063361302018165588e-02 -3.413111343979835510e-02 -3.558582812547683716e-02 4.935170337557792664e-02 2.399881929159164429e-01 4.613493382930755615e-02 -7.489970326423645020e-02 1.106341555714607239e-01 -1.497298628091812134e-01 1.523109972476959229e-01 -6.348972767591476440e-02 -3.090973384678363800e-02 1.917428374290466309e-01 -9.089078754186630249e-02 1.406876593828201294e-01 -9.892963618040084839e-02 -1.145118847489356995e-02 -1.506686955690383911e-01 9.218630194664001465e-02 1.958895176649093628e-01 -8.549003303050994873e-02 -9.223835915327072144e-02 1.142862662672996521e-01 -1.998821832239627838e-02 4.503046348690986633e-02 4.414591565728187561e-02 5.473281256854534149e-03 4.627117887139320374e-03 -1.962915807962417603e-01 1.693677008152008057e-01 -1.801303178071975708e-01 -9.497752040624618530e-02 -7.117979228496551514e-02 -1.951523125171661377e-01 -1.483577042818069458e-01 -1.446510553359985352e-01 3.082449734210968018e-02 3.314223885536193848e-02 1.934997886419296265e-01 -1.849473267793655396e-01 5.987145751714706421e-02 -1.053315177559852600e-01 5.558827519416809082e-02 -6.463551521301269531e-02 1.709634810686111450e-01 -1.173250228166580200e-01 -2.460125833749771118e-02 -5.188104510307312012e-02 4.710983484983444214e-03 1.124210376292467117e-02 2.200517803430557251e-01 -1.771824508905410767e-01 8.988634496927261353e-02 1.064855903387069702e-01 -9.739911183714866638e-03 1.020893976092338562e-01 -1.044249013066291809e-01 1.002643033862113953e-01 1.006679832935333252e-01 -8.329349011182785034e-02 -2.807670272886753082e-02 1.848777085542678833e-01 1.420215219259262085e-01 1.799628734588623047e-01 -2.019343227148056030e-01 2.028818614780902863e-02 -4.234527051448822021e-02 1.826722770929336548e-01 3.323236107826232910e-02 1.452444195747375488e-01 -7.411216944456100464e-02 -1.386336982250213623e-01 -1.777352094650268555e-01 9.674992412328720093e-02 -2.908382937312126160e-02 -7.612712681293487549e-02 -1.034450829029083252e-01 -7.269416004419326782e-02 -6.065334752202033997e-02 1.506517380475997925e-01 -1.629869639873504639e-01 8.705721050500869751e-02 2.199147641658782959e-02 7.571107894182205200e-02 9.574098140001296997e-02 -8.096448332071304321e-02 -1.680468171834945679e-01 -1.570339500904083252e-01 1.695114076137542725e-01 -1.546583920717239380e-01 1.439654082059860229e-01 6.615421175956726074e-02 1.526308655738830566e-01 -1.605964452028274536e-01 1.752748489379882812e-01 -1.523361951112747192e-01 6.474922597408294678e-02 1.055387109518051147e-01 -7.426908612251281738e-02 2.272452265024185181e-01 5.990389734506607056e-02 -1.077633947134017944e-01 -5.160958692431449890e-02 1.644656211137771606e-01 -9.508331865072250366e-02 -1.430770158767700195e-01 -2.654503472149372101e-02 -1.653962070122361183e-03 1.520720124244689941e-01 1.060815900564193726e-01 1.612626910209655762e-01 -8.758708834648132324e-02 -8.603148162364959717e-02 9.357085078954696655e-02 -1.145263947546482086e-02 1.646880060434341431e-02 -1.823424398899078369e-01 1.349486559629440308e-01 -1.923094876110553741e-02 1.420194506645202637e-01 -5.739228054881095886e-02 1.388943940401077271e-01 2.486073598265647888e-02 -5.064157769083976746e-03 -1.810865104198455811e-01 1.296941637992858887e-01 1.415388435125350952e-01 -5.023707076907157898e-02 1.400699168443679810e-01 -1.720828860998153687e-01 -1.508687883615493774e-01 -3.205677494406700134e-02 -2.575978450477123260e-02 8.930364251136779785e-02 -1.882259696722030640e-01 -1.247179657220840454e-01 -1.153304576873779297e-01 -7.168069481849670410e-02 -4.831231385469436646e-02 1.167744919657707214e-01 1.870705001056194305e-02 -3.672531619668006897e-02 -3.566483035683631897e-02 -1.760277152061462402e-01 -1.870354264974594116e-02 -7.023948244750499725e-03 1.879310011863708496e-01 6.216431409120559692e-02 1.078751161694526672e-01 1.292860209941864014e-01 1.041565015912055969e-01 -3.387968242168426514e-02 -6.204785779118537903e-02 8.365374803543090820e-02 6.030526757240295410e-02 1.347442269325256348e-01 -5.962482467293739319e-02 9.382041543722152710e-02 -4.246763139963150024e-02 7.166472822427749634e-02 4.383487999439239502e-02 8.040998876094818115e-02 -1.553140133619308472e-01 9.448709338903427124e-02 1.381250172853469849e-01 -1.217760425060987473e-02 5.161395296454429626e-02 -7.422794401645660400e-02 7.551653683185577393e-02 -1.786634624004364014e-01 2.671237103641033173e-03 -7.015379518270492554e-02 2.497275546193122864e-02 9.673650376498699188e-03 -1.209615767002105713e-01 -1.632697433233261108e-01 -2.109688222408294678e-01 1.543506979942321777e-01 9.111167490482330322e-02 -8.732623606920242310e-02 -4.418280720710754395e-02 -8.146692812442779541e-02 -2.043086737394332886e-01 -1.825409233570098877e-01 -9.877416491508483887e-02 1.013345494866371155e-01 -7.575082592666149139e-03 -1.525611579418182373e-01 1.620954424142837524e-01 -1.585235893726348877e-01 -1.004119664430618286e-01 1.493018418550491333e-01 8.027237653732299805e-02 1.150462124496698380e-02 -1.835904568433761597e-01 1.114800199866294861e-01 1.633236259222030640e-01 1.649705767631530762e-01 -1.354033946990966797e-01 -1.168122068047523499e-01 6.921773403882980347e-02 1.432693153619766235e-01 6.507255882024765015e-02 -1.766687035560607910e-01 1.983435153961181641e-01 1.885402947664260864e-01 1.003086939454078674e-01 8.934624493122100830e-02 7.268446031957864761e-03 -1.514870673418045044e-01 1.566409170627593994e-01 -7.257946580648422241e-02 3.412807732820510864e-02 1.862980872392654419e-01 -2.230418026447296143e-01 -7.940735667943954468e-02 -6.186253204941749573e-02 -1.559388935565948486e-01 2.015585452318191528e-01 -7.350122928619384766e-02 1.210234388709068298e-01 -5.079158022999763489e-02 -1.368097066879272461e-01 -6.835040450096130371e-02 1.029527708888053894e-01 -5.993543565273284912e-02 -1.735083460807800293e-01 9.239967167377471924e-02 1.606047898530960083e-01 1.804463714361190796e-01 5.267286673188209534e-02 1.637978404760360718e-01 -1.259923875331878662e-01 1.123084649443626404e-01 -1.218415424227714539e-01 6.906616687774658203e-02 -1.646625101566314697e-01 -6.144963577389717102e-02 -1.074398010969161987e-01 1.820586919784545898e-01 1.009811609983444214e-01 1.197487115859985352e-01 1.925047338008880615e-01 -1.052211299538612366e-01 5.324537679553031921e-02 -1.192707791924476624e-01 -4.078976064920425415e-02 -8.791407197713851929e-02 6.040497496724128723e-02 7.128398120403289795e-02 2.248341962695121765e-02 3.583394363522529602e-02 -7.918468862771987915e-02 1.563908010721206665e-01 3.894642740488052368e-02 -1.508387476205825806e-01 1.313571631908416748e-01 5.902292579412460327e-02 4.085562378168106079e-02 1.009202599525451660e-01 4.508439451456069946e-02 9.111454337835311890e-02 1.870754361152648926e-01 -4.610326513648033142e-02 -1.132436767220497131e-01 -1.604364812374114990e-01 -1.943861842155456543e-01 1.467601507902145386e-01 3.986294381320476532e-03 -4.786713793873786926e-02 
9.848780035972595215e-01 9.663979411125183105e-01 1.021029472351074219e+00 1.013228297233581543e+00 9.776436686515808105e-01 9.991298913955688477e-01 1.014901399612426758e+00 9.987723231315612793e-01 
2.965981326997280121e-02 -3.329551592469215393e-02 6.494332104921340942e-03 -8.220165036618709564e-03 -1.029291469603776932e-02 8.159309509210288525e-04 1.035790983587503433e-02 8.179367519915103912e-03 
2.397028952836990356e-01 3.262202143669128418e-01 2.937623262405395508e-01 2.877169251441955566e-01 -2.499183565378189087e-01 5.941699147224426270e-01 -4.104090631008148193e-01 3.730533123016357422e-01 
9.456244707107543945e-01 1.468122959136962891e+00 1.174702644348144531e+00 9.824814796447753906e-01 1.805812001228332520e+00 1.371407628059387207e+00 1.150985836982727051e+00 1.371408581733703613e+00 
-1.214774474501609802e-01 -1.866934448480606079e-02 -1.707721501588821411e-01 1.779044270515441895e-01 -5.169415473937988281e-02 1.269046068191528320e-01 -7.326404750347137451e-02 -1.450185775756835938e-01 1.941881179809570312e-01 -1.892604082822799683e-01 3.634884953498840332e-02 -9.824729524552822113e-03 1.185721158981323242e-01 1.187160909175872803e-01 6.505929399281740189e-03 1.698846071958541870e-01 1.025936380028724670e-01 1.008989587426185608e-01 5.834307521581649780e-02 -1.602977812290191650e-01 -9.805237501859664917e-02 8.574878424406051636e-02 -3.371593775227665901e-03 3.119306638836860657e-02 1.357684726826846600e-03 -1.480459719896316528e-01 1.684239804744720459e-01 -7.780060917139053345e-02 1.955738216638565063e-01 -1.423442363739013672e-01 1.399387866258621216e-01 7.277686893939971924e-02 -1.093359217047691345e-01 -8.277706801891326904e-02 1.782124489545822144e-01 5.776672810316085815e-02 1.816276907920837402e-01 -1.531443148851394653e-01 -1.720636487007141113e-01 1.773381382226943970e-01 1.084245815873146057e-01 -1.857622116804122925e-01 3.668994456529617310e-02 -1.798288673162460327e-01 1.329985260963439941e-01 7.046312838792800903e-02 -1.798087731003761292e-02 5.048433784395456314e-03 -1.494837552309036255e-01 1.107451096177101135e-01 8.401007950305938721e-02 -6.899039447307586670e-02 3.367480263113975525e-02 -4.926408827304840088e-02 -1.994050294160842896e-01 5.290649086236953735e-02 -1.970046311616897583e-01 1.408204734325408936e-01 -9.862096607685089111e-02 -2.044632732868194580e-01 7.502617686986923218e-02 -5.389377102255821228e-02 1.007898077368736267e-01 -2.033482342958450317e-01 -2.665607957169413567e-03 -1.007861718535423279e-01 -7.549864798784255981e-02 5.150443315505981445e-02 1.066279262304306030e-01 -2.517057023942470551e-02 -2.105238586664199829e-01 -1.938596665859222412e-01 -8.529318869113922119e-02 -1.725056618452072144e-01 8.438935875892639160e-02 6.597110629081726074e-02 -9.468171745538711548e-02 -8.621503412723541260e-02 -1.450904011726379395e-01 -2.128701284527778625e-02 3.595285490155220032e-02 -1.606708168983459473e-01 6.961499340832233429e-03 -1.359513550996780396e-01 -4.248379915952682495e-02 -4.970457777380943298e-02 9.889557026326656342e-03 1.427866965532302856e-01 1.149602010846138000e-01 1.709398441016674042e-02 -9.440747089684009552e-03 -2.164518535137176514e-01 7.638702541589736938e-02 -8.431197702884674072e-02 -2.652908489108085632e-02 1.951851546764373779e-01 2.181602120399475098e-01 2.211374491453170776e-01 -9.557466953992843628e-02 -5.967573821544647217e-02 -9.885786473751068115e-02 -1.473955363035202026e-01 -1.307168900966644287e-01 7.858358323574066162e-02 -2.041834145784378052e-01 -1.605302393436431885e-01 3.069647587835788727e-02 1.178083419799804688e-01 -5.104319192469120026e-03 -3.200939670205116272e-02 1.659479141235351562e-01 -1.445652693510055542e-01 -8.128593116998672485e-02 -2.233199216425418854e-02 -4.902814701199531555e-02 8.601531386375427246e-03 -1.631163358688354492e-01 -2.430974133312702179e-02 1.107944622635841370e-01 -3.399615734815597534e-02 1.049823313951492310e-01 -7.964981347322463989e-02 7.666328921914100647e-03 1.547140926122665405e-01 -1.418153792619705200e-01 7.835868000984191895e-02 -1.317510940134525299e-02 -3.754801303148269653e-02 8.836469054222106934e-02 8.081060647964477539e-02 -1.516218632459640503e-01 1.269155293703079224e-01 -5.681927502155303955e-02 1.482447087764739990e-01 -6.201275810599327087e-02 -1.379410028457641602e-01 -7.101345062255859375e-02 1.512632817029953003e-01 -2.000466138124465942e-01 4.728980734944343567e-02 1.658329069614410400e-01 -6.265032291412353516e-02 1.222116425633430481e-01 1.292665004730224609e-01 -1.218117177486419678e-01 1.115777269005775452e-01 -1.588715761899948120e-01 2.020967453718185425e-01 -1.742964535951614380e-01 5.641927197575569153e-02 -1.709560863673686981e-02 4.000981152057647705e-02 2.264901697635650635e-01 -9.437449276447296143e-02 3.938907012343406677e-02 2.099625319242477417e-01 -6.148933246731758118e-02 1.237045750021934509e-01 1.362162381410598755e-01 9.830462932586669922e-02 6.541947368532419205e-03 1.824779510498046875e-01 6.493257824331521988e-04 5.111321434378623962e-02 1.005886420607566833e-01 -1.479319781064987183e-01 1.405884921550750732e-01 1.430671513080596924e-01 -4.908825736492872238e-03 1.385782510042190552e-01 6.883783638477325439e-02 5.010259896516799927e-02 -1.350841950625181198e-02 5.873566120862960815e-02 -2.333424054086208344e-02 1.260090433061122894e-02 1.002150326967239380e-01 1.801746040582656860e-01 9.679815173149108887e-02 -1.693786978721618652e-01 1.321599781513214111e-01 7.598412781953811646e-02 -1.975916326045989990e-03 -1.993686109781265259e-01 -3.029109351336956024e-02 5.920077860355377197e-02 9.619486331939697266e-02 7.106699794530868530e-02 9.751228243112564087e-02 1.246246397495269775e-01 -1.226841881871223450e-01 -1.632881462574005127e-01 1.155911758542060852e-01 -1.722930371761322021e-01 5.705635622143745422e-02 -6.138272956013679504e-02 2.711083739995956421e-02 1.229407712817192078e-01 1.747915893793106079e-01 -1.669459193944931030e-01 -9.424921125173568726e-02 5.337762460112571716e-02 -1.310688257217407227e-01 5.462658777832984924e-02 -9.238555282354354858e-02 1.806276738643646240e-01 2.717577107250690460e-02 -1.301352381706237793e-01 1.841079890727996826e-01 1.994376629590988159e-01 8.175677806138992310e-02 -1.684807389974594116e-01 1.024500802159309387e-01 -8.038095198571681976e-03 -1.004575118422508240e-01 -1.445048451423645020e-01 -4.015464335680007935e-02 -2.050389647483825684e-01 -1.070939972996711731e-01 -2.374671166762709618e-03 -2.411765791475772858e-02 5.606763996183872223e-03 -1.308851540088653564e-01 -9.623365104198455811e-02 -5.941331014037132263e-02 1.049267724156379700e-01 5.332159623503684998e-02 -3.768204897642135620e-02 5.110953375697135925e-02 -1.758369505405426025e-01 1.723341494798660278e-01 1.688538640737533569e-01 -1.287499535828828812e-02 -1.581409126520156860e-01 8.319564908742904663e-02 -8.316704072058200836e-03 6.139860488474369049e-03 -1.406473964452743530e-01 9.440253674983978271e-02 -1.624008864164352417e-01 -1.700891852378845215e-01 -8.414482325315475464e-02 -1.793350130319595337e-01 -2.720492705702781677e-02 4.353710636496543884e-02 -1.696358174085617065e-01 2.288206219673156738e-01 -2.021745294332504272e-01 1.443051993846893311e-01 6.540593225508928299e-03 -4.587240517139434814e-02 -7.497242093086242676e-02 1.081507354974746704e-01 1.286267340183258057e-01 1.911383494734764099e-02 1.662386953830718994e-02 -1.804946064949035645e-01 -7.785921543836593628e-02 1.480749845504760742e-01 -2.769606932997703552e-02 1.516223996877670288e-01 1.861803233623504639e-01 -1.347291469573974609e-01 3.757518948987126350e-03 6.171824783086776733e-02 -5.901843681931495667e-02 7.841049134731292725e-02 -5.754491314291954041e-02 -1.439958512783050537e-01 -3.282315656542778015e-02 1.946449577808380127e-01 -5.811106041073799133e-02 -8.905961364507675171e-02 -1.132677495479583740e-01 1.371773630380630493e-01 1.494755893945693970e-01 1.030578389763832092e-01 -1.463597863912582397e-01 9.194486588239669800e-02 2.897159941494464874e-02 -4.389672074466943741e-03 -1.241081580519676208e-01 8.353795856237411499e-02 -1.711429953575134277e-01 8.386934548616409302e-02 -8.249148726463317871e-02 1.255052387714385986e-01 -8.992423117160797119e-02 8.144079148769378662e-02 1.594629883766174316e-01 -3.877286240458488464e-02 3.394330292940139771e-02 6.719293445348739624e-02 7.141663134098052979e-02 1.451025456190109253e-01 -9.500478208065032959e-02 -2.388282865285873413e-02 4.316196963191032410e-02 -1.703719645738601685e-01 9.971924871206283569e-02 7.425838708877563477e-02 -1.130799725651741028e-01 -1.714202165603637695e-01 1.056656017899513245e-01 -1.723659336566925049e-01 1.192714497447013855e-01 3.925293684005737305e-02 1.202165335416793823e-01 2.167950123548507690e-01 1.759582161903381348e-01 -1.934383064508438110e-01 6.337559223175048828e-02 1.147976070642471313e-01 1.353710144758224487e-01 3.108368068933486938e-02 -1.150988787412643433e-01 -1.007751747965812683e-01 -2.174990326166152954e-01 1.286630034446716309e-01 -9.512306749820709229e-02 -6.853447109460830688e-02 -3.715044818818569183e-03 2.067235559225082397e-01 -9.025622159242630005e-02 -7.583820074796676636e-02 -1.354927122592926025e-01 1.208336874842643738e-01 1.276156771928071976e-02 6.038551777601242065e-02 1.053058430552482605e-01 -2.027328759431838989e-01 -1.785105168819427490e-01 -1.433372348546981812e-01 9.136523306369781494e-02 -1.189297512173652649e-01 1.341350078582763672e-01 -1.484370231628417969e-01 -8.379678428173065186e-02 7.083766162395477295e-02 -7.930926978588104248e-02 -1.113635525107383728e-01 1.004300862550735474e-01 3.609891608357429504e-02 -1.350234895944595337e-01 3.400032967329025269e-02 5.715860426425933838e-02 7.743059098720550537e-02 5.833281949162483215e-02 7.725699990987777710e-02 -7.467944920063018799e-02 4.750127345323562622e-02 1.816241294145584106e-01 9.751238673925399780e-02 6.753936409950256348e-02 9.263854473829269409e-02 1.514008343219757080e-01 -9.024642407894134521e-02 -1.468913443386554718e-02 2.045105546712875366e-01 -4.686083272099494934e-02 2.164697051048278809e-01 -9.402042627334594727e-02 -1.370446383953094482e-01 -1.724068820476531982e-01 -2.025077790021896362e-01 -7.907888293266296387e-02 1.187742315232753754e-02 1.627959311008453369e-02 1.478853970766067505e-01 -7.859661243855953217e-03 1.097027063369750977e-01 6.516750156879425049e-02 -9.032703936100006104e-02 7.989332079887390137e-02 -1.553439944982528687e-01 2.025759965181350708e-01 -6.946561392396688461e-03 -6.295202672481536865e-02 2.220292948186397552e-02 -1.784661412239074707e-02 6.528404541313648224e-03 1.712976209819316864e-02 -9.140004217624664307e-02 6.903754174709320068e-02 1.941227018833160400e-01 -1.423405706882476807e-01 1.590788811445236206e-01 -8.662566542625427246e-02 4.278330877423286438e-02 9.389748424291610718e-02 -2.122805863618850708e-01 1.920440495014190674e-01 -5.620187893509864807e-02 -2.560218423604965210e-02 -9.842609614133834839e-02 9.347550570964813232e-02 -1.757158041000366211e-01 -1.930027902126312256e-01 -2.322005666792392731e-02 8.295519277453422546e-03 -5.938861519098281860e-02 -1.661058366298675537e-01 -7.976838946342468262e-02 -1.857017874717712402e-01 -7.196860760450363159e-02 -1.496930718421936035e-01 -2.114336639642715454e-01 2.755670808255672455e-02 -1.978919468820095062e-02 2.199010401964187622e-01 -1.692042201757431030e-01 1.622457504272460938e-01 1.526045650243759155e-01 -1.285231113433837891e-01 5.312303453683853149e-02 1.679793559014797211e-02 -2.142807841300964355e-01 4.925151541829109192e-02 8.082433044910430908e-02 1.697288751602172852e-01 7.726183533668518066e-02 -1.800607144832611084e-01 -5.684600770473480225e-02 6.342708319425582886e-02 5.154831707477569580e-02 -1.003785729408264160e-01 -2.538992278277873993e-02 2.249422073364257812e-01 4.678427800536155701e-02 1.738354563713073730e-01 -2.375620231032371521e-02 1.278584301471710205e-01 -1.727195680141448975e-01 1.119859283789992332e-03 9.836471825838088989e-02 -1.211546063423156738e-01 3.862161189317703247e-02 -1.308500617742538452e-01 1.182852983474731445e-01 1.697320789098739624e-01 2.286616479977965355e-03 -1.078217104077339172e-02 -5.709376931190490723e-02 -5.653588846325874329e-02 1.985446810722351074e-01 -1.921407431364059448e-01 -1.053265929222106934e-01 -7.578843086957931519e-02 2.657342888414859772e-02 1.156907752156257629e-01 6.443059444427490234e-02 -1.848302483558654785e-01 -1.522007286548614502e-01 -7.106584310531616211e-02 -2.982646413147449493e-02 -6.926801800727844238e-02 -1.214308515191078186e-01 1.460273116827011108e-01 -1.848682612180709839e-01 2.024536766111850739e-02 1.439366638660430908e-01 6.705131381750106812e-02 8.491253852844238281e-02 5.129476264119148254e-02 3.516249731183052063e-02 -1.838704198598861694e-01 -2.035841345787048340e-01 -3.456537052989006042e-02 4.431495815515518188e-02 9.156255424022674561e-02 -2.004483193159103394e-01 1.231831535696983337e-01 4.180950671434402466e-02 1.843716502189636230e-01 1.296838372945785522e-01 6.821777671575546265e-02 5.200224369764328003e-02 1.631288081407546997e-01 -1.983045488595962524e-01 -1.667113304138183594e-01 8.645439147949218750e-02 1.491269767284393311e-01 -8.674538694322109222e-03 1.631648093461990356e-01 -9.067207574844360352e-02 -2.787749655544757843e-02 6.442495435476303101e-02 -1.883023083209991455e-01 1.193611174821853638e-01 -9.000545740127563477e-02 -5.880046635866165161e-02 1.579064279794692993e-01 -1.511648297309875488e-01 -1.745794266462326050e-01 1.291800588369369507e-01 1.464295983314514160e-01 -9.806196391582489014e-02 -1.975539624691009521e-01 -8.339776843786239624e-02 -1.252281218767166138e-01 1.120324581861495972e-01 1.901232153177261353e-01 3.213927149772644043e-02 9.000774472951889038e-02 4.480844736099243164e-02 9.223502129316329956e-02 -1.368176788091659546e-01 1.177222840487957001e-02 1.874120831489562988e-01 -1.292424052953720093e-01 8.435173332691192627e-02 5.623135715723037720e-02 7.855585962533950806e-02 1.098396480083465576e-01 -3.157700970768928528e-02 -1.688886135816574097e-01 4.962816461920738220e-02 -9.212848544120788574e-02 3.515070304274559021e-02 4.476112872362136841e-02 1.446405500173568726e-01 9.276811033487319946e-02 -5.385255813598632812e-02 -1.608831882476806641e-01 1.733852177858352661e-01 1.101748347282409668e-01 1.547063440084457397e-01 -2.027804702520370483e-01 1.450025886297225952e-01 1.203868016600608826e-01 -1.409103125333786011e-01 7.245485484600067139e-02 -4.462249577045440674e-02 -1.948988288640975952e-01 -3.079103864729404449e-02 5.279361084103584290e-02 4.933457449078559875e-02 2.636604197323322296e-02 5.162215977907180786e-02 4.666501283645629883e-02 9.195773303508758545e-02 -8.761493861675262451e-02 5.754389241337776184e-02 -1.095349490642547607e-01 -1.928050369024276733e-01 5.297899618744850159e-02 -1.749826073646545410e-01 2.629994228482246399e-02 -2.672583982348442078e-02 -2.447420544922351837e-02 3.062448278069496155e-02 2.004072302952408791e-05 1.100665777921676636e-01 1.414432525634765625e-01 6.593884527683258057e-02 7.476611435413360596e-02 -2.345072478055953979e-01 -1.436811834573745728e-01 -1.548719853162765503e-01 3.109523653984069824e-02 -6.303238868713378906e-02 -2.895534271374344826e-05 -9.842630475759506226e-02 -9.397276490926742554e-02 -1.439852267503738403e-01 1.830893009901046753e-01 5.072824656963348389e-02 -1.616285443305969238e-01 -1.376636326313018799e-01 -1.940171718597412109e-01 1.399262845516204834e-01 1.172376126050949097e-01 2.274652943015098572e-02 -1.460310220718383789e-01 1.307482570409774780e-01 1.020355671644210815e-01 
1.006097435951232910e+00 1.007140159606933594e+00 9.748066067695617676e-01 1.034057021141052246e+00 1.034069061279296875e+00 9.944924712181091309e-01 1.001982927322387695e+00 9.981441497802734375e-01 
4.014537204056978226e-03 9.270596317946910858e-03 -4.168203566223382950e-03 1.006918679922819138e-02 3.784696012735366821e-02 1.703326776623725891e-02 -1.238616881892085075e-03 2.986649633385241032e-04 
7.844061404466629028e-02 -2.994270324707031250e-01 4.697569012641906738e-01 -2.684622108936309814e-01 1.856867522001266479e-01 -4.217598214745521545e-02 -8.355575054883956909e-02 -6.456844508647918701e-03 
4.236141145229339600e-01 5.209985971450805664e-01 6.580138802528381348e-01 3.305152356624603271e-01 4.424321651458740234e-01 7.126064896583557129e-01 3.621960878372192383e-01 4.185570478439331055e-01 
