1.329233050346374512e-01 5.717247724533081055e-02 1.178846955299377441e-01 2.104269862174987793e-01 -7.483050227165222168e-02 -1.833359748125076294e-01 5.273950099945068359e-02 -1.012221723794937134e-01 6.321778893470764160e-02 -4.314580559730529785e-02 -4.645271599292755127e-02 -3.395323455333709717e-02 -2.230240255594253540e-01 -8.681342005729675293e-02 -1.891304850578308105e-01 -1.932726204395294189e-01 -9.358341991901397705e-02 6.765943765640258789e-02 2.023463249206542969e-01 -9.980987012386322021e-02 1.282285451889038086e-01 -9.945717453956604004e-02 2.382759451866149902e-01 -2.422037124633789062e-01 -6.677801907062530518e-02 2.202811837196350098e-01 3.313839435577392578e-03 -1.450081765651702881e-01 -1.563008129596710205e-02 1.513508856296539307e-01 -3.510506451129913330e-02 -2.161260098218917847e-01 -2.144248038530349731e-01 2.017571032047271729e-01 -2.419031411409378052e-01 2.032670080661773682e-01 -1.080342680215835571e-01 6.833836436271667480e-02 2.452263832092285156e-01 -1.928698569536209106e-01 -1.878555119037628174e-01 -6.028117239475250244e-02 1.549029052257537842e-01 -2.089028656482696533e-01 -2.232567518949508667e-01 -2.276276051998138428e-02 8.348867297172546387e-02 7.209810614585876465e-02 4.187318682670593262e-02 -7.072629034519195557e-02 2.035942375659942627e-01 -2.382864952087402344e-01 -1.286531537771224976e-01 -2.307425439357757568e-02 2.317167520523071289e-01 1.061080992221832275e-01 1.526969373226165771e-01 2.389522790908813477e-01 -1.888218671083450317e-01 -9.574632346630096436e-02 6.889095902442932129e-02 8.072197437286376953e-02 1.687342226505279541e-01 8.909046649932861328e-02 -2.568522095680236816e-02 -1.403444111347198486e-01 -9.709535539150238037e-02 -2.086168527603149414e-01 2.686059474945068359e-02 4.225793480873107910e-02 2.316856384277343750e-02 -7.292962074279785156e-02 -4.647649824619293213e-02 4.421016573905944824e-02 -5.362197756767272949e-02 1.828094720840454102e-01 -7.222568988800048828e-02 -1.122041046619415283e-02 -2.446966618299484253e-01 1.659150719642639160e-01 1.434591710567474365e-01 -7.011744379997253418e-02 -1.752881258726119995e-01 -1.861268430948257446e-01 1.537459194660186768e-01 1.608242988586425781e-01 -2.291836142539978027e-01 2.757707238197326660e-02 1.470925807952880859e-01 2.074143290519714355e-01 -1.380963623523712158e-01 8.398026227951049805e-03 -2.067494243383407593e-01 7.943797111511230469e-02 -1.614051461219787598e-01 -2.126586735248565674e-01 1.058164834976196289e-01 8.634009957313537598e-02 8.695763349533081055e-02 1.492583155632019043e-01 -4.493921995162963867e-02 -3.187380731105804443e-02 8.857983350753784180e-02 -3.376775979995727539e-02 -1.006311774253845215e-01 -1.940789818763732910e-02 -1.642639338970184326e-01 1.266157925128936768e-01 2.133491635322570801e-01 -3.295531868934631348e-02 -2.341278195381164551e-01 3.303173184394836426e-02 1.909530758857727051e-01 -1.037095934152603149e-01 -1.028928011655807495e-01 2.173797786235809326e-01 2.254167795181274414e-01 -9.974031150341033936e-02 -3.048197925090789795e-02 2.393224835395812988e-02 1.201481819152832031e-01 -1.607331633567810059e-01 -2.278692126274108887e-01 -2.087979316711425781e-01 4.479318857192993164e-02 -2.126873135566711426e-01 1.141744256019592285e-01 -1.128009110689163208e-01 -1.329524815082550049e-01 -1.335203349590301514e-01 -1.312679946422576904e-01 1.936484277248382568e-01 -2.438988834619522095e-01 1.343498826026916504e-01 6.671309471130371094e-02 1.177659630775451660e-02 -1.343279182910919189e-01 -4.380430281162261963e-02 1.945886015892028809e-01 9.360069036483764648e-02 1.978957056999206543e-01 2.881681919097900391e-02 -1.996597051620483398e-01 8.362859487533569336e-02 -1.559292972087860107e-01 -1.011437177658081055e-02 1.243206262588500977e-01 1.781970858573913574e-01 -8.213996887207031250e-02 -2.123910188674926758e-02 8.455133438110351562e-02 1.820831298828125000e-01 -2.246371954679489136e-01 -1.772228777408599854e-01 1.334677040576934814e-01 4.696366190910339355e-02 3.255912661552429199e-02 -6.399302184581756592e-02 1.904450058937072754e-01 1.041108369827270508e-02 -2.199567854404449463e-02 1.801670491695404053e-01 4.127487540245056152e-02 -9.251213073730468750e-02 4.033851623535156250e-02 1.132475137710571289e-01 -2.062046527862548828e-02 -1.319524645805358887e-02 1.169001460075378418e-01 6.896010041236877441e-02 -2.455798387527465820e-01 8.234757184982299805e-02 -2.301769554615020752e-01 -2.352184802293777466e-01 2.389572560787200928e-01 -3.274066746234893799e-02 4.177746176719665527e-02 2.379093170166015625e-01 -6.155313551425933838e-02 1.592608094215393066e-01 2.290755510330200195e-02 2.257350683212280273e-01 1.266348361968994141e-01 -1.221277266740798950e-01 9.316435456275939941e-02 -8.218124508857727051e-02 -2.058548629283905029e-01 9.287041425704956055e-02 1.091625094413757324e-01 8.501291275024414062e-02 -2.404123544692993164e-03 2.414113879203796387e-01 -1.103386133909225464e-01 -7.607276737689971924e-02 -2.072034776210784912e-01 6.966784596443176270e-02 -2.432581037282943726e-01 -1.056833714246749878e-01 -2.362093329429626465e-02 -1.917868256568908691e-01 -1.398657262325286865e-02 1.942056715488433838e-01 2.062428891658782959e-01 -5.502301454544067383e-02 1.230258047580718994e-01 -1.927917301654815674e-01 -1.964831352233886719e-02 1.920667290687561035e-01 1.446901559829711914e-01 -6.996691226959228516e-03 -1.462232023477554321e-01 -9.536087512969970703e-02 2.058953642845153809e-01 -1.827787309885025024e-01 -2.671426534652709961e-02 -2.837255597114562988e-02 
1.000000000000000000e+00 1.000000000000000000e+00 1.000000000000000000e+00 1.000000000000000000e+00 1.000000000000000000e+00 1.000000000000000000e+00 1.000000000000000000e+00 1.000000000000000000e+00 
0.000000000000000000e+00 0.000000000000000000e+00 0.000000000000000000e+00 0.000000000000000000e+00 0.000000000000000000e+00 0.000000000000000000e+00 0.000000000000000000e+00 0.000000000000000000e+00 
0.000000000000000000e+00 0.000000000000000000e+00 0.000000000000000000e+00 0.000000000000000000e+00 0.000000000000000000e+00 0.000000000000000000e+00 0.000000000000000000e+00 0.000000000000000000e+00 
1.000000000000000000e+00 1.000000000000000000e+00 1.000000000000000000e+00 1.000000000000000000e+00 1.000000000000000000e+00 1.000000000000000000e+00 1.000000000000000000e+00 1.000000000000000000e+00 
1.821797788143157959e-01 2.642418444156646729e-02 9.691125154495239258e-02 -3.932878375053405762e-03 1.168493330478668213e-01 1.823835372924804688e-01 4.633340239524841309e-02 -1.129266917705535889e-01 -4.139809310436248779e-02 1.329592466354370117e-01 2.032788097858428955e-01 -1.106211915612220764e-01 -7.316663861274719238e-02 -6.954234838485717773e-02 8.227199316024780273e-03 1.287713944911956787e-01 -8.971915394067764282e-02 7.704219222068786621e-02 2.717262506484985352e-02 1.914112567901611328e-01 9.163936972618103027e-02 -5.993427336215972900e-02 1.769521534442901611e-01 5.506831407546997070e-02 -1.844775676727294922e-02 1.485068202018737793e-01 -1.881938427686691284e-01 -5.856677889823913574e-02 -2.116528153419494629e-02 -6.177899241447448730e-02 -1.375880092382431030e-01 6.563448905944824219e-02 -5.635325610637664795e-02 1.536634564399719238e-01 4.550710320472717285e-03 -1.252633333206176758e-01 6.933531165122985840e-02 -1.021828204393386841e-01 1.345551311969757080e-01 -3.700491786003112793e-02 6.885993480682373047e-02 1.659583747386932373e-01 -7.586503028869628906e-02 1.832358539104461670e-01 4.971674084663391113e-02 8.035397529602050781e-02 -8.594400435686111450e-02 -1.226503551006317139e-01 2.362748980522155762e-02 1.271993517875671387e-01 4.464203119277954102e-02 1.498993933200836182e-01 1.624690592288970947e-01 1.766845881938934326e-01 3.616848587989807129e-02 -1.352635025978088379e-02 1.133893728256225586e-01 1.528161168098449707e-01 1.401113271713256836e-01 -1.418558061122894287e-01 1.078516840934753418e-01 -2.018566578626632690e-01 3.325197100639343262e-02 1.216671764850616455e-01 -1.563795506954193115e-01 2.011367380619049072e-01 6.499919295310974121e-02 -1.253232359886169434e-01 1.918780207633972168e-01 1.223770976066589355e-01 -1.182580590248107910e-01 -1.899724304676055908e-01 -1.446795612573623657e-01 2.014154493808746338e-01 -1.019764244556427002e-01 -1.608310192823410034e-01 -4.225462675094604492e-02 1.194172203540802002e-01 1.592431664466857910e-01 1.737999916076660156e-01 7.078179717063903809e-02 4.951378703117370605e-02 -2.019481509923934937e-01 -1.151473671197891235e-01 9.232044219970703125e-02 6.070435047149658203e-03 1.342600584030151367e-01 1.160505414009094238e-01 3.378199040889739990e-02 1.003537774085998535e-01 -1.967104673385620117e-01 -1.956159025430679321e-01 -6.318522989749908447e-02 1.157318055629730225e-01 -1.948323100805282593e-01 -4.549229145050048828e-02 -2.425669133663177490e-02 -9.463530033826828003e-02 6.795945763587951660e-02 -1.886757463216781616e-01 9.180739521980285645e-02 6.188002228736877441e-02 -4.119096696376800537e-02 -1.325826942920684814e-01 -3.069294989109039307e-02 -1.963621079921722412e-01 1.758902072906494141e-01 -1.403358876705169678e-01 1.773625612258911133e-03 -3.111353516578674316e-02 1.720675826072692871e-01 -4.368792474269866943e-02 1.558878123760223389e-01 1.637511253356933594e-01 1.175992190837860107e-01 2.032909393310546875e-01 1.213923692703247070e-01 -8.762700855731964111e-02 -1.215259060263633728e-01 1.103851199150085449e-01 5.022016167640686035e-02 2.201889455318450928e-02 -1.074059084057807922e-01 -7.262502610683441162e-02 8.698159456253051758e-02 7.235097885131835938e-02 -1.751387268304824829e-01 -9.143471717834472656e-02 3.105536103248596191e-03 -1.195050552487373352e-01 5.132409930229187012e-02 2.014888823032379150e-01 -4.290044307708740234e-03 -5.492727458477020264e-02 -1.591648161411285400e-01 1.878129243850708008e-01 3.139892220497131348e-02 -1.383720338344573975e-01 -1.091328561305999756e-01 -1.853994280099868774e-01 1.541490852832794189e-01 1.880720257759094238e-01 3.876297175884246826e-02 -1.572662591934204102e-01 1.363191604614257812e-01 1.489162743091583252e-01 1.043423116207122803e-01 3.020599484443664551e-02 3.737041354179382324e-02 -1.376598477363586426e-01 -1.341812312602996826e-02 -1.657312065362930298e-01 -4.858094453811645508e-02 3.339226543903350830e-02 1.017793118953704834e-01 -7.492506504058837891e-02 3.237810730934143066e-02 -1.953450143337249756e-01 -1.444011926651000977e-01 -9.731320291757583618e-02 1.955544650554656982e-01 -3.187765181064605713e-02 6.216958165168762207e-03 -1.017149314284324646e-01 -1.017236933112144470e-01 1.310017704963684082e-01 1.707263886928558350e-01 2.031856775283813477e-02 -7.393158972263336182e-02 -8.402828127145767212e-02 4.191717505455017090e-02 1.698166429996490479e-01 8.590498566627502441e-02 -1.638011634349822998e-01 -1.787492334842681885e-01 1.002038121223449707e-01 1.048873364925384521e-01 -6.783306598663330078e-03 -7.172152400016784668e-02 1.783687472343444824e-01 2.027852237224578857e-01 3.761267662048339844e-02 5.222898721694946289e-02 2.407005429267883301e-02 1.904513537883758545e-01 -6.273545324802398682e-02 -1.229141280055046082e-01 -1.374948620796203613e-01 1.423719823360443115e-01 -8.159025758504867554e-02 4.641357064247131348e-02 -9.196104854345321655e-02 -1.005396768450737000e-01 -1.954803615808486938e-01 -1.222491264343261719e-04 2.022074162960052490e-01 -3.070892393589019775e-02 1.491348743438720703e-01 -5.506120622158050537e-02 -4.782705008983612061e-02 9.046649932861328125e-02 5.648723244667053223e-02 -3.714108467102050781e-02 -8.509121835231781006e-02 3.392940759658813477e-02 -4.913954436779022217e-02 5.711534619331359863e-02 1.235186755657196045e-01 -1.054820045828819275e-01 1.955199241638183594e-01 -1.420388966798782349e-01 -1.384703367948532104e-01 1.709870398044586182e-01 -2.568434178829193115e-02 1.914850771427154541e-01 -1.648690104484558105e-01 2.273060381412506104e-02 4.954546689987182617e-02 6.406104564666748047e-02 -2.623471617698669434e-02 -7.556630671024322510e-02 1.025170087814331055e-03 -1.193799301981925964e-01 -1.475537866353988647e-01 -4.314406216144561768e-02 -9.057126194238662720e-02 -4.800984263420104980e-02 1.992493867874145508e-01 6.487739086151123047e-02 1.964854896068572998e-01 -8.965194225311279297e-03 1.480806469917297363e-01 4.846432805061340332e-02 -1.804118454456329346e-01 1.111072301864624023e-02 -2.123978734016418457e-02 7.953718304634094238e-02 1.962949335575103760e-02 -1.370135843753814697e-01 -7.821719348430633545e-02 -2.622868120670318604e-02 7.677942514419555664e-02 -7.085666060447692871e-03 -1.782326400279998779e-01 7.769688963890075684e-02 7.216352224349975586e-02 1.209683120250701904e-01 -8.260793238878250122e-02 1.760055422782897949e-01 -7.526861131191253662e-02 -7.856181263923645020e-02 8.338522911071777344e-02 1.142194867134094238e-01 -1.608903408050537109e-01 3.212819993495941162e-02 8.208373188972473145e-02 1.321733295917510986e-01 1.455706954002380371e-01 2.040322124958038330e-01 -1.945481002330780029e-01 -1.601983010768890381e-01 -1.173545122146606445e-01 5.257421731948852539e-02 9.474134445190429688e-02 -1.162980496883392334e-02 1.097994446754455566e-01 1.016157865524291992e-01 -1.434200704097747803e-01 -1.242617666721343994e-01 1.928243041038513184e-01 -6.862168014049530029e-02 -7.781326770782470703e-02 5.929696559906005859e-02 -2.000049352645874023e-01 -1.384023427963256836e-01 5.496382713317871094e-02 -1.925324499607086182e-01 1.274865269660949707e-01 -1.464889049530029297e-01 1.705897748470306396e-01 3.168682754039764404e-02 -1.751124411821365356e-01 -7.660047709941864014e-02 1.140310466289520264e-01 -4.717934131622314453e-02 -4.092875123023986816e-02 8.717590570449829102e-02 -5.773204565048217773e-02 -1.754771023988723755e-01 -6.031966209411621094e-02 -6.808283925056457520e-02 3.689308464527130127e-02 -1.967584043741226196e-01 1.478992700576782227e-01 -1.519448161125183105e-01 -6.379531323909759521e-02 -1.655218005180358887e-02 -1.574432104825973511e-01 -6.217266619205474854e-02 7.843780517578125000e-02 -9.754232317209243774e-02 2.259276807308197021e-02 1.212805807590484619e-01 8.176296949386596680e-03 1.532246470451354980e-01 -1.040633097290992737e-01 1.448558270931243896e-02 1.900255680084228516e-01 4.960310459136962891e-02 1.243254244327545166e-01 1.404339075088500977e-02 9.870323538780212402e-02 5.341157317161560059e-02 -1.440020203590393066e-01 1.053592264652252197e-01 -5.117143690586090088e-02 -6.822036206722259521e-02 -1.356625854969024658e-01 -1.290930807590484619e-01 -1.569772809743881226e-01 -1.300943195819854736e-01 -1.739820092916488647e-01 4.282943904399871826e-02 -5.305427312850952148e-02 1.952771246433258057e-01 5.199226737022399902e-02 -9.168807417154312134e-02 -1.451573371887207031e-01 -7.399660348892211914e-02 -1.285850107669830322e-01 9.057477116584777832e-02 -1.735531091690063477e-01 -1.421441137790679932e-01 -2.019621282815933228e-01 -9.445182234048843384e-02 1.008404791355133057e-02 1.288853287696838379e-01 1.791544258594512939e-01 8.709472417831420898e-02 1.736778020858764648e-01 3.957696259021759033e-02 1.019148230552673340e-01 6.199702620506286621e-02 4.521343111991882324e-02 -9.967106580734252930e-02 1.212660074234008789e-01 9.975373744964599609e-03 -3.272674977779388428e-02 -1.946974098682403564e-01 1.229332685470581055e-01 1.148165166378021240e-01 -6.020136177539825439e-02 3.652706742286682129e-03 -1.955706328153610229e-01 7.338383793830871582e-02 7.455641031265258789e-02 6.677404046058654785e-03 7.634815573692321777e-02 1.917720735073089600e-01 1.330057680606842041e-01 -1.225284412503242493e-01 -1.838557571172714233e-01 -1.692348867654800415e-01 -1.139999926090240479e-01 -1.951607614755630493e-01 1.624193191528320312e-01 1.830239892005920410e-01 7.870349287986755371e-02 -7.861559092998504639e-02 -8.624140918254852295e-02 3.981991112232208252e-02 -2.009674906730651855e-02 -1.002118065953254700e-01 -3.609976172447204590e-02 1.197987198829650879e-01 1.218924224376678467e-01 1.866329908370971680e-01 -5.875949561595916748e-02 1.317584812641143799e-01 1.692363321781158447e-01 1.987846493721008301e-01 -2.003164440393447876e-01 -1.658678054809570312e-01 1.823377311229705811e-01 -9.704178571701049805e-02 -1.888630092144012451e-01 1.612816751003265381e-01 7.120504975318908691e-02 6.093114614486694336e-03 -3.468681871891021729e-02 8.322528004646301270e-02 -1.781664788722991943e-02 -1.163075342774391174e-01 9.003537893295288086e-02 -1.199625730514526367e-01 1.053092479705810547e-01 -1.053447648882865906e-01 1.959044933319091797e-01 -1.806859374046325684e-01 1.331982016563415527e-02 -1.533987522125244141e-01 -1.076711937785148621e-01 1.285694241523742676e-01 -8.935943245887756348e-03 8.976626396179199219e-02 1.933886408805847168e-01 1.520313024520874023e-01 -1.385104358196258545e-01 -1.100686267018318176e-01 -9.889716655015945435e-02 1.228813230991363525e-01 6.589540839195251465e-02 1.288845837116241455e-01 8.543586730957031250e-02 -8.040682226419448853e-02 5.878871679306030273e-02 1.967098414897918701e-01 -1.952522993087768555e-01 1.851566433906555176e-01 3.657878935337066650e-02 -1.617920994758605957e-01 -3.031685948371887207e-02 -1.028688251972198486e-02 1.306182146072387695e-01 -8.399829268455505371e-03 1.788868010044097900e-01 8.517012000083923340e-03 8.890247344970703125e-02 5.781176686286926270e-02 7.177436351776123047e-02 5.179935693740844727e-02 2.870695292949676514e-02 -1.569269001483917236e-01 1.860187053680419922e-01 -1.932595372200012207e-01 -6.535446643829345703e-02 3.382959961891174316e-02 -9.538394212722778320e-02 -1.344021260738372803e-01 1.511800587177276611e-01 -1.892326325178146362e-01 1.386154592037200928e-01 -5.084317922592163086e-02 -1.347119361162185669e-01 -1.116378456354141235e-01 -4.896171391010284424e-02 -6.571324169635772705e-02 1.559126377105712891e-01 1.251726746559143066e-01 -1.733449548482894897e-01 -1.857028156518936157e-01 3.799110651016235352e-02 1.109318435192108154e-01 -7.545928657054901123e-02 1.798846423625946045e-01 2.388186752796173096e-02 1.996921598911285400e-01 -1.660725474357604980e-01 -6.691443920135498047e-02 1.713550686836242676e-01 1.524575352668762207e-01 1.647903621196746826e-01 1.173444390296936035e-01 -1.754036545753479004e-02 -1.361809968948364258e-01 3.953273594379425049e-02 1.498354971408843994e-01 -6.636095046997070312e-02 -2.908533811569213867e-02 -8.244635909795761108e-02 -3.425212204456329346e-02 -8.234912157058715820e-02 2.942413091659545898e-03 -6.631062924861907959e-02 2.191363275051116943e-02 -1.226574108004570007e-01 -1.247229874134063721e-01 1.228980720043182373e-01 9.337064623832702637e-02 1.577971279621124268e-01 -3.067962825298309326e-02 -1.070928350090980530e-01 -1.624177992343902588e-01 -6.029203534126281738e-03 -1.043944880366325378e-01 3.811287879943847656e-02 9.225797653198242188e-02 3.403788805007934570e-02 -4.710477590560913086e-02 -1.402799785137176514e-01 -1.926282346248626709e-01 1.897907853126525879e-01 7.465848326683044434e-02 -2.025924623012542725e-02 -1.086620986461639404e-01 -1.669154614210128784e-01 2.002353072166442871e-01 1.666335463523864746e-01 -1.540564298629760742e-01 1.441155076026916504e-01 1.697773635387420654e-01 -1.874585300683975220e-01 -1.472110748291015625e-01 1.461823880672454834e-01 -1.530623584985733032e-01 -1.332617551088333130e-01 4.672366380691528320e-02 -9.112032502889633179e-02 1.658993363380432129e-01 1.074008345603942871e-01 -7.022218406200408936e-02 -1.196068674325942993e-01 1.602192223072052002e-01 1.323149502277374268e-01 2.039912045001983643e-01 -2.295398712158203125e-02 -1.542239934206008911e-01 1.961545944213867188e-01 -3.726343810558319092e-02 -1.418059170246124268e-01 1.727382838726043701e-01 -9.294723719358444214e-02 1.021770834922790527e-01 1.380303800106048584e-01 1.990432739257812500e-01 1.115861535072326660e-01 5.626949667930603027e-02 -1.171389147639274597e-01 -1.905109733343124390e-01 -1.937701106071472168e-01 -1.297506242990493774e-01 2.998991310596466064e-02 1.302504837512969971e-01 -1.399655938148498535e-01 -1.619633585214614868e-01 -1.442282199859619141e-01 -2.028948664665222168e-01 -1.475529372692108154e-02 3.334969282150268555e-02 -3.724144399166107178e-02 6.149843335151672363e-02 1.657624840736389160e-01 1.874417066574096680e-01 -1.212770193815231323e-01 2.477538585662841797e-02 -3.631219267845153809e-02 1.221081018447875977e-01 -1.168700754642486572e-01 -3.363263607025146484e-02 -1.461848914623260498e-01 -3.941057622432708740e-02 -3.264932334423065186e-02 -1.152767688035964966e-01 4.134742915630340576e-02 -1.853990852832794189e-01 -6.784573197364807129e-03 2.837568521499633789e-02 -1.928565204143524170e-01 -6.264284253120422363e-02 1.988769173622131348e-01 -1.852255910634994507e-01 -2.789689600467681885e-02 1.362239122390747070e-01 -6.684917211532592773e-02 -9.629226475954055786e-02 8.017301559448242188e-03 1.576744914054870605e-01 -2.010144293308258057e-01 5.647015571594238281e-02 -4.244311153888702393e-02 1.686266362667083740e-01 -1.810770183801651001e-01 -1.955239176750183105e-01 9.754967689514160156e-02 -7.682263851165771484e-02 2.048730850219726562e-03 
1.000000000000000000e+00 1.000000000000000000e+00 1.000000000000000000e+00 1.000000000000000000e+00 1.000000000000000000e+00 1.000000000000000000e+00 1.000000000000000000e+00 1.000000000000000000e+00 
0.000000000000000000e+00 0.000000000000000000e+00 0.000000000000000000e+00 0.000000000000000000e+00 0.000000000000000000e+00 0.000000000000000000e+00 0.000000000000000000e+00 0.000000000000000000e+00 
0.000000000000000000e+00 0.000000000000000000e+00 0.000000000000000000e+00 0.000000000000000000e+00 0.000000000000000000e+00 0.000000000000000000e+00 0.000000000000000000e+00 0.000000000000000000e+00 
1.000000000000000000e+00 1.000000000000000000e+00 1.000000000000000000e+00 1.000000000000000000e+00 1.000000000000000000e+00 1.000000000000000000e+00 1.000000000000000000e+00 1.000000000000000000e+00 
1.794843375682830811e-01 -1.199572235345840454e-01 9.293779730796813965e-02 -1.925529986619949341e-01 1.736316680908203125e-01 4.456534981727600098e-03 -6.196124851703643799e-02 -1.272819042205810547e-01 1.221946477890014648e-01 -1.081011667847633362e-01 3.673447668552398682e-02 -1.856173574924468994e-01 -1.790191829204559326e-01 -2.489316463470458984e-02 -1.511396467685699463e-02 -9.587182849645614624e-02 -2.127204835414886475e-02 4.710575938224792480e-02 6.861135363578796387e-02 -7.779020071029663086e-02 1.346820592880249023e-01 -2.051284909248352051e-02 -8.820215612649917603e-02 -1.992413401603698730e-01 -2.053542435169219971e-02 1.261604726314544678e-01 -1.182751432061195374e-01 -1.667562723159790039e-01 1.489862501621246338e-01 6.017112731933593750e-02 -2.067270874977111816e-02 -7.560567557811737061e-02 3.285452723503112793e-03 4.926112294197082520e-02 9.131976962089538574e-02 -9.331837296485900879e-02 6.785380840301513672e-02 -1.973737925291061401e-01 1.361507773399353027e-01 -9.698080271482467651e-02 1.554889976978302002e-01 1.651995182037353516e-01 1.993329226970672607e-01 -1.775781065225601196e-01 1.905330717563629150e-01 -1.818010956048965454e-01 1.305742263793945312e-01 -5.175320804119110107e-02 -1.303238272666931152e-01 -1.381675302982330322e-01 1.755062937736511230e-01 -4.183696210384368896e-02 1.061955094337463379e-01 1.855073869228363037e-01 -1.043070852756500244e-01 1.897642612457275391e-01 -8.306481689214706421e-02 1.257300376892089844e-01 -1.622573435306549072e-01 -3.782153129577636719e-03 5.746516585350036621e-02 -1.049244776368141174e-01 -1.591037362813949585e-01 -4.149629175662994385e-02 -1.612919867038726807e-01 -9.512036293745040894e-02 -5.039097368717193604e-02 -7.398472726345062256e-02 1.446084976196289062e-01 7.974982261657714844e-02 -1.235757097601890564e-01 6.943255662918090820e-02 -1.163504645228385925e-01 -1.213317736983299255e-01 -7.932631671428680420e-02 5.480530858039855957e-02 3.174543380737304688e-03 -2.869921922683715820e-02 -1.756297796964645386e-01 -1.467579901218414307e-01 7.096031308174133301e-02 5.709812045097351074e-02 4.695084691047668457e-02 2.079740166664123535e-02 -8.079975843429565430e-02 -1.227086558938026428e-01 1.145597100257873535e-01 4.566460847854614258e-04 1.462492346763610840e-01 3.436940908432006836e-02 7.370451092720031738e-02 1.453856229782104492e-01 1.709018647670745850e-01 1.179798841476440430e-01 -9.135670214891433716e-02 -2.481685578823089600e-02 -7.028792798519134521e-02 1.202157139778137207e-02 1.673851907253265381e-02 -5.187705159187316895e-03 1.858004331588745117e-01 7.409802079200744629e-02 4.869088530540466309e-03 9.472343325614929199e-02 1.287696063518524170e-01 -9.946525096893310547e-02 -1.720214188098907471e-01 2.487093210220336914e-02 1.214207708835601807e-01 -1.809152066707611084e-01 2.029954791069030762e-01 -1.495634466409683228e-01 -1.273170411586761475e-01 1.108619868755340576e-01 -2.392572164535522461e-02 1.157333254814147949e-01 -1.730900853872299194e-01 -1.706911474466323853e-01 -1.812121272087097168e-01 1.218370199203491211e-01 4.704257845878601074e-02 1.172547340393066406e-01 -1.505707502365112305e-01 -3.636324405670166016e-02 1.708098053932189941e-01 1.700415909290313721e-01 2.040286064147949219e-01 -2.511173486709594727e-03 4.369239509105682373e-02 3.438429534435272217e-02 2.633984386920928955e-02 4.237760603427886963e-02 -1.964865922927856445e-01 -5.368733406066894531e-02 -1.271908879280090332e-01 1.899452209472656250e-01 -1.647734791040420532e-01 7.344496250152587891e-02 -1.364048719406127930e-01 -1.888429075479507446e-01 1.913875043392181396e-01 1.963051259517669678e-01 1.600698828697204590e-01 -1.596015989780426025e-01 8.152928948402404785e-02 -1.657437086105346680e-01 1.518546044826507568e-02 1.167873442173004150e-01 8.100458979606628418e-02 -1.407482922077178955e-01 1.834100186824798584e-01 1.294440627098083496e-01 1.108317673206329346e-01 -6.166447699069976807e-02 -2.248769998550415039e-02 1.588786840438842773e-01 -1.731057167053222656e-01 2.055372297763824463e-02 1.422701776027679443e-02 -1.166011467576026917e-01 7.525309920310974121e-02 -1.124143600463867188e-04 -9.692104160785675049e-02 1.557170450687408447e-01 6.488147377967834473e-02 1.469674706459045410e-02 -1.915469765663146973e-02 -1.912073940038681030e-01 -1.607595235109329224e-01 1.720698773860931396e-01 2.273863554000854492e-02 -7.382787764072418213e-02 -1.106157898902893066e-03 -5.287805199623107910e-02 -4.130245745182037354e-02 -1.001185104250907898e-01 -1.766036450862884521e-01 -3.495375812053680420e-02 1.458080112934112549e-01 -1.747624278068542480e-01 -6.156131625175476074e-03 1.363482177257537842e-01 -1.018971949815750122e-01 5.999091267585754395e-02 1.788580417633056641e-02 -1.563694775104522705e-01 -1.093258708715438843e-01 8.901432156562805176e-03 -1.882676184177398682e-01 -1.833513826131820679e-01 -8.964359760284423828e-03 1.864044964313507080e-01 -2.436804771423339844e-02 -9.065287560224533081e-02 -9.890504926443099976e-02 -3.765681385993957520e-02 -9.756110608577728271e-02 -4.443009197711944580e-02 -6.405194103717803955e-02 1.282234489917755127e-02 -4.809014499187469482e-02 1.732250452041625977e-01 1.704384684562683105e-01 -1.859771013259887695e-01 -1.514065116643905640e-01 1.600198745727539062e-01 -2.433106303215026855e-02 -5.768814682960510254e-02 1.902813017368316650e-01 -1.221635863184928894e-01 7.062679529190063477e-02 -1.020447984337806702e-01 -1.977988034486770630e-01 -8.834037184715270996e-02 1.801858246326446533e-01 -1.997856348752975464e-01 1.352316439151763916e-01 6.706300377845764160e-02 2.002248167991638184e-01 -1.586198359727859497e-01 -1.084354519844055176e-02 6.095880270004272461e-02 4.712283611297607422e-02 1.435077190399169922e-02 1.347321271896362305e-02 -1.838736236095428467e-02 -7.818196713924407959e-02 8.428844809532165527e-02 2.020125985145568848e-01 -4.884988069534301758e-02 3.405657410621643066e-02 -7.701648771762847900e-02 -1.778184771537780762e-01 -1.429143697023391724e-01 1.681483983993530273e-01 6.618633866310119629e-02 5.000013113021850586e-02 1.915216445922851562e-02 1.630520224571228027e-01 -6.127358973026275635e-02 1.768199801445007324e-01 -1.939788907766342163e-01 5.918055772781372070e-03 -1.068146973848342896e-01 1.757986843585968018e-01 -7.158014178276062012e-02 5.103278160095214844e-02 -2.040835171937942505e-01 1.965110898017883301e-01 -7.872386276721954346e-02 -2.958227694034576416e-02 1.140578091144561768e-01 -1.947543919086456299e-01 6.880015134811401367e-04 1.765744090080261230e-01 1.255241334438323975e-01 7.527196407318115234e-02 8.640357851982116699e-02 -3.206765651702880859e-02 -9.539090096950531006e-02 -1.023301333189010620e-01 1.387250721454620361e-01 7.075980305671691895e-03 -8.100903034210205078e-02 -1.000802069902420044e-01 -5.898940563201904297e-02 -1.494463086128234863e-01 -3.027038276195526123e-02 -6.390385329723358154e-02 1.673351228237152100e-02 -1.385076195001602173e-01 -1.937416344881057739e-01 -1.121552214026451111e-01 2.922223508358001709e-02 1.019250750541687012e-01 1.633052527904510498e-01 1.963282227516174316e-01 3.296647965908050537e-02 -1.686483472585678101e-01 4.468788206577301025e-02 -1.019950136542320251e-01 -2.481651306152343750e-02 1.269546151161193848e-01 6.276971101760864258e-02 1.979911029338836670e-01 2.436847984790802002e-02 1.334486007690429688e-01 -3.958363831043243408e-02 1.539661586284637451e-01 9.110113978385925293e-02 -1.690382212400436401e-01 8.093622326850891113e-02 7.678195834159851074e-02 6.496518850326538086e-02 -8.700937777757644653e-02 1.981029808521270752e-01 -2.975630760192871094e-02 -1.501573771238327026e-01 9.760880470275878906e-02 -1.410470157861709595e-01 1.660297811031341553e-01 3.969430923461914062e-02 -9.075099229812622070e-02 -7.523147761821746826e-02 -8.435785770416259766e-03 -3.301183879375457764e-02 -1.730665862560272217e-01 1.075552105903625488e-01 2.702483534812927246e-02 -2.034962177276611328e-02 4.421259462833404541e-02 -6.516344845294952393e-02 -1.868989169597625732e-01 8.808821439743041992e-03 2.563898265361785889e-02 1.276251077651977539e-01 1.973511576652526855e-01 1.075441241264343262e-01 -1.935612708330154419e-01 1.810467541217803955e-01 5.161523818969726562e-02 -5.636431276798248291e-02 -9.880902618169784546e-02 6.320601701736450195e-02 1.080856919288635254e-01 2.051031589508056641e-02 -1.692731380462646484e-01 -1.332540810108184814e-02 7.393509149551391602e-02 -6.433680653572082520e-03 -2.495171129703521729e-02 -1.787247061729431152e-01 -1.372983455657958984e-01 9.423208236694335938e-02 -6.112198531627655029e-02 -5.974651873111724854e-02 -1.459605693817138672e-01 1.858565509319305420e-01 -4.355698823928833008e-03 -1.114129051566123962e-01 1.581266522407531738e-01 -4.264746606349945068e-02 -1.377820968627929688e-02 -9.502881765365600586e-02 -5.955938994884490967e-02 -7.970640808343887329e-02 -1.090891063213348389e-01 -5.830101668834686279e-02 1.387634575366973877e-01 1.646911501884460449e-01 -1.650885939598083496e-01 3.581106662750244141e-03 -1.338811367750167847e-01 9.435784816741943359e-02 -1.413209140300750732e-01 -5.104573071002960205e-02 1.314748823642730713e-02 9.049564599990844727e-02 8.976680040359497070e-02 -4.463814198970794678e-02 6.038755178451538086e-02 -7.926514744758605957e-02 1.397199034690856934e-01 -1.573330312967300415e-01 1.165037751197814941e-01 -2.322821319103240967e-02 1.725263297557830811e-01 1.554236710071563721e-01 1.186483204364776611e-01 -4.345519840717315674e-02 1.833731234073638916e-01 -7.091110944747924805e-02 -3.322437405586242676e-02 2.660371363162994385e-02 8.232998847961425781e-02 7.384544610977172852e-02 1.799317300319671631e-01 -1.670715808868408203e-01 -1.455094367265701294e-01 1.873129606246948242e-02 1.253281235694885254e-01 3.012973070144653320e-02 2.020684480667114258e-01 1.055392622947692871e-02 1.955750286579132080e-01 -2.010958045721054077e-01 -2.660268545150756836e-02 -1.889111101627349854e-02 -1.029092222452163696e-01 -1.153691858053207397e-01 1.126645505428314209e-02 1.978324353694915771e-01 6.181836128234863281e-02 4.674494266510009766e-02 1.164235472679138184e-01 -1.809374988079071045e-02 -1.727758496999740601e-01 -5.448026955127716064e-02 -4.236714541912078857e-02 -1.763373017311096191e-01 7.556125521659851074e-02 2.558745443820953369e-02 -1.631687879562377930e-01 -1.637051403522491455e-01 4.231463372707366943e-02 5.034014582633972168e-03 1.821820437908172607e-01 -2.151542901992797852e-02 9.258592128753662109e-02 1.986732482910156250e-01 -1.597274988889694214e-01 3.061114251613616943e-02 1.930274069309234619e-02 -1.604612022638320923e-01 -3.420330584049224854e-02 4.987698793411254883e-02 -1.704424023628234863e-01 -1.452606916427612305e-02 -4.303354024887084961e-02 -1.686514168977737427e-01 -6.325049698352813721e-02 5.153372883796691895e-02 -9.589105099439620972e-02 -1.957416534423828125e-01 2.526634931564331055e-02 -1.210031211376190186e-01 -7.204899191856384277e-02 5.120050907135009766e-02 1.022774279117584229e-01 -5.719339847564697266e-02 1.687540113925933838e-01 4.165992140769958496e-02 -1.311348676681518555e-01 1.897884011268615723e-01 -4.791723191738128662e-02 -1.397968530654907227e-01 1.579068601131439209e-02 -1.800508797168731689e-02 -1.357779353857040405e-01 2.041126787662506104e-01 -1.745550185441970825e-01 7.733607292175292969e-02 1.923377513885498047e-01 4.930305480957031250e-02 -1.210030242800712585e-01 2.211657166481018066e-02 5.677184462547302246e-02 1.237138807773590088e-01 1.525070071220397949e-01 -1.682621240615844727e-01 2.024222612380981445e-01 -1.951714158058166504e-01 1.208642721176147461e-01 1.512531638145446777e-01 4.894623160362243652e-02 -9.418760985136032104e-02 1.195590198040008545e-01 -3.257729113101959229e-02 9.698230028152465820e-02 6.853544712066650391e-02 -2.441413700580596924e-02 1.919850409030914307e-01 1.968097090721130371e-01 1.664571762084960938e-01 1.831618249416351318e-01 -1.067919209599494934e-01 3.339359164237976074e-02 1.659430861473083496e-01 -1.565600931644439697e-01 -9.699740260839462280e-02 -9.325213730335235596e-02 9.489279985427856445e-02 2.064390480518341064e-02 -1.874610632658004761e-01 1.107496321201324463e-01 8.810940384864807129e-02 -1.210608407855033875e-01 9.805455803871154785e-02 1.885147988796234131e-01 -5.929182469844818115e-02 -5.582171678543090820e-02 1.009856462478637695e-01 7.651609182357788086e-02 1.431853771209716797e-01 1.978376507759094238e-02 -9.921193122863769531e-04 -2.033316642045974731e-01 -1.698814332485198975e-01 -5.925332009792327881e-02 1.278510689735412598e-01 1.353449523448944092e-01 1.264241337776184082e-01 -6.517775356769561768e-02 -1.676601618528366089e-01 -8.936617523431777954e-02 -5.017493665218353271e-02 1.994854211807250977e-01 1.511947214603424072e-01 1.925453543663024902e-01 -1.991081982851028442e-01 -1.375129520893096924e-01 -7.313388586044311523e-02 1.160714030265808105e-01 -1.026773229241371155e-01 1.612213850021362305e-01 1.015412807464599609e-01 -4.606384038925170898e-02 1.741304993629455566e-01 1.440584659576416016e-03 -1.874347776174545288e-01 1.726513206958770752e-01 -1.724348962306976318e-02 -9.437931329011917114e-02 1.122385859489440918e-01 -1.088599339127540588e-01 -5.170468986034393311e-02 1.780771911144256592e-01 1.550751328468322754e-01 -1.139409095048904419e-01 2.017421424388885498e-01 -7.590036094188690186e-02 1.565924584865570068e-01 1.578519046306610107e-01 7.761836051940917969e-02 1.357022225856781006e-01 -6.981065869331359863e-02 1.485858261585235596e-01 -3.191590309143066406e-02 -1.450600922107696533e-01 -5.786043405532836914e-02 1.339698135852813721e-01 -6.189477443695068359e-02 -1.459688544273376465e-01 6.579357385635375977e-02 9.636253118515014648e-03 -4.772582650184631348e-02 -2.205763757228851318e-02 -2.008910030126571655e-01 -1.036627367138862610e-01 -1.114085316658020020e-02 -1.962899863719940186e-01 1.071399450302124023e-01 2.384589612483978271e-02 -1.768046915531158447e-01 7.962426543235778809e-02 7.218915224075317383e-02 1.865835487842559814e-01 -1.730509102344512939e-01 -1.060939878225326538e-01 1.460595726966857910e-01 9.433531761169433594e-02 -1.129796877503395081e-01 -1.418638229370117188e-02 -6.266254186630249023e-02 1.823322474956512451e-01 -1.488418579101562500e-01 7.879239320755004883e-02 9.738731384277343750e-02 4.275093972682952881e-02 1.973498165607452393e-01 -8.943128585815429688e-02 -5.699639022350311279e-02 -1.362184286117553711e-01 4.190811514854431152e-02 -9.564012289047241211e-02 -1.405716240406036377e-01 8.915457129478454590e-02 9.361878037452697754e-02 -1.659314632415771484e-01 9.997606277465820312e-03 -9.912789613008499146e-02 8.853176236152648926e-02 -9.343001246452331543e-02 1.048873066902160645e-01 1.950195729732513428e-01 1.008699238300323486e-01 
1.000000000000000000e+00 1.000000000000000000e+00 1.000000000000000000e+00 1.000000000000000000e+00 1.000000000000000000e+00 1.000000000000000000e+00 1.000000000000000000e+00 1.000000000000000000e+00 
0.000000000000000000e+00 0.000000000000000000e+00 0.000000000000000000e+00 0.000000000000000000e+00 0.000000000000000000e+00 0.000000000000000000e+00 0.000000000000000000e+00 0.000000000000000000e+00 
0.000000000000000000e+00 0.000000000000000000e+00 0.000000000000000000e+00 0.000000000000000000e+00 0.000000000000000000e+00 0.000000000000000000e+00 0.000000000000000000e+00 0.000000000000000000e+00 
1.000000000000000000e+00 1.000000000000000000e+00 1.000000000000000000e+00 1.000000000000000000e+00 1.000000000000000000e+00 1.000000000000000000e+00 1.000000000000000000e+00 1.000000000000000000e+00 
5.954465270042419434e-02 -1.035870537161827087e-01 -1.661800146102905273e-01 1.522343754768371582e-01 -1.003040820360183716e-01 -5.013819038867950439e-02 1.962226331233978271e-01 -1.032346114516258240e-01 -2.763627469539642334e-02 5.024877190589904785e-02 -9.312112629413604736e-02 1.882823705673217773e-01 5.572760105133056641e-02 -1.521530598402023315e-01 8.326387405395507812e-02 -5.983124673366546631e-02 -9.584029018878936768e-02 -8.260224014520645142e-02 2.149470150470733643e-02 1.876294612884521484e-01 8.892506361007690430e-02 -1.486437916755676270e-01 1.499209105968475342e-01 -1.960065960884094238e-01 -6.504908204078674316e-02 -1.388621628284454346e-01 -2.036919444799423218e-01 -1.069709733128547668e-01 1.940139234066009521e-01 1.074244081974029541e-01 1.253183186054229736e-01 1.469570696353912354e-01 -1.977762728929519653e-01 -6.813456118106842041e-02 8.078160881996154785e-02 2.588631212711334229e-02 -1.844787001609802246e-01 1.536305844783782959e-01 -1.985422372817993164e-01 -1.556642353534698486e-02 1.701354682445526123e-01 1.761715710163116455e-01 9.252041578292846680e-02 3.931124508380889893e-02 1.025159955024719238e-01 4.301558434963226318e-02 7.622584700584411621e-02 -8.716910332441329956e-02 -8.044672757387161255e-02 -2.000587135553359985e-01 -1.373558640480041504e-01 1.361236572265625000e-01 -5.240237712860107422e-02 2.044397592544555664e-02 2.004590332508087158e-01 -3.310436010360717773e-02 -2.991530299186706543e-02 -9.598907083272933960e-02 6.049558520317077637e-02 1.416869759559631348e-01 1.079267263412475586e-01 2.794264256954193115e-02 1.261897087097167969e-01 4.575480520725250244e-02 -4.098038375377655029e-02 -1.884229630231857300e-01 -1.734267622232437134e-01 -1.398171037435531616e-01 7.476222515106201172e-02 3.672122955322265625e-03 -1.888248026371002197e-01 4.160730540752410889e-02 1.934302151203155518e-01 1.868610084056854248e-01 1.719642877578735352e-01 -2.005036175251007080e-02 -1.457756757736206055e-02 -1.578647196292877197e-01 -1.273752897977828979e-01 -1.557320356369018555e-01 1.141776740550994873e-01 1.973174512386322021e-01 1.337837576866149902e-01 5.007624626159667969e-02 1.561456620693206787e-01 -1.447349041700363159e-01 -4.853957891464233398e-02 1.225551664829254150e-01 5.834233760833740234e-02 1.652847826480865479e-01 1.915210485458374023e-01 -4.117786884307861328e-04 1.168358325958251953e-02 1.737335622310638428e-01 9.781891107559204102e-02 -6.900171935558319092e-02 -8.774414658546447754e-03 -1.538271605968475342e-01 1.811507046222686768e-01 -1.004513427615165710e-01 4.853534698486328125e-02 5.771714448928833008e-02 1.831951141357421875e-01 1.292430162429809570e-01 1.294105947017669678e-01 -1.480049341917037964e-01 -7.525299489498138428e-02 -1.838831156492233276e-01 -1.756077259778976440e-01 6.435182690620422363e-02 -1.818445026874542236e-01 -9.699462354183197021e-02 1.013743281364440918e-01 1.623871922492980957e-01 -5.451725423336029053e-02 -1.214184015989303589e-01 5.457332730293273926e-02 7.872879505157470703e-02 1.498875021934509277e-02 1.420691609382629395e-02 -1.745981276035308838e-01 -1.398975551128387451e-01 1.980836987495422363e-01 -9.039650112390518188e-02 -5.635394155979156494e-02 -1.694994866847991943e-01 8.551052212715148926e-02 4.958903789520263672e-02 -1.450590193271636963e-01 1.338946223258972168e-01 2.185156941413879395e-02 -1.342391371726989746e-01 3.731989860534667969e-02 2.557639777660369873e-02 1.618545949459075928e-01 -6.472574174404144287e-02 1.269204318523406982e-01 1.179161369800567627e-01 1.037643551826477051e-01 1.948218047618865967e-02 6.704160571098327637e-02 1.516132950782775879e-01 1.058756113052368164e-01 -1.471447348594665527e-01 1.355997025966644287e-01 -1.021520122885704041e-01 -5.774883925914764404e-02 1.043029129505157471e-01 -7.363952696323394775e-02 -5.362290143966674805e-02 1.849457919597625732e-01 -5.989286303520202637e-02 -1.607162058353424072e-01 -6.495559215545654297e-02 -1.480646431446075439e-01 1.367288529872894287e-01 8.465194702148437500e-02 1.857788860797882080e-01 6.883031129837036133e-02 -1.244132220745086670e-02 -1.114124655723571777e-01 -3.804834187030792236e-02 -1.460947543382644653e-01 -5.450288951396942139e-02 1.770758032798767090e-01 1.573480665683746338e-01 1.017218530178070068e-01 -1.074379757046699524e-01 1.913343667984008789e-01 -1.022532433271408081e-01 -1.820455938577651978e-01 1.108363568782806396e-01 1.944158971309661865e-02 4.458324611186981201e-02 -1.307456195354461670e-01 1.306486427783966064e-01 -1.243574470281600952e-01 -3.631150722503662109e-02 1.487727165222167969e-01 9.259083867073059082e-02 -1.384153962135314941e-01 8.862760663032531738e-02 -2.756619453430175781e-02 -4.636177420616149902e-02 3.345276415348052979e-02 -9.867782145738601685e-02 1.380720436573028564e-01 -1.874319165945053101e-01 1.059105992317199707e-01 1.493858993053436279e-01 1.676655113697052002e-01 1.486795544624328613e-01 1.937316060066223145e-01 -1.815032064914703369e-01 1.532240808010101318e-01 9.183767437934875488e-02 1.339156329631805420e-01 -8.232846856117248535e-03 1.463307738304138184e-01 -8.628248423337936401e-02 6.676620244979858398e-02 1.685863435268402100e-01 6.153094768524169922e-02 1.583335697650909424e-01 1.115654706954956055e-01 -4.496465623378753662e-02 1.665318310260772705e-01 -1.514239609241485596e-02 8.702680468559265137e-02 -8.677898347377777100e-02 1.939450204372406006e-01 1.219699382781982422e-01 -1.121467351913452148e-02 -1.649513840675354004e-02 5.966827273368835449e-02 -1.552101820707321167e-01 1.017819941043853760e-01 -5.188140273094177246e-02 -2.138042449951171875e-02 6.391459703445434570e-02 -2.016413509845733643e-01 1.081204712390899658e-01 -6.857708096504211426e-03 -1.060022562742233276e-01 1.709165871143341064e-01 -1.709739863872528076e-02 4.604175686836242676e-02 -1.621209830045700073e-01 1.143163442611694336e-02 1.940596103668212891e-02 2.610623836517333984e-02 6.675353646278381348e-02 -1.521136462688446045e-01 7.511648535728454590e-02 1.912872195243835449e-01 -7.867836952209472656e-02 -5.242305994033813477e-02 -1.819790899753570557e-02 1.302430927753448486e-01 -1.526858657598495483e-01 1.389396488666534424e-01 -1.104749962687492371e-01 1.443982720375061035e-01 -4.367321729660034180e-02 -4.108963906764984131e-02 2.748249471187591553e-02 -2.029170691967010498e-01 -1.688219904899597168e-01 -1.783234924077987671e-01 -5.189059674739837646e-02 4.648309946060180664e-02 -4.226587712764739990e-02 -1.501970887184143066e-01 1.942380964756011963e-01 1.561864912509918213e-01 -1.859208941459655762e-01 -2.390439808368682861e-02 8.002236485481262207e-02 -8.187223225831985474e-02 -1.063945591449737549e-01 -1.267541050910949707e-01 1.417483985424041748e-01 1.658625602722167969e-01 -1.322059333324432373e-01 -6.020714342594146729e-02 1.837916076183319092e-01 -1.249445155262947083e-01 -1.924135684967041016e-01 -1.066978499293327332e-01 -3.891286253929138184e-02 -1.993045657873153687e-01 -1.172779574990272522e-01 1.207593381404876709e-01 1.119864583015441895e-01 6.798169016838073730e-02 -2.990201115608215332e-03 -1.997927874326705933e-01 3.886163234710693359e-03 -1.960466951131820679e-01 -2.025856971740722656e-01 -1.339055597782135010e-01 5.422306060791015625e-02 -1.115438640117645264e-01 1.699304580688476562e-02 -3.523811697959899902e-02 -1.506225317716598511e-01 8.412230014801025391e-02 -1.809974610805511475e-01 1.095472574234008789e-01 -1.014512553811073303e-01 1.729802489280700684e-01 -2.677531540393829346e-02 9.796693921089172363e-02 4.161544144153594971e-02 -1.319759190082550049e-01 -1.786997914314270020e-01 -8.662928640842437744e-02 1.066327095031738281e-04 -8.468129485845565796e-02 6.365880370140075684e-02 -1.512011289596557617e-01 8.317214250564575195e-02 -1.404218375682830811e-02 -1.592018902301788330e-01 7.330197095870971680e-02 -1.882016658782958984e-04 -2.284316718578338623e-02 -1.511833220720291138e-01 -1.598507165908813477e-01 1.120010316371917725e-01 6.510829925537109375e-02 -6.891353428363800049e-02 9.702694416046142578e-02 -1.945678591728210449e-01 1.045455038547515869e-01 -5.252204835414886475e-02 1.628821790218353271e-01 -1.123647838830947876e-01 1.526427865028381348e-01 4.249300062656402588e-02 1.570155322551727295e-01 8.181864023208618164e-02 1.590953469276428223e-01 -6.162939965724945068e-02 1.105845570564270020e-01 -1.331395506858825684e-01 -1.026548370718955994e-01 1.817259490489959717e-01 1.594278514385223389e-01 -1.006186604499816895e-01 8.835777640342712402e-03 -1.683434844017028809e-02 4.554645717144012451e-02 -1.084574535489082336e-01 4.714345932006835938e-02 -1.973168104887008667e-01 -1.237231194972991943e-01 -1.588444411754608154e-01 -8.489027619361877441e-03 -1.314968913793563843e-01 -1.542701721191406250e-01 -1.535692811012268066e-01 -5.225661396980285645e-02 5.373570322990417480e-02 1.219555735588073730e-01 -9.240284562110900879e-02 -5.513639748096466064e-02 -2.036720812320709229e-01 6.546562910079956055e-02 -9.732896834611892700e-02 1.508321464061737061e-01 1.489292085170745850e-01 -1.620292067527770996e-01 -1.562098413705825806e-01 1.197151541709899902e-01 1.427793204784393311e-01 1.561267673969268799e-01 1.547520756721496582e-01 -1.137930601835250854e-01 -1.844130009412765503e-01 -4.881139099597930908e-02 -4.884161055088043213e-02 7.874763011932373047e-02 -1.616613268852233887e-01 -1.093386113643646240e-02 -7.335609197616577148e-02 -1.261128634214401245e-01 5.945315957069396973e-02 -1.591246128082275391e-01 6.491261720657348633e-02 5.283492803573608398e-02 4.127140343189239502e-02 -4.902705550193786621e-03 1.025005578994750977e-01 -4.788388311862945557e-02 1.436180770397186279e-01 -1.432843506336212158e-02 8.053925633430480957e-02 4.335820674896240234e-02 -1.940695047378540039e-01 1.578150689601898193e-01 1.335562467575073242e-01 -1.532125473022460938e-01 1.403862237930297852e-02 6.132405996322631836e-02 8.562475442886352539e-02 -2.926692366600036621e-03 -8.187793195247650146e-02 1.060945391654968262e-01 -1.184055730700492859e-01 9.813278913497924805e-02 1.236870884895324707e-03 -1.093963384628295898e-01 -2.292385697364807129e-02 -1.388448774814605713e-01 -6.263470649719238281e-02 1.174597740173339844e-01 3.121224045753479004e-02 -1.655791699886322021e-01 -5.721926689147949219e-03 4.216462373733520508e-03 4.337032139301300049e-02 -4.155041277408599854e-02 -8.722092956304550171e-02 -4.853369295597076416e-02 2.057664096355438232e-02 7.578328251838684082e-03 1.963112950325012207e-01 5.663868784904479980e-02 1.115971207618713379e-01 1.103390157222747803e-01 -1.464463770389556885e-01 1.053527295589447021e-01 1.402757763862609863e-01 -8.635567873716354370e-02 -1.496050059795379639e-01 1.874305605888366699e-01 4.214099049568176270e-02 1.901603341102600098e-01 3.836330771446228027e-02 -1.747423857450485229e-01 7.219099998474121094e-02 -1.360153257846832275e-01 -2.037009894847869873e-01 -1.924632042646408081e-01 -1.586803793907165527e-01 -6.727267801761627197e-02 1.709044575691223145e-01 5.944332480430603027e-02 1.453932523727416992e-01 -1.149431616067886353e-01 1.678752899169921875e-02 -3.614097833633422852e-02 -1.555305123329162598e-01 -1.173706203699111938e-01 -1.572573482990264893e-01 -1.030935719609260559e-01 2.023422718048095703e-01 -9.498497098684310913e-02 6.654584407806396484e-02 -1.781743764877319336e-01 1.758903264999389648e-02 -3.221200406551361084e-02 -1.788604259490966797e-02 -3.535802662372589111e-02 1.789075434207916260e-01 9.809273481369018555e-02 6.863048672676086426e-02 1.759557127952575684e-01 -1.327985525131225586e-01 -1.555168628692626953e-02 -1.131429150700569153e-01 1.983262598514556885e-02 -1.180061101913452148e-01 -3.865589201450347900e-02 1.441301107406616211e-01 -1.945200562477111816e-01 -1.961912363767623901e-01 1.123838126659393311e-02 -1.957103610038757324e-02 -7.544828951358795166e-02 1.175191104412078857e-01 2.136972546577453613e-02 1.625572443008422852e-01 7.923448085784912109e-02 6.059145927429199219e-02 -1.734172254800796509e-01 1.971923708915710449e-01 -6.467589735984802246e-02 1.296536326408386230e-01 1.939101815223693848e-01 2.630937099456787109e-02 1.099830865859985352e-02 1.642934679985046387e-01 1.251183450222015381e-01 -1.876255124807357788e-01 -1.058414578437805176e-02 1.125901043415069580e-01 1.345671713352203369e-02 1.570526957511901855e-01 -1.242792382836341858e-01 3.583423793315887451e-02 1.625258922576904297e-01 -1.455147564411163330e-02 -3.416714072227478027e-02 1.996571421623229980e-01 -8.624146133661270142e-02 -4.543335735797882080e-02 1.657322645187377930e-01 -6.199805438518524170e-02 1.832115948200225830e-01 1.767208874225616455e-01 1.015956103801727295e-01 -1.992967724800109863e-01 -6.314906477928161621e-02 -1.797981560230255127e-01 1.303656399250030518e-01 -1.044673472642898560e-01 1.192247867584228516e-01 -7.133033871650695801e-02 -1.255047321319580078e-01 -1.245100796222686768e-02 1.215094029903411865e-01 -1.622203141450881958e-01 5.275487899780273438e-02 1.078220009803771973e-01 -1.569239348173141479e-01 8.629065752029418945e-02 6.515103578567504883e-02 1.405662894248962402e-01 -1.553813368082046509e-01 6.452980637550354004e-02 -2.700570225715637207e-02 -2.797009050846099854e-02 2.035456895828247070e-01 -1.446519792079925537e-02 -9.603618085384368896e-02 3.464415669441223145e-03 -7.201999425888061523e-02 4.353384673595428467e-02 1.880242824554443359e-01 -8.094576001167297363e-02 1.008146405220031738e-01 5.137753486633300781e-02 6.536629796028137207e-02 -8.249371498823165894e-02 -1.980341970920562744e-02 1.670206785202026367e-01 -1.541517227888107300e-01 -9.683971852064132690e-02 8.219167590141296387e-03 1.402000486850738525e-01 1.271951198577880859e-02 -4.217471182346343994e-02 1.455928981304168701e-01 -7.820445299148559570e-02 -6.897240877151489258e-02 -1.916395127773284912e-01 1.420418918132781982e-02 2.338543534278869629e-03 -8.520470559597015381e-02 8.223634958267211914e-02 1.820489764213562012e-03 7.773041725158691406e-02 1.880899369716644287e-01 -1.014597266912460327e-01 1.306737959384918213e-01 -9.461734443902969360e-02 -5.073329806327819824e-02 -8.730746060609817505e-02 1.600649952888488770e-01 5.146241188049316406e-02 1.857309043407440186e-01 8.985459804534912109e-02 1.343694627285003662e-01 2.036889791488647461e-01 -3.135174512863159180e-03 1.155529916286468506e-02 -1.832863092422485352e-01 -6.521570682525634766e-02 -1.643856614828109741e-01 -1.633501201868057251e-01 -1.638182401657104492e-01 -1.033185422420501709e-02 1.448117494583129883e-01 -1.724213957786560059e-01 -1.228493079543113708e-01 4.430954158306121826e-02 2.024584710597991943e-01 6.478706002235412598e-02 -1.549520939588546753e-01 1.355143487453460693e-01 1.745994985103607178e-01 1.654755473136901855e-01 -1.967888176441192627e-01 1.562593877315521240e-01 
1.000000000000000000e+00 1.000000000000000000e+00 1.000000000000000000e+00 1.000000000000000000e+00 1.000000000000000000e+00 1.000000000000000000e+00 1.000000000000000000e+00 1.000000000000000000e+00 
0.000000000000000000e+00 0.000000000000000000e+00 0.000000000000000000e+00 0.000000000000000000e+00 0.000000000000000000e+00 0.000000000000000000e+00 0.000000000000000000e+00 0.000000000000000000e+00 
0.000000000000000000e+00 0.000000000000000000e+00 0.000000000000000000e+00 0.000000000000000000e+00 0.000000000000000000e+00 0.000000000000000000e+00 0.000000000000000000e+00 0.000000000000000000e+00 
1.000000000000000000e+00 1.000000000000000000e+00 1.000000000000000000e+00 1.000000000000000000e+00 1.000000000000000000e+00 1.000000000000000000e+00 1.000000000000000000e+00 1.000000000000000000e+00 
-1.676927208900451660e-01 -1.639899462461471558e-01 1.216969192028045654e-01 -4.973722994327545166e-02 -7.502269744873046875e-02 1.653009355068206787e-01 -9.585742652416229248e-02 -4.115913808345794678e-02 1.274238526821136475e-02 -1.225086376070976257e-01 -1.916799098253250122e-01 -1.174840331077575684e-02 8.805572986602783203e-02 -2.006143927574157715e-01 1.438480913639068604e-01 -7.409462332725524902e-02 -1.039917245507240295e-01 -1.241385936737060547e-01 1.700850129127502441e-01 -8.906307816505432129e-02 1.587619483470916748e-01 -7.500016689300537109e-02 -6.285746395587921143e-02 4.277905821800231934e-02 -1.618034392595291138e-01 8.048784732818603516e-02 -5.124151706695556641e-03 -1.719697713851928711e-01 1.791736483573913574e-01 -5.139161646366119385e-02 4.498347640037536621e-02 -1.907813549041748047e-02 -1.284281909465789795e-01 1.167746484279632568e-01 1.246723830699920654e-01 8.443638682365417480e-02 -9.091811627149581909e-02 -1.535992920398712158e-01 3.295636177062988281e-02 -1.143353581428527832e-01 -4.317316412925720215e-02 2.004973292350769043e-01 1.328056454658508301e-01 2.218143641948699951e-02 5.992084741592407227e-02 1.703390479087829590e-01 1.606239080429077148e-01 8.974894881248474121e-02 -1.895580291748046875e-01 4.456791281700134277e-02 -1.252166926860809326e-02 6.609940528869628906e-02 -1.298866569995880127e-01 2.454373240470886230e-02 -6.683880090713500977e-02 1.178242862224578857e-01 -3.582328557968139648e-03 -7.325887680053710938e-03 -1.239123865962028503e-01 -2.415245771408081055e-02 -1.894653588533401489e-01 3.269161283969879150e-02 3.671890497207641602e-02 -3.921824693679809570e-02 -1.580967158079147339e-01 1.854203045368194580e-01 -3.774806857109069824e-03 1.612177193164825439e-01 -1.829570829868316650e-01 2.417299151420593262e-02 1.819444298744201660e-01 1.679200530052185059e-01 1.540004014968872070e-01 -1.911213099956512451e-01 -9.215508401393890381e-02 -6.867471337318420410e-02 -5.730022490024566650e-02 -1.792944073677062988e-01 1.363716125488281250e-01 -9.357947111129760742e-02 1.548022031784057617e-01 -1.799173802137374878e-01 1.193718612194061279e-01 -2.117490768432617188e-02 -1.167694330215454102e-01 1.724418997764587402e-01 5.902516841888427734e-02 -7.784061133861541748e-02 -6.041418015956878662e-02 1.925610601902008057e-01 1.089120507240295410e-01 1.831099390983581543e-01 1.220777630805969238e-02 6.046590209007263184e-02 1.101456284523010254e-01 1.993630230426788330e-01 1.496828198432922363e-01 -6.185978651046752930e-02 -1.785358339548110962e-01 -2.453775703907012939e-02 4.881545901298522949e-03 -8.719956874847412109e-02 1.426852941513061523e-01 2.053046226501464844e-02 3.191231191158294678e-02 -1.809548139572143555e-01 -1.356921344995498657e-01 -1.751407235860824585e-01 9.575980901718139648e-02 -1.990329474210739136e-01 7.859262824058532715e-02 -6.995174288749694824e-02 -1.394936442375183105e-02 -4.858201742172241211e-02 3.428867459297180176e-02 -1.241224855184555054e-01 7.998988032341003418e-02 1.156255602836608887e-01 -9.342601895332336426e-02 -8.909343928098678589e-02 3.002251684665679932e-02 -1.660364866256713867e-01 2.346020936965942383e-02 -1.187503337860107422e-02 -7.033786177635192871e-02 -1.600095629692077637e-01 1.317001283168792725e-01 7.564115524291992188e-02 4.220902919769287109e-02 7.714813947677612305e-02 1.452193260192871094e-01 -5.837069451808929443e-02 3.934828937053680420e-02 -1.409020721912384033e-01 -1.923269331455230713e-01 1.625438034534454346e-01 -1.931812763214111328e-01 -1.065895631909370422e-01 -1.148499101400375366e-01 -1.836838275194168091e-01 1.566295027732849121e-01 -1.809530705213546753e-01 -3.512963652610778809e-02 -1.256395280361175537e-01 -7.158280909061431885e-02 -1.190064102411270142e-01 -7.392063736915588379e-02 -7.980272173881530762e-03 2.533774077892303467e-02 -5.563484132289886475e-02 1.000403165817260742e-01 1.510236859321594238e-01 -7.629328966140747070e-02 -1.785324513912200928e-02 2.839738130569458008e-02 1.429611742496490479e-01 -1.644278466701507568e-01 1.938707530498504639e-01 -1.010179743170738220e-01 1.829375624656677246e-01 1.041249334812164307e-01 -1.685579717159271240e-01 5.727422237396240234e-02 1.390509903430938721e-01 -1.972074955701828003e-01 1.140863895416259766e-01 -8.872367441654205322e-02 1.510126590728759766e-01 -7.865495979785919189e-02 -3.465615212917327881e-02 -8.477438986301422119e-02 -1.854248791933059692e-01 1.970059871673583984e-01 1.554321348667144775e-01 7.544839382171630859e-02 -1.535399705171585083e-01 -4.934200644493103027e-02 -9.364847838878631592e-02 4.498533904552459717e-02 -1.095392704010009766e-01 -1.810365319252014160e-01 9.165936708450317383e-02 -4.510243237018585205e-02 -1.430711150169372559e-01 1.921304762363433838e-01 7.606270909309387207e-02 -1.423078775405883789e-01 3.497375547885894775e-02 1.536318957805633545e-01 1.653081476688385010e-01 -5.139131844043731689e-02 9.225508570671081543e-02 -1.543196737766265869e-01 6.650698184967041016e-02 -1.959319412708282471e-01 1.290633976459503174e-01 1.808972358703613281e-01 -1.207938566803932190e-01 2.428308129310607910e-02 -1.488832682371139526e-01 -1.215648874640464783e-01 -1.054545566439628601e-01 -1.286770403385162354e-01 -4.790432751178741455e-02 -1.316474229097366333e-01 -8.055774122476577759e-02 -1.105286702513694763e-01 -1.605475395917892456e-01 1.219420135021209717e-01 -4.377950727939605713e-02 4.129992425441741943e-02 1.102981269359588623e-01 -2.805458009243011475e-02 -1.581326723098754883e-01 2.000482976436614990e-01 2.710361778736114502e-02 2.404275536537170410e-02 1.681829392910003662e-01 -1.476437300443649292e-01 -1.879529953002929688e-01 1.607694625854492188e-01 -1.219412758946418762e-01 1.452411413192749023e-01 -1.604592502117156982e-01 -1.298277080059051514e-01 -9.614090621471405029e-02 1.852970719337463379e-01 -1.010444462299346924e-01 1.227790415287017822e-01 -1.092482954263687134e-01 1.189554035663604736e-01 -1.192745715379714966e-01 6.865650415420532227e-03 1.129110753536224365e-01 -1.247015744447708130e-01 9.094458818435668945e-02 -1.007968336343765259e-01 1.948306560516357422e-01 1.259692013263702393e-01 1.233645975589752197e-01 1.010424196720123291e-01 -1.074699535965919495e-01 1.675086617469787598e-01 5.863520503044128418e-02 -2.025188207626342773e-01 1.664997041225433350e-01 -1.517787575721740723e-01 1.085501015186309814e-01 -4.496420919895172119e-02 -1.456320285797119141e-02 1.440312862396240234e-01 -1.671363711357116699e-01 -6.925599277019500732e-02 -9.486471861600875854e-02 9.528562426567077637e-03 1.564258337020874023e-01 -4.317764937877655029e-02 1.762381494045257568e-01 1.955962777137756348e-01 -2.324140071868896484e-02 1.740742325782775879e-01 -9.505101293325424194e-02 1.605186164379119873e-01 -1.576988697052001953e-01 1.885988116264343262e-01 1.759768724441528320e-01 5.858546495437622070e-02 -2.641911804676055908e-02 -5.937810242176055908e-02 -4.595930874347686768e-02 -1.540952622890472412e-01 -1.307701468467712402e-01 7.214468717575073242e-02 -5.389757454395294189e-02 1.785975694656372070e-02 1.631531715393066406e-01 -3.510652482509613037e-02 -1.264818012714385986e-01 -1.951507925987243652e-01 -3.523032367229461670e-02 -1.043566241860389709e-01 -7.875293493270874023e-03 3.789660334587097168e-02 -2.447517216205596924e-02 1.650196909904479980e-01 -3.420276939868927002e-02 1.215011179447174072e-01 -1.375034749507904053e-01 -1.580303758382797241e-01 1.406455934047698975e-01 -1.123239472508430481e-01 -1.879926919937133789e-01 1.125020682811737061e-01 -2.925260365009307861e-02 -9.421024471521377563e-02 -1.850138902664184570e-01 -1.246399581432342529e-01 -1.883300542831420898e-01 1.438178718090057373e-01 1.758932471275329590e-01 -1.452970504760742188e-01 5.932483077049255371e-02 9.589236974716186523e-02 -1.186107546091079712e-01 -2.061110734939575195e-02 2.695284783840179443e-02 -6.326538324356079102e-02 1.676358282566070557e-02 -9.836513549089431763e-02 1.973631978034973145e-01 2.480790019035339355e-02 4.819691181182861328e-03 -1.939597129821777344e-01 -1.271386444568634033e-02 1.610658466815948486e-01 -1.637037843465805054e-01 1.685883998870849609e-01 -4.849758744239807129e-02 -3.163014352321624756e-02 -1.036848798394203186e-01 -1.858061403036117554e-01 1.672562360763549805e-01 1.759867072105407715e-01 -1.808280348777770996e-01 1.216616332530975342e-01 -1.681619882583618164e-02 -1.601552814245223999e-01 -7.366430759429931641e-02 -6.771948933601379395e-02 -3.394031524658203125e-02 1.377329230308532715e-02 1.455123722553253174e-02 -1.796880215406417847e-01 1.918247044086456299e-01 -1.118548214435577393e-02 1.636348366737365723e-01 1.848864555358886719e-02 5.934247374534606934e-02 1.930420100688934326e-02 -1.277998983860015869e-01 -1.278736889362335205e-01 1.336502730846405029e-01 -8.999347686767578125e-03 1.548972427845001221e-01 3.958602249622344971e-02 1.586842834949493408e-01 1.312284469604492188e-01 1.166964471340179443e-01 -1.762074977159500122e-01 1.871486306190490723e-01 -1.781284362077713013e-01 1.135864257812500000e-01 1.697573661804199219e-01 1.449820697307586670e-01 -1.809184253215789795e-01 8.262106776237487793e-02 -1.439033746719360352e-01 -5.817808210849761963e-02 -1.644518375396728516e-01 -2.198579907417297363e-02 -1.743890047073364258e-01 1.299393475055694580e-01 -8.981585502624511719e-02 3.428263962268829346e-02 1.323471069335937500e-01 -2.008523195981979370e-01 1.309375762939453125e-01 -7.498800754547119141e-03 -6.206667423248291016e-02 -4.341110587120056152e-02 -1.887793540954589844e-01 1.955272853374481201e-01 4.683569073677062988e-03 -2.675774693489074707e-02 1.475825607776641846e-01 -1.339708864688873291e-01 5.803674459457397461e-02 -1.506378203630447388e-01 8.350563049316406250e-02 2.671769261360168457e-02 1.083117425441741943e-01 -1.804746687412261963e-02 4.127019643783569336e-02 1.279371082782745361e-01 -1.817707270383834839e-01 1.732036769390106201e-01 -1.387705206871032715e-01 1.718105971813201904e-01 8.693733811378479004e-02 -1.910979002714157104e-01 9.529644250869750977e-02 -5.633272230625152588e-02 -3.418914973735809326e-02 -6.385615468025207520e-02 1.116004288196563721e-01 9.249317646026611328e-02 -1.660082638263702393e-01 6.148961186408996582e-02 8.968007564544677734e-02 -1.109712496399879456e-01 -2.016093879938125610e-01 1.640106439590454102e-01 1.104510426521301270e-01 1.951933205127716064e-01 -8.570296317338943481e-02 1.832245588302612305e-01 -1.047905907034873962e-01 7.127213478088378906e-02 -4.252356290817260742e-02 1.821382045745849609e-01 -2.171097695827484131e-02 9.579387307167053223e-02 -4.527485370635986328e-02 8.711746335029602051e-02 -1.769556105136871338e-01 -3.136625885963439941e-02 -5.902288854122161865e-02 2.617324888706207275e-02 -1.393271684646606445e-01 9.159842133522033691e-02 -1.125639751553535461e-01 7.453808188438415527e-02 -1.884652078151702881e-01 -7.973463088274002075e-02 -1.632209569215774536e-01 -9.367602318525314331e-02 -1.912132799625396729e-01 -8.770862221717834473e-02 4.107308387756347656e-02 -1.147323846817016602e-02 -1.163951829075813293e-01 1.864733695983886719e-01 1.512989699840545654e-01 8.304563164710998535e-02 -9.858550131320953369e-02 1.979362964630126953e-01 -5.630671977996826172e-03 -9.657073765993118286e-02 6.879425048828125000e-02 1.448425650596618652e-01 5.860954523086547852e-02 1.384471654891967773e-01 -4.011932015419006348e-02 3.216202557086944580e-02 5.024284124374389648e-02 -1.802384853363037109e-01 -1.125452890992164612e-01 1.541165709495544434e-01 1.684904098510742188e-02 6.082707643508911133e-02 2.589872479438781738e-02 6.990939378738403320e-02 -1.079249382019042969e-01 -8.344340324401855469e-02 -7.515341043472290039e-02 -6.910124421119689941e-02 -5.054698884487152100e-02 1.361418068408966064e-01 -8.971589058637619019e-02 -5.026108026504516602e-02 1.841666996479034424e-01 -9.596706926822662354e-02 2.413293719291687012e-02 6.744003295898437500e-02 -4.751086235046386719e-02 -5.568039417266845703e-02 3.759519755840301514e-02 -6.824235618114471436e-02 9.344810247421264648e-02 -2.790151536464691162e-02 5.973824858665466309e-02 -1.666612327098846436e-01 8.601838350296020508e-02 1.635374426841735840e-01 7.879024744033813477e-02 -1.912496387958526611e-01 -2.595789730548858643e-02 -1.007725447416305542e-01 -1.396831721067428589e-01 6.966188549995422363e-03 7.057437300682067871e-02 6.021839380264282227e-02 -9.197277575731277466e-02 4.683077335357666016e-03 -1.432360112667083740e-01 1.160704195499420166e-01 -5.124770104885101318e-02 -1.450706124305725098e-01 2.126631140708923340e-02 -8.793984353542327881e-02 -7.416148483753204346e-02 1.724387705326080322e-02 -1.411950588226318359e-02 -1.110699921846389771e-01 -1.277838945388793945e-01 7.110536098480224609e-03 -5.937278270721435547e-03 8.921208977699279785e-02 -1.569975614547729492e-01 -8.177129924297332764e-02 -1.967760622501373291e-01 1.869061589241027832e-01 -6.323759257793426514e-02 -8.451674878597259521e-02 -1.839713752269744873e-02 -1.142266318202018738e-01 -1.256521940231323242e-01 1.666370928287506104e-01 2.014047801494598389e-01 7.458746433258056641e-02 1.627898216247558594e-01 1.515818536281585693e-01 -1.271707415580749512e-01 1.942206621170043945e-01 -4.969945549964904785e-02 1.254859864711761475e-01 5.464467406272888184e-02 2.016352117061614990e-01 -9.326989948749542236e-02 -1.261531114578247070e-01 -2.047041058540344238e-02 1.775007843971252441e-01 -7.817052304744720459e-02 -1.784972846508026123e-01 -1.140442490577697754e-02 -5.521883070468902588e-02 -1.053817495703697205e-01 3.596879541873931885e-02 1.651714444160461426e-01 -7.291200757026672363e-02 -1.164737343788146973e-01 1.949779093265533447e-01 -1.433405876159667969e-01 7.110509276390075684e-02 1.821133792400360107e-01 1.893412172794342041e-01 -5.126580595970153809e-03 -4.185433685779571533e-02 -1.211489289999008179e-01 1.418873965740203857e-01 -3.060740232467651367e-02 -1.039166748523712158e-02 3.975558280944824219e-02 -1.448135375976562500e-01 -1.589131504297256470e-01 1.571128070354461670e-01 -5.127261579036712646e-02 6.557926535606384277e-03 1.293580830097198486e-01 1.655459403991699219e-03 -9.908905625343322754e-02 -1.142144203186035156e-01 -1.380100846290588379e-03 -4.229637980461120605e-02 -4.352250695228576660e-02 3.292369842529296875e-02 1.458478569984436035e-01 1.156549751758575439e-01 3.553315997123718262e-03 -1.254170238971710205e-01 -2.775254845619201660e-02 -4.474151134490966797e-02 -7.848393917083740234e-02 -1.203888505697250366e-01 -5.905087292194366455e-02 -1.449868083000183105e-01 4.629027843475341797e-02 2.179940044879913330e-02 1.041437089443206787e-01 1.629036366939544678e-01 -1.713836342096328735e-01 1.775849163532257080e-01 -8.741438388824462891e-02 -1.968742311000823975e-01 2.888759970664978027e-02 1.605754792690277100e-01 
1.000000000000000000e+00 1.000000000000000000e+00 1.000000000000000000e+00 1.000000000000000000e+00 1.000000000000000000e+00 1.000000000000000000e+00 1.000000000000000000e+00 1.000000000000000000e+00 
0.000000000000000000e+00 0.000000000000000000e+00 0.000000000000000000e+00 0.000000000000000000e+00 0.000000000000000000e+00 0.000000000000000000e+00 0.000000000000000000e+00 0.000000000000000000e+00 
0.000000000000000000e+00 0.000000000000000000e+00 0.000000000000000000e+00 0.000000000000000000e+00 0.000000000000000000e+00 0.000000000000000000e+00 0.000000000000000000e+00 0.000000000000000000e+00 
1.000000000000000000e+00 1.000000000000000000e+00 1.000000000000000000e+00 1.000000000000000000e+00 1.000000000000000000e+00 1.000000000000000000e+00 1.000000000000000000e+00 1.000000000000000000e+00 
-1.190325021743774414e-01 6.943476200103759766e-02 -1.148203685879707336e-01 -2.112804353237152100e-02 -7.672233879566192627e-02 1.499235630035400391e-02 1.539134085178375244e-01 1.104764044284820557e-01 6.942284107208251953e-02 -1.341518163681030273e-01 1.527048349380493164e-01 1.990621387958526611e-01 2.050179243087768555e-02 4.955014586448669434e-02 1.116299033164978027e-01 1.326847672462463379e-01 8.366304636001586914e-02 2.809038758277893066e-02 -1.052697151899337769e-01 -9.400457143783569336e-02 -1.912948042154312134e-01 -6.754180788993835449e-02 -8.162276446819305420e-02 6.230288743972778320e-02 -5.810731649398803711e-02 -1.209417060017585754e-01 -1.301455199718475342e-01 -9.736877679824829102e-02 5.743256211280822754e-02 2.381539344787597656e-02 1.336444616317749023e-01 2.655908465385437012e-03 -8.184985071420669556e-02 3.134891390800476074e-03 1.626859009265899658e-01 -2.012847214937210083e-01 5.886301398277282715e-02 8.560684323310852051e-02 8.717522025108337402e-03 -2.021983563899993896e-01 6.340876221656799316e-03 3.235131502151489258e-03 -1.150916889309883118e-01 1.335423588752746582e-01 -1.630373299121856689e-02 -7.987878471612930298e-02 -7.729929685592651367e-02 1.388153433799743652e-01 -2.620698511600494385e-02 2.014724910259246826e-01 -2.853807806968688965e-02 -1.572259664535522461e-01 -6.994232535362243652e-03 -4.986152052879333496e-02 1.941177845001220703e-01 -1.432745456695556641e-01 -1.453595906496047974e-01 7.779538631439208984e-02 -1.422454416751861572e-01 3.669345378875732422e-02 -7.087053358554840088e-02 1.362142860889434814e-01 -1.708307713270187378e-01 9.132331609725952148e-02 -1.114100292325019836e-01 -6.110617518424987793e-02 1.398756504058837891e-01 -8.446496725082397461e-02 1.279221475124359131e-01 9.855031967163085938e-02 -1.206633821129798889e-01 1.515740156173706055e-01 1.866803467273712158e-01 1.482353806495666504e-01 -1.188073158264160156e-01 2.016614079475402832e-01 1.324976682662963867e-01 3.533335030078887939e-02 1.372326016426086426e-01 -3.644432127475738525e-02 1.303286850452423096e-02 -2.185747027397155762e-02 1.738381087779998779e-01 -3.369970619678497314e-02 8.358463644981384277e-03 7.781413197517395020e-02 6.934797763824462891e-02 1.447623372077941895e-01 -1.505240350961685181e-01 -1.078078001737594604e-01 1.899413764476776123e-02 -6.763952970504760742e-02 2.074751257896423340e-02 -5.826281011104583740e-02 -1.675940752029418945e-01 7.078099250793457031e-02 2.656735479831695557e-02 -6.259436905384063721e-02 7.391673326492309570e-02 -2.936761081218719482e-02 1.508032977581024170e-01 -9.336251020431518555e-02 9.484776854515075684e-02 1.136345565319061279e-01 7.618102431297302246e-02 -1.167873442173004150e-01 9.890905022621154785e-02 5.468145012855529785e-02 -1.824559271335601807e-02 2.772995829582214355e-02 -1.107897236943244934e-01 -1.266283392906188965e-01 -2.011020779609680176e-01 1.920704543590545654e-01 1.605922579765319824e-01 1.891461610794067383e-01 1.842488348484039307e-01 -1.893066167831420898e-01 8.293312788009643555e-02 1.221520602703094482e-01 5.593842267990112305e-02 -8.561637997627258301e-02 2.406373620033264160e-02 1.759599149227142334e-02 4.614591598510742188e-04 4.244595766067504883e-03 -1.695770621299743652e-01 1.862253546714782715e-01 -7.476164400577545166e-02 1.493541896343231201e-01 2.037588059902191162e-01 1.241576075553894043e-01 -1.948860436677932739e-01 -2.125671505928039551e-02 3.586767613887786865e-02 2.019299566745758057e-01 1.969182491302490234e-02 -1.152635812759399414e-01 -2.014575451612472534e-01 1.488654613494873047e-01 9.605738520622253418e-02 1.618413925170898438e-01 5.188620090484619141e-02 -1.419203430414199829e-01 -8.948209881782531738e-02 8.925700187683105469e-02 1.921623051166534424e-01 -6.601813435554504395e-02 3.989005088806152344e-02 -3.200481832027435303e-02 -7.401737570762634277e-02 9.948384761810302734e-02 -4.303967952728271484e-02 -4.272879660129547119e-02 -8.355543017387390137e-03 -1.757374405860900879e-02 -1.767311096191406250e-01 -9.574607759714126587e-02 -6.825549900531768799e-02 -2.020459324121475220e-01 -1.741246879100799561e-02 -2.774509787559509277e-02 -1.039802879095077515e-01 -1.310949921607971191e-01 1.680406928062438965e-01 3.454393148422241211e-02 -8.123537898063659668e-02 -1.853595674037933350e-01 1.458957791328430176e-02 -1.003791242837905884e-01 -1.034007072448730469e-01 -1.842287480831146240e-01 9.978708624839782715e-02 5.597740411758422852e-02 1.541746854782104492e-01 1.966037452220916748e-01 -8.014353364706039429e-02 -1.313464343547821045e-02 3.839163482189178467e-02 -9.931477904319763184e-02 9.421393275260925293e-03 -6.873394548892974854e-02 1.053056716918945312e-01 -9.860068559646606445e-02 3.734067082405090332e-03 6.835630536079406738e-02 -6.557965278625488281e-02 2.008321583271026611e-01 2.030440866947174072e-01 1.987636387348175049e-01 1.783752441406250000e-02 7.029357552528381348e-02 -1.390381753444671631e-01 -5.800175666809082031e-02 1.097570955753326416e-01 -8.764993399381637573e-02 1.672113239765167236e-01 -1.927614808082580566e-01 1.757515370845794678e-01 -1.234665960073471069e-01 -1.414788812398910522e-01 -1.934033036231994629e-01 1.644391417503356934e-01 1.440161466598510742e-01 -1.223109960556030273e-01 1.739709079265594482e-01 -6.858798861503601074e-02 1.949513852596282959e-01 -1.530637741088867188e-01 -1.757457852363586426e-02 -9.030841290950775146e-02 1.206070780754089355e-01 -1.771009266376495361e-01 -1.182254999876022339e-01 1.482164859771728516e-01 -1.530785560607910156e-01 8.781704306602478027e-02 -9.507388621568679810e-02 -5.062320828437805176e-02 7.988929748535156250e-02 9.633478522300720215e-02 -1.207787692546844482e-01 -1.608189940452575684e-01 -1.757273972034454346e-01 1.238557994365692139e-01 -1.836831867694854736e-01 1.564321219921112061e-01 2.803598344326019287e-02 3.161062300205230713e-02 -9.755838662385940552e-02 1.928043961524963379e-01 7.171308994293212891e-02 8.591461181640625000e-02 -9.559642523527145386e-02 1.679108142852783203e-01 -1.893574148416519165e-01 -1.306241452693939209e-01 4.475036263465881348e-02 -1.545828580856323242e-02 1.787932217121124268e-01 1.075754761695861816e-01 -1.718446463346481323e-01 -7.886962592601776123e-02 -1.432782411575317383e-01 -1.999659538269042969e-01 -6.050460040569305420e-02 1.379183232784271240e-01 4.836881160736083984e-02 -5.267822742462158203e-02 1.164476573467254639e-01 -1.218258887529373169e-01 2.009886503219604492e-01 -1.416889727115631104e-01 1.183879673480987549e-01 -1.828827112913131714e-01 -1.185448095202445984e-01 -1.601173579692840576e-01 -1.641425639390945435e-01 -8.516158908605575562e-02 -1.408250331878662109e-01 4.865342378616333008e-02 -1.207499057054519653e-01 4.771843552589416504e-02 -1.449122428894042969e-01 1.939106583595275879e-01 1.978993415832519531e-01 -9.975565224885940552e-02 -9.530359506607055664e-02 1.208173036575317383e-01 9.769013524055480957e-02 -1.852485686540603638e-01 1.689088642597198486e-01 -2.404747903347015381e-02 -5.837741494178771973e-02 -8.424168080091476440e-02 4.241941869258880615e-02 1.798619925975799561e-01 1.975641250610351562e-01 -6.195512413978576660e-02 -1.325139403343200684e-02 3.912284970283508301e-03 -1.679955720901489258e-01 -1.604704409837722778e-01 -4.229657351970672607e-02 -1.311599761247634888e-01 2.038882672786712646e-01 -3.565149009227752686e-02 3.635658323764801025e-02 -5.104227364063262939e-02 -7.305459678173065186e-02 -7.362794876098632812e-02 1.128692030906677246e-01 2.010731697082519531e-01 -1.627616882324218750e-01 -1.614702045917510986e-01 -1.580224037170410156e-01 1.030116081237792969e-01 -1.965941488742828369e-02 -1.032739803194999695e-01 -5.914148688316345215e-02 -1.713579893112182617e-01 1.147852241992950439e-01 -2.022252082824707031e-01 1.464290022850036621e-01 1.768015921115875244e-01 -2.493487298488616943e-02 1.117689609527587891e-01 -2.053950726985931396e-02 -1.087355837225914001e-01 1.912297010421752930e-01 5.796068906784057617e-02 1.263058185577392578e-01 2.799524366855621338e-02 -1.463069915771484375e-01 5.627024173736572266e-02 -1.839166879653930664e-01 -1.746092289686203003e-01 1.742001771926879883e-01 -4.852980375289916992e-02 -1.901869922876358032e-01 1.246579289436340332e-01 8.327788114547729492e-02 1.393492519855499268e-01 2.095727622509002686e-02 5.269283056259155273e-02 -1.352974474430084229e-01 1.021421253681182861e-01 1.360422968864440918e-01 1.103558540344238281e-01 1.322939097881317139e-01 3.240302205085754395e-03 -1.504293680191040039e-01 8.728355169296264648e-04 -6.983269751071929932e-02 2.035613059997558594e-01 5.322074890136718750e-02 1.121728420257568359e-01 9.135022759437561035e-02 1.055756807327270508e-01 9.328192472457885742e-02 -1.135379970073699951e-01 1.323125958442687988e-01 -9.530067443847656250e-02 -2.634553611278533936e-02 -2.029826194047927856e-01 1.301256418228149414e-01 -5.723133683204650879e-03 9.630620479583740234e-05 1.411741673946380615e-01 -1.126520633697509766e-01 -2.030168473720550537e-02 -1.006053760647773743e-01 1.677839159965515137e-01 7.610723376274108887e-02 -8.944510668516159058e-02 -3.887057304382324219e-02 -9.065944701433181763e-02 8.618807792663574219e-02 -2.026881426572799683e-01 2.299889922142028809e-02 -1.096907705068588257e-01 1.276658177375793457e-01 9.131193161010742188e-03 3.803957998752593994e-02 -3.658905625343322754e-02 -1.038706898689270020e-01 -1.332018375396728516e-01 -8.905718475580215454e-02 -1.729257404804229736e-01 8.716058731079101562e-02 -1.849338859319686890e-01 1.374122798442840576e-01 5.784368515014648438e-02 1.239658594131469727e-01 -1.186810731887817383e-01 -1.894240379333496094e-01 2.328462898731231689e-02 -1.009899452328681946e-01 -3.438137471675872803e-02 -5.096626281738281250e-02 2.981831133365631104e-02 1.719793975353240967e-01 6.155472993850708008e-02 8.453822135925292969e-02 2.020523548126220703e-01 -1.049531847238540649e-01 -3.956815600395202637e-02 -8.752096444368362427e-02 1.895492076873779297e-01 1.667001247406005859e-01 6.404307484626770020e-02 4.939076304435729980e-02 -1.369853615760803223e-01 1.678147912025451660e-01 9.690493345260620117e-02 -1.019427925348281860e-01 1.654678583145141602e-01 1.040405333042144775e-01 -9.482237696647644043e-02 -2.027099430561065674e-01 8.992150425910949707e-02 -9.590302407741546631e-02 -6.752243638038635254e-02 -2.912446856498718262e-02 -1.178340241312980652e-01 -1.027412265539169312e-01 -1.201005429029464722e-01 6.702035665512084961e-03 1.096179187297821045e-01 -3.122863173484802246e-02 -7.064816355705261230e-02 -6.745874881744384766e-03 6.067863106727600098e-02 4.805976152420043945e-02 -1.470704376697540283e-01 -8.149832487106323242e-02 8.287987112998962402e-02 3.412529826164245605e-03 1.987327337265014648e-01 -4.413054883480072021e-02 -7.707293331623077393e-02 -1.338635236024856567e-01 1.209458410739898682e-01 1.701687574386596680e-01 -1.725162565708160400e-02 4.706978797912597656e-02 2.128119766712188721e-02 2.801831066608428955e-02 -5.686536431312561035e-03 1.629925072193145752e-01 -9.370230138301849365e-02 -1.399304866790771484e-01 -1.384508609771728516e-01 -3.570668399333953857e-02 -1.808377206325531006e-01 1.832696199417114258e-01 1.245622336864471436e-02 1.869648098945617676e-01 7.200661301612854004e-02 1.740902960300445557e-01 8.037230372428894043e-02 7.499480247497558594e-02 3.768168389797210693e-02 1.729288995265960693e-01 9.486767649650573730e-02 1.882059574127197266e-01 -4.225200414657592773e-02 -1.053739637136459351e-01 -5.060310661792755127e-02 -8.706480264663696289e-03 1.816498339176177979e-01 -1.588592231273651123e-01 -1.734683811664581299e-01 3.070123493671417236e-02 8.194592595100402832e-02 -4.249738156795501709e-02 -2.304567396640777588e-02 6.769105792045593262e-02 -3.854094445705413818e-02 -6.636269390583038330e-02 1.656162738800048828e-02 -8.690250664949417114e-02 5.047330260276794434e-02 2.930638194084167480e-02 -3.863634169101715088e-02 8.483335375785827637e-03 -8.105292916297912598e-03 -1.319077908992767334e-01 -1.718373596668243408e-02 1.168118715286254883e-01 4.500976204872131348e-02 8.472329378128051758e-02 -4.364295303821563721e-02 -1.016404256224632263e-01 1.043458282947540283e-01 1.629438996315002441e-02 -8.627109974622726440e-02 -1.082190349698066711e-01 -7.749575376510620117e-02 -1.571355909109115601e-01 1.904600262641906738e-01 5.995261669158935547e-02 -5.822834372520446777e-02 -1.461479365825653076e-01 1.229693293571472168e-01 7.138285040855407715e-02 2.012059688568115234e-01 -1.863508671522140503e-01 1.426296532154083252e-01 -2.653339505195617676e-02 3.906966745853424072e-02 -1.325232386589050293e-01 -2.572911977767944336e-02 8.570915460586547852e-02 -1.134308278560638428e-01 -7.430879771709442139e-02 1.135202348232269287e-01 -5.665168166160583496e-02 -3.175301849842071533e-02 1.548725664615631104e-01 -1.956988275051116943e-01 2.505172789096832275e-02 -6.164404749870300293e-02 -8.193594217300415039e-02 1.467741429805755615e-01 -7.178187370300292969e-03 -1.406870782375335693e-02 6.979629397392272949e-02 1.416952610015869141e-01 -6.052032113075256348e-03 7.918450236320495605e-02 -1.090656444430351257e-01 -1.853713989257812500e-01 8.884537220001220703e-02 -2.032734602689743042e-01 4.400503635406494141e-02 -1.936776936054229736e-01 1.974563002586364746e-01 1.784761250019073486e-01 1.754391193389892578e-02 -1.611094474792480469e-01 -1.196328029036521912e-01 4.778221249580383301e-03 5.852833390235900879e-02 5.926179885864257812e-02 -1.039086952805519104e-01 4.384088516235351562e-02 -1.766366958618164062e-01 -4.312503337860107422e-02 1.427230536937713623e-01 1.467620730400085449e-01 -1.026067584753036499e-01 5.457225441932678223e-02 4.793152213096618652e-02 1.926256418228149414e-01 3.969970345497131348e-02 6.571280956268310547e-02 -8.343368768692016602e-03 -1.380241215229034424e-01 4.639223217964172363e-02 2.004660069942474365e-01 -1.906916797161102295e-01 1.133278012275695801e-01 -1.422916650772094727e-01 1.803840398788452148e-01 -1.699105203151702881e-01 -6.718346476554870605e-02 2.302069962024688721e-02 3.890463709831237793e-02 1.574295461177825928e-01 -1.988485604524612427e-01 7.555779814720153809e-02 -1.046409904956817627e-01 -1.871928572654724121e-03 -1.553421616554260254e-01 7.345959544181823730e-02 -1.837185621261596680e-01 -1.181474924087524414e-01 -1.304216384887695312e-01 -1.825007200241088867e-01 -5.457758903503417969e-02 -3.349573910236358643e-02 -1.664753705263137817e-01 1.850475072860717773e-01 5.484473705291748047e-02 6.094819307327270508e-02 1.223818957805633545e-02 -2.965143322944641113e-02 1.118160486221313477e-01 1.727183163166046143e-01 4.649475216865539551e-02 -1.821455061435699463e-01 1.773186624050140381e-01 -7.073903083801269531e-02 -8.942578732967376709e-02 1.906444132328033447e-01 
1.000000000000000000e+00 1.000000000000000000e+00 1.000000000000000000e+00 1.000000000000000000e+00 1.000000000000000000e+00 1.000000000000000000e+00 1.000000000000000000e+00 1.000000000000000000e+00 
0.000000000000000000e+00 0.000000000000000000e+00 0.000000000000000000e+00 0.000000000000000000e+00 0.000000000000000000e+00 0.000000000000000000e+00 0.000000000000000000e+00 0.000000000000000000e+00 
0.000000000000000000e+00 0.000000000000000000e+00 0.000000000000000000e+00 0.000000000000000000e+00 0.000000000000000000e+00 0.000000000000000000e+00 0.000000000000000000e+00 0.000000000000000000e+00 
1.000000000000000000e+00 1.000000000000000000e+00 1.000000000000000000e+00 1.000000000000000000e+00 1.000000000000000000e+00 1.000000000000000000e+00 1.000000000000000000e+00 1.000000000000000000e+00 
-8.829218894243240356e-02 -8.566275984048843384e-02 3.782214224338531494e-02 9.783640503883361816e-02 1.740939021110534668e-01 1.416177749633789062e-01 2.275235950946807861e-02 1.977515518665313721e-01 -1.498851329088211060e-01 -9.465530514717102051e-03 -1.956770718097686768e-01 -1.455636024475097656e-01 -5.333848297595977783e-02 1.812774240970611572e-01 5.013263225555419922e-02 6.174638867378234863e-02 1.687350273132324219e-01 8.902549743652343750e-03 1.137873530387878418e-02 -1.795384585857391357e-01 -1.842573583126068115e-01 3.370018303394317627e-02 -2.614140510559082031e-03 -2.779546380043029785e-02 2.790659666061401367e-03 -1.399935781955718994e-02 -1.346138119697570801e-02 -9.917719662189483643e-02 -2.847540378570556641e-02 -1.936176270246505737e-01 1.803921759128570557e-01 -1.656273454427719116e-01 -1.783829927444458008e-02 -6.896828114986419678e-02 -1.005503833293914795e-01 2.055791020393371582e-02 5.013191699981689453e-02 3.119646012783050537e-02 -1.078231260180473328e-01 -1.899916529655456543e-01 -6.558734178543090820e-02 -1.703596711158752441e-01 -1.056172028183937073e-01 9.988704323768615723e-02 -7.587671279907226562e-03 -4.774013161659240723e-02 7.301801443099975586e-02 -8.127772063016891479e-02 -1.175910830497741699e-01 3.871217370033264160e-03 1.430667340755462646e-01 8.602514863014221191e-02 1.941812336444854736e-01 -8.040463179349899292e-02 -8.222424238920211792e-02 -2.340570092201232910e-02 1.340832412242889404e-01 -5.351553857326507568e-02 -8.466541767120361328e-03 -2.620002627372741699e-02 1.505130827426910400e-01 1.594313085079193115e-01 6.221660971641540527e-02 -4.632133245468139648e-02 6.355375051498413086e-03 1.538333296775817871e-01 8.089622855186462402e-02 9.247660636901855469e-04 4.823055863380432129e-02 -8.593174070119857788e-02 -9.953513741493225098e-02 1.388787031173706055e-01 2.030879259109497070e-01 -1.612537503242492676e-01 1.716386973857879639e-01 -2.761822938919067383e-02 -9.532535076141357422e-02 -7.869622111320495605e-02 2.389870584011077881e-02 2.798254787921905518e-02 2.140447497367858887e-02 1.565428674221038818e-01 8.991587162017822266e-02 -8.292465656995773315e-02 -1.541139036417007446e-01 5.081900954246520996e-02 -1.095406711101531982e-02 2.495093643665313721e-02 -5.254589021205902100e-02 -1.291640996932983398e-01 1.663507819175720215e-01 -3.650900721549987793e-02 7.354444265365600586e-02 -1.886966228485107422e-01 1.544335484504699707e-02 1.014013588428497314e-01 1.153821349143981934e-01 7.255470752716064453e-02 -5.834646522998809814e-02 4.952651262283325195e-02 -6.923925876617431641e-02 1.755208969116210938e-01 1.644031405448913574e-01 -2.882689237594604492e-03 -1.829150319099426270e-01 1.865401864051818848e-03 6.326586008071899414e-02 1.994979083538055420e-01 -8.283729851245880127e-02 1.615732908248901367e-01 1.481338441371917725e-01 -3.770709037780761719e-02 -1.995768994092941284e-01 1.674904525279998779e-01 1.714265942573547363e-01 1.335478723049163818e-01 1.632460951805114746e-02 2.372422814369201660e-02 -3.304371237754821777e-02 -1.182900369167327881e-01 -1.734691113233566284e-01 1.569084525108337402e-01 -1.107635870575904846e-01 1.632620394229888916e-01 1.987184286117553711e-01 1.500043272972106934e-01 4.309177398681640625e-03 1.902880668640136719e-01 -8.899275213479995728e-02 1.931699514389038086e-01 -1.190636456012725830e-01 -1.468074768781661987e-01 -1.614392995834350586e-01 6.229257583618164062e-02 1.203294396400451660e-01 7.247582077980041504e-03 1.639656126499176025e-01 -1.180212944746017456e-01 1.729452610015869141e-01 -1.555661708116531372e-01 -6.336306035518646240e-02 7.766321301460266113e-03 -2.553951740264892578e-02 -3.831659257411956787e-02 -2.303218841552734375e-02 7.598781585693359375e-02 -8.270692080259323120e-02 -5.825851857662200928e-02 8.946233987808227539e-02 4.133398830890655518e-02 -9.267076104879379272e-02 2.271385490894317627e-02 -1.408304423093795776e-01 -1.673764884471893311e-01 -1.933176964521408081e-01 1.862866878509521484e-01 -4.616059362888336182e-02 -1.211847960948944092e-01 -1.965399831533432007e-01 2.708566188812255859e-02 1.630333065986633301e-01 1.424116492271423340e-01 -1.975412666797637939e-02 -1.079871356487274170e-01 -8.199287950992584229e-02 -9.202878922224044800e-02 1.906335055828094482e-01 1.983539462089538574e-01 -2.153456211090087891e-02 8.081138134002685547e-02 1.788046658039093018e-01 2.000857591629028320e-01 1.350576281547546387e-01 1.981403529644012451e-01 1.251738369464874268e-01 -8.903037011623382568e-02 8.403766155242919922e-02 -3.029420971870422363e-03 1.266499459743499756e-01 1.588071882724761963e-02 -7.381570339202880859e-02 1.888240873813629150e-02 -7.634274661540985107e-02 1.882395446300506592e-01 -5.061163008213043213e-02 -1.607986539602279663e-01 4.705265164375305176e-03 8.585900068283081055e-04 1.374377608299255371e-01 3.957186639308929443e-02 9.711691737174987793e-02 4.395291209220886230e-02 1.572712659835815430e-01 -4.739132523536682129e-02 1.290045678615570068e-02 1.012185811996459961e-01 1.078817248344421387e-01 1.650421321392059326e-01 1.219232082366943359e-01 1.924773752689361572e-01 -1.098606213927268982e-01 1.881846785545349121e-01 -1.351648271083831787e-01 1.914463639259338379e-01 -1.534426212310791016e-02 -4.343602061271667480e-02 1.723152995109558105e-01 -4.234384000301361084e-02 2.889934182167053223e-02 1.204818487167358398e-01 1.991079449653625488e-01 -1.545532643795013428e-01 1.365079879760742188e-01 1.976186931133270264e-01 6.105756759643554688e-02 -2.033928334712982178e-01 1.880797147750854492e-01 -1.286927014589309692e-01 6.087496876716613770e-02 -1.533544957637786865e-01 1.259298622608184814e-01 -4.792705178260803223e-02 -1.038089767098426819e-01 1.794950664043426514e-02 -1.133957877755165100e-01 -3.423105180263519287e-02 -1.215715557336807251e-01 -1.711702197790145874e-01 -5.494058132171630859e-04 -9.255731850862503052e-02 1.402653157711029053e-01 -1.423671543598175049e-01 -8.121050894260406494e-02 -3.987544775009155273e-02 1.257762312889099121e-01 -1.064123734831809998e-01 -6.969556212425231934e-02 -6.525513529777526855e-02 7.935196161270141602e-03 -1.978030949831008911e-01 -5.549380183219909668e-02 -2.949385344982147217e-02 -1.654170602560043335e-01 -1.240035891532897949e-01 -8.074359595775604248e-02 1.400702297687530518e-01 -1.511723250150680542e-01 -1.131976172327995300e-01 -1.494683921337127686e-01 1.820742189884185791e-01 -1.877002120018005371e-01 -1.754142343997955322e-01 -2.493934333324432373e-02 1.166148781776428223e-01 -2.403117716312408447e-02 -1.446804851293563843e-01 1.393094658851623535e-03 2.516920864582061768e-02 1.462131142616271973e-01 -3.578917682170867920e-02 1.916866302490234375e-01 4.111348092555999756e-02 -6.709785759449005127e-02 -2.179142832756042480e-02 -8.867178857326507568e-02 1.186656951904296875e-01 1.087591350078582764e-01 1.116885542869567871e-01 5.552357435226440430e-02 4.510825872421264648e-02 -1.326778531074523926e-01 5.804756283760070801e-02 2.776165306568145752e-02 3.744083642959594727e-02 -1.409812569618225098e-01 1.393616795539855957e-01 -1.577794551849365234e-01 -2.179984748363494873e-02 -5.475474894046783447e-02 1.885270774364471436e-01 -1.035074368119239807e-01 -3.064492344856262207e-02 1.379019916057586670e-01 -1.012447178363800049e-01 6.175354123115539551e-02 -1.726220101118087769e-01 1.053160429000854492e-01 -9.653992950916290283e-02 9.963023662567138672e-02 9.070715308189392090e-02 4.566082358360290527e-02 -1.573459804058074951e-01 -1.558537930250167847e-01 6.254598498344421387e-02 -5.978535115718841553e-02 -8.549252152442932129e-02 1.664919257164001465e-01 2.382117509841918945e-02 6.250217556953430176e-02 -1.392894536256790161e-01 5.412065982818603516e-02 -2.035862207412719727e-02 -1.281283199787139893e-01 2.201627194881439209e-02 1.352139711380004883e-01 -1.075822785496711731e-01 6.312882900238037109e-02 2.025149762630462646e-01 1.782535016536712646e-02 -6.152081489562988281e-02 -9.338494390249252319e-02 -1.003585830330848694e-01 2.946402132511138916e-02 1.593506634235382080e-01 -5.320906639099121094e-03 7.965055108070373535e-02 1.732126772403717041e-01 -1.841099560260772705e-01 -1.470876038074493408e-01 1.391648650169372559e-01 1.419164538383483887e-01 -7.699361443519592285e-02 1.485094130039215088e-01 -5.373911559581756592e-02 7.396122813224792480e-02 1.345559060573577881e-01 3.380082547664642334e-02 -1.153044626116752625e-01 -1.913811862468719482e-01 -1.189374551177024841e-01 1.687781512737274170e-02 -1.342636644840240479e-01 6.943702697753906250e-02 -1.651017367839813232e-01 1.297718882560729980e-01 1.222524046897888184e-02 1.015586256980895996e-01 8.346810936927795410e-02 -2.721856534481048584e-02 1.766100525856018066e-02 1.856686174869537354e-01 1.868862211704254150e-01 -5.290876328945159912e-02 -1.145158112049102783e-01 -1.224822625517845154e-01 -1.372483074665069580e-01 1.580454111099243164e-01 -6.492702662944793701e-02 -1.877779811620712280e-01 -1.026388257741928101e-01 1.770766079425811768e-01 3.183390200138092041e-02 -2.019855380058288574e-02 1.134314239025115967e-01 -1.898121088743209839e-01 5.231064558029174805e-02 1.066935062408447266e-01 1.279021501541137695e-01 -1.819345802068710327e-01 9.130573272705078125e-02 2.009326219558715820e-01 1.787026524543762207e-01 5.440413951873779297e-04 1.676517426967620850e-01 8.416536450386047363e-02 4.363238811492919922e-02 1.787255704402923584e-01 -1.465320736169815063e-01 1.402007341384887695e-01 1.745589971542358398e-01 7.147789001464843750e-04 9.626555442810058594e-02 -7.817120850086212158e-02 -3.585812449455261230e-02 6.956264376640319824e-02 1.980429887771606445e-02 -3.779575228691101074e-03 9.412366151809692383e-02 2.784696221351623535e-02 1.641515195369720459e-01 -1.070012152194976807e-02 -9.750285744667053223e-02 -1.968051195144653320e-01 -1.103696748614311218e-01 -1.499595493078231812e-01 1.292316913604736328e-01 1.303214430809020996e-01 -1.776810437440872192e-01 1.312845945358276367e-02 -6.769865751266479492e-02 9.172287583351135254e-02 2.625384926795959473e-02 1.918248236179351807e-01 1.952525973320007324e-01 1.976969838142395020e-02 1.567646861076354980e-02 -2.038657665252685547e-03 -2.100530266761779785e-02 -9.134034812450408936e-02 1.148317754268646240e-02 1.544483900070190430e-01 -8.000332862138748169e-02 7.148844003677368164e-02 -1.942555606365203857e-01 1.207643747329711914e-01 5.081278085708618164e-02 -4.023018479347229004e-02 1.643376350402832031e-01 1.232026219367980957e-01 1.496998965740203857e-01 -1.753358840942382812e-01 -4.068069159984588623e-02 -3.996455669403076172e-02 -1.974317580461502075e-01 -2.008281797170639038e-01 1.115196645259857178e-01 -8.021361380815505981e-02 -6.248700618743896484e-02 -4.625554382801055908e-02 -1.961051970720291138e-01 -1.640215814113616943e-01 -1.187514960765838623e-01 1.759229898452758789e-01 1.286225020885467529e-02 2.428673207759857178e-02 1.972652673721313477e-01 1.920962035655975342e-01 -9.608909487724304199e-03 -4.694131016731262207e-02 -7.723908126354217529e-02 1.814578473567962646e-02 1.374840140342712402e-01 -4.541198909282684326e-02 -8.130419254302978516e-02 -1.041749045252799988e-01 -4.523153603076934814e-02 -3.098598122596740723e-02 1.176741123199462891e-01 -1.560658812522888184e-01 1.808659732341766357e-02 6.228402256965637207e-03 5.610558390617370605e-02 -1.232279315590858459e-01 -1.489178240299224854e-01 -3.814947605133056641e-02 1.466432809829711914e-01 1.986306607723236084e-01 1.542661786079406738e-01 1.345104873180389404e-01 1.065441966056823730e-02 8.666262030601501465e-02 -7.386462390422821045e-02 1.247504353523254395e-01 -1.728914380073547363e-01 1.314315199851989746e-02 1.469086110591888428e-01 -1.327053904533386230e-01 1.233064234256744385e-01 -2.418972551822662354e-02 -1.187887787818908691e-02 4.388944804668426514e-02 -6.804087758064270020e-02 -3.120103478431701660e-02 -5.294871330261230469e-02 1.120858192443847656e-01 -5.831077694892883301e-03 4.536862671375274658e-02 -3.134101629257202148e-03 1.043953299522399902e-01 -4.103343188762664795e-02 5.411618947982788086e-02 -1.444320976734161377e-01 -3.153616189956665039e-02 -1.623881757259368896e-01 2.020508348941802979e-01 5.048036575317382812e-02 1.636427938938140869e-01 6.735715270042419434e-02 3.167301416397094727e-02 -1.127080321311950684e-01 5.555477738380432129e-02 -1.478904187679290771e-01 1.734836399555206299e-02 1.097653210163116455e-01 5.748507380485534668e-02 1.566386520862579346e-01 1.791705787181854248e-01 6.890505552291870117e-02 -8.418620377779006958e-02 -6.867349147796630859e-03 1.181301772594451904e-01 2.780680358409881592e-02 -1.846760511398315430e-03 -9.653341025114059448e-02 -6.021828949451446533e-02 1.263608634471893311e-01 -1.655606925487518311e-02 -3.324671089649200439e-02 -1.272278279066085815e-01 -4.002568125724792480e-02 4.594388604164123535e-02 8.009269833564758301e-03 -1.895530670881271362e-01 -1.579297333955764771e-01 1.913854777812957764e-01 -2.189946174621582031e-02 1.646856963634490967e-01 -9.424790740013122559e-02 -6.934005022048950195e-02 -1.798804998397827148e-01 8.831194043159484863e-02 -4.115684330463409424e-02 2.214011549949645996e-02 1.703201532363891602e-01 7.743653655052185059e-02 3.641805052757263184e-02 3.666940331459045410e-02 3.374214470386505127e-02 -3.882944583892822266e-02 -5.662730336189270020e-02 2.935715019702911377e-02 -6.555365025997161865e-02 -2.781678736209869385e-02 3.450654447078704834e-02 1.557491719722747803e-01 1.143199801445007324e-01 9.171542525291442871e-02 -1.225702986121177673e-01 -3.052091598510742188e-02 6.175741553306579590e-03 1.157467365264892578e-01 -9.282688051462173462e-02 -7.476836442947387695e-02 -3.245957195758819580e-02 7.166892290115356445e-02 6.901690363883972168e-02 1.937525272369384766e-01 -1.610105484724044800e-01 -4.774816334247589111e-02 -9.943001717329025269e-02 1.999154686927795410e-01 8.720681071281433105e-02 4.027387499809265137e-02 6.781721115112304688e-02 1.534368395805358887e-01 -1.325530111789703369e-01 -1.237474381923675537e-02 -2.036917507648468018e-01 2.550709247589111328e-02 1.987516880035400391e-03 -1.788743138313293457e-01 1.040288209915161133e-01 -2.841353416442871094e-02 1.815948486328125000e-01 -1.341831088066101074e-01 -2.194486558437347412e-02 2.474620938301086426e-03 2.036809325218200684e-01 -1.339329779148101807e-02 1.860961914062500000e-01 -9.780974686145782471e-02 -6.913213431835174561e-02 1.207584142684936523e-02 -1.899102777242660522e-01 6.302419304847717285e-02 -5.189639329910278320e-02 -1.282239407300949097e-01 -1.732824146747589111e-01 7.442179322242736816e-02 7.808643579483032227e-02 5.021804571151733398e-02 1.465660333633422852e-01 4.710391163825988770e-02 -5.136109888553619385e-02 1.938602328300476074e-01 -1.405443847179412842e-01 
1.000000000000000000e+00 1.000000000000000000e+00 1.000000000000000000e+00 1.000000000000000000e+00 1.000000000000000000e+00 1.000000000000000000e+00 1.000000000000000000e+00 1.000000000000000000e+00 
0.000000000000000000e+00 0.000000000000000000e+00 0.000000000000000000e+00 0.000000000000000000e+00 0.000000000000000000e+00 0.000000000000000000e+00 0.000000000000000000e+00 0.000000000000000000e+00 
0.000000000000000000e+00 0.000000000000000000e+00 0.000000000000000000e+00 0.000000000000000000e+00 0.000000000000000000e+00 0.000000000000000000e+00 0.000000000000000000e+00 0.000000000000000000e+00 
1.000000000000000000e+00 1.000000000000000000e+00 1.000000000000000000e+00 1.000000000000000000e+00 1.000000000000000000e+00 1.000000000000000000e+00 1.000000000000000000e+00 1.000000000000000000e+00 
