-2.196377664804458618e-01 1.351993083953857422e-01 -1.256638467311859131e-01 2.045309543609619141e-01 1.667181849479675293e-01 1.034961938858032227e-01 2.285393178462982178e-01 -1.058709025382995605e-01 2.234122455120086670e-01 -8.853435516357421875e-03 -1.484832465648651123e-01 -3.022730350494384766e-02 -2.278110384941101074e-01 -4.434436559677124023e-04 1.185486912727355957e-01 -1.895403414964675903e-01 -2.112959027290344238e-01 -5.173747241497039795e-02 2.172264158725738525e-01 -2.244431972503662109e-01 1.333915591239929199e-01 1.203930079936981201e-01 2.200582921504974365e-01 -8.959847688674926758e-02 -3.593929111957550049e-02 -1.638274192810058594e-01 -7.549493014812469482e-02 2.310198247432708740e-01 -2.101130336523056030e-01 -1.492657661437988281e-01 -5.592586100101470947e-02 -2.096191197633743286e-01 -1.964075565338134766e-01 -1.562970727682113647e-01 -1.434501111507415771e-01 3.848373889923095703e-03 -7.384125888347625732e-02 -1.898794174194335938e-01 -4.485733807086944580e-02 2.227785587310791016e-01 -1.919414252042770386e-01 1.380550265312194824e-01 -1.515804380178451538e-01 -2.390835732221603394e-01 1.777595281600952148e-01 2.427712380886077881e-01 4.303276538848876953e-02 -7.062503695487976074e-02 -2.038051784038543701e-01 -4.490324854850769043e-02 5.997213721275329590e-02 -1.662091314792633057e-01 -1.206144541501998901e-01 1.135055422782897949e-01 -1.521444320678710938e-01 -6.070694327354431152e-02 -2.013134807348251343e-01 -2.342314720153808594e-01 1.096879839897155762e-01 1.163809895515441895e-01 -2.441795170307159424e-02 -2.926400303840637207e-02 8.946105837821960449e-02 1.871736049652099609e-01 2.217540442943572998e-01 1.673594713211059570e-01 1.968972980976104736e-01 1.260918378829956055e-02 1.583720445632934570e-01 1.534100770950317383e-01 2.225346863269805908e-01 -1.372160017490386963e-01 1.888342499732971191e-01 -4.977402091026306152e-02 2.241376042366027832e-02 2.126234173774719238e-01 -3.562156856060028076e-02 -1.639364659786224365e-01 -1.890060305595397949e-02 -5.139692127704620361e-02 6.396800279617309570e-02 1.390081644058227539e-02 3.100946545600891113e-03 1.621337234973907471e-01 -1.564861834049224854e-02 6.293585896492004395e-02 3.209275007247924805e-02 3.754922747611999512e-02 1.308830678462982178e-01 -1.095086187124252319e-01 3.735494613647460938e-02 -5.698986351490020752e-02 2.032480537891387939e-01 1.310807168483734131e-01 3.220239281654357910e-02 -1.142155677080154419e-01 7.468053698539733887e-02 1.540374457836151123e-01 1.500310897827148438e-01 -1.778143942356109619e-01 -7.366746664047241211e-02 6.113657355308532715e-02 1.738989353179931641e-01 1.911299824714660645e-01 -3.495410084724426270e-02 -2.383133172988891602e-01 -1.589771807193756104e-01 -1.373894363641738892e-01 -1.774392724037170410e-01 2.080253362655639648e-01 1.061700582504272461e-01 1.315689980983734131e-01 -1.720646768808364868e-01 -1.333779543638229370e-01 1.200330853462219238e-01 -2.846036851406097412e-02 -1.272543370723724365e-01 -6.507281959056854248e-02 -8.052974939346313477e-02 9.031349420547485352e-02 -2.136489152908325195e-01 1.661285459995269775e-01 3.833198547363281250e-02 1.712718307971954346e-01 8.847266435623168945e-03 1.603932082653045654e-01 -2.232632040977478027e-01 4.787406325340270996e-02 -1.750937849283218384e-01 1.735506355762481689e-01 -2.546910941600799561e-02 -1.142995059490203857e-02 -6.032213568687438965e-03 7.901030778884887695e-02 -5.540065467357635498e-02 -2.326274663209915161e-01 2.047518789768218994e-01 3.651216626167297363e-03 -2.227314412593841553e-01 -2.352033555507659912e-02 2.514863014221191406e-02 2.077280879020690918e-01 2.019615769386291504e-01 -4.434013366699218750e-02 -5.555143952369689941e-02 1.791707575321197510e-01 1.109672486782073975e-01 4.128083586692810059e-02 1.857307553291320801e-02 2.402046918869018555e-01 -1.035888046026229858e-01 2.059993147850036621e-01 -8.930793404579162598e-02 2.449233829975128174e-01 -1.280713677406311035e-01 1.349409818649291992e-01 -1.139842569828033447e-01 -6.400087475776672363e-02 2.131840586662292480e-01 1.911089718341827393e-01 7.497954368591308594e-02 2.915337681770324707e-02 2.455023527145385742e-01 -6.691360473632812500e-02 -9.397627413272857666e-02 1.054875254631042480e-01 -1.455671787261962891e-01 -1.411525309085845947e-01 1.962933838367462158e-01 -1.092131584882736206e-01 -1.444932967424392700e-01 -1.196519881486892700e-01 -2.335207313299179077e-01 1.557239294052124023e-01 1.415625214576721191e-02 -2.379288226366043091e-01 1.940560042858123779e-01 2.161921560764312744e-01 2.069138288497924805e-01 -1.976585090160369873e-01 1.259928941726684570e-01 -1.133170723915100098e-01 -1.993195712566375732e-01 8.176720142364501953e-02 -1.955993324518203735e-01 1.604714989662170410e-01 9.765577316284179688e-02 -4.888115823268890381e-02 -1.237884908914566040e-01 9.121838212013244629e-02 -4.324576258659362793e-02 -1.230282783508300781e-01 -1.245410144329071045e-01 -8.363910019397735596e-02 2.963337302207946777e-02 -1.835998594760894775e-01 -7.096347212791442871e-02 9.180310368537902832e-02 8.909603953361511230e-02 -7.153064012527465820e-02 8.739566802978515625e-02 1.776076853275299072e-01 2.326821684837341309e-01 1.826028823852539062e-01 -1.954600214958190918e-02 4.960510134696960449e-02 -1.493312120437622070e-01 -9.567670524120330811e-02 -6.048014760017395020e-02 -7.226666808128356934e-02 1.761325001716613770e-01 -1.748220920562744141e-01 -1.706561148166656494e-01 2.298334240913391113e-01 1.687575280666351318e-01 -1.440106034278869629e-01 
1.000000000000000000e+00 1.000000000000000000e+00 1.000000000000000000e+00 1.000000000000000000e+00 1.000000000000000000e+00 1.000000000000000000e+00 1.000000000000000000e+00 1.000000000000000000e+00 
0.000000000000000000e+00 0.000000000000000000e+00 0.000000000000000000e+00 0.000000000000000000e+00 0.000000000000000000e+00 0.000000000000000000e+00 0.000000000000000000e+00 0.000000000000000000e+00 
0.000000000000000000e+00 0.000000000000000000e+00 0.000000000000000000e+00 0.000000000000000000e+00 0.000000000000000000e+00 0.000000000000000000e+00 0.000000000000000000e+00 0.000000000000000000e+00 
1.000000000000000000e+00 1.000000000000000000e+00 1.000000000000000000e+00 1.000000000000000000e+00 1.000000000000000000e+00 1.000000000000000000e+00 1.000000000000000000e+00 1.000000000000000000e+00 
9.904575347900390625e-02 -2.013593763113021851e-01 2.027776837348937988e-01 -1.217304989695549011e-01 -5.886174738407135010e-02 8.896711468696594238e-02 2.109962701797485352e-02 1.910598278045654297e-01 1.477991640567779541e-01 -7.866717875003814697e-02 -7.813641428947448730e-02 -4.778991639614105225e-02 -3.348781168460845947e-02 -1.431941986083984375e-01 7.178667187690734863e-02 -1.698409914970397949e-01 -2.598111331462860107e-02 -1.332629323005676270e-01 1.631610095500946045e-01 -1.631386578083038330e-01 1.785095036029815674e-02 -1.173231676220893860e-01 2.084437012672424316e-02 1.098265051841735840e-01 -1.023961752653121948e-01 -1.248633861541748047e-01 -1.339269876480102539e-01 7.469126582145690918e-02 1.093752682209014893e-01 5.088052153587341309e-02 6.467789411544799805e-03 1.220006942749023438e-01 -1.000206395983695984e-01 -1.506749540567398071e-01 -4.874874651432037354e-02 -5.650539696216583252e-02 -5.721369385719299316e-02 -1.044614091515541077e-01 5.369135737419128418e-02 -1.683054864406585693e-02 1.124829351902008057e-01 -1.437985002994537354e-01 4.613834619522094727e-02 -1.059567928314208984e-02 3.719525039196014404e-02 -8.218389749526977539e-02 -1.151890233159065247e-01 1.630439460277557373e-01 1.125864982604980469e-01 -1.559278666973114014e-01 1.353208422660827637e-01 -1.278613507747650146e-02 1.780399680137634277e-02 1.372359097003936768e-01 4.688158631324768066e-02 5.333858728408813477e-02 -1.884407252073287964e-01 7.671028375625610352e-02 5.973425507545471191e-02 -1.037177741527557373e-01 4.705694317817687988e-02 7.352715730667114258e-02 6.756579875946044922e-02 -1.388987600803375244e-01 5.045583844184875488e-02 -9.738288819789886475e-02 1.688569784164428711e-01 -8.056474477052688599e-02 1.652103662490844727e-01 -1.343789100646972656e-01 -5.984058976173400879e-02 1.667838692665100098e-01 2.730996906757354736e-02 -1.803208887577056885e-01 -8.691715449094772339e-02 3.568604588508605957e-03 -1.807173788547515869e-01 -2.809336781501770020e-02 4.276140034198760986e-02 1.825495958328247070e-01 1.969242990016937256e-01 -1.967193186283111572e-01 1.145757734775543213e-02 -1.501667648553848267e-01 -7.709926366806030273e-02 -1.993453502655029297e-02 2.009337842464447021e-01 1.245648562908172607e-01 1.316520869731903076e-01 1.456311047077178955e-01 9.656995534896850586e-03 3.270821273326873779e-02 2.865424752235412598e-02 2.530698478221893311e-02 -1.236574202775955200e-01 4.224859178066253662e-02 1.465798616409301758e-01 3.015966713428497314e-02 5.887195467948913574e-03 1.930801868438720703e-01 5.668118596076965332e-02 -8.091471344232559204e-02 1.155182421207427979e-01 1.815378069877624512e-01 9.759002923965454102e-02 -5.955676734447479248e-02 -5.867291986942291260e-02 1.116612553596496582e-01 1.238342821598052979e-01 -1.855358928442001343e-01 8.778694272041320801e-02 1.783319711685180664e-01 -1.053990721702575684e-01 -1.429891586303710938e-01 1.708528697490692139e-01 -1.272713243961334229e-01 1.776075959205627441e-01 -1.264147013425827026e-01 7.508572936058044434e-02 -1.114138960838317871e-02 -4.032137989997863770e-02 -1.606144607067108154e-01 -1.660495400428771973e-01 6.717559695243835449e-02 -1.410140097141265869e-01 1.827481985092163086e-01 1.940540671348571777e-01 1.528275310993194580e-01 1.244448423385620117e-01 1.413594484329223633e-01 -1.847085058689117432e-01 5.711030960083007812e-02 -2.657149732112884521e-02 -1.928136944770812988e-01 -1.874040216207504272e-01 3.455005586147308350e-02 -5.312021076679229736e-02 4.459853470325469971e-02 7.977706193923950195e-02 -6.779745221138000488e-02 1.826396286487579346e-01 -1.828925907611846924e-01 -8.590488135814666748e-02 -1.611798107624053955e-01 -9.041533619165420532e-02 7.334530353546142578e-02 -1.836945712566375732e-01 3.553108870983123779e-02 -3.202030062675476074e-02 -1.528706103563308716e-01 7.984709739685058594e-02 -1.802062243223190308e-01 -1.369954943656921387e-01 -1.114500835537910461e-01 -2.708570659160614014e-02 -1.112120077013969421e-01 1.427744030952453613e-01 1.396607756614685059e-01 1.928806602954864502e-01 5.471736192703247070e-02 -1.574067175388336182e-01 3.588883578777313232e-02 5.450582504272460938e-02 1.232651174068450928e-01 1.053349673748016357e-01 -1.142155379056930542e-01 -1.936397254467010498e-01 -1.337929964065551758e-01 1.290777623653411865e-01 1.334501504898071289e-01 1.995060443878173828e-01 7.190889120101928711e-02 9.311103820800781250e-02 -1.258857250213623047e-01 -1.521728634834289551e-01 -1.507005989551544189e-01 8.875948190689086914e-02 1.028139889240264893e-01 2.451497316360473633e-02 1.628581583499908447e-01 8.768847584724426270e-02 9.794119000434875488e-02 1.475066244602203369e-01 -1.618043184280395508e-01 1.117701232433319092e-01 1.553840041160583496e-01 3.916013240814208984e-02 1.379004120826721191e-02 3.596870601177215576e-02 -6.140694022178649902e-02 1.824459731578826904e-01 6.440994143486022949e-02 2.681103348731994629e-02 -1.394913792610168457e-01 -1.552907675504684448e-01 1.935073137283325195e-01 -1.156348139047622681e-01 -6.873905658721923828e-02 -2.460174262523651123e-02 -1.576966643333435059e-01 -6.356419622898101807e-02 -7.565844058990478516e-02 1.026710569858551025e-01 7.302969694137573242e-03 -1.622109264135360718e-01 1.794697940349578857e-01 9.457552433013916016e-02 4.641026258468627930e-02 -5.662730336189270020e-02 1.337684690952301025e-01 1.969340443611145020e-01 9.248331189155578613e-03 1.997580826282501221e-01 -4.383543133735656738e-02 -6.848514080047607422e-03 1.684454977512359619e-01 -8.243346214294433594e-02 1.111498475074768066e-01 1.067481637001037598e-01 -1.248017251491546631e-01 3.232665359973907471e-02 1.901833117008209229e-01 -1.654288172721862793e-02 1.505720615386962891e-01 -1.668250858783721924e-01 1.650425493717193604e-01 -1.794886738061904907e-01 -1.917626857757568359e-01 1.338458061218261719e-01 -9.970754384994506836e-03 8.315902948379516602e-02 1.927447319030761719e-01 1.432784497737884521e-01 -3.362295031547546387e-02 5.886432528495788574e-02 1.080768406391143799e-01 1.541539132595062256e-01 -6.834398210048675537e-02 4.160238802433013916e-02 -6.618930399417877197e-02 1.882671713829040527e-01 -1.127344071865081787e-01 -1.416468769311904907e-01 1.269839107990264893e-01 1.513595581054687500e-01 -1.533768475055694580e-01 8.908930420875549316e-02 -1.179604157805442810e-01 -3.609226644039154053e-02 -1.501026749610900879e-01 -1.311446428298950195e-01 -1.824480146169662476e-01 3.946691751480102539e-03 -3.707349300384521484e-03 -1.426427066326141357e-01 -1.118231192231178284e-01 1.407586038112640381e-02 -8.878440409898757935e-02 -9.585737437009811401e-02 1.431853473186492920e-01 6.634503602981567383e-02 -1.421371102333068848e-01 1.170232892036437988e-01 4.920306801795959473e-02 -2.016003280878067017e-01 1.840884983539581299e-01 1.507688164710998535e-01 -1.229584664106369019e-01 -3.192996978759765625e-02 -2.065262198448181152e-02 -1.575764119625091553e-01 1.945487856864929199e-01 6.611704826354980469e-03 8.286130428314208984e-02 7.979473471641540527e-02 -1.564157009124755859e-02 5.081295967102050781e-05 1.000558137893676758e-01 1.792779862880706787e-01 -2.883596718311309814e-02 -1.000190377235412598e-01 -1.632140576839447021e-02 -1.353284418582916260e-01 -8.130428940057754517e-02 1.777663826942443848e-02 4.326368868350982666e-02 1.028435826301574707e-01 7.277384400367736816e-02 -1.609091311693191528e-01 -7.615780830383300781e-02 4.043900966644287109e-02 -5.917423963546752930e-02 1.280867457389831543e-01 -1.271207630634307861e-01 -1.057924032211303711e-01 1.348202228546142578e-01 1.885147988796234131e-01 -7.628735899925231934e-02 -2.351740002632141113e-02 1.082800030708312988e-01 1.955831944942474365e-01 -8.616583049297332764e-02 1.813530623912811279e-01 2.031981647014617920e-01 -1.226028576493263245e-01 -1.296120733022689819e-01 6.471243500709533691e-02 7.778036594390869141e-02 1.633560955524444580e-01 6.628766655921936035e-02 -1.846224069595336914e-01 1.873674690723419189e-01 1.757288277149200439e-01 -7.318298518657684326e-02 -4.126659035682678223e-02 6.329011917114257812e-02 1.508213281631469727e-01 -1.441815495491027832e-01 -1.794427335262298584e-01 -1.529482007026672363e-02 1.248118281364440918e-02 1.753498315811157227e-01 1.136713325977325439e-01 -1.344198882579803467e-01 1.403474211692810059e-01 -1.630737483501434326e-01 -6.683140993118286133e-02 -1.081662774085998535e-01 -9.314462542533874512e-02 -1.400175988674163818e-01 -6.475619971752166748e-02 9.443932771682739258e-02 -1.965826153755187988e-01 1.331810057163238525e-01 1.585841178894042969e-01 1.124863624572753906e-01 -1.034690886735916138e-01 -1.136902272701263428e-01 -1.394813954830169678e-01 1.298928260803222656e-01 -1.538923233747482300e-01 2.051065862178802490e-02 8.662062883377075195e-02 1.551298797130584717e-02 -9.465938806533813477e-02 1.920990645885467529e-01 1.347547173500061035e-01 9.626233577728271484e-02 -6.581747531890869141e-02 -7.403309643268585205e-02 1.678782701492309570e-02 -2.083887159824371338e-02 1.241195499897003174e-01 -3.899544477462768555e-03 -1.515496969223022461e-01 1.989790201187133789e-01 -1.587946414947509766e-01 1.121528446674346924e-01 9.770375490188598633e-02 8.936038613319396973e-02 -7.737442851066589355e-02 8.336573839187622070e-02 -1.815083622932434082e-02 1.036341786384582520e-01 -1.169276013970375061e-01 -6.662452220916748047e-02 -5.829745531082153320e-02 -9.653214365243911743e-02 2.325712144374847412e-02 -2.002651095390319824e-01 -9.355245530605316162e-02 1.560809612274169922e-01 -1.855404227972030640e-01 -8.764336258172988892e-02 1.715839803218841553e-01 -2.466778457164764404e-02 -1.384845077991485596e-01 1.589008271694183350e-01 7.849463820457458496e-02 8.809059858322143555e-02 -1.461590826511383057e-01 -9.354691207408905029e-02 1.585067808628082275e-01 8.154875040054321289e-02 -1.280716061592102051e-02 1.076694726943969727e-01 -3.321960568428039551e-02 -1.294974088668823242e-01 -7.721188664436340332e-02 -2.024603188037872314e-01 -1.351578235626220703e-01 2.005791068077087402e-01 -8.157847821712493896e-02 -1.353671848773956299e-01 -1.470565795898437500e-03 8.344608545303344727e-02 7.418495416641235352e-02 -1.079152524471282959e-01 -1.343134939670562744e-01 -1.644373387098312378e-01 -1.514054834842681885e-01 -4.377703368663787842e-02 -1.513622701168060303e-01 -8.726234734058380127e-02 9.524339437484741211e-02 -1.250492483377456665e-01 8.891040086746215820e-02 -1.964571028947830200e-01 1.102346777915954590e-01 1.002877950668334961e-03 1.646280288696289062e-01 4.508942365646362305e-04 -6.201605498790740967e-02 -4.245752096176147461e-02 7.573515176773071289e-03 -1.789684593677520752e-02 1.685345172882080078e-01 1.688273847103118896e-01 -4.189938306808471680e-03 -8.720506727695465088e-02 -7.782384753227233887e-03 -3.398224711418151855e-03 1.752396523952484131e-01 -1.306335031986236572e-01 1.280527710914611816e-01 -8.764350414276123047e-02 7.533231377601623535e-02 1.603969931602478027e-01 -1.992352604866027832e-01 -3.595930337905883789e-02 -1.584297418594360352e-01 -4.744932055473327637e-03 -9.521692991256713867e-04 1.670473515987396240e-01 1.043170094490051270e-01 -2.684490382671356201e-02 -1.122721657156944275e-01 9.718054533004760742e-02 -8.219265937805175781e-02 5.057999491691589355e-02 -1.441369354724884033e-01 -9.432169049978256226e-02 -1.568172574043273926e-01 1.491466164588928223e-01 1.281401515007019043e-01 9.370201826095581055e-02 1.675633192062377930e-01 1.902170777320861816e-01 -1.123743206262588501e-01 1.740994453430175781e-01 1.476962864398956299e-01 1.390853822231292725e-01 -1.136121675372123718e-01 -1.492600142955780029e-01 -2.017958760261535645e-01 6.985181570053100586e-02 -6.769135594367980957e-02 6.354945898056030273e-02 -1.978187263011932373e-02 1.539053320884704590e-01 -1.199789270758628845e-01 -8.414040505886077881e-02 -7.550641894340515137e-03 1.770848631858825684e-01 1.970643699169158936e-01 3.706960380077362061e-02 2.843973040580749512e-02 1.096849441528320312e-01 -1.541490852832794189e-01 3.331299126148223877e-02 -6.464222073554992676e-02 1.583225429058074951e-01 -9.910073876380920410e-02 -3.544133901596069336e-02 -9.313683956861495972e-02 1.264272928237915039e-01 -1.493312567472457886e-01 3.912825882434844971e-02 -1.873749643564224243e-01 1.784242391586303711e-01 -1.182794719934463501e-01 1.153689920902252197e-01 -9.517024457454681396e-02 -1.648601591587066650e-01 7.973414659500122070e-02 -9.162884950637817383e-02 8.355781435966491699e-02 1.185340583324432373e-01 1.291176080703735352e-01 1.612056493759155273e-01 1.183033585548400879e-01 -7.736942172050476074e-02 -5.597940087318420410e-02 1.643635332584381104e-02 -2.140106260776519775e-02 6.523439288139343262e-02 -1.920701116323471069e-01 7.400590181350708008e-02 -4.817754030227661133e-02 -2.224500477313995361e-02 -1.744584143161773682e-01 3.437894582748413086e-02 -1.407494544982910156e-01 1.233146190643310547e-01 -1.796747744083404541e-01 -1.480237692594528198e-01 1.828881800174713135e-01 -5.529417097568511963e-02 1.621903777122497559e-01 1.124105751514434814e-01 -1.304079294204711914e-01 -1.980307996273040771e-01 4.361116886138916016e-02 1.778775155544281006e-01 1.903973221778869629e-01 -1.633836925029754639e-01 5.299100279808044434e-02 1.144233047962188721e-01 1.328206956386566162e-01 1.469558179378509521e-01 -1.908527612686157227e-01 9.752890467643737793e-02 -1.911406815052032471e-01 7.625484466552734375e-02 9.359961748123168945e-02 -1.434604078531265259e-01 -7.599404454231262207e-02 1.134203374385833740e-02 5.235716700553894043e-02 -1.602261364459991455e-01 1.518681645393371582e-01 8.861029148101806641e-02 4.564642906188964844e-02 -2.396829426288604736e-02 1.196875572204589844e-01 -1.899270713329315186e-01 5.797213315963745117e-02 1.851155161857604980e-01 1.635967791080474854e-01 -1.213481724262237549e-01 9.732848405838012695e-02 -1.038957536220550537e-01 -4.950751364231109619e-02 6.789594888687133789e-02 1.602541804313659668e-01 3.005483746528625488e-02 1.882594823837280273e-02 8.779913187026977539e-03 -1.318277716636657715e-01 -1.961985826492309570e-01 -1.393875479698181152e-02 -2.635315060615539551e-03 -2.112834155559539795e-02 -7.325428724288940430e-02 6.537958979606628418e-02 2.013129889965057373e-01 -1.033402159810066223e-01 1.578896343708038330e-01 7.612645626068115234e-02 -1.472192108631134033e-01 4.581895470619201660e-02 1.327705085277557373e-01 -1.625562161207199097e-01 1.566321253776550293e-01 1.411485671997070312e-01 1.761187314987182617e-01 -3.034026920795440674e-02 -7.349789142608642578e-03 -7.898496091365814209e-02 9.380742907524108887e-02 -3.642183542251586914e-02 2.509118616580963135e-02 1.849776208400726318e-01 1.020477712154388428e-01 1.305250525474548340e-01 -1.815886795520782471e-02 
1.000000000000000000e+00 1.000000000000000000e+00 1.000000000000000000e+00 1.000000000000000000e+00 1.000000000000000000e+00 1.000000000000000000e+00 1.000000000000000000e+00 1.000000000000000000e+00 
0.000000000000000000e+00 0.000000000000000000e+00 0.000000000000000000e+00 0.000000000000000000e+00 0.000000000000000000e+00 0.000000000000000000e+00 0.000000000000000000e+00 0.000000000000000000e+00 
0.000000000000000000e+00 0.000000000000000000e+00 0.000000000000000000e+00 0.000000000000000000e+00 0.000000000000000000e+00 0.000000000000000000e+00 0.000000000000000000e+00 0.000000000000000000e+00 
1.000000000000000000e+00 1.000000000000000000e+00 1.000000000000000000e+00 1.000000000000000000e+00 1.000000000000000000e+00 1.000000000000000000e+00 1.000000000000000000e+00 1.000000000000000000e+00 
7.251295447349548340e-02 -6.307071447372436523e-02 -9.032593667507171631e-02 1.971481740474700928e-01 1.450411975383758545e-02 -1.973146647214889526e-01 -9.528291225433349609e-02 1.652895510196685791e-01 4.040741920471191406e-02 1.313325464725494385e-01 -1.003178507089614868e-01 -5.940058827400207520e-02 -3.029607236385345459e-02 -1.064074039459228516e-02 6.705975532531738281e-02 1.270900964736938477e-01 1.056570112705230713e-01 1.445864737033843994e-01 1.502074897289276123e-01 3.225025534629821777e-02 4.994943737983703613e-03 -1.711428165435791016e-02 -1.482383310794830322e-01 -4.608029127120971680e-02 8.728930354118347168e-02 1.627413034439086914e-01 1.314642727375030518e-01 1.694828569889068604e-01 -7.556349039077758789e-02 1.605271399021148682e-01 1.711039543151855469e-01 -1.699025928974151611e-01 -1.028186529874801636e-01 1.863560378551483154e-01 -1.265967190265655518e-01 1.681247949600219727e-01 7.164797186851501465e-02 5.492937564849853516e-02 -1.747615039348602295e-01 -1.350759565830230713e-01 3.575208783149719238e-02 -1.508391499519348145e-01 -2.115353941917419434e-03 -2.426151931285858154e-02 1.616849303245544434e-01 -1.340079307556152344e-02 3.493335843086242676e-02 1.513775587081909180e-01 2.786302566528320312e-02 -1.721634715795516968e-01 -1.845356822013854980e-01 -1.961478590965270996e-02 -4.721875488758087158e-02 1.911867260932922363e-01 -9.304836392402648926e-03 -4.129195213317871094e-02 -1.174591928720474243e-01 4.280841350555419922e-02 -1.559483110904693604e-01 1.765421926975250244e-01 -1.929928362369537354e-02 -5.096708238124847412e-02 1.838700175285339355e-01 7.006314396858215332e-02 -1.094955205917358398e-01 -1.011703982949256897e-01 1.621030271053314209e-01 1.261750757694244385e-01 -1.868403106927871704e-01 1.855942010879516602e-01 -1.439873278141021729e-01 1.184351146221160889e-01 -1.057304516434669495e-01 -2.865312993526458740e-02 -4.667890071868896484e-02 -5.897372961044311523e-03 1.676128506660461426e-01 4.054768383502960205e-02 -1.076325774192810059e-03 -3.337290883064270020e-02 -3.926092386245727539e-02 -9.459787607192993164e-02 7.192939519882202148e-04 6.123960018157958984e-03 -7.627932727336883545e-02 -1.117414534091949463e-01 1.788876056671142578e-01 5.810233950614929199e-02 1.192181706428527832e-01 -3.179676830768585205e-02 -1.691994071006774902e-01 -1.634262800216674805e-01 -5.111333727836608887e-02 -1.493557393550872803e-01 1.604146659374237061e-01 4.820644855499267578e-02 -1.298320442438125610e-01 -1.138561293482780457e-01 1.157635450363159180e-01 1.737636029720306396e-01 -9.213955700397491455e-02 1.744204461574554443e-01 2.032701969146728516e-01 1.495508253574371338e-01 2.529081702232360840e-02 1.558748781681060791e-01 -1.629069149494171143e-01 -6.524935364723205566e-03 1.423135101795196533e-01 -3.667393326759338379e-02 -1.949363052845001221e-01 1.869851350784301758e-01 1.460495293140411377e-01 6.443557143211364746e-02 -2.018399685621261597e-01 -6.645113229751586914e-02 1.034930944442749023e-01 -1.532250493764877319e-01 -1.786963641643524170e-02 -1.401065289974212646e-01 -6.943047046661376953e-02 2.053669095039367676e-02 1.228360533714294434e-01 -2.112668752670288086e-02 1.539690196514129639e-01 -2.039302885532379150e-02 -1.209645271301269531e-01 -7.300598919391632080e-02 -1.597421914339065552e-01 7.492914795875549316e-02 1.340799927711486816e-01 -1.937503963708877563e-01 -1.510949432849884033e-02 -1.685631871223449707e-01 -1.291127502918243408e-01 -1.643321812152862549e-01 1.876456141471862793e-01 1.894316971302032471e-01 1.259090602397918701e-01 -4.402308166027069092e-02 1.376372575759887695e-01 1.207711398601531982e-01 8.402559161186218262e-02 5.159115791320800781e-02 1.334809362888336182e-01 5.841878056526184082e-02 -2.036413252353668213e-01 1.779268682003021240e-01 1.887142956256866455e-01 1.080158054828643799e-01 -4.193663597106933594e-02 -1.295948028564453125e-02 -1.017387360334396362e-01 -1.874282062053680420e-01 8.676534891128540039e-02 3.362655639648437500e-02 -2.017512470483779907e-01 -6.468354165554046631e-02 1.199189722537994385e-01 -1.509961485862731934e-01 -3.517308831214904785e-02 1.047530174255371094e-01 4.333303868770599365e-02 -1.296562105417251587e-01 8.052334189414978027e-02 3.838478028774261475e-02 1.706558763980865479e-01 2.398771047592163086e-02 -1.170794442296028137e-01 -3.928837180137634277e-02 4.178893566131591797e-02 -2.666795253753662109e-02 1.253834068775177002e-01 -1.794720292091369629e-01 -1.989573687314987183e-01 -3.161528706550598145e-02 8.542749285697937012e-02 4.387956857681274414e-02 3.773011267185211182e-02 9.826824069023132324e-02 1.720069944858551025e-01 -5.974063277244567871e-02 1.477977931499481201e-01 5.589428544044494629e-02 -1.061938554048538208e-01 -1.405117213726043701e-01 4.219734668731689453e-02 1.728375554084777832e-01 -5.863919854164123535e-02 -1.198394000530242920e-01 2.029293179512023926e-01 -6.874459981918334961e-02 -7.819232344627380371e-02 1.461354494094848633e-01 -1.111266463994979858e-01 1.989926099777221680e-01 -1.152818799018859863e-01 -3.719632327556610107e-02 -1.525515019893646240e-01 1.889630258083343506e-01 8.500218391418457031e-03 1.974436938762664795e-01 -8.251240104436874390e-02 1.139298081398010254e-03 3.450338542461395264e-02 -1.254375576972961426e-01 6.007683277130126953e-02 7.109177112579345703e-02 1.205981075763702393e-01 1.042130589485168457e-01 -1.804465353488922119e-01 -4.668609797954559326e-02 -8.396904915571212769e-02 -1.353660225868225098e-01 -1.236668154597282410e-01 -3.611679375171661377e-02 -1.971162557601928711e-01 -1.433062851428985596e-01 1.739353835582733154e-01 8.985912799835205078e-02 1.014841198921203613e-01 -2.252355217933654785e-03 1.041920781135559082e-01 7.725277543067932129e-02 6.725841760635375977e-02 -2.591010928153991699e-02 8.403095602989196777e-02 -6.166011095046997070e-03 1.695392429828643799e-01 3.177653253078460693e-02 -3.216527402400970459e-02 1.611561775207519531e-01 1.183579266071319580e-01 -1.807860881090164185e-01 4.575042426586151123e-02 2.883553504943847656e-02 -4.245859384536743164e-02 1.266803145408630371e-01 -1.533956229686737061e-01 -1.319127976894378662e-01 1.057095825672149658e-02 -2.004166990518569946e-01 -1.951209008693695068e-01 1.758381128311157227e-01 -1.112927421927452087e-01 -2.030390202999114990e-01 -1.349321007728576660e-02 8.797681331634521484e-02 1.697480678558349609e-01 -7.788416743278503418e-02 1.036358773708343506e-01 7.919555902481079102e-02 -1.521677672863006592e-01 -8.745424449443817139e-02 -1.052320003509521484e-01 -1.516258567571640015e-01 1.012888550758361816e-01 -3.948110342025756836e-02 2.006855607032775879e-02 1.501266062259674072e-01 -1.786246895790100098e-01 1.466322839260101318e-01 -6.433771550655364990e-02 -1.239791065454483032e-01 -5.989207327365875244e-02 -6.637111306190490723e-03 -8.969935029745101929e-02 1.406140625476837158e-02 1.462534070014953613e-03 5.168181657791137695e-02 1.675328016281127930e-01 1.702792644500732422e-01 1.487249135971069336e-01 1.789459884166717529e-01 -4.795002937316894531e-02 1.330941915512084961e-03 -1.549907326698303223e-01 -1.500016450881958008e-01 4.648178815841674805e-02 -1.000301316380500793e-01 -1.270782649517059326e-01 -1.481251418590545654e-01 -1.796819865703582764e-01 7.858720421791076660e-02 1.046508252620697021e-01 -1.283287107944488525e-01 3.110092878341674805e-02 -1.443986147642135620e-01 -8.822351694107055664e-02 -1.080072820186614990e-01 -8.012475073337554932e-02 -1.039156317710876465e-02 -4.749074578285217285e-03 1.681029498577117920e-01 -1.756651103496551514e-01 -1.454646885395050049e-02 -3.735761344432830811e-02 1.184116005897521973e-01 -1.250056326389312744e-01 3.526172041893005371e-02 1.820878386497497559e-01 -1.318594217300415039e-01 -1.738643348217010498e-01 -1.384137570858001709e-02 -8.259430527687072754e-02 1.946653425693511963e-01 1.821253001689910889e-01 1.438305675983428955e-01 1.948974132537841797e-01 1.330321431159973145e-01 1.472398936748504639e-01 -1.465039849281311035e-01 3.638188540935516357e-02 6.237667798995971680e-02 -1.069702431559562683e-01 -1.286497712135314941e-01 2.737566828727722168e-03 -1.234605163335800171e-01 -6.576195359230041504e-02 -9.323155134916305542e-02 5.082303285598754883e-02 -6.165480613708496094e-02 -6.295366585254669189e-02 -1.802922189235687256e-01 -1.022442355751991272e-01 -1.954423487186431885e-01 1.158725023269653320e-01 1.485163271427154541e-01 -5.234782397747039795e-02 -8.944156020879745483e-02 6.650879979133605957e-02 1.467525362968444824e-01 -1.664780378341674805e-01 -1.923948675394058228e-01 -1.387949883937835693e-01 -3.025320172309875488e-02 -1.715419888496398926e-01 -1.494072377681732178e-02 4.377654194831848145e-02 6.843313574790954590e-03 -1.544409990310668945e-01 -1.879439353942871094e-01 -2.040416151285171509e-01 -1.181358098983764648e-01 2.550145983695983887e-02 1.679151356220245361e-01 -1.469277888536453247e-01 7.855966687202453613e-02 -1.244281083345413208e-01 -1.957444697618484497e-01 1.526938378810882568e-01 8.726286888122558594e-02 -4.091696441173553467e-02 -6.189380586147308350e-02 1.146801114082336426e-01 -6.072720885276794434e-02 8.883556723594665527e-02 -7.801562547683715820e-02 -2.030730396509170532e-01 1.530260145664215088e-01 1.787352561950683594e-01 7.706803083419799805e-02 -1.867467314004898071e-01 7.240995764732360840e-02 1.319435536861419678e-01 -1.311649382114410400e-01 4.377922415733337402e-02 -9.509481489658355713e-02 -1.101316958665847778e-01 1.200838387012481689e-01 -1.020612493157386780e-01 1.074238717555999756e-01 4.660385847091674805e-02 -1.933409571647644043e-01 2.003181874752044678e-01 7.622876763343811035e-02 1.725801527500152588e-01 -1.649874746799468994e-01 2.529121935367584229e-02 8.402174711227416992e-02 1.277771890163421631e-01 3.020429611206054688e-02 -1.430674195289611816e-01 -1.207576990127563477e-01 -9.417388588190078735e-02 4.004471004009246826e-02 2.424667775630950928e-02 -7.296097278594970703e-02 -1.387405842542648315e-01 4.308682680130004883e-02 1.797687709331512451e-01 9.841886162757873535e-02 9.141165018081665039e-02 1.180192530155181885e-01 -1.308937370777130127e-02 1.509531438350677490e-01 2.983792126178741455e-02 5.003741383552551270e-02 6.342816352844238281e-02 -1.809328198432922363e-01 1.950154900550842285e-01 -1.073576807975769043e-01 2.503570914268493652e-02 7.987591624259948730e-02 2.366948127746582031e-02 -4.435713589191436768e-02 -8.244812488555908203e-05 -1.386888921260833740e-01 1.845018565654754639e-01 -1.290397495031356812e-01 -6.725788116455078125e-04 -1.084836348891258240e-01 1.035361886024475098e-01 1.988243758678436279e-01 -9.377418458461761475e-02 -1.921256929636001587e-01 1.266715526580810547e-01 -9.444939345121383667e-02 -8.075668662786483765e-02 -1.629398614168167114e-01 3.400814533233642578e-02 -1.887226104736328125e-01 -7.674327492713928223e-02 -6.785288453102111816e-02 -5.694529414176940918e-02 8.697807788848876953e-04 1.235218942165374756e-01 1.095622479915618896e-01 1.167228221893310547e-01 -1.630624532699584961e-01 1.905282437801361084e-01 1.909842193126678467e-01 1.193705797195434570e-01 1.212970316410064697e-01 1.557790338993072510e-01 8.294397592544555664e-02 -1.036057472229003906e-01 -1.608209460973739624e-01 5.767828226089477539e-02 -7.661376893520355225e-02 -1.052725315093994141e-02 -6.288446485996246338e-02 -2.567729353904724121e-02 5.837205052375793457e-02 -8.585864305496215820e-02 1.853467524051666260e-02 1.023894250392913818e-01 1.741923391819000244e-01 6.867900490760803223e-02 -6.527878344058990479e-02 1.754454374313354492e-01 1.306838691234588623e-01 1.300655603408813477e-01 1.781181991100311279e-02 -6.590241193771362305e-02 7.178318500518798828e-02 -4.456305503845214844e-02 1.232158243656158447e-01 -1.816694438457489014e-02 -3.240150213241577148e-02 -1.117646172642707825e-01 -1.193262040615081787e-01 -5.048824846744537354e-02 1.980310380458831787e-01 -7.678341865539550781e-02 -2.511616051197052002e-02 -9.594697505235671997e-02 -1.553633362054824829e-01 6.245788931846618652e-02 1.597221791744232178e-01 1.450887918472290039e-01 6.215202808380126953e-02 1.288940012454986572e-02 1.415026187896728516e-02 -9.570251405239105225e-02 5.771306157112121582e-02 -1.030810624361038208e-01 6.919905543327331543e-03 -1.207858249545097351e-01 1.412057280540466309e-01 -1.453365683555603027e-01 -6.013473868370056152e-02 5.162298679351806641e-02 1.196469068527221680e-01 -8.466995507478713989e-02 1.532603204250335693e-01 6.290149688720703125e-02 1.727070212364196777e-01 1.366763710975646973e-01 -7.532846927642822266e-02 -3.639902174472808838e-02 1.039826273918151855e-01 -1.400544494390487671e-01 5.178937315940856934e-02 4.136961698532104492e-02 1.133592426776885986e-01 -4.950425028800964355e-02 7.141405344009399414e-02 -1.174338832497596741e-01 1.620697379112243652e-01 -2.419742941856384277e-02 9.248757362365722656e-02 -7.025040686130523682e-02 -1.744159758090972900e-01 -7.850623130798339844e-02 -1.559532731771469116e-01 1.860144734382629395e-01 9.131684899330139160e-02 1.881913542747497559e-01 5.331021547317504883e-02 -1.375897079706192017e-01 1.510234177112579346e-02 1.147707402706146240e-01 -4.820810258388519287e-02 1.590545177459716797e-01 1.383624970912933350e-01 3.740505874156951904e-02 -1.641513407230377197e-02 -7.100285589694976807e-02 -1.827443093061447144e-01 1.907427608966827393e-01 -1.748357266187667847e-01 -6.553302705287933350e-02 -7.924047112464904785e-02 -1.894311457872390747e-01 -7.311329245567321777e-02 1.181966364383697510e-01 -9.003052860498428345e-02 -8.261177688837051392e-02 4.473985731601715088e-02 8.161249756813049316e-02 9.472766518592834473e-02 -5.707800388336181641e-02 -7.054030895233154297e-03 -1.031642854213714600e-01 -1.688325405120849609e-02 1.317688524723052979e-01 1.063836216926574707e-01 -1.434642076492309570e-01 -1.923222541809082031e-01 3.103016316890716553e-02 1.389861106872558594e-02 -1.194151192903518677e-01 -1.950099468231201172e-01 6.637042760848999023e-02 2.037481069564819336e-01 1.017118096351623535e-01 7.257047295570373535e-02 -8.519219607114791870e-02 1.371466815471649170e-01 3.850045800209045410e-02 1.893455982208251953e-01 -2.021262049674987793e-02 -1.976240426301956177e-01 1.628780364990234375e-01 -1.760630607604980469e-01 -1.749005019664764404e-01 -9.369954466819763184e-03 -1.574231684207916260e-01 -2.029427587985992432e-01 1.185137927532196045e-01 3.909103572368621826e-02 -1.283416152000427246e-02 1.210556924343109131e-02 1.177184879779815674e-01 -1.909402161836624146e-01 -1.189018264412879944e-01 -1.862578094005584717e-02 1.811214089393615723e-01 -1.356279402971267700e-01 -1.016496270895004272e-01 4.103523492813110352e-02 -1.282971799373626709e-01 2.006018161773681641e-01 -7.889041304588317871e-02 5.150422453880310059e-03 
1.000000000000000000e+00 1.000000000000000000e+00 1.000000000000000000e+00 1.000000000000000000e+00 1.000000000000000000e+00 1.000000000000000000e+00 1.000000000000000000e+00 1.000000000000000000e+00 
0.000000000000000000e+00 0.000000000000000000e+00 0.000000000000000000e+00 0.000000000000000000e+00 0.000000000000000000e+00 0.000000000000000000e+00 0.000000000000000000e+00 0.000000000000000000e+00 
0.000000000000000000e+00 0.000000000000000000e+00 0.000000000000000000e+00 0.000000000000000000e+00 0.000000000000000000e+00 0.000000000000000000e+00 0.000000000000000000e+00 0.000000000000000000e+00 
1.000000000000000000e+00 1.000000000000000000e+00 1.000000000000000000e+00 1.000000000000000000e+00 1.000000000000000000e+00 1.000000000000000000e+00 1.000000000000000000e+00 1.000000000000000000e+00 
1.521869897842407227e-01 -5.127768218517303467e-02 1.020849049091339111e-01 -1.974005997180938721e-02 -4.408422112464904785e-02 -1.789312064647674561e-01 6.528598070144653320e-02 1.382827758789062500e-05 -1.642026603221893311e-01 1.028107702732086182e-01 -5.169130861759185791e-02 1.631312668323516846e-01 1.595830619335174561e-01 -1.796969771385192871e-02 1.721873283386230469e-01 1.256416738033294678e-02 -1.638398617506027222e-01 1.638277769088745117e-01 -2.479918301105499268e-02 4.598236083984375000e-02 -1.348559409379959106e-01 -5.314528942108154297e-03 1.844489574432373047e-01 1.046782732009887695e-01 1.503723263740539551e-01 -1.325229406356811523e-01 6.128731369972229004e-02 -9.870186448097229004e-02 -1.622967720031738281e-01 1.354629993438720703e-01 1.851766705513000488e-01 -6.742379069328308105e-02 6.135550141334533691e-02 -8.871763944625854492e-02 -1.648624539375305176e-01 1.087006032466888428e-01 9.714636206626892090e-02 1.835945546627044678e-01 -3.418266773223876953e-03 -2.012512981891632080e-01 1.971234977245330811e-01 -1.653749048709869385e-01 -5.770634114742279053e-02 2.324062585830688477e-02 -4.165919125080108643e-02 -1.999428272247314453e-01 -1.527886539697647095e-01 3.769122064113616943e-02 6.396472454071044922e-02 1.759248375892639160e-01 -5.773803591728210449e-02 -2.567544579505920410e-02 -6.412070989608764648e-02 1.955452859401702881e-01 9.976926445960998535e-02 -1.109304204583168030e-01 -2.149197459220886230e-02 -8.885463327169418335e-02 1.262950301170349121e-01 -8.135937899351119995e-02 9.025007486343383789e-02 1.632526516914367676e-01 1.583060324192047119e-01 1.639999747276306152e-01 3.136236965656280518e-02 8.444607257843017578e-02 -3.743314743041992188e-02 -1.699971109628677368e-01 -1.363396644592285156e-02 1.676647365093231201e-01 -2.317370474338531494e-02 -2.196677029132843018e-02 -1.626003086566925049e-01 -3.897140920162200928e-02 -4.802510142326354980e-03 1.645863652229309082e-01 1.759193539619445801e-01 9.958043694496154785e-03 -1.718362867832183838e-01 -1.955760419368743896e-01 -4.486691951751708984e-02 1.603084802627563477e-01 4.846477508544921875e-02 1.745649874210357666e-01 9.337028861045837402e-02 -2.468501031398773193e-02 -1.406612694263458252e-01 -5.408567190170288086e-02 -1.571682989597320557e-01 2.006455957889556885e-01 8.002156019210815430e-02 2.010772228240966797e-01 -5.028058588504791260e-02 -1.347394287586212158e-02 1.435301899909973145e-01 -9.341117739677429199e-02 -1.620138734579086304e-01 -1.285636425018310547e-01 3.605489432811737061e-02 -1.654919981956481934e-01 -3.141035139560699463e-02 1.540179550647735596e-02 -4.803806543350219727e-02 1.906514763832092285e-01 -8.084222674369812012e-03 -7.192163169384002686e-02 4.457950592041015625e-02 1.278737783432006836e-01 -1.610584408044815063e-01 -1.903298497200012207e-02 -9.725163877010345459e-02 1.628144979476928711e-01 -5.585923790931701660e-02 -1.010354012250900269e-01 1.790498197078704834e-02 8.876991271972656250e-02 -9.947659075260162354e-02 5.324703454971313477e-02 9.853747487068176270e-02 2.014876604080200195e-01 -5.762901902198791504e-02 -7.211756706237792969e-02 -1.597872078418731689e-01 -8.033289760351181030e-02 -1.876585036516189575e-01 -6.629033386707305908e-02 1.225663423538208008e-01 -8.875788748264312744e-02 1.768526434898376465e-01 2.041047811508178711e-01 -9.951022267341613770e-02 -1.574903726577758789e-04 1.284663975238800049e-01 1.313897669315338135e-01 1.768621802330017090e-02 4.012782871723175049e-02 1.040072441101074219e-01 -3.692111372947692871e-02 -8.805011957883834839e-02 -1.968099921941757202e-01 1.078826189041137695e-02 -1.777629554271697998e-02 -2.109256386756896973e-02 1.677077114582061768e-01 -1.914191544055938721e-01 1.854772567749023438e-01 4.358810186386108398e-02 2.015080153942108154e-01 -1.139323413372039795e-01 -2.526596188545227051e-03 -1.090077832341194153e-01 1.552548110485076904e-01 6.193476915359497070e-02 -6.277158856391906738e-03 -5.706895887851715088e-02 7.567745447158813477e-02 -1.965279132127761841e-01 1.619617938995361328e-01 -8.360107988119125366e-02 -1.162366569042205811e-02 4.317054152488708496e-02 -4.325935244560241699e-02 1.703582704067230225e-01 -1.047017723321914673e-01 -1.370299458503723145e-01 2.330574393272399902e-02 -1.453358381986618042e-01 3.700788319110870361e-02 1.756066679954528809e-01 1.556712388992309570e-01 -1.571788489818572998e-01 1.994411647319793701e-01 -1.525692194700241089e-01 1.971907913684844971e-02 -2.021646797657012939e-01 -2.040986567735671997e-01 1.113893389701843262e-01 -1.091687232255935669e-01 -7.218955457210540771e-02 1.688301563262939453e-01 -1.623229533433914185e-01 -1.598193794488906860e-01 1.424293220043182373e-02 -5.345562100410461426e-02 -3.074726462364196777e-02 -1.753311604261398315e-01 -7.773004472255706787e-02 7.427138090133666992e-02 4.808151721954345703e-02 -2.347677946090698242e-04 -5.423152446746826172e-02 -1.264474093914031982e-01 -1.972028762102127075e-01 1.011132299900054932e-01 6.640887260437011719e-02 -1.473893523216247559e-01 -1.771945655345916748e-01 -1.681437790393829346e-01 -8.478251844644546509e-02 1.292023956775665283e-01 4.603716731071472168e-02 -1.393322795629501343e-01 -1.403751075267791748e-01 8.108028769493103027e-02 -9.055272489786148071e-02 -2.009244412183761597e-01 -1.116617843508720398e-01 -1.809796392917633057e-01 -4.058003425598144531e-03 7.242786884307861328e-02 1.130968928337097168e-01 -1.789528131484985352e-01 1.760883033275604248e-01 -4.937568306922912598e-02 7.847419381141662598e-02 -3.423143923282623291e-02 1.831325292587280273e-01 1.306057870388031006e-01 -2.195850014686584473e-02 -7.134926319122314453e-02 -1.599805057048797607e-02 1.901069283485412598e-01 4.237970709800720215e-02 -1.074272245168685913e-01 3.450421988964080811e-02 -1.336622238159179688e-01 -1.171335130929946899e-01 1.748936772346496582e-01 -1.968797743320465088e-01 9.840488433837890625e-02 4.005877673625946045e-02 1.858310401439666748e-02 -6.149263679981231689e-02 -4.069602489471435547e-02 -1.116364300251007080e-01 -9.447372704744338989e-02 1.717399060726165771e-01 1.137777268886566162e-01 2.003237605094909668e-01 -2.014965713024139404e-01 9.301152825355529785e-02 4.754829406738281250e-02 1.317812204360961914e-01 -1.006616801023483276e-01 -2.842448651790618896e-02 2.004457414150238037e-01 -1.503209471702575684e-01 -9.012586623430252075e-02 5.157479643821716309e-02 2.012171745300292969e-01 -1.997098326683044434e-02 3.611139953136444092e-02 1.725473999977111816e-01 -1.754333078861236572e-02 -1.007928922772407532e-01 -4.713076353073120117e-02 -5.601356923580169678e-02 -7.121664285659790039e-02 5.024322867393493652e-02 -5.882398784160614014e-02 -1.453910768032073975e-01 -1.759486943483352661e-01 8.415466547012329102e-02 3.758278489112854004e-02 -1.104092448949813843e-01 -1.896703988313674927e-01 8.931994438171386719e-02 -1.523830145597457886e-01 1.534003019332885742e-02 -1.906244605779647827e-01 5.970647931098937988e-02 4.038727283477783203e-02 3.253802657127380371e-02 1.145966351032257080e-02 -3.782063722610473633e-03 -1.154399961233139038e-01 -6.677801907062530518e-02 -2.156098186969757080e-02 -1.401671171188354492e-01 -5.769768357276916504e-02 1.174443066120147705e-01 7.699075341224670410e-02 -4.467874765396118164e-03 2.566993236541748047e-02 3.986711800098419189e-02 -1.443772017955780029e-01 -4.637126624584197998e-02 -5.906566977500915527e-02 9.738594293594360352e-02 -1.211848929524421692e-01 -1.550654470920562744e-01 -2.209024131298065186e-02 -1.389011740684509277e-03 1.084089875221252441e-01 1.633425354957580566e-01 -8.586190640926361084e-02 9.409129619598388672e-02 1.054534912109375000e-01 -1.191047728061676025e-01 -1.972599178552627563e-01 -1.596614122390747070e-01 -6.594143807888031006e-02 1.286005675792694092e-01 -8.720856904983520508e-02 -1.140432059764862061e-01 -7.547077536582946777e-02 -1.242172345519065857e-01 -1.109200045466423035e-01 -4.936847090721130371e-02 -1.613741517066955566e-01 -1.050278916954994202e-01 -1.880750954151153564e-01 1.489706933498382568e-01 1.293947100639343262e-01 -1.114472746849060059e-03 -9.123310446739196777e-03 -1.162872910499572754e-01 5.387148261070251465e-02 7.982125878334045410e-02 9.158059954643249512e-03 8.416441082954406738e-02 1.582392156124114990e-01 -6.274873018264770508e-02 1.908490061759948730e-02 -3.584289550781250000e-02 1.251357197761535645e-01 -3.249086439609527588e-02 -2.560429275035858154e-02 -1.232899352908134460e-01 5.238369107246398926e-03 2.353623509407043457e-02 5.673047900199890137e-02 9.326964616775512695e-02 -1.859806627035140991e-01 -8.964795619249343872e-02 -5.821296572685241699e-02 1.911157369613647461e-02 3.586450219154357910e-02 -1.104249060153961182e-02 -2.008050680160522461e-03 -1.304721534252166748e-01 1.637029945850372314e-01 -2.072393894195556641e-03 1.683004200458526611e-01 -4.762312769889831543e-02 1.576851904392242432e-01 -8.371800184249877930e-03 -7.882280647754669189e-02 -5.174770951271057129e-02 7.993817329406738281e-02 -5.199401080608367920e-02 -6.236100196838378906e-02 5.280664563179016113e-02 -5.301406979560852051e-02 8.576375246047973633e-02 -4.004463553428649902e-03 -1.938596069812774658e-01 -6.838008761405944824e-02 -2.712160348892211914e-03 -3.335639834403991699e-02 -1.722618341445922852e-01 -1.960913240909576416e-01 -1.629559695720672607e-01 1.668179333209991455e-01 1.926389932632446289e-01 -1.941459178924560547e-01 1.762339174747467041e-01 1.061874926090240479e-01 -7.758711278438568115e-02 1.748799681663513184e-01 -1.302022933959960938e-01 1.222616136074066162e-01 -4.063990712165832520e-02 -1.121398881077766418e-01 -1.811669617891311646e-01 2.021544873714447021e-01 1.780989468097686768e-01 -1.079319491982460022e-01 8.200606703758239746e-02 -1.841311752796173096e-01 1.755759119987487793e-02 6.771719455718994141e-02 -6.717130541801452637e-02 -2.455663681030273438e-02 -4.323220252990722656e-02 -1.193698123097419739e-01 1.395823359489440918e-01 1.588590741157531738e-01 -1.378662288188934326e-01 6.671991944313049316e-02 -1.267186701297760010e-01 6.016102433204650879e-02 -1.978121399879455566e-01 -1.295499801635742188e-01 -3.133028745651245117e-03 -3.334458172321319580e-02 -1.854643970727920532e-01 4.388935863971710205e-02 1.774971187114715576e-01 1.516414880752563477e-01 -3.542490303516387939e-02 1.836511790752410889e-01 -1.621008813381195068e-01 4.235458374023437500e-02 -1.811903715133666992e-01 2.685020864009857178e-02 1.933106780052185059e-01 -1.287435591220855713e-01 -2.682690322399139404e-02 -4.067869484424591064e-02 1.998899281024932861e-01 4.857504367828369141e-02 1.733573079109191895e-01 -1.296014189720153809e-01 -8.502444624900817871e-02 -1.527543365955352783e-01 -2.883860468864440918e-02 3.050203621387481689e-02 -1.022965535521507263e-01 -9.253994375467300415e-02 4.871216416358947754e-02 -2.655835449695587158e-02 -1.216567680239677429e-01 9.937760233879089355e-02 7.766667008399963379e-02 1.742838323116302490e-02 5.761933326721191406e-02 -1.417714655399322510e-01 1.289027631282806396e-01 1.930071115493774414e-01 -1.414723098278045654e-01 6.500995159149169922e-02 -1.309294849634170532e-01 -1.433359086513519287e-02 1.331945955753326416e-01 1.724838316440582275e-01 1.986169517040252686e-01 -8.257250487804412842e-02 8.020776510238647461e-02 -5.403657257556915283e-02 -1.722404658794403076e-01 3.578241169452667236e-02 -6.652772426605224609e-03 -3.204239904880523682e-02 7.794868946075439453e-02 1.700257658958435059e-01 -8.244186639785766602e-03 1.514036357402801514e-01 -1.599295586347579956e-01 -6.321413815021514893e-02 -1.449612081050872803e-01 2.235952019691467285e-02 2.320864796638488770e-02 5.016013979911804199e-02 1.258318722248077393e-01 -3.411035239696502686e-02 -1.394512653350830078e-01 1.952629685401916504e-01 7.240977883338928223e-02 -1.943299174308776855e-01 -1.815966963768005371e-01 -1.887989193201065063e-01 -1.103043630719184875e-01 -1.995613276958465576e-01 -3.769238293170928955e-02 1.400190293788909912e-01 2.509026229381561279e-02 -2.711437642574310303e-02 -6.077438592910766602e-03 1.187971532344818115e-01 8.117932081222534180e-02 -2.022405415773391724e-01 1.587992310523986816e-01 -1.342989951372146606e-01 -3.083631396293640137e-03 1.191514432430267334e-01 -1.772324740886688232e-02 1.041817069053649902e-01 -1.053933799266815186e-01 9.270459413528442383e-02 -6.935605406761169434e-02 7.237833738327026367e-02 1.933218836784362793e-01 2.001045644283294678e-02 9.097495675086975098e-02 1.886347532272338867e-01 -5.716517567634582520e-03 5.359393358230590820e-02 6.213772296905517578e-02 7.202243804931640625e-02 1.009910106658935547e-01 5.853793025016784668e-02 1.657439172267913818e-01 1.805748641490936279e-01 -1.203860342502593994e-02 1.963737010955810547e-01 -8.513623476028442383e-02 5.271559953689575195e-02 1.048311591148376465e-02 1.108748912811279297e-01 1.445455253124237061e-01 -7.812818884849548340e-02 8.371236920356750488e-02 3.109480440616607666e-02 1.067730486392974854e-01 1.650935709476470947e-01 -1.842552423477172852e-02 -1.174037158489227295e-01 3.413841128349304199e-03 1.816259324550628662e-01 1.436051428318023682e-01 -6.831814348697662354e-02 1.305012106895446777e-01 1.370159685611724854e-01 1.780378222465515137e-01 1.059446930885314941e-01 -9.711765497922897339e-02 9.481030702590942383e-02 -1.664631962776184082e-01 -6.917370855808258057e-02 1.531935632228851318e-01 -1.199319958686828613e-02 1.715888977050781250e-01 4.880777001380920410e-02 -8.310377597808837891e-04 -1.230282559990882874e-01 -1.328155696392059326e-01 1.267561912536621094e-01 -1.752981543540954590e-01 1.320529282093048096e-01 1.801312267780303955e-01 -8.609526604413986206e-02 -1.899959295988082886e-01 -7.347907125949859619e-02 -1.219384074211120605e-01 1.570270657539367676e-01 5.358085036277770996e-03 1.743376255035400391e-01 -9.738872945308685303e-02 2.027902901172637939e-01 2.024259269237518311e-01 -1.776368468999862671e-01 5.785852670669555664e-02 -1.766167432069778442e-01 -5.327317118644714355e-02 1.117481589317321777e-01 -4.332962632179260254e-02 1.195112764835357666e-01 -6.172090768814086914e-03 -1.389074176549911499e-01 -9.930893778800964355e-02 -1.374395191669464111e-01 -5.819499492645263672e-03 -1.254200339317321777e-01 1.869775354862213135e-02 -8.879243582487106323e-02 -1.679453551769256592e-01 -6.971229612827301025e-02 -5.365170538425445557e-02 -9.966877847909927368e-02 -1.099590286612510681e-01 1.163010299205780029e-01 -2.529729902744293213e-02 1.727908253669738770e-01 4.734128713607788086e-02 7.539927959442138672e-02 1.922518312931060791e-01 1.227101683616638184e-01 1.076885759830474854e-01 1.353963017463684082e-01 1.411955356597900391e-01 1.327156126499176025e-01 -1.840646862983703613e-01 6.931468844413757324e-02 1.240281164646148682e-01 3.190788626670837402e-02 
1.000000000000000000e+00 1.000000000000000000e+00 1.000000000000000000e+00 1.000000000000000000e+00 1.000000000000000000e+00 1.000000000000000000e+00 1.000000000000000000e+00 1.000000000000000000e+00 
0.000000000000000000e+00 0.000000000000000000e+00 0.000000000000000000e+00 0.000000000000000000e+00 0.000000000000000000e+00 0.000000000000000000e+00 0.000000000000000000e+00 0.000000000000000000e+00 
0.000000000000000000e+00 0.000000000000000000e+00 0.000000000000000000e+00 0.000000000000000000e+00 0.000000000000000000e+00 0.000000000000000000e+00 0.000000000000000000e+00 0.000000000000000000e+00 
1.000000000000000000e+00 1.000000000000000000e+00 1.000000000000000000e+00 1.000000000000000000e+00 1.000000000000000000e+00 1.000000000000000000e+00 1.000000000000000000e+00 1.000000000000000000e+00 
-2.341295778751373291e-02 -1.960388571023941040e-01 7.240074872970581055e-02 -2.368146181106567383e-02 -1.680850386619567871e-01 -1.927261054515838623e-01 1.943604350090026855e-01 8.588486909866333008e-02 -5.597487092018127441e-03 -1.194142922759056091e-01 -1.011095643043518066e-01 1.434737443923950195e-01 8.563593029975891113e-02 -7.383877038955688477e-02 1.248631477355957031e-01 9.745097160339355469e-02 -1.702341437339782715e-02 -8.698762208223342896e-02 -1.499225497245788574e-01 -6.978362798690795898e-03 -6.852035224437713623e-02 -1.752600073814392090e-01 9.221753478050231934e-02 1.568211615085601807e-01 1.055407524108886719e-01 -4.908475279808044434e-02 1.616395115852355957e-01 1.155585050582885742e-01 1.346198916435241699e-01 -9.254553914070129395e-02 1.776507794857025146e-01 1.123726367950439453e-02 1.011164486408233643e-02 1.159515976905822754e-02 -1.344950795173645020e-01 1.744607388973236084e-01 1.695173084735870361e-01 2.709442377090454102e-02 -1.551841944456100464e-01 7.293137907981872559e-02 2.991925179958343506e-02 -3.887903690338134766e-02 1.234082877635955811e-02 2.936616539955139160e-03 1.727586090564727783e-01 5.256634950637817383e-02 -2.014315128326416016e-01 4.839289188385009766e-02 -2.001413851976394653e-01 8.165195584297180176e-02 -1.958547532558441162e-01 -8.940408378839492798e-02 -5.038030445575714111e-02 -2.172470092773437500e-02 -6.263811886310577393e-02 -2.342279255390167236e-02 4.882487654685974121e-02 -4.338657855987548828e-02 -1.259472519159317017e-01 -9.809765964746475220e-02 -7.060422003269195557e-02 1.086832284927368164e-01 1.923978030681610107e-01 6.402161717414855957e-02 -1.505807042121887207e-03 -4.385757446289062500e-02 -6.336267292499542236e-02 -6.965613365173339844e-02 8.399459719657897949e-02 -1.504395455121994019e-01 -7.130059599876403809e-02 -1.025051400065422058e-01 3.403978049755096436e-02 1.903798282146453857e-01 4.743820428848266602e-02 -1.632060110569000244e-01 -2.308081090450286865e-02 1.466213762760162354e-01 -7.110685110092163086e-02 -8.854627609252929688e-02 1.423066258430480957e-01 7.895237207412719727e-02 -4.890327155590057373e-02 9.059220552444458008e-02 7.498788833618164062e-02 -9.843419492244720459e-02 1.486089527606964111e-01 -4.808381199836730957e-02 1.258151829242706299e-01 1.521276235580444336e-01 1.982670724391937256e-01 1.553199291229248047e-01 8.568778634071350098e-02 4.984828829765319824e-02 -1.137832775712013245e-01 1.536915302276611328e-01 1.076468527317047119e-01 -6.422485411167144775e-02 5.407974123954772949e-03 1.086226403713226318e-01 -1.060840636491775513e-01 1.285683512687683105e-01 -1.448838114738464355e-01 8.835500478744506836e-02 -4.160039126873016357e-02 1.470184922218322754e-01 7.647389173507690430e-02 -4.086528718471527100e-02 -1.257031410932540894e-01 -1.161585673689842224e-01 2.030842304229736328e-01 8.129352331161499023e-02 1.370895504951477051e-01 2.790302038192749023e-02 1.746959090232849121e-01 9.324151277542114258e-02 -1.143245398998260498e-02 1.015938520431518555e-01 -1.138872280716896057e-01 -1.008620932698249817e-01 1.140163838863372803e-01 -5.469712615013122559e-02 -4.707159101963043213e-02 -1.531011909246444702e-01 1.418215334415435791e-01 6.599512696266174316e-02 -4.830491542816162109e-02 1.575951576232910156e-01 1.375694572925567627e-01 -1.556666195392608643e-01 -1.670731455087661743e-01 9.126412868499755859e-02 -1.033588573336601257e-01 -1.488962173461914062e-01 -1.940774321556091309e-01 -2.785454690456390381e-02 -1.710529327392578125e-01 -1.483056545257568359e-01 2.931816875934600830e-02 -1.634227335453033447e-01 7.005861401557922363e-02 -1.006024107336997986e-01 -4.904173314571380615e-02 9.391516447067260742e-02 9.560784697532653809e-02 -1.304856538772583008e-01 1.477858424186706543e-01 -8.676867187023162842e-02 9.630802273750305176e-02 7.180303335189819336e-02 4.190713167190551758e-03 1.244074404239654541e-01 -7.304520905017852783e-02 1.080775558948516846e-01 1.024846136569976807e-01 -7.671514153480529785e-02 -3.903046250343322754e-03 -5.512505769729614258e-03 -1.409851610660552979e-01 1.516607999801635742e-01 1.292865872383117676e-01 8.817684650421142578e-02 -7.510036230087280273e-02 -4.081286489963531494e-02 -4.565630853176116943e-02 3.962111473083496094e-02 2.020511925220489502e-01 -1.608385592699050903e-01 3.801573812961578369e-02 -5.632352828979492188e-02 2.367050945758819580e-02 -4.859866201877593994e-02 -1.237340196967124939e-01 1.218735277652740479e-01 -1.856255382299423218e-01 1.429143249988555908e-01 -1.199482679367065430e-01 1.029641628265380859e-01 1.535035669803619385e-01 -5.627262592315673828e-02 -1.804421097040176392e-01 -4.893583059310913086e-02 -1.899438500404357910e-01 5.271092057228088379e-02 1.029072403907775879e-01 1.217030882835388184e-01 -1.378233134746551514e-01 -1.141130924224853516e-01 4.884743690490722656e-02 -1.674120128154754639e-02 -1.869668960571289062e-01 -7.575055956840515137e-02 1.539516150951385498e-01 1.761550009250640869e-01 4.638713598251342773e-02 -9.430470317602157593e-02 8.475306630134582520e-02 8.215704560279846191e-02 -1.104975715279579163e-01 1.757914423942565918e-01 -1.316277682781219482e-01 -1.612064838409423828e-01 1.126458346843719482e-01 5.119538307189941406e-02 -6.632609665393829346e-02 9.921553730964660645e-02 8.921292424201965332e-02 -8.029250055551528931e-02 -8.360643684864044189e-02 1.046751439571380615e-01 1.854345798492431641e-01 -1.450365781784057617e-01 -2.774767577648162842e-02 8.465856313705444336e-02 -4.896581172943115234e-02 -1.610450595617294312e-01 -6.711591780185699463e-02 1.248697042465209961e-01 4.778635501861572266e-02 1.779873669147491455e-02 -1.342239975929260254e-01 1.706123352050781250e-03 4.364718496799468994e-02 1.346148550510406494e-01 1.886557936668395996e-01 4.716205596923828125e-02 1.282572746276855469e-01 1.107257306575775146e-01 -6.768703460693359375e-03 -9.073741734027862549e-02 6.633120775222778320e-02 -1.282840967178344727e-04 -1.560849696397781372e-01 1.341344416141510010e-02 3.054574131965637207e-02 -3.986673057079315186e-02 -3.021553158760070801e-02 4.167242348194122314e-02 1.357814967632293701e-01 -1.533596664667129517e-01 -1.314369440078735352e-01 2.766318619251251221e-02 -1.230737566947937012e-01 3.858143091201782227e-02 -1.323425322771072388e-01 2.991102635860443115e-02 1.856275200843811035e-01 -1.103523373603820801e-02 1.525993049144744873e-01 4.370968043804168701e-02 1.965096592903137207e-01 -5.180148780345916748e-02 1.810702085494995117e-01 1.568244099617004395e-01 2.011743485927581787e-01 1.346547603607177734e-01 1.708403527736663818e-01 1.503990590572357178e-02 2.034934163093566895e-01 1.678980588912963867e-01 1.489198803901672363e-01 7.616475224494934082e-03 -9.767328947782516479e-02 -1.008097752928733826e-01 2.467957139015197754e-02 1.781184673309326172e-01 1.509157121181488037e-01 -1.660815477371215820e-01 -4.573003947734832764e-02 1.657416522502899170e-01 -1.216927170753479004e-02 -1.538100838661193848e-01 1.121820509433746338e-01 -1.651673018932342529e-01 1.932292282581329346e-01 -1.526178419589996338e-01 -3.375507891178131104e-02 4.332573711872100830e-02 -9.770248830318450928e-02 -7.479113340377807617e-02 -6.858843564987182617e-02 -1.638875901699066162e-01 -2.950766682624816895e-02 1.952739059925079346e-02 1.652651727199554443e-01 -5.879390239715576172e-02 1.455410122871398926e-01 1.720766127109527588e-01 -2.598121762275695801e-02 -1.644962728023529053e-01 1.249597966670989990e-01 9.318560361862182617e-02 -1.015484333038330078e-03 2.570351958274841309e-02 9.078973531723022461e-02 -9.778502583503723145e-02 -5.514456331729888916e-02 1.649199128150939941e-01 -6.001122295856475830e-02 1.973421573638916016e-01 5.936020612716674805e-02 -1.694871783256530762e-01 -1.572130620479583740e-01 1.428353786468505859e-01 -1.932016015052795410e-02 7.314109802246093750e-02 -1.021032482385635376e-01 1.966496407985687256e-01 -5.348502099514007568e-02 1.467136442661285400e-01 1.782397329807281494e-01 1.593357324600219727e-02 9.143069386482238770e-03 -1.309385895729064941e-02 -1.127324104309082031e-01 -2.528896927833557129e-02 -1.179884970188140869e-01 -2.792896330356597900e-02 -1.042394861578941345e-01 -1.745144724845886230e-01 -1.843960136175155640e-01 -1.959517002105712891e-01 4.551093280315399170e-02 -2.483631670475006104e-02 1.069962382316589355e-01 1.640689373016357422e-01 -1.980936527252197266e-02 5.436974763870239258e-02 -1.565954834222793579e-01 -1.870991289615631104e-01 1.244567632675170898e-01 -3.726227581501007080e-02 1.944779157638549805e-01 1.235194504261016846e-01 1.097086369991302490e-01 1.051780581474304199e-02 4.926720261573791504e-02 4.772675037384033203e-02 1.515248119831085205e-01 5.393299460411071777e-02 -1.267312765121459961e-01 -7.237477600574493408e-02 -1.760017424821853638e-01 -4.862976074218750000e-02 1.623043119907379150e-01 7.807689905166625977e-02 -9.754305332899093628e-02 -1.371664106845855713e-01 1.090336740016937256e-01 2.012214064598083496e-01 1.596940159797668457e-01 5.710873007774353027e-02 -6.431084871292114258e-02 8.760064840316772461e-03 -1.609287410974502563e-01 4.325069487094879150e-02 -6.869161128997802734e-02 -1.222771778702735901e-01 -4.237383604049682617e-03 -1.761668175458908081e-01 -1.166467443108558655e-01 -9.522640705108642578e-02 -6.103901565074920654e-02 -4.249215126037597656e-03 -1.478611230850219727e-01 1.909458637237548828e-01 1.306751966476440430e-01 -1.753927171230316162e-01 -7.300671935081481934e-02 1.838212609291076660e-01 1.313597857952117920e-01 -1.056200265884399414e-02 -1.775518804788589478e-01 -3.738676011562347412e-02 8.257007598876953125e-02 -1.155264824628829956e-01 -1.521381139755249023e-01 -1.947458088397979736e-02 9.913235902786254883e-02 -1.981603503227233887e-01 -1.418642252683639526e-01 -1.828514635562896729e-01 -1.827627569437026978e-01 1.634699404239654541e-01 2.375036478042602539e-02 -1.930219978094100952e-01 -4.502552747726440430e-02 -1.829501241445541382e-01 3.899024426937103271e-02 -4.505634307861328125e-03 1.031611859798431396e-01 1.843435466289520264e-01 2.649980783462524414e-02 6.364405155181884766e-02 -1.102731227874755859e-01 -1.193064972758293152e-01 -5.998878180980682373e-02 1.403527855873107910e-01 -4.994270205497741699e-02 1.551347970962524414e-01 -1.251782476902008057e-02 1.769606173038482666e-01 -4.799966514110565186e-02 -9.941148012876510620e-02 9.297508001327514648e-02 -5.234181880950927734e-04 -1.917022466659545898e-01 -8.906204998493194580e-02 -1.526674330234527588e-01 7.230693101882934570e-02 -9.124666452407836914e-03 -7.491193711757659912e-02 -6.373322010040283203e-02 -3.684580326080322266e-03 -9.839842468500137329e-02 -1.457389444112777710e-01 -9.361908584833145142e-02 -1.990841925144195557e-01 1.835828423500061035e-01 -8.128166198730468750e-03 -1.427337080240249634e-01 -1.855298578739166260e-01 5.706852674484252930e-02 1.792941987514495850e-01 -4.346692562103271484e-02 1.408072710037231445e-01 1.166893839836120605e-01 5.986550450325012207e-02 7.169502973556518555e-02 4.822358489036560059e-02 6.830564141273498535e-02 -1.408791095018386841e-01 -1.901959031820297241e-01 -1.867943704128265381e-01 -4.247727990150451660e-02 -1.596095263957977295e-01 -3.609222173690795898e-02 1.337387859821319580e-01 -1.729959249496459961e-01 -1.151473149657249451e-01 -1.422259211540222168e-02 7.402265071868896484e-02 -1.190765425562858582e-01 -2.690806984901428223e-02 -6.345947086811065674e-02 -8.855002373456954956e-02 -1.697460860013961792e-01 1.439561247825622559e-01 -8.196056634187698364e-02 -1.689036041498184204e-01 -9.634029865264892578e-02 -1.768089830875396729e-01 -1.113897860050201416e-01 -1.490117609500885010e-01 -6.014898419380187988e-03 8.177927136421203613e-02 -1.319456100463867188e-01 -8.348763734102249146e-02 5.808809399604797363e-02 2.077686786651611328e-02 -9.243667125701904297e-03 3.742404282093048096e-02 -1.999049633741378784e-01 1.105744242668151855e-01 -1.817252635955810547e-01 2.591222524642944336e-03 9.712266921997070312e-02 -1.556453555822372437e-01 -9.209050238132476807e-02 -1.034986749291419983e-01 -1.535185128450393677e-01 -1.878496110439300537e-01 3.307655453681945801e-03 -4.947943985462188721e-02 2.963751554489135742e-02 7.076171040534973145e-02 1.960107386112213135e-01 1.805467009544372559e-01 -1.895527690649032593e-01 1.813558936119079590e-01 1.290869116783142090e-01 -8.816915750503540039e-02 1.585260629653930664e-01 4.620361328125000000e-02 2.017037570476531982e-02 1.796793937683105469e-01 -1.593814194202423096e-01 6.246316432952880859e-02 -4.911731183528900146e-02 1.329816281795501709e-01 -3.887835144996643066e-02 -1.862762123346328735e-01 1.524725556373596191e-01 -1.178148537874221802e-01 2.995473146438598633e-02 -1.645061075687408447e-01 -3.814864158630371094e-02 -1.295224726200103760e-01 1.843051612377166748e-01 -1.686742901802062988e-01 -1.272512376308441162e-01 1.711415946483612061e-01 -1.864078640937805176e-01 -1.818652749061584473e-01 -9.055808186531066895e-03 -1.816232651472091675e-01 -1.087836176156997681e-01 -2.627687156200408936e-02 7.886844873428344727e-02 -2.026514410972595215e-01 1.276514828205108643e-01 -1.368022859096527100e-01 -5.607119202613830566e-02 1.269222497940063477e-01 7.063260674476623535e-02 6.048917770385742188e-03 2.067524194717407227e-02 6.513243913650512695e-02 -1.781599670648574829e-01 2.666546404361724854e-02 -2.328890562057495117e-02 8.709809184074401855e-02 4.988706111907958984e-02 5.216351151466369629e-02 1.638171672821044922e-01 1.180081665515899658e-01 1.697932779788970947e-01 2.934493124485015869e-02 -1.426776051521301270e-01 1.558378338813781738e-01 -7.858677208423614502e-02 1.401877403259277344e-02 -1.331818401813507080e-01 -6.831872463226318359e-02 4.271945357322692871e-02 4.363273084163665771e-02 8.075714111328125000e-02 1.676990091800689697e-01 -1.388667225837707520e-01 1.892707347869873047e-01 1.023406982421875000e-01 -1.973499506711959839e-01 6.828305125236511230e-02 9.811809659004211426e-02 9.890013933181762695e-02 1.952647566795349121e-01 4.737576842308044434e-02 -1.352129876613616943e-02 9.965416789054870605e-02 3.059148788452148438e-02 8.069065213203430176e-02 8.059385418891906738e-02 4.749870300292968750e-02 -1.984469592571258545e-01 -8.872172236442565918e-02 -1.205754354596138000e-01 -2.234786748886108398e-03 -4.014013707637786865e-02 1.185529232025146484e-01 8.099132776260375977e-02 -1.646910458803176880e-01 1.424038410186767578e-01 1.774495840072631836e-01 -9.060445427894592285e-02 -1.699333041906356812e-01 3.511133790016174316e-02 -9.564504027366638184e-02 -7.381331920623779297e-02 1.684900224208831787e-01 4.420661926269531250e-02 -7.877355813980102539e-02 -1.233504787087440491e-01 1.569519937038421631e-02 3.974348306655883789e-03 7.913869619369506836e-02 -1.373126506805419922e-01 
1.000000000000000000e+00 1.000000000000000000e+00 1.000000000000000000e+00 1.000000000000000000e+00 1.000000000000000000e+00 1.000000000000000000e+00 1.000000000000000000e+00 1.000000000000000000e+00 
0.000000000000000000e+00 0.000000000000000000e+00 0.000000000000000000e+00 0.000000000000000000e+00 0.000000000000000000e+00 0.000000000000000000e+00 0.000000000000000000e+00 0.000000000000000000e+00 
0.000000000000000000e+00 0.000000000000000000e+00 0.000000000000000000e+00 0.000000000000000000e+00 0.000000000000000000e+00 0.000000000000000000e+00 0.000000000000000000e+00 0.000000000000000000e+00 
1.000000000000000000e+00 1.000000000000000000e+00 1.000000000000000000e+00 1.000000000000000000e+00 1.000000000000000000e+00 1.000000000000000000e+00 1.000000000000000000e+00 1.000000000000000000e+00 
8.074215054512023926e-02 -4.181005060672760010e-02 -1.298471838235855103e-01 -6.050270795822143555e-02 -1.881138384342193604e-01 1.809832453727722168e-02 7.679826021194458008e-02 1.127210259437561035e-01 -8.307932317256927490e-02 -1.864568591117858887e-01 -5.493748188018798828e-02 -1.297429352998733521e-01 3.226937353610992432e-02 1.532533764839172363e-01 -1.997398883104324341e-01 1.464000344276428223e-01 9.871661663055419922e-03 -1.958059370517730713e-01 1.570259034633636475e-01 5.941659212112426758e-02 -1.223798617720603943e-01 1.264780163764953613e-01 -1.289027482271194458e-01 6.030726432800292969e-02 -1.982280910015106201e-01 2.151601016521453857e-02 1.910830140113830566e-01 -1.432384848594665527e-01 -4.856795072555541992e-02 5.847874283790588379e-02 1.515683829784393311e-01 1.112440228462219238e-02 -7.139243185520172119e-02 7.163241505622863770e-03 1.677565276622772217e-02 1.010634005069732666e-02 -2.550107240676879883e-02 -1.084833964705467224e-01 1.721261441707611084e-01 3.559820353984832764e-02 -7.009989023208618164e-02 6.869867444038391113e-02 -1.504079699516296387e-01 -4.961191117763519287e-02 1.881935000419616699e-01 -2.213865518569946289e-03 1.486420929431915283e-01 -1.504704505205154419e-01 3.049103915691375732e-02 -2.455201745033264160e-02 1.244308054447174072e-02 1.743981540203094482e-01 -2.615451812744140625e-02 1.147283017635345459e-01 2.015078067779541016e-01 5.920401215553283691e-02 -1.455201506614685059e-01 -1.898707598447799683e-01 5.402031540870666504e-02 -7.459019124507904053e-02 2.363607287406921387e-03 -4.770845174789428711e-02 1.795293986797332764e-01 -6.188723444938659668e-02 4.051336646080017090e-02 -1.366093605756759644e-01 -6.394384801387786865e-02 9.230419993400573730e-03 -9.199282526969909668e-02 -7.993154227733612061e-02 1.949825584888458252e-01 -3.278963267803192139e-02 6.516671180725097656e-02 1.317448914051055908e-02 -1.071942523121833801e-01 6.026923656463623047e-03 1.245098114013671875e-01 -3.951925039291381836e-02 -1.913287192583084106e-01 -1.749430298805236816e-01 -3.407502174377441406e-02 -1.789453178644180298e-01 -1.297542154788970947e-01 1.434183716773986816e-01 1.337448656558990479e-01 -1.134660840034484863e-02 1.998781561851501465e-01 1.529406309127807617e-01 -6.149385869503021240e-02 1.308074891567230225e-01 8.273100852966308594e-02 1.171541213989257812e-02 -1.046070680022239685e-01 -1.539118438959121704e-01 1.526542007923126221e-01 -8.074335753917694092e-02 -1.722164750099182129e-01 1.937516033649444580e-02 -5.003750324249267578e-02 -1.258401572704315186e-02 1.287607848644256592e-01 7.205292582511901855e-02 2.010725438594818115e-01 4.282321035861968994e-02 -1.964783668518066406e-01 -1.211912184953689575e-01 -2.812713384628295898e-03 -7.081085443496704102e-02 -1.970574557781219482e-01 -4.647862911224365234e-02 8.101478219032287598e-02 1.118887066841125488e-01 1.618149578571319580e-01 1.046177744865417480e-01 6.012427806854248047e-02 5.735838413238525391e-02 8.397006988525390625e-02 -2.019962668418884277e-02 6.060758233070373535e-02 1.410860419273376465e-01 6.092357635498046875e-02 2.260304987430572510e-02 -1.890984177589416504e-01 -1.134403720498085022e-01 5.777209997177124023e-03 -8.015166223049163818e-02 1.036327183246612549e-01 -1.176495328545570374e-01 1.874385774135589600e-01 1.315324604511260986e-01 -1.165468841791152954e-01 2.039625644683837891e-01 1.281043291091918945e-01 -1.880230158567428589e-01 -1.026542484760284424e-02 -9.298771619796752930e-04 -4.630313813686370850e-02 -1.418799161911010742e-02 -9.741973131895065308e-02 8.463633060455322266e-02 -4.070064425468444824e-02 -1.372710466384887695e-01 1.918732523918151855e-01 3.056365251541137695e-02 -1.632767319679260254e-01 -5.944278836250305176e-02 -1.759500056505203247e-01 -6.003886461257934570e-02 -1.130418330430984497e-01 -7.400283217430114746e-02 1.230935156345367432e-01 -3.871142864227294922e-02 -1.034831553697586060e-01 1.722027361392974854e-01 3.756609559059143066e-02 2.268198132514953613e-02 3.000544011592864990e-02 9.565219283103942871e-02 -1.699808984994888306e-01 6.830918788909912109e-02 -3.391675651073455811e-02 1.233081817626953125e-01 1.915343105792999268e-02 -1.529664397239685059e-01 -4.589706659317016602e-02 7.867753505706787109e-02 -1.080271601676940918e-02 -1.337208300828933716e-01 6.168711185455322266e-02 -1.528111845254898071e-01 1.483174860477447510e-01 -1.676837205886840820e-01 -7.859402894973754883e-02 1.654191613197326660e-01 1.187823414802551270e-01 7.583191990852355957e-02 1.260156333446502686e-01 -9.387176483869552612e-02 -1.485858261585235596e-01 7.960912585258483887e-02 7.288938760757446289e-02 -7.610154151916503906e-02 -7.949889451265335083e-02 1.605924665927886963e-01 8.530908823013305664e-02 -1.963694095611572266e-01 -7.887931168079376221e-02 1.680438220500946045e-01 -8.110923320055007935e-02 -1.823467016220092773e-01 -1.696283519268035889e-01 4.298029839992523193e-02 -1.330046951770782471e-01 -1.435699164867401123e-01 1.529004871845245361e-01 4.295037686824798584e-02 -1.271057724952697754e-01 -7.088941335678100586e-02 -1.223144531250000000e-01 -9.309411048889160156e-03 -5.624634027481079102e-02 6.955793499946594238e-02 5.640357732772827148e-02 1.910483539104461670e-01 1.406649351119995117e-01 -3.706881403923034668e-02 -1.556569933891296387e-01 1.560286581516265869e-01 -3.728631138801574707e-02 -1.010481491684913635e-01 1.181594729423522949e-01 -8.860253542661666870e-02 5.724549293518066406e-03 8.507740497589111328e-02 1.111280918121337891e-02 -6.927123665809631348e-02 1.740331053733825684e-01 -1.413284242153167725e-02 -1.396867632865905762e-01 -1.091237068176269531e-01 1.669005155563354492e-01 1.309938132762908936e-01 -9.854584932327270508e-04 -6.175558269023895264e-02 4.977977275848388672e-02 1.457229256629943848e-03 9.002229571342468262e-02 -9.117779880762100220e-02 1.730984151363372803e-01 -1.113533824682235718e-01 -1.740068793296813965e-01 1.932993829250335693e-01 -3.274321556091308594e-03 -1.230904012918472290e-01 1.403764188289642334e-01 -8.972823619842529297e-03 2.331820130348205566e-02 6.415361166000366211e-02 -1.864531636238098145e-01 -1.286319196224212646e-01 -2.030271440744400024e-01 1.093213558197021484e-01 -1.998561620712280273e-01 4.825025796890258789e-02 -1.993153691291809082e-01 -6.828713417053222656e-02 1.498597860336303711e-02 -1.962423324584960938e-02 1.483854055404663086e-01 -1.445955038070678711e-02 2.002305388450622559e-01 5.000460147857666016e-02 1.982109248638153076e-01 7.877302169799804688e-02 -1.039575040340423584e-02 8.991074562072753906e-02 8.205136656761169434e-02 8.209139108657836914e-02 9.753739833831787109e-02 5.642688274383544922e-02 -2.331046760082244873e-02 -1.089114695787429810e-01 1.080271601676940918e-02 -1.404777169227600098e-01 1.009470224380493164e-02 -1.345630139112472534e-01 -1.251167953014373779e-01 -5.134756863117218018e-02 1.066637337207794189e-01 -7.569192349910736084e-02 -8.369529992341995239e-02 6.935626268386840820e-02 -1.437721252441406250e-01 -1.520398110151290894e-01 -3.414617478847503662e-02 -3.774437308311462402e-02 6.487581133842468262e-02 1.478916704654693604e-01 9.998461604118347168e-02 1.063889265060424805e-02 -1.411919891834259033e-01 7.449871301651000977e-02 -7.530675828456878662e-02 1.237147450447082520e-01 -1.866623908281326294e-01 1.271679997444152832e-01 -1.718933135271072388e-01 9.840050339698791504e-02 -1.131865680217742920e-01 -1.977027952671051025e-02 1.827437579631805420e-01 -2.980799973011016846e-02 -1.786923408508300781e-01 -2.741435170173645020e-02 -3.960129618644714355e-02 -6.999476253986358643e-02 -1.984748840332031250e-01 -2.022001445293426514e-01 -4.421386122703552246e-02 -5.031685531139373779e-02 -1.791109293699264526e-01 1.397000551223754883e-01 -1.345885694026947021e-01 1.932193934917449951e-01 -1.187192276120185852e-01 1.422305405139923096e-01 -4.353550076484680176e-02 -4.191459715366363525e-02 1.869410574436187744e-01 -1.336360573768615723e-01 1.757286787033081055e-01 2.035055458545684814e-01 -1.243012845516204834e-01 1.223818063735961914e-01 1.631363630294799805e-01 9.790655970573425293e-02 -1.310397088527679443e-01 -9.970679134130477905e-02 -1.530118435621261597e-01 -1.047547757625579834e-01 -1.100337803363800049e-01 7.557696104049682617e-02 -1.774804890155792236e-01 5.844062566757202148e-02 -1.851084977388381958e-01 -1.979976147413253784e-01 1.782935261726379395e-01 1.995720863342285156e-01 -1.593960821628570557e-01 -7.293784618377685547e-02 -6.466670334339141846e-02 2.024584710597991943e-01 -4.937192797660827637e-02 2.023176848888397217e-01 1.442705094814300537e-01 -9.067701548337936401e-02 -7.854828238487243652e-02 -1.571150124073028564e-01 1.949113309383392334e-01 1.557875573635101318e-01 -1.501917839050292969e-01 -9.610017389059066772e-02 6.513878703117370605e-03 -1.077107042074203491e-01 1.342889666557312012e-01 1.521360278129577637e-01 -7.990024983882904053e-02 -8.610948920249938965e-03 -1.250544488430023193e-01 1.770477890968322754e-01 -4.929479956626892090e-02 -7.119742035865783691e-02 -1.972164064645767212e-01 1.477843821048736572e-01 -1.053289920091629028e-01 -1.579345464706420898e-01 1.038160920143127441e-01 1.091628968715667725e-01 -9.531351923942565918e-02 2.010370492935180664e-01 -3.425684571266174316e-02 -1.216786727309226990e-01 1.543421149253845215e-01 -1.456317305564880371e-01 1.380439102649688721e-02 -4.431322216987609863e-03 8.945778012275695801e-03 -4.056262969970703125e-02 -1.103730872273445129e-01 -1.688742637634277344e-01 1.417167782783508301e-01 1.435965299606323242e-03 -6.945364177227020264e-02 8.937922120094299316e-02 -2.013340741395950317e-01 1.338693499565124512e-01 5.025494098663330078e-02 1.073906123638153076e-01 6.393218040466308594e-02 -7.903100550174713135e-02 1.327159106731414795e-01 -1.592842936515808105e-01 -7.883998751640319824e-02 1.949196159839630127e-01 -1.907805949449539185e-01 -1.410893499851226807e-01 1.371876597404479980e-01 -3.107681870460510254e-03 -5.585378408432006836e-02 -6.647866964340209961e-02 4.566700756549835205e-02 -1.134588122367858887e-01 6.846642494201660156e-02 5.576980113983154297e-02 1.627995967864990234e-01 3.707596659660339355e-02 -1.336934864521026611e-01 2.841806411743164062e-02 -9.652868658304214478e-02 9.358939528465270996e-02 1.394644081592559814e-01 6.457188725471496582e-02 -1.556161046028137207e-02 1.053502559661865234e-01 -4.774636030197143555e-02 1.445546746253967285e-01 7.808133959770202637e-03 -1.893377155065536499e-01 1.996102035045623779e-01 -2.010707408189773560e-01 6.208074092864990234e-02 9.938642382621765137e-02 1.094613671302795410e-01 -1.128592863678932190e-01 1.066888570785522461e-01 1.038999855518341064e-01 7.625722885131835938e-02 -1.387458443641662598e-01 -1.287838071584701538e-01 1.086821854114532471e-01 -1.740452349185943604e-01 1.257365643978118896e-01 1.944397985935211182e-01 3.871376812458038330e-02 -1.467198729515075684e-01 4.641404747962951660e-02 -1.049712449312210083e-01 1.841586232185363770e-01 -4.566487669944763184e-02 1.356799602508544922e-01 -1.008157134056091309e-01 1.079795062541961670e-01 -1.832824200391769409e-01 -1.421414315700531006e-01 6.854724884033203125e-02 -7.692421972751617432e-02 -1.577639281749725342e-01 -1.381744444370269775e-01 -6.513769924640655518e-02 5.603429675102233887e-02 -7.664476335048675537e-02 -9.176409244537353516e-02 -1.766495406627655029e-01 -4.415795207023620605e-02 5.512106418609619141e-02 1.477756202220916748e-01 1.000844538211822510e-01 1.067891418933868408e-01 -4.747407138347625732e-02 -5.412280559539794922e-02 1.077699959278106689e-01 3.783737123012542725e-02 -9.356905519962310791e-02 -1.665995121002197266e-01 1.220556497573852539e-01 1.174833774566650391e-01 -1.140343472361564636e-01 -1.254588812589645386e-01 -4.099819064140319824e-02 2.006067037582397461e-01 1.742074489593505859e-01 -1.071483120322227478e-01 -4.385130107402801514e-02 7.917997241020202637e-02 -1.893510520458221436e-01 -5.124045908451080322e-02 -1.301354318857192993e-01 6.224074959754943848e-02 2.034699618816375732e-01 -1.730189323425292969e-01 1.122406721115112305e-01 -1.602148413658142090e-01 -1.386472433805465698e-01 -1.335948407649993896e-01 -1.863627433776855469e-01 -1.348984837532043457e-01 6.469926238059997559e-02 7.095822691917419434e-02 8.920493721961975098e-02 1.419482827186584473e-01 -1.196842938661575317e-01 -2.011198848485946655e-01 -1.176339089870452881e-01 7.585820555686950684e-02 -8.937536925077438354e-02 -1.615528464317321777e-01 -5.139385163784027100e-02 1.723325848579406738e-01 1.713350117206573486e-01 1.963229179382324219e-01 5.368658900260925293e-02 -1.725141108036041260e-01 -1.142603084444999695e-01 1.580547690391540527e-01 -6.333000957965850830e-02 -2.968145906925201416e-02 1.864974200725555420e-01 9.571036696434020996e-02 -1.466705352067947388e-01 -1.563679128885269165e-01 5.793923139572143555e-02 -1.533690541982650757e-01 -1.756252944469451904e-01 2.075710892677307129e-02 9.571745991706848145e-02 -9.483225643634796143e-02 4.831239581108093262e-02 1.612620055675506592e-01 -1.682049483060836792e-01 4.273730516433715820e-02 6.071820855140686035e-02 2.614249289035797119e-02 -1.816893965005874634e-01 -1.654244512319564819e-01 9.195524454116821289e-02 6.373137235641479492e-02 1.208818852901458740e-01 -6.879964470863342285e-02 1.594642102718353271e-01 9.527778625488281250e-02 -3.845679759979248047e-02 1.268838942050933838e-01 -9.070754051208496094e-03 1.883656382560729980e-01 8.193865418434143066e-03 8.366495370864868164e-03 -1.221630498766899109e-01 3.801582753658294678e-02 7.493975758552551270e-02 9.111264348030090332e-02 -3.615023195743560791e-02 -7.566903531551361084e-02 -4.432290792465209961e-03 1.761222779750823975e-01 4.312333464622497559e-02 2.004580795764923096e-01 1.674430072307586670e-01 -4.374533891677856445e-02 -1.619754284620285034e-01 -1.717727780342102051e-01 -1.606555730104446411e-01 -1.959811002016067505e-01 -1.335491240024566650e-01 6.775400042533874512e-02 -1.593890637159347534e-01 -8.301133662462234497e-02 -1.691100001335144043e-01 1.840909123420715332e-01 -1.248777955770492554e-01 -9.800952672958374023e-02 -2.766713500022888184e-02 1.919892728328704834e-01 2.995117008686065674e-02 1.309287548065185547e-02 -9.234318137168884277e-02 1.856953203678131104e-01 5.713841319084167480e-02 1.462782621383666992e-01 -1.244666054844856262e-01 -6.111635267734527588e-02 5.877411365509033203e-02 1.078336536884307861e-01 1.469162106513977051e-01 1.414186954498291016e-01 -5.948196351528167725e-02 1.832556426525115967e-01 7.517889142036437988e-03 -1.284034848213195801e-01 -1.663284003734588623e-01 -1.932964771986007690e-01 5.286622047424316406e-02 -1.000719889998435974e-01 1.030015051364898682e-01 -1.096642985939979553e-01 -1.727315187454223633e-01 -1.128729581832885742e-01 
1.000000000000000000e+00 1.000000000000000000e+00 1.000000000000000000e+00 1.000000000000000000e+00 1.000000000000000000e+00 1.000000000000000000e+00 1.000000000000000000e+00 1.000000000000000000e+00 
0.000000000000000000e+00 0.000000000000000000e+00 0.000000000000000000e+00 0.000000000000000000e+00 0.000000000000000000e+00 0.000000000000000000e+00 0.000000000000000000e+00 0.000000000000000000e+00 
0.000000000000000000e+00 0.000000000000000000e+00 0.000000000000000000e+00 0.000000000000000000e+00 0.000000000000000000e+00 0.000000000000000000e+00 0.000000000000000000e+00 0.000000000000000000e+00 
1.000000000000000000e+00 1.000000000000000000e+00 1.000000000000000000e+00 1.000000000000000000e+00 1.000000000000000000e+00 1.000000000000000000e+00 1.000000000000000000e+00 1.000000000000000000e+00 
-9.852200746536254883e-03 8.858218789100646973e-03 1.073533892631530762e-01 -1.284205019474029541e-01 -1.799446940422058105e-01 -4.412631690502166748e-02 -1.267829537391662598e-01 -1.752714812755584717e-01 1.409633457660675049e-01 -1.303848624229431152e-01 1.607075929641723633e-01 -1.714982837438583374e-01 -7.247149944305419922e-03 -3.004160523414611816e-02 1.807230710983276367e-01 -7.134342193603515625e-02 4.022653400897979736e-02 7.940155267715454102e-02 -1.291159093379974365e-01 -1.676755547523498535e-01 -5.737172067165374756e-02 -1.227817088365554810e-01 -7.921662181615829468e-02 2.909068763256072998e-02 8.383414149284362793e-02 -1.214796304702758789e-02 1.543911099433898926e-01 9.211054444313049316e-02 -1.771381497383117676e-02 9.018480777740478516e-04 -5.324353277683258057e-02 -1.339536905288696289e-01 -1.161944344639778137e-01 1.534426510334014893e-01 2.438688278198242188e-02 2.313779294490814209e-02 -9.089966863393783569e-02 -1.405924558639526367e-01 1.699643433094024658e-01 -1.554004251956939697e-01 5.619135499000549316e-02 1.429404914379119873e-01 -1.976519227027893066e-01 -1.904237568378448486e-01 7.516640424728393555e-02 -1.376284062862396240e-01 -1.127858459949493408e-01 -1.902126967906951904e-01 -1.890591830015182495e-01 -1.238002106547355652e-01 6.694120168685913086e-02 1.653060913085937500e-01 -2.008515894412994385e-01 1.885782182216644287e-01 1.695391535758972168e-01 -1.885861456394195557e-01 -5.063630640506744385e-02 -1.399634927511215210e-01 1.321116089820861816e-01 2.811536192893981934e-03 -2.314865589141845703e-02 -7.673358917236328125e-02 -3.759768605232238770e-02 -2.376838028430938721e-02 -3.906869888305664062e-02 1.520794630050659180e-02 -6.465502083301544189e-02 1.755425035953521729e-01 1.172314584255218506e-02 1.235908865928649902e-01 -1.027815192937850952e-01 -1.069245412945747375e-01 6.396487355232238770e-02 4.477560520172119141e-03 -4.516521096229553223e-02 1.525311172008514404e-02 -5.972176790237426758e-03 -1.305603981018066406e-01 -4.008704423904418945e-02 2.458105981349945068e-02 7.674565911293029785e-02 -1.077316850423812866e-01 -1.173877492547035217e-01 1.688381135463714600e-01 1.018330454826354980e-01 1.827930808067321777e-01 -1.276238262653350830e-01 -5.174517631530761719e-02 7.319772243499755859e-02 7.566788792610168457e-02 1.269169449806213379e-01 -1.698293536901473999e-01 -1.270444393157958984e-01 -5.815787613391876221e-02 -1.903752833604812622e-01 6.011408567428588867e-02 -4.835882782936096191e-02 -3.358519077301025391e-02 1.994024813175201416e-01 7.531985640525817871e-02 8.742037415504455566e-02 8.888173103332519531e-02 -8.027091622352600098e-03 1.538555920124053955e-01 1.981004476547241211e-01 -1.092226952314376831e-01 -3.883066773414611816e-02 1.398862600326538086e-01 -9.786245226860046387e-02 -8.836947381496429443e-02 1.941068172454833984e-01 1.595727205276489258e-01 -4.195308685302734375e-02 1.418896913528442383e-01 -1.800034791231155396e-01 1.731517910957336426e-01 -9.780643880367279053e-02 1.809991598129272461e-01 -1.686444133520126343e-01 1.152590513229370117e-01 6.057375669479370117e-02 -3.769399225711822510e-02 9.873375296592712402e-02 1.915195584297180176e-01 -1.067618504166603088e-01 1.304037272930145264e-01 -1.644644439220428467e-01 -1.931266337633132935e-01 1.960808038711547852e-02 -6.009604036808013916e-02 5.339986085891723633e-02 1.203901767730712891e-01 2.046675980091094971e-02 8.545815944671630859e-05 -1.901968270540237427e-01 -5.272863805294036865e-02 -1.605193614959716797e-01 -1.277962625026702881e-01 -5.889713764190673828e-02 9.193539619445800781e-02 1.679703295230865479e-01 -5.899335443973541260e-02 5.204063653945922852e-02 -2.683016657829284668e-02 -5.392871797084808350e-02 -1.780090630054473877e-01 2.233684062957763672e-05 1.973922550678253174e-01 7.730132341384887695e-02 -1.195985972881317139e-01 5.979397892951965332e-02 1.675294339656829834e-01 -8.780722320079803467e-02 8.981332182884216309e-02 4.197508096694946289e-04 -2.211034297943115234e-02 -1.418027132749557495e-01 -1.007461175322532654e-01 1.618076562881469727e-01 -1.730991452932357788e-01 -7.297289371490478516e-02 1.960647106170654297e-01 -5.736435949802398682e-02 8.850845694541931152e-02 4.379928112030029297e-03 5.712103843688964844e-02 1.075381338596343994e-01 -1.936014741659164429e-01 5.317965149879455566e-02 1.503241062164306641e-02 -1.317566633224487305e-02 1.063492596149444580e-01 -2.776578068733215332e-02 1.225835382938385010e-01 -1.403853297233581543e-03 1.814252138137817383e-02 -7.386082410812377930e-02 1.016713678836822510e-01 2.022514939308166504e-01 -1.831998229026794434e-01 -6.123484671115875244e-02 -2.015966176986694336e-02 -6.210073828697204590e-02 -1.322035491466522217e-01 -1.238029822707176208e-01 1.141940653324127197e-01 6.753104925155639648e-02 1.608128547668457031e-01 -1.087789461016654968e-01 -4.849168658256530762e-02 8.012190461158752441e-03 1.682283878326416016e-01 -1.653477996587753296e-01 1.648136973381042480e-02 1.623534262180328369e-01 1.331287324428558350e-01 7.143652439117431641e-02 -1.713505387306213379e-01 1.370410919189453125e-01 -1.577468961477279663e-01 -1.298161298036575317e-01 -1.267401874065399170e-01 9.462755918502807617e-02 -8.794144541025161743e-02 -1.918959319591522217e-01 7.856398820877075195e-02 -6.393527984619140625e-02 1.046171784400939941e-01 -7.347065210342407227e-02 -7.092425227165222168e-02 -1.809870898723602295e-01 -9.521852433681488037e-02 5.823755264282226562e-02 2.108030021190643311e-02 -2.866670489311218262e-02 1.218215525150299072e-01 -1.777483522891998291e-02 -9.549319744110107422e-02 -1.228149458765983582e-01 -1.085960566997528076e-01 5.491372942924499512e-02 -7.266804575920104980e-02 5.364707112312316895e-02 1.254008710384368896e-01 1.468695402145385742e-01 2.025962173938751221e-01 -7.646489143371582031e-02 2.848036587238311768e-02 1.470288634300231934e-01 1.125223636627197266e-01 -8.894354850053787231e-02 3.069747984409332275e-02 -1.730132400989532471e-01 8.920639753341674805e-02 1.397526264190673828e-02 8.108511567115783691e-03 -8.976743370294570923e-02 1.325012743473052979e-02 -1.890887320041656494e-01 -6.904900074005126953e-04 1.842217445373535156e-01 -1.991826593875885010e-01 4.629716277122497559e-02 -5.947189033031463623e-02 -1.310754418373107910e-01 2.097134292125701904e-02 1.801461279392242432e-01 1.103364825248718262e-01 -1.734567433595657349e-01 5.501306056976318359e-02 -7.234007120132446289e-03 8.416590094566345215e-02 -4.760010540485382080e-02 5.113264918327331543e-02 -1.706250607967376709e-01 1.908154785633087158e-01 -5.642935633659362793e-03 7.048475742340087891e-02 -8.093388378620147705e-02 5.577480792999267578e-02 4.846906661987304688e-02 1.169747710227966309e-01 -1.540933549404144287e-02 1.762751936912536621e-01 9.882542490959167480e-02 1.315685808658599854e-01 1.487925946712493896e-01 3.150375187397003174e-02 -5.134941637516021729e-02 1.381401717662811279e-01 1.835921704769134521e-01 1.419441401958465576e-01 -1.572397798299789429e-01 -1.676419675350189209e-01 -5.246445536613464355e-03 2.063752710819244385e-02 -1.687935292720794678e-01 4.838463664054870605e-02 7.908955216407775879e-02 -2.798761427402496338e-02 5.158948898315429688e-02 5.234888195991516113e-02 1.806921660900115967e-01 -1.845347583293914795e-01 9.482347965240478516e-02 1.885574758052825928e-01 -1.455166935920715332e-02 -1.645698547363281250e-01 9.352755546569824219e-02 1.506333351135253906e-01 1.264692544937133789e-01 1.483503282070159912e-01 -6.659649312496185303e-02 -9.059180319309234619e-02 -1.550906002521514893e-01 1.187844872474670410e-01 6.058797240257263184e-02 -2.713029086589813232e-02 6.068670749664306641e-02 3.825595974922180176e-02 -6.856234371662139893e-02 -1.752197593450546265e-01 -9.693934023380279541e-02 -1.250358670949935913e-01 1.639843583106994629e-01 9.846907854080200195e-02 1.201241016387939453e-01 1.597395241260528564e-01 1.843174099922180176e-01 -7.544444501399993896e-02 1.877533495426177979e-01 5.401641130447387695e-02 1.639916002750396729e-01 1.961557567119598389e-01 -8.616104722023010254e-03 -1.821252554655075073e-01 1.807754933834075928e-01 1.105105876922607422e-02 1.854328811168670654e-02 2.078522741794586182e-02 4.671898484230041504e-02 1.975950300693511963e-01 -1.541867107152938843e-01 -1.487957239151000977e-01 -9.550561010837554932e-02 -3.065153956413269043e-02 -1.330056190490722656e-01 1.834074556827545166e-01 -1.645920574665069580e-01 -7.525259256362915039e-02 1.648152768611907959e-01 2.040877640247344971e-01 -1.889023184776306152e-02 -8.222424238920211792e-02 4.340946674346923828e-03 -1.623775660991668701e-01 1.096259355545043945e-01 1.781259179115295410e-01 8.131119608879089355e-02 -1.204428672790527344e-01 6.510758399963378906e-02 -1.491202861070632935e-01 1.900976896286010742e-02 -2.273191511631011963e-02 -1.434991508722305298e-01 -2.013430297374725342e-01 1.665754318237304688e-01 1.279462575912475586e-01 1.957395672798156738e-02 -9.011030197143554688e-03 4.722619056701660156e-02 -1.388820111751556396e-01 1.455777585506439209e-01 5.309173464775085449e-02 -1.470581591129302979e-01 2.073311805725097656e-02 -1.899462938308715820e-02 -9.969642013311386108e-02 1.313230693340301514e-01 -2.014115005731582642e-01 -1.189225092530250549e-01 1.919880509376525879e-01 -9.786561876535415649e-02 8.821129798889160156e-02 8.952501416206359863e-02 -1.742736250162124634e-01 -1.731153428554534912e-01 1.043976545333862305e-01 -1.496048271656036377e-02 -8.397216349840164185e-02 -2.047576010227203369e-02 -4.729287326335906982e-02 -2.606292068958282471e-02 2.430576086044311523e-02 4.992470145225524902e-02 -4.212623834609985352e-02 -1.650673300027847290e-01 -8.273179084062576294e-02 -2.954037487506866455e-02 1.983467340469360352e-01 -1.851490885019302368e-01 -9.320356696844100952e-02 -1.612652838230133057e-01 -3.175866603851318359e-02 -7.304131984710693359e-02 -1.451207846403121948e-01 1.939166486263275146e-01 -7.775412499904632568e-02 -9.790932387113571167e-02 -4.041641950607299805e-03 -9.663254022598266602e-04 1.961502730846405029e-01 -7.510051131248474121e-02 -7.792772352695465088e-02 -1.730397641658782959e-01 2.194808423519134521e-02 -2.343033254146575928e-02 -1.095508038997650146e-01 1.515321135520935059e-01 6.291693449020385742e-02 -5.255892872810363770e-03 1.116244494915008545e-01 1.173837482929229736e-02 1.467080414295196533e-01 1.069588065147399902e-01 -1.425692737102508545e-01 4.026678204536437988e-02 -1.657968014478683472e-01 -1.879674494266510010e-01 -1.022632196545600891e-01 1.185979545116424561e-01 1.986085176467895508e-01 -1.898359656333923340e-01 -1.993750333786010742e-01 -1.454561948776245117e-01 1.618331670761108398e-01 1.140554249286651611e-01 -1.676959842443466187e-01 5.145549774169921875e-02 3.518004715442657471e-02 -3.302414715290069580e-02 -1.030017882585525513e-01 -1.406828761100769043e-01 1.204326450824737549e-01 -1.157043129205703735e-01 2.013311982154846191e-01 -1.565034538507461548e-01 -1.733039766550064087e-01 -2.722465991973876953e-02 -4.387699067592620850e-02 3.019177913665771484e-02 1.412720978260040283e-01 1.845920085906982422e-02 1.326064169406890869e-01 -7.417686283588409424e-02 1.415636241436004639e-01 1.429946124553680420e-01 -1.015778854489326477e-01 1.597222387790679932e-01 1.711029112339019775e-01 -1.324274539947509766e-01 9.942865371704101562e-02 -2.821473777294158936e-02 8.757314085960388184e-02 5.943289399147033691e-02 9.254968166351318359e-02 -1.753009855747222900e-02 -1.497375220060348511e-01 7.316064834594726562e-02 -1.581759750843048096e-02 -6.326834857463836670e-02 -1.932378411293029785e-01 -1.420018672943115234e-01 1.967847943305969238e-01 2.387022972106933594e-02 -5.325955152511596680e-02 2.031772732734680176e-01 -7.672736048698425293e-02 1.295194029808044434e-02 -1.596334725618362427e-01 -1.434671282768249512e-01 1.271528899669647217e-01 -6.589573621749877930e-02 8.240038156509399414e-02 -3.702978789806365967e-02 -1.329076290130615234e-02 -1.831014752388000488e-01 1.356670260429382324e-02 1.939190626144409180e-01 1.560676991939544678e-01 6.056562066078186035e-03 -1.586445122957229614e-01 -1.754877120256423950e-01 1.908086240291595459e-02 2.035130560398101807e-01 -9.919451922178268433e-02 1.445738673210144043e-01 7.830685377120971680e-02 -1.162902638316154480e-01 1.634136736392974854e-01 1.458613574504852295e-02 1.242555677890777588e-02 3.340087831020355225e-02 -9.282231330871582031e-04 -1.625282317399978638e-01 -6.485256552696228027e-02 -6.195604801177978516e-02 -1.045628264546394348e-01 -2.479150891304016113e-03 1.025967895984649658e-01 -1.480818241834640503e-01 -1.172996610403060913e-01 5.966231226921081543e-03 -1.991607993841171265e-01 -1.493130475282669067e-01 -1.434598267078399658e-01 -2.013419121503829956e-01 6.639307737350463867e-02 -2.631448209285736084e-02 1.238788664340972900e-01 9.829232096672058105e-02 -1.241626292467117310e-01 -3.963623940944671631e-02 -1.172187328338623047e-01 8.651685714721679688e-02 -8.679178357124328613e-02 3.524716198444366455e-02 -6.426972150802612305e-02 -8.346736431121826172e-03 -4.791742563247680664e-02 -8.466557413339614868e-02 -3.792589902877807617e-02 -6.891791522502899170e-02 1.992896795272827148e-01 -1.143543347716331482e-01 -1.073957830667495728e-01 -9.627114236354827881e-02 1.677168607711791992e-01 1.527136564254760742e-02 -1.985758692026138306e-01 2.106058597564697266e-02 -1.717981249094009399e-01 4.534031450748443604e-02 -8.230216056108474731e-02 5.582040548324584961e-02 -1.428930014371871948e-01 -1.771007329225540161e-01 -5.841235816478729248e-02 -9.065628796815872192e-02 -2.001347690820693970e-01 6.246417760848999023e-02 3.734947741031646729e-02 -1.283829361200332642e-01 -1.778499633073806763e-01 1.735371947288513184e-01 2.019168734550476074e-01 -1.155410781502723694e-01 -1.866888105869293213e-01 -1.022177636623382568e-01 1.571121811866760254e-01 4.227881133556365967e-02 -1.983982920646667480e-01 1.075142323970794678e-01 2.691736817359924316e-02 1.027804017066955566e-01 -1.376573145389556885e-01 1.873554885387420654e-01 -6.269121170043945312e-02 -1.173482313752174377e-01 -1.144079193472862244e-01 -1.897321641445159912e-02 -3.566929697990417480e-02 -1.702549010515213013e-01 -1.650071293115615845e-01 -9.311197698116302490e-02 1.325992941856384277e-01 -9.457129985094070435e-02 -1.797719746828079224e-01 -6.287570297718048096e-02 1.219168901443481445e-01 -1.818957924842834473e-02 -1.419691145420074463e-01 -5.152621865272521973e-02 3.588567674160003662e-02 -1.351004838943481445e-02 -1.344230473041534424e-01 4.716897010803222656e-02 -1.938335150480270386e-01 -1.351948976516723633e-01 1.019927263259887695e-01 -1.166369169950485229e-01 1.348372399806976318e-01 1.094871759414672852e-02 -2.038209140300750732e-01 -1.373261213302612305e-02 1.159933209419250488e-02 
1.000000000000000000e+00 1.000000000000000000e+00 1.000000000000000000e+00 1.000000000000000000e+00 1.000000000000000000e+00 1.000000000000000000e+00 1.000000000000000000e+00 1.000000000000000000e+00 
0.000000000000000000e+00 0.000000000000000000e+00 0.000000000000000000e+00 0.000000000000000000e+00 0.000000000000000000e+00 0.000000000000000000e+00 0.000000000000000000e+00 0.000000000000000000e+00 
0.000000000000000000e+00 0.000000000000000000e+00 0.000000000000000000e+00 0.000000000000000000e+00 0.000000000000000000e+00 0.000000000000000000e+00 0.000000000000000000e+00 0.000000000000000000e+00 
1.000000000000000000e+00 1.000000000000000000e+00 1.000000000000000000e+00 1.000000000000000000e+00 1.000000000000000000e+00 1.000000000000000000e+00 1.000000000000000000e+00 1.000000000000000000e+00 
