-4.543018341064453125e-02 1.401091367006301880e-01 1.228324994444847107e-01 2.221561074256896973e-01 -1.332203000783920288e-01 -1.169605329632759094e-01 -1.443422883749008179e-01 -4.483425989747047424e-02 4.515150934457778931e-02 -1.757633388042449951e-01 -1.971160918474197388e-01 6.215463578701019287e-02 1.652412861585617065e-01 4.562461283057928085e-03 -9.914156049489974976e-02 -9.549353271722793579e-02 2.228836715221405029e-01 -5.437093600630760193e-02 -1.910225152969360352e-01 -2.076272219419479370e-01 1.744423210620880127e-01 2.255692379549145699e-03 -5.717050284147262573e-03 -1.814833581447601318e-01 3.441832214593887329e-02 3.361866995692253113e-02 -2.089759707450866699e-01 1.139378249645233154e-01 -1.340012848377227783e-01 -9.048305451869964600e-02 3.176048770546913147e-02 -2.982829809188842773e-01 9.381491690874099731e-02 1.830445826053619385e-01 2.863092161715030670e-02 5.987056717276573181e-02 2.446708269417285919e-02 -8.913459628820419312e-02 -3.237051714677363634e-05 3.643778711557388306e-02 -2.768655121326446533e-01 2.529282867908477783e-01 2.928164601325988770e-01 1.028246656060218811e-01 5.061842501163482666e-02 2.175099104642868042e-01 1.009948924183845520e-01 6.787825375795364380e-02 8.347856998443603516e-02 -5.722711980342864990e-02 1.079589053988456726e-01 2.828677743673324585e-02 -1.891695857048034668e-01 -8.294791728258132935e-02 2.360780686140060425e-01 9.667564928531646729e-02 8.050042390823364258e-02 -1.281597167253494263e-01 7.645685225725173950e-02 -7.070669531822204590e-02 1.560646295547485352e-01 2.481640130281448364e-01 -8.078467845916748047e-02 -9.080320596694946289e-02 -1.906878054141998291e-01 -1.791365295648574829e-01 -2.851062640547752380e-02 2.093420177698135376e-02 -3.610881417989730835e-02 -2.830757759511470795e-03 1.631678789854049683e-01 -1.065217610448598862e-02 1.136869192123413086e-01 -1.440675407648086548e-01 -1.803377717733383179e-01 7.607997208833694458e-02 1.832811236381530762e-01 1.321978271007537842e-01 8.748430758714675903e-03 -7.752029597759246826e-02 1.815891861915588379e-01 1.334899365901947021e-01 -4.631749913096427917e-02 -1.137660518288612366e-01 1.194069534540176392e-02 -1.998222023248672485e-01 -1.359397470951080322e-01 -1.427527815103530884e-01 2.263050340116024017e-02 -3.020552732050418854e-02 1.368064135313034058e-01 -1.719891577959060669e-01 1.969041377305984497e-01 3.991105780005455017e-02 -2.607246637344360352e-01 7.695735991001129150e-02 -2.245693951845169067e-01 -7.186411321163177490e-02 -1.579349189996719360e-01 1.664365530014038086e-01 1.767742931842803955e-01 2.477690726518630981e-01 -2.876579463481903076e-01 -9.715249389410018921e-02 8.212923258543014526e-02 1.265992876142263412e-02 8.129864186048507690e-02 -2.325891144573688507e-02 -6.712189316749572754e-02 -7.590753585100173950e-02 -1.170141622424125671e-01 -9.103135764598846436e-02 6.976873148232698441e-03 -4.871976003050804138e-02 -1.631228476762771606e-01 -1.673852801322937012e-01 9.970694035291671753e-02 2.107770293951034546e-01 1.692379564046859741e-01 -1.404681801795959473e-01 -7.278511673212051392e-02 1.226988583803176880e-01 2.025934010744094849e-01 2.633758261799812317e-02 -1.481110453605651855e-01 1.604384332895278931e-01 -1.765355020761489868e-01 1.109074056148529053e-01 9.087359160184860229e-02 -2.063830941915512085e-01 2.133555710315704346e-03 -2.087245881557464600e-01 -2.129215449094772339e-01 1.177347078919410706e-01 6.154187396168708801e-02 2.215122878551483154e-01 -1.018194109201431274e-01 -8.649945259094238281e-02 1.790342926979064941e-01 -7.239198684692382812e-02 7.856687158346176147e-02 -2.388770729303359985e-01 7.953598350286483765e-02 2.589571988210082054e-03 2.452940195798873901e-01 -6.140253320336341858e-02 -6.053178384900093079e-02 1.629307419061660767e-01 -1.699016243219375610e-02 4.165935516357421875e-02 -1.746148169040679932e-01 2.023640125989913940e-01 -6.584044080227613449e-03 2.405997365713119507e-02 5.813947413116693497e-03 -3.539496287703514099e-02 1.604030579328536987e-01 1.600356698036193848e-01 -1.937504857778549194e-01 -4.702834784984588623e-02 -1.057285293936729431e-01 1.917669922113418579e-01 9.196622297167778015e-03 -2.371831685304641724e-01 -2.418855130672454834e-01 -1.918965131044387817e-01 2.287231981754302979e-01 -3.949244320392608643e-02 -2.637060284614562988e-01 -3.062406778335571289e-01 1.582639068365097046e-01 -2.466241866350173950e-01 8.620937168598175049e-02 -1.659296005964279175e-01 2.174055203795433044e-02 1.585572659969329834e-01 -1.279011368751525879e-01 -1.714904755353927612e-01 9.213733673095703125e-02 1.219127997756004333e-01 -2.760356664657592773e-01 -1.548345685005187988e-01 -1.422070711851119995e-01 -2.229919582605361938e-01 1.053898632526397705e-01 8.741016685962677002e-02 8.981927484273910522e-02 -1.191927418112754822e-01 -3.962107375264167786e-02 9.179598838090896606e-02 -2.160460948944091797e-01 2.466738671064376831e-01 1.260888874530792236e-01 -1.658040881156921387e-01 3.261728212237358093e-02 -2.272589802742004395e-01 -1.913179270923137665e-02 -1.428729444742202759e-01 -8.492552489042282104e-02 -2.358591854572296143e-01 1.341352015733718872e-01 -9.479963779449462891e-02 -2.203912287950515747e-01 -4.743613675236701965e-02 -1.022677868604660034e-01 -3.476795274764299393e-03 1.979208886623382568e-01 -4.985311254858970642e-02 -1.371397376060485840e-01 -1.295149773359298706e-01 -1.371634602546691895e-01 4.236421361565589905e-02 1.834410130977630615e-01 -2.088622152805328369e-01 7.760150730609893799e-02 3.088971599936485291e-02 
9.448760151863098145e-01 9.960324168205261230e-01 9.261096715927124023e-01 9.837355613708496094e-01 9.858081936836242676e-01 1.021756649017333984e+00 9.684408903121948242e-01 1.000794410705566406e+00 
-5.479670315980911255e-02 -1.951994723640382290e-03 -5.254550650715827942e-02 -2.194920554757118225e-03 -7.652268558740615845e-02 -6.211924925446510315e-02 1.937912032008171082e-02 -3.591038519516587257e-03 
-2.223867774009704590e-01 1.013848111033439636e-01 1.834755688905715942e-01 -6.645762175321578979e-02 -1.900016367435455322e-01 1.530952304601669312e-01 -4.077209532260894775e-01 -2.772997021675109863e-01 
7.480207085609436035e-02 6.742276996374130249e-02 5.865037068724632263e-02 8.681841939687728882e-02 7.695087045431137085e-02 3.320490941405296326e-02 1.999052017927169800e-01 6.569766253232955933e-02 
-4.208867251873016357e-02 6.393471360206604004e-02 2.132755517959594727e-01 -1.593381911516189575e-01 4.284944757819175720e-02 -5.395193118602037430e-03 3.183194622397422791e-02 -6.497802585363388062e-02 -1.770708262920379639e-01 -1.363711357116699219e-01 2.490661665797233582e-02 -2.116914689540863037e-01 -3.766790404915809631e-02 -3.360943868756294250e-02 3.562958445399999619e-04 -7.720238715410232544e-02 1.368102878332138062e-01 1.604516804218292236e-01 7.288429886102676392e-02 -6.869300454854965210e-02 -2.516239881515502930e-01 8.845175057649612427e-02 1.041603647172451019e-02 -2.041874676942825317e-01 4.752521868795156479e-03 1.292203068733215332e-01 -8.916359394788742065e-02 9.865304082632064819e-02 1.039753034710884094e-01 9.762630797922611237e-03 1.808727830648422241e-01 -1.004587933421134949e-01 -8.989569544792175293e-02 6.802432984113693237e-02 1.317809820175170898e-01 -1.145183518528938293e-01 -1.699646818451583385e-04 -6.438054144382476807e-02 6.656210124492645264e-02 -1.450138241052627563e-01 6.649762392044067383e-02 -2.339102141559123993e-02 1.081748083233833313e-01 -1.434582564979791641e-02 -9.256870299577713013e-02 3.232226371765136719e-01 1.002827435731887817e-01 -1.118668392300605774e-01 1.692593842744827271e-01 -3.693249821662902832e-02 -1.694046854972839355e-01 1.719971746206283569e-02 -1.238341331481933594e-01 -1.647828519344329834e-01 1.290421932935714722e-01 3.037128597497940063e-02 -4.000751674175262451e-02 -8.695481717586517334e-02 4.338468611240386963e-02 -2.381279468536376953e-01 -1.077696960419416428e-02 -1.586808562278747559e-01 -7.721884548664093018e-02 -7.951479405164718628e-02 -9.832095354795455933e-02 -7.391767203807830811e-02 3.041492402553558350e-01 2.843445539474487305e-02 2.311323210597038269e-02 1.320403069257736206e-01 1.703043729066848755e-01 -6.334208697080612183e-02 5.432202015072107315e-04 -1.937914080917835236e-02 -3.436220809817314148e-02 -6.491471081972122192e-02 -1.787918657064437866e-01 -1.343113090842962265e-02 -7.358849793672561646e-02 -5.502852611243724823e-03 -1.617393791675567627e-01 -1.236330643296241760e-01 -1.333880722522735596e-01 1.934514641761779785e-01 -8.415831252932548523e-03 -7.687841355800628662e-02 -8.864046633243560791e-02 8.724981546401977539e-02 1.866160705685615540e-02 1.806187927722930908e-01 -1.530668698251247406e-03 5.729917436838150024e-02 -9.248862415552139282e-02 7.901117950677871704e-02 -5.130622303113341331e-04 -1.599777042865753174e-01 -1.814830303192138672e-01 1.465190351009368896e-01 -3.087423369288444519e-02 -1.424668282270431519e-01 -2.240244746208190918e-01 -2.249078452587127686e-01 -1.931223124265670776e-01 -2.499769479036331177e-01 1.502633467316627502e-02 1.731990464031696320e-02 1.584058813750743866e-02 -2.115651369094848633e-01 -3.318059444427490234e-02 4.240493103861808777e-02 3.046605177223682404e-02 1.093669980764389038e-01 5.140577256679534912e-02 -1.165555641055107117e-01 -1.285712271928787231e-01 1.020645722746849060e-01 -1.277650147676467896e-02 2.053880691528320312e-01 -2.468778192996978760e-01 -8.681733906269073486e-02 -2.359540462493896484e-01 -4.517346969805657864e-04 1.032700240612030029e-01 9.853933751583099365e-02 -9.439487941563129425e-03 1.640411093831062317e-02 1.696478426456451416e-01 -9.582677483558654785e-02 -1.769413203001022339e-01 7.501284778118133545e-02 1.483917832374572754e-01 -1.625533849000930786e-01 -1.354256272315979004e-01 -2.007679939270019531e-01 -1.010862514376640320e-01 1.117738150060176849e-02 -1.209357678890228271e-01 1.828007549047470093e-01 -1.199787855148315430e-01 -2.473312914371490479e-01 4.622555524110794067e-02 6.623268127441406250e-02 1.220061928033828735e-01 -1.678341925144195557e-01 -1.009481251239776611e-01 1.782474517822265625e-01 -1.079602465033531189e-01 9.462389163672924042e-03 -1.730733364820480347e-01 -1.868093162775039673e-01 -6.058986112475395203e-02 2.026580721139907837e-01 2.399995625019073486e-01 3.717420250177383423e-02 4.478503763675689697e-02 -1.241932585835456848e-01 2.274275198578834534e-02 -8.829111605882644653e-02 1.263322383165359497e-01 -6.837369501590728760e-02 3.086891584098339081e-02 -5.950550362467765808e-02 -9.279479086399078369e-02 3.531548008322715759e-02 -2.257004380226135254e-01 -1.188583746552467346e-01 2.605514973402023315e-02 -2.233202941715717316e-02 1.389980018138885498e-01 1.873145066201686859e-02 2.193520776927471161e-02 -1.385671496391296387e-01 9.025952219963073730e-02 -1.516198217868804932e-01 -5.975201353430747986e-02 1.865032166242599487e-01 -4.154398664832115173e-02 -1.076882928609848022e-01 -4.713936522603034973e-02 -1.327017247676849365e-01 1.547028869390487671e-01 -9.441806375980377197e-02 -1.689441651105880737e-01 -3.340407833456993103e-02 -2.644143626093864441e-02 -2.270837277173995972e-01 -5.068979039788246155e-02 6.853578239679336548e-02 -7.807832956314086914e-02 1.347708851099014282e-01 1.174013614654541016e-01 -2.171224206686019897e-01 1.730078011751174927e-01 1.652158796787261963e-01 1.663575023412704468e-01 1.167598515748977661e-01 4.733406007289886475e-02 2.587619423866271973e-02 1.927682310342788696e-01 4.129944741725921631e-02 1.546625234186649323e-02 -7.800635416060686111e-03 -2.364150993525981903e-02 -2.071491628885269165e-01 1.668775570578873158e-03 -5.040626972913742065e-02 -1.648516654968261719e-01 -4.760812595486640930e-02 -2.276476100087165833e-02 4.866076260805130005e-02 -7.819659262895584106e-02 -6.067327782511711121e-02 -1.039436538121663034e-04 2.009213343262672424e-02 9.584102779626846313e-02 -4.336940497159957886e-02 7.801967114210128784e-02 -2.753632068634033203e-01 5.952997133135795593e-02 -1.973892003297805786e-02 1.200560331344604492e-01 -1.785029321908950806e-01 2.225055098533630371e-01 -2.067912817001342773e-01 -2.346844039857387543e-02 8.688715845346450806e-02 -1.582943499088287354e-01 -1.448003053665161133e-01 -2.537897229194641113e-01 -3.245447948575019836e-02 -1.256250031292438507e-02 -1.152838245034217834e-01 8.464612811803817749e-02 1.904032975435256958e-01 -1.747743636369705200e-01 7.720796763896942139e-02 -1.671870648860931396e-01 4.354798048734664917e-02 9.246368706226348877e-02 -1.873039081692695618e-02 1.035146564245223999e-01 -2.532722242176532745e-02 -2.123698592185974121e-02 -1.270174980163574219e-01 -1.417145878076553345e-01 -1.422879099845886230e-01 1.893025189638137817e-01 1.535654515027999878e-01 1.818006336688995361e-01 -8.354171365499496460e-02 -1.058052554726600647e-01 8.224275708198547363e-02 2.079724371433258057e-01 -6.046149507164955139e-02 -1.131218895316123962e-01 -1.394461095333099365e-01 -1.052217278629541397e-02 -7.077297568321228027e-02 1.206111311912536621e-01 -2.431306689977645874e-01 1.305483579635620117e-01 1.894090920686721802e-01 -1.555152386426925659e-01 8.492621779441833496e-02 -2.083747833967208862e-02 1.206745952367782593e-01 1.311083734035491943e-01 1.177697181701660156e-01 -1.412712037563323975e-02 1.607657670974731445e-01 1.383123695850372314e-01 2.045046985149383545e-01 1.781587898731231689e-01 2.707206830382347107e-02 1.547439396381378174e-01 3.073778562247753143e-02 -1.182588264346122742e-01 -1.587027334608137608e-03 1.023854389786720276e-01 -1.114875003695487976e-01 -8.468504995107650757e-02 5.551116541028022766e-02 8.105833828449249268e-02 -4.470840469002723694e-02 1.943303942680358887e-01 -3.496690094470977783e-02 -1.014235690236091614e-01 2.271298170089721680e-01 -3.189581632614135742e-02 2.101209759712219238e-01 9.381568431854248047e-02 4.701589792966842651e-02 -8.047540672123432159e-03 9.144346415996551514e-02 3.322233632206916809e-02 1.356485486030578613e-01 -2.979683317244052887e-02 2.009955197572708130e-01 -1.231556460261344910e-01 7.234254851937294006e-03 1.101633831858634949e-01 1.815169304609298706e-01 1.334585696458816528e-01 1.196378245949745178e-01 -7.765597105026245117e-02 -1.811408102512359619e-01 -3.321490436792373657e-02 7.152476906776428223e-02 8.785779774188995361e-02 -2.895244769752025604e-02 4.475423321127891541e-02 -7.392545789480209351e-02 -9.137435257434844971e-02 1.195980235934257507e-01 1.315932422876358032e-01 -2.196389138698577881e-01 -1.797938942909240723e-01 9.394805878400802612e-02 1.217940151691436768e-01 -1.934690475463867188e-01 1.644575744867324829e-01 -1.069436501711606979e-02 1.014457345008850098e-01 -2.164858281612396240e-01 -3.256556093692779541e-01 9.997902065515518188e-02 -8.725784718990325928e-02 6.285715848207473755e-02 4.687201976776123047e-02 1.312727630138397217e-01 -5.679355561733245850e-02 -8.901905268430709839e-02 1.378480792045593262e-01 -4.764354228973388672e-02 -3.036118810996413231e-03 -8.819518983364105225e-02 1.521401554346084595e-01 9.811919182538986206e-02 -5.583440512418746948e-02 1.738268584012985229e-01 -9.105646610260009766e-02 -1.600158512592315674e-01 2.679344266653060913e-02 -8.830582723021507263e-03 -1.403255015611648560e-01 -8.535751700401306152e-02 -5.593342334032058716e-02 2.116209417581558228e-01 -8.924401551485061646e-02 2.095450609922409058e-01 6.214922666549682617e-02 1.676481515169143677e-01 -1.047382280230522156e-01 7.493872195482254028e-02 1.356790512800216675e-01 1.931102573871612549e-01 2.372580021619796753e-01 1.410060226917266846e-01 1.955414712429046631e-01 1.238990724086761475e-01 6.232168152928352356e-02 -1.207781657576560974e-01 -1.861504912376403809e-01 9.254893660545349121e-02 8.123631775379180908e-02 4.913913458585739136e-02 -1.302677541971206665e-01 5.971026048064231873e-02 -1.939079612493515015e-01 -9.938659518957138062e-02 1.346765607595443726e-01 1.805945038795471191e-01 1.214478090405464172e-01 -2.444344945251941681e-02 -5.220960825681686401e-02 9.024652093648910522e-02 1.211339980363845825e-02 6.163780763745307922e-02 7.530267536640167236e-02 -1.734271831810474396e-02 1.100269407033920288e-01 1.237902343273162842e-01 5.382855609059333801e-02 -1.258836984634399414e-01 2.322487831115722656e-01 8.912534266710281372e-02 1.075046956539154053e-01 -1.793969869613647461e-01 -9.928040206432342529e-02 -1.316363066434860229e-01 1.176903545856475830e-01 1.161833256483078003e-01 6.287709623575210571e-02 8.622571080923080444e-02 5.652026087045669556e-02 -1.507914960384368896e-01 1.095752194523811340e-01 5.624622106552124023e-03 2.212644368410110474e-02 1.010103523731231689e-01 -6.496486067771911621e-02 1.246782168745994568e-01 -1.575283855199813843e-01 2.122146636247634888e-01 -1.762805134057998657e-01 1.201530992984771729e-01 1.879096776247024536e-01 1.089491099119186401e-01 -9.196305274963378906e-02 -4.949482157826423645e-02 -1.794095635414123535e-01 -1.222685948014259338e-01 -1.313037425279617310e-01 2.496742308139801025e-01 2.527468502521514893e-01 -7.446701824665069580e-02 -3.697128966450691223e-02 -1.742198318243026733e-02 -7.560181617736816406e-02 1.053500771522521973e-01 -6.957879662513732910e-02 2.433978915214538574e-01 -1.394433677196502686e-01 -9.086613357067108154e-02 3.124958276748657227e-02 3.491054475307464600e-02 1.333549171686172485e-01 -3.841998055577278137e-02 -8.221156150102615356e-02 -1.459119170904159546e-01 -2.574861049652099609e-01 -1.590507477521896362e-02 1.338757015764713287e-02 -1.848489940166473389e-01 -4.262046515941619873e-02 9.803672134876251221e-02 -1.208507716655731201e-01 -1.558722406625747681e-01 1.110061258077621460e-01 -1.236914545297622681e-01 1.241712272167205811e-01 1.268455535173416138e-01 3.500401275232434273e-03 -3.431501239538192749e-02 1.639856100082397461e-01 9.105148166418075562e-02 9.442394971847534180e-02 3.246377781033515930e-02 -1.864027464762330055e-03 -9.787743538618087769e-02 -1.875796765089035034e-01 1.857636868953704834e-01 -1.380449831485748291e-01 -8.400271087884902954e-02 -1.180384904146194458e-01 -1.569640487432479858e-01 1.220226511359214783e-01 8.385208249092102051e-02 2.417049929499626160e-02 -8.475439995527267456e-02 -2.019156813621520996e-01 -1.283876746892929077e-01 -8.413310348987579346e-02 -1.381878647953271866e-02 -1.194607913494110107e-01 -1.778106689453125000e-01 1.026466116309165955e-01 5.135273188352584839e-02 -1.062278598546981812e-01 -4.084715619683265686e-03 1.409564912319183350e-01 9.636443853378295898e-02 1.143741011619567871e-01 -3.211389109492301941e-02 -1.541998516768217087e-02 9.838060289621353149e-02 1.593595147132873535e-01 -1.022910103201866150e-01 -1.475300639867782593e-01 2.223771065473556519e-02 -5.392886698246002197e-02 -3.388075530529022217e-02 1.223115697503089905e-01 1.359378695487976074e-01 -1.451696902513504028e-01 -2.152969390153884888e-01 -1.691107638180255890e-02 6.020300462841987610e-02 1.584907919168472290e-01 -1.651015579700469971e-01 1.958721876144409180e-01 5.343332514166831970e-02 -8.880649507045745850e-02 1.272359676659107208e-02 1.684075035154819489e-02 -1.548112779855728149e-01 1.230302378535270691e-01 -3.416227921843528748e-02 1.678571403026580811e-01 1.103225201368331909e-01 4.239935055375099182e-02 -2.666407525539398193e-01 1.954031884670257568e-01 -1.238627657294273376e-01 -1.254187971353530884e-01 2.176435887813568115e-01 -1.963327080011367798e-01 1.531372219324111938e-01 -2.089006640017032623e-02 2.096893787384033203e-01 1.726332455873489380e-01 1.860592365264892578e-01 -2.763412659987807274e-03 2.448255941271781921e-02 -8.306618034839630127e-02 -6.829905509948730469e-02 -2.593080401420593262e-01 -4.625357687473297119e-03 -5.914440751075744629e-02 -9.436962008476257324e-02 8.485834300518035889e-02 8.291368186473846436e-02 1.291585117578506470e-01 -4.505323246121406555e-02 -1.975573152303695679e-01 -1.851042062044143677e-01 9.630041569471359253e-02 -8.236169070005416870e-02 -1.129661649465560913e-01 -5.255245789885520935e-02 -1.512856408953666687e-02 1.359095424413681030e-01 3.175869956612586975e-02 4.719623364508152008e-03 1.347870230674743652e-01 2.711296826601028442e-02 1.529214680194854736e-01 -7.018491625785827637e-02 5.260511487722396851e-02 -5.553382262587547302e-02 -2.631800621747970581e-02 -5.440672487020492554e-02 -1.028548628091812134e-01 -1.326708793640136719e-01 1.979237645864486694e-01 8.337187767028808594e-02 2.460289187729358673e-02 -1.619259864091873169e-01 1.534313708543777466e-01 1.578505039215087891e-01 8.040728420019149780e-02 -4.537745565176010132e-02 -2.335116825997829437e-02 -1.030576974153518677e-01 -1.011653468012809753e-01 2.055441029369831085e-02 1.734266057610511780e-02 -1.621370911598205566e-01 2.284562885761260986e-01 2.464633062481880188e-02 1.904021501541137695e-01 -1.057192087173461914e-01 5.123442783951759338e-02 9.139046818017959595e-02 -1.751891076564788818e-01 8.719647303223609924e-03 -2.870176220312714577e-03 3.564234450459480286e-02 -7.609691936522722244e-03 -1.582661271095275879e-02 1.792475697584450245e-03 1.316290497779846191e-01 -3.453551232814788818e-02 2.782877683639526367e-01 2.505871467292308807e-02 -8.401190489530563354e-02 
1.038707852363586426e+00 1.022927522659301758e+00 1.097452402114868164e+00 1.019843816757202148e+00 9.398145675659179688e-01 1.006720900535583496e+00 9.758041501045227051e-01 9.144335389137268066e-01 
-9.741553105413913727e-03 6.742938421666622162e-03 5.013902485370635986e-02 8.940038969740271568e-04 1.058663893491029739e-02 4.218488931655883789e-02 -1.497038919478654861e-02 -2.279213629662990570e-02 
-5.872661992907524109e-02 -4.533253014087677002e-01 -1.141747310757637024e-01 1.210947483777999878e-01 3.153096139430999756e-01 1.767159551382064819e-01 -1.571717858314514160e-01 7.119432836771011353e-02 
3.446116447448730469e-01 4.977748394012451172e-01 2.933115661144256592e-01 3.042421936988830566e-01 5.792012810707092285e-01 3.061070442199707031e-01 4.745065569877624512e-01 5.332835912704467773e-01 
-5.365116149187088013e-02 1.981865763664245605e-01 4.774233326315879822e-02 -2.081130743026733398e-01 7.437218725681304932e-02 -1.895429342985153198e-01 -1.851545721292495728e-01 1.471807658672332764e-01 -1.880161017179489136e-01 1.045048460364341736e-01 6.936890631914138794e-02 1.276414394378662109e-01 -9.085045754909515381e-02 2.960170153528451920e-03 1.943203806877136230e-01 7.900276780128479004e-02 -7.263361662626266479e-02 1.449161171913146973e-01 1.297925561666488647e-01 -1.777602881193161011e-01 4.743836820125579834e-02 2.316959053277969360e-01 3.844533115625381470e-02 -1.598269343376159668e-01 2.057957947254180908e-01 1.350853294134140015e-01 1.409342885017395020e-01 1.393553912639617920e-01 6.706212181597948074e-03 8.423245698213577271e-02 -9.865146130323410034e-02 -2.492759376764297485e-01 1.283540725708007812e-01 -1.307919621467590332e-01 1.123342569917440414e-02 -1.501813530921936035e-01 -1.611498594284057617e-01 -1.115069612860679626e-01 -5.631830170750617981e-02 6.905294209718704224e-02 1.857472807168960571e-01 -5.802882462739944458e-02 -1.013727411627769470e-01 5.631077289581298828e-02 -1.639741212129592896e-01 -4.271413385868072510e-02 5.316927284002304077e-02 2.046129554510116577e-01 -2.147895991802215576e-01 -2.705542370676994324e-03 1.428612321615219116e-02 4.570184648036956787e-02 -6.885163486003875732e-02 -2.724877558648586273e-02 5.816681310534477234e-02 5.940476059913635254e-02 1.672613769769668579e-01 3.880935534834861755e-02 3.247028589248657227e-02 2.216656133532524109e-02 -1.614592075347900391e-01 -7.528398185968399048e-02 -6.855452060699462891e-02 -1.147129014134407043e-01 -1.416000276803970337e-01 2.295434474945068359e-02 -2.072263360023498535e-01 2.009488195180892944e-01 -9.664818644523620605e-02 2.349421679973602295e-01 1.557965576648712158e-01 7.397644966840744019e-02 -1.464914828538894653e-01 -1.813437938690185547e-01 -9.788914024829864502e-02 -4.517776891589164734e-02 9.353216737508773804e-02 -3.850563894957304001e-03 -8.259989321231842041e-02 -1.400325894355773926e-01 -2.559771239757537842e-01 1.708794198930263519e-02 2.183091640472412109e-01 1.472717523574829102e-01 -7.303097844123840332e-02 -5.129722133278846741e-02 1.287822704762220383e-02 2.181082963943481445e-01 -2.018646895885467529e-01 -3.137635812163352966e-02 1.347798854112625122e-01 -1.988919526338577271e-01 -2.056147754192352295e-01 1.778799444437026978e-01 -2.633448243141174316e-01 5.236483737826347351e-02 -5.002247542142868042e-02 1.385106518864631653e-02 -8.070775121450424194e-02 1.047061942517757416e-02 9.060312062501907349e-02 1.261934489011764526e-01 -1.153249293565750122e-02 3.242139145731925964e-02 -1.096228212118148804e-01 7.438430096954107285e-03 6.676334887742996216e-02 3.757580742239952087e-02 -5.281800776720046997e-02 -2.038275636732578278e-02 1.636566780507564545e-02 -6.250595208257436752e-03 7.961807399988174438e-02 3.930180892348289490e-02 -3.941398113965988159e-03 4.499916359782218933e-02 1.170194074511528015e-01 1.448238193988800049e-01 7.009802013635635376e-02 -8.162029832601547241e-02 1.548829525709152222e-01 -5.299292039126157761e-03 -1.711575873196125031e-02 -2.035034149885177612e-01 1.286888718605041504e-01 1.137320548295974731e-01 -7.583153247833251953e-02 1.011731326580047607e-01 1.559833437204360962e-01 -1.192142590880393982e-01 -3.823116794228553772e-02 1.954021304845809937e-01 1.867261081933975220e-01 7.725234329700469971e-02 8.970795571804046631e-02 -9.608094394207000732e-02 5.964719131588935852e-02 -1.117026284337043762e-01 -1.955425925552845001e-02 5.303066223859786987e-03 9.230943769216537476e-02 1.436037272214889526e-01 1.668553352355957031e-01 -8.980284631252288818e-02 1.679599136114120483e-01 1.031859368085861206e-01 -8.686248213052749634e-03 1.675648987293243408e-01 -1.956823398359119892e-04 -8.502487838268280029e-02 -8.098376542329788208e-02 1.177784949541091919e-01 -4.336913302540779114e-02 1.715893298387527466e-01 1.355626881122589111e-01 1.394916772842407227e-01 -5.223469436168670654e-02 9.286924614571034908e-04 -1.350956857204437256e-01 -4.439420253038406372e-02 5.240061134099960327e-02 1.964164078235626221e-01 1.060902103781700134e-01 1.236526891589164734e-01 1.960851550102233887e-01 -9.180898219347000122e-02 -1.089329272508621216e-01 -9.889528900384902954e-02 1.930264532566070557e-01 -1.189653426408767700e-01 3.228431195020675659e-02 -4.468214884400367737e-02 1.732799261808395386e-01 -1.069553792476654053e-01 -8.695087581872940063e-02 1.962443441152572632e-01 8.868364989757537842e-02 -1.637048274278640747e-01 1.972925961017608643e-01 2.234456241130828857e-01 -7.822106033563613892e-02 1.462732069194316864e-02 5.709951370954513550e-02 4.093580693006515503e-02 -1.458830088376998901e-01 7.429285347461700439e-02 5.548243224620819092e-02 2.452231198549270630e-02 9.681195020675659180e-02 -1.137988194823265076e-01 4.353913944214582443e-03 -2.076681107282638550e-01 5.176908522844314575e-02 -1.285527348518371582e-01 1.325174272060394287e-01 4.166124854236841202e-03 1.377037912607192993e-01 2.180281560868024826e-03 1.099994257092475891e-01 -9.073513001203536987e-02 5.440440028905868530e-02 1.583376973867416382e-01 -2.435424178838729858e-01 -1.201111599802970886e-01 -2.623957991600036621e-01 -6.248886138200759888e-02 4.330768249928951263e-03 1.763810031116008759e-02 1.056383773684501648e-01 3.941658884286880493e-02 1.594552993774414062e-01 8.532714098691940308e-02 1.152659282088279724e-01 -1.786101050674915314e-02 8.380084484815597534e-02 9.376089088618755341e-03 1.161077767610549927e-01 1.574236452579498291e-01 1.727876365184783936e-01 1.366433501243591309e-01 6.610631197690963745e-02 1.153577491641044617e-01 -3.647290915250778198e-02 1.239829137921333313e-01 9.253902733325958252e-02 -1.185084134340286255e-01 2.854991704225540161e-03 -8.020152896642684937e-02 9.004274010658264160e-02 2.199538797140121460e-01 -3.785190731287002563e-02 1.957004889845848083e-02 -1.695912778377532959e-01 1.297621577978134155e-01 1.690609008073806763e-01 9.397263079881668091e-02 1.441715806722640991e-01 1.411581933498382568e-01 -3.055944666266441345e-02 2.971468269824981689e-01 1.063027083873748779e-01 -1.709458082914352417e-01 1.952653080224990845e-01 9.509724378585815430e-02 1.342855095863342285e-01 -1.462508589029312134e-01 2.259970754384994507e-01 -7.395715266466140747e-02 -1.128712669014930725e-01 -5.619458109140396118e-02 -1.845578402280807495e-01 -1.833430677652359009e-01 6.101338192820549011e-02 9.658905118703842163e-02 -2.144875973463058472e-01 -1.848610490560531616e-02 -1.447028666734695435e-01 -2.092381417751312256e-01 9.264321625232696533e-02 -1.624911874532699585e-01 -9.772145003080368042e-02 -7.204183936119079590e-02 6.317014247179031372e-02 1.324889659881591797e-01 -2.571490593254566193e-02 2.181810587644577026e-01 1.558128148317337036e-01 9.381752461194992065e-02 -9.883667528629302979e-02 -1.719754636287689209e-01 1.680563092231750488e-01 2.346219553146511316e-04 -6.300830747932195663e-03 6.132227554917335510e-02 -1.480280607938766479e-01 1.873012632131576538e-01 4.883706569671630859e-02 -6.188118457794189453e-02 9.226884692907333374e-02 8.418644964694976807e-02 1.879722177982330322e-01 -1.658167392015457153e-01 6.817840039730072021e-02 -1.344174612313508987e-02 8.669033646583557129e-02 4.201462864875793457e-02 -7.597798854112625122e-02 1.302847713232040405e-01 8.274220675230026245e-02 -2.197606861591339111e-01 -1.013177819550037384e-02 -9.096226841211318970e-02 4.798882082104682922e-02 2.164642661809921265e-01 1.274122148752212524e-01 8.927308768033981323e-02 -1.209601461887359619e-01 2.113359272480010986e-01 2.275347858667373657e-01 1.314197480678558350e-01 -1.307608932256698608e-01 1.150097846984863281e-01 7.047518342733383179e-02 -1.640956848859786987e-01 1.799557507038116455e-01 -7.318409532308578491e-02 2.056494206190109253e-01 1.861303299665451050e-01 1.274499446153640747e-01 -6.533660739660263062e-02 -1.973142498172819614e-04 2.466806471347808838e-01 8.292903751134872437e-02 7.003679871559143066e-02 5.786303803324699402e-02 8.079487830400466919e-02 -1.714719235897064209e-01 1.468759030103683472e-01 -1.549065113067626953e-01 1.868601515889167786e-02 -3.781712427735328674e-02 -2.437366247177124023e-01 -1.076946780085563660e-01 -1.297945231199264526e-01 1.681157760322093964e-02 -8.123283088207244873e-02 -2.288923859596252441e-01 1.403031796216964722e-01 -1.568594872951507568e-01 1.116681694984436035e-01 1.513924449682235718e-01 1.061256825923919678e-01 8.111806586384773254e-03 -1.210324764251708984e-01 -1.092942208051681519e-01 -1.098611508496105671e-03 -9.151276201009750366e-02 1.448985189199447632e-01 2.346264123916625977e-01 -1.817827373743057251e-01 1.939266771078109741e-01 -1.978682428598403931e-01 1.323989331722259521e-01 1.837551593780517578e-01 -1.167905256152153015e-01 1.605975478887557983e-01 7.264398783445358276e-02 1.443994194269180298e-01 1.801169216632843018e-01 1.770749501883983612e-02 1.381399184465408325e-01 -1.103941649198532104e-01 -4.659092798829078674e-02 1.479759514331817627e-01 -9.437125921249389648e-02 1.389289200305938721e-01 -4.182844609022140503e-02 -4.239438474178314209e-02 2.099443785846233368e-02 -9.099197387695312500e-02 -1.931647509336471558e-01 -1.300983130931854248e-01 1.473548561334609985e-01 1.384586542844772339e-01 8.215015381574630737e-02 -1.471799015998840332e-01 1.803792715072631836e-01 7.981414347887039185e-02 -9.407955408096313477e-02 1.166308969259262085e-01 1.041274294257164001e-01 -1.829065680503845215e-01 -2.260773777961730957e-01 -1.744095385074615479e-01 -1.877586990594863892e-01 1.758013814687728882e-01 -1.777269542217254639e-01 8.980160579085350037e-03 -1.901598125696182251e-01 7.576896250247955322e-02 2.885171398520469666e-02 -2.410656511783599854e-01 7.365547120571136475e-02 -1.140283346176147461e-01 -4.770217463374137878e-02 1.079048216342926025e-01 1.610213518142700195e-01 3.216843120753765106e-03 1.496842652559280396e-01 -1.545962784439325333e-02 1.095538437366485596e-01 1.627399399876594543e-02 -1.288213431835174561e-01 4.795704409480094910e-02 -3.752882778644561768e-02 4.600101616233587265e-03 3.459230065345764160e-02 1.561927143484354019e-02 2.377299368381500244e-01 7.030199468135833740e-02 3.006791323423385620e-02 -3.412770107388496399e-02 -1.438972353935241699e-01 -1.647208631038665771e-01 4.358660057187080383e-02 -1.319945305585861206e-01 -2.975555658340454102e-01 3.137362375855445862e-02 -2.044250220060348511e-01 -1.510544419288635254e-01 -1.001993566751480103e-01 2.057442069053649902e-01 6.001570448279380798e-02 1.308713853359222412e-01 -2.072113305330276489e-01 1.354151964187622070e-01 -1.361938714981079102e-01 -2.123272605240345001e-02 1.788237094879150391e-01 1.951656192541122437e-01 -1.927809268236160278e-01 9.054955095052719116e-03 -7.076960057020187378e-02 -1.901050806045532227e-01 1.362741440534591675e-01 7.476971298456192017e-02 8.795589208602905273e-02 6.886503100395202637e-02 1.128435507416725159e-01 -1.043690145015716553e-01 -1.469229906797409058e-01 -8.779042214155197144e-02 -4.894728213548660278e-02 -1.905049681663513184e-01 -2.032622247934341431e-01 1.243319660425186157e-01 3.022516518831253052e-02 1.797094196081161499e-01 1.420869957655668259e-02 -2.800842747092247009e-02 -1.377820968627929688e-01 9.118124842643737793e-02 1.343026850372552872e-02 -1.173474043607711792e-01 -2.067848592996597290e-01 -1.089782118797302246e-01 4.716678708791732788e-02 -1.073587015271186829e-01 -1.755475401878356934e-01 -1.246080100536346436e-01 -9.474490582942962646e-02 1.057370603084564209e-01 3.548058494925498962e-02 3.918252885341644287e-02 -6.947146356105804443e-02 7.556045055389404297e-02 8.283390849828720093e-02 -1.489578485488891602e-01 -7.402452826499938965e-02 -4.736201837658882141e-02 -7.695393636822700500e-03 1.116995736956596375e-01 -6.579885631799697876e-02 1.742172800004482269e-02 2.171189039945602417e-01 -1.781962960958480835e-01 5.227844417095184326e-02 -7.205587625503540039e-02 1.480674445629119873e-01 -1.969108358025550842e-02 1.819652467966079712e-01 1.225923597812652588e-01 -2.592474967241287231e-02 -1.349208652973175049e-01 -6.347785890102386475e-02 -1.259882301092147827e-01 9.673970937728881836e-02 -2.048353701829910278e-01 1.579183638095855713e-01 -2.476477622985839844e-01 -1.504720747470855713e-01 -1.242809891700744629e-01 -6.316575407981872559e-02 1.258235126733779907e-01 -3.143440932035446167e-02 -1.732285879552364349e-02 7.568455487489700317e-02 1.967901922762393951e-02 8.840811252593994141e-02 4.772142693400382996e-02 1.829226911067962646e-01 1.461544781923294067e-01 1.332600712776184082e-01 -2.887663990259170532e-02 1.757491976022720337e-01 -8.255748450756072998e-02 -1.885776966810226440e-01 1.424061357975006104e-01 -1.239501833915710449e-01 1.370775252580642700e-01 -1.991457641124725342e-01 9.984873980283737183e-02 1.592302918434143066e-01 -1.922622919082641602e-01 9.008059650659561157e-02 6.565363705158233643e-02 5.558309331536293030e-02 -8.426446467638015747e-02 -1.420244425535202026e-01 -2.916447818279266357e-01 1.442268490791320801e-01 -2.408637851476669312e-01 1.572911888360977173e-01 -7.299665361642837524e-02 4.601310938596725464e-02 -1.198697537183761597e-01 -2.002365291118621826e-01 -7.204239070415496826e-02 -7.266853470355272293e-03 -1.191104725003242493e-01 -2.301663458347320557e-01 1.446631848812103271e-01 -1.536666601896286011e-01 -2.259153127670288086e-02 -2.822481840848922729e-02 -6.411717832088470459e-02 -1.434827893972396851e-01 -1.498863548040390015e-01 1.924738734960556030e-01 5.004113540053367615e-02 2.282157912850379944e-02 1.115255057811737061e-01 7.488203700631856918e-03 -4.393854737281799316e-02 -1.724383383989334106e-01 1.916714943945407867e-02 1.145573109388351440e-01 1.128616780042648315e-01 4.842389747500419617e-02 -1.498419493436813354e-01 1.718592941761016846e-01 -6.391249597072601318e-02 -3.065720899030566216e-03 9.695541858673095703e-02 6.320003420114517212e-02 -5.582585930824279785e-02 -1.542335599660873413e-01 -1.801699772477149963e-02 -2.655518427491188049e-02 8.304687589406967163e-02 6.448703259229660034e-02 1.002882048487663269e-01 1.602497994899749756e-01 -7.531283795833587646e-02 9.269791096448898315e-02 -1.084192022681236267e-01 -4.383528605103492737e-03 1.303554624319076538e-01 -6.953769363462924957e-03 1.798081099987030029e-01 1.287001073360443115e-01 -8.564479649066925049e-02 2.632311880588531494e-01 -2.249252982437610626e-02 1.408809423446655273e-01 5.643063038587570190e-02 1.324149221181869507e-01 1.100621670484542847e-01 1.211302205920219421e-01 1.345151811838150024e-01 -1.097244396805763245e-01 -2.462282776832580566e-01 -1.196758523583412170e-01 -2.003855109214782715e-01 7.072435319423675537e-02 -3.340600430965423584e-02 
1.044137954711914062e+00 1.009120941162109375e+00 9.742785096168518066e-01 9.569855332374572754e-01 9.456763863563537598e-01 9.931443929672241211e-01 9.185776710510253906e-01 1.052477955818176270e+00 
-1.274257898330688477e-02 1.392242219299077988e-02 -8.549956977367401123e-02 -6.964993476867675781e-02 -9.478788822889328003e-02 -3.887569531798362732e-02 -3.920025005936622620e-02 1.577609777450561523e-02 
1.017624884843826294e-01 2.103286981582641602e-02 3.165468275547027588e-01 4.991778135299682617e-01 4.573729336261749268e-01 -2.238008081912994385e-01 -2.175796777009963989e-01 -1.062034070491790771e-01 
5.126615762710571289e-01 4.094414114952087402e-01 3.397595584392547607e-01 8.675626516342163086e-01 5.394310355186462402e-01 4.776118099689483643e-01 5.377295017242431641e-01 3.135297000408172607e-01 
1.237570121884346008e-01 2.309983819723129272e-01 1.639865338802337646e-01 1.187669411301612854e-01 6.432718783617019653e-02 8.561105281114578247e-02 6.961821019649505615e-02 7.554680109024047852e-02 -8.932891488075256348e-02 -9.219122678041458130e-02 1.993823945522308350e-01 -1.037439238280057907e-02 3.783777356147766113e-02 -5.644740536808967590e-02 2.763107977807521820e-02 -2.266005799174308777e-02 1.371830850839614868e-01 -2.061392068862915039e-01 7.030440866947174072e-02 -1.871252208948135376e-01 -7.126029580831527710e-02 1.580420732498168945e-01 -1.320452243089675903e-01 8.001868426799774170e-02 1.876495033502578735e-02 1.780004054307937622e-01 -1.887123286724090576e-01 4.720227420330047607e-02 1.298261582851409912e-01 1.457751393318176270e-01 1.524924188852310181e-01 1.026721373200416565e-01 3.570964187383651733e-02 -1.697638332843780518e-01 -1.255651116371154785e-01 -1.760321110486984253e-01 -9.165117889642715454e-02 -1.923012286424636841e-01 -3.907313197851181030e-02 1.787307560443878174e-01 6.554958224296569824e-02 1.139675229787826538e-01 1.315049380064010620e-01 7.386212050914764404e-02 -4.104189947247505188e-02 1.135250106453895569e-01 2.316401302814483643e-01 -1.134480386972427368e-01 1.342253666371107101e-02 1.163503155112266541e-01 -2.745810896158218384e-02 9.093342348933219910e-03 1.006455272436141968e-01 2.038247436285018921e-01 -7.870136946439743042e-02 -9.685087203979492188e-02 1.273995935916900635e-01 -1.307072043418884277e-01 1.224341467022895813e-01 1.576512306928634644e-01 1.164990589022636414e-01 -9.919901937246322632e-02 -8.200868219137191772e-02 3.809933364391326904e-02 -1.408706009387969971e-01 1.041388437151908875e-01 -1.432386934757232666e-01 9.760675579309463501e-02 -1.776104718446731567e-01 1.646297872066497803e-01 -1.467275619506835938e-01 1.096297428011894226e-01 -1.054944097995758057e-01 1.960900574922561646e-01 6.237659603357315063e-02 -1.273460537195205688e-01 1.162448897957801819e-01 9.990442544221878052e-02 8.331968635320663452e-02 -2.867764607071876526e-02 6.588289141654968262e-02 1.350798457860946655e-01 1.377406567335128784e-01 -2.313201427459716797e-01 1.341975331306457520e-01 -5.880375951528549194e-02 1.890907734632492065e-01 -9.472882002592086792e-02 -2.159410156309604645e-03 7.566301524639129639e-02 3.353220969438552856e-02 4.224750027060508728e-02 5.620526615530252457e-03 -3.445099294185638428e-02 -1.718492060899734497e-01 3.137888852506875992e-03 -1.286859661340713501e-01 1.444491744041442871e-01 2.404898256063461304e-01 -1.376762986183166504e-01 1.515510864555835724e-02 2.419059164822101593e-02 9.430310130119323730e-02 -1.384104192256927490e-01 1.527238041162490845e-01 -1.723705604672431946e-02 1.047579199075698853e-01 -8.398859202861785889e-02 -1.085550896823406219e-02 -5.943462252616882324e-02 -2.299401164054870605e-01 1.437322646379470825e-01 -1.827639788389205933e-01 -1.239921599626541138e-01 1.564066559076309204e-01 5.289235338568687439e-02 -1.178873851895332336e-01 -1.943803727626800537e-01 -1.136809214949607849e-01 -8.450608700513839722e-02 3.994638100266456604e-02 2.193424850702285767e-01 1.513316575437784195e-02 -5.014714598655700684e-02 8.091384172439575195e-02 -2.272023111581802368e-01 -4.672635346651077271e-02 9.851972013711929321e-02 -6.421333551406860352e-02 -2.144119143486022949e-02 9.399572759866714478e-02 7.676498591899871826e-02 1.039660163223743439e-02 1.851302981376647949e-01 9.708154946565628052e-02 -1.965048760175704956e-01 -1.451011598110198975e-01 -4.887539893388748169e-02 -5.618793889880180359e-02 1.292191445827484131e-01 1.244059726595878601e-01 -1.873667985200881958e-01 3.644941002130508423e-02 1.189494580030441284e-01 7.770892977714538574e-02 1.573154181241989136e-01 -9.632419794797897339e-02 -2.212605476379394531e-01 -9.220845997333526611e-02 -1.043053045868873596e-01 -1.872534751892089844e-01 5.551226064562797546e-02 -6.968988478183746338e-02 -1.151043474674224854e-01 2.216098606586456299e-01 -1.362473815679550171e-01 9.506108239293098450e-03 1.385924667119979858e-01 -7.548155635595321655e-02 6.205130834132432938e-03 4.323909804224967957e-02 -7.964221388101577759e-02 1.669219881296157837e-01 9.140204638242721558e-02 1.663971245288848877e-01 -3.459281101822853088e-02 -1.382523924112319946e-01 3.560956567525863647e-02 8.416163176298141479e-02 1.754575818777084351e-01 2.376715391874313354e-01 1.031513437628746033e-01 -1.895433664321899414e-01 -1.273306310176849365e-01 1.066969409584999084e-01 3.450298216193914413e-03 1.537931412458419800e-01 8.484464138746261597e-02 -1.966494135558605194e-02 1.711259931325912476e-01 9.882045537233352661e-02 1.251679193228483200e-02 -6.755018979310989380e-02 2.304805517196655273e-01 -2.492722123861312866e-01 -1.204929575324058533e-01 1.298576295375823975e-01 8.438241481781005859e-02 -1.580603718757629395e-01 -1.173492521047592163e-01 -2.300228923559188843e-02 4.142724350094795227e-02 1.024711132049560547e-01 7.334484159946441650e-02 -7.672955095767974854e-02 -2.643838226795196533e-01 2.029490172863006592e-01 -6.672406196594238281e-02 -2.212841361761093140e-01 -1.316757686436176300e-02 1.077643409371376038e-02 -1.159618347883224487e-01 1.864525228738784790e-01 -7.796966284513473511e-02 6.737391650676727295e-02 -1.972124725580215454e-01 -8.689128607511520386e-02 -4.406291991472244263e-02 2.254392392933368683e-02 -2.716102637350559235e-02 4.354424774646759033e-03 -1.187401264905929565e-01 4.578317981213331223e-03 -1.184291243553161621e-01 2.177652865648269653e-01 9.644246846437454224e-02 -1.041184663772583008e-01 9.715622663497924805e-02 2.509353160858154297e-01 2.254508435726165771e-02 1.437338143587112427e-01 8.421172946691513062e-02 -1.126740723848342896e-01 -1.033421531319618225e-01 1.137638390064239502e-01 1.220194697380065918e-01 -2.006778270006179810e-01 -1.323394030332565308e-01 1.813587546348571777e-01 -1.101245544850826263e-02 -4.468718916177749634e-02 1.028254181146621704e-01 -1.498955339193344116e-01 -2.660470008850097656e-01 1.069790124893188477e-01 -1.049399077892303467e-01 1.016401425004005432e-01 5.109692737460136414e-02 3.258641809225082397e-02 7.839319109916687012e-02 -7.062688469886779785e-02 -7.833935320377349854e-02 -2.822059020400047302e-02 8.863053470849990845e-02 -1.530322879552841187e-01 -4.435300827026367188e-02 -1.527057290077209473e-01 1.572323441505432129e-01 -1.585215330123901367e-01 1.696241348981857300e-01 1.322207450866699219e-01 -7.841888070106506348e-02 7.605297118425369263e-02 5.060800909996032715e-02 1.403481513261795044e-01 -9.061357937753200531e-03 1.233478486537933350e-01 -5.838645994663238525e-02 6.278463453054428101e-02 -8.600416779518127441e-02 -5.828626826405525208e-02 5.745206028223037720e-02 8.081391453742980957e-02 -5.500974506139755249e-02 -1.092213615775108337e-01 -1.144672185182571411e-01 -1.478214096277952194e-02 3.971174359321594238e-02 5.613389424979686737e-03 -9.950669854879379272e-02 -8.197528123855590820e-02 -1.093859300017356873e-01 4.372201859951019287e-02 -9.689385443925857544e-02 1.270505487918853760e-01 -1.679827868938446045e-01 4.885952547192573547e-02 -2.359245121479034424e-01 9.867800772190093994e-02 -2.146770656108856201e-01 -8.906622231006622314e-02 -2.251726537942886353e-01 -1.240221932530403137e-01 -1.494554877281188965e-01 -2.343137748539447784e-02 -1.192282438278198242e-01 3.319828584790229797e-02 1.632519124541431665e-04 -8.166503161191940308e-02 -9.424619376659393311e-02 -1.825830936431884766e-01 2.627937793731689453e-01 1.056543737649917603e-01 -1.593653708696365356e-01 -2.260908782482147217e-01 -1.077980175614356995e-01 9.284507483243942261e-02 -2.166304923593997955e-02 1.544938795268535614e-02 8.790966123342514038e-02 -9.888534992933273315e-02 1.474794149398803711e-01 -7.231629639863967896e-02 1.823539584875106812e-01 6.130084767937660217e-02 -1.489498317241668701e-01 1.039108335971832275e-01 1.280589699745178223e-01 2.199922353029251099e-01 -1.871455311775207520e-01 -8.388631977140903473e-03 6.321870535612106323e-02 -2.273377776145935059e-01 1.244712853804230690e-03 1.086130216717720032e-01 1.911545172333717346e-03 1.250533461570739746e-01 -2.577717900276184082e-01 -1.255099177360534668e-01 1.915364339947700500e-02 -2.194285839796066284e-01 -1.905691176652908325e-01 -1.294016391038894653e-01 -1.081837713718414307e-01 7.437539845705032349e-02 -1.474606394767761230e-01 1.123703420162200928e-01 1.810941100120544434e-01 -1.976647078990936279e-01 7.697177678346633911e-02 7.055913656949996948e-02 -4.174093529582023621e-02 -4.664939269423484802e-02 2.074501290917396545e-02 3.979168087244033813e-02 -2.355399541556835175e-02 1.753953397274017334e-01 1.329454220831394196e-02 7.621055841445922852e-02 1.966674327850341797e-01 4.527511820197105408e-02 -1.523661762475967407e-01 -9.144313633441925049e-02 5.275933817028999329e-02 -5.775742605328559875e-02 -1.754103004932403564e-01 7.927252352237701416e-02 2.302145808935165405e-01 -7.111217081546783447e-02 6.191383302211761475e-02 9.488494135439395905e-03 -3.789761662483215332e-02 1.395442187786102295e-01 8.918301761150360107e-02 -6.228589639067649841e-02 -1.612904965877532959e-01 -8.100066334009170532e-02 -1.512503772974014282e-01 -3.890568763017654419e-02 1.471324563026428223e-01 3.123245202004909515e-02 -1.695195585489273071e-01 -3.674487397074699402e-02 -5.935310944914817810e-02 -1.462994515895843506e-01 1.058210432529449463e-02 -5.886489525437355042e-02 -3.511412814259529114e-02 -2.204124778509140015e-01 2.578805200755596161e-02 2.439073026180267334e-01 -1.238983497023582458e-01 1.499739736318588257e-01 2.194189727306365967e-01 2.101635327562689781e-03 -8.103805035352706909e-02 5.369628965854644775e-02 8.520722389221191406e-03 -4.401765018701553345e-02 -3.738647699356079102e-02 -1.161533221602439880e-01 -1.188594773411750793e-01 -2.815792262554168701e-01 -2.048991434276103973e-02 1.990909688174724579e-03 1.997781097888946533e-01 1.237067654728889465e-01 -4.573669284582138062e-03 -1.531575769186019897e-01 8.634641766548156738e-02 -5.823120847344398499e-02 -3.460224717855453491e-02 9.075596928596496582e-03 2.902020141482353210e-02 -2.038246393203735352e-01 1.489064991474151611e-01 -8.041694760322570801e-02 -2.233512252569198608e-01 1.514695137739181519e-01 1.259841769933700562e-01 -2.307892777025699615e-02 -2.430680096149444580e-01 -7.226166129112243652e-02 -5.257689207792282104e-02 8.626671507954597473e-03 -1.897901594638824463e-01 -1.007632166147232056e-01 -2.092150300741195679e-01 -1.936179399490356445e-01 -5.533659830689430237e-03 3.055130876600742340e-02 -3.844636306166648865e-02 1.508904099464416504e-01 -9.594421833753585815e-03 1.567275226116180420e-01 7.603172957897186279e-02 3.748005023226141930e-03 5.463020130991935730e-02 6.279759854078292847e-02 -1.318908575922250748e-02 -1.074926853179931641e-01 -1.766150631010532379e-02 -8.904067426919937134e-02 7.881023734807968140e-02 9.801965206861495972e-02 6.198969669640064240e-03 7.930678129196166992e-02 1.580141633749008179e-01 -5.578939989209175110e-02 1.429996341466903687e-01 1.769698858261108398e-01 -9.564703702926635742e-02 -7.680996507406234741e-02 -1.434943675994873047e-01 -1.175422146916389465e-01 1.925704330205917358e-01 -1.559812203049659729e-02 -1.139491647481918335e-01 9.148348122835159302e-02 2.033048868179321289e-02 -6.694175768643617630e-03 2.321944534778594971e-01 3.130247443914413452e-02 8.931960165500640869e-02 1.806156188249588013e-01 8.135086297988891602e-02 -6.512878090143203735e-02 -3.055563867092132568e-01 -7.514043152332305908e-02 9.475722908973693848e-02 -1.631790250539779663e-01 -4.244030639529228210e-02 -1.164448782801628113e-01 1.780699491500854492e-01 -1.050389837473630905e-02 -7.231158018112182617e-02 1.982773095369338989e-01 1.231453288346529007e-02 2.260318547487258911e-01 -1.160153895616531372e-01 -1.932429671287536621e-01 -1.929362565279006958e-01 -1.945412307977676392e-01 -4.675607010722160339e-02 9.028095006942749023e-02 1.200394034385681152e-01 1.457953453063964844e-02 4.736855998635292053e-02 8.065804839134216309e-02 1.385180950164794922e-01 1.061776652932167053e-01 6.846202909946441650e-02 1.256193220615386963e-01 1.273544430732727051e-01 -1.533227413892745972e-01 1.099551916122436523e-01 -9.023585915565490723e-02 1.148040965199470520e-02 -1.355464458465576172e-01 1.473782211542129517e-01 -2.067376673221588135e-01 -1.667130589485168457e-01 -5.545772612094879150e-02 1.817078739404678345e-01 8.618105202913284302e-02 8.674112707376480103e-02 4.979580640792846680e-02 2.603008449077606201e-01 -6.830187980085611343e-03 3.516615182161331177e-02 6.962302606552839279e-03 7.043647021055221558e-02 2.274442091584205627e-02 5.413667112588882446e-02 -8.462781459093093872e-02 5.975821241736412048e-02 -1.768622696399688721e-01 -1.053675860166549683e-01 2.062093019485473633e-01 1.369362920522689819e-01 -2.368832752108573914e-02 2.299042195081710815e-01 -1.194771602749824524e-01 1.570688746869564056e-02 3.880199417471885681e-02 7.308702450245618820e-03 7.790891081094741821e-02 1.311438083648681641e-01 -2.618938311934471130e-02 -7.348301261663436890e-02 1.246249526739120483e-01 -2.002754062414169312e-01 5.716414377093315125e-02 -2.098425477743148804e-02 -6.408171355724334717e-02 1.293680667877197266e-01 1.864020675420761108e-01 5.722302570939064026e-02 3.202125802636146545e-02 1.251932680606842041e-01 -4.142000898718833923e-02 7.926011830568313599e-02 4.990778863430023193e-02 5.933049321174621582e-02 -1.369282901287078857e-01 1.228077411651611328e-01 6.471583247184753418e-02 -2.939799427986145020e-02 1.019720733165740967e-01 5.726091191172599792e-02 -9.960204362869262695e-02 8.028192818164825439e-02 6.886274367570877075e-02 1.098104491829872131e-01 1.052412316203117371e-01 2.043735422194004059e-02 5.445243790745735168e-02 -1.848091781139373779e-01 -5.087905004620552063e-02 -2.104827761650085449e-01 -1.995992101728916168e-02 1.476752460002899170e-01 1.909990459680557251e-01 1.819026470184326172e-01 -1.326019018888473511e-01 -7.007576525211334229e-02 1.998964846134185791e-01 -1.057538390159606934e-01 2.986899949610233307e-02 1.375126093626022339e-02 -1.738532483577728271e-01 8.346349000930786133e-03 7.179757952690124512e-02 1.297556422650814056e-02 -2.138625979423522949e-01 5.466839298605918884e-02 -1.413867771625518799e-01 1.271536201238632202e-01 1.114064902067184448e-01 5.836429074406623840e-02 -1.105111315846443176e-01 7.676001638174057007e-02 1.436267048120498657e-01 -2.499674633145332336e-02 -6.883407384157180786e-02 1.244849339127540588e-01 -9.631340950727462769e-02 6.414742022752761841e-02 -8.920446038246154785e-02 7.622756063938140869e-02 2.001612782478332520e-01 -5.829238519072532654e-02 -5.492242053151130676e-02 -1.485388278961181641e-01 2.694119811058044434e-01 -8.979537338018417358e-02 
9.841817021369934082e-01 1.041335821151733398e+00 1.013916969299316406e+00 9.290151596069335938e-01 9.556731581687927246e-01 9.643950462341308594e-01 9.483122229576110840e-01 1.105790615081787109e+00 
6.273713707923889160e-02 -5.697049945592880249e-02 -7.006805390119552612e-02 -5.082244426012039185e-02 -1.717321574687957764e-03 -5.797090381383895874e-02 -3.348616883158683777e-02 4.681169614195823669e-02 
5.111060142517089844e-01 3.116462230682373047e-01 1.838601380586624146e-01 -5.084306001663208008e-01 -3.082230091094970703e-01 -1.609584391117095947e-01 3.486029803752899170e-01 5.033031702041625977e-01 
8.153941631317138672e-01 5.318298935890197754e-01 1.011480093002319336e+00 1.175138115882873535e+00 7.865650057792663574e-01 8.629619479179382324e-01 1.400451421737670898e+00 7.973783612251281738e-01 
2.679793909192085266e-02 -2.192303538322448730e-01 -1.213917881250381470e-01 7.349838316440582275e-02 -9.207511693239212036e-02 1.571030616760253906e-01 -1.218341588973999023e-01 -1.201934739947319031e-02 -5.323171243071556091e-02 1.218348965048789978e-01 -2.131575942039489746e-01 1.354314237833023071e-01 -7.364332675933837891e-02 1.126853842288255692e-02 6.354393064975738525e-02 1.899496763944625854e-01 2.248347848653793335e-01 -2.437057532370090485e-02 -4.652871936559677124e-02 1.772504448890686035e-01 2.585315406322479248e-01 -6.955496221780776978e-02 4.695392027497291565e-02 1.157609373331069946e-01 7.178217917680740356e-02 -1.287187784910202026e-01 -7.793502509593963623e-02 -1.061744764447212219e-01 -1.228406056761741638e-01 -2.863091789186000824e-02 2.131838500499725342e-01 -8.134588599205017090e-02 -3.773580119013786316e-02 2.304276078939437866e-01 8.470745384693145752e-02 2.065739333629608154e-01 8.870958536863327026e-02 -1.152677163481712341e-01 -9.408304095268249512e-02 -2.320763617753982544e-01 -2.237987071275711060e-01 1.374192833900451660e-01 1.928096860647201538e-01 1.098734736442565918e-01 -1.724430322647094727e-01 -1.188248097896575928e-01 8.692468702793121338e-02 2.399800531566143036e-02 1.040369048714637756e-01 -1.372673083096742630e-02 1.943923160433769226e-02 -4.856253042817115784e-02 4.905659332871437073e-02 7.350751757621765137e-02 -2.423420846462249756e-01 8.121719211339950562e-02 -1.259824633598327637e-01 -1.829444617033004761e-01 5.954885482788085938e-02 -6.717869639396667480e-02 -7.366076111793518066e-02 -2.940759994089603424e-02 9.972973912954330444e-02 -7.108199596405029297e-02 -6.035159155726432800e-02 -1.853319108486175537e-01 1.682606898248195648e-02 1.074446290731430054e-01 1.163643077015876770e-01 2.748168259859085083e-02 1.301091760396957397e-01 -8.271416276693344116e-02 1.073039099574089050e-01 2.259824872016906738e-01 1.800147145986557007e-01 -1.678962819278240204e-02 -1.257716268301010132e-01 -3.566132485866546631e-02 -1.854145228862762451e-01 5.245909560471773148e-03 -1.244092732667922974e-01 -1.818863004446029663e-01 -1.636412888765335083e-01 -1.851736009120941162e-02 -1.138525009155273438e-01 -1.594832241535186768e-01 -3.230649977922439575e-02 -8.512783795595169067e-02 7.775933295488357544e-02 1.839650124311447144e-01 2.295803837478160858e-02 -5.619129911065101624e-02 1.081269606947898865e-01 1.134962141513824463e-01 -6.447843462228775024e-02 -1.361080259084701538e-01 -1.475138366222381592e-01 1.774359047412872314e-01 -3.085355088114738464e-02 -8.067324757575988770e-02 1.321156322956085205e-01 -4.523072764277458191e-02 -3.911584615707397461e-02 4.479039460420608521e-02 3.645417094230651855e-02 4.194682091474533081e-02 1.794868707656860352e-01 1.466295421123504639e-01 -1.771665178239345551e-02 -3.961553052067756653e-02 1.318451166152954102e-01 -1.557789295911788940e-01 7.353273779153823853e-02 9.269192069768905640e-02 -1.805114001035690308e-01 -1.339193135499954224e-01 4.392391443252563477e-02 -1.630125641822814941e-01 -1.617164760828018188e-01 3.184653446078300476e-02 -1.007797792553901672e-01 3.492351248860359192e-02 -6.410821806639432907e-03 2.146786898374557495e-01 -1.131771728396415710e-01 -1.421608030796051025e-01 -3.939396515488624573e-02 -6.842672079801559448e-02 1.640388518571853638e-01 1.093368604779243469e-01 -2.988199330866336823e-02 1.085923314094543457e-01 1.932585090398788452e-01 6.353370845317840576e-02 1.113326027989387512e-01 5.993123725056648254e-02 1.130957379937171936e-01 -1.583971530199050903e-01 3.861064091324806213e-02 -1.198710203170776367e-01 3.928631544113159180e-02 1.588208824396133423e-01 -1.807011812925338745e-01 2.101173251867294312e-01 -1.355268154293298721e-02 1.039691343903541565e-01 3.675810992717742920e-02 -6.611800938844680786e-02 -1.843240857124328613e-01 -4.969212040305137634e-02 4.318397119641304016e-02 1.656711548566818237e-01 1.786082834005355835e-01 -2.063922584056854248e-01 1.447239220142364502e-01 -1.988733410835266113e-01 1.920547783374786377e-01 -1.334767490625381470e-01 6.256205588579177856e-02 -2.815922722220420837e-02 -5.226388201117515564e-02 5.325061455368995667e-02 -2.221391499042510986e-01 -1.051465496420860291e-01 5.507181584835052490e-02 2.740895561873912811e-02 -1.312025170773267746e-02 -2.912900224328041077e-02 -1.329299658536911011e-01 9.909718297421932220e-03 -1.707378178834915161e-01 -1.398963332176208496e-01 1.331428140401840210e-01 -1.519993692636489868e-02 -5.564834550023078918e-02 2.068485319614410400e-01 8.055882900953292847e-02 -1.982599645853042603e-01 -2.465507686138153076e-01 -2.086260467767715454e-01 9.833422303199768066e-02 -7.873882353305816650e-02 1.157290022820234299e-02 -1.309287697076797485e-01 1.661470234394073486e-01 1.129721924662590027e-01 -1.758128106594085693e-01 -2.324600368738174438e-01 1.546901911497116089e-01 -1.690304093062877655e-02 -1.251554638147354126e-01 4.329178482294082642e-02 -8.389636874198913574e-03 5.221155658364295959e-02 2.100634872913360596e-01 -1.249642968177795410e-01 1.736842840909957886e-01 1.278052628040313721e-01 -1.011312827467918396e-01 -3.605892509222030640e-02 -1.037396118044853210e-01 -7.276120781898498535e-02 5.503554269671440125e-02 9.955208748579025269e-03 -1.147897392511367798e-01 6.694930046796798706e-02 -3.685948625206947327e-02 9.461294114589691162e-02 7.851847261190414429e-02 -1.688472926616668701e-02 2.739540860056877136e-02 3.106288611888885498e-03 -1.913356035947799683e-01 1.656076014041900635e-01 -3.593201562762260437e-02 1.600246876478195190e-01 -9.816173464059829712e-02 -1.512723416090011597e-01 -1.465041842311620712e-02 1.437848210334777832e-01 -4.059545323252677917e-02 -1.276216357946395874e-01 -5.716212838888168335e-02 9.367038309574127197e-02 -1.698953509330749512e-01 5.904465168714523315e-02 2.427437901496887207e-02 -1.710027828812599182e-02 1.802558898925781250e-01 4.453967139124870300e-02 9.049054980278015137e-02 2.471589595079421997e-01 -1.893824338912963867e-01 1.263535767793655396e-01 -1.008429303765296936e-01 1.877167671918869019e-01 -2.404274642467498779e-01 1.939706876873970032e-02 -1.744490414857864380e-01 3.708282858133316040e-02 1.729044467210769653e-01 -9.676410257816314697e-02 1.059818714857101440e-01 7.184324413537979126e-02 2.054917812347412109e-02 2.026703953742980957e-02 2.603748068213462830e-02 1.314350515604019165e-01 -2.499533444643020630e-02 -8.596451580524444580e-02 1.012800261378288269e-01 3.142965212464332581e-02 3.260317072272300720e-02 2.082371413707733154e-01 1.339187771081924438e-01 -1.060690730810165405e-01 -8.916661143302917480e-02 -7.415232062339782715e-02 6.520036607980728149e-03 1.195449680089950562e-01 -2.199903726577758789e-01 1.788822263479232788e-01 -7.695867866277694702e-02 1.493522524833679199e-01 -1.537021994590759277e-01 1.148284971714019775e-01 6.296814978122711182e-02 4.023066256195306778e-03 1.055577024817466736e-02 7.688167504966259003e-03 -7.142937183380126953e-02 8.951826393604278564e-02 -2.117257565259933472e-02 2.830409072339534760e-02 -1.687055379152297974e-01 -1.073780283331871033e-01 -1.851076930761337280e-01 1.364559084177017212e-01 -2.018946409225463867e-02 1.908418238162994385e-01 -3.029710650444030762e-01 -1.172192767262458801e-01 -1.097999662160873413e-01 -6.222920026630163193e-03 -6.120666116476058960e-02 1.885478347539901733e-01 -7.857368141412734985e-02 -1.345317810773849487e-01 3.087945580482482910e-01 5.721623077988624573e-02 -1.594187319278717041e-01 -6.211966648697853088e-02 -4.358590394258499146e-02 3.532730415463447571e-02 7.356864213943481445e-02 -4.982424527406692505e-02 -1.471206247806549072e-01 9.642220102250576019e-03 1.375968009233474731e-01 1.022550314664840698e-01 1.555452644824981689e-01 -2.385475672781467438e-02 -1.301251351833343506e-01 7.512412965297698975e-02 -2.188216149806976318e-02 -2.368378788232803345e-01 -1.854236423969268799e-02 1.460945755243301392e-01 -2.223715931177139282e-01 1.013244763016700745e-01 1.442776769399642944e-01 -2.487369924783706665e-01 -7.459145784378051758e-02 -1.399227678775787354e-01 1.544155627489089966e-01 -1.496150344610214233e-01 -5.859912838786840439e-03 -7.315611932426691055e-03 1.589716039597988129e-02 -5.358962342143058777e-02 -1.114410832524299622e-01 -1.251221001148223877e-01 1.691697984933853149e-01 1.202587708830833435e-01 2.143285796046257019e-02 -5.228042230010032654e-02 1.485621032770723104e-04 9.331960976123809814e-02 8.297384530305862427e-02 -5.376384593546390533e-03 1.845101863145828247e-01 1.067800223827362061e-01 1.601838171482086182e-01 1.709222607314586639e-02 9.146903455257415771e-02 9.081164002418518066e-02 -1.395311355590820312e-01 -2.326193153858184814e-01 1.041968166828155518e-01 6.651395931839942932e-03 1.280333399772644043e-01 2.694325149059295654e-01 9.893909096717834473e-02 -2.097735702991485596e-01 1.908955723047256470e-01 -6.794057786464691162e-03 3.701625764369964600e-02 2.580912783741950989e-02 -4.263959079980850220e-02 1.559817641973495483e-01 -5.123550444841384888e-02 4.967785999178886414e-02 1.445375084877014160e-01 -8.560183458030223846e-03 2.640892565250396729e-02 -1.638836562633514404e-01 -8.185106515884399414e-02 -2.927754521369934082e-01 1.282906830310821533e-01 1.596267670392990112e-01 1.479156911373138428e-01 -1.370913088321685791e-01 -1.611051112413406372e-01 -1.457315236330032349e-01 -2.233272194862365723e-01 2.424532175064086914e-01 -1.088222935795783997e-01 -1.362182199954986572e-01 1.353089064359664917e-01 2.290902137756347656e-01 2.597579732537269592e-03 1.802163720130920410e-01 1.007672473788261414e-01 5.809109192341566086e-03 3.382941707968711853e-02 -1.584304496645927429e-02 7.691612839698791504e-02 -7.721133530139923096e-02 -1.070380359888076782e-01 -3.681071475148200989e-02 1.768499314785003662e-01 5.946786701679229736e-02 9.880994446575641632e-03 1.841869205236434937e-01 -5.734121426939964294e-02 2.326170802116394043e-01 -9.496106207370758057e-02 -9.805926121771335602e-03 1.141632627695798874e-02 -4.286563023924827576e-02 6.704350560903549194e-02 -6.669493019580841064e-02 -2.009042799472808838e-01 -1.113582029938697815e-01 -1.577281579375267029e-02 -1.997663266956806183e-02 9.927786886692047119e-02 9.481868892908096313e-02 5.360139533877372742e-02 -1.894610077142715454e-01 7.766977697610855103e-02 1.145610287785530090e-01 -6.545600295066833496e-02 1.404845118522644043e-01 -2.572756633162498474e-02 4.908625409007072449e-02 1.351408511400222778e-01 1.110048890113830566e-01 -2.120779752731323242e-01 -9.620129317045211792e-02 1.253656446933746338e-01 2.575673758983612061e-01 -5.779221188277006149e-03 -1.363881528377532959e-01 -8.058455586433410645e-02 4.814020916819572449e-02 -2.090002298355102539e-01 -1.430013179779052734e-01 -1.220019757747650146e-01 2.022609412670135498e-01 -1.399484872817993164e-01 1.853716373443603516e-02 1.964767128229141235e-01 -3.768530115485191345e-02 -1.141044078394770622e-03 -1.568915545940399170e-01 8.373449742794036865e-02 1.887691020965576172e-01 2.262097448110580444e-01 1.677052676677703857e-01 -2.015956938266754150e-01 -2.310003042221069336e-01 1.061115562915802002e-01 -3.297502174973487854e-02 8.330247551202774048e-02 -1.328854411840438843e-01 -8.367519080638885498e-02 8.227787911891937256e-02 -1.392288655042648315e-01 -1.152817606925964355e-01 -1.336465030908584595e-01 -5.861574411392211914e-02 1.949225515127182007e-01 -2.253580465912818909e-02 1.120546907186508179e-01 -4.663049243390560150e-03 7.369941473007202148e-02 3.870315104722976685e-02 3.043071553111076355e-02 -2.710321545600891113e-01 1.592922210693359375e-02 1.010621786117553711e-01 -9.933175891637802124e-02 5.026894807815551758e-02 -1.880529522895812988e-01 2.119249403476715088e-01 -1.327055413275957108e-02 -7.973953336477279663e-02 -2.055107057094573975e-01 -6.519942078739404678e-03 -8.864983171224594116e-02 -1.896501928567886353e-01 -3.313146904110908508e-02 1.152899190783500671e-01 1.318343579769134521e-01 -1.958100348711013794e-01 -5.520129203796386719e-02 -2.391093224287033081e-02 8.795075863599777222e-02 -2.479183822870254517e-01 -1.120180711150169373e-01 4.791196063160896301e-02 1.567165106534957886e-01 -2.352698594331741333e-01 2.207302153110504150e-01 3.905367478728294373e-02 -1.401712000370025635e-01 6.572117656469345093e-02 4.763929173350334167e-02 1.605075448751449585e-01 1.091830879449844360e-01 -3.873010165989398956e-03 -1.232096925377845764e-01 -1.325435787439346313e-01 -2.637434750795364380e-03 3.731380775570869446e-02 -2.962193638086318970e-02 -1.278261542320251465e-01 -1.911717951297760010e-01 -4.873111471533775330e-02 1.610053926706314087e-01 2.013856321573257446e-01 -2.135073095560073853e-01 6.606859713792800903e-02 -6.001397594809532166e-02 1.740226447582244873e-01 7.107367366552352905e-02 -2.580219209194183350e-01 -6.263853609561920166e-02 1.439921259880065918e-01 -1.887312233448028564e-01 -1.292045861482620239e-01 1.181953474879264832e-01 4.759360104799270630e-02 5.092572420835494995e-02 1.187035143375396729e-01 -1.840059161186218262e-01 -9.963034838438034058e-02 -1.797624528408050537e-01 -1.089257150888442993e-01 6.771508604288101196e-02 5.119202286005020142e-02 7.104543596506118774e-02 -4.453709349036216736e-02 2.879882790148258209e-02 1.300216764211654663e-01 -8.128152787685394287e-02 3.270282410085201263e-03 6.021399423480033875e-02 1.474039405584335327e-01 3.267863020300865173e-02 1.181091442704200745e-01 -7.088346034288406372e-02 -2.707843780517578125e-01 -1.650997102260589600e-01 5.066021531820297241e-02 -8.658763766288757324e-02 -1.269564926624298096e-01 1.591157615184783936e-01 7.832799851894378662e-02 1.209804341197013855e-01 -8.473307639360427856e-02 1.160795539617538452e-01 -2.193800061941146851e-01 1.431076973676681519e-01 1.451495289802551270e-02 9.718525223433971405e-03 2.913499474525451660e-01 1.126320436596870422e-01 -5.645718425512313843e-03 6.925605237483978271e-02 -1.286106854677200317e-01 -1.685511022806167603e-01 -5.431931931525468826e-03 7.995404303073883057e-02 -2.624449506402015686e-02 -1.417486518621444702e-01 1.128439381718635559e-01 6.726643443107604980e-02 -2.073943614959716797e-01 -1.346052438020706177e-01 9.535355865955352783e-02 1.624191403388977051e-01 -1.386771649122238159e-01 1.715995520353317261e-01 -8.907037973403930664e-02 1.177919656038284302e-01 -2.431093156337738037e-02 8.326635509729385376e-02 1.214086711406707764e-01 1.071550995111465454e-01 -1.114265471696853638e-01 -5.064524710178375244e-02 4.374539107084274292e-02 1.508461982011795044e-01 -1.378288771957159042e-02 -1.317081451416015625e-01 -8.127313107252120972e-02 -1.907901465892791748e-01 2.175995260477066040e-01 -5.633000284433364868e-02 -8.921126276254653931e-02 3.072683140635490417e-02 -6.824200600385665894e-02 -2.218130826950073242e-01 6.355308741331100464e-02 
9.978949427604675293e-01 9.918017983436584473e-01 1.051367163658142090e+00 1.017129659652709961e+00 9.897316098213195801e-01 1.038477659225463867e+00 9.779880642890930176e-01 9.254562854766845703e-01 
-7.234887033700942993e-02 -1.331775449216365814e-02 -5.789609998464584351e-02 -5.595260881818830967e-04 -3.992517292499542236e-02 -5.501917004585266113e-02 -3.337700664997100830e-02 -1.543930731713771820e-02 
-2.005731686949729919e-02 -5.965689942240715027e-02 -6.438893824815750122e-02 -1.613975614309310913e-01 1.379063427448272705e-01 3.701784834265708923e-02 -2.398010790348052979e-01 -9.927214682102203369e-02 
6.066489219665527344e-01 5.823060870170593262e-01 3.264819383621215820e-01 2.886807024478912354e-01 5.338995456695556641e-01 3.493559360504150391e-01 4.715469479560852051e-01 6.047082543373107910e-01 
1.135057061910629272e-01 1.716415025293827057e-02 -1.449996978044509888e-01 1.132989078760147095e-01 -1.619273796677589417e-02 -1.616180092096328735e-01 1.704637706279754639e-01 3.534690663218498230e-02 -1.333180516958236694e-01 -1.658148616552352905e-01 9.059655666351318359e-02 8.614599704742431641e-03 2.487604767084121704e-01 -4.900847375392913818e-02 -1.574629098176956177e-01 9.680197387933731079e-02 -1.083571910858154297e-01 -2.262069880962371826e-01 -1.821084879338741302e-02 1.005003303289413452e-01 1.380158811807632446e-01 2.239986956119537354e-01 -5.628520250320434570e-02 -1.301883012056350708e-01 5.022156238555908203e-02 6.724495440721511841e-02 -1.838635951280593872e-01 -1.268859505653381348e-01 -9.687792509794235229e-02 -7.218556851148605347e-02 9.676593542098999023e-02 -1.114776730537414551e-01 1.898158527910709381e-02 1.097499504685401917e-01 1.016334220767021179e-01 -1.452897042036056519e-01 -1.138151213526725769e-01 1.028875708580017090e-01 1.495419652201235294e-03 -6.097146775573492050e-03 1.901122275739908218e-03 -6.741132587194442749e-02 -5.946281924843788147e-02 2.364322170615196228e-02 -1.062060147523880005e-01 6.682307273149490356e-02 -1.419790387153625488e-01 1.068479791283607483e-01 -1.544908583164215088e-01 -1.389224231243133545e-01 -1.262858659029006958e-01 2.761698961257934570e-01 -7.285172492265701294e-02 3.261375799775123596e-02 1.637491136789321899e-01 1.984545588493347168e-01 1.459701210260391235e-01 -1.975553855299949646e-02 4.478227347135543823e-02 1.129879876971244812e-01 -1.855771541595458984e-01 -1.102496907114982605e-01 8.571202307939529419e-02 2.026854753494262695e-01 1.866852641105651855e-01 -8.452018350362777710e-02 -4.218606278300285339e-02 -1.210682094097137451e-01 -9.507106989622116089e-02 1.074264422059059143e-01 -7.199314981698989868e-02 8.126413077116012573e-02 -6.700808554887771606e-02 5.433505028486251831e-02 -1.450177729129791260e-01 -1.793861016631126404e-02 3.620313853025436401e-02 1.147036403417587280e-01 4.057124629616737366e-02 1.046110764145851135e-01 1.778376102447509766e-01 -1.438457220792770386e-01 -4.247379489243030548e-03 6.930434703826904297e-02 -1.293507367372512817e-01 -5.970720201730728149e-02 8.679485321044921875e-02 -2.110840827226638794e-01 2.051561623811721802e-01 -9.386379271745681763e-02 7.102002948522567749e-02 -8.627838641405105591e-02 2.993582934141159058e-02 -2.129296511411666870e-01 3.401808440685272217e-02 7.890954613685607910e-02 2.956042997539043427e-02 5.345450341701507568e-02 -2.187090367078781128e-01 -6.290408968925476074e-02 -2.117474824190139771e-01 1.352662742137908936e-01 1.051331311464309692e-02 1.510576605796813965e-01 5.293932184576988220e-02 -1.021312549710273743e-01 -1.800215691328048706e-01 -1.595618277788162231e-01 2.789653278887271881e-02 -1.510811895132064819e-01 1.542114615440368652e-01 -8.744905143976211548e-02 -2.478413432836532593e-01 -1.128784939646720886e-01 3.584183380007743835e-02 -4.610692709684371948e-02 -1.569226197898387909e-02 1.203003749251365662e-01 -2.466936782002449036e-02 7.408056408166885376e-02 1.710161417722702026e-01 -1.550779305398464203e-02 1.589435786008834839e-01 6.305801123380661011e-02 4.292758647352457047e-03 2.590601332485675812e-02 -1.113587096333503723e-01 -1.463091969490051270e-01 1.724570244550704956e-01 1.309240423142910004e-02 -4.959684610366821289e-02 -1.161914169788360596e-01 -1.077191382646560669e-01 -4.958854522556066513e-03 6.115538626909255981e-02 8.118891716003417969e-02 -2.797626145184040070e-02 -2.256386727094650269e-01 1.067699864506721497e-02 -2.964676544070243835e-02 -2.295890897512435913e-01 1.884132474660873413e-01 5.260360985994338989e-02 -6.821551918983459473e-02 4.116277024149894714e-02 -3.334090858697891235e-02 -1.213093772530555725e-01 6.079880148172378540e-02 5.849960818886756897e-02 4.804531857371330261e-02 1.127963587641716003e-01 2.017899602651596069e-01 6.140074878931045532e-02 -7.372775115072727203e-03 1.440043747425079346e-01 1.155931428074836731e-01 6.356202065944671631e-02 8.609993010759353638e-02 1.752994954586029053e-02 9.825271368026733398e-02 -2.138327211141586304e-01 -2.347199171781539917e-01 4.718857258558273315e-02 1.531586647033691406e-01 1.428836723789572716e-03 1.249308511614799500e-01 1.722355186939239502e-01 -1.407140344381332397e-01 9.250766038894653320e-02 2.491339296102523804e-02 -5.185044184327125549e-02 -3.535881638526916504e-02 -1.388192325830459595e-01 2.059178203344345093e-01 -1.924130767583847046e-01 1.463437802158296108e-03 1.314774602651596069e-01 6.722933053970336914e-02 -4.030960425734519958e-02 -1.343259513378143311e-01 -2.499192766845226288e-02 -6.344268471002578735e-02 -3.591312095522880554e-02 7.622153032571077347e-03 -6.658996641635894775e-02 -8.874899893999099731e-02 1.181270331144332886e-01 1.049883663654327393e-01 -6.270048767328262329e-02 -1.965027600526809692e-01 -1.229704469442367554e-01 4.079004004597663879e-02 1.082389280200004578e-01 -2.264954596757888794e-01 2.105800807476043701e-01 -2.346431910991668701e-01 1.361334770917892456e-01 -2.333059310913085938e-01 9.681858122348785400e-02 -2.688379213213920593e-02 1.175164952874183655e-01 -1.566106220707297325e-05 1.278807520866394043e-01 -6.131028383970260620e-02 -5.876893922686576843e-02 1.377377361059188843e-01 2.616092264652252197e-01 1.694526821374893188e-01 -1.826559603214263916e-01 -1.759014278650283813e-01 4.597470536828041077e-02 -7.543947547674179077e-02 6.961202621459960938e-02 -1.574502438306808472e-01 -1.230239272117614746e-01 -2.706757746636867523e-02 -7.771448045969009399e-02 2.193024754524230957e-01 8.128108829259872437e-02 2.734654583036899567e-02 7.021793723106384277e-02 -5.047066509723663330e-02 9.750159084796905518e-02 4.482046887278556824e-02 4.838224500417709351e-02 -7.859862409532070160e-03 1.666743606328964233e-01 -5.496359243988990784e-02 2.211991846561431885e-01 -1.308682113885879517e-01 1.091828122735023499e-01 -8.153179287910461426e-02 -1.827086806297302246e-01 -4.267308488488197327e-02 -2.226492464542388916e-01 4.824952408671379089e-02 9.578800946474075317e-02 -1.442798674106597900e-01 -3.449943289160728455e-02 1.851738691329956055e-01 1.496842354536056519e-01 2.255926840007305145e-02 -1.557791382074356079e-01 -1.307134628295898438e-01 -6.643098592758178711e-02 8.357020467519760132e-02 2.907575294375419617e-02 8.098720759153366089e-02 6.522236019372940063e-02 -3.956450149416923523e-02 -1.624649316072463989e-01 1.629353761672973633e-01 -2.108512073755264282e-01 1.645370572805404663e-01 1.299452036619186401e-01 -1.216807439923286438e-01 4.995680972933769226e-02 -3.057185560464859009e-02 -9.725959599018096924e-02 1.087377890944480896e-01 -1.305307000875473022e-01 -5.670430604368448257e-03 -1.169217750430107117e-01 -2.234367430210113525e-01 -1.526759266853332520e-01 1.002492159605026245e-01 4.072363302111625671e-02 7.306034117937088013e-02 1.645286679267883301e-01 -1.633201539516448975e-02 -4.399678111076354980e-02 -3.759864717721939087e-02 -2.600720152258872986e-03 9.192239493131637573e-02 -7.603554055094718933e-03 -2.863465063273906708e-02 1.617965400218963623e-01 1.091756206005811691e-02 1.424757540225982666e-01 8.998206257820129395e-02 2.124601155519485474e-01 -2.473514080047607422e-01 8.084503561258316040e-02 7.769387215375900269e-02 2.028049379587173462e-01 2.640382759273052216e-02 -5.572084710001945496e-02 1.919913887977600098e-01 1.648055762052536011e-01 8.142106235027313232e-03 1.162591502070426941e-01 1.876539438962936401e-01 -2.691936492919921875e-01 2.406629323959350586e-01 -8.334807120263576508e-03 1.137919574975967407e-01 -1.055301260203123093e-02 -1.580636799335479736e-01 8.492273092269897461e-02 2.371483147144317627e-01 -2.095822542905807495e-01 -1.365614235401153564e-01 1.535094082355499268e-01 1.791961938142776489e-01 6.852612644433975220e-02 9.485943615436553955e-02 8.599682897329330444e-02 -7.806478440761566162e-02 1.765722930431365967e-01 1.541025489568710327e-01 2.065003961324691772e-01 -1.844907253980636597e-01 -2.572149038314819336e-01 3.569183126091957092e-02 -1.399795562028884888e-01 -1.699813455343246460e-02 6.818796508014202118e-03 -1.150973215699195862e-01 1.655095666646957397e-01 3.824203833937644958e-02 1.047648563981056213e-01 1.108670309185981750e-01 2.602900378406047821e-03 2.240941375494003296e-01 1.099107190966606140e-01 1.010793000459671021e-01 8.403536677360534668e-02 -1.209995448589324951e-01 8.244587481021881104e-02 -9.783421456813812256e-02 9.567448869347572327e-03 -5.261981487274169922e-02 -3.085803426802158356e-02 1.258039623498916626e-01 6.652733683586120605e-02 2.745391726493835449e-01 -1.883120685815811157e-01 -1.312819868326187134e-01 6.513146311044692993e-02 1.272134929895401001e-01 -7.613966614007949829e-02 -1.324578672647476196e-01 6.625106930732727051e-02 -1.177277602255344391e-02 1.354490071535110474e-01 1.564634740352630615e-01 1.371047496795654297e-01 -8.532790839672088623e-02 1.003400236368179321e-01 1.271764338016510010e-01 -5.867641419172286987e-02 -1.004069969058036804e-01 -1.066485345363616943e-01 -1.774424612522125244e-01 1.318372879177331924e-02 1.296506822109222412e-02 -1.535465270280838013e-01 -7.104000449180603027e-02 -1.247427538037300110e-01 1.609206646680831909e-01 5.988938361406326294e-02 2.397705912590026855e-01 -1.051997542381286621e-01 1.889020055532455444e-01 -6.014714017510414124e-02 1.425010561943054199e-01 -1.834095641970634460e-02 -1.781432479619979858e-01 1.571113467216491699e-01 -4.637707397341728210e-02 -1.868555098772048950e-01 1.494487226009368896e-01 -2.868379279971122742e-02 -1.105501800775527954e-01 -1.724627315998077393e-01 2.873669564723968506e-01 4.019178077578544617e-02 4.100377485156059265e-02 1.406146120280027390e-02 1.263961791992187500e-01 4.891903325915336609e-02 -3.218653425574302673e-02 -1.653892248868942261e-01 1.188820414245128632e-02 -7.309684157371520996e-02 -1.129686012864112854e-01 2.259436100721359253e-01 -4.599210340529680252e-03 -9.033763408660888672e-02 -7.079282402992248535e-02 8.299088478088378906e-02 2.727166004478931427e-02 1.244591549038887024e-01 8.985566347837448120e-02 1.882267445325851440e-01 -5.780435353517532349e-02 -1.465882211923599243e-01 1.477931588888168335e-01 1.997632682323455811e-01 1.551361232995986938e-01 6.798779219388961792e-02 -1.717076450586318970e-01 -2.389002740383148193e-01 -1.523649785667657852e-02 -1.619743555784225464e-01 6.077538430690765381e-02 -2.227325551211833954e-02 6.446345895528793335e-02 -1.006096675992012024e-01 -1.691788136959075928e-01 -1.859818994998931885e-01 -1.935887485742568970e-01 1.787620410323143005e-02 1.373928040266036987e-01 -1.840492188930511475e-01 1.465012878179550171e-01 -3.896023612469434738e-03 7.974035292863845825e-02 6.058916449546813965e-02 3.969559445977210999e-02 9.787762165069580078e-02 -1.509087979793548584e-01 1.660975068807601929e-01 -4.694729670882225037e-02 1.076415479183197021e-01 -1.221100687980651855e-01 8.836062997579574585e-02 8.990996330976486206e-02 2.053603082895278931e-01 -2.053883671760559082e-02 -7.827919907867908478e-03 1.775986105203628540e-01 3.436896204948425293e-02 -1.153612807393074036e-01 1.667500287294387817e-01 -4.067597910761833191e-02 9.010738879442214966e-02 -1.770183742046356201e-01 -1.042896583676338196e-01 1.773399114608764648e-01 -1.568619310855865479e-01 2.588419318199157715e-01 4.259900376200675964e-02 1.142343357205390930e-01 1.427255868911743164e-01 7.810577750205993652e-02 -9.521966427564620972e-02 9.300610423088073730e-02 2.251860797405242920e-01 1.546190679073333740e-01 -1.170409098267555237e-01 5.021039769053459167e-02 4.555169120430946350e-02 8.419898897409439087e-02 5.189237650483846664e-03 2.417473793029785156e-01 -4.084321111440658569e-02 -2.143571525812149048e-01 3.506068512797355652e-02 -1.032271459698677063e-01 -5.435792729258537292e-03 1.721939593553543091e-01 -1.055975407361984253e-01 -1.956112086772918701e-01 -2.061976790428161621e-01 5.039489641785621643e-02 -9.636519104242324829e-02 1.973649412393569946e-01 -4.144426807761192322e-02 -6.355795264244079590e-02 -1.395740807056427002e-01 7.268844544887542725e-02 -2.953821234405040741e-02 1.137774363160133362e-01 1.268563568592071533e-01 -8.096601068973541260e-02 -1.635717302560806274e-01 9.139839559793472290e-02 1.647630184888839722e-01 -2.193098813295364380e-01 5.548669956624507904e-03 2.234684769064188004e-03 1.406799256801605225e-01 -1.264638900756835938e-01 1.243230998516082764e-01 -6.065328791737556458e-02 9.984023869037628174e-02 9.116955846548080444e-02 2.522745355963706970e-02 -5.325181782245635986e-02 5.882738530635833740e-02 -8.162092417478561401e-02 1.270737200975418091e-01 -1.525801122188568115e-01 -5.877468362450599670e-02 3.863555612042546272e-03 3.403730317950248718e-02 2.380919456481933594e-01 -3.242850676178932190e-02 6.397531181573867798e-02 2.585808932781219482e-01 -2.996192499995231628e-02 -1.426960676908493042e-01 -1.104814708232879639e-01 6.194212287664413452e-02 -1.545491069555282593e-02 5.435212701559066772e-02 -1.263083368539810181e-01 -5.922624841332435608e-02 1.369001120328903198e-01 9.914068877696990967e-02 -1.733266562223434448e-01 -2.440534532070159912e-01 2.086775610223412514e-03 7.154095917940139771e-02 -2.315393276512622833e-02 -1.781265996396541595e-02 6.157922372221946716e-02 1.813720725476741791e-02 -4.034738242626190186e-02 1.071344390511512756e-01 9.214480221271514893e-02 -1.162465810775756836e-01 2.041543573141098022e-01 2.168499529361724854e-01 2.597330808639526367e-01 2.103903703391551971e-02 1.716531068086624146e-01 1.500762067735195160e-03 1.588416397571563721e-01 -1.027519777417182922e-01 9.424132108688354492e-02 -3.024165332317352295e-02 -1.724324822425842285e-01 6.599643081426620483e-02 1.482419669628143311e-01 1.276764571666717529e-01 -3.754098340868949890e-02 1.768601238727569580e-01 -1.234952956438064575e-01 -1.367934942245483398e-01 8.331067115068435669e-02 -5.835521593689918518e-02 3.849092498421669006e-02 -1.410955786705017090e-01 -6.368450075387954712e-02 -4.217763245105743408e-02 -6.788950413465499878e-02 2.333420664072036743e-01 -3.005762770771980286e-02 2.340619117021560669e-01 1.515267044305801392e-01 -6.394832581281661987e-02 3.330678492784500122e-02 9.430847316980361938e-02 -8.382846415042877197e-02 -1.469535678625106812e-01 -1.588458120822906494e-01 -2.431594729423522949e-01 1.913939714431762695e-01 -1.633776128292083740e-01 8.122967183589935303e-02 1.006542295217514038e-01 2.418850064277648926e-01 4.383223876357078552e-02 -1.264198124408721924e-01 1.446112692356109619e-01 5.190892890095710754e-02 -9.653362631797790527e-02 7.644121535122394562e-03 9.948104619979858398e-02 -4.590466246008872986e-02 2.261187881231307983e-01 -2.062126435339450836e-02 1.125761121511459351e-01 4.060480277985334396e-03 
1.037593007087707520e+00 1.095902442932128906e+00 9.700741171836853027e-01 9.241041541099548340e-01 1.040760874748229980e+00 1.056911468505859375e+00 9.545612931251525879e-01 9.734916090965270996e-01 
5.318247899413108826e-02 8.067795634269714355e-02 -6.673852354288101196e-02 -7.764780521392822266e-02 5.458799656480550766e-03 2.758319862186908722e-02 -5.997911095619201660e-02 -1.053919866681098938e-01 
-1.051137000322341919e-01 -6.026401519775390625e-01 1.986268758773803711e-01 6.762759089469909668e-01 7.874896526336669922e-01 4.596359133720397949e-01 5.278431773185729980e-01 8.571037650108337402e-01 
1.145833492279052734e+00 9.762617349624633789e-01 9.352520108222961426e-01 9.453492760658264160e-01 1.140911579132080078e+00 1.137651920318603516e+00 9.010695219039916992e-01 7.920058369636535645e-01 
1.986820101737976074e-01 6.158521026372909546e-02 -1.232004165649414062e-01 2.267960458993911743e-01 -1.065209805965423584e-01 5.105066299438476562e-02 -2.061645239591598511e-01 1.171829327940940857e-01 -7.708038389682769775e-02 -6.747565418481826782e-02 1.843569427728652954e-01 -9.213700145483016968e-02 -3.990383818745613098e-03 1.953942179679870605e-01 -1.041461303830146790e-01 -6.643404811620712280e-02 -2.822739779949188232e-01 8.606947958469390869e-02 1.470952033996582031e-01 1.105763912200927734e-01 -4.539291933178901672e-02 -7.319296896457672119e-02 2.065097689628601074e-01 1.714277267456054688e-02 -1.484162211418151855e-01 2.021836787462234497e-01 9.924019873142242432e-02 4.044399037957191467e-02 2.104200981557369232e-02 -7.251151651144027710e-02 4.053707048296928406e-02 1.645339131355285645e-01 1.166858226060867310e-01 1.896831691265106201e-01 6.504243612289428711e-02 -1.322134584188461304e-01 -2.273358404636383057e-01 1.423356682062149048e-01 4.655667394399642944e-02 1.056549176573753357e-01 4.759012907743453979e-02 -8.305868506431579590e-02 2.993023023009300232e-03 1.041581016033887863e-02 -2.347167581319808960e-01 1.423059552907943726e-01 -2.532133646309375763e-02 -6.299547106027603149e-02 1.201574578881263733e-01 -2.252178639173507690e-01 -7.697826623916625977e-02 2.188184112310409546e-01 1.358318328857421875e-01 7.297287136316299438e-02 7.858403027057647705e-02 1.597152948379516602e-01 6.634275615215301514e-02 1.471734941005706787e-01 1.760311797261238098e-02 6.245829164981842041e-02 2.224456891417503357e-02 -3.808144107460975647e-02 1.670187562704086304e-01 4.714925959706306458e-02 -8.277504891157150269e-02 1.051600500941276550e-01 1.157496273517608643e-01 -1.960622817277908325e-01 1.642273962497711182e-01 -1.660645604133605957e-01 -1.479035168886184692e-01 -2.241227077320218086e-03 1.652779877185821533e-01 2.004875242710113525e-01 1.359951049089431763e-01 -4.909786954522132874e-02 -5.835038796067237854e-02 -1.863425970077514648e-01 3.967798873782157898e-02 -1.806529313325881958e-01 3.599739819765090942e-02 -5.043990910053253174e-02 4.281350225210189819e-02 8.719310164451599121e-02 -1.308739185333251953e-01 1.930532902479171753e-01 -4.023245722055435181e-02 -1.303742676973342896e-01 8.117932826280593872e-02 2.024193853139877319e-01 1.193460375070571899e-01 -2.113679051399230957e-01 8.748192340135574341e-02 2.909942716360092163e-02 -6.685169041156768799e-02 -1.188308149576187134e-01 -7.187852263450622559e-02 2.960164286196231842e-02 2.662466280162334442e-02 3.529694303870201111e-02 1.844418495893478394e-01 6.830207258462905884e-02 -1.125009357929229736e-01 -8.254589140415191650e-02 7.745287567377090454e-02 7.030239701271057129e-02 7.774066179990768433e-02 -3.451713547110557556e-02 1.276094466447830200e-01 -4.266553744673728943e-02 4.835819453001022339e-02 -6.305860728025436401e-02 1.561743579804897308e-02 -1.920280009508132935e-01 -6.206324324011802673e-02 1.768230497837066650e-01 8.361931890249252319e-02 1.739144921302795410e-01 -8.773622661828994751e-02 1.192686557769775391e-01 3.489777818322181702e-02 4.870347678661346436e-02 -2.587597370147705078e-01 3.042064141482114792e-03 1.354055404663085938e-01 -3.289778530597686768e-02 -3.737962245941162109e-02 -1.939155608415603638e-01 -1.221719160676002502e-01 2.575020194053649902e-01 2.531316876411437988e-02 -1.565622910857200623e-02 1.098730862140655518e-01 -2.068645507097244263e-01 1.557244639843702316e-02 -5.512412637472152710e-02 1.301706284284591675e-01 6.320662796497344971e-02 -4.102208092808723450e-02 1.375313997268676758e-01 2.992154955863952637e-01 1.146259158849716187e-01 -9.746622294187545776e-02 -9.664309769868850708e-02 -1.910936534404754639e-01 1.441974341869354248e-01 -1.691097021102905273e-01 -1.285220235586166382e-01 6.854727119207382202e-02 1.904867738485336304e-01 3.548100590705871582e-02 -1.413459032773971558e-01 -2.149134315550327301e-02 -1.700253188610076904e-01 1.958884447813034058e-01 -1.411759257316589355e-01 1.681838743388652802e-02 2.916573733091354370e-02 5.075629428029060364e-02 -2.317878045141696930e-02 -6.807999312877655029e-02 1.623575240373611450e-01 -8.697430044412612915e-02 -2.056575752794742584e-02 1.455241590738296509e-01 -1.421532779932022095e-01 -9.043236263096332550e-03 1.640515178442001343e-01 7.305639237165451050e-02 1.496298052370548248e-02 -8.430931717157363892e-02 -1.138169169425964355e-01 1.368090808391571045e-01 -1.231464836746454239e-02 1.172271892428398132e-01 -9.112466871738433838e-02 1.994476020336151123e-01 -1.831658929586410522e-01 -2.128261923789978027e-01 -1.364658921957015991e-01 -1.929139196872711182e-01 9.253960847854614258e-02 -1.804851144552230835e-01 -2.205182611942291260e-01 -1.231666281819343567e-01 1.971375197172164917e-01 1.127556338906288147e-01 1.049337461590766907e-01 -6.305669993162155151e-02 1.240061745047569275e-01 -5.927384644746780396e-02 3.999715298414230347e-02 -7.197700440883636475e-02 -1.700784862041473389e-01 1.840711012482643127e-02 -3.843825682997703552e-02 1.545840948820114136e-01 -5.553414300084114075e-02 5.947146937251091003e-02 -1.721942275762557983e-01 -1.736335828900337219e-02 -1.194040477275848389e-01 -1.583396196365356445e-01 -1.806536763906478882e-01 1.159671396017074585e-01 1.381129622459411621e-01 9.651198238134384155e-02 -7.904563099145889282e-02 -2.017501145601272583e-01 -9.122579544782638550e-02 -1.947713047266006470e-01 1.434909254312515259e-01 2.004251927137374878e-01 1.654092520475387573e-01 -1.022830307483673096e-01 1.530242413282394409e-01 -7.214544713497161865e-02 -1.692527830600738525e-01 -2.003587037324905396e-01 -3.107646247372031212e-03 1.445365995168685913e-01 -9.187979251146316528e-02 -4.406955838203430176e-02 -1.372235268354415894e-01 -1.234840378165245056e-01 -1.539994478225708008e-01 -7.816848903894424438e-02 4.529437050223350525e-03 -2.637849450111389160e-01 1.967321485280990601e-01 -5.569384247064590454e-02 1.237456202507019043e-01 -2.370548695325851440e-01 1.629943996667861938e-01 9.430419653654098511e-02 1.133860722184181213e-01 1.030115783214569092e-02 1.087982878088951111e-01 6.773950159549713135e-02 5.086302384734153748e-02 4.178837314248085022e-02 -9.670230001211166382e-02 4.238159209489822388e-02 -4.179323464632034302e-02 -1.516690105199813843e-02 9.353110194206237793e-02 2.838866226375102997e-02 2.127419710159301758e-01 1.169226765632629395e-01 4.985723271965980530e-02 -1.752495318651199341e-01 2.090812623500823975e-01 7.240294665098190308e-02 -4.862933605909347534e-02 -1.656642258167266846e-01 -1.825909763574600220e-01 -1.828252077102661133e-01 -5.103364121168851852e-03 1.187820658087730408e-01 -7.513783406466245651e-03 8.837098628282546997e-02 -4.641316086053848267e-02 -9.246425330638885498e-02 -9.785952419042587280e-02 2.396243624389171600e-02 -4.603456333279609680e-02 -1.737738251686096191e-01 -1.187023073434829712e-01 -8.267804980278015137e-03 -7.307371497154235840e-02 -4.467614367604255676e-02 -2.129020094871520996e-01 1.501027792692184448e-01 -6.567673385143280029e-02 -1.568216979503631592e-01 -4.591359198093414307e-02 3.148463740944862366e-02 1.487056165933609009e-01 -1.437687724828720093e-01 1.450963020324707031e-01 1.254284828901290894e-01 2.325236983597278595e-02 -1.155004426836967468e-01 -4.278041049838066101e-02 -1.343445330858230591e-01 1.149834245443344116e-01 1.501382142305374146e-01 -8.700058609247207642e-02 -1.588805764913558960e-01 6.814761459827423096e-02 -2.130446135997772217e-01 2.032486349344253540e-01 2.216650396585464478e-01 -1.398666389286518097e-02 6.541620008647441864e-03 4.508704692125320435e-02 1.745450496673583984e-01 2.076023072004318237e-02 -2.301707863807678223e-01 -1.555754896253347397e-02 1.062519699335098267e-01 -8.105177432298660278e-02 1.283917278051376343e-01 -2.245005778968334198e-02 -8.748263120651245117e-02 2.836212217807769775e-01 1.485087275505065918e-01 2.033650279045104980e-01 1.546561121940612793e-01 -2.178424447774887085e-01 -2.143516242504119873e-01 1.445807963609695435e-01 -4.296266660094261169e-02 1.314605027437210083e-01 -3.507209569215774536e-02 5.721260607242584229e-02 1.712351888418197632e-01 1.486677378416061401e-01 5.307101085782051086e-02 -6.919146329164505005e-02 -1.989168822765350342e-01 -1.253746747970581055e-01 -5.721361562609672546e-02 -1.111309081315994263e-01 2.037857025861740112e-01 -6.498008035123348236e-03 -5.568657442927360535e-02 -1.428008973598480225e-01 3.981578350067138672e-02 -1.381254643201828003e-01 -2.966846227645874023e-01 6.384056806564331055e-02 -1.765450835227966309e-01 2.880168557167053223e-01 1.984566077589988708e-02 -9.197372943162918091e-02 6.281112134456634521e-02 1.144645437598228455e-01 5.247186124324798584e-02 1.404349058866500854e-01 1.543112546205520630e-01 -1.365246325731277466e-01 -1.540982425212860107e-01 -5.034912377595901489e-03 1.824276447296142578e-01 -1.497743278741836548e-01 9.640409052371978760e-02 -1.138270199298858643e-01 5.142477527260780334e-02 -7.963176816701889038e-02 2.451661974191665649e-02 -3.268421813845634460e-02 4.941090941429138184e-02 9.376254677772521973e-02 -6.010193005204200745e-02 1.701684147119522095e-01 -2.202546000480651855e-01 -1.982522159814834595e-01 9.185043722391128540e-02 1.652672439813613892e-01 -1.551007330417633057e-01 7.883606106042861938e-02 -9.967315196990966797e-02 -2.198420166969299316e-01 1.382481753826141357e-01 -2.130579799413681030e-01 -1.502000093460083008e-01 -6.833913177251815796e-02 -9.339348226785659790e-02 1.132733188569545746e-03 1.972633646801114082e-03 -9.895984083414077759e-02 1.084244921803474426e-01 -1.527196913957595825e-01 1.003799065947532654e-01 1.994954794645309448e-01 -2.179106324911117554e-02 6.605111807584762573e-02 -1.859974861145019531e-02 2.663309685885906219e-02 6.608884036540985107e-02 9.527959674596786499e-02 9.426137059926986694e-02 -1.991401314735412598e-01 9.417024254798889160e-02 1.761215329170227051e-01 -1.954946815967559814e-01 -1.094537600874900818e-01 4.571554018184542656e-04 1.059902906417846680e-01 1.538714468479156494e-01 -1.732302159070968628e-01 8.011766523122787476e-02 7.566566020250320435e-02 -1.689290553331375122e-01 1.589993685483932495e-01 -2.042303383350372314e-01 2.391229122877120972e-01 -2.185789644718170166e-01 -1.329757571220397949e-01 -6.021406129002571106e-02 -6.839867681264877319e-02 -1.557450890541076660e-01 1.011312529444694519e-01 -1.216410771012306213e-01 1.544131934642791748e-01 -1.361724287271499634e-01 1.209020838141441345e-01 -1.924804411828517914e-02 -4.737004265189170837e-02 -1.876494884490966797e-01 -1.105514392256736755e-01 -1.385497450828552246e-01 -2.046104073524475098e-01 1.434665769338607788e-01 8.372593671083450317e-02 6.025179103016853333e-02 -6.067023053765296936e-02 -5.010793730616569519e-02 2.440124936401844025e-02 -1.995232999324798584e-01 3.709634020924568176e-02 -5.077754706144332886e-02 -2.426175624132156372e-01 1.180763542652130127e-01 9.690730273723602295e-02 5.127169936895370483e-02 1.108500659465789795e-01 -2.073177099227905273e-01 -2.892946824431419373e-02 -1.418768763542175293e-01 3.377849236130714417e-02 -1.200627461075782776e-01 -8.038634061813354492e-02 -1.923663765192031860e-01 7.954291999340057373e-02 -1.660735607147216797e-01 -4.605716466903686523e-02 -1.808327287435531616e-01 3.305159509181976318e-02 1.558508276939392090e-01 -1.756989359855651855e-01 -4.507241025567054749e-02 -1.270053088665008545e-01 -1.467755138874053955e-01 1.457829326391220093e-01 -1.383744627237319946e-01 6.885544955730438232e-02 -2.381308376789093018e-01 6.758733093738555908e-02 1.206954848021268845e-02 -2.043403387069702148e-01 1.421629041433334351e-01 -1.992242336273193359e-01 8.621451258659362793e-02 1.670161336660385132e-01 -1.090772077441215515e-01 -4.595264792442321777e-02 -8.863551914691925049e-02 -1.795378178358078003e-01 -1.729300767183303833e-01 -5.739507731050252914e-03 2.144628763198852539e-01 -3.673776611685752869e-02 1.600638926029205322e-01 -1.516738813370466232e-02 8.835192769765853882e-02 1.210197061300277710e-01 6.104041635990142822e-02 1.989253908395767212e-01 -2.839666791260242462e-02 -1.139062941074371338e-01 1.992641091346740723e-01 1.307922452688217163e-01 1.082391813397407532e-01 -5.717094615101814270e-02 -1.516618132591247559e-01 2.778606861829757690e-02 2.101547718048095703e-01 -1.637385785579681396e-01 -2.349347993731498718e-02 1.287150979042053223e-01 6.731496006250381470e-02 -3.779450058937072754e-02 -2.630562484264373779e-01 7.413765043020248413e-02 4.926315974444150925e-03 -8.139886707067489624e-02 -2.044626325368881226e-01 5.775842443108558655e-02 7.746226340532302856e-02 1.391208171844482422e-01 -7.681999355554580688e-02 1.226018518209457397e-01 -2.370323427021503448e-02 -1.388732045888900757e-01 -1.183484494686126709e-01 1.759131550788879395e-01 -2.517772018909454346e-01 9.119620174169540405e-02 -1.124015897512435913e-01 3.412960842251777649e-02 -4.781584441661834717e-02 8.040423691272735596e-02 1.631682813167572021e-01 -8.787384629249572754e-02 1.665154695510864258e-01 1.302288025617599487e-01 7.298037409782409668e-02 -1.469316929578781128e-01 -2.068305201828479767e-02 -3.838705271482467651e-02 -1.582076549530029297e-01 -2.239965647459030151e-02 -1.114761903882026672e-01 -1.933846026659011841e-01 1.400043815374374390e-01 -4.192375019192695618e-02 -7.819107174873352051e-02 2.502269744873046875e-01 -1.618073694407939911e-02 -8.139365911483764648e-02 1.210039202123880386e-02 -1.665510088205337524e-01 -1.689249724149703979e-01 7.597901672124862671e-02 9.468676522374153137e-03 -5.681753158569335938e-03 1.285255253314971924e-01 -1.665131598711013794e-01 -5.152101442217826843e-02 -7.555411010980606079e-02 -9.336201846599578857e-02 -3.138514980673789978e-02 -1.380775123834609985e-01 -1.724653393030166626e-01 -8.831514418125152588e-02 -8.411176502704620361e-02 -4.672395437955856323e-02 1.634303033351898193e-01 -1.130911558866500854e-01 -7.411571592092514038e-02 2.565550804138183594e-01 -1.657655388116836548e-01 7.688987255096435547e-02 1.168892458081245422e-01 2.169883102178573608e-01 4.867517855018377304e-03 -2.271514385938644409e-01 8.906904608011245728e-02 7.090350985527038574e-02 9.326093643903732300e-02 -1.878558546304702759e-01 -9.703296236693859100e-03 -2.117662578821182251e-01 1.835017278790473938e-02 -1.065641790628433228e-01 2.329434454441070557e-02 -1.769509613513946533e-01 -1.134655177593231201e-01 -1.126489564776420593e-01 1.596333682537078857e-01 1.372384428977966309e-01 7.864698767662048340e-02 -1.589428782463073730e-01 -2.160535156726837158e-01 4.146855697035789490e-02 -1.054720580577850342e-01 1.270823478698730469e-01 -4.628074914216995239e-02 -1.773653924465179443e-01 1.027954146265983582e-01 -1.893076598644256592e-01 1.765925884246826172e-01 -6.595059484243392944e-02 2.101785838603973389e-01 
9.376814365386962891e-01 1.016984701156616211e+00 1.099160909652709961e+00 1.087813138961791992e+00 9.750825166702270508e-01 9.412850737571716309e-01 1.087035179138183594e+00 9.315204620361328125e-01 
-6.267522275447845459e-02 -8.063974231481552124e-02 6.163733080029487610e-03 3.870244324207305908e-02 -1.142772752791643143e-02 -5.962043255567550659e-02 -6.201760470867156982e-02 -2.819668687880039215e-02 
3.097797036170959473e-01 1.781411767005920410e-01 -1.798777133226394653e-01 -3.705810010433197021e-01 1.439242213964462280e-01 -4.368361532688140869e-01 -1.963015496730804443e-01 -3.131956458091735840e-01 
8.019218444824218750e-01 4.995310008525848389e-01 5.374115705490112305e-01 4.194944500923156738e-01 6.485614776611328125e-01 7.994298338890075684e-01 4.883060157299041748e-01 4.847579598426818848e-01 
