-0.10692 -0.19297 0.09206 0.01426 -0.12662 0.10665 0.14334 -0.05238 -0.23817 -0.23076 -0.24792 0.19552 -0.14416 0.03049 0.15950 0.16921 -0.03208 0.12230 0.20011 0.03977 0.01871 -0.14693 -0.09896 -0.09621 0.13988 -0.12452 0.10345 -0.13376 -0.18671 0.06057 -0.05356 0.09937 -0.00430 0.00241 -0.24397 0.20633 0.08999 -0.01899 0.11831 0.00301 0.15249 0.20897 0.21596 -0.12527 -0.06433 -0.16496 0.09475 -0.20646 0.00186 -0.21468 -0.08745 0.22845 -0.07106 -0.03953 -0.04541 0.03125 -0.03265 -0.14069 -0.01024 0.25089 -0.18691 0.10861 0.17005 0.19619 0.05281 -0.16284 -0.19719 -0.10054 -0.14758 0.14676 0.22949 0.10530 0.20049 -0.08148 -0.02495 0.14096 -0.19459 0.02780 0.20629 -0.01152 -0.20984 0.08370 -0.15191 -0.22061 0.20960 0.00299 0.06413 -0.05713 0.13929 -0.07891 -0.03932 -0.07671 -0.01535 -0.06505 0.05077 -0.21033 0.12989 -0.03302 0.20477 -0.12346 -0.16898 0.18113 0.18935 -0.12905 -0.19599 -0.02104 0.09069 -0.23940 -0.07107 0.13743 0.13446 0.23706 -0.22136 0.17714 -0.09995 0.02819 -0.01010 -0.10027 -0.19748 -0.03611 -0.24777 0.09328 -0.08514 -0.15647 -0.06006 0.19752 -0.21567 0.22339 0.10627 -0.00661 0.00435 0.14760 -0.04609 0.09190 0.25424 -0.20211 0.09812 -0.01972 -0.06449 0.14969 0.12843 -0.06225 -0.05118 0.12933 0.15356 -0.20582 0.08131 -0.21207 -0.00593 0.02223 -0.16466 0.08294 -0.10098 -0.15421 -0.01869 0.03917 0.02969 0.19046 0.15319 0.11958 0.08598 0.16342 -0.13783 0.06085 -0.14440 -0.25693 0.18184 -0.14510 0.02152 0.18764 0.10848 -0.06416 -0.10706 -0.21525 -0.09576 0.11982 -0.03432 0.06215 -0.20806 -0.09781 -0.13585 -0.00040 0.09468 0.10597 -0.22983 -0.07737 0.11603 0.05223 -0.03507 -0.19691 0.12758 0.21825 0.01224 0.28225 0.08292 -0.02220 0.12224 0.03154 -0.23067 -0.02595 0.00516 -0.18018 -0.15958 -0.16533 -0.11880 0.09955 -0.25380 0.00882 0.08734 0.19733 -0.03679 -0.02134 -0.04267 0.00001 -0.18115 -0.12901 
0.98592 0.97662 1.00799 1.00190 1.02933 0.97604 0.96751 1.00862 
0.00807 -0.02895 0.01100 -0.00744 0.01483 -0.01247 -0.00813 -0.00228 
0.01019 0.21560 -0.01724 0.00976 -0.12353 -0.33997 0.05088 -0.12714 
0.01528 0.06090 0.01649 0.01132 0.02228 0.14413 0.01573 0.04563 
0.01948 -0.18492 -0.10003 0.09679 0.15033 -0.19449 0.04266 0.15335 -0.00047 0.14278 0.15018 -0.20015 -0.02669 0.05759 -0.14423 0.03339 0.09283 -0.21085 -0.05365 -0.21312 -0.03319 0.08615 0.02887 0.06049 0.16307 0.07555 0.06907 -0.15513 0.02137 -0.09425 -0.13302 0.04756 -0.07741 0.12364 -0.14560 -0.05352 0.15391 0.10927 -0.03207 0.15829 0.15096 -0.01975 -0.13969 -0.15271 -0.11720 -0.14678 0.18640 0.18186 -0.02174 0.09168 -0.05833 0.17866 0.15292 0.03792 -0.16005 -0.09821 -0.00155 0.12831 0.10975 0.17189 0.01981 -0.18776 -0.02907 -0.14145 0.15159 0.11234 0.07932 0.06279 0.08621 -0.12179 -0.11830 0.13669 -0.12351 0.09569 0.12745 0.00065 0.18182 -0.11206 0.13604 0.18187 -0.18980 0.17656 0.06772 -0.14038 0.03441 0.05048 -0.21408 -0.08828 0.13449 -0.15464 0.05994 0.06927 -0.07581 -0.19851 -0.08115 -0.02672 -0.13021 -0.14172 0.10412 0.17022 0.09453 -0.09840 -0.03466 0.03230 -0.06701 -0.01240 -0.16819 0.01068 -0.12173 -0.08914 0.11890 -0.15900 -0.16111 0.10105 0.06933 -0.17947 -0.07496 -0.11219 0.15959 -0.04265 0.08170 -0.05227 0.16395 0.02981 0.18000 0.18178 -0.10829 0.13268 0.04154 0.02561 -0.18992 0.03462 -0.17747 0.01630 0.10569 -0.16885 0.02531 0.17346 0.13198 0.01334 0.07121 -0.11191 0.10091 0.09215 0.08183 -0.10875 0.16915 -0.11117 0.19025 0.04782 -0.16319 0.21352 0.04475 -0.06272 0.18681 -0.00987 0.10558 -0.02282 0.13112 -0.12947 -0.02846 0.08488 0.02877 0.05913 -0.06505 -0.04035 0.07871 -0.14101 -0.16365 0.18339 -0.12014 -0.13431 0.05610 0.05901 0.12712 -0.03202 -0.14487 0.02374 0.12678 -0.18745 0.15877 -0.05142 0.11392 -0.09742 -0.15709 0.11735 -0.03587 0.17971 -0.13249 -0.09513 -0.01083 0.04066 -0.03973 0.07956 0.18804 0.17354 0.02198 0.17458 0.13370 -0.17492 -0.00736 -0.00327 -0.00575 0.03781 -0.10485 0.09694 0.14732 -0.15287 -0.17190 -0.02953 0.15006 -0.10727 0.02874 -0.01441 -0.16700 -0.18841 0.03111 -0.01651 -0.20821 0.20267 0.17017 -0.17009 0.17164 0.00891 -0.00872 0.16054 -0.14965 0.16167 -0.04276 -0.05349 0.05865 -0.16035 -0.11654 -0.11566 0.07494 0.19830 0.07967 -0.15075 0.15291 0.13251 -0.08980 0.01127 -0.05120 0.03948 -0.16050 -0.14565 -0.13920 -0.00195 0.09225 0.05462 -0.02234 0.08719 -0.06576 -0.06922 0.10874 0.09800 0.00623 -0.13010 0.12724 -0.05679 0.17999 0.07861 0.00271 0.05582 -0.07008 0.18973 0.01580 0.13940 0.07473 -0.09765 -0.18476 0.07846 -0.03950 -0.15662 -0.06189 -0.00309 -0.03297 -0.18567 -0.00381 0.08883 0.18835 -0.16770 0.17118 -0.18376 -0.05902 -0.18139 -0.18306 -0.09104 -0.05754 0.11392 0.14950 -0.17069 0.20423 -0.15919 0.12533 -0.18724 -0.02713 0.03988 0.12326 0.12710 -0.14164 -0.17104 0.13454 -0.16937 0.13054 -0.16324 -0.13197 0.12390 -0.04729 0.09247 0.09367 0.07125 -0.12371 -0.17587 -0.04888 -0.02697 -0.16244 0.19571 -0.07680 -0.00852 -0.15689 0.04957 0.13455 0.08628 -0.08846 0.13236 -0.17469 0.18157 0.16217 0.05577 0.06932 0.00852 0.04469 0.13092 0.02665 -0.18271 0.00026 0.17911 0.10220 0.05633 -0.09976 -0.18794 0.04088 0.11863 -0.11066 -0.23163 0.04507 -0.20663 -0.04618 0.05539 -0.11211 -0.03940 0.19058 0.12569 -0.16206 0.21924 -0.11648 -0.14591 0.03341 0.03567 0.16206 -0.01334 -0.06639 0.19161 0.13853 0.10724 0.16849 0.09797 0.12916 -0.18600 -0.01044 0.15501 0.03623 0.18902 -0.00811 0.07412 -0.06150 0.13727 -0.12831 0.03470 0.14603 -0.18459 0.03919 0.06266 0.08793 0.14309 -0.02912 0.11262 -0.06499 0.15895 0.05726 -0.09392 0.17487 -0.05538 0.05974 0.00574 0.10309 0.04016 -0.14306 -0.08360 -0.04504 0.11567 -0.10132 -0.02148 -0.11964 -0.12585 -0.11702 0.17116 -0.15209 -0.05212 0.03557 0.15522 -0.06411 -0.18365 0.04787 -0.11367 0.12118 0.03148 -0.13629 -0.17999 0.16070 -0.15067 0.08413 0.01473 -0.14091 -0.16029 -0.05668 -0.10436 -0.13314 0.08753 0.02032 -0.17951 0.11766 0.13375 -0.17478 -0.00101 -0.15376 -0.04549 -0.10083 -0.02188 0.18857 0.03717 0.02664 -0.01244 -0.00506 -0.16541 -0.14620 -0.15369 0.04133 -0.02224 -0.06626 0.11519 0.11814 -0.14555 -0.16787 -0.07705 0.10730 -0.07217 -0.04722 -0.15354 -0.08777 0.15236 -0.18622 0.15733 0.11356 0.02047 -0.15623 -0.12635 -0.08560 0.14738 -0.23007 0.05431 -0.04859 -0.03235 -0.13394 -0.18325 -0.11699 0.12928 0.07094 0.03037 0.08774 0.14663 0.18783 0.18156 0.11179 0.15865 -0.00550 0.14782 0.09236 -0.03302 0.11391 0.13197 -0.00793 0.00208 -0.13157 -0.01876 0.00632 -0.17162 -0.02285 -0.09169 0.08724 0.18423 -0.06965 -0.01130 -0.15458 -0.10661 0.07455 0.16545 0.05150 -0.11977 -0.19768 0.17364 -0.21727 -0.11297 0.02666 -0.09235 0.05239 0.09700 0.18063 0.08202 -0.04335 0.10041 -0.14707 -0.15146 0.09147 0.14645 -0.15485 0.06961 -0.13221 -0.06989 0.07458 -0.03188 -0.18272 0.17516 -0.04936 0.00475 0.18476 0.08360 0.17865 -0.12160 0.04797 -0.13378 -0.08096 0.19331 -0.06215 -0.12836 -0.18466 0.14681 -0.09735 -0.09004 -0.14074 0.02288 0.00092 -0.11538 0.11697 0.08431 0.09069 -0.04545 -0.19733 0.10836 -0.11819 -0.04112 0.13539 0.05005 -0.02018 -0.16782 0.13680 0.03099 0.08044 -0.14528 -0.08767 0.01515 -0.00089 0.06675 0.12524 0.17952 
0.97781 0.98709 1.00400 1.01226 1.02013 0.99780 0.99774 1.00519 
-0.02628 0.01358 -0.01013 -0.00536 -0.00193 -0.01195 0.00865 -0.02533 
0.01263 0.05702 0.22415 0.25587 0.13051 -0.24451 -0.12337 0.10044 
0.26360 0.25282 0.61398 0.58628 0.18663 0.67622 0.45738 0.17510 
0.09695 0.04841 -0.13251 -0.08513 0.00344 0.12055 -0.06250 -0.00225 0.05118 0.12694 0.08829 0.02684 -0.16698 -0.05456 -0.19684 -0.01584 0.20377 0.18292 0.02612 0.00238 -0.06562 -0.21218 0.04629 0.02091 0.12542 -0.16210 0.13824 -0.14848 0.01309 0.12006 -0.09621 -0.00020 0.20678 0.13104 0.04068 0.19970 -0.10236 -0.10959 0.19382 0.05025 0.14542 -0.12923 0.11127 0.03624 0.02417 -0.15914 0.18677 -0.15213 0.20048 -0.09219 0.16658 0.16205 -0.05003 0.14595 0.00268 0.14381 0.03857 -0.05771 0.11505 0.12816 -0.01917 -0.10696 -0.08110 -0.02414 0.05530 -0.10575 0.11557 -0.00489 0.18554 -0.10915 -0.16360 -0.13785 -0.18092 -0.07429 -0.06443 -0.07668 -0.15105 0.02941 -0.06796 -0.06720 -0.03017 -0.11557 0.06285 0.09424 -0.19823 -0.09699 0.08100 0.15104 -0.05254 -0.06300 0.01466 0.06435 0.02481 -0.10937 -0.18307 -0.01036 -0.16800 -0.12486 0.09661 0.07065 0.11335 -0.12854 0.06848 0.12780 -0.18341 -0.04961 -0.09525 -0.18186 -0.15628 -0.13720 -0.04287 -0.06844 -0.11304 0.17143 -0.10245 -0.25101 -0.17650 0.12328 -0.03860 0.17884 0.06408 0.11879 0.03701 0.20591 0.04220 0.22232 -0.14869 0.13744 0.11452 -0.05271 0.13200 0.16810 0.15394 -0.10424 0.00366 -0.03482 0.14922 -0.11745 -0.17905 0.10742 -0.17250 -0.09949 0.15879 -0.16927 -0.08430 -0.14031 -0.11325 0.19064 0.18615 -0.06339 -0.07784 0.06797 -0.20831 -0.18594 0.03041 -0.06853 0.19361 -0.06204 0.14191 0.02903 0.16174 0.12998 -0.17386 0.13557 -0.10753 -0.07518 0.17860 0.04595 -0.10409 0.08628 0.15610 0.14199 0.10362 0.19469 0.01239 0.07314 -0.13850 -0.21099 -0.17416 -0.15260 0.14067 0.02188 -0.12549 -0.17950 -0.15859 -0.19127 0.19155 -0.04246 0.01041 0.12861 0.00584 -0.13038 0.16637 0.18774 0.16792 0.04997 -0.08004 -0.02921 -0.05488 0.09255 0.08200 -0.20084 -0.01432 0.10688 0.14588 0.18973 -0.16877 -0.10727 0.03130 -0.21720 0.04686 0.08220 -0.11014 -0.17532 -0.08884 0.14675 0.18612 0.09048 0.07987 0.09484 0.03948 0.05415 0.02323 -0.11264 -0.16926 -0.00752 -0.23868 -0.06616 0.13530 0.11283 0.03104 -0.20211 -0.11128 -0.04183 -0.18353 -0.06642 -0.16683 0.08604 -0.07261 -0.04518 0.18136 0.12445 0.16095 -0.13128 0.00077 0.19797 -0.03372 -0.16019 -0.08075 -0.17186 0.05964 -0.11147 -0.19925 0.08133 -0.13457 0.12887 0.13243 -0.02635 -0.04702 -0.01638 0.02956 -0.12554 0.13310 0.04393 -0.14505 -0.12543 -0.00269 0.22190 0.00713 -0.00382 0.17234 0.06364 -0.01894 -0.14251 0.04311 0.03042 -0.05362 -0.17370 0.15965 -0.14627 -0.09611 -0.07757 0.00157 0.06746 -0.01338 0.21862 -0.13146 0.16728 0.00061 0.01756 -0.01227 0.01846 -0.21202 -0.13055 -0.00532 -0.12560 -0.09846 -0.03115 0.14610 -0.15355 0.01866 0.05887 -0.02753 -0.08830 0.14221 -0.09763 0.11499 -0.03681 -0.18959 0.01050 0.09313 0.15711 -0.00822 0.19432 -0.01388 0.15632 -0.02593 0.06009 0.02952 -0.09102 -0.14918 0.20189 -0.08427 0.09708 -0.03073 -0.03092 -0.16607 0.00430 0.12918 -0.03906 0.07842 0.00046 0.03249 -0.05210 -0.07692 -0.00392 -0.16636 0.18273 0.01929 -0.11820 -0.06643 -0.02457 -0.12178 -0.08397 0.10121 -0.02067 -0.06217 -0.16180 -0.07865 0.13020 0.01455 -0.06102 0.17873 0.06813 -0.12986 -0.05118 -0.10484 0.15796 -0.07219 0.05076 -0.03429 -0.16557 -0.00831 0.18392 -0.08048 0.01055 0.10463 -0.08439 -0.07002 0.02253 0.18346 -0.05230 -0.09910 0.02964 -0.05018 0.08792 0.15377 0.10188 0.05900 0.04902 -0.04047 -0.09109 0.12107 -0.14321 -0.13066 -0.11727 0.04316 0.02784 0.02534 0.08568 0.05210 0.02870 0.16926 0.02793 -0.02083 -0.07562 0.15385 -0.11053 0.17422 -0.10203 0.13094 0.18025 0.14190 -0.12120 0.03645 0.05754 0.09861 -0.13525 -0.21360 -0.15270 -0.02458 -0.11097 0.15226 0.08635 -0.17303 -0.09113 0.05565 -0.03232 -0.19926 0.03586 0.00047 0.16194 -0.14162 0.06237 0.16673 0.12490 0.07812 0.19479 0.13574 -0.05217 0.10150 0.06386 -0.07184 -0.07953 -0.02493 -0.09525 -0.10494 -0.17777 0.19401 -0.15570 0.05726 -0.15528 -0.06279 0.00816 -0.16005 -0.03536 -0.01927 0.11769 0.15918 -0.11784 0.02044 -0.06743 -0.12133 -0.20095 -0.04628 0.15032 -0.06341 0.14231 -0.08578 -0.14420 0.05997 -0.12065 -0.18788 -0.16199 -0.14621 0.10097 -0.13829 -0.13309 -0.06802 0.16408 0.01813 -0.07835 0.02005 0.04908 0.02597 -0.04733 -0.18747 -0.01269 0.00430 0.18817 -0.09949 -0.17697 -0.18084 0.12948 -0.12118 -0.19006 0.07851 -0.16762 -0.05099 -0.18845 -0.03737 -0.14704 0.10243 0.10586 -0.11214 0.02075 0.00753 0.13453 -0.11527 -0.13660 0.08444 -0.18454 -0.16573 0.00410 0.15564 -0.15621 0.02321 0.05293 -0.07882 0.03333 0.01996 -0.07833 -0.03963 0.17516 -0.04539 0.02928 0.11685 -0.05506 0.14252 -0.10877 -0.02459 -0.00716 0.14516 -0.02387 0.13630 -0.09871 0.07037 -0.09514 -0.05569 -0.19203 -0.03972 0.21458 0.08323 0.08183 -0.03607 0.15960 -0.12601 0.08268 -0.19118 0.11080 -0.14112 -0.00416 0.04037 0.08068 0.17357 -0.14037 -0.19652 0.04200 0.20777 -0.01533 -0.07599 -0.10792 0.09425 0.00097 0.02726 0.11876 0.06273 -0.09100 0.15241 0.13877 -0.03687 0.09086 -0.00386 0.16377 -0.15978 -0.03609 -0.14682 0.15003 -0.08941 -0.20361 0.07078 -0.06457 0.10335 0.14721 -0.07799 0.09897 
0.99573 0.99853 1.00969 0.98508 0.96965 0.99232 0.97974 1.01156 
0.00661 -0.01245 0.00110 -0.03551 0.02957 0.00891 -0.01107 -0.01964 
0.12282 -0.34133 0.04419 0.11062 -0.19384 -0.08653 -0.17328 -0.18229 
0.23834 0.36434 0.19474 0.65038 0.41036 0.51850 0.34849 0.55826 
0.21341 -0.00063 0.14940 -0.11602 -0.03329 -0.07260 0.04796 -0.13006 0.03246 0.15800 0.16327 0.09228 0.09546 0.03860 -0.00939 0.05154 0.03179 0.13123 -0.03376 0.17795 -0.09345 0.16179 0.22883 -0.16502 0.05484 -0.17849 -0.16882 0.00466 -0.15641 -0.05144 0.01313 0.06156 -0.08026 0.06775 0.09089 0.20580 0.09107 0.11641 0.01561 0.14348 -0.10356 -0.12920 -0.01720 0.01302 0.02862 -0.02242 0.03275 -0.00600 0.16964 -0.05362 -0.05676 0.04829 0.15481 0.12973 0.12619 -0.09140 0.04287 0.18720 0.14775 0.00017 0.01581 0.01404 0.00242 -0.07733 0.02841 -0.04577 -0.16825 0.19190 0.07239 -0.06854 0.21942 0.03588 0.14211 0.06679 0.06409 0.04664 -0.03369 0.14921 0.15515 0.04318 0.00442 0.21945 -0.19310 -0.16036 0.23210 -0.00889 0.05785 0.05187 0.00962 -0.02550 0.13200 -0.07850 0.01539 -0.09889 -0.10380 0.08057 -0.07660 -0.17395 -0.03931 -0.12440 0.05331 -0.01907 0.04548 0.17560 -0.15380 -0.19334 0.03094 -0.20098 0.10332 0.11348 -0.01807 0.09290 0.02402 -0.14139 0.07693 -0.08427 -0.13417 -0.07885 -0.03791 -0.17654 -0.18488 -0.09685 -0.01119 -0.02615 0.07071 -0.17153 0.00365 0.08401 0.22969 -0.12408 0.13853 -0.05152 -0.11315 -0.08916 -0.18129 0.18951 -0.00750 0.14742 0.10998 0.17693 -0.05463 0.06321 0.21054 -0.13261 -0.00968 -0.13425 -0.15898 0.22082 -0.02741 -0.06329 -0.13534 -0.04706 -0.01478 0.09185 -0.12275 0.15073 0.05171 0.15613 0.15810 -0.18620 0.01437 -0.07129 -0.18277 0.20330 -0.00934 -0.13166 -0.08210 -0.17073 0.07258 0.03470 -0.11557 0.11592 -0.10914 -0.16876 -0.18873 0.07215 -0.12181 0.03539 -0.14723 0.04407 -0.06698 0.10620 0.15960 0.06542 0.21968 -0.03584 -0.19473 0.18672 -0.05584 -0.10442 -0.06416 -0.09428 -0.14059 -0.07493 -0.00578 -0.18740 -0.08179 -0.15340 -0.04367 0.07150 0.15000 0.11172 -0.01833 -0.08190 -0.03104 0.10517 -0.17219 0.05840 0.14730 0.05717 0.15270 0.09811 0.05374 -0.05803 -0.13661 0.15879 -0.19270 0.17135 0.15215 -0.06116 0.20389 -0.01904 -0.00217 0.16985 -0.16404 -0.18786 -0.07121 -0.00466 -0.19880 0.17161 0.06098 -0.20493 0.21563 -0.14917 0.03165 -0.10726 0.04867 0.02136 0.01612 -0.17576 0.18365 0.12455 0.20006 -0.06178 -0.04380 0.09425 0.01516 0.11339 -0.03068 0.07702 0.07545 0.17959 0.03957 -0.01815 0.09245 -0.15540 -0.09743 -0.01027 -0.01014 -0.15847 0.06719 0.06563 -0.01505 0.04812 -0.00271 -0.11049 -0.17406 0.10843 0.15176 -0.22957 0.15952 0.01066 -0.14278 0.01615 0.04482 -0.09012 -0.01069 -0.06031 0.00147 -0.06799 -0.10950 0.03466 0.16875 0.14631 0.08875 -0.14966 0.02675 0.08430 0.09579 0.07596 -0.22246 -0.01722 0.07908 -0.06393 -0.14679 0.11002 0.02052 0.00866 -0.11725 -0.16996 -0.10546 -0.01658 0.14671 -0.17571 0.16096 -0.14602 -0.17390 -0.10476 0.09204 0.07068 -0.09370 0.12844 0.13788 0.08516 -0.16563 0.11951 0.13444 -0.10393 0.19704 0.03173 0.01245 -0.13334 0.08648 0.02784 -0.17822 -0.02959 0.10754 0.10971 0.10176 -0.14492 0.10715 0.13335 0.14836 -0.05339 -0.13895 0.21632 -0.06061 -0.12840 0.07293 0.17626 0.08808 -0.11023 0.15704 -0.12777 0.20919 -0.12107 -0.10098 -0.10872 0.16954 0.03085 -0.14160 0.09017 -0.24196 -0.03375 -0.00772 -0.12408 -0.18257 -0.06331 0.03198 -0.02300 0.01852 -0.04870 -0.18001 0.04201 -0.12883 -0.17332 -0.02486 -0.00785 0.08788 0.00755 -0.16772 0.13286 -0.12880 -0.18563 0.20512 -0.11712 0.04276 0.07836 -0.20630 -0.05087 0.17667 -0.12616 0.05377 0.20780 0.09583 -0.11027 -0.15068 0.11019 -0.01564 -0.08939 -0.07199 0.12880 0.09419 0.21593 -0.17079 -0.02678 0.07902 -0.14627 -0.03453 -0.00436 0.16093 -0.02452 0.08449 -0.22696 0.00449 -0.06247 0.00712 0.17969 0.03925 0.17045 -0.04160 0.04569 -0.12119 0.14523 -0.14748 0.11760 -0.10730 -0.14229 0.12734 0.19223 -0.19761 -0.11815 0.06414 0.19729 -0.15837 0.16377 -0.19463 -0.05446 0.07573 -0.08184 -0.02709 0.19037 -0.03945 0.03182 0.13806 -0.02423 -0.07981 0.17049 -0.21649 0.00088 0.07768 0.15217 -0.05303 0.05047 -0.00606 0.21470 0.16609 -0.09113 0.16083 -0.10569 0.02121 0.12188 0.13396 0.11361 0.00138 -0.20768 -0.01141 -0.14587 0.02389 0.05621 -0.18968 0.02443 -0.17957 0.19858 -0.15342 0.05976 0.22520 -0.18076 0.04552 -0.04762 -0.10417 -0.07712 0.04988 0.14039 0.16999 -0.09017 -0.04945 0.06143 0.01809 0.00665 -0.17976 -0.18346 -0.08663 -0.15621 0.07308 0.15727 0.06873 0.19674 0.05246 0.12393 -0.06273 0.15146 -0.22001 -0.13911 0.00530 0.17037 0.11116 -0.16332 -0.07993 -0.00234 0.04183 -0.19315 0.13951 0.05974 0.10416 0.16124 -0.06564 -0.13479 0.19693 -0.01898 -0.16902 0.11816 -0.02864 -0.06353 0.13211 -0.00547 -0.17391 0.13541 0.13095 0.17050 -0.20470 0.02785 0.19168 -0.18485 0.11582 0.14315 -0.08386 -0.07428 -0.10634 -0.02262 0.00097 -0.14170 0.08618 0.10607 0.07640 -0.11972 0.04180 -0.20768 0.12264 0.14626 0.01930 0.11233 0.06508 -0.11222 -0.04812 0.00932 0.19702 0.03503 -0.01841 0.15897 -0.19781 -0.20403 -0.17954 -0.14017 -0.01626 0.00429 0.08612 0.02416 0.01472 -0.04948 0.17460 -0.13029 0.10587 -0.12638 0.16680 -0.12910 0.00042 0.10141 0.00202 -0.21170 0.16567 -0.17802 0.12709 -0.17102 -0.06650 -0.15958 
0.98270 1.01584 0.98841 0.98558 1.01030 1.00565 0.98208 1.01653 
-0.01729 -0.00993 -0.01744 -0.01428 0.00910 0.01181 0.03838 0.01582 
0.26155 -0.54753 -0.23171 -0.00976 0.27998 -0.40438 0.36285 0.48625 
0.72652 0.50405 1.01830 0.37940 0.36023 0.70026 0.51411 0.54930 
0.07640 -0.00760 0.06184 -0.06473 -0.03067 -0.10831 -0.09954 0.18319 -0.18202 -0.05027 0.08827 -0.13106 -0.02981 0.20258 -0.16090 0.09905 0.13049 0.12939 -0.17269 0.11451 0.01405 0.00170 0.16321 0.07352 0.01564 -0.12420 -0.16467 0.14987 -0.19000 0.11364 0.08714 0.11751 -0.19448 -0.03239 -0.01240 0.11093 -0.04339 0.19021 0.10814 0.07273 -0.20994 -0.07878 -0.05687 -0.13489 0.08608 -0.06303 0.04876 -0.15005 0.16540 0.03067 -0.04473 -0.03055 0.10894 0.05526 0.04077 -0.00557 -0.04542 0.05510 0.11698 0.11600 0.08449 0.06618 -0.03075 -0.03741 0.11887 -0.14251 0.02303 0.06094 0.08918 -0.14090 -0.17032 -0.09193 0.15461 0.16292 -0.02850 0.19043 -0.10131 -0.01920 0.01664 0.15902 -0.16610 0.17038 0.11973 0.03228 0.00556 0.06133 -0.00397 0.03855 0.10818 -0.15983 -0.11208 -0.13451 0.00992 -0.05861 -0.01300 -0.00762 -0.00182 0.06435 -0.19198 -0.01827 0.01933 -0.08386 0.15877 0.15373 -0.01337 0.08617 -0.08476 -0.15636 0.15901 0.04807 -0.08198 0.13148 -0.07897 -0.01666 0.12872 -0.16977 0.06733 0.08480 0.22721 0.10743 0.09704 0.15435 -0.01524 0.08496 -0.11375 -0.17361 0.14733 -0.02937 0.09410 0.07946 -0.11617 0.17568 -0.16953 -0.10274 0.04844 0.09461 -0.08768 0.11361 -0.08668 0.04958 -0.12608 -0.01726 -0.16111 -0.13876 0.08072 -0.09987 0.11649 -0.00967 0.06939 -0.06235 -0.08592 -0.02667 0.03870 -0.09596 -0.04630 0.14499 -0.07586 0.04401 -0.08554 0.11678 -0.11581 -0.04647 -0.08974 0.08983 0.07606 -0.18880 0.04648 0.18862 0.08107 0.00306 -0.04157 0.05422 -0.14529 -0.10115 -0.19331 -0.04381 0.14052 -0.16571 0.08322 0.10984 -0.00003 0.05303 -0.04253 -0.07572 -0.11399 -0.05195 -0.01043 -0.19617 -0.06015 0.04196 -0.17960 -0.10406 0.09976 0.02717 0.12236 0.00441 -0.03890 -0.15179 0.07768 -0.12534 0.11305 -0.02031 -0.19560 0.10383 -0.03371 -0.05402 0.03820 -0.13866 -0.07070 -0.11239 -0.10013 -0.05597 -0.17285 -0.09949 -0.11084 0.07784 -0.20063 -0.14075 0.01937 -0.15086 -0.06214 0.15924 0.07926 -0.09580 0.19337 -0.09111 -0.15652 0.01314 -0.12852 0.05515 0.00852 0.20184 0.00751 0.14623 -0.02917 0.05586 -0.02191 -0.09422 0.00523 -0.07657 -0.14340 -0.05096 -0.11493 -0.15553 -0.02975 -0.16049 0.17045 -0.21430 -0.04735 0.14641 0.07489 0.03593 0.08689 -0.07843 -0.10135 -0.07582 0.06102 -0.01324 0.14021 -0.21685 0.15333 0.02525 -0.02237 -0.22131 -0.02597 0.14883 0.09164 0.05111 -0.06741 -0.03115 -0.11441 -0.13310 -0.18192 -0.11475 0.16047 -0.14832 0.16720 -0.11900 0.19082 0.13440 -0.01125 0.08751 -0.16243 0.01396 0.17530 0.08206 0.05289 0.18915 0.09691 0.10895 0.00897 -0.07788 0.17138 -0.05085 0.19894 -0.03989 -0.11900 0.06330 -0.10342 0.00106 0.19045 -0.07743 0.07490 0.10663 -0.03454 -0.15086 -0.09952 0.00385 0.07963 0.16713 0.05671 0.15702 -0.10570 -0.10095 0.10796 -0.02607 0.11886 -0.00278 0.13317 0.02748 0.14706 -0.17640 -0.15998 0.05543 0.09343 -0.03795 0.03088 0.13006 0.13691 -0.01320 0.03840 -0.16424 0.06697 0.03026 -0.15331 0.05632 -0.08420 0.06551 0.02858 -0.01143 -0.11523 -0.11933 0.09930 0.12137 0.00528 0.13421 -0.02491 -0.14846 -0.19779 -0.08882 0.13005 -0.14583 -0.18051 0.16147 -0.04074 0.00144 0.11975 0.15684 -0.06772 0.13397 0.09820 -0.14621 -0.08848 0.11706 0.04826 -0.00906 -0.14242 0.09379 -0.15450 -0.02870 -0.05053 -0.10983 -0.14607 0.03728 -0.07079 -0.11248 0.19103 0.04547 0.19106 0.07521 0.14854 -0.16699 -0.18638 -0.15583 0.01572 0.19864 0.03890 -0.15874 -0.11301 0.07907 -0.18226 0.09894 -0.01384 0.04211 0.05917 0.22121 -0.17340 -0.12969 0.09455 0.13020 0.04878 -0.15032 -0.04130 -0.16373 0.02287 0.18306 -0.10046 -0.18721 0.11683 0.01168 -0.09240 0.13517 0.06715 0.20084 -0.09059 0.15524 -0.03419 0.06813 -0.16220 -0.07300 -0.07235 -0.06771 0.08199 -0.15178 0.00531 0.06431 0.06839 -0.03221 0.02155 -0.08011 0.12344 -0.00163 0.13370 0.09610 -0.01262 -0.11872 -0.13715 -0.19149 0.13355 0.08056 0.05011 -0.00436 0.10302 -0.11116 -0.01385 0.12604 -0.16073 0.22855 0.02165 0.13181 -0.12799 -0.13189 0.19455 -0.05279 -0.05793 0.06773 -0.17179 0.17514 -0.26170 0.15479 0.17308 -0.06151 -0.11349 0.16280 0.09289 -0.07281 -0.02868 -0.08117 -0.18813 0.12839 -0.10173 0.01569 0.15877 0.08846 -0.18616 0.05553 -0.01178 -0.01139 -0.16758 0.09490 0.08221 0.21186 0.00817 0.04446 -0.00131 -0.01610 0.07538 -0.16828 0.05142 -0.01037 0.08422 -0.11050 0.20633 -0.00411 -0.08756 -0.18798 -0.15845 0.14462 0.18064 -0.14872 -0.04850 -0.14298 -0.09274 0.19152 0.02772 0.13147 -0.19330 -0.01048 -0.16612 -0.14824 0.06884 0.06058 -0.12656 0.02026 0.18305 -0.07490 0.00306 -0.18131 -0.12273 -0.06244 0.16429 0.15902 0.13905 0.03916 -0.18009 0.18638 -0.01961 -0.00545 -0.13503 0.14107 -0.08522 0.02968 0.11652 0.08981 0.05258 0.19286 -0.09435 0.03577 0.12918 -0.11598 0.13874 -0.01480 -0.05939 0.16900 0.00023 -0.00161 0.06749 -0.09778 -0.16940 0.13714 -0.04102 -0.18691 -0.08517 -0.08144 -0.10608 -0.06302 0.16796 0.08999 -0.02714 -0.08046 -0.08394 -0.09774 -0.05388 -0.05825 0.09276 0.09853 -0.02693 0.01585 0.02853 -0.06648 -0.06076 0.10593 -0.10300 -0.16671 0.14286 0.19574 
0.96946 0.97823 1.03839 1.02180 0.97590 1.00539 1.00132 0.97215 
-0.02382 -0.03989 0.00181 0.01012 0.01386 -0.00132 -0.01526 -0.01434 
-0.01102 0.23511 -0.29927 -0.30447 0.11865 -0.17497 -0.11065 0.39772 
0.32500 0.33718 0.20233 0.59922 0.43260 0.56183 0.27323 0.40353 
0.17207 -0.01741 -0.12044 0.08170 -0.08719 0.05503 -0.09059 -0.22989 -0.18882 -0.08791 0.01593 0.05808 0.00948 0.08819 0.01860 -0.18727 -0.15390 0.18889 0.02242 -0.19707 0.10734 0.05176 -0.13869 0.15187 0.23116 -0.11870 0.10273 0.15547 -0.06179 0.16282 0.02508 -0.05436 -0.10086 -0.05870 0.03516 0.18573 0.11581 -0.09866 -0.15413 -0.09815 -0.09543 0.15467 -0.13133 -0.00238 0.11229 0.11355 0.02507 0.07172 0.00755 0.17874 -0.02638 0.10513 0.16096 0.00241 -0.00745 -0.04394 -0.07568 0.10653 -0.07965 0.09341 0.00735 0.14474 -0.00680 -0.02678 0.11182 -0.17445 0.08212 0.07532 0.06978 -0.10000 -0.08261 -0.13076 0.12296 -0.12013 0.14937 0.07848 -0.18879 0.04084 0.07247 -0.16474 0.00091 0.16901 -0.12917 0.12543 0.07524 0.18789 0.09293 -0.17786 -0.14325 -0.06720 0.13407 -0.17923 0.14977 0.15890 0.14594 -0.04743 -0.06083 -0.10118 0.15340 0.15125 -0.03224 0.00862 -0.05839 0.02232 -0.07831 0.12521 0.16415 0.09653 0.15241 -0.14223 -0.03843 -0.10759 -0.04285 -0.11986 -0.16093 0.10951 -0.16864 0.11718 0.25788 0.11855 -0.18509 -0.09136 -0.18259 -0.11458 -0.11811 -0.06063 -0.06411 -0.16021 0.08131 -0.08365 0.01458 -0.14311 -0.05667 0.13041 0.06335 -0.07795 0.16638 0.12862 -0.03740 -0.15520 0.10030 0.00330 0.13235 -0.00324 0.09300 0.01945 -0.02382 0.02338 -0.16960 0.09893 -0.10866 0.20422 -0.00952 -0.07567 -0.03196 -0.10149 -0.03032 0.13959 -0.09418 -0.17769 0.20954 0.13480 -0.03842 -0.19870 -0.03289 -0.20378 0.10748 0.16577 -0.02100 0.15486 0.06346 0.15904 -0.16602 -0.04832 0.12997 0.16952 -0.08996 0.01010 0.06155 0.09728 -0.16095 0.03164 -0.09746 0.12462 0.10560 0.13953 -0.22326 0.15554 0.05777 -0.05654 0.05787 0.06274 0.06277 -0.15501 0.08154 0.05615 -0.08716 -0.24621 -0.09803 0.15303 0.19875 0.00025 -0.17616 0.03028 -0.09773 -0.07878 -0.00129 0.15604 -0.19871 -0.09116 -0.24439 -0.05672 0.03688 -0.22736 0.20099 0.23355 0.15454 0.07895 0.03112 0.07969 0.06061 0.00651 0.11285 0.03993 0.01048 0.10690 0.00887 -0.18664 -0.05240 0.15398 -0.19255 -0.19964 0.01611 -0.08662 -0.14347 -0.17957 -0.06106 0.13929 0.15585 0.16057 0.08498 -0.02455 -0.07429 -0.09002 -0.11245 0.06516 0.20171 -0.13789 0.02908 -0.14047 0.07176 -0.11627 -0.21922 0.18044 -0.00467 0.08131 -0.00613 -0.17861 0.15676 0.08090 -0.06334 0.12987 0.06993 -0.10171 0.10693 0.19999 -0.11441 -0.04906 -0.05007 0.16915 -0.04699 -0.06113 -0.11057 -0.13554 -0.11150 -0.19502 -0.01701 0.02669 -0.06619 0.05626 0.02728 0.09252 -0.06131 0.22562 -0.11526 0.14094 -0.03259 -0.00028 -0.13058 0.03901 -0.02542 0.06608 -0.10616 -0.20171 -0.04384 0.08224 -0.23303 0.10963 -0.05744 0.09662 -0.01498 0.03527 0.20445 0.01051 0.12047 0.02842 -0.11203 -0.01529 0.07963 0.09816 -0.19735 -0.15279 -0.16933 0.06185 0.11807 0.04876 -0.11553 0.01847 0.14994 -0.23701 0.02158 -0.17764 0.20456 -0.09077 0.06614 -0.16069 -0.09389 0.10792 -0.16900 0.03359 0.04116 0.18202 -0.08897 0.05773 0.18191 0.10548 -0.16637 0.16396 -0.06473 -0.08096 0.09164 0.06347 0.19855 0.07707 0.02645 0.06341 0.18544 -0.02630 0.02125 -0.13946 0.17619 0.17918 -0.18727 0.14986 0.04007 -0.00587 -0.03796 -0.12620 -0.08098 -0.18519 -0.20223 0.15875 -0.12986 -0.08089 0.19674 -0.00873 0.08854 0.08184 0.16371 -0.11044 -0.12198 0.04159 0.12933 -0.10653 -0.12196 0.09342 0.12355 0.01829 0.12876 0.01347 0.01506 -0.15945 -0.10296 -0.04777 0.05307 -0.20310 0.10826 0.18509 0.15260 -0.05637 0.04686 0.01792 0.06353 0.15501 -0.04278 -0.11902 0.03736 -0.02691 -0.03727 -0.11457 0.06122 -0.09450 0.10209 -0.08623 0.22998 -0.18908 0.20030 0.11645 -0.13344 0.09335 -0.11453 -0.09411 -0.07046 0.14795 -0.10544 -0.03353 -0.12339 0.09723 0.16765 0.04994 0.00504 -0.15987 -0.04718 -0.02691 0.06588 0.12051 0.16710 -0.08091 -0.02006 0.10900 -0.14563 0.12063 -0.00616 0.03971 -0.11294 0.01170 0.12564 -0.14772 -0.20732 -0.18419 -0.18520 -0.18900 -0.12012 -0.04624 -0.05084 0.17772 -0.02214 0.13681 -0.14858 0.16493 -0.10178 -0.19656 0.15873 -0.12604 0.06352 0.19387 0.20971 -0.09644 -0.09706 -0.03663 0.19947 -0.00961 0.18980 -0.12085 -0.03936 0.05234 -0.03584 0.07403 0.17142 0.08316 -0.11303 -0.09404 0.17575 -0.15555 0.01634 0.08387 0.05575 0.03236 -0.04089 -0.08288 -0.01591 0.08513 -0.09123 -0.16443 0.13505 0.04487 0.08163 0.06133 0.11187 0.10987 0.08360 -0.11350 -0.19314 -0.09363 0.16150 0.01699 -0.10380 0.01097 0.14190 0.15369 -0.19903 0.13441 0.11830 -0.00697 -0.13564 0.05369 -0.13223 -0.04753 0.15135 -0.00336 -0.11432 -0.01285 0.19236 0.08849 0.04407 0.05804 -0.14976 0.08767 0.09183 -0.15599 -0.00289 0.13718 0.14725 -0.11235 0.04403 0.16694 -0.02887 -0.01891 -0.13985 0.14276 -0.13793 -0.11604 -0.08547 -0.12005 -0.15993 -0.08636 0.16159 -0.02868 0.09080 -0.15198 -0.13725 0.19008 0.07457 0.16894 0.11397 -0.16093 -0.01707 0.15519 -0.11385 -0.05509 -0.04499 0.06879 0.04453 0.17082 -0.03805 0.08244 -0.11193 -0.03386 0.03909 -0.12685 -0.10675 -0.17593 -0.05641 0.15994 -0.08740 -0.10311 -0.07273 -0.02715 0.08948 0.02692 -0.04903 -0.07619 -0.11862 -0.04365 0.07153 0.18127 
0.95672 0.96657 0.96889 1.00135 1.00437 1.04684 1.00186 1.00628 
-0.03040 -0.04203 -0.02737 -0.01109 -0.00222 -0.00718 -0.01402 0.00746 
-0.40926 0.56803 -0.34465 0.06309 -0.45687 0.29014 0.57774 -0.11922 
1.40050 2.62082 0.71499 0.89926 0.82532 0.87572 1.38933 1.10007 
0.00191 0.08503 0.17664 -0.12669 -0.06625 0.18490 0.05490 -0.01932 0.08052 -0.06032 0.02065 0.12044 -0.06260 0.06174 0.03297 0.11849 0.03605 0.16813 0.11381 0.01783 -0.06478 -0.09372 -0.14536 -0.14279 0.23576 -0.13560 0.06869 0.04849 0.09427 0.14320 0.01038 -0.07615 0.08901 -0.02737 -0.10709 -0.04126 -0.19079 -0.12063 -0.01599 -0.09225 -0.14289 0.19954 -0.01895 0.06311 -0.14393 -0.06335 0.06255 0.21264 0.00600 0.13092 0.18904 -0.02097 -0.14321 -0.16220 -0.19115 0.04278 -0.06093 0.18435 0.04818 -0.01190 -0.08212 0.02361 -0.12855 0.09911 -0.01220 -0.13222 0.11966 0.14933 -0.07055 0.19107 -0.17973 0.17073 0.17964 0.06353 -0.19444 0.15158 0.12778 -0.06601 0.06878 -0.19077 0.02443 -0.07486 -0.14134 -0.06704 -0.19557 -0.14882 -0.15818 -0.00005 0.01357 0.00591 -0.12896 -0.12453 -0.08687 0.09587 0.05545 0.14376 0.10139 -0.03089 0.08820 0.06152 -0.19209 -0.10792 0.00958 0.12099 0.11280 -0.17877 0.18853 -0.07086 -0.02781 -0.08012 0.22435 0.15715 0.10153 -0.14492 -0.04985 0.02883 -0.06554 0.08813 -0.07333 0.14267 -0.13268 0.02769 -0.01183 0.02608 -0.11389 0.10068 -0.00901 -0.16745 0.16051 -0.06935 0.16386 0.11498 -0.01395 0.02595 -0.08944 -0.11180 -0.04160 0.16306 -0.01153 -0.05811 -0.10822 -0.15660 -0.00559 0.16948 0.13297 0.01550 -0.04977 0.09029 -0.13625 -0.20334 0.04513 -0.18247 0.00990 0.10974 -0.17687 0.11824 0.03920 0.18620 0.17083 -0.12563 0.13291 -0.18813 -0.17374 0.13366 0.07215 0.05270 0.18711 0.05363 -0.03568 -0.20089 0.21702 0.15137 -0.06543 -0.17167 -0.10814 -0.18450 0.14820 0.01688 -0.07148 -0.14655 -0.01684 0.10981 0.09452 -0.06575 0.13196 -0.19205 -0.04738 -0.19087 0.14176 -0.07588 0.07617 0.14343 -0.19871 0.18752 -0.11537 0.14761 0.13770 0.06483 -0.07007 -0.05105 -0.03613 -0.15961 0.08443 0.14239 -0.13209 0.11541 0.07874 -0.11795 0.08386 -0.11568 -0.08596 0.14122 -0.00254 -0.10722 -0.10266 0.07342 0.08448 0.06431 -0.07183 -0.05221 -0.12726 -0.02940 -0.17210 0.01344 -0.01182 -0.14189 0.12559 -0.10483 0.05477 0.04429 -0.04992 0.02971 -0.06125 0.03479 -0.13312 0.05365 -0.09011 0.03537 -0.02205 0.09028 0.11832 -0.19923 -0.04174 -0.20323 0.00479 0.08416 -0.07941 0.14138 -0.23176 0.07164 -0.16254 -0.08466 -0.23469 0.10770 0.06833 -0.09718 -0.10153 -0.11757 0.02334 0.13268 0.01529 -0.05017 0.05330 -0.04290 -0.11584 -0.06322 0.13970 -0.15784 -0.12573 -0.04749 -0.22731 -0.07407 -0.17220 0.13630 0.05773 -0.00817 0.00131 0.06211 0.00103 -0.02983 0.06144 0.10507 0.15267 -0.15286 -0.12064 0.08643 -0.08604 -0.13020 -0.09776 0.05155 -0.12566 -0.14078 -0.11425 0.19135 0.01925 -0.04692 -0.05326 -0.05073 -0.13858 -0.06574 0.19646 0.07770 -0.08092 -0.17858 0.07590 -0.15720 -0.12464 -0.13371 0.10121 0.11309 0.13871 -0.17950 -0.11254 0.22429 -0.09396 -0.19964 -0.10036 0.10820 -0.09265 -0.09860 -0.16919 -0.02688 -0.06050 -0.13705 0.17254 -0.13183 0.15864 -0.13867 0.08428 -0.18811 0.07783 0.20856 0.12585 0.14575 -0.06934 0.17567 0.17572 -0.11806 0.03874 -0.08524 -0.02274 -0.00747 -0.15832 0.04332 -0.13387 -0.01254 -0.19135 0.03911 -0.04960 0.12235 0.06909 0.14180 -0.01333 -0.01177 -0.14104 -0.11795 -0.11419 -0.19613 0.15045 0.08504 -0.07430 0.20173 -0.03078 -0.15560 -0.12249 0.08231 -0.19373 0.03331 -0.12555 0.03183 0.01217 -0.02251 0.09169 -0.10847 -0.10688 0.02398 0.02869 0.03541 0.18983 -0.03910 0.20459 -0.04491 0.16144 -0.03586 0.19488 0.06294 -0.03685 -0.09058 0.08633 -0.03076 -0.17955 -0.11647 0.11739 -0.00822 -0.09525 0.13962 -0.13153 0.09244 -0.03844 0.10081 0.08330 0.18980 -0.01116 -0.05856 0.08156 -0.11560 -0.00985 0.02982 -0.10520 0.15860 -0.08511 -0.18990 -0.11389 -0.19554 -0.16486 -0.18385 0.19861 -0.02959 -0.14505 0.11529 0.13707 -0.12929 -0.02518 -0.08686 0.12345 -0.12054 -0.11807 0.06084 -0.09995 0.07527 -0.18382 -0.15552 0.02783 0.05955 0.10944 0.13207 0.03614 -0.16539 -0.02384 0.14515 0.13284 0.08917 0.09360 0.04309 0.10413 -0.05090 0.11211 -0.10952 -0.02286 0.02896 -0.00543 0.10395 -0.18359 -0.05483 0.15857 0.10692 0.14873 0.15547 0.00033 -0.13847 -0.09790 -0.11755 0.16054 -0.08690 -0.15225 -0.00190 0.22570 -0.20860 0.19451 -0.10193 -0.13688 -0.20204 0.02191 0.17084 0.21229 -0.07781 -0.12455 0.00763 0.11989 0.10712 -0.12754 0.04825 -0.07187 0.12456 0.15891 0.16325 0.10442 0.13050 0.07669 0.06505 0.15289 0.00425 -0.01062 -0.13740 0.10844 0.19857 -0.16993 -0.06418 -0.03778 -0.18159 0.22292 -0.05560 -0.07898 0.03356 -0.13782 0.02934 0.12362 0.06224 0.15850 -0.17166 -0.15213 -0.04941 0.10071 0.17000 -0.00290 0.07990 -0.21205 -0.18162 0.03169 0.19431 -0.01474 0.18365 0.15582 0.05207 -0.16081 0.04072 0.14256 -0.05041 0.17226 0.10342 -0.03195 0.12996 -0.14676 0.07699 -0.12802 0.12679 0.06740 0.08138 0.16160 -0.18331 -0.13619 0.14330 0.06222 -0.07298 -0.13354 0.05100 -0.09481 0.13249 0.17010 0.17200 0.05607 -0.17363 0.07745 -0.17117 -0.17553 0.09041 -0.16921 0.14517 -0.04868 0.17109 -0.02858 -0.10242 0.01617 -0.03241 -0.00193 -0.02771 -0.12147 -0.14654 -0.02724 0.03110 -0.17114 0.02525 -0.06179 -0.01544 -0.09160 0.15938 
1.01304 1.02542 0.98417 1.00106 1.02746 0.99250 1.02742 1.00248 
-0.02796 -0.02147 -0.00712 0.00945 -0.00923 -0.03460 -0.01580 -0.00650 
0.08693 0.11281 -0.01380 -0.19656 -0.40787 0.06449 -0.17664 -0.00873 
0.23994 0.39112 0.35802 0.32705 0.27143 0.19232 0.31009 0.31203 
-0.14659 0.10554 0.07843 0.01223 0.16618 -0.14630 -0.10445 0.18511 -0.16736 -0.02898 -0.12007 -0.09137 -0.16003 -0.04072 -0.09887 -0.02696 -0.04402 0.10126 -0.14226 0.13027 0.04599 -0.08326 -0.01135 -0.03031 0.01007 0.03347 0.12995 0.08488 -0.06003 -0.02931 -0.09061 0.02197 -0.06337 -0.17403 0.21299 0.02704 0.07383 0.09331 -0.18470 -0.04752 -0.06390 0.00112 0.15342 0.00502 -0.01183 0.01203 -0.05940 0.03500 0.06109 0.14473 -0.17557 0.08786 0.07272 -0.06739 -0.07064 0.07276 0.19057 -0.16794 0.08977 0.01556 -0.10722 0.11915 0.14096 0.16544 0.01602 -0.06441 0.07513 0.04331 0.03884 0.04833 -0.09859 0.15715 -0.23868 0.14608 0.13809 -0.07969 -0.09431 0.08282 -0.01645 0.15937 -0.18543 -0.16861 -0.13517 -0.22840 0.09127 -0.14304 -0.04854 0.03815 0.19562 -0.19481 0.00670 0.13214 0.13604 -0.16091 -0.07009 -0.18998 -0.12819 -0.19643 -0.07634 -0.13225 -0.13612 0.03524 0.19462 -0.05927 -0.05080 -0.14697 -0.14082 0.18881 0.18035 0.01786 0.12049 -0.07448 0.10300 -0.10284 -0.15692 0.11510 0.16448 -0.20724 -0.11841 0.08019 -0.17434 0.04208 0.05436 -0.09413 -0.19106 0.04861 -0.19535 0.02085 -0.00823 -0.13868 -0.05831 0.04092 0.09751 0.06744 0.08310 -0.22667 -0.21021 0.07663 -0.08102 -0.12595 -0.10137 0.10425 0.14637 0.14201 0.05359 -0.05580 0.10105 0.02861 0.10350 -0.18828 -0.13898 -0.04463 -0.01397 -0.01257 -0.02727 0.13062 0.00324 0.18648 0.03770 0.13523 -0.14120 0.10420 0.18164 0.17448 -0.18055 -0.01528 0.01393 -0.14936 -0.11289 -0.06732 -0.15631 -0.04644 0.04084 -0.07882 -0.03739 -0.09889 0.17980 0.09794 -0.11142 -0.17087 0.16764 0.13911 -0.10896 -0.10187 -0.15388 -0.21874 -0.12637 -0.18406 0.18525 -0.13767 -0.14579 -0.27840 -0.09055 -0.14909 0.00936 -0.21102 -0.15832 0.10594 0.06260 -0.10282 -0.07904 -0.15698 0.02766 0.17533 0.02613 0.10294 0.09998 0.18342 -0.19287 0.06139 0.08660 -0.16318 0.10020 -0.18306 -0.15631 0.05071 -0.17566 -0.00870 0.04499 -0.03760 0.14955 -0.06320 -0.16872 0.01041 -0.09277 0.12794 0.05876 -0.14906 0.02438 -0.22224 -0.04768 0.10960 0.14515 -0.01799 0.15301 0.19736 -0.08424 -0.11862 -0.16954 -0.17386 -0.18596 -0.05423 0.10958 0.08466 0.04577 -0.17737 -0.15897 0.19236 -0.10651 0.00260 -0.13418 -0.14012 -0.16320 0.07544 -0.11633 0.01039 0.02230 -0.18923 -0.16024 -0.22093 0.01748 0.18253 0.15663 -0.09183 -0.00891 0.01443 -0.04663 -0.07406 -0.05868 -0.15453 0.15274 0.12386 -0.15057 0.12057 -0.18980 -0.12553 0.00542 -0.05135 0.17152 -0.09828 -0.11109 -0.10939 -0.13037 0.13621 -0.13952 -0.07992 -0.06917 -0.02413 -0.15984 0.00248 0.05049 -0.02970 -0.00485 0.20750 -0.08445 -0.12574 -0.17340 -0.06273 -0.05154 0.12900 0.17460 -0.13874 0.13728 -0.03278 0.00244 0.01001 0.13757 0.06138 0.04135 -0.17746 -0.22188 0.04882 -0.11399 -0.10722 -0.04526 0.05348 -0.14383 -0.00516 -0.04296 0.03409 -0.13703 0.12894 0.08977 0.15846 0.16717 0.00246 0.13231 0.13238 0.19747 -0.14063 0.10265 0.15996 0.04818 0.01206 0.05011 -0.04672 -0.07388 0.05866 0.12587 0.00246 -0.21181 0.15235 -0.08109 0.07930 -0.13170 0.05651 0.00885 -0.12237 -0.04475 0.12970 -0.14565 0.17603 0.00441 -0.17166 0.04573 -0.11575 -0.08957 -0.00256 0.16540 -0.14782 -0.06934 -0.19791 0.04534 0.17921 0.19827 -0.18602 -0.19686 -0.17076 -0.07462 0.00411 -0.01758 0.18145 -0.02272 -0.21912 -0.13740 -0.22868 0.04572 0.04613 -0.06663 -0.13712 -0.10554 -0.15547 -0.11456 0.13199 0.00808 0.00822 0.05585 0.19115 0.09819 0.07205 -0.02212 -0.07543 0.21645 -0.15822 0.15620 0.11153 -0.18653 -0.18965 0.00067 -0.05195 0.20992 0.11745 -0.04771 -0.08195 0.17059 0.04288 -0.13670 0.05007 -0.05979 0.03637 -0.20924 0.20295 -0.05386 0.04010 0.03190 0.03630 -0.20699 -0.16972 0.07809 -0.06061 0.07969 0.02593 -0.06227 0.13183 0.11949 0.09677 -0.17566 -0.08532 0.07602 0.13080 -0.05399 0.18484 0.08943 0.08327 -0.06599 -0.06282 0.06475 -0.16934 -0.11889 0.06479 -0.16448 -0.14660 0.18924 -0.15318 -0.04863 -0.06645 -0.13715 -0.03783 -0.10772 -0.12963 0.07954 0.04081 0.02493 -0.10345 0.07165 -0.02192 -0.06819 0.18755 -0.04931 -0.22976 0.22354 -0.00884 -0.16796 -0.15240 0.08948 -0.05622 0.19729 -0.06874 0.04642 0.19736 0.05121 0.14819 -0.01651 0.11301 -0.19558 -0.09860 -0.06260 0.13657 -0.07512 -0.01231 0.09023 0.02080 -0.13068 0.12433 0.06848 -0.08429 0.02419 0.16160 -0.09817 0.14090 0.20527 0.14244 0.09056 0.00682 0.00258 -0.21015 0.07572 0.00353 0.05224 -0.06701 -0.07087 0.09088 -0.12302 -0.01126 -0.07303 0.04042 -0.00847 0.00487 0.12879 -0.14624 -0.00011 0.03165 0.04997 -0.06936 -0.09314 -0.21440 0.14324 0.03003 -0.17293 0.18630 0.03118 -0.08245 0.12865 -0.09503 0.00230 -0.09297 0.10078 -0.01594 0.01334 0.01099 0.03023 0.13133 0.19485 0.17779 -0.19377 -0.17102 0.03846 0.06778 -0.04809 -0.14303 -0.18995 0.15870 -0.04684 -0.06741 0.13753 0.00588 0.11544 0.04248 -0.13972 -0.17482 -0.16389 -0.19204 0.01849 0.01150 0.20106 0.13146 0.09065 -0.00671 -0.10275 0.16484 0.02138 -0.02307 -0.01785 0.04635 0.11614 -0.16316 -0.20026 0.14141 -0.07133 -0.02404 -0.02487 -0.16892 -0.00105 -0.19170 -0.13138 -0.09529 
0.98014 0.99759 1.02001 1.01954 1.01480 0.97155 0.97783 0.98037 
-0.02319 0.00472 0.00294 0.03797 -0.01498 -0.01966 -0.02120 -0.02979 
-2.14743 -1.20221 0.33925 0.03601 0.80634 -1.01857 -1.96139 0.03353 
1.14906 1.18884 0.90508 1.35993 1.38089 1.56414 1.51939 1.49241 
-0.02055 -0.19085 0.07514 0.07992 -0.06968 0.20083 0.16771 0.00952 -0.16018 -0.00050 0.13157 -0.20904 0.05929 0.00097 0.13390 0.10161 0.05863 -0.10753 -0.16830 -0.01670 -0.15781 -0.04391 -0.08533 0.12300 0.19358 0.03948 0.01117 0.07232 0.11594 0.16609 -0.04927 0.15989 0.08660 0.16002 -0.06530 -0.09928 0.10914 -0.08816 0.11458 0.15079 0.11614 0.00191 -0.11969 -0.08842 0.01268 0.05922 0.02810 0.12849 0.01629 0.05346 -0.15640 0.16216 0.06375 0.03061 -0.08624 0.16171 0.11152 -0.05568 -0.11232 0.01657 -0.07190 0.09080 -0.09463 0.08286 -0.17434 -0.02902 0.09306 -0.02795 -0.17650 -0.11940 -0.10516 -0.11686 -0.10812 0.04628 0.00817 0.01515 0.19283 0.01549 -0.11363 0.01053 0.19630 -0.13470 -0.09283 0.21368 0.00553 -0.02997 0.06157 -0.24093 0.02222 0.22615 -0.01953 0.17201 0.12569 -0.19591 0.01239 -0.03215 0.13717 -0.17872 0.13456 0.09999 -0.13500 -0.14448 -0.18073 0.13763 -0.06285 0.17092 -0.09508 0.07210 0.11547 -0.13681 -0.13153 0.01721 0.15048 0.10530 0.20905 0.13507 -0.00864 -0.00259 -0.12460 0.13172 0.10522 0.10110 0.17810 0.01951 -0.07480 0.01398 0.09328 -0.17761 0.23654 -0.02855 -0.18623 0.14823 0.08858 0.03773 0.17827 -0.08170 0.06327 -0.05886 -0.09377 -0.07036 0.07970 -0.00102 0.05870 0.04715 0.00859 -0.18814 -0.14163 0.18365 -0.15055 -0.18030 0.05548 -0.06852 -0.04886 0.10009 -0.14994 -0.10488 -0.08042 -0.11372 0.13070 0.01265 -0.14048 0.04669 -0.12333 0.04360 -0.01052 0.19644 -0.14766 -0.18324 0.10463 0.12255 0.21196 -0.22255 -0.03537 0.14321 0.09627 -0.18835 -0.13045 -0.17419 0.06185 0.20975 0.15842 0.16318 0.07568 0.10186 0.06545 0.03017 -0.08244 -0.02203 -0.17596 -0.19362 -0.04727 0.00658 0.09880 0.12692 -0.09925 -0.01223 0.12634 0.08416 -0.11869 -0.04787 0.18882 0.00654 0.08074 -0.07182 -0.15996 0.03846 -0.19485 -0.15539 -0.02886 0.09932 0.05293 -0.13061 -0.06845 0.02372 -0.09967 -0.14882 0.18052 0.05769 -0.17145 0.14634 0.18613 -0.13552 -0.21326 0.03846 0.05325 -0.06222 0.00380 -0.05591 -0.21198 -0.11568 0.00666 -0.18910 -0.21436 -0.04950 0.10868 0.13490 0.04205 -0.12793 0.15187 -0.00099 -0.13679 -0.07534 0.13052 0.16503 -0.09341 0.06960 0.16473 -0.03037 -0.18212 -0.19010 -0.11295 -0.09635 0.03015 0.15501 0.19076 0.11084 0.08877 0.07515 0.00164 -0.05558 -0.16458 0.13373 -0.02698 -0.19808 -0.07082 0.17882 -0.18992 0.10821 0.09475 0.00431 0.16838 0.21128 -0.05651 0.16928 -0.03968 0.14108 -0.04422 0.06352 0.18628 -0.02362 0.18884 -0.02012 -0.03919 0.06299 0.05751 0.00418 -0.08126 0.16248 0.07807 0.01040 0.06946 0.02937 0.04152 -0.06441 0.05492 -0.09945 0.11088 0.07083 0.15910 -0.14070 0.10039 -0.07859 0.20629 0.01985 -0.01170 0.21810 -0.18638 0.02508 -0.15053 0.05291 0.03432 -0.03449 0.18173 0.16577 0.12094 0.15156 0.03215 0.16088 0.09344 0.08892 -0.00316 0.18542 0.08612 0.12203 -0.15457 -0.03997 -0.02219 -0.16480 0.17239 0.06631 -0.02623 0.14885 -0.12546 -0.14514 0.14137 -0.07141 -0.19945 0.08099 0.12226 -0.15856 0.05892 -0.13762 0.01034 0.15872 -0.16715 0.03827 0.13881 -0.16921 -0.14954 0.19611 0.02331 0.09401 0.10443 0.15788 -0.12315 0.06640 0.08233 0.18799 -0.06563 -0.02934 -0.09702 0.09263 0.04383 0.20961 0.14372 -0.05453 0.18394 -0.01685 0.07697 -0.19730 0.06713 0.16477 -0.06985 0.00725 -0.19205 0.02381 0.02639 0.14670 -0.15165 -0.08841 -0.16271 -0.12239 0.12011 0.03691 0.13744 0.01881 -0.12871 0.01287 0.02736 -0.12237 -0.01374 0.15156 0.16354 0.09302 -0.03499 -0.11472 0.06939 0.04813 0.10982 0.18222 0.07300 0.00472 0.22674 -0.09298 -0.01890 -0.04778 0.02471 0.06230 0.07222 0.09570 0.05338 -0.03233 0.01473 -0.10663 -0.12398 0.18343 -0.15612 0.10739 0.03078 -0.18740 0.07235 0.14082 -0.17759 0.17493 -0.02805 0.14198 0.00127 0.03686 0.01230 -0.09361 0.12603 -0.18775 -0.10285 0.00374 -0.19103 0.11659 0.02623 -0.14924 0.12566 0.08414 0.10796 -0.04210 0.04622 -0.12813 0.08388 0.02092 -0.14381 0.01378 -0.17611 -0.18505 -0.14292 0.00991 -0.12739 -0.08320 0.07325 -0.15349 -0.09894 0.08550 -0.10945 0.00530 0.04416 0.08496 0.07567 0.08753 -0.07207 -0.04570 -0.06201 -0.04477 0.23182 -0.20399 0.18562 0.01663 0.06605 -0.01506 0.00509 -0.19058 -0.05875 -0.10494 0.13387 -0.02379 -0.07784 -0.11284 -0.17784 0.07906 0.18725 -0.06746 -0.12067 0.02999 -0.09105 0.17207 0.13843 0.07692 0.16255 0.14880 0.00103 0.06898 -0.09225 0.18459 0.02830 0.07451 0.18665 -0.04867 -0.05051 -0.11437 -0.09738 0.17078 -0.16616 0.07757 0.02279 -0.11876 -0.01081 -0.21341 0.10191 0.06379 0.12149 0.06215 0.20057 -0.16801 -0.16414 0.14527 -0.11136 -0.11107 -0.11372 0.00468 0.14467 -0.17432 0.12372 -0.10059 -0.05670 -0.05417 -0.09696 -0.12228 0.12625 -0.23121 0.17486 -0.08521 0.00741 -0.02906 0.00870 0.05915 -0.04174 -0.17290 0.10702 -0.03187 0.04089 -0.15202 0.04395 0.01579 0.01044 -0.09009 0.05581 -0.08718 -0.10127 0.03146 -0.12257 0.03646 -0.11605 -0.18396 0.01516 -0.13390 -0.00649 -0.05573 0.01928 0.06083 0.02314 0.06141 0.17406 0.13139 -0.04917 -0.16950 -0.12487 0.15217 0.08593 0.06600 0.00414 0.01052 
1.00356 0.99882 1.05118 1.01576 1.06598 1.00069 0.99476 1.02240 
-0.01042 0.00451 0.04398 -0.00064 0.00814 -0.03860 0.00662 0.00309 
0.14844 0.45206 -0.21890 0.23190 0.04480 -0.34857 0.23985 -0.04954 
0.34320 0.41443 0.23721 0.37679 0.16666 0.36950 0.55924 0.29393 
-0.32673 -0.04190 -0.23859 0.22701 0.18737 0.60629 0.69432 -0.64276 
0.98182 
-0.01645 
0.55249 
2.91596 
0.50819 0.11543 0.28510 -0.01606 0.04455 -0.16933 0.21986 -0.28406 -0.39022 0.14756 0.25799 0.16077 -0.34640 -0.31022 0.49004 -0.18230 -0.39385 0.57948 0.39526 -0.18706 0.43331 0.24467 0.14556 -0.60040 0.23816 0.28188 -0.10915 0.59401 -0.32910 -0.43843 0.32147 0.57592 -0.12381 0.47980 -0.32717 0.38856 -0.46613 -0.36070 0.57885 -0.29380 -0.15713 0.47542 -0.35791 0.45789 -0.11803 0.41395 -0.23451 0.43230 -0.39915 0.44071 -0.43189 -0.09797 0.42718 -0.02330 0.28347 -0.42520 -0.23608 0.02155 -0.13436 0.10626 0.53358 0.31041 -0.40720 -0.41935 
1.05810 1.03817 1.07324 1.06524 1.10556 1.04336 1.02612 1.09210 
0.00245 0.00740 0.00382 0.02032 0.04775 0.01342 0.00462 0.04300 
-1.05247 2.72274 -0.56625 1.55598 0.21452 -0.09544 1.26387 -1.20205 
1.35936 1.36065 1.12625 0.83014 1.55485 2.24531 2.94240 2.22747 
-0.06386 0.07927 0.28030 -0.20605 0.03714 -0.03954 -0.03934 -0.24891 0.05591 -0.29587 -0.16522 0.17926 -0.06823 -0.03397 -0.27678 0.22757 0.25172 0.23807 -0.09983 -0.25787 -0.07634 -0.25193 0.33311 0.16404 0.13265 0.16553 0.16619 -0.22532 0.25014 0.13713 0.29297 -0.23406 0.00346 0.07357 -0.23382 -0.29259 -0.12055 0.13640 0.10044 0.11709 0.09898 -0.19112 0.03253 0.23912 0.02203 -0.27317 -0.10713 0.09564 0.22125 -0.04330 0.13830 0.15431 -0.04792 0.23648 -0.04040 0.17922 0.00877 0.12698 -0.11146 -0.14500 0.22256 0.06348 -0.24337 -0.03814 0.09154 0.17274 0.27164 -0.04485 -0.18100 -0.03760 0.20560 0.02679 -0.07665 0.04717 -0.28621 -0.00058 -0.09564 0.17716 -0.08066 0.13238 0.24465 -0.23268 -0.08271 0.33509 0.27264 -0.00978 -0.23033 -0.10694 -0.14015 0.07066 -0.27702 0.18731 0.00182 0.10553 0.32387 0.29456 -0.30751 -0.17845 0.10352 -0.05260 -0.21694 -0.25400 -0.04878 -0.08896 0.32335 0.18763 -0.00124 -0.18018 -0.16036 0.04820 0.10608 -0.27658 -0.03880 -0.30129 -0.30204 0.23775 0.19097 -0.28730 0.20772 -0.25216 0.00671 0.03293 0.34199 0.02046 0.17132 -0.01833 -0.32581 0.13355 0.26590 -0.20492 0.12282 -0.11522 -0.19520 0.17822 -0.26771 0.28436 0.26777 0.13966 0.26066 0.16296 -0.25992 0.31176 -0.26339 0.02608 -0.27047 0.12763 -0.22589 0.19844 0.12039 -0.24619 0.32144 -0.02164 0.16383 -0.07176 0.18847 0.19688 0.06236 0.25378 -0.03954 0.11987 -0.14523 0.00203 -0.23618 -0.12654 0.16475 0.29386 -0.19424 -0.14228 -0.11266 0.24117 -0.20166 -0.17489 -0.07963 0.00858 0.28797 -0.20986 -0.16363 -0.09146 -0.17039 -0.29489 0.08875 0.02696 0.07025 -0.17003 0.24576 0.12140 -0.17715 -0.03837 -0.00929 0.20867 -0.19224 -0.14016 -0.18867 -0.23357 -0.28025 0.28337 -0.19783 0.05242 -0.27898 0.01046 0.15981 -0.01316 0.31369 0.04479 0.18275 -0.03036 0.06027 0.32176 0.24413 0.12098 -0.17580 0.31439 0.03991 0.12204 -0.28244 -0.17675 -0.10077 0.00224 -0.14488 0.02388 0.12358 -0.27153 0.04353 0.08333 0.28630 0.07061 0.31819 -0.29768 -0.13703 -0.07453 0.17087 -0.01965 -0.11491 -0.09074 0.28214 -0.12052 -0.01343 -0.11569 0.03215 0.03953 -0.10422 -0.07912 -0.27355 0.18502 -0.18460 0.06847 -0.30509 -0.02034 -0.28188 -0.15262 0.28725 -0.07833 0.05912 -0.06340 0.33289 -0.00715 -0.25446 -0.14591 -0.03015 -0.21119 0.01542 -0.06187 0.16094 0.31795 -0.08863 -0.00717 0.20007 0.10358 0.22853 0.21384 -0.11487 0.16905 0.22342 0.13829 0.00902 0.23774 -0.17470 -0.25355 0.08987 -0.00654 0.27407 0.08088 0.06862 0.29480 -0.27972 0.04712 0.10971 -0.02800 0.30781 0.02037 0.04787 -0.04854 -0.30787 0.00275 0.04295 -0.16760 -0.02487 0.10346 -0.12049 0.08095 0.31482 0.26630 0.22179 -0.06372 -0.12969 0.21452 0.10780 -0.05630 -0.07573 -0.17716 -0.31067 0.10333 -0.11750 0.03376 -0.14739 0.24608 0.03980 -0.06418 -0.04557 -0.06361 -0.14154 0.13128 0.06017 -0.27640 -0.30354 0.08630 -0.31345 -0.18556 -0.13391 0.14766 -0.29024 0.05655 0.13253 0.17566 0.09253 0.14366 0.01414 -0.11492 -0.14895 0.19588 -0.19419 0.04609 -0.02092 -0.24866 -0.06178 0.16549 -0.19518 -0.07569 0.03236 0.03231 -0.29863 -0.15501 0.03197 -0.06798 -0.19805 -0.11574 0.21619 0.24359 -0.03047 0.01043 -0.00821 -0.17772 0.16242 0.04430 -0.16415 0.31322 -0.26477 0.13597 -0.02736 -0.11735 0.29100 -0.15515 -0.18976 0.20394 0.01030 0.10134 -0.30114 0.18858 -0.28658 0.04855 -0.30153 -0.04484 0.23541 -0.06612 -0.01990 -0.04849 0.28777 -0.06478 0.05609 -0.21711 0.28002 0.01993 0.03120 0.24998 -0.04561 -0.26982 0.17206 0.05980 -0.08972 0.06666 0.29633 -0.22649 0.29848 -0.10169 -0.21835 -0.26686 0.13095 -0.27533 -0.28515 0.09308 0.29829 0.26815 -0.24673 0.26861 0.02223 0.13060 -0.14015 -0.12187 -0.14617 -0.23656 -0.05419 0.03979 -0.21980 0.26624 0.02602 -0.12593 0.07369 -0.20534 -0.29613 -0.05891 -0.06491 0.15024 0.18094 0.13525 0.22815 0.16932 0.11809 -0.14497 0.04336 0.01685 0.19955 -0.04686 -0.02664 0.10888 -0.01334 0.23754 -0.27323 -0.12915 0.20947 -0.01505 -0.26982 -0.30125 0.15059 0.28084 0.29133 0.08581 0.04378 0.24686 -0.30229 0.06124 -0.23642 0.12470 -0.13779 -0.11146 0.19545 0.15557 0.15767 0.04398 -0.29709 -0.05944 -0.28861 -0.02420 0.09283 -0.31695 0.29675 0.04798 -0.10407 0.14928 0.25273 -0.29412 -0.27554 0.00488 -0.27337 -0.13317 0.11632 -0.32002 -0.14073 -0.23737 0.23174 -0.25512 -0.20952 -0.02849 -0.21510 -0.06390 0.02888 0.28286 0.26524 0.18464 -0.17025 0.06038 0.21451 0.10692 0.27730 -0.29774 -0.08749 -0.05741 -0.15642 -0.26712 -0.07435 -0.19096 0.01559 -0.15769 -0.18070 -0.03795 -0.14904 0.03596 -0.15803 0.13216 -0.31169 -0.17875 -0.18502 -0.29873 -0.23505 -0.29659 -0.29277 -0.14886 0.32951 0.28706 -0.24797 -0.05419 -0.18353 0.32979 0.06385 0.21658 -0.22927 0.01540 0.09591 0.05347 0.02015 -0.28084 -0.27940 0.33155 -0.26664 -0.18470 0.27516 0.11037 -0.04290 0.26768 -0.21203 0.20446 -0.06454 0.17816 0.18436 0.11366 0.30144 -0.01413 0.22781 0.06223 0.01855 0.08725 -0.13970 -0.11072 -0.06126 0.16498 0.01620 0.07573 -0.24756 -0.19120 0.04962 -0.01784 0.23858 0.19497 0.33096 0.29805 0.20196 0.00391 0.32052 0.24940 -0.26678 0.28388 0.30807 0.25005 0.11947 -0.18982 0.32411 -0.13841 -0.25851 0.17520 -0.30026 0.15315 0.13832 0.06311 -0.31006 -0.02718 -0.00823 -0.07391 -0.18723 -0.29777 -0.09473 0.12221 0.18916 -0.30410 0.04415 0.21415 0.31791 0.27096 0.10058 -0.04373 0.12476 0.02702 0.04481 -0.00017 -0.10480 0.02258 0.32585 -0.30230 0.10285 0.26848 0.23331 0.04067 0.14313 0.27343 -0.11681 -0.20261 0.07864 -0.08552 0.28655 0.26987 -0.13608 0.05506 0.00759 0.06391 -0.18938 -0.10230 -0.06987 0.24468 0.28290 -0.16106 -0.30932 -0.31465 0.25780 -0.23135 -0.11719 -0.15682 0.22516 0.20852 -0.07984 0.16241 0.17172 0.16088 -0.26071 0.08724 0.28940 0.26090 -0.20833 -0.24258 0.26160 0.13299 0.30437 0.23430 0.09055 0.08374 -0.07780 0.13200 -0.06107 -0.14722 -0.30359 -0.12706 0.26060 -0.16264 -0.16235 0.15837 0.10199 -0.15672 -0.20168 0.30884 0.03782 0.04390 -0.09552 -0.13472 0.25383 0.23717 0.28342 -0.12950 -0.07098 -0.22608 -0.16868 0.11252 0.13213 -0.13917 0.23568 -0.20602 -0.12191 -0.25415 0.34119 -0.10549 0.01563 0.28401 0.06393 -0.21804 0.08441 -0.12380 0.09534 -0.08222 0.11564 -0.09266 -0.18881 -0.03440 -0.09965 -0.12376 -0.21546 0.23985 -0.27688 -0.12200 0.06463 -0.03663 0.24727 0.29901 0.06637 -0.23773 -0.30463 -0.18084 0.00388 0.21287 -0.24091 0.12867 -0.21393 -0.01171 -0.05222 -0.25816 -0.17739 -0.11148 0.30922 0.27009 -0.17503 0.03650 -0.14202 -0.07360 0.15812 0.30184 -0.10014 0.12705 0.17591 0.09148 0.31174 -0.06866 0.20649 0.02951 0.25652 -0.31905 0.22287 0.23948 -0.29513 -0.17851 -0.13178 -0.03758 -0.01077 -0.13700 0.10604 -0.30515 -0.09995 -0.06770 -0.10646 -0.28320 -0.08326 -0.03371 0.24906 -0.20101 -0.22847 0.16825 0.01702 0.27350 0.07099 0.13690 0.23201 -0.09898 -0.08539 -0.07850 -0.28986 0.03996 -0.10903 0.14353 0.19594 -0.17089 -0.23087 0.24947 0.06540 0.02383 0.00372 -0.25494 0.14555 -0.00057 -0.28589 -0.16879 -0.12704 0.22619 -0.07155 0.22600 0.04972 0.12521 
-0.00660 0.00953 -0.00349 -0.00970 -0.01674 -0.01146 0.00640 0.01026 -0.00638 0.01017 -0.00073 -0.00957 0.00548 -0.00845 -0.00550 -0.00328 -0.01627 -0.01067 -0.01046 0.00291 -0.01781 -0.01174 0.00843 0.00727 -0.01408 -0.00661 -0.00187 -0.00635 -0.01199 -0.00816 -0.00588 -0.01142 
-0.14783 0.11858 0.10503 -0.16583 -0.05146 0.03285 0.00466 -0.05580 -0.05990 0.01783 0.06921 0.10918 0.11626 -0.07526 0.03344 -0.06535 -0.11018 -0.03765 0.13670 -0.06188 0.02704 -0.13061 -0.06728 0.05391 0.02511 0.03681 -0.10168 -0.17732 -0.08494 -0.12743 -0.05892 -0.08695 -0.16840 0.03777 -0.00301 0.01482 0.16643 -0.03216 0.08074 0.15309 0.10105 -0.10350 0.00805 0.11752 -0.15417 0.05772 -0.09111 -0.02214 0.12325 0.05243 -0.00525 0.08271 -0.14711 -0.10891 0.12199 0.09724 0.00789 0.13787 0.11459 -0.11165 -0.10980 0.00174 0.19127 0.01336 -0.07415 0.10824 -0.07163 0.00217 0.06935 0.04248 0.08486 0.02808 0.03375 -0.00881 -0.06621 -0.12795 -0.01837 0.05628 -0.06696 -0.08949 -0.06941 -0.10712 -0.08842 -0.05883 -0.13841 -0.05901 0.16887 -0.03591 0.00514 0.08903 0.11525 -0.12099 -0.09792 0.13880 0.04001 0.17307 0.10589 0.14972 -0.12973 -0.04120 0.08614 0.03927 -0.12936 -0.08641 0.17719 -0.07673 -0.19191 0.01984 0.09686 -0.17713 0.03711 -0.07746 -0.02626 0.15899 0.03249 -0.07036 0.16476 0.04602 0.12149 -0.06630 0.05648 0.00131 0.00942 0.09994 -0.11260 0.14158 -0.10957 -0.15387 -0.18853 0.17861 0.14546 -0.16525 -0.07363 0.07719 0.06342 -0.04946 0.00778 -0.03521 -0.02987 -0.12487 -0.13421 0.14748 0.00154 0.06751 -0.02011 -0.12604 -0.11405 -0.11662 0.05288 -0.10301 -0.10182 -0.00364 0.11800 0.09967 -0.17278 0.09197 -0.10106 -0.01916 0.05854 -0.11041 0.07837 0.13365 -0.04339 0.13372 -0.14276 -0.15312 0.02815 -0.14500 0.12870 0.00723 0.04703 0.13293 -0.05892 -0.07030 0.14056 0.24034 0.16612 -0.02463 -0.00732 -0.01749 0.07575 0.12563 0.13691 0.13038 -0.13540 0.02144 -0.05897 0.16888 -0.07103 0.05669 -0.01763 0.19983 -0.04884 0.04114 -0.08977 -0.19297 -0.12313 0.02061 -0.16037 -0.12834 -0.07593 -0.25609 -0.09626 -0.16357 -0.04058 0.00239 0.11950 -0.16968 -0.04445 0.18901 0.01491 -0.17352 -0.20551 0.02506 0.08872 -0.12646 -0.03992 -0.21537 0.12356 0.05718 -0.02644 -0.09198 -0.08709 0.13275 -0.05009 -0.02119 0.11574 -0.13433 -0.02956 0.11020 0.04836 0.04804 -0.09334 -0.05349 0.07384 0.09835 -0.07832 0.18044 0.16024 0.19462 0.14001 -0.15139 0.00611 -0.03906 -0.17219 -0.10837 -0.07188 -0.15291 -0.15421 -0.08754 0.04486 -0.00341 0.16270 -0.02068 0.11329 0.15142 -0.15737 -0.10367 -0.18781 -0.14212 0.09759 0.17160 0.00902 -0.01473 -0.11903 -0.06005 -0.08204 -0.08459 -0.12394 0.06002 -0.06276 0.16703 0.11461 -0.02505 0.05660 -0.21841 -0.13296 0.14188 0.12752 0.07038 -0.01647 -0.10734 0.04947 -0.11509 -0.04079 0.09719 -0.13132 0.06556 -0.05576 0.10464 -0.13717 -0.08365 0.04457 0.13341 -0.01576 -0.07121 -0.08777 0.11638 0.00327 0.05324 0.05323 -0.00639 0.10060 0.16277 0.10575 -0.03947 -0.09875 -0.12147 0.11125 0.00370 -0.04645 -0.16751 -0.09555 -0.05575 -0.11097 -0.19395 0.00445 0.07814 -0.08333 -0.09507 -0.04700 0.01230 0.09526 -0.12756 0.07194 0.18128 0.03848 0.08535 0.07250 -0.00672 0.03692 -0.01885 0.12416 -0.09374 -0.10178 0.10554 0.12429 -0.11587 -0.12152 -0.11373 -0.04179 0.04840 0.03974 -0.06494 -0.00474 -0.03709 -0.01341 -0.09905 0.00373 -0.13170 0.12896 -0.09365 -0.12627 -0.12777 0.15757 0.07796 -0.01944 -0.09717 -0.10114 -0.13739 -0.11752 0.07633 -0.14389 -0.01289 0.00593 -0.12460 -0.03138 0.04937 0.00772 0.12877 -0.12236 0.07528 0.03617 -0.14227 0.12607 -0.14000 -0.00360 -0.06311 0.20176 -0.14892 -0.07111 0.07719 -0.16170 0.07380 -0.11328 -0.13453 0.05592 -0.11142 -0.13290 -0.04073 0.05978 0.16133 -0.02068 0.09886 0.14777 0.05881 0.16965 -0.04081 0.12529 0.11155 0.20851 -0.02853 -0.01948 -0.10816 -0.05970 -0.04469 -0.13919 0.06747 -0.17151 -0.01020 0.04050 -0.06792 0.02346 0.12106 -0.09835 0.08160 -0.10011 0.20176 0.02759 0.10701 0.10902 -0.17017 0.00091 0.09936 0.12070 0.00957 -0.02292 0.03320 0.02982 0.01122 0.04874 0.09550 -0.18306 -0.02240 -0.11629 -0.00355 -0.22077 -0.27110 0.07828 -0.06334 0.09425 -0.09302 -0.15537 0.00264 -0.01217 0.21142 0.08549 -0.08341 0.11170 0.05066 0.06954 0.09687 0.04186 0.13297 0.04886 -0.04366 0.11498 -0.00880 0.01271 -0.08435 0.09984 0.10272 -0.18372 -0.02948 -0.14655 -0.02594 -0.04823 0.03887 0.02810 -0.11407 -0.12426 0.14753 0.03414 0.08068 -0.02504 0.03710 -0.19719 -0.15160 -0.03464 -0.09703 -0.08291 0.00513 -0.11666 -0.09621 -0.07838 0.05720 -0.12033 -0.13664 -0.06136 -0.06903 -0.16865 0.08503 0.10706 -0.07671 -0.10857 0.13305 -0.11533 -0.06059 0.13971 0.06102 -0.10478 0.02252 0.09006 -0.17988 0.12060 0.18898 -0.16095 0.11743 -0.18458 -0.11701 -0.04909 -0.01490 -0.18299 -0.09959 -0.07151 0.00935 0.08994 -0.11590 -0.07665 -0.03322 -0.11697 0.02721 -0.08736 -0.04627 -0.10156 -0.00713 0.06179 0.15123 0.03653 -0.03075 -0.07793 0.05146 -0.11764 0.08219 -0.16669 0.05485 -0.08034 0.06964 -0.16128 0.12101 0.20742 0.11775 0.08937 0.07395 -0.04107 0.11484 -0.01239 0.01969 0.09810 -0.08828 -0.03667 0.08060 -0.09831 0.08177 -0.17753 -0.17193 0.15642 -0.01629 0.08685 0.09523 0.10642 0.00144 -0.12430 -0.06480 0.05135 0.02150 -0.00777 0.04401 -0.01604 0.00871 0.04575 -0.02878 0.00488 0.14192 0.17649 0.05343 0.07854 0.14634 0.04335 0.13311 0.11260 -0.00513 0.05957 -0.03328 -0.17039 -0.05578 -0.09595 0.18980 -0.10787 0.06938 0.01254 -0.02886 0.07917 0.02782 -0.12738 -0.05260 0.08752 0.11191 -0.18766 0.04436 -0.04587 -0.12935 0.09118 0.19423 -0.19528 -0.02318 -0.12052 -0.12313 0.03600 0.01880 -0.18145 0.09813 0.01043 -0.07028 -0.01037 -0.04405 -0.03320 0.07214 0.09261 0.16932 -0.14961 -0.08771 0.01438 -0.02283 0.06491 0.08312 0.05958 -0.12525 -0.00589 0.16569 -0.03420 0.10115 0.07602 -0.04080 0.11922 0.05321 -0.03667 -0.10938 0.01391 0.02795 -0.11613 0.04778 -0.08644 -0.11686 0.07560 -0.01439 -0.00611 0.02383 -0.16030 -0.02296 -0.03589 0.08379 -0.15532 -0.02284 0.06387 0.03197 0.04963 0.06929 -0.04368 -0.15355 -0.01432 0.21674 -0.16399 -0.19684 0.05768 0.07349 0.04901 -0.05075 -0.12404 -0.00525 0.07571 -0.08196 -0.06917 0.13314 -0.11944 -0.18908 -0.04981 0.03143 0.07555 0.06759 0.10443 0.16251 0.02571 -0.19568 0.03990 -0.06074 -0.17798 0.08087 -0.04882 0.18858 -0.13624 -0.08001 0.07583 0.14779 -0.14490 0.04311 0.07231 0.14084 -0.01608 -0.12818 -0.15185 0.09309 -0.07033 -0.00853 0.04979 -0.08327 0.04150 0.10217 0.22979 0.11006 -0.02390 0.04127 -0.11060 -0.06744 -0.09657 -0.12046 0.02908 -0.03684 -0.02787 0.03898 0.04564 0.00976 -0.04584 -0.06639 -0.13508 0.00709 -0.07250 0.01709 -0.04052 0.03070 0.05261 -0.04348 0.12425 0.15721 0.09717 -0.07433 -0.07645 -0.07596 0.01247 -0.08085 -0.04476 -0.03123 0.09072 -0.15216 -0.05269 0.10132 -0.05684 0.16569 0.08620 0.10532 -0.16049 -0.04257 0.08793 -0.01030 -0.15023 -0.05974 -0.03834 0.02837 -0.10655 -0.02521 -0.07210 -0.03057 -0.03337 -0.12547 0.13741 -0.09670 0.03965 -0.06420 0.14397 0.17287 0.18929 -0.01307 -0.12804 -0.15396 0.01735 0.15565 0.12370 -0.07692 0.14560 -0.03278 0.05108 0.01009 0.03776 -0.14364 0.05215 -0.02122 0.02945 -0.01438 -0.13100 0.07995 0.04376 -0.11846 -0.07726 0.09804 0.07411 -0.04380 0.10638 0.12286 0.00761 -0.14078 0.08270 0.16752 0.07901 -0.18014 0.10509 -0.17663 0.13060 0.12835 -0.05757 -0.01843 -0.06134 0.12952 0.11586 0.04819 0.09217 -0.04804 -0.11344 0.00977 0.17319 0.09751 0.00319 0.16027 0.06623 0.03134 0.01268 -0.13805 -0.04485 -0.23155 0.06610 -0.07212 0.03926 -0.05909 0.04937 -0.04742 -0.00746 0.16533 0.05148 -0.10295 0.00054 0.04929 -0.08299 0.06851 -0.10208 0.14279 0.07767 -0.06263 -0.06478 0.13715 0.03011 0.00181 -0.14648 0.01688 -0.09283 -0.09207 0.04680 -0.13481 0.07536 -0.18490 -0.14637 0.07910 0.10730 0.01801 -0.17270 0.10138 -0.12205 -0.08033 -0.06050 0.09853 -0.04396 -0.06721 -0.05652 0.08271 0.13673 -0.10296 0.03649 -0.04127 0.04092 -0.02135 0.10947 -0.14530 -0.05323 0.03067 -0.12204 0.14892 -0.01621 -0.10876 0.09244 0.00453 -0.15924 -0.00022 0.24119 -0.13916 0.00111 -0.03812 -0.02262 0.02472 -0.08400 0.01417 0.03173 -0.07031 -0.11732 0.08668 -0.15126 0.00071 -0.03165 -0.08019 0.02457 -0.12497 0.10661 0.13622 0.05565 -0.12466 -0.15592 -0.00670 0.10816 -0.11146 -0.03139 -0.09603 0.13799 0.07499 0.13609 -0.13750 -0.15407 0.16210 0.11883 0.13478 0.12956 0.00496 -0.04382 0.11310 -0.05218 0.01186 0.14873 -0.04081 0.15277 -0.13355 0.11523 0.04135 -0.07311 -0.00139 0.01027 -0.06692 0.06100 0.06087 0.12521 -0.12084 0.00257 -0.02777 0.13010 0.14264 -0.01054 -0.12522 0.03496 0.01538 -0.15324 -0.00273 0.07591 -0.00010 -0.00155 -0.17257 -0.08519 -0.04501 -0.19195 -0.17784 -0.04242 -0.10491 -0.04071 0.04380 -0.04423 -0.00344 -0.14086 0.12773 0.16343 0.08185 -0.12046 0.17599 0.04232 -0.11756 0.03051 -0.02497 -0.01224 0.01109 0.04758 -0.03902 0.06661 -0.20739 -0.12494 0.15070 0.08373 -0.10901 -0.06323 0.05507 -0.02465 -0.14273 -0.06900 -0.04892 -0.03190 0.13885 -0.05618 0.06048 0.04765 -0.06436 -0.03417 -0.06147 0.11639 0.18686 -0.02859 -0.10006 -0.06092 -0.13861 -0.18487 0.06043 -0.12878 0.01232 -0.18960 -0.06140 0.14164 0.07602 -0.02852 -0.08542 -0.07638 -0.08523 0.04357 -0.01454 0.02389 -0.11815 -0.02470 -0.02426 0.07306 -0.11437 0.10428 0.03224 -0.08042 -0.12595 0.01208 -0.07136 -0.03742 -0.09815 -0.10961 0.12002 -0.08954 0.02131 0.13090 -0.00447 -0.10255 -0.09796 -0.14152 -0.04547 0.15773 0.07515 -0.10992 -0.12279 0.06744 0.15444 0.06244 0.13055 0.19430 -0.04704 0.01950 0.11443 0.02269 0.12713 0.08725 0.10012 -0.04386 -0.14256 -0.05391 -0.03771 0.11038 -0.10268 0.02014 -0.14634 0.13846 0.00977 -0.11020 0.00133 0.07851 -0.09296 -0.24702 0.21374 0.11570 0.02141 0.15693 0.17758 -0.14766 -0.18836 0.18515 0.12607 -0.09762 0.13972 -0.13481 0.17495 -0.00292 -0.03399 -0.12921 0.00522 -0.05378 -0.10853 0.11708 -0.11262 0.02500 0.13355 -0.15083 0.14271 0.14832 0.22890 0.04824 -0.14771 0.00399 0.07127 0.07330 0.04523 -0.22553 0.06901 0.12028 -0.12943 0.12852 -0.12405 0.05935 -0.02895 0.18635 -0.11196 -0.09262 -0.12992 0.09344 -0.07757 -0.05471 0.00325 -0.16019 -0.04057 -0.07382 -0.10614 -0.00056 -0.00230 0.09707 -0.07668 -0.09940 -0.07276 -0.04773 0.14763 0.20178 -0.03031 -0.18930 0.02148 -0.02665 0.03373 -0.01474 0.06953 -0.10120 -0.05542 0.03175 0.11441 -0.17079 0.09363 0.04496 0.05361 -0.06564 0.13826 -0.03357 0.04847 0.02687 -0.11122 0.10266 -0.00931 -0.08416 0.08767 -0.01234 -0.13079 -0.14723 -0.09291 -0.06140 0.06486 0.00475 0.08038 0.10584 0.13570 -0.10211 -0.03554 -0.01321 0.09942 -0.05416 0.10836 0.10807 -0.03496 -0.20069 -0.11874 0.04613 -0.07159 -0.18589 -0.16061 0.14404 0.15721 -0.02955 -0.19244 -0.07095 0.04700 0.19400 0.14378 -0.07580 -0.18538 0.11120 -0.13347 -0.11332 0.03070 -0.02790 0.06774 -0.01698 0.05166 0.10561 0.04562 0.01514 0.16549 -0.03740 -0.04836 -0.00442 0.06985 -0.06543 0.07963 0.02033 0.14976 0.12009 0.00393 0.20054 0.00759 0.04518 -0.04144 -0.11537 -0.19246 -0.04246 -0.15162 0.13961 0.02678 -0.17018 -0.14005 0.14174 -0.15421 -0.06763 -0.07089 -0.13295 0.08666 -0.02075 0.11901 -0.00587 0.11016 -0.04125 0.14166 -0.02751 0.14910 0.10728 -0.00525 -0.04271 0.18772 0.07704 -0.14153 -0.03018 0.10098 0.19437 0.20795 0.07169 -0.08968 0.17827 0.01127 -0.15728 0.07622 0.09420 0.00169 -0.09526 0.10586 0.17855 0.13496 0.03930 0.01114 0.07856 0.05881 -0.13738 0.00565 0.05943 0.00809 0.00292 0.02679 -0.08360 0.03622 0.03537 0.00256 -0.18455 -0.11030 0.13409 0.09848 -0.04689 -0.10903 -0.10386 -0.06102 -0.07348 -0.13084 -0.00817 -0.16765 -0.00427 0.01675 -0.19858 -0.01529 -0.03636 -0.14158 -0.03011 -0.08852 -0.04690 0.22576 0.13910 -0.24996 -0.18818 -0.03529 0.09315 0.15306 -0.08018 0.13303 -0.02132 0.20179 0.12896 -0.18113 -0.09231 0.01600 -0.15575 0.08301 0.12373 -0.13238 -0.02593 -0.05947 0.11769 0.14210 -0.14390 0.06405 -0.02621 0.11873 -0.07636 -0.15779 -0.12931 -0.06329 0.08341 -0.12780 -0.02286 -0.17046 0.06362 0.18123 -0.13073 0.02052 -0.00447 -0.17461 0.13484 -0.12715 -0.01900 0.10816 -0.07311 -0.19570 -0.11505 0.05556 -0.07435 0.00053 -0.04997 0.02220 0.01724 -0.08425 0.08689 0.06729 0.10184 0.15681 0.08081 0.02598 -0.07488 -0.13921 -0.04926 0.00981 0.10463 0.06037 -0.13714 -0.11146 -0.08868 0.00835 0.23614 0.12949 0.19953 0.15959 -0.03424 0.03996 0.04375 0.04282 -0.12471 -0.02404 0.00361 -0.02445 0.02519 -0.12172 0.06640 -0.05606 -0.01256 -0.13483 -0.15570 -0.14701 0.16105 0.02615 -0.19503 0.02802 -0.02202 0.02306 -0.14182 -0.14617 0.14208 0.07227 0.17838 -0.02985 0.06082 0.14309 -0.04907 -0.09193 0.05661 0.00064 0.12085 0.13283 -0.11738 0.00223 -0.11960 -0.01599 -0.01117 0.05491 0.13159 0.17062 -0.02050 0.10221 -0.04577 -0.18750 -0.02593 0.04270 0.04189 -0.03145 0.06392 0.00602 -0.20230 0.14791 -0.12247 0.18421 -0.08018 0.11951 0.04101 0.08251 0.13316 -0.04302 -0.04932 0.15297 0.03244 0.03414 0.12472 0.16681 -0.08478 0.04589 0.06897 -0.12257 0.07833 0.02419 -0.01272 0.13936 0.06617 0.09671 -0.02208 0.08783 -0.03229 -0.13256 -0.14042 0.04758 0.04225 0.02992 -0.01178 0.07126 0.04641 -0.04021 0.01095 0.07987 -0.04660 0.17052 -0.04753 -0.06218 -0.07009 0.13742 0.15973 -0.09594 -0.01608 0.00831 0.02830 0.09894 -0.09813 -0.09802 0.02901 0.10916 -0.10828 -0.10939 -0.02715 -0.04541 -0.04417 -0.09023 0.03342 -0.00778 0.00286 -0.00259 0.13617 0.18203 0.13210 -0.08065 0.04260 -0.05186 -0.16513 0.07241 -0.06318 -0.04106 -0.11320 -0.05411 -0.08788 -0.00751 -0.17264 -0.03852 -0.14984 0.06414 -0.17958 0.06781 -0.04547 -0.06177 0.08149 0.02927 -0.09342 0.02834 0.12977 -0.12745 0.05135 -0.09954 0.06699 -0.02833 -0.11133 -0.04783 0.12370 -0.07230 -0.00711 0.02373 0.04447 0.11484 0.18609 0.13509 0.19402 0.08998 -0.05884 0.02884 0.11923 -0.09408 0.09542 -0.04334 -0.04477 0.00397 -0.10326 0.09250 -0.17412 -0.19530 -0.11036 -0.00253 0.00580 0.06679 -0.02942 -0.17573 -0.08678 0.13339 -0.06630 0.07185 0.08365 -0.01096 -0.16590 0.14187 0.00250 0.05775 0.13144 -0.10525 -0.02200 0.15437 0.01163 0.03013 -0.08922 0.03275 0.11012 -0.13787 -0.21965 0.20501 0.06607 0.03055 -0.14522 -0.09496 -0.04036 0.08691 0.18134 0.03070 -0.11458 -0.03408 -0.00771 -0.19212 0.05922 -0.08110 -0.04213 -0.18882 0.10172 0.06158 -0.01523 0.06258 0.12671 0.09096 0.17068 -0.02136 0.10556 0.11985 0.00996 0.18068 -0.14156 -0.05155 0.00540 0.06146 0.13589 0.09748 -0.17201 -0.04702 0.04988 -0.02384 -0.03379 -0.08349 0.01352 -0.14384 0.10649 -0.00649 -0.09196 -0.14257 0.02050 0.11892 -0.09091 -0.06228 0.17162 0.06106 -0.00975 -0.08074 -0.13792 0.13582 0.14175 0.08624 -0.07011 0.04263 -0.13323 -0.14114 -0.15461 0.07924 0.04905 -0.08393 -0.01425 0.11231 -0.13534 0.11937 -0.04213 0.01824 -0.14987 0.10653 -0.12424 0.05613 -0.12137 0.11676 -0.05152 0.05338 0.10663 -0.02493 0.11035 0.13359 -0.02104 0.00419 -0.06185 -0.15842 -0.06423 -0.08931 -0.02444 -0.01275 -0.04428 0.19066 -0.11821 -0.04355 -0.12855 -0.01497 -0.08098 -0.11825 0.11253 -0.05823 0.08139 0.13682 0.07400 0.09875 -0.11594 -0.09328 0.02233 -0.12581 0.01991 -0.11594 0.06657 0.08903 0.03331 0.05859 -0.01456 0.07487 -0.15948 0.10414 -0.13708 0.07772 0.14653 0.01428 0.02687 -0.04501 -0.05811 -0.01102 -0.08449 0.06098 -0.02127 -0.02025 0.02524 -0.01156 0.09826 0.13461 0.13609 -0.00888 -0.13227 0.03730 0.07111 0.13668 0.01755 0.10962 0.11696 -0.08353 -0.03759 0.12312 0.09481 0.16449 -0.14412 -0.02132 0.07187 0.03047 0.02381 0.02468 -0.14363 0.16736 -0.06133 -0.11222 0.03542 -0.00005 0.05860 0.00196 0.03965 0.08160 -0.09608 0.00003 -0.16878 -0.04637 0.01932 0.14109 -0.10321 0.09341 -0.15021 0.01340 0.00083 -0.14781 -0.06370 0.05480 -0.06920 -0.12387 0.05340 -0.07648 -0.10292 0.01060 0.01087 0.07759 0.07854 0.04555 -0.08435 -0.04313 -0.10770 0.13817 -0.12646 -0.13714 0.06684 -0.07000 -0.16097 -0.11979 0.17462 -0.17625 0.08123 -0.15088 -0.04442 0.01133 -0.12391 0.06152 0.02364 0.01364 0.03649 -0.06028 0.05431 0.12294 -0.16675 -0.04670 0.18616 0.19232 0.09296 0.16537 0.06688 -0.13352 -0.01144 0.13968 -0.10287 -0.14127 -0.10620 0.12057 0.16854 -0.01276 0.20816 -0.11322 0.06110 -0.00637 0.04189 -0.00957 0.09582 -0.05819 -0.02106 -0.04780 0.00297 -0.23741 -0.15763 -0.06568 0.13430 -0.16293 -0.04999 0.09216 -0.24391 0.19060 -0.11661 -0.12192 -0.10119 -0.11473 -0.00599 -0.00854 0.03494 -0.10164 -0.15842 -0.09727 0.13077 0.18319 0.13144 0.00721 -0.11780 -0.00204 0.09428 0.02682 0.03067 -0.07165 0.00494 -0.07891 0.04280 -0.12128 0.01000 0.11929 -0.06969 0.10125 0.03646 -0.02022 -0.04707 0.14897 0.12045 0.08057 0.01873 0.13839 -0.10958 0.06289 0.07071 0.05884 0.08898 0.04836 -0.13019 0.04918 -0.04159 0.00843 0.05796 0.00477 0.04571 -0.18546 0.15367 0.00555 -0.11184 0.01872 -0.00135 -0.18847 0.12248 0.06724 -0.15131 -0.11721 0.11946 -0.01259 0.13067 0.16302 -0.05450 -0.11497 0.03709 0.02289 -0.19226 -0.18372 0.20997 0.01797 -0.13473 -0.09792 -0.07634 0.23838 -0.07270 -0.04340 -0.08091 -0.12637 0.12468 -0.06563 0.00608 0.05094 0.03409 0.12357 0.14909 -0.19449 0.06920 -0.02336 0.01250 -0.13213 -0.18104 0.09111 -0.11576 0.12294 0.08704 -0.15550 -0.00740 -0.15608 0.04532 0.00096 0.04488 0.15241 -0.00783 -0.00892 0.04910 0.03015 0.02151 0.03345 -0.15415 -0.07574 0.03931 -0.09270 -0.19662 -0.22714 0.02798 0.12421 -0.05887 -0.05137 0.03201 0.10408 0.19225 -0.01710 -0.00902 0.09264 -0.04059 -0.16425 -0.18978 -0.00876 0.11059 -0.12323 -0.12059 0.08849 -0.10301 0.19253 0.04818 0.10269 0.05142 0.05494 -0.12261 0.01793 0.00373 -0.20642 0.06450 -0.08233 -0.02483 0.14296 0.04079 -0.19029 -0.07666 -0.15285 -0.03484 0.15231 0.03205 -0.07611 0.11648 -0.13921 0.09967 -0.20076 0.12065 0.06161 0.03499 -0.10535 -0.03935 -0.00549 -0.05976 -0.12325 -0.12846 0.00407 0.03721 0.03441 0.08818 0.17167 0.02152 0.16286 -0.12363 0.02440 -0.03678 0.06013 0.11124 -0.09945 -0.07958 0.13778 -0.19264 -0.00640 -0.02558 0.15140 0.11204 -0.10552 -0.03051 -0.06622 0.02577 0.12572 0.05756 -0.01770 -0.04980 0.06525 0.11930 0.06299 0.13834 -0.01780 -0.04334 0.05479 -0.06489 0.12622 -0.16489 0.02706 0.03134 -0.01936 -0.01924 -0.04475 -0.14977 -0.13203 0.11063 0.00286 0.09563 0.21019 0.10077 -0.19275 -0.07303 0.09091 0.08665 -0.01879 0.05768 -0.11780 -0.12617 -0.07314 -0.03979 -0.17580 -0.00218 0.04373 0.11718 -0.00666 -0.05724 0.14552 0.11103 0.03038 -0.06416 0.05588 -0.03058 -0.06516 -0.10999 -0.19408 0.05130 -0.03064 -0.00456 -0.03277 -0.04807 0.14540 0.00560 0.16163 -0.06395 0.10406 -0.05465 -0.12606 0.03098 -0.10474 0.00106 0.09536 -0.01860 -0.15127 0.02454 0.13388 -0.07995 0.09216 -0.12001 -0.04474 -0.04331 0.08175 -0.00331 0.03420 0.16437 -0.24688 0.07644 -0.05972 -0.03138 -0.05269 -0.19244 -0.11247 0.12275 0.12289 0.09725 -0.25464 -0.08108 -0.10238 -0.07040 0.04275 0.00636 0.06472 0.12270 -0.08588 -0.20502 0.04431 0.02848 -0.11906 0.16877 0.16602 0.04176 0.01621 0.09717 0.02099 0.11907 -0.10658 0.02159 0.11134 0.08904 -0.07168 0.01018 -0.02413 0.11207 0.05356 0.11899 -0.07795 0.08231 -0.11392 0.16491 -0.00772 -0.08417 0.11140 0.17437 0.06217 -0.06872 0.17677 0.15818 -0.11756 0.03806 0.13430 -0.00957 -0.16497 0.06346 0.02004 -0.07691 0.13300 -0.08320 -0.16303 -0.11366 0.09407 0.14660 -0.00683 -0.17226 0.16158 -0.03841 -0.01261 0.05305 0.03000 0.18636 -0.09304 0.03956 0.10848 0.12819 0.10500 -0.00743 0.03723 -0.01073 0.12173 0.01071 0.09220 -0.01624 0.07459 0.18176 -0.01302 -0.09420 -0.04730 0.00416 -0.06814 0.12324 0.02539 0.15135 -0.21881 0.06674 -0.10473 0.00827 0.03465 -0.12446 0.14321 0.10613 0.08248 -0.13855 -0.11895 0.09432 0.10527 -0.09395 -0.07412 -0.04395 -0.01605 0.10640 -0.02153 -0.00821 0.08703 -0.00431 0.10751 -0.02402 -0.15532 -0.12344 -0.01513 0.01070 -0.12862 0.07917 -0.04455 0.17845 0.18668 0.00752 0.10993 0.12499 -0.01014 -0.15775 0.02647 -0.14882 0.02438 0.03215 0.00333 -0.11424 0.11659 0.02979 0.07320 0.06225 -0.19954 -0.03865 -0.06897 0.01577 -0.09905 -0.05590 -0.10326 -0.00217 -0.05668 -0.16844 0.12470 0.03971 0.07941 -0.13139 0.04378 0.09986 -0.13128 -0.12339 -0.00434 0.00580 0.12374 -0.13432 0.00124 0.08444 0.03385 0.11433 -0.17263 -0.00989 -0.01615 -0.23044 0.18035 0.20851 -0.00699 0.10633 -0.05662 -0.10764 -0.11741 0.16153 0.19190 -0.02333 -0.17890 -0.02533 -0.07450 -0.01805 0.10080 0.00791 -0.10101 0.01260 0.17830 -0.08187 -0.09687 -0.11079 0.05603 0.10321 0.04591 -0.16042 -0.13916 -0.05065 -0.00879 0.09742 0.02894 -0.05954 -0.09403 -0.13869 0.03380 0.21986 -0.11666 -0.10465 0.04700 -0.06811 -0.07137 -0.00020 -0.04383 0.07594 -0.11927 0.12355 -0.01494 0.11476 -0.11392 0.13128 -0.04648 0.15750 -0.12971 -0.17161 -0.06398 0.18841 0.05419 0.11153 0.07841 -0.02141 -0.01791 0.01172 -0.12765 -0.02296 -0.08467 0.17431 0.10245 0.01225 0.01935 0.03013 -0.16726 0.01585 0.08066 -0.14268 0.11323 0.06592 0.04880 -0.10015 0.01632 0.11787 0.08406 -0.02977 0.14693 0.16268 -0.00547 0.00884 0.10028 -0.05720 0.13604 0.10025 0.04897 -0.00788 0.06354 0.13533 -0.10903 0.11222 -0.13238 -0.07045 0.08535 -0.01259 0.15315 -0.11405 0.23347 -0.00283 0.03922 -0.26757 0.08701 0.03141 0.00097 -0.19109 -0.05751 0.05457 -0.01379 0.06442 0.00247 -0.02804 0.16333 -0.00707 0.03854 0.17702 0.13890 -0.14064 -0.00572 -0.08877 -0.17116 -0.11949 0.00233 0.10741 0.16388 0.16017 0.07285 -0.18135 -0.02852 -0.14200 0.03088 -0.15808 0.04807 -0.14647 -0.05375 -0.07665 -0.13293 -0.16913 0.05033 0.11894 0.21718 -0.14647 -0.01975 0.08733 0.13771 0.09360 -0.06729 0.11003 -0.02171 0.02348 -0.10326 0.08017 -0.02445 -0.08480 0.13357 0.10896 -0.01455 -0.12167 -0.11409 -0.05369 -0.10140 -0.09938 -0.10314 -0.09731 0.12699 0.10805 0.11484 -0.18978 0.00686 0.06464 0.02925 -0.03573 0.05397 -0.12645 -0.18114 0.05844 -0.08057 -0.05621 0.15982 0.05197 0.02109 0.00078 0.04697 -0.05171 -0.13631 -0.06946 -0.09559 0.13901 0.08812 -0.08400 0.12531 0.01938 -0.20041 0.09520 -0.00179 -0.04819 0.07686 -0.04417 0.07633 0.20245 0.08536 -0.16196 -0.05750 0.07086 -0.07039 -0.10624 -0.04223 -0.16345 0.17384 0.17037 -0.09644 -0.09771 0.16265 0.10812 -0.02125 -0.10722 0.05882 0.11025 -0.02710 -0.16216 -0.08621 0.08697 0.07356 -0.07991 -0.00260 -0.10680 0.14354 -0.03826 -0.08742 -0.12478 -0.00208 0.04670 0.13485 -0.17256 0.12484 -0.19569 -0.11664 -0.09719 0.02075 0.00477 -0.10706 -0.06297 0.08186 -0.03829 0.13287 -0.08393 0.01350 -0.04001 -0.14367 0.07340 -0.01140 0.14938 0.19033 0.03290 0.08218 -0.11173 -0.03263 0.04716 -0.13129 0.07051 -0.00270 0.07010 0.00827 0.10363 -0.06548 -0.15023 0.06655 -0.05211 -0.07170 0.12805 -0.10541 -0.04844 -0.03548 -0.12462 -0.02375 0.15293 -0.10882 -0.20329 -0.09034 0.00250 -0.00456 0.04304 0.06614 0.12288 -0.11247 -0.08168 -0.16844 -0.01781 0.19028 0.16794 -0.06940 -0.06889 -0.13804 -0.03084 -0.07776 -0.00081 0.08509 0.05000 0.05244 0.21959 0.09783 -0.02875 -0.15296 0.12594 -0.05222 -0.18327 -0.14169 0.11461 0.03092 -0.05022 0.13384 -0.07853 -0.04711 -0.13616 0.04127 -0.02299 0.01704 -0.22001 -0.17761 -0.01556 -0.02856 -0.09911 -0.07056 0.05185 -0.02924 0.09876 -0.00276 -0.01484 0.03972 -0.02359 -0.04833 0.02950 0.14370 -0.01080 0.12396 -0.18143 0.07848 -0.07465 -0.09021 -0.11247 -0.03893 -0.12794 -0.04460 0.02648 0.17433 -0.01072 0.04499 0.02479 0.05333 0.03888 -0.12103 0.07927 0.15901 -0.11638 -0.14092 -0.07243 0.02345 -0.03450 -0.10458 -0.14492 -0.04317 -0.01953 -0.10207 -0.00998 0.08658 -0.15709 0.09191 0.05142 -0.08515 0.06772 0.05200 0.00645 0.09996 0.03010 -0.14355 0.01783 0.04881 0.02845 0.18978 0.18436 -0.00975 -0.16455 -0.04011 -0.11568 -0.01901 0.03700 0.09366 0.12475 0.14507 -0.00984 0.05383 -0.10211 -0.04550 0.17722 0.09709 -0.01938 0.12209 -0.00678 -0.08733 0.07474 0.04480 -0.14116 -0.11223 -0.00972 -0.03114 -0.18873 0.09916 -0.03470 -0.08818 0.21450 -0.21293 0.12491 0.17390 -0.19587 0.08073 -0.06466 0.11500 0.03616 -0.02121 -0.00464 0.01713 0.04851 0.22486 -0.03843 -0.01895 -0.15493 0.09669 0.08493 0.07842 -0.14987 -0.01303 -0.05741 0.05898 -0.14153 0.06390 0.00095 0.14587 0.11218 0.03825 0.00071 0.19532 -0.07340 0.14602 0.11162 0.11011 -0.04573 -0.03159 0.16488 0.02109 0.16691 0.12220 0.04534 0.14571 0.00756 -0.09864 -0.09993 0.13947 0.08380 -0.11773 -0.07466 -0.10163 -0.10627 -0.16214 0.01286 -0.19345 0.08074 -0.08664 0.09028 0.06447 0.02252 -0.09887 0.13803 -0.02890 -0.09044 -0.09530 -0.05925 -0.00081 -0.04570 0.12616 -0.11403 0.09706 -0.14485 -0.17311 0.00436 0.13233 -0.03263 -0.00619 0.15283 0.15275 -0.09328 0.10687 -0.07777 -0.20396 0.00250 0.10496 -0.02026 0.08045 -0.04430 0.06017 0.03256 -0.11139 0.06831 0.02643 -0.00182 -0.13088 -0.14474 -0.11692 -0.03601 0.05372 -0.06002 0.07983 -0.05445 0.16709 0.01438 -0.06962 0.00281 -0.01400 -0.05618 -0.09562 0.08670 -0.05509 -0.12082 0.12167 -0.12942 0.08476 0.21377 -0.06809 -0.07385 -0.05313 -0.05376 0.05375 -0.00838 -0.07498 0.11917 0.09191 -0.01549 -0.10359 0.03443 0.01072 0.17319 -0.05660 -0.16744 -0.02121 0.05302 0.03548 0.12008 -0.02885 -0.06943 0.02608 -0.08602 -0.04859 0.03629 -0.17524 -0.09426 0.03340 0.01721 0.09345 -0.10398 -0.03540 0.00174 -0.09303 -0.02401 -0.13281 -0.17949 0.12234 -0.02666 -0.06075 -0.12170 -0.19048 -0.03198 0.04795 0.12801 -0.10463 0.14403 -0.08538 0.11715 -0.09711 0.02153 -0.03444 0.06137 -0.15890 -0.14603 0.14858 0.12868 -0.04709 0.15617 0.12033 -0.13238 -0.20621 0.18543 0.08520 -0.10123 0.17768 0.10539 0.10391 0.06863 0.07231 -0.04102 -0.07348 -0.12638 0.11137 -0.06634 -0.22529 -0.06776 0.00946 -0.07736 -0.09643 -0.18816 -0.11859 -0.05133 0.01961 -0.11215 -0.12034 -0.15606 -0.02794 -0.09771 0.02435 -0.08053 0.10904 0.08452 0.20868 -0.04505 -0.09502 -0.16508 0.16468 -0.11313 0.08870 0.01080 -0.10484 0.08549 0.06952 0.12740 0.07430 0.07192 0.21225 -0.21244 -0.09519 -0.05199 -0.06110 -0.06519 0.18700 0.01961 -0.12793 -0.09945 0.15789 -0.00424 -0.04339 -0.03979 -0.03390 -0.09883 -0.02186 0.10584 -0.08713 0.05990 -0.00071 0.13683 -0.13806 -0.05866 0.05672 -0.08483 0.04022 0.15622 -0.12687 -0.10345 -0.14337 0.09097 0.00461 -0.09831 -0.10256 0.02313 0.13428 0.18402 0.11799 0.10061 0.03882 0.05578 0.15879 0.04082 0.05034 -0.00435 -0.15912 -0.11364 -0.00263 0.07071 -0.15352 0.10065 0.06882 -0.15011 0.13446 -0.00790 -0.12200 -0.13029 -0.05064 -0.09124 0.09918 -0.07560 0.02333 -0.09360 -0.01514 0.10770 -0.01472 -0.12638 -0.12308 0.00266 -0.00986 -0.06340 0.00788 -0.03615 0.09051 0.08442 -0.06970 0.07705 -0.08737 0.06126 -0.08370 -0.09538 0.11418 -0.08233 0.15614 -0.04013 -0.12359 0.11894 -0.12879 -0.11395 -0.14819 0.02089 0.02495 0.10841 0.09692 -0.04082 -0.09351 -0.00444 0.03246 0.19362 -0.12878 -0.15718 -0.10691 0.00911 0.13327 0.02772 0.02127 -0.00607 0.03009 -0.16783 0.10342 0.16681 -0.13933 0.02420 0.14188 0.19483 -0.06635 0.05810 -0.08706 -0.10167 0.08413 0.07041 0.09612 0.03338 0.08622 0.03580 -0.00336 -0.09975 0.17183 -0.04365 -0.06612 0.01732 -0.02590 -0.08249 0.10933 0.08657 0.08021 -0.10742 -0.07983 -0.16818 -0.13014 0.14794 0.08213 -0.20861 0.09699 0.09286 -0.00902 -0.06451 -0.09932 0.06503 -0.06558 0.07727 0.06265 0.02072 0.06488 0.08348 -0.12431 -0.11313 0.09441 -0.14739 0.01513 0.11111 -0.01032 -0.01140 0.00512 0.08166 0.08989 0.03974 0.14603 -0.09850 -0.11692 0.00991 -0.08422 0.03163 0.04660 0.08712 0.08164 -0.05595 0.05926 0.02473 0.13383 -0.09305 0.02718 0.08650 -0.03932 -0.18391 -0.05430 0.15202 0.11642 0.15625 -0.07749 0.06506 -0.06867 -0.12389 0.05924 -0.01768 -0.12133 -0.07863 -0.14767 -0.08581 0.14187 0.05034 0.08948 0.02577 -0.10091 0.02189 -0.12540 -0.01091 0.17113 0.14137 -0.00152 0.03274 0.02567 0.05526 -0.05403 -0.09781 -0.20159 -0.05792 -0.12039 -0.02622 -0.14736 0.03711 -0.00883 0.02671 0.06671 0.06504 0.04746 -0.04715 0.12406 0.04569 -0.11281 -0.08927 -0.01938 -0.12741 -0.05833 0.06931 -0.17343 0.09835 0.10475 0.02132 0.22634 -0.09612 -0.00250 0.11470 0.12480 0.13126 -0.20244 -0.16085 0.12907 -0.12930 0.10138 0.19228 0.06742 0.10987 0.20547 -0.13656 0.13882 -0.04325 0.05729 -0.00506 -0.02370 -0.08070 -0.09949 0.10942 -0.08440 -0.06505 -0.19668 -0.10716 -0.02672 -0.03567 -0.10284 0.15405 0.15266 -0.07794 -0.07277 -0.07967 -0.06293 -0.08423 0.07353 -0.20072 -0.14032 0.11205 -0.04609 -0.24776 -0.15430 0.04227 -0.06532 0.10766 0.02942 0.12306 0.12413 -0.03530 -0.07930 -0.01878 0.07484 -0.12044 0.06713 0.09936 -0.08185 -0.15199 0.13946 0.05506 0.11441 0.03296 0.03886 -0.11961 -0.10690 0.05949 -0.01056 -0.18414 0.04946 -0.06482 -0.06125 -0.13977 0.19412 -0.06144 0.14917 -0.10268 -0.12327 0.16644 0.09827 0.14460 -0.10529 0.11931 0.13012 0.13975 -0.04160 0.06559 -0.11673 0.05361 -0.11979 0.07318 0.09337 -0.04696 0.11253 0.07148 -0.03790 0.08927 0.16143 -0.22439 -0.01525 0.01355 -0.08325 0.07024 0.05277 -0.04882 0.00524 -0.06372 -0.04197 -0.16831 0.10093 0.07214 0.08956 -0.10170 0.07084 0.00067 0.05697 -0.05485 -0.06869 -0.05379 0.14442 0.04598 -0.10251 -0.11658 0.09904 -0.05233 -0.09031 0.10254 -0.04748 -0.06219 -0.00301 0.06906 -0.01874 0.09958 -0.12391 0.08758 0.09149 -0.03172 0.05185 -0.01102 -0.04620 -0.08029 -0.08235 -0.01010 0.00109 -0.08722 0.00315 -0.04197 0.09616 -0.02752 -0.15952 -0.00020 -0.08530 0.07629 -0.12320 0.05855 0.06457 0.16078 0.08557 -0.14304 -0.03136 0.10127 0.13825 0.05677 -0.03533 0.05859 -0.14125 0.00671 -0.02665 -0.08327 0.02432 0.09768 -0.19619 0.12527 -0.12505 0.09860 0.03835 -0.13183 -0.00712 -0.12605 -0.18513 -0.12430 0.10313 0.00208 -0.03311 -0.02901 -0.14486 0.00548 -0.13805 -0.01275 0.07300 -0.02388 0.04362 -0.04475 -0.13559 0.09686 -0.11954 -0.11869 -0.01735 -0.13303 -0.14430 0.15221 0.06919 -0.02668 0.09210 -0.13094 -0.11638 0.06743 -0.17399 0.12066 -0.12577 0.07020 0.06510 0.06901 0.14262 -0.00388 -0.04885 0.02335 -0.03769 -0.08330 -0.04492 -0.06169 -0.13371 0.12968 -0.20762 -0.00184 -0.08651 -0.05620 0.05795 0.06506 -0.07645 -0.03393 0.06562 0.07673 0.05205 -0.15792 0.06557 -0.06961 0.07809 0.05336 0.00802 -0.06689 0.13270 -0.03731 -0.16349 -0.06984 0.12472 -0.09301 0.09196 0.08029 -0.07776 0.04028 0.12647 0.06873 -0.10121 0.13338 -0.04124 0.02852 0.11266 0.12994 0.09620 0.06823 0.03213 -0.13130 0.09017 -0.16007 -0.18930 0.04835 0.05058 0.18232 0.02343 0.09955 0.16876 -0.19302 0.11080 -0.15155 0.02383 0.01856 -0.00971 -0.10043 -0.09022 0.07385 0.15549 -0.10265 -0.06949 -0.09865 -0.08615 -0.02809 0.06995 0.12732 0.07387 0.08482 -0.02839 -0.21406 -0.03881 0.14030 -0.07686 -0.13209 0.10806 -0.09757 -0.01818 -0.18662 -0.01964 0.02666 -0.14289 -0.03298 -0.09130 -0.10703 -0.01156 -0.01173 0.02535 0.04826 -0.16583 0.14635 -0.01930 0.02313 -0.20957 -0.04859 0.05629 0.01299 -0.20931 0.01115 -0.10672 -0.18047 -0.00832 0.09196 0.12918 -0.19114 0.03464 0.19553 -0.07417 -0.17183 -0.07693 -0.14165 0.09784 0.00586 0.02470 -0.02306 -0.09316 0.10795 0.06186 0.10589 0.13728 0.09103 -0.07326 0.13949 -0.08067 -0.09270 -0.02500 -0.09344 0.12737 -0.13983 0.13336 -0.14806 -0.00804 -0.16070 0.04119 0.05727 0.17877 -0.06828 0.01813 -0.19079 -0.11956 0.13405 -0.17077 0.03764 0.18247 0.12704 0.01088 0.16326 0.01357 0.01051 -0.17224 -0.17403 0.09811 -0.02879 0.04633 0.02257 -0.06252 -0.13807 -0.03064 0.11674 0.03325 0.14457 -0.15364 0.05703 -0.16553 -0.00806 -0.01075 -0.06140 -0.19103 -0.00438 -0.11309 -0.00271 -0.13682 0.11047 0.05516 -0.05827 -0.22668 0.09766 -0.13410 0.05016 -0.14217 -0.08932 -0.02125 0.09307 0.08114 -0.06733 -0.10339 0.09237 0.14365 -0.09790 0.12742 0.08161 -0.08237 0.06650 0.11292 0.11643 -0.01977 0.07933 -0.02684 0.15771 0.07805 0.03840 0.06118 -0.07231 -0.05379 -0.05880 0.19152 0.12345 0.06374 0.13478 -0.00805 0.05992 -0.06005 -0.08176 0.00015 0.04128 0.09362 -0.05637 0.00020 0.01891 0.07760 0.13732 -0.17261 -0.13143 -0.01625 -0.10189 0.14678 -0.13004 -0.06641 0.15389 -0.05447 -0.12652 -0.12687 -0.00480 -0.09125 0.05838 -0.09208 0.01275 -0.07582 -0.14641 0.01943 0.04265 0.07994 0.12692 0.03511 0.06474 -0.16882 -0.05723 0.19337 -0.09680 0.23935 0.05273 -0.11169 -0.13001 0.01090 0.01977 -0.04706 -0.05075 -0.15276 -0.15281 -0.18762 0.07330 0.01439 -0.08937 0.01548 0.01786 0.11724 0.07635 -0.07268 0.21758 -0.00459 -0.18388 -0.07439 0.11504 0.06092 -0.17482 0.23019 -0.16999 -0.11486 -0.07335 -0.03848 0.02469 -0.07218 -0.13486 -0.03806 0.16966 -0.03626 0.10178 -0.09085 -0.06451 -0.05576 -0.05329 0.05693 0.09265 -0.22684 -0.24790 0.05978 0.06870 -0.01340 -0.11744 0.19703 -0.00454 0.19646 -0.03036 -0.16007 -0.03124 0.01321 0.03336 0.12572 0.01966 0.05779 -0.17351 0.01955 0.02705 -0.09351 -0.06514 -0.03122 -0.00207 -0.03555 -0.05651 0.01476 -0.01006 -0.08212 -0.06306 0.11314 0.00972 -0.07987 0.03699 -0.00678 0.10099 -0.12434 0.08344 -0.05431 0.06367 -0.03902 -0.04470 0.01013 -0.05861 -0.15146 -0.10220 -0.01418 -0.05416 -0.18037 -0.13087 -0.03386 0.10196 0.07904 -0.14097 0.09685 -0.11809 -0.07420 -0.03483 -0.17068 0.08300 0.03761 0.08269 -0.01310 -0.00985 0.08456 0.05255 0.12740 0.08711 0.01796 0.11016 0.09937 0.04672 -0.11215 -0.17044 -0.15348 -0.08670 0.00652 0.07972 -0.07117 0.08725 0.12482 0.05751 0.04157 -0.03915 -0.08184 -0.02089 0.18686 0.05398 0.01137 -0.05206 0.05180 0.02852 0.13237 -0.11393 0.12390 0.01604 -0.07343 0.14663 -0.00210 -0.09577 -0.13194 -0.17877 0.00224 -0.00575 -0.12922 -0.20822 -0.03557 0.08083 -0.02538 0.20610 -0.06358 -0.10072 -0.19214 0.20598 0.12686 -0.14387 -0.00356 0.04271 0.04114 0.15689 -0.08672 0.11152 0.00166 0.20707 0.12365 0.10127 -0.07530 0.13279 -0.05144 -0.06514 -0.07970 -0.05870 -0.12132 -0.10046 -0.11935 0.17815 -0.07085 0.08707 -0.03012 -0.04106 -0.11782 -0.14842 -0.13334 0.19076 -0.03972 -0.01208 -0.11703 -0.00818 0.04769 0.18420 -0.11198 -0.04710 -0.09480 0.07122 0.00446 -0.04408 0.12437 0.12444 0.11168 0.20733 -0.15779 -0.10003 0.12246 -0.10432 -0.06568 -0.13587 -0.09294 0.24913 0.00568 -0.04633 -0.06491 0.00516 0.13945 -0.15558 -0.08925 -0.10831 -0.17560 0.08104 0.13733 -0.04151 -0.15837 0.04801 -0.00119 0.01722 0.07177 0.13290 0.03693 -0.04653 -0.12653 -0.03045 0.05388 -0.13643 -0.16588 -0.13010 0.08595 -0.04673 -0.02264 0.01586 0.00167 -0.12341 -0.08549 0.00567 0.04346 -0.06833 0.09512 -0.02170 -0.16566 -0.00997 -0.10545 -0.10263 0.07905 -0.10078 -0.12290 0.11672 0.21524 -0.11799 0.05754 -0.05960 -0.05376 -0.08925 0.07692 0.09935 0.04329 0.01207 0.00412 0.10157 -0.13795 0.00872 0.00280 0.08854 -0.08289 -0.08726 -0.15660 0.20009 0.12345 -0.13124 -0.07045 0.03854 0.05576 -0.15983 0.00674 -0.15930 -0.06691 0.02173 0.15564 -0.07445 -0.05526 0.08056 -0.11145 -0.15498 -0.10675 0.05256 0.09862 -0.11936 -0.11994 0.08696 -0.01353 0.02775 -0.07574 -0.08693 0.04399 -0.05182 0.05203 -0.14809 -0.01480 -0.12828 -0.06446 -0.13456 -0.09445 -0.02475 -0.07453 0.11216 0.07690 -0.13435 -0.20225 0.02999 -0.11534 0.13643 -0.04451 0.00210 0.06156 -0.04876 0.19262 0.00662 -0.03945 0.08255 0.20705 0.13408 -0.09720 -0.03132 -0.08001 -0.03656 0.16723 -0.17462 -0.13398 -0.06353 -0.10673 0.10244 0.09402 0.07464 0.01604 -0.13144 0.08922 0.17111 0.01147 -0.08297 0.01497 -0.18139 -0.14234 -0.15209 0.17591 -0.12130 -0.06069 0.07813 0.07844 -0.06341 0.05151 0.09462 0.06153 -0.04018 -0.02777 -0.12062 -0.13769 0.01282 -0.00967 -0.01577 -0.21611 0.11719 -0.08288 -0.14568 -0.17957 -0.13528 0.00248 -0.09329 0.18978 0.04440 -0.11969 0.04789 0.05547 -0.04107 0.07420 -0.00823 -0.04409 0.07389 -0.02451 0.06663 -0.14254 0.15248 0.15153 0.10624 -0.09030 0.03584 -0.09042 -0.03334 0.02289 0.02276 -0.13884 0.00811 -0.13963 -0.05109 -0.05048 -0.13103 0.03572 -0.00723 0.15913 0.09111 -0.09406 -0.12226 0.03848 -0.06553 -0.08289 -0.03957 0.14626 0.05536 -0.00058 0.01917 -0.16289 -0.14924 -0.06044 -0.03681 -0.08536 0.16160 0.05177 0.15421 0.05347 -0.09681 0.18442 0.05464 0.12847 0.09987 -0.02554 0.02466 -0.13394 -0.03540 -0.07750 0.01347 -0.17502 0.13561 0.05474 0.04794 -0.01663 -0.08295 -0.01382 -0.10934 -0.09227 -0.10788 -0.19665 -0.17451 -0.01140 0.06294 0.06919 -0.15897 -0.10855 0.01273 -0.14090 0.00266 -0.06887 0.11004 -0.08578 -0.17147 0.11233 0.00453 -0.03778 0.12804 -0.08853 0.06965 0.13892 -0.19379 -0.15427 -0.02869 0.11990 0.03209 0.09620 -0.14336 0.08410 -0.10119 -0.00260 0.15651 0.12279 -0.13147 0.03907 -0.10326 0.04034 0.03729 -0.09923 -0.04078 0.04741 -0.05666 -0.04064 0.01519 0.04159 -0.12697 -0.08183 0.13041 0.00482 0.02249 -0.10361 0.01769 -0.23683 -0.14542 -0.11578 0.05099 -0.13618 -0.13100 -0.04761 0.15172 -0.00615 -0.09389 -0.01879 -0.03907 -0.07688 0.00542 0.04088 0.08092 -0.16648 -0.09690 0.10517 -0.02099 0.13419 0.14673 -0.17518 0.12344 -0.08696 0.19497 -0.13003 0.21190 -0.17625 0.06770 0.12925 0.16479 0.04160 0.00500 -0.09266 -0.13771 -0.14496 0.06245 -0.08177 0.01098 0.15178 0.01361 0.00403 -0.01730 -0.06465 -0.12002 0.09512 0.12414 0.11076 0.06008 -0.12462 -0.05753 0.11277 0.17974 -0.19508 0.12560 0.12158 0.15164 0.19679 0.11783 0.08566 0.19066 -0.20571 0.07965 0.17689 -0.04521 -0.10210 -0.04806 -0.00351 -0.04789 -0.06596 -0.10625 -0.04780 -0.07965 -0.07642 0.04316 0.02549 0.09448 0.11776 -0.15084 -0.12244 -0.00624 0.07249 0.17814 -0.05478 -0.00090 -0.09087 -0.01690 0.07916 -0.17960 0.15149 0.12535 0.11505 0.00182 -0.06612 0.10945 -0.04755 -0.09327 -0.00771 -0.04672 -0.10594 0.04584 0.10129 0.09236 0.03491 0.04072 -0.09448 -0.07003 0.06229 0.02454 -0.08272 -0.10035 0.06941 -0.09195 0.09766 0.01903 -0.07705 -0.03960 -0.04253 0.09095 0.00801 -0.02422 0.01329 -0.04186 -0.10544 0.02903 0.10506 0.04958 0.04047 -0.16570 -0.02394 0.15525 -0.18007 -0.06823 -0.17605 -0.11404 -0.01663 0.08479 0.11723 -0.10122 0.12421 -0.10355 0.17748 0.12351 -0.14136 0.01289 0.08277 -0.04201 -0.02587 0.15432 -0.18539 0.07403 0.09915 0.09778 0.00707 -0.17695 -0.16444 -0.04922 0.10323 0.20771 0.04706 0.01071 0.10577 0.12725 -0.10776 -0.10567 -0.18981 -0.14436 -0.19104 -0.00631 0.10451 -0.21125 0.00249 -0.01520 -0.09259 0.09903 0.10629 -0.10808 -0.20729 0.13369 0.07001 0.07984 0.00431 -0.10538 0.07428 0.06970 -0.01807 -0.02829 -0.08322 0.08506 -0.00016 -0.01539 -0.09565 0.07546 -0.06839 0.10862 -0.12514 0.06100 -0.10109 -0.12896 -0.11097 -0.12526 0.08013 0.12311 0.11023 0.11114 -0.17509 0.14154 -0.06764 0.01279 -0.14513 0.18675 0.07303 -0.00607 -0.01312 0.09924 0.02470 0.10325 -0.07261 0.07517 0.04103 -0.16965 0.01644 0.00189 0.01827 0.12378 0.13158 0.06260 -0.10166 -0.18159 -0.18620 0.08876 -0.09225 -0.14908 0.01355 0.05221 0.07380 0.06669 0.16069 0.01586 -0.00922 0.08277 0.22065 0.14651 0.10625 -0.17068 0.17077 0.07956 0.08298 -0.22359 0.18449 0.00924 -0.25054 -0.02268 -0.21023 0.00589 0.12288 0.15560 0.10071 -0.11536 -0.03016 0.10573 -0.10881 -0.15299 0.14901 0.04135 -0.09678 -0.16749 -0.13930 0.06710 -0.07206 -0.05423 0.14927 -0.10940 -0.16317 0.10340 -0.01911 -0.02817 0.11378 -0.09354 0.06173 0.02528 -0.09211 0.10373 -0.10732 0.14693 0.03700 0.09493 0.15204 0.12849 -0.06938 0.02706 0.07196 -0.08229 0.04819 0.06310 -0.09600 -0.05548 -0.03175 0.11917 -0.00633 0.11728 0.01905 -0.09746 -0.14276 0.19234 -0.10906 -0.04828 -0.11408 -0.17600 0.07713 0.10463 -0.17739 -0.06684 0.20289 -0.09503 0.01772 -0.21385 -0.06479 -0.14423 -0.09563 -0.04667 -0.05602 -0.00512 -0.03417 0.01394 0.12703 0.06926 -0.12520 0.13895 0.12396 0.05807 -0.05288 -0.07967 0.00155 0.10686 -0.10472 -0.06221 -0.00938 -0.14504 0.08549 -0.11731 -0.12978 -0.18605 0.04308 -0.05330 -0.02936 -0.24384 0.04607 0.04706 0.16397 0.17279 -0.20126 -0.07543 0.07355 -0.18296 -0.04414 -0.12255 -0.10117 -0.09097 -0.07306 0.10719 -0.19724 -0.03814 0.09568 -0.15804 0.11708 -0.13388 -0.16276 0.05172 0.14140 -0.02233 0.12391 -0.09846 -0.02851 -0.10866 -0.00931 0.02971 -0.04332 0.06661 0.09561 0.03347 0.11085 0.10275 0.08955 0.06296 -0.03438 0.02285 0.02451 -0.05130 -0.16488 -0.05836 -0.04573 -0.02853 0.08224 0.09093 0.11553 -0.00343 -0.05401 -0.02167 0.00531 -0.01117 -0.11669 -0.01922 0.00674 -0.15029 -0.06322 -0.05251 0.07791 -0.06288 -0.18422 0.03063 -0.09120 0.17498 0.11900 -0.19973 -0.02857 -0.21287 -0.16543 0.01084 0.05733 0.08806 0.06572 0.15413 -0.02382 0.09233 0.18326 -0.06601 -0.09860 -0.02426 0.00039 0.01462 -0.08101 -0.12272 0.15318 0.10963 -0.06291 0.17124 -0.07987 0.12376 0.15044 0.13875 0.17866 0.13835 -0.03947 -0.01577 0.15200 -0.09325 0.01176 0.04739 -0.05960 -0.10652 -0.00910 -0.10004 -0.11088 -0.09949 0.02885 0.19986 0.03627 0.12998 -0.03335 0.08878 -0.06968 0.08863 0.02375 0.05881 0.00806 0.08627 -0.01666 -0.06153 0.07414 0.00197 0.09454 -0.03470 -0.10871 -0.14258 -0.26437 -0.16706 -0.09619 0.06551 -0.13934 -0.04467 0.19667 -0.01787 0.13194 0.05281 -0.10557 0.12027 0.16588 0.05275 -0.22084 -0.08984 -0.07832 0.13630 0.08843 0.08300 -0.01452 -0.10165 -0.04425 -0.11886 0.05236 -0.01377 -0.03269 0.06641 -0.12708 -0.13910 0.14997 0.11200 0.09238 -0.06418 -0.11286 -0.00579 -0.02440 0.10242 0.04557 0.14178 -0.13353 -0.16423 -0.05714 -0.02090 -0.06261 0.08262 0.19279 -0.02423 0.05672 -0.03797 0.03196 0.02338 -0.02135 -0.12545 -0.04821 -0.12266 0.06848 -0.04454 -0.15550 -0.04838 -0.03328 0.14498 -0.01698 0.01400 0.22489 0.16056 -0.12434 -0.06769 -0.04817 0.08200 -0.08410 0.03696 0.04576 -0.14704 0.10098 -0.09762 0.05368 0.01203 -0.04470 -0.05869 0.12489 -0.06528 0.10632 -0.11063 -0.08917 0.11560 0.05182 0.05147 0.11715 -0.02731 -0.14378 0.01357 0.13187 -0.10358 -0.13199 -0.01937 -0.05849 0.08377 -0.05123 0.00336 -0.16886 -0.14632 0.09384 -0.04734 0.15560 -0.17860 -0.11655 0.11997 0.19880 -0.07899 0.06965 0.08124 0.14673 -0.04766 0.02044 0.07694 -0.03881 0.01964 0.00713 -0.06507 -0.08692 0.00084 0.03873 -0.10743 -0.16122 -0.08339 0.06994 -0.07468 -0.16290 -0.12986 -0.20178 -0.05675 -0.09212 0.14512 -0.07425 -0.10878 -0.00763 0.07390 -0.12414 0.10701 -0.15473 0.00652 0.08704 -0.11498 0.11141 0.16174 -0.16421 -0.12984 0.15841 -0.07287 -0.02382 0.10026 0.04735 -0.03644 -0.01879 0.01790 -0.18238 -0.13791 -0.04203 -0.10256 -0.17854 0.03113 -0.09032 -0.02601 -0.02713 0.03028 -0.13232 -0.20154 0.14273 -0.09163 -0.00134 -0.07315 -0.04858 -0.13546 0.04574 0.15531 -0.13025 0.05819 -0.09680 0.09429 -0.18380 0.16318 -0.03191 -0.12255 0.12200 0.09728 0.10660 -0.09761 0.02364 0.05502 -0.09009 0.03660 0.10864 0.08776 0.02392 -0.09256 -0.12078 -0.13517 0.18728 -0.00667 -0.10685 0.09564 -0.07586 0.09310 -0.11062 -0.13288 -0.06488 0.03596 -0.11076 0.01514 -0.11203 -0.07157 -0.18394 0.04042 0.10606 -0.17132 -0.08130 0.01003 -0.05155 -0.09802 -0.14871 0.02914 0.12982 0.08596 0.08198 -0.12923 -0.13645 -0.09072 0.04726 0.13237 0.13771 -0.03506 -0.14340 0.07361 0.10520 0.17417 0.12966 -0.10476 0.06212 -0.13522 0.02839 -0.14193 -0.14845 -0.06292 0.03646 -0.12435 -0.18207 0.11253 0.07829 -0.09966 -0.07672 0.08156 0.02574 0.06678 0.15896 -0.12067 -0.10628 0.06012 -0.05121 -0.13963 0.03455 -0.07820 -0.02867 -0.12320 -0.08940 0.04914 0.15466 0.03088 -0.18539 -0.02043 -0.02741 -0.14756 -0.05402 -0.05896 0.05011 -0.03647 0.02735 0.14428 0.09505 0.08025 0.15151 -0.08905 0.13045 0.06671 -0.05214 0.07097 -0.14005 0.01269 -0.15008 0.09215 -0.02320 -0.14723 -0.04578 -0.06553 -0.07829 -0.11632 0.08410 0.01649 -0.07814 -0.10768 0.00824 0.05158 -0.11864 0.08222 0.00719 0.04994 -0.12107 0.03542 -0.12472 0.08596 0.08380 -0.14034 -0.08270 -0.16645 0.14550 -0.09045 -0.10801 0.04145 0.06731 -0.02788 0.08970 0.06384 0.07152 0.00433 0.03345 0.10391 -0.16652 -0.13570 0.10406 -0.02059 -0.11273 -0.04702 -0.09903 -0.09961 0.06147 -0.10592 0.06207 0.14815 0.04427 -0.18775 -0.06676 0.05690 -0.12236 -0.03888 -0.00505 0.13743 -0.18348 -0.16042 0.03829 0.13859 0.18656 0.14692 -0.01367 -0.00805 -0.09504 -0.09733 -0.07556 0.10745 0.14727 0.12970 -0.15611 0.03684 0.00240 -0.03585 0.17750 -0.10411 -0.08470 -0.07477 0.11185 0.18915 0.02030 0.11309 0.06934 0.05326 0.03304 0.02694 0.09591 0.20354 -0.09117 -0.02919 0.11173 -0.05517 0.14828 -0.02187 0.05170 0.04058 0.03257 -0.03738 0.18027 0.04941 -0.19781 
0.02021 -0.01744 0.01166 0.00200 -0.01945 0.03073 0.01888 -0.04087 0.01417 -0.00808 -0.03337 0.02977 -0.02623 -0.03803 -0.01988 0.02887 0.00563 -0.02405 -0.03134 0.03252 -0.03034 0.02519 0.00143 -0.03012 -0.00608 
0.39164 -0.25517 0.40321 0.27271 0.38129 0.39440 -0.36902 0.03641 0.30138 -0.11800 0.27017 0.22906 -0.38729 0.00250 0.04233 0.19467 0.27194 0.17396 0.40388 0.07434 0.16257 0.29943 -0.05692 -0.19673 0.20063 0.16892 0.37151 0.18040 0.32608 0.21379 0.38059 0.10816 
-0.00769 
