-1.930487304925918579e-01 1.293678581714630127e-01 -7.478822022676467896e-02 5.171729996800422668e-02 1.462461650371551514e-01 1.935085505247116089e-01 3.876358270645141602e-02 -1.333250254392623901e-01 1.910086274147033691e-01 8.698988705873489380e-02 1.617203839123249054e-02 6.952741742134094238e-02 1.546920686960220337e-01 5.464259162545204163e-02 -2.380214035511016846e-01 -5.233518034219741821e-02 1.882934719324111938e-01 1.399634033441543579e-01 4.079662635922431946e-02 5.363583564758300781e-02 -2.046584337949752808e-02 -1.456250399351119995e-01 3.023006580770015717e-02 1.022031307220458984e-01 2.019992321729660034e-01 -1.721517443656921387e-01 1.947753876447677612e-01 -2.367623448371887207e-01 3.599641099572181702e-02 9.156662970781326294e-02 1.114259958267211914e-01 -1.901180893182754517e-01 -2.249516397714614868e-01 1.712946742773056030e-01 -2.314666360616683960e-01 1.686709076166152954e-01 1.748680323362350464e-01 1.488806754350662231e-01 -1.634509712457656860e-01 1.955204457044601440e-01 2.089468017220497131e-02 1.400212794542312622e-01 1.049470435827970505e-02 -9.210803359746932983e-02 -1.073942705988883972e-01 -1.623650491237640381e-01 -4.557153955101966858e-02 -1.032760515809059143e-01 1.591493189334869385e-01 1.920376420021057129e-01 -1.790608465671539307e-01 2.443465739488601685e-01 2.104084491729736328e-01 2.217393368482589722e-01 -1.199584361165761948e-02 -1.494458168745040894e-01 -1.160374358296394348e-01 1.597526669502258301e-01 2.797593176364898682e-02 1.515232175588607788e-01 -8.092372864484786987e-02 -1.976665407419204712e-01 -2.197359353303909302e-01 -8.053625375032424927e-02 3.531589359045028687e-02 1.864353716373443604e-01 9.912963956594467163e-02 1.066167429089546204e-01 -2.311031520366668701e-01 1.643474102020263672e-01 4.246919229626655579e-02 6.462514400482177734e-02 -1.668013185262680054e-01 -1.638735830783843994e-01 1.735849827527999878e-01 -3.140198811888694763e-02 9.813910722732543945e-02 -1.845493167638778687e-01 -2.142981998622417450e-02 1.838303953409194946e-01 -1.897356845438480377e-02 2.023857235908508301e-01 -9.831189364194869995e-02 1.508017778396606445e-01 -2.290238440036773682e-01 8.305083215236663818e-02 1.715731918811798096e-01 2.273417115211486816e-01 5.462577193975448608e-02 -1.111320331692695618e-01 -2.280290871858596802e-01 7.969982922077178955e-02 -1.519512291997671127e-02 -1.420243829488754272e-01 1.848241537809371948e-01 2.457099556922912598e-01 9.592548012733459473e-02 -7.875646650791168213e-02 1.528034508228302002e-01 -3.247938305139541626e-02 7.027412205934524536e-02 8.566231280565261841e-02 -3.258059546351432800e-02 -1.442598700523376465e-01 -6.079090759158134460e-02 -9.264519438147544861e-03 2.489519864320755005e-01 2.063960283994674683e-01 -1.222847551107406616e-01 1.132591664791107178e-01 8.296476304531097412e-02 -1.184267252683639526e-01 -5.771502107381820679e-02 3.899228200316429138e-02 -2.703752554953098297e-02 -4.007457569241523743e-02 1.985950469970703125e-01 2.162078320980072021e-01 1.521802134811878204e-02 1.532917916774749756e-01 5.318120121955871582e-02 -2.109376043081283569e-01 -8.632787317037582397e-02 -1.359207630157470703e-01 1.900512725114822388e-01 1.095312237739562988e-01 -1.261583715677261353e-01 1.112444624304771423e-01 1.623273789882659912e-01 1.523599307984113693e-02 3.683132678270339966e-02 1.492414772510528564e-01 1.188906207680702209e-01 2.340983003377914429e-01 -2.310053259134292603e-01 -1.314460337162017822e-01 4.587292298674583435e-02 1.402873545885086060e-02 2.371869534254074097e-01 1.499844491481781006e-01 -4.295109957456588745e-02 -1.511517018079757690e-01 -1.442873030900955200e-01 -1.951379477977752686e-01 -1.574711799621582031e-01 2.161606103181838989e-01 2.323272526264190674e-01 1.870523244142532349e-01 4.604432359337806702e-02 -8.003745973110198975e-02 -2.355251759290695190e-01 1.873891055583953857e-01 1.060705166310071945e-02 -7.339464128017425537e-02 5.296849831938743591e-02 2.100898623466491699e-01 2.344578057527542114e-01 -2.081429213285446167e-01 -2.256415933370590210e-01 3.298730403184890747e-02 -2.262602150440216064e-01 -2.071655588224530220e-03 -1.647229492664337158e-01 -6.330516934394836426e-02 -2.292459309101104736e-01 8.672007918357849121e-02 -8.902224898338317871e-02 1.632223837077617645e-02 -1.226442083716392517e-01 -2.148755341768264771e-01 2.610226571559906006e-01 -1.457401663064956665e-01 -1.033610478043556213e-01 1.006111353635787964e-01 -1.507710218429565430e-01 -6.747933477163314819e-02 1.090087741613388062e-01 -1.119719520211219788e-01 1.161374226212501526e-01 7.811099290847778320e-02 -1.628210246562957764e-01 9.166982024908065796e-02 4.968975484371185303e-02 -5.619226023554801941e-02 6.129955872893333435e-03 2.137559950351715088e-01 2.168007344007492065e-01 -1.822972744703292847e-01 1.136875748634338379e-01 7.981017976999282837e-02 -1.728717982769012451e-01 6.187540665268898010e-02 -1.809258610010147095e-01 -4.443816468119621277e-02 2.090595066547393799e-01 2.245823293924331665e-01 4.829159379005432129e-02 -1.811476200819015503e-01 -1.546236779540777206e-02 -8.340981602668762207e-02 -6.443005800247192383e-02 -1.644109785556793213e-01 -1.952760517597198486e-01 -1.446537766605615616e-02 1.038530319929122925e-01 1.121961548924446106e-01 -1.401667892932891846e-01 -1.637983918190002441e-01 -2.205400913953781128e-01 -1.385347247123718262e-01 -4.849854484200477600e-02 6.944844871759414673e-02 1.437996029853820801e-01 5.182910338044166565e-02 6.011314317584037781e-02 4.169719666242599487e-02 
9.814062118530273438e-01 9.807589054107666016e-01 1.014766335487365723e+00 9.973862767219543457e-01 9.924898743629455566e-01 1.006364226341247559e+00 1.006979823112487793e+00 1.019544839859008789e+00 
-1.574986986815929413e-02 9.348837658762931824e-03 8.065868169069290161e-03 -1.670740172266960144e-02 -6.101119797676801682e-03 -8.487737737596035004e-03 -1.525628659874200821e-02 1.767085120081901550e-02 
1.835312396287918091e-01 2.082778811454772949e-01 -3.951074928045272827e-02 2.026508301496505737e-01 2.146106362342834473e-01 -6.170572340488433838e-02 -1.561589073389768600e-02 -1.585158258676528931e-01 
5.968453735113143921e-02 1.289463341236114502e-01 3.296480327844619751e-02 6.746692210435867310e-02 7.742211967706680298e-02 5.598204955458641052e-02 6.043740361928939819e-02 5.657042190432548523e-02 
-5.456323921680450439e-02 2.029456943273544312e-02 -7.000362128019332886e-02 3.553493320941925049e-02 -1.518540084362030029e-01 -5.143177509307861328e-02 -4.150095582008361816e-02 1.103748083114624023e-01 -1.423709243535995483e-01 -8.036032319068908691e-02 4.569538310170173645e-02 4.052526876330375671e-02 6.515315175056457520e-02 -1.337529122829437256e-01 8.720466494560241699e-02 1.205927133560180664e-01 -1.159679889678955078e-01 5.914882570505142212e-02 -9.489699453115463257e-02 6.283000111579895020e-02 -1.534662544727325439e-01 -1.081866770982742310e-01 -1.530497986823320389e-02 -1.429154723882675171e-02 1.149142459034919739e-01 3.949948027729988098e-02 1.356983482837677002e-01 -7.614427804946899414e-02 1.826694011688232422e-01 7.586240768432617188e-03 4.224634543061256409e-02 -7.005647569894790649e-02 -6.496348232030868530e-02 1.955632865428924561e-01 1.171879470348358154e-01 1.502830088138580322e-01 1.560442149639129639e-01 1.733166873455047607e-01 1.451023668050765991e-02 -1.173368468880653381e-01 4.285183269530534744e-03 4.310067370533943176e-02 8.019788563251495361e-02 -6.471894681453704834e-02 -1.315539479255676270e-01 -1.440546512603759766e-01 1.527892649173736572e-01 5.268035456538200378e-02 6.992769986391067505e-02 1.944494806230068207e-02 -4.589367657899856567e-02 2.465455606579780579e-02 -1.180569082498550415e-01 -1.467243731021881104e-01 -2.066502869129180908e-01 -1.192113086581230164e-01 -2.028052210807800293e-01 1.054921075701713562e-01 1.690459400415420532e-01 -1.916442960500717163e-01 1.435186713933944702e-01 -1.105076447129249573e-02 -8.874972909688949585e-02 8.443300426006317139e-02 3.620110079646110535e-02 -9.455364197492599487e-02 2.074618637561798096e-01 -9.161216765642166138e-02 1.659014075994491577e-01 5.040165781974792480e-02 1.256388127803802490e-01 1.281355600804090500e-02 -3.740734979510307312e-02 2.023966610431671143e-01 -9.987279772758483887e-02 1.085720211267471313e-01 1.623875498771667480e-01 -1.495833694934844971e-01 1.600258983671665192e-02 -1.892098039388656616e-01 -1.538351923227310181e-01 -1.379213780164718628e-01 -1.492304168641567230e-02 -7.911528646945953369e-02 4.830108582973480225e-02 -1.267193704843521118e-01 -1.024500802159309387e-01 -1.653025746345520020e-01 -1.150113493204116821e-01 1.826958358287811279e-01 -9.586673974990844727e-02 -1.165137365460395813e-01 1.737410277128219604e-01 1.519838124513626099e-01 4.502297192811965942e-02 9.193056821823120117e-02 -1.871984750032424927e-01 2.053483277559280396e-01 1.130996271967887878e-01 -8.053860627114772797e-03 1.124984472990036011e-01 -7.632126659154891968e-02 -1.164662241935729980e-01 1.967567950487136841e-02 -3.164750710129737854e-02 -1.207699105143547058e-01 -1.783716380596160889e-01 -7.544588297605514526e-02 -2.967494353652000427e-02 4.673508927226066589e-03 8.699962496757507324e-02 -1.413783878087997437e-01 -2.108573615550994873e-01 -1.995449215173721313e-01 1.434463113546371460e-01 -1.502660959959030151e-01 3.965849056839942932e-02 -1.074914634227752686e-01 1.074621900916099548e-01 1.552061289548873901e-01 1.032408922910690308e-01 6.842037290334701538e-02 -1.146550476551055908e-01 6.105964630842208862e-02 -5.906522646546363831e-02 1.719350218772888184e-01 1.579858511686325073e-01 -9.173800796270370483e-02 -1.813705861568450928e-01 1.826270520687103271e-01 1.172782778739929199e-01 -1.096029207110404968e-01 -8.336006104946136475e-02 8.657512813806533813e-02 -1.021427586674690247e-01 9.043027460575103760e-02 -5.917249992489814758e-02 1.980886459350585938e-01 -1.701999902725219727e-01 6.306192278861999512e-02 -1.363080590963363647e-01 1.666309833526611328e-01 -5.096966400742530823e-02 1.492789089679718018e-01 7.135619968175888062e-02 -1.956872493028640747e-01 9.976241737604141235e-03 1.775095313787460327e-01 -1.054072380065917969e-01 3.740859404206275940e-02 3.515479341149330139e-02 -2.687007002532482147e-02 -7.358967512845993042e-02 -6.227048859000205994e-02 -5.177622288465499878e-02 6.616614013910293579e-02 -2.382103120908141136e-03 -2.392543479800224304e-02 9.721053391695022583e-02 8.612207323312759399e-02 1.937768608331680298e-01 -1.236190572381019592e-01 2.057235240936279297e-01 1.503063589334487915e-01 -1.197113618254661560e-01 1.099950820207595825e-01 -1.883199065923690796e-01 9.939510375261306763e-03 1.532505005598068237e-01 -1.917059868574142456e-01 -9.037168323993682861e-02 1.804827600717544556e-01 1.147835254669189453e-01 1.575482785701751709e-01 -9.356842935085296631e-02 6.114172562956809998e-02 -7.909400761127471924e-02 2.099033445119857788e-01 -3.966181352734565735e-02 -1.384317576885223389e-01 -1.751734614372253418e-01 -9.269316494464874268e-02 6.270899903029203415e-03 6.768273562192916870e-02 -1.256036013364791870e-01 -3.416507318615913391e-02 6.030990928411483765e-02 3.924209624528884888e-02 1.081032156944274902e-01 -6.493421643972396851e-02 1.150361355394124985e-02 3.308241441845893860e-02 8.086296170949935913e-02 -1.622564643621444702e-01 2.280711010098457336e-02 -1.920558661222457886e-01 -1.885349154472351074e-01 1.756796091794967651e-01 3.392700850963592529e-02 -6.753291934728622437e-02 -1.608954668045043945e-01 -1.915694773197174072e-01 1.035226657986640930e-01 -1.786580830812454224e-01 3.673868998885154724e-02 7.286609709262847900e-02 8.179493993520736694e-02 1.698329746723175049e-01 1.925447732210159302e-01 -1.676274240016937256e-01 -4.412796720862388611e-02 -3.975570946931838989e-02 -3.240341320633888245e-02 1.947966814041137695e-01 -1.003236025571823120e-01 -1.162481755018234253e-01 -1.351085901260375977e-01 -1.573630049824714661e-02 -5.716392770409584045e-02 7.747375965118408203e-02 -1.215497702360153198e-01 2.005057334899902344e-01 1.866925507783889771e-01 -8.617606759071350098e-02 -1.657608151435852051e-01 1.302622109651565552e-01 1.204836647957563400e-02 1.677214503288269043e-01 -1.414260566234588623e-01 6.253589689731597900e-02 -1.075146421790122986e-01 1.865442991256713867e-01 1.905827373266220093e-01 -5.143843591213226318e-02 -2.532798610627651215e-02 1.816824674606323242e-01 -8.665570616722106934e-02 -1.731081753969192505e-01 -7.277039438486099243e-02 -5.929741263389587402e-02 -2.182517647743225098e-01 7.755727320909500122e-02 -1.678965520113706589e-03 1.385273486375808716e-01 1.091453135013580322e-01 -5.548374354839324951e-02 -1.972623616456985474e-01 7.784724980592727661e-02 -1.915306448936462402e-01 -2.398335933685302734e-02 4.952972754836082458e-02 -1.086816787719726562e-01 1.074298396706581116e-01 -8.513776212930679321e-02 -1.465457826852798462e-01 -5.551337078213691711e-02 2.587278559803962708e-02 -1.107494831085205078e-01 -1.111415699124336243e-01 -1.808396279811859131e-01 2.217631414532661438e-02 -1.101245582103729248e-01 -1.730536073446273804e-01 -1.621667444705963135e-01 2.039547711610794067e-01 -1.944917589426040649e-01 -8.946526050567626953e-02 1.250378489494323730e-01 3.486919775605201721e-02 1.816942542791366577e-01 5.991657823324203491e-02 5.354133620858192444e-02 6.077711284160614014e-02 7.739234715700149536e-02 -2.107331603765487671e-01 -1.075110509991645813e-01 1.911853253841400146e-01 7.134746760129928589e-02 -7.247239351272583008e-02 -1.702387034893035889e-01 1.463216394186019897e-01 -7.133464515209197998e-02 1.721215844154357910e-01 1.373452395200729370e-01 -1.223792284727096558e-01 -1.536689549684524536e-01 -1.289118528366088867e-01 1.660542786121368408e-01 1.717777997255325317e-01 -1.315433233976364136e-01 -4.640168696641921997e-02 -1.905258297920227051e-01 7.634118944406509399e-02 2.167269587516784668e-01 -1.664251238107681274e-01 1.437432616949081421e-01 -4.786641523241996765e-02 1.344292312860488892e-01 1.860168278217315674e-01 -9.418674744665622711e-03 -1.482874527573585510e-02 -1.188801834359765053e-04 9.290148317813873291e-02 1.134131550788879395e-01 9.522267431020736694e-02 1.237902343273162842e-01 1.656022965908050537e-01 -4.013530910015106201e-03 5.930024385452270508e-02 1.294629275798797607e-01 1.141553074121475220e-01 2.465856075286865234e-02 2.537476457655429840e-02 1.064744815230369568e-01 9.870442748069763184e-02 1.749983057379722595e-02 1.809035390615463257e-01 1.133308634161949158e-01 -1.153962090611457825e-01 -1.582491397857666016e-01 -3.775630146265029907e-02 -1.541635096073150635e-01 4.879938438534736633e-02 1.372475475072860718e-01 -1.956700533628463745e-01 2.258254215121269226e-02 4.007231816649436951e-02 -5.228230357170104980e-02 1.666727811098098755e-01 -5.538888648152351379e-02 -6.918187439441680908e-02 -5.751937627792358398e-03 -4.067634418606758118e-02 -3.924850374460220337e-02 7.035189121961593628e-02 -9.291061013936996460e-02 -9.402056783437728882e-02 1.170551329851150513e-01 -1.648580282926559448e-01 4.035903140902519226e-02 1.403201222419738770e-01 1.384708285331726074e-01 6.635490804910659790e-03 1.068639233708381653e-01 5.163132026791572571e-02 -1.214606240391731262e-01 1.943528354167938232e-01 1.237815394997596741e-01 -1.542623341083526611e-01 7.972082495689392090e-02 8.580842614173889160e-02 -8.527596294879913330e-02 1.081042438745498657e-01 -2.768189646303653717e-02 -1.860754936933517456e-01 6.068238988518714905e-02 1.893704533576965332e-01 1.095793470740318298e-01 1.169046983122825623e-01 -7.704987190663814545e-03 1.231492832303047180e-01 -1.041844636201858521e-01 3.570356220006942749e-02 5.524985492229461670e-02 -8.978614956140518188e-02 -1.207253783941268921e-01 2.056067436933517456e-01 -1.075608581304550171e-01 -1.612205058336257935e-01 -1.871580630540847778e-01 9.360115230083465576e-02 1.264175921678543091e-01 1.762748509645462036e-01 1.266557276248931885e-01 -8.525087684392929077e-02 6.424754858016967773e-02 -1.350388675928115845e-01 7.367302477359771729e-02 3.633772209286689758e-02 -8.978758752346038818e-02 2.048787325620651245e-01 -1.798570156097412109e-01 -4.292700812220573425e-02 -3.769858181476593018e-02 1.853219717741012573e-01 6.633910536766052246e-02 1.648857593536376953e-01 -1.592830419540405273e-01 1.101475507020950317e-01 1.711411327123641968e-01 1.680718064308166504e-01 -1.529433280229568481e-01 1.261071562767028809e-01 1.574569344520568848e-01 -2.950461022555828094e-02 1.170200034976005554e-01 8.757589757442474365e-02 1.374585926532745361e-01 1.501146107912063599e-01 -7.874605804681777954e-02 -8.535191416740417480e-02 3.936422616243362427e-02 -7.668466866016387939e-02 1.922842115163803101e-02 -1.024293377995491028e-01 3.116501495242118835e-03 3.647661581635475159e-02 -1.135798469185829163e-01 1.024131849408149719e-01 -1.590586453676223755e-01 -5.080407112836837769e-02 2.290634438395500183e-02 -1.138340756297111511e-01 1.745425313711166382e-01 -2.977222204208374023e-02 -1.313926279544830322e-01 8.669035136699676514e-02 -1.602596193552017212e-01 -3.295942768454551697e-02 -1.401741355657577515e-01 6.660937517881393433e-02 -1.737552285194396973e-01 -1.619166284799575806e-01 -1.707051843404769897e-01 1.737452745437622070e-01 1.855685114860534668e-01 -2.293429523706436157e-02 1.775563061237335205e-01 -5.510686431080102921e-03 8.015384525060653687e-02 4.193507134914398193e-03 1.708452962338924408e-02 7.009350508451461792e-02 -1.639257818460464478e-01 2.127128187566995621e-03 -8.632767200469970703e-02 -9.803999960422515869e-02 1.777863502502441406e-02 1.480233967304229736e-01 5.840063840150833130e-02 -6.424990296363830566e-02 -6.951649487018585205e-02 1.429738849401473999e-01 -2.053935527801513672e-01 -3.253326565027236938e-02 -5.070075020194053650e-02 1.619961261749267578e-01 1.101858466863632202e-01 -6.136202439665794373e-02 1.794454604387283325e-01 1.816154867410659790e-01 -1.898982673883438110e-01 5.344753712415695190e-02 -4.208332300186157227e-02 -1.610927656292915344e-02 1.619902849197387695e-01 -1.622939109802246094e-01 -1.895612329244613647e-01 -3.478903323411941528e-02 -1.854667961597442627e-01 1.848735958337783813e-01 -1.446324288845062256e-01 -1.554001718759536743e-01 -1.955727487802505493e-01 1.353513076901435852e-02 -4.639860242605209351e-02 -1.079376786947250366e-02 1.637675315141677856e-01 1.357432156801223755e-01 1.443455368280410767e-01 1.743423491716384888e-01 -2.960669808089733124e-03 -9.384724497795104980e-02 1.819495707750320435e-01 5.616756388917565346e-04 1.756223142147064209e-01 -1.619497984647750854e-01 8.348646014928817749e-02 -1.671836674213409424e-01 -1.535352468490600586e-01 1.524177342653274536e-01 7.290609180927276611e-02 1.934180967509746552e-02 -1.261819750070571899e-01 4.376884549856185913e-02 -3.122163191437721252e-02 1.204953342676162720e-01 -1.457333862781524658e-01 -3.704323619604110718e-02 -1.742845773696899414e-01 2.017862498760223389e-01 1.306942105293273926e-01 -1.627017185091972351e-02 -8.857790380716323853e-02 -1.111422255635261536e-01 8.604069799184799194e-02 -1.787005811929702759e-01 6.232125312089920044e-02 -5.560861527919769287e-02 1.129103899002075195e-01 -8.557824045419692993e-02 -1.414803266525268555e-01 2.064029574394226074e-01 7.406084239482879639e-02 -1.795572638511657715e-01 1.881709694862365723e-01 -6.873380392789840698e-02 -1.240129917860031128e-01 5.974226072430610657e-02 1.375688165426254272e-01 -1.872109621763229370e-01 1.870987564325332642e-02 8.186300098896026611e-02 -1.404131352901458740e-01 3.649178892374038696e-02 -1.844019293785095215e-01 1.883779317140579224e-01 -9.155583381652832031e-02 1.813125610351562500e-01 5.917138978838920593e-02 8.134189248085021973e-02 -1.655345708131790161e-01 1.917645186185836792e-01 -3.182739391922950745e-02 -1.596130281686782837e-01 7.153319660574197769e-03 -7.857125252485275269e-03 6.143708527088165283e-02 1.270999908447265625e-01 -1.933247745037078857e-01 -1.180252712219953537e-02 -1.545481681823730469e-01 1.102664768695831299e-01 -8.710630238056182861e-02 1.398798376321792603e-01 5.168537423014640808e-02 6.303034722805023193e-02 -7.871451973915100098e-02 1.844940036535263062e-01 -8.439920842647552490e-02 -2.651037648320198059e-02 -1.372151523828506470e-01 -1.208157017827033997e-01 9.898380190134048462e-02 1.004425361752510071e-01 8.858260512351989746e-02 1.097022965550422668e-01 1.338785588741302490e-01 -1.083365529775619507e-01 1.141729801893234253e-01 2.625097706913948059e-02 -3.639792650938034058e-02 -2.924640849232673645e-02 -1.537609566003084183e-02 -2.327790670096874237e-02 -1.079409196972846985e-01 -1.447580456733703613e-01 -2.006428539752960205e-01 1.068504005670547485e-01 -1.266023516654968262e-01 -3.273818641901016235e-02 -1.247468814253807068e-01 1.450981646776199341e-01 -3.103259764611721039e-02 1.127301007509231567e-01 -5.458993371576070786e-03 8.641230873763561249e-03 1.988181173801422119e-01 1.209035143256187439e-01 -3.891140595078468323e-02 1.363314036279916763e-02 1.011632829904556274e-01 -6.116162240505218506e-02 -1.785145550966262817e-01 -1.385897397994995117e-01 -1.150458818301558495e-03 
1.011223435401916504e+00 1.007503986358642578e+00 1.007581710815429688e+00 9.880319833755493164e-01 9.890343546867370605e-01 9.916582703590393066e-01 9.824590086936950684e-01 1.009194135665893555e+00 
1.042586565017700195e-02 -1.789299026131629944e-02 1.477804128080606461e-02 -1.151084061712026596e-02 -1.520055253058671951e-02 -1.476617250591516495e-02 -2.247705589979887009e-03 1.009625475853681564e-02 
8.016714453697204590e-02 -1.015431210398674011e-01 -1.335561368614435196e-02 -8.480518311262130737e-02 3.923041820526123047e-01 1.382484138011932373e-01 -5.663366988301277161e-02 -4.072945564985275269e-03 
2.266498655080795288e-01 8.395068645477294922e-01 2.877123653888702393e-01 3.236769139766693115e-01 3.523023724555969238e-01 3.291054964065551758e-01 2.871376276016235352e-01 4.942362308502197266e-01 
-5.012428387999534607e-02 3.480779379606246948e-02 1.276254206895828247e-01 -5.102702230215072632e-02 1.930994689464569092e-01 -1.076734513044357300e-01 -7.448125630617141724e-02 -1.674497276544570923e-01 2.111779451370239258e-01 -2.020880728960037231e-01 -1.346939653158187866e-01 1.496600359678268433e-01 -8.473514579236507416e-03 -1.229122467339038849e-02 7.655759155750274658e-02 7.380520692095160484e-04 1.498071253299713135e-01 -2.367568947374820709e-02 1.734562963247299194e-01 9.539788961410522461e-02 1.255422681570053101e-01 -1.409032195806503296e-01 -4.285597801208496094e-02 -7.832450419664382935e-02 -9.415634907782077789e-03 -1.675458550453186035e-01 -1.165288090705871582e-01 -8.180557191371917725e-02 7.862891256809234619e-02 -1.502689272165298462e-01 1.351379156112670898e-01 -1.192311048507690430e-01 1.189811751246452332e-01 1.011912012472748756e-03 -7.979555428028106689e-02 4.097715020179748535e-02 -8.461305499076843262e-02 1.347441673278808594e-01 7.461537420749664307e-02 1.497143357992172241e-01 -1.610024273395538330e-01 1.929856389760971069e-01 -2.977754920721054077e-02 5.394982174038887024e-02 1.175267696380615234e-01 1.365313529968261719e-01 1.351813822984695435e-01 -2.130463868379592896e-01 -1.306015104055404663e-01 -1.649785786867141724e-01 9.934446215629577637e-02 4.100635647773742676e-02 -1.543794274330139160e-01 6.069787219166755676e-02 8.328975737094879150e-02 2.095973938703536987e-01 3.256866335868835449e-02 1.511131525039672852e-01 -6.443405151367187500e-02 -3.175213932991027832e-02 1.834114491939544678e-01 -1.930029839277267456e-01 -1.939063519239425659e-02 5.791926383972167969e-02 9.819838404655456543e-02 1.449860632419586182e-01 1.257257759571075439e-01 -8.003225922584533691e-02 3.094952926039695740e-02 -5.545781552791595459e-02 1.165905594825744629e-01 1.291350126266479492e-01 -1.095461770892143250e-01 -2.131625860929489136e-01 -6.683355569839477539e-02 1.555802971124649048e-01 2.042589038610458374e-01 -1.309229880571365356e-01 -1.761374622583389282e-01 -1.857024431228637695e-01 -5.744953453540802002e-02 6.054877862334251404e-02 -7.155119627714157104e-02 -4.383161291480064392e-02 -8.943749219179153442e-02 2.089065909385681152e-01 1.766641736030578613e-01 1.262204200029373169e-01 -1.661005243659019470e-02 7.644334435462951660e-02 -6.722262501716613770e-02 -1.233381778001785278e-01 1.083636358380317688e-01 -3.306614607572555542e-02 -1.679516136646270752e-01 1.680990457534790039e-01 -1.674348711967468262e-01 4.897082969546318054e-02 -5.855485051870346069e-02 -4.908145964145660400e-02 6.827653944492340088e-02 1.266770958900451660e-01 1.307840645313262939e-01 -1.308627426624298096e-01 -3.487907350063323975e-02 1.854265332221984863e-01 -1.653363555669784546e-02 -1.330814659595489502e-01 2.179488539695739746e-02 7.510752975940704346e-02 -6.086855754256248474e-02 1.473002880811691284e-01 1.499670594930648804e-01 -1.734527796506881714e-01 1.304606646299362183e-01 -1.546901464462280273e-01 1.406306475400924683e-01 -2.954828739166259766e-02 9.865429252386093140e-02 2.682306990027427673e-02 2.082352191209793091e-01 1.778459548950195312e-01 -1.325403749942779541e-01 -1.471654176712036133e-01 1.668854802846908569e-01 -6.366575509309768677e-02 -1.146608367562294006e-01 3.303154185414314270e-02 1.595331877470016479e-01 -3.464796021580696106e-02 -1.480816397815942764e-02 -9.438701719045639038e-02 -2.004324644804000854e-01 -2.447301149368286133e-02 -4.624661803245544434e-02 -7.892848551273345947e-02 -8.835528045892715454e-02 6.263823248445987701e-03 -1.607447564601898193e-01 1.539277583360671997e-01 -1.773072481155395508e-01 -1.277837604284286499e-01 1.809544116258621216e-01 6.772310286760330200e-02 -7.548552751541137695e-02 6.533537805080413818e-02 5.487680435180664062e-03 1.737452000379562378e-01 1.623700708150863647e-01 -1.998969763517379761e-01 -1.212597936391830444e-01 -3.779933229088783264e-02 1.091890260577201843e-01 2.005346864461898804e-01 2.633913978934288025e-02 -1.714417189359664917e-01 1.508537828922271729e-01 -1.682943850755691528e-01 -1.504866480827331543e-01 6.192741543054580688e-02 1.606623530387878418e-01 8.585824072360992432e-02 2.017177939414978027e-01 1.816075593233108521e-01 1.803241819143295288e-01 -1.209227666258811951e-01 1.486489921808242798e-01 9.170568734407424927e-02 -1.185691654682159424e-01 -2.983956784009933472e-02 3.079394064843654633e-02 7.444594055414199829e-02 1.937167905271053314e-02 -1.456143558025360107e-01 6.532447040081024170e-02 1.479996591806411743e-01 1.916404366493225098e-01 -1.963793337345123291e-01 8.913179044611752033e-05 1.869458556175231934e-01 -1.995162293314933777e-02 6.874876469373703003e-02 -1.379735320806503296e-01 2.325150743126869202e-02 -1.369217932224273682e-01 -2.045886665582656860e-01 -1.881664842367172241e-01 1.529707610607147217e-01 -1.066403761506080627e-01 9.695538133382797241e-02 1.676205992698669434e-01 5.345280095934867859e-02 1.722906529903411865e-01 -2.936772443354129791e-02 -1.254687178879976273e-02 2.063003480434417725e-01 2.050638496875762939e-01 -2.319079823791980743e-02 7.334008067846298218e-02 -1.087639331817626953e-01 8.722980320453643799e-02 1.755293905735015869e-01 1.761212013661861420e-02 8.032529056072235107e-02 -5.076302587985992432e-02 -6.672746688127517700e-02 1.159977689385414124e-01 7.834589481353759766e-02 -1.315162926912307739e-01 1.461250483989715576e-01 1.327932626008987427e-01 -1.124403253197669983e-01 2.289307117462158203e-02 3.791034221649169922e-02 -1.714833676815032959e-01 -1.144120618700981140e-01 -1.255905721336603165e-02 1.661235094070434570e-01 -2.108125239610671997e-01 -7.496231794357299805e-02 -6.602553278207778931e-02 -3.068694658577442169e-02 4.616901744157075882e-03 7.048918306827545166e-02 2.983051724731922150e-02 1.818810552358627319e-01 -1.371165066957473755e-01 7.396464794874191284e-02 4.124892130494117737e-02 1.143106892704963684e-01 1.342975050210952759e-01 -5.828154087066650391e-02 -1.702522784471511841e-01 1.431158185005187988e-01 -1.519748009741306305e-02 -1.747268885374069214e-01 -1.712370663881301880e-01 -1.489882767200469971e-01 -1.401693671941757202e-01 -1.940120905637741089e-01 1.586187630891799927e-01 -1.268080919981002808e-01 1.405669599771499634e-01 6.416213512420654297e-02 -8.439925312995910645e-02 -2.761022560298442841e-02 -1.088682711124420166e-01 -4.641565680503845215e-02 -1.989725381135940552e-01 -3.797117248177528381e-02 1.441954374313354492e-01 1.221943348646163940e-01 1.624332368373870850e-01 1.251237988471984863e-01 9.708710014820098877e-02 4.952256754040718079e-02 -1.340107172727584839e-01 1.298680808395147324e-02 1.070190742611885071e-01 1.302163153886795044e-01 -1.845678091049194336e-01 1.774723231792449951e-01 -9.649775177240371704e-02 6.496094912290573120e-02 1.743310987949371338e-01 -8.588561415672302246e-02 -1.046801283955574036e-01 -1.449750065803527832e-01 -5.651772953569889069e-03 -1.874540448188781738e-01 -1.143532916903495789e-01 -1.452309340238571167e-01 3.384361416101455688e-02 1.886819452047348022e-01 -8.876701444387435913e-02 -1.276573687791824341e-01 1.087487265467643738e-01 1.765305846929550171e-01 -8.906603604555130005e-02 -1.061317622661590576e-01 -2.081534266471862793e-01 -1.197698935866355896e-01 5.627711489796638489e-02 -7.148557901382446289e-02 -1.064777523279190063e-01 -1.733845025300979614e-01 9.353873133659362793e-02 1.738131232559680939e-02 -2.063213288784027100e-02 -4.732354730367660522e-02 -9.001535177230834961e-02 1.410563439130783081e-01 7.438579946756362915e-02 -1.881260573863983154e-01 -1.050836145877838135e-01 8.517032116651535034e-02 -1.538194715976715088e-01 -4.784813523292541504e-02 1.136157214641571045e-01 1.379725933074951172e-01 -1.296467781066894531e-01 -1.010981872677803040e-01 -5.927743017673492432e-02 1.996781080961227417e-01 2.042490690946578979e-01 8.044036105275154114e-03 -4.107411485165357590e-03 2.809109166264533997e-02 5.904491525143384933e-03 1.062741726636886597e-01 -1.468510925769805908e-01 -1.007322296500205994e-01 -1.513219475746154785e-01 4.644703119993209839e-03 -4.641087353229522705e-02 1.657625883817672729e-01 1.775924563407897949e-01 1.066190376877784729e-01 -9.467078745365142822e-02 1.507410258054733276e-01 -1.053096204996109009e-01 -1.745920032262802124e-01 -7.069586962461471558e-02 -1.252146512269973755e-01 -7.830110192298889160e-02 1.800605207681655884e-01 1.438654512166976929e-01 -6.894183158874511719e-02 -1.881509572267532349e-01 6.302854418754577637e-02 -1.781596988439559937e-01 1.575462222099304199e-01 1.582482904195785522e-01 -2.104539126157760620e-01 -1.578301191329956055e-01 1.348796784877777100e-01 6.337159778922796249e-03 7.085469365119934082e-02 -4.812188446521759033e-02 -1.407982558012008667e-01 -3.476395085453987122e-02 -1.535179167985916138e-01 9.785065054893493652e-02 -6.601129472255706787e-02 -1.482467949390411377e-01 -1.766480877995491028e-02 -3.187039867043495178e-02 9.133658558130264282e-02 5.342348292469978333e-02 5.087792500853538513e-02 5.343911796808242798e-02 -1.813178658485412598e-01 -1.819602698087692261e-01 -3.070696815848350525e-02 -6.398469954729080200e-02 -1.525662541389465332e-01 3.069591708481311798e-02 -3.619511611759662628e-03 -1.795077025890350342e-01 -9.963365644216537476e-02 8.544514887034893036e-03 2.719340845942497253e-03 -2.676015254110097885e-03 6.245426088571548462e-02 -8.837574161589145660e-03 -1.047021076083183289e-01 6.752169132232666016e-02 -2.033581286668777466e-01 1.522390246391296387e-01 1.152244955301284790e-01 1.262485533952713013e-01 -8.855406194925308228e-02 7.900675386190414429e-02 1.323937252163887024e-02 9.214416146278381348e-02 1.242722123861312866e-01 1.415005605667829514e-02 2.103062868118286133e-01 -1.254007518291473389e-01 1.253647357225418091e-01 7.875229418277740479e-02 1.016630455851554871e-01 -1.696103215217590332e-01 1.509479582309722900e-01 -1.047154963016510010e-01 -1.268480271100997925e-01 -1.177290752530097961e-01 1.565620601177215576e-01 -1.416116058826446533e-01 -1.275402754545211792e-01 -1.685552000999450684e-01 1.050795614719390869e-01 -5.654442310333251953e-02 -4.070955887436866760e-02 1.450129002332687378e-01 1.889358013868331909e-01 5.429502576589584351e-02 1.314557045698165894e-01 5.762863159179687500e-02 1.775567978620529175e-01 -6.267954409122467041e-02 8.620502054691314697e-02 1.632278263568878174e-01 5.853276234120130539e-04 -3.987934440374374390e-02 3.247024491429328918e-02 1.883400529623031616e-01 -1.725509464740753174e-01 8.593629300594329834e-02 1.057820543646812439e-01 -1.549925953149795532e-01 -1.136420220136642456e-01 -1.786033809185028076e-01 -9.960982203483581543e-02 -1.731911748647689819e-01 9.941992908716201782e-02 -1.230369210243225098e-01 6.093657761812210083e-02 4.972723126411437988e-02 1.672663837671279907e-01 -1.361145377159118652e-01 1.586021929979324341e-01 2.066975980997085571e-01 -1.125716716051101685e-01 1.455595940351486206e-01 -1.823350936174392700e-01 -3.740935027599334717e-02 -7.044216245412826538e-02 -1.936793625354766846e-01 4.976082593202590942e-02 -1.468637734651565552e-01 -8.835537731647491455e-02 3.096110001206398010e-02 -2.920484915375709534e-02 1.361181885004043579e-01 7.543321698904037476e-03 1.445668190717697144e-01 3.995503485202789307e-02 -1.836796402931213379e-01 -1.202564686536788940e-01 -1.825553774833679199e-01 8.449552953243255615e-02 -1.418580412864685059e-01 -1.786791980266571045e-01 -9.428595006465911865e-02 3.190514445304870605e-02 -1.529951989650726318e-01 -1.966283619403839111e-01 -1.386555433273315430e-01 1.427990105003118515e-02 -2.206884382758289576e-04 -1.194924190640449524e-01 -1.817195117473602295e-01 1.283438801765441895e-01 -1.740758121013641357e-01 4.249472916126251221e-02 6.715799123048782349e-02 9.722108393907546997e-02 1.551743447780609131e-01 -1.582153588533401489e-01 -1.356392800807952881e-01 -1.766996532678604126e-01 -7.092924788594245911e-03 8.380400948226451874e-03 -8.009605854749679565e-02 6.994590908288955688e-02 -9.894444048404693604e-02 -4.198914021253585815e-02 5.716779455542564392e-02 -2.553043328225612640e-02 7.387169450521469116e-02 -8.354580961167812347e-03 -7.349076122045516968e-02 -4.534637555480003357e-02 -6.972318142652511597e-02 4.876484349370002747e-02 1.232549361884593964e-02 1.353894174098968506e-01 -8.037844672799110413e-03 -8.500541001558303833e-02 1.038037836551666260e-01 -2.263721078634262085e-02 -1.867520660161972046e-01 -1.920145377516746521e-02 -1.130551993846893311e-01 9.715859591960906982e-02 1.171105429530143738e-01 8.968271315097808838e-02 -3.378958255052566528e-02 -5.346339941024780273e-02 1.785400509834289551e-01 -3.140375483781099319e-03 -3.847482427954673767e-02 -3.218875080347061157e-02 2.645500749349594116e-02 -1.726283878087997437e-01 -2.716738358139991760e-02 1.522677242755889893e-01 -1.749966442584991455e-01 3.697648644447326660e-02 -1.615682393312454224e-01 2.097787559032440186e-01 -1.664812266826629639e-01 6.929765455424785614e-03 2.040765285491943359e-01 -1.356067210435867310e-01 -1.114313229918479919e-01 7.476077228784561157e-02 -2.734658308327198029e-02 -1.401064842939376831e-01 1.476386189460754395e-01 -7.930748164653778076e-02 1.914189755916595459e-01 7.205262780189514160e-03 5.499439686536788940e-02 -3.157571889460086823e-03 -3.967620432376861572e-02 4.023977741599082947e-02 6.740938872098922729e-02 -1.835059970617294312e-01 8.073050528764724731e-02 2.020779252052307129e-01 4.086093232035636902e-02 -1.110223159193992615e-01 7.812223583459854126e-02 6.595662981271743774e-02 4.666605382226407528e-04 -2.490263432264328003e-02 5.303115025162696838e-02 -4.613150283694267273e-02 1.000458449125289917e-01 8.095912635326385498e-02 1.870052814483642578e-01 1.702918559312820435e-01 -3.517803549766540527e-02 8.846409618854522705e-02 -1.565492749214172363e-01 -1.449502557516098022e-01 -5.809263326227664948e-03 1.032649129629135132e-01 1.584564000368118286e-01 4.737842828035354614e-02 -5.158469080924987793e-03 -1.806213557720184326e-01 2.011881172657012939e-01 -1.112047508358955383e-01 1.182196754962205887e-02 1.735333055257797241e-01 -1.843134313821792603e-01 -1.953886896371841431e-01 -6.213777512311935425e-02 -1.099270060658454895e-01 -1.685746610164642334e-01 1.986214518547058105e-01 -9.740243107080459595e-02 -1.215737685561180115e-01 -1.867122948169708252e-01 7.317426800727844238e-02 1.190712749958038330e-01 -8.537149988114833832e-03 -1.935606151819229126e-01 -5.044739320874214172e-02 -1.076010018587112427e-01 1.924116760492324829e-01 1.314460765570402145e-02 3.116910532116889954e-02 1.031173393130302429e-01 -6.560821086168289185e-02 1.354002207517623901e-01 -1.821744889020919800e-01 -4.795190319418907166e-02 -9.148403257131576538e-02 1.872970461845397949e-01 -1.586241126060485840e-01 -1.196365728974342346e-01 1.868697255849838257e-01 
1.006092548370361328e+00 9.925079941749572754e-01 9.947338700294494629e-01 1.010508060455322266e+00 1.005084395408630371e+00 9.790292978286743164e-01 9.788987636566162109e-01 9.978278875350952148e-01 
-1.558953523635864258e-02 -1.392628066241741180e-03 -1.746003143489360809e-02 9.141539223492145538e-03 -1.801083050668239594e-02 -2.393239736557006836e-02 -6.115034688264131546e-03 1.309597492218017578e-02 
1.621875911951065063e-01 -3.659164160490036011e-02 3.899073302745819092e-01 -2.939636707305908203e-01 -3.376459777355194092e-01 1.421217322349548340e-01 -3.564345240592956543e-01 3.775678202509880066e-02 
4.077899456024169922e-01 5.048936009407043457e-01 4.424406886100769043e-01 6.121531128883361816e-01 8.364530205726623535e-01 4.434216916561126709e-01 4.130205810070037842e-01 2.283633798360824585e-01 
1.025502979755401611e-01 -7.053748518228530884e-02 1.329365074634552002e-01 -2.075763791799545288e-01 5.861869454383850098e-02 -3.652554005384445190e-03 -4.516842216253280640e-02 -1.076722443103790283e-01 2.073744870722293854e-02 -8.577295392751693726e-02 -1.842319071292877197e-01 -1.420112401247024536e-01 1.050412431359291077e-01 -1.694047302007675171e-01 1.169707924127578735e-01 -2.087092995643615723e-01 -7.760960608720779419e-02 4.349545389413833618e-02 1.721312999725341797e-01 -2.328170929104089737e-03 1.287823617458343506e-01 -1.710242927074432373e-01 -1.778195202350616455e-01 1.805709600448608398e-01 -1.088337004184722900e-01 -2.327433601021766663e-02 1.374535914510488510e-02 -4.411861672997474670e-02 -1.291027367115020752e-01 -1.046706959605216980e-01 -1.237609423696994781e-02 -6.283637881278991699e-02 7.442573457956314087e-02 6.628612428903579712e-02 6.383586674928665161e-02 -1.670221090316772461e-01 8.485951274633407593e-02 8.147005923092365265e-03 1.529370695352554321e-01 -1.714882403612136841e-01 -6.095001846551895142e-02 -1.045035272836685181e-01 -1.240609660744667053e-01 -1.511212140321731567e-01 1.935278028249740601e-01 1.762815415859222412e-01 -3.985228389501571655e-02 1.634447276592254639e-02 -4.724902287125587463e-02 -1.041544154286384583e-01 1.945230513811111450e-01 3.332412987947463989e-02 -1.786846294999122620e-02 2.082982808351516724e-01 7.976494729518890381e-02 -1.257866248488426208e-02 3.698866441845893860e-02 8.501452207565307617e-02 -5.308558419346809387e-02 1.081986203789710999e-01 6.913027912378311157e-02 -6.239143386483192444e-02 1.952332109212875366e-01 6.734886020421981812e-02 -1.678830087184906006e-01 -1.891354918479919434e-01 1.718632131814956665e-01 -1.290988624095916748e-01 -1.671862155199050903e-01 1.939568785019218922e-03 4.258549888618290424e-04 5.490243434906005859e-02 4.975194856524467468e-02 -6.349043548107147217e-02 -1.058415099978446960e-01 1.921019256114959717e-01 1.529158502817153931e-01 -8.090535551309585571e-02 6.678725033998489380e-02 -7.141579687595367432e-02 -2.089525312185287476e-01 1.104861721396446228e-01 4.507660493254661560e-02 1.221423521637916565e-01 1.208939179778099060e-01 1.402788758277893066e-01 -8.146186172962188721e-02 -2.490770444273948669e-02 8.671314269304275513e-02 -8.220773190259933472e-03 -1.535347849130630493e-01 3.490283386781811714e-03 -1.320498287677764893e-01 4.652976617217063904e-02 1.090203523635864258e-01 -1.559478938579559326e-01 1.703976094722747803e-01 1.485304674133658409e-03 6.289103627204895020e-02 1.935371756553649902e-01 -3.537511825561523438e-02 1.115671824663877487e-03 -1.172135695815086365e-01 -1.628967523574829102e-01 1.225833296775817871e-01 -1.275975555181503296e-01 9.601084887981414795e-02 -1.101971939206123352e-01 1.007082983851432800e-01 -1.809459179639816284e-01 3.103202674537897110e-03 1.460096091032028198e-01 1.575562357902526855e-01 -1.478219181299209595e-01 -1.040971577167510986e-01 3.597083687782287598e-02 -4.486463218927383423e-02 -1.712680980563163757e-02 -1.361351162195205688e-01 5.747480317950248718e-02 -9.469642490148544312e-02 1.756135374307632446e-01 -7.434865087270736694e-02 1.955898255109786987e-01 1.262340545654296875e-01 -4.745136573910713196e-02 1.612427085638046265e-01 -1.994480788707733154e-01 1.278539150953292847e-01 2.073945254087448120e-01 -1.766379624605178833e-01 1.104528084397315979e-01 3.647601604461669922e-02 2.591288089752197266e-02 3.102450817823410034e-02 5.418930202722549438e-02 -6.374812126159667969e-02 5.155002698302268982e-03 3.714007791131734848e-03 4.473552852869033813e-02 1.454645395278930664e-01 6.835000216960906982e-02 1.104266569018363953e-01 1.816912740468978882e-01 1.530846953392028809e-01 2.973102219402790070e-02 7.266812771558761597e-02 -2.929203771054744720e-02 -4.102746397256851196e-02 6.418854743242263794e-02 -1.046801805496215820e-01 -1.794730685651302338e-02 -1.407616287469863892e-01 5.165321379899978638e-02 -1.553800404071807861e-01 4.968079924583435059e-02 1.630895584821701050e-01 1.082113161683082581e-01 7.741031050682067871e-02 -9.367952495813369751e-02 -1.181271523237228394e-01 1.802968382835388184e-01 -7.602487504482269287e-02 -1.648604273796081543e-01 1.591929048299789429e-01 1.604641824960708618e-01 1.719434857368469238e-01 1.434658914804458618e-01 -1.964376717805862427e-01 -9.858346730470657349e-02 -1.057888492941856384e-01 -1.043916791677474976e-01 -1.378167867660522461e-01 -1.803125888109207153e-01 9.370122849941253662e-02 -9.140666574239730835e-02 -4.718589480035007000e-04 1.094688400626182556e-01 9.440508484840393066e-02 -1.295509636402130127e-01 1.431956589221954346e-01 -6.099835038185119629e-02 -7.328683137893676758e-02 1.416660845279693604e-01 -1.020759791135787964e-01 -7.459738850593566895e-02 -4.841634631156921387e-02 1.039528623223304749e-01 -1.918890774250030518e-01 1.045627221465110779e-01 -7.822643220424652100e-02 1.118302345275878906e-01 8.615942299365997314e-02 -2.744106203317642212e-02 -5.223003774881362915e-02 8.722075819969177246e-02 -5.948908627033233643e-02 -1.129092648625373840e-01 -5.085725709795951843e-02 -5.944709759205579758e-03 8.504617214202880859e-02 -8.828188478946685791e-02 1.110319048166275024e-01 5.480242893099784851e-02 1.168066710233688354e-01 5.642460659146308899e-02 -1.645948886871337891e-01 1.964358687400817871e-01 1.238850355148315430e-01 -1.396962106227874756e-01 6.289442628622055054e-02 -1.396931614726781845e-02 4.999157786369323730e-02 -2.490462735295295715e-02 -6.057087704539299011e-02 4.458729550242424011e-02 -1.696283221244812012e-01 9.491727501153945923e-02 -5.027974024415016174e-02 -1.229397803544998169e-01 1.080448552966117859e-01 -1.888342201709747314e-02 1.281135678291320801e-01 -1.663219630718231201e-01 -1.463253647089004517e-01 1.314451266080141068e-02 9.483402222394943237e-02 1.617389023303985596e-01 -2.038788497447967529e-01 -1.523668915033340454e-01 -3.168383985757827759e-02 1.587312854826450348e-02 -7.860887795686721802e-02 -1.718493402004241943e-01 1.631003469228744507e-01 1.133159697055816650e-01 -4.283934831619262695e-03 1.810079813003540039e-01 -3.989729657769203186e-02 1.184265762567520142e-01 -1.549811512231826782e-01 -4.486680403351783752e-02 1.009059175848960876e-01 1.757947057485580444e-01 -1.319183409214019775e-01 -1.202249899506568909e-01 -1.852527111768722534e-01 1.854403503239154816e-02 -2.183275669813156128e-02 9.510833024978637695e-02 -1.225993409752845764e-01 8.005128800868988037e-02 1.651688106358051300e-02 1.311931908130645752e-01 8.354954421520233154e-02 6.589785963296890259e-02 4.871067404747009277e-02 -1.280834376811981201e-01 -4.320713505148887634e-02 -2.872882597148418427e-02 -2.024587690830230713e-01 5.503501370549201965e-02 7.132661342620849609e-02 1.526805851608514786e-02 1.307985559105873108e-02 -1.507383137941360474e-01 -1.772182434797286987e-01 2.405138127505779266e-02 -9.748836606740951538e-02 -1.756597608327865601e-01 1.818016618490219116e-01 -1.689601987600326538e-01 1.161816567182540894e-01 -5.165741220116615295e-02 -1.553269177675247192e-01 -8.731974661350250244e-02 1.515901535749435425e-01 -2.179259955883026123e-01 1.675798445940017700e-01 -1.716950982809066772e-01 6.482139229774475098e-02 -1.279415469616651535e-02 1.202665418386459351e-01 7.000526785850524902e-02 -1.171360015869140625e-01 -1.140341162681579590e-01 7.700190693140029907e-02 -2.363505959510803223e-02 1.091658920049667358e-01 9.677185863256454468e-02 -1.482777446508407593e-01 1.050122305750846863e-01 1.196026951074600220e-01 1.686154901981353760e-01 4.995773546397686005e-03 9.530646353960037231e-02 -8.257547765970230103e-02 -1.226837038993835449e-01 3.982193022966384888e-02 -2.068779021501541138e-01 -1.246102228760719299e-01 -1.871740221977233887e-01 1.016052737832069397e-01 -1.887667477130889893e-01 5.210791714489459991e-03 6.860777735710144043e-02 -1.651760339736938477e-01 1.954776979982852936e-02 -3.457162901759147644e-02 -1.635539978742599487e-01 -1.554006040096282959e-01 -2.097598463296890259e-01 -1.730341017246246338e-01 1.658825725317001343e-01 -7.225970923900604248e-02 -1.577333360910415649e-01 -1.260600835084915161e-01 5.565553903579711914e-02 1.520471647381782532e-02 6.525462865829467773e-02 3.390264231711626053e-03 3.713857755064964294e-02 3.930022940039634705e-02 -1.846293061971664429e-01 2.130973152816295624e-02 1.504372954368591309e-01 -7.814553380012512207e-02 1.811700463294982910e-01 1.457417756319046021e-01 -2.564952336251735687e-02 1.189603582024574280e-01 4.416850209236145020e-02 1.173459216952323914e-01 1.655672043561935425e-01 2.054384052753448486e-01 -1.805808991193771362e-01 -6.632071733474731445e-02 -7.207486778497695923e-02 1.069803461432456970e-01 -4.187404364347457886e-02 -6.434692442417144775e-02 6.255883723497390747e-02 -3.014502860605716705e-02 1.890082508325576782e-01 -1.543805599212646484e-01 -1.718154251575469971e-01 4.006229341030120850e-02 -1.696767210960388184e-01 -1.322350278496742249e-02 1.675757169723510742e-01 7.802350074052810669e-02 -7.908508181571960449e-02 8.481172472238540649e-02 -1.569204181432723999e-01 9.298103302717208862e-02 8.326828479766845703e-02 -7.281403988599777222e-02 1.716559231281280518e-01 -9.553708136081695557e-02 -1.723864227533340454e-01 9.310251474380493164e-02 1.137237548828125000e-01 1.006686463952064514e-01 -5.794366449117660522e-02 -2.250866964459419250e-02 1.173025369644165039e-02 -1.318657398223876953e-01 -5.192643776535987854e-02 -1.016659885644912720e-01 7.560896221548318863e-03 -1.556796431541442871e-01 1.891975291073322296e-02 1.702488362789154053e-01 1.627191454172134399e-01 6.310940533876419067e-02 7.185362279415130615e-02 1.531451195478439331e-01 -9.549468755722045898e-02 -2.138402312994003296e-02 2.021491527557373047e-01 2.083744406700134277e-01 6.758054345846176147e-02 1.569978296756744385e-01 -9.113883227109909058e-02 2.374019287526607513e-02 -1.459768563508987427e-01 1.675614416599273682e-01 -1.375782117247581482e-02 -2.131499499082565308e-01 8.684029430150985718e-02 6.065252050757408142e-02 1.903064548969268799e-01 2.377650327980518341e-02 -2.049172669649124146e-01 -9.446274489164352417e-02 1.543132960796356201e-01 1.305322498083114624e-01 1.583039909601211548e-01 1.226824820041656494e-01 -9.817790985107421875e-02 -1.453137397766113281e-01 1.402814835309982300e-01 -1.242767497897148132e-01 5.882450193166732788e-02 -1.483324468135833740e-01 -3.399465233087539673e-03 -1.246791705489158630e-01 -1.406974196434020996e-01 -1.862814873456954956e-01 1.103247553110122681e-01 1.162321958690881729e-02 -2.555680274963378906e-02 1.636374443769454956e-01 7.385798543691635132e-02 1.460641808807849884e-02 1.925107240676879883e-01 -1.084198057651519775e-01 1.747295856475830078e-01 -1.712297648191452026e-01 1.809251904487609863e-01 -1.783706545829772949e-01 2.104201354086399078e-02 -1.677895188331604004e-01 4.521170258522033691e-02 6.796015799045562744e-02 1.828263700008392334e-01 -2.403568662703037262e-02 -7.341356575489044189e-02 -1.095254942774772644e-01 1.492913067340850830e-01 -1.889293789863586426e-01 4.796749353408813477e-02 1.430860906839370728e-01 -1.733560464344918728e-03 -1.028107628226280212e-01 -1.817572265863418579e-01 -6.121230125427246094e-02 -1.516079306602478027e-01 -1.570217907428741455e-01 2.520336210727691650e-02 -1.326453536748886108e-01 -1.782033443450927734e-01 -1.935033798217773438e-01 -1.602202355861663818e-01 5.320161953568458557e-02 1.660671271383762360e-02 -1.025715768337249756e-01 3.833127394318580627e-02 1.570681333541870117e-01 1.888081878423690796e-01 -1.379125099629163742e-02 1.286115050315856934e-01 1.288093775510787964e-01 -5.559169501066207886e-02 -1.888537779450416565e-02 1.665968797169625759e-03 6.289795786142349243e-02 -3.592934831976890564e-02 3.666066378355026245e-02 -1.144818067550659180e-01 -1.803227066993713379e-01 1.388900578022003174e-01 1.401582360267639160e-01 -1.278188377618789673e-01 1.293393820524215698e-01 -1.982417106628417969e-01 9.497930109500885010e-02 -1.481630257330834866e-03 -1.818710938096046448e-02 -1.178691536188125610e-01 2.040807306766510010e-01 -9.169723093509674072e-02 1.924520730972290039e-01 -5.549476295709609985e-02 5.956452339887619019e-02 3.975018486380577087e-02 -1.645357534289360046e-02 1.911340653896331787e-01 1.235974356532096863e-01 -4.966745898127555847e-02 5.642355536110699177e-04 2.326343022286891937e-02 1.605379283428192139e-01 -1.936647146940231323e-01 8.120802789926528931e-02 -1.476627439260482788e-01 1.803833544254302979e-01 3.999244654551148415e-04 5.481328442692756653e-02 1.292715817689895630e-01 1.619719415903091431e-01 -1.248506754636764526e-01 3.759529441595077515e-02 -1.539102792739868164e-01 -1.731817573308944702e-01 -1.285941749811172485e-01 -1.169618666172027588e-01 -1.849338263273239136e-01 -1.583672612905502319e-01 -1.297586113214492798e-01 1.237963587045669556e-01 5.813332647085189819e-02 5.269984900951385498e-02 -1.449503153562545776e-01 1.574296057224273682e-01 -9.084008634090423584e-02 5.832503736019134521e-02 1.128980610519647598e-02 1.127800270915031433e-01 8.305048942565917969e-02 1.752648502588272095e-01 -8.364736288785934448e-02 9.170427173376083374e-02 5.389633029699325562e-02 1.140587925910949707e-01 -1.163159385323524475e-01 -1.564440727233886719e-01 -9.041476994752883911e-02 1.172953695058822632e-01 -7.280629128217697144e-02 -1.663067340850830078e-01 1.760501563549041748e-01 9.663918055593967438e-03 1.791216880083084106e-01 -1.282677650451660156e-01 8.868493884801864624e-02 -1.001824587583541870e-01 -1.104939281940460205e-01 -5.216996744275093079e-02 -1.211842894554138184e-02 -1.699913144111633301e-01 -6.358217447996139526e-02 1.617791205644607544e-01 7.903596013784408569e-02 -1.077558174729347229e-01 1.602952778339385986e-01 -1.274612639099359512e-02 -1.642614156007766724e-01 -2.729320153594017029e-02 1.744151860475540161e-01 1.819637864828109741e-01 1.698545664548873901e-01 8.938245475292205811e-02 -7.080946117639541626e-02 4.638300836086273193e-02 1.775110810995101929e-01 -1.399123370647430420e-01 -1.750025302171707153e-01 1.918739527463912964e-01 1.235227063298225403e-01 -9.565611928701400757e-02 -1.729606278240680695e-02 -7.031089812517166138e-02 -1.565644145011901855e-01 1.634334214031696320e-02 -1.748938262462615967e-01 1.454712748527526855e-01 -8.090080320835113525e-02 1.019984558224678040e-01 1.433344185352325439e-01 1.127024888992309570e-01 -3.120267763733863831e-02 8.662494271993637085e-02 -3.391113504767417908e-02 -5.364467203617095947e-02 1.850954145193099976e-01 -2.170539647340774536e-01 -1.009885966777801514e-01 -7.691685855388641357e-02 -3.366631641983985901e-02 4.640179872512817383e-02 -8.598648756742477417e-02 -5.409367382526397705e-03 -5.137162283062934875e-02 1.412206739187240601e-01 1.120790243148803711e-01 
9.880769252777099609e-01 1.014433026313781738e+00 1.009208440780639648e+00 9.936428666114807129e-01 1.012286424636840820e+00 1.012444853782653809e+00 1.002088665962219238e+00 9.866555929183959961e-01 
-7.900205440819263458e-03 1.105550210922956467e-02 7.907811552286148071e-03 -1.462947227992117405e-03 1.247667148709297180e-02 1.675117574632167816e-02 -5.498707294464111328e-03 -1.837128214538097382e-02 
-2.780270874500274658e-01 5.113921165466308594e-01 1.230047941207885742e-01 -4.943925738334655762e-01 -1.533022969961166382e-01 5.061439275741577148e-01 -2.417790889739990234e-01 1.675594151020050049e-01 
6.413978934288024902e-01 7.702225446701049805e-01 4.921989440917968750e-01 5.778198838233947754e-01 5.721319317817687988e-01 6.493624448776245117e-01 8.223475217819213867e-01 7.280312180519104004e-01 
-1.025750562548637390e-01 5.754275619983673096e-02 1.006529927253723145e-01 -1.746939681470394135e-02 1.001243516802787781e-01 -1.861066520214080811e-01 -9.603540599346160889e-02 8.405122160911560059e-02 1.384314298629760742e-01 -5.039410665631294250e-02 5.084992200136184692e-02 1.236859112977981567e-01 1.938372403383255005e-01 -9.275911375880241394e-03 1.394076645374298096e-01 -2.029262036085128784e-01 -1.082423478364944458e-01 -9.121586382389068604e-02 -1.649890244007110596e-01 5.562355369329452515e-02 5.034507811069488525e-02 -9.379357099533081055e-02 -4.761980101466178894e-02 -1.952576786279678345e-01 1.471150070428848267e-01 -1.256822794675827026e-01 1.276250928640365601e-01 -8.576665818691253662e-02 -1.569563746452331543e-01 3.873889148235321045e-02 -3.072634898126125336e-02 1.598634868860244751e-01 -8.562940359115600586e-02 -1.158444657921791077e-01 -1.676267534494400024e-01 -1.582355499267578125e-01 1.701318323612213135e-01 1.187760680913925171e-01 -2.172644734382629395e-01 -5.382332950830459595e-02 -2.247094549238681793e-02 1.213655173778533936e-01 1.567882150411605835e-01 1.527974605560302734e-01 -2.025706619024276733e-01 1.683188080787658691e-01 -3.622100874781608582e-02 1.504476219415664673e-01 -1.026609465479850769e-01 1.170636489987373352e-01 -2.645025774836540222e-02 1.005903109908103943e-01 -5.521291121840476990e-02 1.159778982400894165e-01 2.741032280027866364e-02 -3.618809208273887634e-02 -1.213320791721343994e-01 6.656929850578308105e-02 7.588146626949310303e-02 -1.276887953281402588e-01 6.153865531086921692e-02 -1.223399266600608826e-01 -8.476312458515167236e-02 -1.455852854996919632e-02 1.846686303615570068e-01 1.646927446126937866e-01 -1.841231435537338257e-01 -1.583901345729827881e-01 4.591618478298187256e-02 1.711068749427795410e-01 -2.356027998030185699e-02 1.443973630666732788e-01 1.223520785570144653e-01 -7.716200500726699829e-02 1.668941229581832886e-01 -1.030057966709136963e-01 1.318992674350738525e-01 2.088431417942047119e-01 1.302810013294219971e-01 -1.945034116506576538e-01 -1.176575385034084320e-02 -6.339585781097412109e-02 1.813206672668457031e-01 -1.327167004346847534e-01 6.542281806468963623e-02 1.183936521410942078e-01 9.489355981349945068e-02 -1.009180769324302673e-01 -5.395461246371269226e-02 1.044953688979148865e-01 5.521947517991065979e-02 4.295827448368072510e-02 -2.024977207183837891e-01 1.698051840066909790e-01 -5.086188018321990967e-02 1.152007877826690674e-01 1.700442731380462646e-01 2.021315097808837891e-01 5.590245127677917480e-02 1.508481949567794800e-01 -7.120878249406814575e-02 -9.475073218345642090e-02 1.050949394702911377e-01 -8.918228745460510254e-02 -6.206618994474411011e-02 -6.749913096427917480e-02 -7.253301143646240234e-02 -3.541510552167892456e-02 -1.375581026077270508e-01 6.565710157155990601e-02 -2.054439671337604523e-02 -3.798011690378189087e-02 -2.728807739913463593e-02 -5.406957492232322693e-02 -6.707352399826049805e-02 1.841964274644851685e-01 4.430361092090606689e-02 -3.017628006637096405e-02 2.048992514610290527e-01 2.014102637767791748e-01 -5.399052426218986511e-02 1.072495728731155396e-01 2.525255642831325531e-02 -9.424424171447753906e-02 -1.352592408657073975e-01 -2.875489555299282074e-02 5.937112867832183838e-02 -2.708937786519527435e-02 -1.050285622477531433e-01 9.112259000539779663e-02 8.370386809110641479e-02 1.830349564552307129e-01 -1.147864013910293579e-02 4.254085570573806763e-02 -3.934730589389801025e-02 1.100959181785583496e-01 -1.048975363373756409e-01 1.469996124505996704e-01 -1.746556460857391357e-01 2.079703658819198608e-01 2.027976214885711670e-01 -1.850164681673049927e-01 -1.599687524139881134e-02 1.834064908325672150e-02 2.596431225538253784e-02 1.769540458917617798e-01 -1.898746043443679810e-01 1.536089926958084106e-01 2.394439280033111572e-02 -1.844421029090881348e-01 5.107416585087776184e-02 -1.795205026865005493e-01 -5.982337146997451782e-02 -9.161665290594100952e-02 9.463339298963546753e-02 -1.501045823097229004e-01 1.133931335061788559e-02 -1.581260263919830322e-01 -6.448727846145629883e-02 2.529415301978588104e-02 2.673276513814926147e-02 -2.007291764020919800e-01 1.210896577686071396e-02 -1.737808063626289368e-02 7.896537333726882935e-02 3.349573910236358643e-02 4.442512243986129761e-02 -1.166876554489135742e-01 -5.816166475415229797e-02 -1.105279251933097839e-01 -7.639258354902267456e-02 8.576587587594985962e-02 1.714303344488143921e-01 1.529728174209594727e-01 -1.015192717313766479e-01 -1.851087808609008789e-01 -5.689720064401626587e-02 -1.146570965647697449e-01 4.379566013813018799e-02 -3.615852445363998413e-02 -2.052988708019256592e-01 -6.551817059516906738e-02 -5.751802772283554077e-02 2.749560587108135223e-02 5.268020555377006531e-02 4.066339880228042603e-02 -7.902945578098297119e-02 3.017193451523780823e-02 1.873658448457717896e-01 -1.905000060796737671e-01 2.733548404648900032e-03 -4.391362518072128296e-02 -1.054123565554618835e-01 1.954624801874160767e-01 -1.210093125700950623e-01 9.280300885438919067e-02 -2.002076804637908936e-02 -3.065347857773303986e-02 1.328261941671371460e-01 7.702286541461944580e-02 -7.961463183164596558e-02 -5.257503688335418701e-02 1.521343737840652466e-01 -1.605657041072845459e-01 -1.152536645531654358e-01 -1.954090446233749390e-01 1.528883818536996841e-02 -5.351696163415908813e-03 3.052334301173686981e-02 -1.324992030858993530e-01 1.020908951759338379e-01 1.033613011240959167e-01 -1.373867690563201904e-01 9.345038793981075287e-03 5.686320737004280090e-02 9.802394546568393707e-03 7.028894126415252686e-02 1.621453315019607544e-01 9.064743667840957642e-02 8.209420484490692616e-04 1.332148611545562744e-01 1.786555945873260498e-01 -2.368076704442501068e-02 1.694655418395996094e-01 -1.182388365268707275e-01 -1.162555888295173645e-01 -1.315766125917434692e-01 5.295380204916000366e-02 -1.312685906887054443e-01 -1.697079092264175415e-01 -1.738205701112747192e-01 1.802338212728500366e-01 -1.439020619727671146e-03 -6.490180641412734985e-02 1.692457944154739380e-01 -1.721143275499343872e-01 -1.605831533670425415e-01 -1.327530443668365479e-01 7.694515585899353027e-02 -9.579263627529144287e-02 -1.304337661713361740e-02 9.300442785024642944e-02 -1.816067993640899658e-01 1.235208585858345032e-01 1.236506476998329163e-01 -7.703953981399536133e-02 1.851647198200225830e-01 -6.271156016737222672e-03 1.095027402043342590e-01 2.094165235757827759e-01 1.686887294054031372e-01 -2.152153700590133667e-01 1.666628271341323853e-01 1.765975952148437500e-01 9.422451257705688477e-02 1.572364717721939087e-01 1.474065929651260376e-01 -1.294443309307098389e-01 -1.087232530117034912e-01 1.036142706871032715e-01 -6.654080748558044434e-02 1.955980062484741211e-01 5.158777534961700439e-02 -1.065135002136230469e-01 -1.037951335310935974e-01 -2.545043453574180603e-02 3.464750014245510101e-03 -1.831570081412792206e-02 7.008195668458938599e-02 5.802600458264350891e-02 -3.594429045915603638e-02 -9.420090168714523315e-02 1.309984177350997925e-01 -7.391942292451858521e-02 6.545895338058471680e-02 -6.742390245199203491e-02 1.332151442766189575e-01 1.860932558774948120e-01 -4.691786691546440125e-02 -4.617998376488685608e-02 -5.369515717029571533e-02 2.708409447222948074e-03 -1.442982852458953857e-01 -1.945972442626953125e-01 1.684930175542831421e-01 -3.436435759067535400e-02 -1.306061595678329468e-01 2.743775770068168640e-02 -8.989314734935760498e-02 7.984501868486404419e-02 -1.475294027477502823e-02 -1.440449059009552002e-01 5.173099040985107422e-02 1.679129004478454590e-01 4.625082761049270630e-02 -6.358061730861663818e-02 -1.211024671792984009e-01 1.924489438533782959e-01 -9.576670825481414795e-02 -1.865436881780624390e-01 1.903944648802280426e-02 -1.635611504316329956e-01 -8.963620662689208984e-02 2.138685882091522217e-01 -8.686044067144393921e-02 1.410997211933135986e-01 1.768395453691482544e-01 -9.623346477746963501e-02 -8.486014604568481445e-02 -3.035642765462398529e-02 1.529393047094345093e-01 -2.618357539176940918e-02 -1.626203507184982300e-01 2.018406800925731659e-02 1.761043965816497803e-01 1.922940611839294434e-01 8.086755126714706421e-02 7.119641453027725220e-02 1.219805553555488586e-01 -2.024490013718605042e-02 -4.778555035591125488e-02 -1.966518014669418335e-01 3.706169500946998596e-02 4.205772280693054199e-02 -1.349198371171951294e-01 -5.711367726325988770e-02 1.388590335845947266e-01 -1.085089296102523804e-01 1.293058395385742188e-01 -1.765298545360565186e-01 1.326134502887725830e-01 9.589157998561859131e-02 1.306217610836029053e-01 6.717579811811447144e-02 -1.897042840719223022e-01 1.569913476705551147e-01 2.050261348485946655e-01 -6.109125167131423950e-02 7.915337383747100830e-02 -1.826160401105880737e-01 1.756265908479690552e-01 1.766410619020462036e-01 4.150085151195526123e-02 -4.429425671696662903e-02 4.961603507399559021e-02 5.485630035400390625e-02 3.517870977520942688e-02 -6.332012265920639038e-02 -7.346396893262863159e-02 -1.445861905813217163e-01 -1.137449368834495544e-01 -1.829015165567398071e-01 1.516408324241638184e-01 7.557301968336105347e-02 8.707702159881591797e-03 -1.102130711078643799e-01 1.826540529727935791e-01 1.810964196920394897e-01 7.191612571477890015e-02 3.330711275339126587e-02 -1.152475774288177490e-01 -1.905527114868164062e-01 9.914725087583065033e-03 1.355626136064529419e-01 1.378252506256103516e-01 -7.501816842705011368e-03 -8.028894662857055664e-02 1.555138230323791504e-01 -2.118504196405410767e-01 -1.802788116037845612e-02 6.529707461595535278e-02 -9.203828126192092896e-02 1.040704548358917236e-01 1.304668635129928589e-01 -1.499034762382507324e-01 -1.591318547725677490e-01 -1.143272146582603455e-01 1.854495145380496979e-03 1.432586461305618286e-01 1.098250150680541992e-01 -2.505321055650711060e-02 1.615773737430572510e-01 1.646760851144790649e-03 1.779449433088302612e-01 -1.831550002098083496e-01 -2.094132751226425171e-01 1.432233154773712158e-01 1.301513314247131348e-01 1.402374207973480225e-01 -6.664626300334930420e-02 -1.353218220174312592e-02 5.892516672611236572e-02 1.312504708766937256e-01 5.946454033255577087e-02 9.724719822406768799e-02 1.027712672948837280e-01 7.416357845067977905e-02 -1.202076002955436707e-01 -7.061930000782012939e-02 1.650568246841430664e-01 -1.168823838233947754e-01 -4.222773015499114990e-02 1.958131492137908936e-01 5.982901901006698608e-02 4.480467736721038818e-02 -6.647577136754989624e-02 1.632667630910873413e-01 -4.265022650361061096e-02 -1.962105184793472290e-01 -1.002538949251174927e-02 -9.702444076538085938e-02 6.276867818087339401e-03 4.306150600314140320e-02 1.481430977582931519e-01 -1.032944470643997192e-01 -7.385249435901641846e-02 -1.731238067150115967e-01 -1.916964203119277954e-01 -5.193629860877990723e-02 -6.898987293243408203e-02 5.197289958596229553e-02 1.417516022920608521e-01 -1.500230878591537476e-01 -6.931129097938537598e-02 -7.031740993261337280e-02 -1.889191381633281708e-02 1.080238893628120422e-01 1.615333259105682373e-01 1.895450055599212646e-01 1.758687347173690796e-01 1.233311276882886887e-02 2.820678986608982086e-03 1.230371519923210144e-01 -1.123521700501441956e-01 -4.906558245420455933e-02 -1.575428098440170288e-01 -1.289423853158950806e-01 -1.268805861473083496e-01 1.729398518800735474e-01 1.413142085075378418e-01 -9.336318075656890869e-02 1.224455609917640686e-01 -6.360744684934616089e-02 6.387213617563247681e-02 1.423887209966778755e-03 8.223379403352737427e-02 1.110262423753738403e-02 5.826283991336822510e-02 -1.443027555942535400e-01 1.229377165436744690e-01 1.203606650233268738e-01 -1.110848188400268555e-01 -1.280364841222763062e-01 1.836171150207519531e-01 -1.554704010486602783e-01 2.139240950345993042e-01 1.847235858440399170e-02 -3.883917257189750671e-02 -1.522723734378814697e-01 1.261741220951080322e-01 1.840517520904541016e-01 -7.180471718311309814e-02 -2.003346532583236694e-01 8.705203980207443237e-02 1.433005630970001221e-01 1.177613735198974609e-01 1.563860327005386353e-01 -1.783039271831512451e-01 2.203994691371917725e-01 -1.792229413986206055e-01 -1.201040148735046387e-01 -2.028956413269042969e-01 1.159335076808929443e-01 1.636820882558822632e-01 4.931887239217758179e-02 -1.156684160232543945e-01 5.483619496226310730e-02 1.508285701274871826e-01 3.375385189428925514e-03 -4.434663057327270508e-02 1.370051950216293335e-01 -4.620849341154098511e-02 -1.870890259742736816e-01 1.401316467672586441e-02 1.968775391578674316e-01 3.763528075069189072e-03 2.184468507766723633e-01 4.828793555498123169e-02 -1.557665467262268066e-01 1.400815322995185852e-02 -1.027978956699371338e-01 -1.008889153599739075e-01 -1.497251391410827637e-01 -1.488301455974578857e-01 -1.775793433189392090e-01 -4.844542965292930603e-02 -1.410718411207199097e-01 1.128100827336311340e-01 1.802614331245422363e-02 1.524968072772026062e-02 -1.382335573434829712e-01 -1.510034054517745972e-01 1.059078797698020935e-01 -9.220965951681137085e-02 2.014663815498352051e-01 1.566929221153259277e-01 -5.185927078127861023e-02 -1.908369511365890503e-01 -1.382990926504135132e-01 -1.503396779298782349e-01 -1.650657355785369873e-01 1.122572869062423706e-01 1.283052265644073486e-01 -1.638042330741882324e-01 -1.384540647268295288e-01 -3.298917412757873535e-02 -1.921213604509830475e-02 -2.117364704608917236e-01 -4.287997260689735413e-02 2.211320213973522186e-02 1.436039507389068604e-01 1.067346930503845215e-01 1.773036569356918335e-01 -1.192035675048828125e-01 -9.950217604637145996e-02 -1.303593367338180542e-01 -1.367399841547012329e-01 4.236765205860137939e-02 1.369271725416183472e-01 -4.033362865447998047e-02 4.086866974830627441e-02 -1.339186728000640869e-01 1.052168011665344238e-01 1.607649475336074829e-01 1.589523404836654663e-01 -3.766772896051406860e-02 -2.150335162878036499e-01 -1.751868426799774170e-01 8.138263970613479614e-02 -1.459733545780181885e-01 1.366228312253952026e-01 1.728542000055313110e-01 9.734110534191131592e-02 1.016902178525924683e-01 -1.386563926935195923e-01 3.591639176011085510e-02 5.503220483660697937e-03 -6.054710131138563156e-03 -8.975821733474731445e-02 -9.404763579368591309e-02 1.701045036315917969e-01 2.251229481771588326e-03 -2.309360727667808533e-02 -7.093144953250885010e-02 1.071594208478927612e-01 -1.995975524187088013e-01 1.308849453926086426e-01 -1.714019775390625000e-01 6.286593526601791382e-02 -1.539301127195358276e-01 1.094253510236740112e-01 1.873153001070022583e-01 1.086898371577262878e-01 1.791749894618988037e-01 1.011295393109321594e-01 1.826389282941818237e-01 -9.584482014179229736e-02 -6.786890327930450439e-02 -2.642849460244178772e-02 -6.865470856428146362e-02 6.445497274398803711e-02 -7.027597725391387939e-02 9.110486507415771484e-02 -1.305570602416992188e-01 2.980329655110836029e-02 -1.120831742882728577e-01 
9.870285987854003906e-01 1.012548685073852539e+00 1.011911988258361816e+00 1.016216874122619629e+00 9.769865274429321289e-01 9.898375868797302246e-01 1.019060134887695312e+00 9.877755641937255859e-01 
6.871551275253295898e-03 6.369912880472838879e-04 -7.143830414861440659e-03 1.043173950165510178e-02 -5.701968912035226822e-04 -1.545647252351045609e-02 1.422847434878349304e-02 1.450170855969190598e-02 
1.729421503841876984e-02 2.504634857177734375e-01 -2.944181561470031738e-01 5.852170661091804504e-02 1.138316467404365540e-01 2.484901547431945801e-01 -9.242216497659683228e-02 -1.805891394615173340e-01 
4.106119275093078613e-01 3.851821422576904297e-01 3.820555508136749268e-01 4.989171326160430908e-01 4.534565508365631104e-01 5.019239187240600586e-01 3.491003811359405518e-01 3.253787755966186523e-01 
5.609852075576782227e-02 -1.296879798173904419e-01 -9.803038835525512695e-02 6.528607010841369629e-02 1.924184262752532959e-01 4.554446786642074585e-03 7.610106375068426132e-03 -6.162248179316520691e-02 -1.750277727842330933e-02 2.110067158937454224e-01 -1.273476630449295044e-01 -1.483075320720672607e-02 1.081755757331848145e-02 8.503921329975128174e-02 1.906565874814987183e-01 -8.153337240219116211e-02 1.380802690982818604e-01 -8.603658527135848999e-03 -7.154534570872783661e-03 1.635663062334060669e-01 -1.825269162654876709e-01 -3.119070082902908325e-02 -1.887582987546920776e-01 -3.068211488425731659e-02 2.950495108962059021e-02 1.857279986143112183e-01 -4.020875692367553711e-02 -1.091910153627395630e-01 1.093607321381568909e-01 3.310263901948928833e-02 1.253679692745208740e-01 -2.228281833231449127e-02 -5.295408144593238831e-02 -6.817936152219772339e-02 3.255704045295715332e-02 2.208637818694114685e-02 4.849479068070650101e-03 9.457351267337799072e-02 3.878354281187057495e-02 1.438550204038619995e-01 5.285791680216789246e-02 2.225862443447113037e-02 1.188544631004333496e-01 -3.903433680534362793e-02 1.156995892524719238e-01 -4.867137596011161804e-02 -2.021403312683105469e-01 -9.197095781564712524e-02 6.235635653138160706e-02 -2.126743495464324951e-01 -3.733818605542182922e-02 -3.426855802536010742e-02 -1.890658773481845856e-02 1.457125991582870483e-01 2.043369561433792114e-01 -1.465854793787002563e-01 1.900856345891952515e-01 -6.013837456703186035e-02 1.745858788490295410e-01 -5.786155909299850464e-02 2.292118966579437256e-02 -1.820401996374130249e-01 -6.211537867784500122e-02 2.150968313217163086e-01 9.742457419633865356e-02 -1.220027450472116470e-02 -1.041858866810798645e-01 6.414692848920822144e-02 -1.109387204051017761e-01 -1.614544391632080078e-01 -2.147034108638763428e-01 -1.935125887393951416e-01 6.069945171475410461e-02 -5.845548212528228760e-02 -3.195914207026362419e-03 -1.409506052732467651e-01 1.223114579916000366e-01 -1.272018104791641235e-01 1.205318719148635864e-01 -1.393020302057266235e-01 -1.278361887671053410e-03 4.249308630824089050e-02 2.095330692827701569e-02 1.073502283543348312e-02 1.652489155530929565e-01 1.022287905216217041e-01 -1.876253783702850342e-01 6.310699507594108582e-03 1.963352411985397339e-01 1.447957381606101990e-02 9.991330653429031372e-02 -1.275641471147537231e-01 5.955248698592185974e-02 1.520358212292194366e-02 9.338055737316608429e-03 -7.684476673603057861e-02 -1.903610378503799438e-01 -1.869899332523345947e-01 1.345366686582565308e-01 -1.087682470679283142e-01 -9.343389421701431274e-02 6.794034689664840698e-02 6.924942880868911743e-02 -1.569599956274032593e-01 1.323879063129425049e-01 1.559558361768722534e-01 1.662389747798442841e-02 -1.462771743535995483e-01 -1.883352398872375488e-01 -1.763405464589595795e-02 2.101764678955078125e-01 -9.237441420555114746e-02 -5.478460714221000671e-02 -5.204266868531703949e-03 1.171078756451606750e-01 -1.073209047317504883e-01 -1.504534184932708740e-01 1.630508005619049072e-01 -3.894022479653358459e-02 8.457831293344497681e-02 2.324596606194972992e-02 -2.457753755152225494e-02 -1.215095818042755127e-01 1.398295350372791290e-02 1.561972051858901978e-01 2.721688523888587952e-02 1.746626347303390503e-01 -1.495334059000015259e-01 -4.653527587652206421e-02 1.300047636032104492e-01 1.134807094931602478e-01 2.175141125917434692e-01 -1.180299893021583557e-01 -1.269551813602447510e-01 1.508424580097198486e-01 7.581737637519836426e-02 1.208265870809555054e-02 -7.519444078207015991e-02 -1.055030673742294312e-01 -4.618372023105621338e-02 2.269186452031135559e-02 1.945612877607345581e-01 1.740374043583869934e-02 -1.745028980076313019e-02 1.014269143342971802e-01 -1.411051210016012192e-02 3.599871695041656494e-02 6.165032833814620972e-02 1.524320691823959351e-01 -9.505208581686019897e-03 6.270749121904373169e-02 4.817048832774162292e-02 1.671936735510826111e-02 -1.855136007070541382e-01 -1.544651240110397339e-01 -8.123937994241714478e-02 -1.785872578620910645e-01 -6.436301022768020630e-02 1.896385699510574341e-01 9.864449501037597656e-02 9.998088330030441284e-02 -1.415947228670120239e-01 1.734664738178253174e-01 -2.512189187109470367e-02 1.848575323820114136e-01 -1.675631403923034668e-01 -1.890333369374275208e-02 1.230479329824447632e-01 -1.696859598159790039e-01 -1.670362800359725952e-01 -8.735923469066619873e-02 -2.204579859972000122e-02 -6.233183294534683228e-02 -2.079013139009475708e-01 -1.654498428106307983e-01 -3.329230844974517822e-02 7.798247784376144409e-02 1.917923241853713989e-01 -5.507411807775497437e-02 -1.844583153724670410e-01 -2.341670170426368713e-02 3.187311813235282898e-02 1.550488919019699097e-01 -1.295357346534729004e-01 -1.101083159446716309e-01 1.124702766537666321e-01 1.198391020298004150e-01 -3.333909064531326294e-02 -8.590909093618392944e-02 1.867950111627578735e-01 -1.979342252016067505e-01 1.692190766334533691e-01 4.454408306628465652e-03 -1.932207345962524414e-01 1.694802492856979370e-01 1.403488367795944214e-01 -1.460175216197967529e-01 -1.237902715802192688e-01 -1.775641739368438721e-01 1.636749804019927979e-01 1.482767015695571899e-01 -1.240786463022232056e-01 -1.454793810844421387e-01 -8.457962423563003540e-02 1.801078915596008301e-01 1.538253873586654663e-01 1.950857639312744141e-01 -1.718967854976654053e-01 5.171212553977966309e-02 -1.218096241354942322e-01 2.688672952353954315e-02 3.634773194789886475e-02 3.918323665857315063e-02 1.862621456384658813e-01 -1.640025526285171509e-01 -1.821538656949996948e-01 1.731527447700500488e-01 1.965590119361877441e-01 2.014744654297828674e-02 -6.445611268281936646e-02 9.663695096969604492e-02 6.716240197420120239e-02 1.325444877147674561e-01 -1.251213252544403076e-01 -1.718761026859283447e-01 -5.251860991120338440e-02 -1.767502427101135254e-01 8.965588361024856567e-02 1.162907630205154419e-01 -4.884373769164085388e-02 -1.574830859899520874e-01 7.184598594903945923e-02 -1.088421195745468140e-01 8.279129862785339355e-02 6.010272353887557983e-02 -7.067280262708663940e-02 1.146740168333053589e-01 1.666491180658340454e-01 -1.756014972925186157e-01 -9.643630683422088623e-02 1.985097527503967285e-01 -1.761314868927001953e-01 1.285848617553710938e-01 -1.424693167209625244e-01 -1.706232726573944092e-01 -1.201587319374084473e-01 -1.903003156185150146e-01 -1.581868231296539307e-01 5.568972602486610413e-02 6.207248661667108536e-03 8.646879345178604126e-02 -8.125061541795730591e-02 1.617410331964492798e-01 -1.823442280292510986e-01 7.742139697074890137e-02 -1.806531995534896851e-01 7.901795208454132080e-02 -1.677245795726776123e-01 -1.514834314584732056e-01 -1.170154511928558350e-01 9.351760149002075195e-02 -1.376034319400787354e-01 2.110249698162078857e-01 1.497257351875305176e-01 -9.956353902816772461e-02 6.807316094636917114e-02 -1.518700458109378815e-02 6.577054411172866821e-02 2.023585140705108643e-02 5.881076678633689880e-03 -1.658501476049423218e-01 -7.375199347734451294e-03 3.092931956052780151e-02 -1.429646015167236328e-01 3.127894923090934753e-02 4.672143980860710144e-02 -1.416273415088653564e-01 -1.129129528999328613e-01 6.395063549280166626e-02 1.967539489269256592e-01 -1.473057717084884644e-01 1.022839099168777466e-01 1.611989289522171021e-01 2.036073058843612671e-02 -9.889519959688186646e-02 -1.303222626447677612e-01 1.027972400188446045e-01 1.192560140043497086e-02 -1.761909127235412598e-01 -1.430704742670059204e-01 -1.078750416636466980e-01 -1.648705899715423584e-01 2.110090292990207672e-02 -9.948531538248062134e-02 -1.975493282079696655e-01 -1.489177048206329346e-01 -9.134770184755325317e-02 1.105302944779396057e-02 8.681114763021469116e-02 1.562575101852416992e-01 -1.227397546172142029e-01 5.763227492570877075e-02 3.872270882129669189e-02 1.885707825422286987e-01 -5.440677981823682785e-03 -1.680401265621185303e-01 -2.047250792384147644e-02 4.698025062680244446e-02 -5.805272608995437622e-02 4.342068359255790710e-02 9.550101310014724731e-02 1.336087286472320557e-01 3.885862976312637329e-02 -1.204681098461151123e-01 1.785053759813308716e-01 -1.327702254056930542e-01 1.971045881509780884e-01 1.878330111503601074e-01 -4.681654274463653564e-02 -1.763347983360290527e-01 -2.113011777400970459e-01 1.828052848577499390e-01 -1.997096091508865356e-02 -1.412469744682312012e-01 1.588560454547405243e-02 -1.554806828498840332e-01 -1.033698096871376038e-01 1.858836263418197632e-01 1.822369694709777832e-01 -1.050691753625869751e-01 1.625310182571411133e-01 8.166211843490600586e-02 -1.612918674945831299e-01 4.864306002855300903e-02 1.804823577404022217e-01 -3.164640441536903381e-02 -1.625571697950363159e-01 5.130548030138015747e-02 8.388576656579971313e-02 -1.575086452066898346e-02 3.327612206339836121e-02 5.846209451556205750e-02 1.413794010877609253e-01 -1.759053319692611694e-01 -3.270960599184036255e-02 -1.115283221006393433e-01 8.914239704608917236e-02 3.887024149298667908e-02 -1.435422152280807495e-01 -1.132249180227518082e-02 -5.445483326911926270e-02 -1.489935815334320068e-01 2.022669017314910889e-01 4.196685925126075745e-02 -1.622838340699672699e-02 -1.728788614273071289e-01 -1.400003880262374878e-01 1.043541654944419861e-01 9.322300553321838379e-02 -3.805479407310485840e-02 1.422938704490661621e-01 1.187290027737617493e-01 -6.777635961771011353e-02 -1.750874817371368408e-01 -1.730746179819107056e-01 -6.579661369323730469e-02 8.935299515724182129e-02 6.430306285619735718e-02 -1.779742836952209473e-01 1.312202513217926025e-01 -1.028221696615219116e-01 9.771339595317840576e-02 -8.680815994739532471e-02 -1.529803425073623657e-01 -4.517992958426475525e-03 2.501803636550903320e-02 -2.019363939762115479e-01 3.559905663132667542e-02 1.431954950094223022e-01 -9.746682643890380859e-02 8.136065676808357239e-03 -1.318823266774415970e-02 -1.275089979171752930e-01 -1.764474064111709595e-01 1.053777560591697693e-01 -8.892183005809783936e-02 2.824996784329414368e-02 -8.046855777502059937e-02 1.634945273399353027e-01 -1.031490564346313477e-01 2.072201296687126160e-02 -1.923045963048934937e-01 -1.049187928438186646e-01 8.612854033708572388e-02 1.136730164289474487e-01 -9.144616127014160156e-02 -2.096871286630630493e-01 -3.415737301111221313e-02 1.498769223690032959e-01 5.995112657546997070e-02 7.253793627023696899e-02 7.088351994752883911e-02 1.699514389038085938e-01 -1.687795668840408325e-01 4.072051867842674255e-02 1.001262366771697998e-01 7.661445438861846924e-02 9.694553911685943604e-02 1.357189863920211792e-01 9.582695364952087402e-02 5.335399508476257324e-02 -2.148495428264141083e-02 1.807692348957061768e-01 1.351592689752578735e-01 -1.100388839840888977e-01 -1.329776793718338013e-01 -1.937481611967086792e-01 -1.073091700673103333e-01 -9.508020430803298950e-02 1.137412786483764648e-01 -9.638860821723937988e-02 1.260662227869033813e-01 -7.918553799390792847e-02 1.283991038799285889e-01 -1.197897121310234070e-01 -1.269779447466135025e-02 7.799074798822402954e-02 9.272109717130661011e-03 -3.172345086932182312e-02 2.638399042189121246e-02 -3.131262958049774170e-02 1.492079198360443115e-01 -1.805399358272552490e-01 -9.469631314277648926e-02 -1.603773832321166992e-01 1.393429934978485107e-01 -1.569870263338088989e-01 -1.554464846849441528e-01 1.451130956411361694e-01 -1.817831844091415405e-01 1.510239243507385254e-01 -2.937618829309940338e-02 1.857878118753433228e-01 1.569338738918304443e-01 -3.124620532616972923e-03 2.087160050868988037e-01 -8.417053520679473877e-02 -2.035310566425323486e-01 -1.692422330379486084e-01 1.046169325709342957e-01 1.108575612306594849e-02 -1.133357882499694824e-01 7.757227122783660889e-02 2.150133810937404633e-02 -1.700467765331268311e-01 1.102590337395668030e-01 6.508248299360275269e-02 4.010093584656715393e-02 2.015710622072219849e-01 1.759654432535171509e-01 7.808813359588384628e-03 1.362066064029932022e-02 -8.942581713199615479e-02 1.669767200946807861e-01 6.279902905225753784e-02 3.675739094614982605e-02 -1.314487904310226440e-01 -1.057434920221567154e-02 2.923787198960781097e-02 -1.340988725423812866e-01 -7.671997696161270142e-02 -1.625800579786300659e-01 1.665258258581161499e-01 1.554921716451644897e-01 1.752853393554687500e-02 -1.006575375795364380e-01 1.402692347764968872e-01 -7.156680524349212646e-02 -6.448017060756683350e-02 2.469721250236034393e-02 -1.311365664005279541e-01 -3.123094560578465462e-03 1.713174283504486084e-01 -1.876264810562133789e-01 6.656067818403244019e-02 -1.268713474273681641e-01 2.419680589810013771e-03 1.433680057525634766e-01 2.038048207759857178e-01 -1.140955835580825806e-01 1.211856454610824585e-01 -8.487474918365478516e-02 4.873933270573616028e-02 -3.386034816503524780e-02 2.485110238194465637e-02 -3.088901191949844360e-02 1.635562330484390259e-01 1.079981327056884766e-01 -8.795551210641860962e-02 1.251222789287567139e-01 -1.814461648464202881e-01 1.489313244819641113e-01 -1.405998021364212036e-01 1.619045883417129517e-01 -1.432852149009704590e-01 -6.429944932460784912e-02 6.368345022201538086e-02 -1.014184206724166870e-01 -1.412975341081619263e-01 -3.954736143350601196e-02 6.594061106443405151e-02 -1.743261516094207764e-01 1.408359408378601074e-01 1.888268068432807922e-02 1.170711517333984375e-01 -8.524503558874130249e-02 1.242339015007019043e-01 1.286712139844894409e-01 -1.537651270627975464e-01 2.011918127536773682e-01 1.049711108207702637e-01 -1.498946398496627808e-01 3.547795861959457397e-02 1.280222386121749878e-01 1.218528971076011658e-01 1.327941864728927612e-01 9.306625276803970337e-02 -1.150178536772727966e-01 5.289309099316596985e-02 8.418952673673629761e-02 2.089469432830810547e-01 5.157069861888885498e-02 -6.228756159543991089e-02 -1.164116859436035156e-01 1.232699900865554810e-01 -1.272728145122528076e-01 -1.668834984302520752e-01 1.536711603403091431e-01 6.443198770284652710e-02 6.310663372278213501e-02 -1.317270658910274506e-02 5.749431997537612915e-02 -1.001669391989707947e-01 -1.750177294015884399e-01 -6.519034970551729202e-03 -6.487572193145751953e-02 1.055179238319396973e-01 -1.743419319391250610e-01 -5.047033727169036865e-02 1.914605051279067993e-01 2.097976952791213989e-01 4.462682083249092102e-02 -8.507718145847320557e-02 5.513224750757217407e-02 4.384455736726522446e-03 -1.813681721687316895e-01 1.419175118207931519e-01 -1.131435558199882507e-01 2.035907804965972900e-01 1.497557759284973145e-01 1.957692950963973999e-02 4.837645590305328369e-02 -1.606284081935882568e-01 -1.447762548923492432e-01 -7.453328371047973633e-02 -2.196425944566726685e-01 1.147022917866706848e-01 1.271865218877792358e-01 7.565650343894958496e-02 -4.130629450082778931e-02 -2.961302921175956726e-02 6.414928287267684937e-02 -8.929810672998428345e-02 -1.036732867360115051e-01 1.817284226417541504e-01 -4.538124427199363708e-02 
1.008109807968139648e+00 9.986059069633483887e-01 9.885939359664916992e-01 9.861205816268920898e-01 9.949161410331726074e-01 9.842252135276794434e-01 1.007671952247619629e+00 1.009063601493835449e+00 
-1.239221915602684021e-02 -1.352389343082904816e-02 -1.570799574255943298e-02 2.624328248202800751e-03 1.860852167010307312e-02 -1.127435825765132904e-02 6.934665609151124954e-03 1.401981618255376816e-02 
1.081428839825093746e-03 7.883468270301818848e-02 -2.920594215393066406e-01 -2.708848714828491211e-01 -4.322972893714904785e-01 -2.428244650363922119e-01 1.099540591239929199e-01 1.697727888822555542e-01 
8.703138232231140137e-01 7.203648686408996582e-01 8.714747428894042969e-01 7.706728577613830566e-01 6.431829333305358887e-01 7.433711290359497070e-01 8.132517337799072266e-01 9.471746087074279785e-01 
1.568018225952982903e-03 1.349767893552780151e-01 -2.061110176146030426e-02 1.640526801347732544e-01 -2.134199626743793488e-02 4.767556115984916687e-02 -8.454126119613647461e-02 -1.542814522981643677e-01 -1.386106759309768677e-01 -1.473039388656616211e-01 -1.690625771880149841e-02 1.382267773151397705e-01 2.385585941374301910e-02 -2.005426287651062012e-01 -1.727242916822433472e-01 7.872249931097030640e-02 -1.933968663215637207e-01 1.497434675693511963e-01 -9.633317589759826660e-02 4.854594916105270386e-02 1.071572005748748779e-01 -1.735742688179016113e-01 -1.243864968419075012e-01 5.342885106801986694e-02 -1.791726052761077881e-01 -1.006884351372718811e-01 -1.309187114238739014e-01 -8.326594531536102295e-02 -9.993624687194824219e-02 1.127747520804405212e-01 7.044152170419692993e-02 -8.381407707929611206e-02 8.115054108202457428e-03 -1.926469802856445312e-01 1.165681108832359314e-01 -1.789950728416442871e-01 1.723434329032897949e-01 8.400934748351573944e-03 -1.559554189443588257e-01 -1.403234750032424927e-01 1.415126472711563110e-01 -2.488012239336967468e-02 2.061710506677627563e-01 1.007326180115342140e-03 -3.766527771949768066e-02 2.554552443325519562e-02 8.173234760761260986e-02 4.562361538410186768e-02 1.208548620343208313e-01 -4.724014550447463989e-02 -1.921643167734146118e-01 -2.112085372209548950e-01 -6.870269775390625000e-02 -1.365863233804702759e-01 -2.054141461849212646e-02 9.284137934446334839e-02 2.148463279008865356e-01 -1.857433766126632690e-01 1.372067779302597046e-01 3.610451146960258484e-02 -1.674709469079971313e-01 -1.084372997283935547e-01 -4.361697658896446228e-02 3.166191652417182922e-02 -1.099896207451820374e-01 -8.749930560588836670e-02 -2.006334215402603149e-01 1.894302368164062500e-01 9.535644203424453735e-02 1.516078114509582520e-01 -4.056235030293464661e-02 -1.591469347476959229e-01 -6.499160826206207275e-02 1.024269163608551025e-01 1.477176696062088013e-01 -2.296683192253112793e-02 1.175315678119659424e-01 -3.944433107972145081e-02 -1.873830258846282959e-01 5.805882439017295837e-02 -1.442923843860626221e-01 1.725059747695922852e-01 1.307907253503799438e-01 -1.022713631391525269e-01 4.130317270755767822e-02 3.106091357767581940e-02 -8.666399866342544556e-02 -1.468772441148757935e-01 -2.366859652101993561e-02 -1.426188275218009949e-03 1.208490356802940369e-01 -1.053054705262184143e-01 -1.099869385361671448e-01 -9.613804519176483154e-02 -8.705649524927139282e-02 2.605844847857952118e-02 -1.067321524024009705e-01 -2.159598618745803833e-01 1.155489832162857056e-01 -2.085115313529968262e-01 6.695737689733505249e-02 -9.538322687149047852e-02 1.105592995882034302e-01 2.813615649938583374e-02 -1.751716285943984985e-01 -1.547619551420211792e-01 6.639686971902847290e-02 1.617009341716766357e-01 1.203698664903640747e-01 1.000080555677413940e-01 -3.119846433401107788e-02 -1.283608824014663696e-01 -1.933915168046951294e-01 1.835094243288040161e-01 1.444463133811950684e-01 -1.448328327387571335e-02 1.363782584667205811e-01 5.586123466491699219e-02 1.105212569236755371e-01 4.344419762492179871e-02 -2.010833770036697388e-01 -5.116884037852287292e-02 -1.315109431743621826e-01 -1.947827786207199097e-01 -1.249536052346229553e-01 1.341512650251388550e-01 5.806645005941390991e-02 9.091423451900482178e-02 -1.076239347457885742e-01 1.002760827541351318e-01 -1.137485876679420471e-01 -1.612553596496582031e-01 1.258096694946289062e-01 -1.877870261669158936e-01 8.807382732629776001e-02 1.157838702201843262e-01 1.435448694974184036e-02 1.002500206232070923e-01 9.687080979347229004e-02 -5.618295818567276001e-02 -5.529971420764923096e-02 9.176974743604660034e-02 -6.481091678142547607e-02 6.408581882715225220e-02 1.522151082754135132e-01 -2.016180753707885742e-01 -1.096079647541046143e-01 -6.071261689066886902e-02 8.581771701574325562e-02 1.069633215665817261e-01 -2.556103095412254333e-02 5.610481277108192444e-02 1.246724650263786316e-01 1.922695487737655640e-01 -1.105329021811485291e-01 -1.012948006391525269e-01 1.082010790705680847e-01 -9.709789603948593140e-02 1.659509539604187012e-02 -2.728006243705749512e-02 -1.883261203765869141e-01 1.394028961658477783e-01 -1.303412914276123047e-01 9.324926882982254028e-02 -1.440824121236801147e-01 2.681130729615688324e-02 1.974475085735321045e-01 -2.293326705694198608e-02 1.312244385480880737e-01 2.052209377288818359e-01 4.474409297108650208e-02 1.585261821746826172e-01 1.937185078859329224e-01 9.474158287048339844e-02 -3.911720216274261475e-02 -8.666907250881195068e-02 -2.475310862064361572e-02 5.719268694519996643e-02 7.554788887500762939e-02 -2.020837515592575073e-01 7.226607203483581543e-02 1.316015869379043579e-01 2.025329172611236572e-01 -3.570001572370529175e-02 5.490475520491600037e-02 -7.446144241839647293e-03 2.724322304129600525e-02 1.174107119441032410e-01 -1.013333275914192200e-01 -5.427745729684829712e-02 1.442240029573440552e-01 -1.793392598628997803e-01 -5.897539108991622925e-02 1.263505965471267700e-02 -1.936817318201065063e-01 1.121506243944168091e-01 1.155989319086074829e-01 -6.226485967636108398e-02 2.026176601648330688e-01 -1.381011158227920532e-01 5.968143045902252197e-02 -5.727536976337432861e-02 -7.122810184955596924e-02 1.130661889910697937e-01 2.977979741990566254e-02 -9.215741604566574097e-02 -3.389884158968925476e-02 -2.442055847495794296e-04 9.496886283159255981e-02 -1.169212311506271362e-01 1.327041536569595337e-01 -8.279276639223098755e-02 7.871598005294799805e-02 3.238634765148162842e-02 -1.623210757970809937e-01 1.038034353405237198e-02 -1.834995150566101074e-01 -1.585736870765686035e-01 1.580684911459684372e-03 -1.655533537268638611e-02 7.692597806453704834e-02 1.584325134754180908e-01 -5.525358021259307861e-02 8.330871909856796265e-02 6.265270709991455078e-02 -5.036135390400886536e-02 1.593103259801864624e-01 1.163905635476112366e-01 -2.346744760870933533e-02 6.760547310113906860e-02 -7.712820079177618027e-03 1.788431964814662933e-02 9.179851412773132324e-02 1.955099552869796753e-01 -2.069274634122848511e-01 -9.128081053495407104e-02 -5.701802670955657959e-03 3.710329905152320862e-02 -1.217603310942649841e-01 7.440365105867385864e-02 -7.469038665294647217e-02 6.372830271720886230e-02 -5.617729201912879944e-02 1.720184534788131714e-01 -5.054967850446701050e-02 1.128992959856987000e-01 8.144028484821319580e-02 1.199773773550987244e-01 5.589538067579269409e-02 -6.678887456655502319e-02 -7.287956774234771729e-03 2.121973782777786255e-02 2.063643783330917358e-01 6.972678750753402710e-02 1.223014891147613525e-01 -1.874671876430511475e-01 1.836137771606445312e-01 -7.781471312046051025e-02 -1.168091967701911926e-01 9.905397891998291016e-02 9.322898089885711670e-02 -1.987897977232933044e-02 9.766504168510437012e-02 -1.818111725151538849e-02 1.391315162181854248e-01 1.022158712148666382e-01 1.264068782329559326e-01 -1.256303954869508743e-02 1.779246181249618530e-01 -2.133016660809516907e-02 1.933141946792602539e-01 1.296230256557464600e-01 -2.153062373399734497e-01 1.051083356142044067e-01 -6.390494853258132935e-02 -1.101509630680084229e-01 1.101535335183143616e-01 1.764738559722900391e-01 1.090338081121444702e-01 -3.258902952075004578e-02 1.740793883800506592e-01 -3.757689520716667175e-02 -6.029444187879562378e-02 1.246386617422103882e-01 6.304166465997695923e-02 -1.777756065130233765e-01 -5.727277323603630066e-02 -1.641384884715080261e-02 -1.598592549562454224e-01 -6.523595005273818970e-02 -2.080323696136474609e-01 -1.652629226446151733e-01 8.604978770017623901e-02 1.263825148344039917e-01 -7.842957973480224609e-02 -1.774088591337203979e-01 -7.565104216337203979e-02 -1.584953255951404572e-02 1.922163516283035278e-01 1.065672785043716431e-01 1.587770432233810425e-01 1.185113564133644104e-01 -5.967269465327262878e-02 1.060780808329582214e-01 -4.230469092726707458e-02 1.767897009849548340e-01 -1.335223466157913208e-01 7.276266813278198242e-02 -2.893176302313804626e-02 -2.053316533565521240e-01 1.730742752552032471e-01 -1.636286824941635132e-01 -3.907870501279830933e-02 -1.567594259977340698e-01 8.336145430803298950e-02 -5.847117677330970764e-02 -1.338896751403808594e-01 -1.549662798643112183e-01 -9.862188994884490967e-02 1.847179234027862549e-01 -1.891143620014190674e-01 -9.727687388658523560e-02 7.812451571226119995e-02 -6.992656737565994263e-02 -1.153366863727569580e-01 -1.231099963188171387e-01 1.678618341684341431e-01 -1.284071207046508789e-01 -4.226305335760116577e-02 -5.438794381916522980e-03 1.755391061305999756e-01 1.988031901419162750e-03 5.451002344489097595e-02 -4.038185998797416687e-02 -4.884626343846321106e-02 1.134465113282203674e-01 -3.125340119004249573e-02 1.998101323843002319e-01 8.927602320909500122e-02 1.030922960489988327e-02 1.690306216478347778e-01 -5.827683582901954651e-02 -1.082987412810325623e-01 -1.764590442180633545e-01 9.845578670501708984e-02 1.117122024297714233e-01 1.461850553750991821e-01 5.505471304059028625e-02 3.612770885229110718e-02 1.281478404998779297e-01 -7.149686664342880249e-02 -6.411772966384887695e-02 1.200157627463340759e-01 -7.165649533271789551e-02 1.419213018380105495e-03 -1.386636048555374146e-01 1.261601448059082031e-01 -1.116797849535942078e-01 5.899401009082794189e-02 -1.853359341621398926e-01 1.709512919187545776e-01 1.192065794020891190e-02 -1.214097905904054642e-02 -1.218582093715667725e-01 1.465891152620315552e-01 1.498498767614364624e-01 -2.287067659199237823e-02 7.740856707096099854e-02 -6.013845652341842651e-02 -1.235609501600265503e-01 -1.266274601221084595e-01 -9.394692629575729370e-02 9.503955952823162079e-04 -1.556336581707000732e-01 -1.647108346223831177e-01 -1.035981476306915283e-01 1.165274456143379211e-01 -1.134583577513694763e-01 1.068726181983947754e-01 1.865501329302787781e-02 -9.351398050785064697e-02 1.486752182245254517e-02 -2.907558577135205269e-03 -1.108163818717002869e-01 2.076356858015060425e-01 1.328421058133244514e-03 -9.245823323726654053e-02 1.945850998163223267e-02 1.738504618406295776e-01 -1.089040115475654602e-01 -9.959127753973007202e-03 1.834371238946914673e-01 -7.100098580121994019e-02 -1.347538232803344727e-01 1.896868497133255005e-01 -6.453237682580947876e-02 1.113469228148460388e-01 7.154311984777450562e-02 1.039316505193710327e-01 -1.673709452152252197e-01 1.050586812198162079e-02 2.207409143447875977e-01 3.601334989070892334e-02 -2.465945295989513397e-02 6.030935421586036682e-02 -6.043940782546997070e-02 1.641323864459991455e-01 -9.224770218133926392e-02 -1.218581199645996094e-01 1.140383183956146240e-01 1.617939025163650513e-01 1.397197227925062180e-02 -1.464988440275192261e-01 9.965216368436813354e-02 -1.472435891628265381e-01 1.048393398523330688e-01 4.356835037469863892e-02 4.150652885437011719e-02 -1.385785192251205444e-01 3.225138783454895020e-02 4.410148039460182190e-02 -6.036863103508949280e-02 -3.102345508523285389e-04 1.380822062492370605e-01 -1.752141863107681274e-02 -1.612401008605957031e-01 2.045764029026031494e-02 -5.458380654454231262e-02 1.463778018951416016e-01 -1.326173692941665649e-01 -1.083343327045440674e-01 -3.835908696055412292e-02 1.982021331787109375e-01 -1.224984899163246155e-01 -2.466020546853542328e-02 -8.227708190679550171e-02 -1.511881202459335327e-01 -8.634008467197418213e-02 -3.685986250638961792e-02 8.113171905279159546e-02 -1.619181223213672638e-02 1.112909913063049316e-01 -6.595699489116668701e-02 5.546655505895614624e-02 1.687556207180023193e-01 2.039361298084259033e-01 -1.241240426898002625e-01 -2.235072478652000427e-02 -9.476409293711185455e-03 2.034817487001419067e-01 1.655040979385375977e-01 1.301649212837219238e-01 1.053152233362197876e-02 6.974288821220397949e-02 -8.359050750732421875e-02 5.395909771323204041e-02 5.764719471335411072e-02 -1.515642702579498291e-01 1.214516013860702515e-01 -6.774037331342697144e-02 -8.050335198640823364e-02 -1.522338241338729858e-01 -1.944994926452636719e-01 -1.043179035186767578e-01 5.873583629727363586e-02 -1.097699329257011414e-01 6.068739574402570724e-03 -1.721878945827484131e-01 5.526614189147949219e-02 -1.807634085416793823e-01 -1.740791052579879761e-01 -4.915538057684898376e-02 1.856612265110015869e-01 8.136791735887527466e-02 -6.507140398025512695e-02 1.839157491922378540e-01 -1.293880492448806763e-01 1.854591369628906250e-01 1.625910401344299316e-01 -1.808840930461883545e-01 -5.289078503847122192e-02 -8.298108726739883423e-02 -1.349297314882278442e-01 9.388985112309455872e-03 -2.793374657630920410e-02 7.458247244358062744e-03 3.760289773344993591e-02 1.874766945838928223e-01 2.227300032973289490e-02 -1.374086737632751465e-01 -5.059630423784255981e-02 6.167085096240043640e-02 -1.534864753484725952e-01 -1.459298282861709595e-01 6.579592823982238770e-02 2.745985053479671478e-02 1.159008741378784180e-01 -1.789598353207111359e-02 1.874625980854034424e-01 -5.691390112042427063e-02 -1.601025611162185669e-01 -2.207977622747421265e-01 -8.025889098644256592e-02 -1.506538391113281250e-01 1.269135065376758575e-02 4.348640516400337219e-02 -1.668076962232589722e-03 1.871000528335571289e-01 -1.881667524576187134e-01 -3.978967666625976562e-02 -1.072548702359199524e-01 -2.964636497199535370e-02 -1.045130342245101929e-01 -4.343884065747261047e-02 1.788063943386077881e-01 5.117718130350112915e-02 9.557006508111953735e-02 1.884714663028717041e-01 1.000708490610122681e-01 -5.564862862229347229e-02 1.260424256324768066e-01 9.792836755514144897e-02 -8.615699410438537598e-02 1.039769798517227173e-01 -2.054162770509719849e-01 1.820971369743347168e-01 -8.209636062383651733e-02 -6.729160994291305542e-02 -1.763008981943130493e-01 -2.912518382072448730e-02 6.554989516735076904e-02 -7.815419137477874756e-02 -1.313033793121576309e-02 -6.690380722284317017e-02 1.717477589845657349e-01 7.168942689895629883e-02 3.584946319460868835e-02 7.367907464504241943e-02 -8.634880930185317993e-02 -1.063821930438280106e-02 -9.051313996315002441e-02 -1.614717096090316772e-01 -1.871455013751983643e-01 4.593671858310699463e-02 -1.089151799678802490e-01 -3.086889907717704773e-02 -1.649701744318008423e-01 -1.570901572704315186e-01 1.348785609006881714e-01 1.231863796710968018e-01 -1.160053834319114685e-01 5.344826355576515198e-02 -1.319927573204040527e-01 1.178650632500648499e-01 -5.678105726838111877e-02 -1.953169889748096466e-02 -1.074431762099266052e-01 1.430796980857849121e-01 -1.993330121040344238e-01 3.536693751811981201e-02 -1.988676935434341431e-01 -3.456365317106246948e-02 -1.540850996971130371e-01 1.587606817483901978e-01 2.010252773761749268e-01 1.766216605901718140e-01 1.401562057435512543e-02 1.283626258373260498e-01 -6.294938921928405762e-02 -4.460545256733894348e-02 9.725672006607055664e-02 -1.237851828336715698e-01 3.886323794722557068e-02 -1.328228414058685303e-02 5.466880276799201965e-02 1.350777000188827515e-01 
9.825521707534790039e-01 9.959125518798828125e-01 9.882127046585083008e-01 9.906011223793029785e-01 1.013198971748352051e+00 1.010952711105346680e+00 1.018673300743103027e+00 1.014639735221862793e+00 
-2.477693930268287659e-02 -8.788403123617172241e-03 1.844178186729550362e-03 7.668296340852975845e-03 1.650251261889934540e-02 -7.881093770265579224e-03 1.351201534271240234e-02 8.220402523875236511e-03 
-4.518773257732391357e-01 -1.607228070497512817e-01 1.546300202608108521e-01 4.925284385681152344e-01 -1.199551001191139221e-01 1.556109916418790817e-02 -2.866196632385253906e-01 2.914997749030590057e-02 
4.314777255058288574e-01 3.368178308010101318e-01 4.028015136718750000e-01 4.482647180557250977e-01 3.698461353778839111e-01 2.707243561744689941e-01 2.773547172546386719e-01 2.740187048912048340e-01 
