1.950666755437850952e-01 1.307949542999267578e+00 1.017075538635253906e+00 -1.909019649028778076e-01 2.595860719680786133e+00 1.954368650913238525e-01 -7.129982113838195801e-01 2.430847734212875366e-01 1.280662059783935547e+00 6.706672310829162598e-01 -8.502055704593658447e-02 4.934675097465515137e-01 3.703342974185943604e-01 -1.301506042480468750e+00 -8.017694577574729919e-03 1.115678697824478149e-01 1.606175005435943604e-01 -6.868139505386352539e-01 -2.253012955188751221e-01 1.139609664678573608e-01 7.488660514354705811e-02 -1.341226398944854736e-01 4.597716331481933594e-01 1.072822436690330505e-01 -2.813172293826937675e-03 -3.510568290948867798e-02 3.836463764309883118e-02 2.211025714874267578e+00 8.000871539115905762e-01 9.078700542449951172e-01 2.508976459503173828e-01 -1.095918178558349609e+00 2.564288973808288574e-01 6.748089790344238281e-01 8.275898694992065430e-01 4.768276214599609375e-01 -2.263843536376953125e+00 -6.471105813980102539e-01 -6.916502714157104492e-01 -3.770525753498077393e-01 5.399766564369201660e-01 -5.587969422340393066e-01 3.867834210395812988e-01 3.613714128732681274e-02 -1.521359205245971680e+00 2.459530159831047058e-02 2.875888720154762268e-02 -1.499142050743103027e-01 -9.635777771472930908e-02 2.448008358478546143e-01 1.717533916234970093e-01 -2.307194285094738007e-02 -6.589469313621520996e-02 9.784115478396415710e-03 -6.166704893112182617e-01 -6.868023872375488281e-01 -9.766294062137603760e-02 -1.266008138656616211e+00 -7.734292149543762207e-01 1.131410717964172363e+00 1.898485541343688965e+00 -1.693627357482910156e+00 -7.142955660820007324e-01 1.109393000602722168e+00 -6.443077325820922852e-01 -2.650288045406341553e-01 -4.281111955642700195e-01 -5.649635195732116699e-01 -1.719032526016235352e-01 -3.114559948444366455e-01 6.124429106712341309e-01 1.036931157112121582e+00 3.533149361610412598e-01 -1.451366096735000610e-01 3.396007046103477478e-02 -4.957177862524986267e-02 -2.631733417510986328e-01 4.696053266525268555e-02 -2.134669758379459381e-02 1.251353770494461060e-01 1.505825072526931763e-01 9.717804193496704102e-01 2.210254222154617310e-01 -1.314516186714172363e+00 1.758920907974243164e+00 -9.843980073928833008e-01 1.374505639076232910e+00 -4.932630062103271484e-01 -7.574906349182128906e-01 -3.764145374298095703e-01 -7.906913757324218750e-01 -8.590015172958374023e-01 1.806577853858470917e-02 -1.592175126075744629e+00 -6.147096678614616394e-02 -5.471842288970947266e-01 -7.030496597290039062e-01 1.718971431255340576e-01 6.784067749977111816e-01 -2.033477425575256348e-01 -4.123676940798759460e-02 1.129940375685691833e-01 2.553516626358032227e-01 3.349799811840057373e-01 -7.042174786329269409e-02 3.243656828999519348e-02 2.911500073969364166e-02 -1.481509059667587280e-01 7.280187308788299561e-02 -3.663211688399314880e-02 -6.904619280248880386e-03 2.615941762924194336e-01 2.236850738525390625e+00 2.123538777232170105e-02 1.556790433824062347e-02 -9.851742535829544067e-02 8.111608773469924927e-02 -8.198903501033782959e-02 1.228611692786216736e-01 -1.445742044597864151e-02 4.012649133801460266e-02 2.691419601440429688e+00 1.953284144401550293e-01 -2.283429950475692749e-01 1.202616170048713684e-01 8.723203092813491821e-02 2.049251943826675415e-01 -1.262214630842208862e-01 6.504037231206893921e-02 -1.131700202822685242e-01 9.866076707839965820e-02 -2.719553373754024506e-02 3.112316690385341644e-02 2.831276692450046539e-02 -1.752401888370513916e-01 -3.314033746719360352e-01 -9.400595426559448242e-01 -6.821767091751098633e-01 -1.096957698464393616e-01 -1.703751683235168457e-01 1.940030753612518311e-01 -7.126271128654479980e-01 -1.531196951866149902e+00 -6.937819123268127441e-01 1.584917426109313965e+00 -1.604627631604671478e-02 -5.965152010321617126e-02 -4.069119095802307129e-01 2.626687049865722656e+00 2.483897656202316284e-01 2.210670262575149536e-01 4.256874322891235352e-01 3.867656588554382324e-01 -3.088434040546417236e-01 5.434240400791168213e-02 -1.709497570991516113e-01 3.523140680044889450e-03 8.817035704851150513e-02 3.562222048640251160e-02 -9.189581125974655151e-02 -1.805574595928192139e-01 -1.820628046989440918e-01 9.387871026992797852e-01 -6.338671445846557617e-01 6.684637069702148438e-01 1.489422917366027832e+00 1.604992389678955078e+00 9.227021932601928711e-01 -1.142653107643127441e+00 2.804118990898132324e-01 -2.356874011456966400e-02 -8.332530856132507324e-01 1.390335708856582642e-01 -5.043187141418457031e-01 -9.932206869125366211e-01 -1.699003100395202637e+00 -1.129701733589172363e+00 8.607692122459411621e-01 -6.063246726989746094e-01 2.830206155776977539e-01 -9.943660348653793335e-02 -1.227227374911308289e-01 -1.329846680164337158e-02 1.122327819466590881e-01 2.657691240310668945e-01 4.095892608165740967e-02 1.183088868856430054e-01 -2.897624671459197998e-01 2.270645648241043091e-01 -2.314951419830322266e-01 -8.232706785202026367e-01 -2.259694814682006836e+00 -5.393185615539550781e-01 6.473206728696823120e-02 -1.379956007003784180e+00 2.286803275346755981e-01 -1.432549595832824707e+00 -1.195141151547431946e-01 1.126302003860473633e+00 8.685510754585266113e-01 1.785740017890930176e+00 -7.392347455024719238e-01 -1.809933900833129883e+00 3.412236869335174561e-01 -4.139814972877502441e-01 2.228625267744064331e-01 1.896282285451889038e-02 -3.010281622409820557e-01 9.838844090700149536e-02 -9.642582386732101440e-02 -3.864587098360061646e-02 2.773993909358978271e-01 -3.513827919960021973e-01 -1.857973337173461914e-01 3.458085060119628906e-01 -1.804433017969131470e-02 6.185353398323059082e-01 -7.597759366035461426e-01 1.145910024642944336e+00 3.528999388217926025e-01 7.658541202545166016e-01 -2.237920284271240234e+00 -1.400783777236938477e+00 -4.747507572174072266e-01 -9.753685444593429565e-02 -8.599905371665954590e-01 7.872440218925476074e-01 -1.577393651008605957e+00 -8.616663217544555664e-01 -1.622831583023071289e+00 1.284798264503479004e+00 -1.435157954692840576e-01 5.782108902931213379e-01 -3.520788848400115967e-01 9.471330791711807251e-02 1.031254678964614868e-01 1.275733578950166702e-02 4.738442599773406982e-02 4.192211478948593140e-02 -8.528435975313186646e-02 -2.767027541995048523e-02 -2.518673241138458252e-01 2.050162851810455322e-01 2.500835657119750977e-01 -9.897693060338497162e-03 5.575294047594070435e-02 7.656328678131103516e-01 -1.066434502601623535e+00 1.020082592964172363e+00 -1.342053651809692383e+00 -1.055654406547546387e+00 -1.026382207870483398e+00 7.751032114028930664e-01 1.078344941139221191e+00 5.944272875785827637e-01 8.646640181541442871e-01 8.133330345153808594e-01 -1.787502408027648926e+00 5.620568990707397461e-01 9.023361206054687500e-01 -1.835362434387207031e+00 -2.846405468881130219e-02 -1.383997499942779541e-01 -2.012639194726943970e-01 1.021422296762466431e-01 4.087662324309349060e-02 1.123116835951805115e-01 1.923761516809463501e-01 -1.495187282562255859e-01 -1.819674670696258545e-01 
1.802634358406066895e+00 1.636919498443603516e+00 1.309779524803161621e+00 1.584344744682312012e+00 1.500632286071777344e+00 1.691997885704040527e+00 2.135220289230346680e+00 1.198670268058776855e+00 1.696086049079895020e+00 1.066166639328002930e+00 
1.853723973035812378e-01 7.448651790618896484e-01 2.641713023185729980e-01 5.688378214836120605e-01 4.895862042903900146e-01 -3.299033939838409424e-01 -2.516972422599792480e-01 -1.811591349542140961e-02 8.047857284545898438e-01 3.315955400466918945e-01 
8.932858109474182129e-01 9.472433477640151978e-02 -4.607388079166412354e-01 -1.920100599527359009e-01 7.287348508834838867e-01 -2.483211904764175415e-01 9.829975664615631104e-02 -8.003807067871093750e-01 -4.973713755607604980e-01 -7.711528241634368896e-02 
1.934920668601989746e+00 1.649057388305664062e+00 1.468305945396423340e+00 1.614093542098999023e+00 1.295539379119873047e+00 1.360483527183532715e+00 1.744844198226928711e+00 2.073251962661743164e+00 2.361323833465576172e+00 1.770729660987854004e+00 
-8.128259181976318359e-01 1.193839684128761292e-01 2.425598055124282837e-01 -9.355531334877014160e-01 -5.373280644416809082e-01 1.714975088834762573e-01 -5.120041966438293457e-01 1.017839536070823669e-01 2.055476903915405273e-01 6.576455235481262207e-01 5.389487147331237793e-01 5.751266479492187500e-01 7.073813080787658691e-01 -6.053405404090881348e-01 4.269202649593353271e-01 8.673950433731079102e-01 -3.701969087123870850e-01 2.674830891191959381e-02 1.200673460960388184e+00 -1.739208027720451355e-02 -6.061205863952636719e-01 8.727151900529861450e-02 -9.278296679258346558e-02 4.307891130447387695e-01 1.863620430231094360e-01 -5.826404094696044922e-01 -5.955556035041809082e-01 1.050069093704223633e+00 7.680246829986572266e-01 -1.458875536918640137e-01 -5.263320207595825195e-01 -2.193786501884460449e-01 -2.020102366805076599e-02 -1.017336368560791016e+00 -3.977658748626708984e-01 -7.533122301101684570e-01 2.774308621883392334e-01 -1.112677305936813354e-01 5.235100388526916504e-01 1.002551436424255371e+00 -3.981500566005706787e-01 -9.486810117959976196e-02 2.081394642591476440e-01 -5.163679718971252441e-01 -9.919065237045288086e-01 8.801161646842956543e-01 8.309975862503051758e-01 3.173090219497680664e-01 1.622472286224365234e+00 8.254716545343399048e-02 -2.527587711811065674e-01 9.652244448661804199e-01 1.189257577061653137e-02 4.406691491603851318e-01 -7.393706440925598145e-01 -2.912084460258483887e-01 1.162023305892944336e+00 8.664531707763671875e-01 -9.281121492385864258e-01 -1.014999866485595703e+00 -2.361219674348831177e-01 -5.702997446060180664e-01 8.927193470299243927e-03 -1.435016036033630371e+00 -8.290846347808837891e-01 6.657029986381530762e-01 -2.096125602722167969e+00 -3.436426520347595215e-01 2.708897590637207031e-01 -9.097864627838134766e-01 1.721581965684890747e-01 1.043724536895751953e+00 -1.824397444725036621e-01 -1.002271056175231934e+00 1.015066027641296387e+00 1.041828513145446777e+00 -3.657371997833251953e-01 8.719748854637145996e-01 -1.106485128402709961e+00 5.279785394668579102e-01 -4.085118472576141357e-01 8.186510801315307617e-01 -5.226106941699981689e-02 -5.542229861021041870e-02 6.797042489051818848e-01 1.093062996864318848e+00 -6.722131371498107910e-01 7.361150383949279785e-01 -7.594450712203979492e-01 -1.373120307922363281e+00 -1.324521064758300781e+00 -4.224036633968353271e-01 -6.450974345207214355e-01 -7.109118700027465820e-01 -4.031953513622283936e-01 2.040862292051315308e-01 8.751091361045837402e-02 -6.777046322822570801e-01 8.175516128540039062e-01 -2.474939078092575073e-01 3.863877356052398682e-01 8.241612911224365234e-01 -7.744063735008239746e-01 1.225801482796669006e-01 -8.566700816154479980e-01 2.001323699951171875e+00 7.650408893823623657e-02 4.371855258941650391e-01 3.946226239204406738e-01 5.505918264389038086e-01 2.465417087078094482e-01 6.088390946388244629e-01 -3.124776780605316162e-01 5.976469516754150391e-01 -1.675908446311950684e+00 3.882790803909301758e-01 -2.551870584487915039e+00 4.459657147526741028e-02 2.216692715883255005e-01 -7.023934125900268555e-01 -9.498547762632369995e-02 2.591046094894409180e-01 1.289089083671569824e+00 9.000611305236816406e-02 7.947966456413269043e-02 8.070410043001174927e-02 8.631861209869384766e-01 -1.818847805261611938e-01 -2.726627886295318604e-01 -6.392711997032165527e-01 1.032427474856376648e-01 5.724003911018371582e-01 4.115862548351287842e-01 6.822895407676696777e-01 -3.004025220870971680e-01 -4.279931783676147461e-01 1.784627288579940796e-01 5.897299647331237793e-01 -2.188449725508689880e-02 9.937438368797302246e-01 2.637469172477722168e-01 6.450305581092834473e-01 1.597119718790054321e-01 -6.756196618080139160e-01 -9.787108898162841797e-01 2.121222913265228271e-01 -3.040939271450042725e-01 1.134667098522186279e-01 -5.820156335830688477e-01 6.519516706466674805e-01 7.678599953651428223e-01 -5.919252634048461914e-01 1.603460758924484253e-01 4.640245735645294189e-01 -1.383002519607543945e+00 -1.310925126075744629e+00 4.638002216815948486e-01 9.185332059860229492e-01 5.023715496063232422e-01 -6.264407932758331299e-02 -3.551846146583557129e-01 1.893277615308761597e-01 -4.468836188316345215e-01 9.390781521797180176e-01 -9.376497268676757812e-01 5.453414320945739746e-01 -1.702415645122528076e-01 -1.043691277503967285e+00 8.100956678390502930e-01 -8.437433242797851562e-01 2.427856445312500000e+00 -1.061537504196166992e+00 -7.220806926488876343e-02 3.393180370330810547e-01 -3.938429951667785645e-01 6.776365637779235840e-01 5.193601846694946289e-01 -2.428630888462066650e-01 -2.518619596958160400e-02 -5.890323519706726074e-01 -3.138594329357147217e-01 3.781495392322540283e-01 -7.811063528060913086e-01 -4.320049583911895752e-01 9.180784225463867188e-01 -1.538625597953796387e+00 8.222968578338623047e-01 1.953008532524108887e+00 -5.381480455398559570e-01 -1.783112436532974243e-01 -9.073126316070556641e-02 -5.862101316452026367e-01 -5.198411941528320312e-01 1.177268847823143005e-02 9.636797942221164703e-03 -1.453350901603698730e+00 4.473441839218139648e-01 -9.494628310203552246e-01 2.104310393333435059e-01 -7.876377105712890625e-01 2.920547425746917725e-01 2.976164221763610840e-01 -1.263353973627090454e-01 -7.307205796241760254e-01 1.391796469688415527e+00 -9.840707182884216309e-01 -6.250456571578979492e-01 -5.058543086051940918e-01 3.926813602447509766e-01 3.637773692607879639e-01 -8.729431629180908203e-01 -1.649753093719482422e+00 4.313817322254180908e-01 3.691454976797103882e-02 2.597558498382568359e-01 1.804284900426864624e-01 -8.529409170150756836e-01 3.381922245025634766e-01 -1.582494527101516724e-01 -1.007212519645690918e+00 1.304893344640731812e-01 5.036742091178894043e-01 2.111241072416305542e-01 1.204314157366752625e-01 -5.302377343177795410e-01 3.576434254646301270e-01 -2.855887413024902344e-01 4.165683090686798096e-01 -3.258536756038665771e-01 -5.815681219100952148e-01 2.611438632011413574e-01 1.636307477951049805e+00 -7.064868211746215820e-01 -1.358217149972915649e-01 -1.064239162951707840e-02 2.044553309679031372e-01 5.833818316459655762e-01 -1.256742596626281738e+00 5.694262385368347168e-01 -1.093499422073364258e+00 -4.281139373779296875e-01 -5.195860862731933594e-01 7.834055423736572266e-01 -8.395084738731384277e-01 -4.643595516681671143e-01 -1.100715160369873047e+00 -8.433801531791687012e-01 -1.193867564201354980e+00 -2.897177934646606445e-01 3.188334107398986816e-01 6.870614886283874512e-01 8.669577240943908691e-01 -1.214292764663696289e+00 -6.345116347074508667e-02 -6.204928755760192871e-01 -3.130969405174255371e-01 -8.472945094108581543e-01 -7.113561630249023438e-01 -2.111880928277969360e-01 -1.800613701343536377e-01 1.169612765312194824e+00 1.004960015416145325e-01 -2.782247960567474365e-01 1.704773753881454468e-01 1.831287890672683716e-01 -5.117939114570617676e-01 -9.920907020568847656e-01 3.715809583663940430e-01 6.704130768775939941e-02 -3.699349164962768555e-01 1.679600954055786133e+00 -1.719244197010993958e-02 4.234262108802795410e-01 1.254710555076599121e+00 2.791363000869750977e-01 3.850131332874298096e-01 5.069459080696105957e-01 -8.739115595817565918e-01 -3.327526152133941650e-01 6.755024790763854980e-01 -6.859375238418579102e-01 4.700313806533813477e-01 8.554823398590087891e-01 -7.830085605382919312e-02 -6.493341922760009766e-02 -4.220719635486602783e-01 -1.043775558471679688e+00 1.009015738964080811e-01 -1.617180585861206055e+00 1.903544515371322632e-01 -6.095600128173828125e-01 -8.193061351776123047e-01 9.371910095214843750e-01 -6.331502199172973633e-01 -1.667554378509521484e+00 -2.085762917995452881e-01 -2.493845820426940918e-01 6.318270564079284668e-01 6.946998238563537598e-01 -1.669486612081527710e-02 1.391503401100635529e-02 6.261584162712097168e-01 -6.836559176445007324e-01 -2.191158384084701538e-02 1.042007952928543091e-01 -6.764994859695434570e-01 8.900615572929382324e-01 2.088663429021835327e-01 1.104011178016662598e+00 -7.202118039131164551e-01 4.730015099048614502e-01 -3.385929018259048462e-02 -1.100271105766296387e+00 -4.246643930673599243e-02 5.212382078170776367e-01 3.938255012035369873e-01 4.432232677936553955e-02 9.580072760581970215e-01 -6.828346252441406250e-01 3.090878129005432129e-01 -6.857628226280212402e-01 -1.867537200450897217e-01 1.763710975646972656e-01 -3.981207013130187988e-01 1.980020046234130859e+00 -6.416613459587097168e-01 8.285452127456665039e-01 5.965394377708435059e-01 -4.374047219753265381e-01 5.700047016143798828e-01 4.388581216335296631e-01 -1.012379765510559082e+00 -6.308673620223999023e-01 -1.124975323677062988e+00 5.662869811058044434e-01 1.169577799737453461e-02 9.178774356842041016e-01 7.195376157760620117e-01 -5.054497346282005310e-02 8.812251091003417969e-01 9.429011940956115723e-01 -6.187629699707031250e-01 -3.513815701007843018e-01 -9.948110580444335938e-01 2.705829441547393799e-01 -3.950410187244415283e-01 -1.967014223337173462e-01 1.587833762168884277e+00 -4.778882563114166260e-01 2.458936125040054321e-01 1.304468274116516113e+00 5.778889060020446777e-01 3.190935552120208740e-01 -1.842878013849258423e-02 -6.761386990547180176e-02 6.099546551704406738e-01 1.013922095298767090e+00 2.965021431446075439e-01 1.220782399177551270e-01 2.131735384464263916e-01 1.202228546142578125e+00 -1.404915332794189453e+00 8.757545053958892822e-02 9.076718091964721680e-01 3.747645616531372070e-01 -9.122894406318664551e-01 8.069223761558532715e-01 1.501112729310989380e-01 -6.576190143823623657e-02 7.936782389879226685e-02 1.434915304183959961e+00 -4.727416038513183594e-01 -3.828916251659393311e-01 -6.264465451240539551e-01 -5.599537491798400879e-01 3.716007247567176819e-02 -8.777956962585449219e-01 -7.700863480567932129e-01 2.975635230541229248e-01 -4.538650438189506531e-02 7.713429927825927734e-01 2.411204576492309570e-01 -8.072103261947631836e-01 2.940047085285186768e-01 -2.001050859689712524e-01 -2.381852716207504272e-01 7.557241618633270264e-02 -4.343762397766113281e-01 6.668964624404907227e-01 -9.381096959114074707e-01 6.960794925689697266e-01 6.394689679145812988e-01 4.120273292064666748e-01 5.302857756614685059e-01 7.799863219261169434e-01 1.053494960069656372e-01 -1.054132103919982910e+00 2.276984900236129761e-01 -5.541756376624107361e-02 3.184656500816345215e-01 4.909273982048034668e-01 -3.165722787380218506e-01 2.139286845922470093e-01 2.107763141393661499e-01 -4.694132804870605469e-01 -6.510614156723022461e-01 -1.590457677841186523e+00 1.221205234527587891e+00 -3.191799819469451904e-01 3.121061027050018311e-01 -3.108307123184204102e-01 1.171549916267395020e+00 4.051114022731781006e-01 -1.493333131074905396e-01 -9.271245598793029785e-01 -6.263811141252517700e-02 -2.855142354965209961e-01 -1.628658413887023926e+00 -4.763438403606414795e-01 -1.008178070187568665e-01 -7.623406648635864258e-01 8.768134117126464844e-01 -8.745146989822387695e-01 1.055998325347900391e+00 2.200090289115905762e-01 -9.857235550880432129e-01 4.490704834461212158e-01 -1.418629288673400879e-01 -3.651194870471954346e-01 -7.769721746444702148e-01 4.707825779914855957e-01 6.805675625801086426e-01 -5.905710458755493164e-01 9.739867448806762695e-01 -1.043244838714599609e+00 8.597711920738220215e-01 1.970751136541366577e-01 -1.284594684839248657e-01 -5.862145423889160156e-01 3.158693313598632812e-01 7.914077043533325195e-01 -1.306844234466552734e+00 3.263939321041107178e-01 1.616909980773925781e+00 -1.112306833267211914e+00 -3.220984041690826416e-01 -2.820024788379669189e-01 -6.168291568756103516e-01 9.913876652717590332e-02 1.161933660507202148e+00 -7.709215283393859863e-01 5.572139620780944824e-01 -6.511632800102233887e-01 2.394013255834579468e-01 -4.423737227916717529e-01 5.728806853294372559e-01 1.511571705341339111e-01 -2.099260389804840088e-01 -9.730569720268249512e-01 -2.492611259222030640e-01 -1.332493424415588379e+00 5.306499004364013672e-01 7.595416903495788574e-02 3.249392658472061157e-02 -1.188262820243835449e+00 1.587302803993225098e+00 2.935878634452819824e-01 -6.236209869384765625e-01 -1.006502285599708557e-01 4.763588309288024902e-01 -5.599447488784790039e-01 4.458069205284118652e-01 -4.547390043735504150e-01 -7.390171885490417480e-01 -8.923239111900329590e-01 3.589377105236053467e-01 -7.987250685691833496e-01 1.821773350238800049e-01 -4.331789314746856689e-01 -8.853883743286132812e-01 -1.181773900985717773e+00 4.936429858207702637e-01 -1.204350948333740234e+00 -1.123198494315147400e-01 -6.145926117897033691e-01 1.621873974800109863e+00 4.965352714061737061e-01 1.336921006441116333e-01 -4.663718044757843018e-01 6.286689639091491699e-01 -1.086947679519653320e+00 -1.574934124946594238e-01 -5.245040059089660645e-01 -5.627404451370239258e-01 -9.834677577018737793e-01 -1.447521448135375977e-01 5.854511857032775879e-01 -1.573814988136291504e+00 3.367437422275543213e-01 -1.769189685583114624e-01 -1.251317262649536133e+00 -7.881410419940948486e-02 -1.136404514312744141e+00 9.935476630926132202e-02 5.148815512657165527e-01 5.103889107704162598e-01 2.804546058177947998e-01 -2.005297094583511353e-01 -3.666563332080841064e-01 -1.044338047504425049e-01 -2.005312591791152954e-01 -6.715695261955261230e-01 1.186026573181152344e+00 5.817399621009826660e-01 1.184834718704223633e+00 -4.433086216449737549e-01 -9.175707101821899414e-01 3.017994165420532227e-01 -1.453968763351440430e+00 -8.626993894577026367e-01 -1.012678980827331543e+00 5.258694663643836975e-02 5.105904340744018555e-01 -5.004948377609252930e-01 -4.072741791605949402e-02 2.280743718147277832e-01 -2.247695624828338623e-01 -5.324246287345886230e-01 8.683711290359497070e-01 7.370402663946151733e-02 -1.011859536170959473e+00 4.442499279975891113e-01 -2.605896890163421631e-01 1.641498357057571411e-01 -3.971496522426605225e-01 1.900720357894897461e+00 -8.265472650527954102e-01 7.531468272209167480e-01 -3.365693688392639160e-01 -7.124124467372894287e-02 1.590402126312255859e+00 -3.052094280719757080e-01 -4.844407737255096436e-01 1.295498728752136230e+00 -1.024306789040565491e-01 -7.358126640319824219e-01 2.022155523300170898e-01 -9.832411408424377441e-01 -4.367478191852569580e-02 -1.392498493194580078e+00 -8.560770153999328613e-01 -7.760268449783325195e-02 5.750460624694824219e-01 4.664482772350311279e-01 2.801768183708190918e-01 -1.510860919952392578e+00 -5.556174516677856445e-01 -1.860127151012420654e-01 -2.327454984188079834e-01 1.553364843130111694e-01 -3.819084465503692627e-01 -6.275157928466796875e-01 -2.045457661151885986e-01 4.559421241283416748e-01 -1.174006834626197815e-01 -3.279643058776855469e-01 -3.571171760559082031e-01 -8.930079340934753418e-01 6.472344398498535156e-01 -1.905647665262222290e-01 9.977853298187255859e-01 4.458317756652832031e-01 -8.905816674232482910e-01 -8.826476931571960449e-01 1.045269966125488281e+00 -4.852819442749023438e-01 -1.726394891738891602e-01 4.561311900615692139e-01 -1.545277088880538940e-01 8.666355162858963013e-02 6.169575452804565430e-01 8.403299450874328613e-01 -1.924449801445007324e-01 -8.000288605690002441e-01 -2.740538865327835083e-02 -9.300547242164611816e-01 5.425528287887573242e-01 2.424496859312057495e-01 -8.679617941379547119e-02 -5.239550471305847168e-01 1.944247961044311523e+00 -1.570134758949279785e+00 2.925415337085723877e-02 2.009183615446090698e-01 5.502738356590270996e-01 4.700285196304321289e-01 4.844588786363601685e-02 7.809185385704040527e-01 5.536598153412342072e-03 -1.086904406547546387e+00 -5.161949396133422852e-01 -1.142340674996376038e-01 -2.305551916360855103e-01 -1.442262530326843262e-02 -1.013633251190185547e+00 1.620637029409408569e-01 -6.895236968994140625e-01 -7.089373469352722168e-01 -1.111676245927810669e-01 -1.114542335271835327e-01 1.223627090454101562e+00 1.200766682624816895e+00 2.550890147686004639e-01 -3.891084492206573486e-01 1.258750438690185547e+00 -1.855797410011291504e+00 -1.979061774909496307e-02 -7.182030677795410156e-01 2.332824617624282837e-01 -9.557890146970748901e-02 -4.336963295936584473e-01 -1.080478578805923462e-01 3.786790668964385986e-01 -9.289079904556274414e-01 3.665460348129272461e-01 -2.612674534320831299e-01 -2.049523890018463135e-01 -3.162008523941040039e-01 4.277689754962921143e-01 6.021679639816284180e-01 1.454558968544006348e+00 -6.215760707855224609e-01 -1.274562358856201172e+00 5.217406153678894043e-01 -7.566556930541992188e-01 -1.438941359519958496e+00 1.531333848834037781e-02 -9.876219928264617920e-02 1.105471491813659668e+00 -4.118067324161529541e-01 -1.177706360816955566e+00 6.008809208869934082e-01 -2.618787623941898346e-02 6.377529501914978027e-01 -6.792896389961242676e-01 5.074261426925659180e-01 -4.344479739665985107e-01 4.772679209709167480e-01 4.225121438503265381e-01 -1.646465778350830078e+00 5.807853490114212036e-02 1.950148493051528931e-01 8.656418323516845703e-02 4.837360382080078125e-01 9.885257482528686523e-01 7.011437416076660156e-01 1.525842547416687012e+00 1.626572757959365845e-01 5.073663219809532166e-02 3.519740998744964600e-01 -1.632603406906127930e-01 -3.256490528583526611e-01 1.986382454633712769e-01 -7.360209822654724121e-01 4.611231386661529541e-02 6.195636391639709473e-01 4.901202619075775146e-01 4.128685891628265381e-01 3.400372862815856934e-01 -4.285132288932800293e-01 -1.055715084075927734e-01 -1.191538572311401367e+00 -4.412649869918823242e-01 -7.551727890968322754e-01 1.586093753576278687e-01 -7.181602120399475098e-01 6.847163438796997070e-01 9.538969397544860840e-02 2.427739053964614868e-01 -8.934236764907836914e-01 -5.127972960472106934e-01 -2.502363920211791992e-01 -7.146529555320739746e-01 3.828913867473602295e-01 -1.590926386415958405e-02 1.266418576240539551e+00 -8.284726142883300781e-01 -9.201452136039733887e-02 -7.701514959335327148e-01 -4.459948241710662842e-01 -5.241556763648986816e-01 4.233525097370147705e-01 9.411657452583312988e-01 1.484287500381469727e+00 -4.119648039340972900e-01 -4.981937408447265625e-01 -3.120874762535095215e-01 5.816662907600402832e-01 1.579875946044921875e+00 -1.088556408882141113e+00 -5.804575085639953613e-01 -5.644110441207885742e-01 -4.409014582633972168e-01 9.223008751869201660e-01 -8.574539422988891602e-01 -6.467322111129760742e-01 -8.836399912834167480e-01 4.950876832008361816e-01 -2.547232806682586670e-01 -2.028226405382156372e-01 1.029473185539245605e+00 4.823852181434631348e-01 -9.365854263305664062e-01 -1.611229896545410156e+00 1.459679603576660156e-01 -4.040326178073883057e-02 1.113475203514099121e+00 5.571196973323822021e-02 1.587603539228439331e-01 -1.107125520706176758e+00 -4.545757770538330078e-01 -3.764868676662445068e-01 -9.348071366548538208e-02 -3.343630209565162659e-02 -2.012481242418289185e-01 -8.912871479988098145e-01 -1.077644109725952148e+00 -6.644515395164489746e-01 -1.079384684562683105e+00 -1.343945115804672241e-01 -5.316790342330932617e-01 -5.203041434288024902e-01 -9.951053559780120850e-02 -3.633795976638793945e-01 2.497519999742507935e-01 6.686411499977111816e-01 1.950492858886718750e-01 -3.273093402385711670e-01 1.842762976884841919e-01 -3.591724932193756104e-01 -6.432089954614639282e-02 5.729611515998840332e-01 2.055740058422088623e-01 -5.604180693626403809e-01 -6.828104257583618164e-01 4.198587536811828613e-01 7.072198390960693359e-01 -5.981991887092590332e-01 -7.784506678581237793e-01 8.934066891670227051e-01 6.114671230316162109e-01 3.250284790992736816e-01 -8.423332571983337402e-01 2.045080423355102539e+00 -4.954731464385986328e-01 -7.281737867742776871e-03 -3.487338423728942871e-01 -4.047056436538696289e-01 -6.208245158195495605e-01 -2.945398390293121338e-01 -2.548001110553741455e-01 -5.987768769264221191e-01 -7.189608812332153320e-01 -3.760202229022979736e-01 3.353552222251892090e-01 9.173319339752197266e-01 -1.677595376968383789e+00 -7.155962288379669189e-02 -8.269710540771484375e-01 9.750152826309204102e-01 2.569258213043212891e-01 7.065207958221435547e-01 -1.279517173767089844e+00 2.723622620105743408e-01 -8.057210445404052734e-01 -2.306561172008514404e-01 6.499454379081726074e-01 1.555064022541046143e-01 6.024053096771240234e-01 -1.605930805206298828e+00 1.687445282936096191e+00 -7.843512892723083496e-01 -7.989747524261474609e-01 3.904981911182403564e-02 9.578093290328979492e-01 -7.025203853845596313e-02 3.766403198242187500e-01 1.931155920028686523e-01 6.623907685279846191e-01 -8.351531028747558594e-01 5.145638585090637207e-01 5.264396071434020996e-01 -1.257432937622070312e+00 1.315955877304077148e+00 -1.426178216934204102e+00 -9.810879081487655640e-02 -3.011634647846221924e-01 6.244414448738098145e-01 1.275583982467651367e+00 -1.916411966085433960e-01 -4.769934713840484619e-01 -4.079783856868743896e-01 -1.777289211750030518e-01 8.715025186538696289e-01 -6.138305738568305969e-02 -1.563517451286315918e-01 2.827744185924530029e-01 -1.448951214551925659e-01 -1.120334029197692871e+00 3.671318590641021729e-01 -1.769838184118270874e-01 -4.718961715698242188e-01 -1.403760790824890137e+00 3.148525059223175049e-01 5.961123704910278320e-01 -3.335742950439453125e-01 1.214762210845947266e+00 -6.177676320075988770e-01 -1.281443750485777855e-03 -1.959121413528919220e-02 1.511921584606170654e-01 -1.119702577590942383e+00 -1.698420196771621704e-01 3.659884333610534668e-01 -9.451480209827423096e-02 1.067493557929992676e+00 5.428320765495300293e-01 -1.762815713882446289e+00 -2.056255638599395752e-01 -5.094793438911437988e-01 -5.803593993186950684e-01 -1.902022719383239746e+00 -4.489172715693712234e-03 7.317477464675903320e-01 -5.338228344917297363e-01 2.116718769073486328e+00 -1.450801044702529907e-01 4.064638316631317139e-01 -4.775609076023101807e-01 -8.117873668670654297e-01 -3.907158970832824707e-01 2.981730103492736816e-01 -6.251982599496841431e-02 -1.085703849792480469e+00 -2.234845459461212158e-01 3.062014579772949219e-01 5.479620099067687988e-01 8.613754510879516602e-01 -7.065398693084716797e-01 -1.873641312122344971e-01 6.329757571220397949e-01 -1.327405869960784912e-01 -9.346656203269958496e-01 2.061357647180557251e-01 2.161145024001598358e-02 1.183622479438781738e+00 5.334329009056091309e-01 3.932418301701545715e-02 -5.917716622352600098e-01 7.818216085433959961e-01 1.494768410921096802e-01 -5.652798712253570557e-02 -3.189744353294372559e-01 9.000502824783325195e-01 2.115353792905807495e-01 3.742524981498718262e-01 -7.160452604293823242e-01 -2.645434141159057617e-01 -6.939821839332580566e-01 2.105126380920410156e-01 3.453003168106079102e-01 -1.663215279579162598e+00 1.245110869407653809e+00 2.652728855609893799e-01 2.306382209062576294e-01 5.598738789558410645e-01 6.537432968616485596e-02 5.687938928604125977e-01 -5.131286978721618652e-01 -1.558714628219604492e+00 8.428468704223632812e-01 2.333704084157943726e-01 -2.787270247936248779e-01 -1.456664204597473145e-01 3.683712184429168701e-01 -8.841531872749328613e-01 -6.816957592964172363e-01 -8.452962040901184082e-01 -7.864884734153747559e-01 -8.740938901901245117e-01 -1.226767972111701965e-01 2.182130515575408936e-01 -6.293837428092956543e-01 -3.230687677860260010e-01 8.581305742263793945e-01 6.476737260818481445e-01 1.130928397178649902e-01 -1.074826240539550781e+00 4.931280016899108887e-01 8.911196589469909668e-01 
1.199841499328613281e+00 1.795548319816589355e+00 1.505425333976745605e+00 1.284682869911193848e+00 1.323402762413024902e+00 1.053846597671508789e+00 1.188531875610351562e+00 1.221022725105285645e+00 1.368568181991577148e+00 8.793756961822509766e-01 
-6.228680610656738281e-01 1.780545525252819061e-02 -5.367465615272521973e-01 -1.278863847255706787e-01 -1.079911947250366211e+00 -5.552211776375770569e-03 -3.396487832069396973e-01 -5.128259956836700439e-02 -5.020199418067932129e-01 2.278536260128021240e-01 
-4.784886240959167480e-01 1.750987052917480469e+00 -7.808257579803466797e+00 4.037776947021484375e+00 5.175315141677856445e-01 -6.302067279815673828e+00 -2.992158412933349609e+00 -2.650203466415405273e+00 -4.405568122863769531e+00 -4.337624073028564453e+00 
8.308106231689453125e+01 7.981470489501953125e+01 9.082543945312500000e+01 8.009368133544921875e+01 6.378342437744140625e+01 6.398722839355468750e+01 9.832116699218750000e+01 7.985556030273437500e+01 1.070193176269531250e+02 5.119081115722656250e+01 
-1.673139929771423340e-01 3.165365457534790039e-01 -1.029990434646606445e+00 -6.962627172470092773e-01 4.506800696253776550e-02 -9.384342283010482788e-02 -3.954209387302398682e-01 -4.857971332967281342e-03 6.258786320686340332e-01 1.630163639783859253e-01 1.141681596636772156e-01 -2.086627930402755737e-01 1.283420622348785400e-02 -2.167730033397674561e-01 6.459215879440307617e-01 1.309247136116027832e+00 -2.892023622989654541e-01 1.386237025260925293e+00 6.836067419499158859e-03 -7.259043455123901367e-01 -2.411695718765258789e+00 6.328261494636535645e-01 -2.272158563137054443e-01 4.631038010120391846e-01 1.029763487167656422e-03 -7.064960598945617676e-01 -8.307180404663085938e-01 -1.789705455303192139e-01 -1.064283251762390137e+00 -4.427734389901161194e-02 -5.024415850639343262e-01 -7.767596244812011719e-01 -1.282524347305297852e+00 -3.747610747814178467e-01 3.133919537067413330e-01 -1.280278712511062622e-01 -2.744077742099761963e-01 6.562971323728561401e-02 -7.814192771911621094e-01 2.424224466085433960e-01 3.249928355216979980e-01 -3.975724577903747559e-01 9.960307478904724121e-01 2.520939111709594727e-01 -7.370651960372924805e-01 -1.077857017517089844e+00 -9.225831031799316406e-01 -2.990582725033164024e-04 4.478231444954872131e-02 -5.797773227095603943e-02 -6.532483696937561035e-01 -4.651952385902404785e-01 4.572310447692871094e-01 -6.974852085113525391e-01 6.560344099998474121e-01 -3.303588926792144775e-01 -1.379484772682189941e+00 -7.947095036506652832e-01 5.379912257194519043e-01 -7.952197194099426270e-01 1.236968636512756348e+00 6.104249358177185059e-01 1.647828221321105957e-01 1.443809121847152710e-01 -2.387380003929138184e-01 -1.349983453750610352e+00 1.417056679725646973e+00 -4.504212141036987305e-01 -9.904969334602355957e-01 -3.246410191059112549e-02 -1.127097129821777344e+00 3.150486350059509277e-01 1.834275424480438232e-01 -5.804272890090942383e-01 6.659559607505798340e-01 1.483311653137207031e+00 1.149289250373840332e+00 9.173347353935241699e-01 2.402929216623306274e-01 3.396846055984497070e-01 -2.521555498242378235e-02 6.551051735877990723e-01 -1.274148523807525635e-01 6.778256297111511230e-01 2.902085185050964355e-01 -4.133198857307434082e-01 -7.990957498550415039e-01 2.369742607697844505e-03 -1.493182778358459473e+00 1.009680107235908508e-01 -1.239071607589721680e+00 -1.807011723518371582e+00 -6.574617624282836914e-01 -1.002905249595642090e+00 -2.455433458089828491e-02 -8.494139313697814941e-01 -1.056622028350830078e+00 6.301378607749938965e-01 4.358735308051109314e-02 -3.636087775230407715e-01 -2.241942733526229858e-01 -1.151962652802467346e-01 -3.848100900650024414e-01 1.771866679191589355e-01 -1.300270389765501022e-02 -1.314621418714523315e-01 -5.178515911102294922e-01 -3.023289740085601807e-01 1.014543056488037109e+00 -5.191876888275146484e-01 -3.561559915542602539e-01 1.336026668548583984e+00 6.166178584098815918e-01 3.580928444862365723e-01 1.408368706703186035e+00 -4.647552371025085449e-01 4.231140315532684326e-01 1.517991423606872559e-01 9.558159112930297852e-02 -2.346829026937484741e-01 1.557657241821289062e+00 5.176680088043212891e-01 -3.484805822372436523e-01 -1.057412922382354736e-01 6.702606081962585449e-01 -6.386255379766225815e-03 -1.714128106832504272e-01 2.461671113967895508e+00 -8.029258847236633301e-01 -2.209203690290451050e-01 6.046957373619079590e-01 -4.039744138717651367e-01 1.366357564926147461e+00 7.496099472045898438e-01 -7.702201604843139648e-01 -5.045039057731628418e-01 -1.585645526647567749e-01 -1.485457658767700195e+00 1.049305081367492676e+00 8.682633638381958008e-01 1.655462682247161865e-01 -1.440853714942932129e+00 3.346348106861114502e-01 -2.368923872709274292e-01 3.345009982585906982e-01 1.299965858459472656e+00 1.495830863714218140e-01 2.697110474109649658e-01 4.654600620269775391e-01 8.242854475975036621e-01 -7.102525830268859863e-01 2.340419143438339233e-01 -9.766559600830078125e-01 -4.297934174537658691e-01 4.667270183563232422e-01 8.607648015022277832e-01 8.236233592033386230e-01 1.023573279380798340e+00 5.244076251983642578e-01 -3.259001672267913818e-01 -5.295069813728332520e-01 4.774669706821441650e-01 -2.732459902763366699e-01 -4.375157058238983154e-01 3.023961484432220459e-01 5.123817920684814453e-01 -2.191343456506729126e-01 -6.817629933357238770e-01 7.408729195594787598e-01 -2.592116594314575195e-01 2.408303767442703247e-01 1.088223695755004883e+00 -6.095342636108398438e-01 1.857438534498214722e-01 -1.296731591224670410e+00 6.741949915885925293e-02 7.243172526359558105e-01 -9.037691950798034668e-01 -5.821189284324645996e-01 -4.917352795600891113e-01 2.817857265472412109e-01 2.490862905979156494e-01 2.020315378904342651e-01 3.712593317031860352e-01 -7.445669174194335938e-01 -1.294496804475784302e-01 -1.082365393638610840e+00 3.255222439765930176e-01 1.032464504241943359e+00 -2.741082608699798584e-01 -7.287581264972686768e-02 1.110863208770751953e+00 -4.032519757747650146e-01 2.454414963722229004e-01 4.255351424217224121e-01 -2.721194922924041748e-01 -7.828011363744735718e-02 6.000328063964843750e-01 5.641695261001586914e-01 3.349708616733551025e-01 2.449165731668472290e-01 5.997600555419921875e-01 -4.969289004802703857e-01 -9.484996795654296875e-01 -3.621058762073516846e-01 -1.395906925201416016e+00 -5.132932662963867188e-01 4.117496907711029053e-01 -4.246898591518402100e-01 1.339276582002639771e-01 1.407705545425415039e+00 1.264429241418838501e-01 7.312632799148559570e-01 -4.231210350990295410e-01 5.038445591926574707e-01 1.144044175744056702e-01 -1.648307204246520996e+00 -2.928727120161056519e-02 1.518472313880920410e+00 -1.044546127319335938e+00 6.603893637657165527e-01 -2.465490996837615967e-01 -3.122393488883972168e-01 9.998478889465332031e-01 6.814814172685146332e-03 6.507732868194580078e-01 4.134688377380371094e-01 -1.900098174810409546e-01 2.955797016620635986e-01 -3.438677787780761719e-01 1.402117609977722168e-01 1.332398056983947754e+00 -1.019038319587707520e+00 5.211589336395263672e-01 -8.976889252662658691e-01 6.441361904144287109e-01 1.854567378759384155e-01 5.651890635490417480e-01 6.278886198997497559e-01 -1.092837810516357422e+00 -8.029251098632812500e-01 -9.319136142730712891e-01 -1.177849769592285156e+00 -7.941097617149353027e-01 -6.826406121253967285e-01 -8.534147143363952637e-01 3.254616558551788330e-01 -1.341349959373474121e+00 3.196206390857696533e-01 3.145059570670127869e-02 5.300559997558593750e-01 -1.635131716728210449e+00 1.213514924049377441e+00 1.553701519966125488e+00 -1.079372406005859375e+00 7.121225446462631226e-02 -7.413432002067565918e-01 1.126399040222167969e-01 -7.565058469772338867e-01 4.826003313064575195e-01 -3.768192827701568604e-01 1.067911505699157715e+00 -3.026610016822814941e-01 1.022893786430358887e+00 5.653469637036323547e-02 3.344346284866333008e-01 -1.187217354774475098e+00 -1.860257983207702637e-01 -9.165465831756591797e-01 -2.890244126319885254e-01 1.878771814517676830e-03 -3.084943816065788269e-02 2.483810186386108398e+00 -1.010905146598815918e+00 -7.991908788681030273e-01 7.732074260711669922e-01 -4.236146435141563416e-02 -3.243422508239746094e-02 1.244363546371459961e+00 -1.792383044958114624e-01 3.272950351238250732e-01 3.576520681381225586e-01 3.303525224328041077e-02 3.020659685134887695e-01 7.777099609375000000e-01 -1.139585673809051514e-01 3.385538607835769653e-02 -8.157580494880676270e-01 9.125055670738220215e-01 1.358626604080200195e+00 5.073585547506809235e-03 -8.920489549636840820e-01 -3.811083734035491943e-01 5.905510783195495605e-01 -6.284640431404113770e-01 -1.319163799285888672e+00 -6.131396070122718811e-02 4.316717982292175293e-01 1.029485940933227539e+00 -1.279367923736572266e+00 -1.031287670135498047e+00 -5.410462617874145508e-01 3.888749182224273682e-01 1.219852328300476074e+00 6.965013742446899414e-01 -1.517348885536193848e-01 -4.869343340396881104e-01 -1.036227107048034668e+00 -3.075806796550750732e-01 -9.434114098548889160e-01 3.526129722595214844e-01 -8.140076398849487305e-01 1.428047418594360352e-01 -3.348605036735534668e-01 -1.033188939094543457e+00 -1.002055525779724121e+00 3.809804618358612061e-01 5.238163471221923828e-01 -5.492504835128784180e-01 4.887408316135406494e-01 -4.758698940277099609e-01 -3.959950506687164307e-01 7.627798914909362793e-01 3.073521852493286133e-01 -1.888108015060424805e+00 5.801584720611572266e-01 -1.112557724118232727e-01 5.019126534461975098e-01 -6.080217957496643066e-01 -6.848534196615219116e-02 -3.055247366428375244e-01 -4.994553327560424805e-01 1.843394190073013306e-01 -9.039363265037536621e-01 6.966561675071716309e-01 -3.653986752033233643e-01 -1.470708489418029785e+00 9.598334878683090210e-02 5.644456669688224792e-02 -2.258433215320110321e-02 -6.268995404243469238e-01 9.085328876972198486e-02 4.735644459724426270e-01 -1.430811405181884766e+00 -8.847480416297912598e-01 -1.713470369577407837e-01 9.858598709106445312e-01 3.884403407573699951e-01 -4.857804775238037109e-01 2.911768555641174316e-01 -8.211538940668106079e-02 -4.114365875720977783e-01 7.545266747474670410e-01 3.598821759223937988e-01 8.695108890533447266e-01 -5.168598890304565430e-01 -3.695630133152008057e-01 -6.566446423530578613e-01 -5.243989229202270508e-01 -3.713659346103668213e-01 5.666077136993408203e-01 -3.846039474010467529e-01 1.212241411209106445e+00 1.253071069717407227e+00 -2.925789356231689453e-01 4.972878396511077881e-01 -2.078611552715301514e-01 -1.269330143928527832e+00 1.824266836047172546e-02 -2.129887044429779053e-01 -9.204151034355163574e-01 -2.677343785762786865e-01 -6.115692257881164551e-01 -9.385252594947814941e-01 -5.112842321395874023e-01 -8.969354629516601562e-01 1.431096494197845459e-01 -5.576410889625549316e-01 -1.295525431632995605e-01 9.767524600028991699e-01 -2.955046594142913818e-01 -4.198165535926818848e-01 1.383089184761047363e+00 -1.092323735356330872e-01 -2.738563418388366699e-01 5.071633458137512207e-01 1.040209978818893433e-01 -1.253839135169982910e-01 4.346933960914611816e-02 2.640622854232788086e-01 6.095139309763908386e-02 3.233511149883270264e-01 -3.161351978778839111e-01 8.489495515823364258e-01 -1.369810581207275391e+00 4.602530896663665771e-01 -4.559493362903594971e-01 4.274618327617645264e-01 5.843793749809265137e-01 -5.594503879547119141e-01 1.523793488740921021e-01 -7.137864232063293457e-01 -2.644968330860137939e-01 -1.042617201805114746e+00 -1.108195781707763672e+00 -6.167666316032409668e-01 -2.142898738384246826e-02 -4.215015172958374023e-01 1.044761762022972107e-01 -8.332353234291076660e-01 -2.427757084369659424e-01 -5.442665815353393555e-01 2.787800133228302002e-01 4.820994436740875244e-01 6.790766119956970215e-02 -4.255907237529754639e-02 1.237163469195365906e-01 3.627636730670928955e-01 1.906356215476989746e-01 1.320510268211364746e+00 -1.752298355102539062e+00 -9.315369129180908203e-01 2.682473361492156982e-01 4.043537378311157227e-01 -6.842546164989471436e-02 6.674325466156005859e-01 -8.483135700225830078e-01 -4.291284978389739990e-01 -8.607044816017150879e-01 -1.641929894685745239e-01 8.717253804206848145e-02 6.685362458229064941e-01 -2.789846062660217285e-01 3.243420422077178955e-01 8.093227148056030273e-01 -1.607534885406494141e-01 3.422481715679168701e-01 -5.606282949447631836e-01 -3.095856606960296631e-01 -1.645560026168823242e+00 1.001572608947753906e+00 1.203129962086677551e-01 -4.018125534057617188e-01 -2.383990585803985596e-02 5.643286705017089844e-01 1.507151007652282715e+00 1.802735216915607452e-02 -2.049430131912231445e+00 8.192316293716430664e-01 1.081268668174743652e+00 -1.147979736328125000e+00 -1.316724531352519989e-02 3.521784842014312744e-01 -7.503031492233276367e-01 -7.388286292552947998e-02 -4.386106133460998535e-01 -9.679272174835205078e-01 -1.035524010658264160e+00 -1.854649335145950317e-01 -7.195352762937545776e-02 8.197526931762695312e-01 -2.136237859725952148e+00 1.026561141014099121e+00 -7.681005597114562988e-01 1.670910000801086426e+00 -1.356148838996887207e+00 2.043683528900146484e-01 -8.529978990554809570e-02 1.064337790012359619e-01 -2.496455013751983643e-01 5.373846888542175293e-01 2.174981385469436646e-01 3.405736088752746582e-01 7.907215505838394165e-02 2.331448346376419067e-01 9.659914374351501465e-01 1.933490931987762451e-01 -6.248518824577331543e-01 -2.239115387201309204e-01 -4.189210012555122375e-02 -7.373745441436767578e-01 3.698314130306243896e-01 -5.390956401824951172e-01 -1.582184195518493652e+00 -7.600548267364501953e-01 -4.337311387062072754e-01 -5.631879568099975586e-01 5.116385221481323242e-01 1.828280836343765259e-01 -4.173606038093566895e-01 -1.177849054336547852e+00 7.684052586555480957e-01 -1.684140563011169434e-01 1.910876482725143433e-01 8.585022687911987305e-01 -1.122998356819152832e+00 4.088518619537353516e-01 6.454587578773498535e-01 -1.050133481621742249e-01 -4.533388614654541016e-01 1.227427124977111816e+00 -1.267615854740142822e-01 -1.695701032876968384e-01 -1.175495624542236328e+00 5.671469569206237793e-01 1.515536308288574219e-01 6.801379323005676270e-01 -4.273364245891571045e-01 -2.251558303833007812e-01 -4.231328964233398438e-01 -4.155325889587402344e-01 1.299101352691650391e+00 -3.899706900119781494e-01 6.190419793128967285e-01 2.041145712137222290e-01 -2.307457476854324341e-01 -6.259373575448989868e-02 4.724477827548980713e-01 -1.415693163871765137e-01 2.543586194515228271e-01 -2.232060730457305908e-01 -1.903184205293655396e-01 -6.306720525026321411e-02 7.565310597419738770e-01 -8.897049427032470703e-01 6.105485558509826660e-01 -7.405896186828613281e-01 7.318900227546691895e-01 7.840196788311004639e-02 -7.431026101112365723e-01 -3.857002258300781250e-01 -2.076836824417114258e-01 2.637729942798614502e-01 -1.189554855227470398e-01 -4.856673777103424072e-01 2.826051115989685059e-01 5.880863070487976074e-01 -1.121112108230590820e+00 -1.108475700020790100e-01 -1.193889617919921875e+00 -2.964705228805541992e-01 -1.599541306495666504e-01 1.503027882426977158e-02 7.246171832084655762e-01 -2.851040661334991455e-01 5.513332486152648926e-01 3.664481043815612793e-01 2.978288531303405762e-01 -1.055540919303894043e+00 -2.099104970693588257e-01 2.471425086259841919e-01 -9.980431795120239258e-01 2.051952332258224487e-01 6.834753751754760742e-01 -6.394760012626647949e-01 6.815403103828430176e-01 -3.558829799294471741e-02 -2.181063741445541382e-01 -9.963401556015014648e-01 3.616591989994049072e-01 1.257181644439697266e+00 -3.936966359615325928e-01 3.705910444259643555e-01 3.705427050590515137e-01 4.588679969310760498e-01 1.753873229026794434e-01 -5.179347991943359375e-01 -1.679623246192932129e+00 -5.603485107421875000e-01 -1.305038332939147949e+00 2.331325411796569824e-01 -4.279725849628448486e-01 5.284516811370849609e-01 -2.824364602565765381e-01 1.054255604743957520e+00 -9.698004722595214844e-01 9.479461312294006348e-01 1.821633726358413696e-01 1.358417123556137085e-01 5.389643311500549316e-01 6.419389247894287109e-01 -5.719417706131935120e-02 -3.055548965930938721e-01 -1.194334179162979126e-01 2.347241640090942383e-01 -6.252156198024749756e-02 8.479337692260742188e-01 1.358554959297180176e+00 1.899123638868331909e-01 -4.014621376991271973e-01 4.363845288753509521e-01 -1.521600484848022461e+00 -8.769114613533020020e-01 -1.194652915000915527e+00 4.174668192863464355e-01 -7.499207556247711182e-02 1.040882110595703125e+00 -1.679344296455383301e+00 9.762170165777206421e-02 -4.835498332977294922e-01 -5.129149556159973145e-01 2.540801763534545898e-01 9.993901252746582031e-01 -5.264915227890014648e-01 -1.444594383239746094e+00 8.570973277091979980e-01 -1.096315026283264160e+00 1.062692403793334961e+00 -5.771143436431884766e-01 -1.693210601806640625e+00 -2.240466624498367310e-01 -1.216803789138793945e+00 -5.654104948043823242e-01 -3.350882828235626221e-01 -5.088786780834197998e-02 9.008176922798156738e-01 -3.029142618179321289e-01 4.577903449535369873e-01 -7.229836285114288330e-02 -1.671636849641799927e-01 -3.461489081382751465e-01 -9.583902955055236816e-01 3.334037363529205322e-01 3.877119719982147217e-01 4.952677488327026367e-01 -9.931865334510803223e-01 1.903371214866638184e-01 -6.335125565528869629e-01 2.737865597009658813e-02 -1.195919632911682129e+00 1.606267839670181274e-01 7.520461082458496094e-01 5.720437765121459961e-01 1.177475929260253906e+00 6.427283287048339844e-01 -4.366120994091033936e-01 2.934170700609683990e-02 -2.815698981285095215e-01 2.467382699251174927e-01 1.092339158058166504e+00 -3.079783022403717041e-01 -8.538339138031005859e-01 -7.399416714906692505e-02 -1.734745264053344727e+00 1.279620826244354248e-01 8.190420269966125488e-01 9.782108068466186523e-01 -2.450843304395675659e-01 8.799218535423278809e-01 7.722563147544860840e-01 4.993595480918884277e-01 1.158192276954650879e+00 1.440536618232727051e+00 -2.120458930730819702e-01 7.376130819320678711e-01 -1.166747927665710449e+00 4.968059062957763672e-01 -8.680117130279541016e-01 1.176812648773193359e+00 -5.753509402275085449e-01 1.885351538658142090e-01 -1.987798064947128296e-01 -3.907867670059204102e-01 -3.132514655590057373e-01 -2.700752913951873779e-01 -1.335448384284973145e+00 1.169577479362487793e+00 -1.991397291421890259e-01 5.915225148200988770e-01 1.443491578102111816e-01 2.009081542491912842e-01 1.562063843011856079e-01 7.133304476737976074e-01 -1.664971113204956055e-01 -9.203007817268371582e-01 -8.351541757583618164e-01 2.295657843351364136e-01 -5.968682765960693359e-01 3.460594713687896729e-01 -1.364893913269042969e-01 8.241031169891357422e-01 5.737907886505126953e-01 9.405093789100646973e-01 7.234911620616912842e-02 -1.102567091584205627e-01 2.875426709651947021e-01 4.599964916706085205e-01 -6.197436451911926270e-01 -9.490963071584701538e-02 -1.877236962318420410e-01 -1.165686473250389099e-01 1.717152446508407593e-01 -4.375784993171691895e-01 7.971129417419433594e-01 9.493944793939590454e-02 -1.446473956108093262e+00 -1.513749510049819946e-01 4.866263270378112793e-01 1.034594535827636719e+00 -8.045203685760498047e-01 1.351341366767883301e+00 -5.318643450736999512e-01 5.824049115180969238e-01 -7.693019509315490723e-01 -5.360586196184158325e-02 -1.071728348731994629e+00 4.011809527873992920e-01 2.228408753871917725e-01 8.699363470077514648e-01 -4.373519420623779297e-01 -1.256593942642211914e+00 8.990558236837387085e-02 -5.589279532432556152e-01 -8.849545121192932129e-01 -3.177760839462280273e-01 4.596678167581558228e-02 -5.334817171096801758e-01 -9.085705876350402832e-01 4.292651116847991943e-01 -6.406869888305664062e-01 1.776428669691085815e-01 8.325147628784179688e-01 -5.910489559173583984e-01 -6.627761125564575195e-01 -3.064721822738647461e-01 -1.258696764707565308e-01 -6.389830708503723145e-01 8.249041438102722168e-01 -7.624955177307128906e-01 -2.214728891849517822e-01 -5.055987834930419922e-01 -8.178147077560424805e-01 -1.197196960449218750e+00 4.329812526702880859e-01 -2.119769334793090820e+00 -1.019334316253662109e+00 -3.060739301145076752e-02 1.138847231864929199e+00 9.502228498458862305e-01 -4.466939270496368408e-01 -1.218196824193000793e-01 7.128810882568359375e-01 3.415795564651489258e-01 1.133260846138000488e+00 -1.095280721783638000e-01 2.947411537170410156e-01 5.037447810173034668e-01 2.476984076201915741e-02 7.493686676025390625e-02 8.406711816787719727e-01 4.651505053043365479e-01 -4.134540557861328125e-01 1.720006316900253296e-01 -1.394637465476989746e+00 -7.221667170524597168e-01 2.361951023340225220e-01 -2.068209946155548096e-01 3.095602691173553467e-01 1.183859944343566895e+00 6.397989392280578613e-01 -6.967332959175109863e-02 -2.429082691669464111e-01 6.663931608200073242e-01 -5.750164389610290527e-01 1.494707465171813965e-01 -1.519046872854232788e-01 6.643222570419311523e-01 -1.613465428352355957e+00 2.847371995449066162e-01 6.459648013114929199e-01 -5.050757527351379395e-01 2.233544886112213135e-01 5.367612093687057495e-02 -2.480939961969852448e-02 -5.869154334068298340e-01 -2.345034927129745483e-01 -1.920079886913299561e-01 1.244320154190063477e+00 9.172701239585876465e-01 1.100041747093200684e+00 1.841162741184234619e-01 1.941156834363937378e-01 -1.698785871267318726e-01 3.242316544055938721e-01 -2.088755071163177490e-01 7.887857556343078613e-01 6.966172456741333008e-01 -6.077176332473754883e-01 2.132994979619979858e-01 -1.702429652214050293e-01 6.178126335144042969e-01 3.871674537658691406e-01 2.861052751541137695e-01 -1.471981287002563477e+00 9.032680094242095947e-02 -1.496883869171142578e+00 1.675658822059631348e+00 5.356945991516113281e-01 4.235923886299133301e-01 -7.268527746200561523e-01 1.274649202823638916e-01 1.160336613655090332e+00 1.190814673900604248e-01 -7.443002462387084961e-01 -7.060757875442504883e-01 3.000771701335906982e-01 -6.259521096944808960e-02 8.750229328870773315e-02 -3.895016154274344444e-03 6.092895269393920898e-01 5.690701603889465332e-01 -6.951563060283660889e-02 -4.348575174808502197e-01 6.452814340591430664e-01 -7.663549482822418213e-02 9.508549571037292480e-01 -1.613143205642700195e+00 5.332503318786621094e-01 1.092495679855346680e+00 -1.039170548319816589e-01 -1.068869948387145996e+00 -2.680410146713256836e-01 -7.644810527563095093e-02 3.060526847839355469e-01 -4.834741353988647461e-01 -3.311037719249725342e-01 3.462739884853363037e-01 1.722359776496887207e+00 1.719937920570373535e-01 2.733302675187587738e-02 6.143107414245605469e-01 6.861336827278137207e-01 -2.517206072807312012e-01 7.942044734954833984e-01 -1.706906437873840332e+00 -6.758050322532653809e-01 6.656658649444580078e-01 -9.109449982643127441e-01 -2.247149944305419922e-01 -1.134125441312789917e-01 -6.218095421791076660e-01 4.964568912982940674e-01 -1.246171712875366211e+00 4.812805056571960449e-01 5.975291132926940918e-01 -1.601512312889099121e+00 1.961744546890258789e+00 -2.587333321571350098e-01 1.279256939888000488e+00 -5.538335442543029785e-02 -2.821229770779609680e-02 1.026706576347351074e+00 1.367301046848297119e-01 -8.802919387817382812e-01 4.654334485530853271e-01 -2.218299210071563721e-01 1.508827924728393555e+00 -4.981399774551391602e-01 -2.945038080215454102e-01 8.226884901523590088e-02 4.842886626720428467e-01 -9.212960600852966309e-01 -9.503462910652160645e-02 -1.626515835523605347e-01 -4.296438395977020264e-02 7.459002137184143066e-01 2.116789370775222778e-01 -1.502571851015090942e-01 -1.915419548749923706e-01 6.773860454559326172e-01 9.602770209312438965e-01 -4.816929399967193604e-01 -2.744305729866027832e-01 -5.773343443870544434e-01 6.388200521469116211e-01 1.511925905942916870e-01 -2.562426030635833740e-01 -5.019800662994384766e-01 -4.701521396636962891e-01 9.602464437484741211e-01 -2.232784479856491089e-01 -9.416221976280212402e-01 3.623466938734054565e-02 -9.653837084770202637e-01 3.309379816055297852e-01 5.189476609230041504e-01 -7.808294892311096191e-02 -2.637614011764526367e-01 -9.141901731491088867e-01 3.766702413558959961e-01 2.380463033914566040e-01 -5.879981070756912231e-02 7.982882261276245117e-01 -1.227702856063842773e+00 1.178573250770568848e+00 -3.252074122428894043e-02 5.788539052009582520e-01 7.188165783882141113e-01 1.255391001701354980e+00 2.040999531745910645e-01 
1.048291444778442383e+00 1.200599074363708496e+00 1.574097633361816406e+00 1.089646100997924805e+00 1.445802003145217896e-01 1.660052657127380371e+00 1.366979360580444336e+00 2.007861137390136719e+00 1.602709650993347168e+00 1.421631455421447754e+00 
-3.203927353024482727e-02 -1.895693391561508179e-01 -3.684012293815612793e-01 4.241384565830230713e-01 3.503858149051666260e-01 -5.044808387756347656e-01 -4.652267694473266602e-01 -7.937370538711547852e-01 -3.976590931415557861e-01 -2.815777361392974854e-01 
-1.746561408042907715e+00 1.335987448692321777e-01 -1.997958570718765259e-01 8.127498030662536621e-01 -8.571636676788330078e-01 -9.892178773880004883e-01 -2.557841062545776367e+00 -1.068163037300109863e+00 -1.359839558601379395e+00 -4.127633273601531982e-01 
4.401847457885742188e+01 2.906668281555175781e+01 3.154641914367675781e+01 2.831568336486816406e+01 2.956343841552734375e+01 3.732874679565429688e+01 2.614820098876953125e+01 2.787865066528320312e+01 2.955186271667480469e+01 3.793380355834960938e+01 
6.656510233879089355e-01 -3.909212946891784668e-01 -1.385213017463684082e+00 -4.813308715820312500e-01 5.113033056259155273e-01 -2.804174721240997314e-01 -6.338580250740051270e-01 -4.882373213768005371e-01 1.102300286293029785e+00 1.343475222587585449e+00 -4.496757984161376953e-01 2.752207815647125244e-01 -1.675486713647842407e-01 -5.218014717102050781e-01 -1.355980038642883301e-01 -8.332441449165344238e-01 -5.001677870750427246e-01 -9.019671082496643066e-01 1.487336456775665283e-01 5.820711851119995117e-01 1.057307600975036621e+00 1.113104820251464844e-01 3.711440563201904297e-01 -5.720502734184265137e-01 -1.309576153755187988e+00 -2.867868244647979736e-01 6.859517842531204224e-02 -4.586826860904693604e-01 -7.839644700288772583e-02 1.028335928916931152e+00 1.037214398384094238e-01 -5.134445428848266602e-01 -2.629067301750183105e-01 -1.096577167510986328e+00 -1.046170353889465332e+00 3.519285917282104492e-01 -1.962379813194274902e-01 -1.459456514567136765e-02 -3.104451298713684082e-01 2.685559988021850586e-01 3.844178617000579834e-01 7.032665610313415527e-02 -6.130616664886474609e-01 9.301795363426208496e-01 8.244605660438537598e-01 1.320015937089920044e-01 1.560163795948028564e-01 6.465475559234619141e-01 -1.206490039825439453e+00 -6.802279949188232422e-01 1.451905369758605957e+00 1.401230573654174805e+00 1.738050818443298340e+00 1.246409341692924500e-01 1.547845751047134399e-01 6.111631989479064941e-01 2.491417527198791504e-01 -8.877325654029846191e-01 -5.542359948158264160e-01 1.287925541400909424e-01 5.081113055348396301e-02 -7.082136273384094238e-01 -9.686452150344848633e-01 -5.036259293556213379e-01 4.490287229418754578e-02 -1.639392375946044922e+00 3.575063943862915039e-01 1.778195053339004517e-01 -3.279248997569084167e-02 1.707191586494445801e+00 -9.027684330940246582e-01 -9.405701756477355957e-01 -7.667767405509948730e-01 -1.278744697570800781e+00 1.289883553981781006e-01 5.281903743743896484e-01 -1.955462247133255005e-02 -4.123755097389221191e-01 4.692509770393371582e-01 -5.223922729492187500e-01 -1.009703159332275391e+00 -3.166811764240264893e-01 -3.943312764167785645e-01 6.228263974189758301e-01 3.943482935428619385e-01 -4.189639687538146973e-01 9.842590689659118652e-01 1.056906700134277344e+00 7.051971554756164551e-02 -8.497969508171081543e-01 1.152908056974411011e-01 -1.071020722389221191e+00 -4.887465238571166992e-01 -1.996277421712875366e-01 -9.020730257034301758e-01 -5.772835761308670044e-02 -8.703576326370239258e-01 -8.246706128120422363e-01 -8.827548623085021973e-01 1.572378724813461304e-01 5.472807288169860840e-01 -4.975082576274871826e-01 -2.825628221035003662e-01 -3.607431352138519287e-01 -1.346363425254821777e+00 -1.329279065132141113e+00 3.107169270515441895e-01 1.032201766967773438e+00 -1.055685162544250488e+00 -1.168424263596534729e-01 4.701150059700012207e-01 1.692465424537658691e+00 -3.824949637055397034e-02 -3.610838577151298523e-02 4.872934818267822266e-01 -2.805910110473632812e-01 2.493491321802139282e-01 8.175621032714843750e-01 -1.641345322132110596e-01 -2.262030988931655884e-01 1.216648936271667480e+00 -2.519106268882751465e-01 -3.902412019670009613e-03 -4.702110886573791504e-01 6.838230788707733154e-02 -5.529436469078063965e-01 -2.243450582027435303e-01 8.449719548225402832e-01 8.852245807647705078e-01 -8.974457383155822754e-01 3.062966167926788330e-01 -7.621123790740966797e-01 1.027554869651794434e+00 2.535911202430725098e-01 3.048328757286071777e-01 -1.181029081344604492e+00 6.225769519805908203e-01 -3.755118548870086670e-01 -4.856856465339660645e-01 7.258098125457763672e-01 -1.056508421897888184e+00 -6.187493801116943359e-01 8.109619021415710449e-01 7.108977437019348145e-02 -1.138503551483154297e+00 2.334048748016357422e-01 -5.477154850959777832e-01 -6.731141209602355957e-01 8.492508530616760254e-01 -9.058851599693298340e-01 -1.139066338539123535e+00 -6.905867457389831543e-01 -9.333130121231079102e-01 7.092393636703491211e-01 6.328459084033966064e-02 -1.811323165893554688e-01 8.681530356407165527e-01 5.651082992553710938e-01 3.629724495112895966e-03 9.830048680305480957e-01 -3.455281853675842285e-01 3.229691088199615479e-01 3.356736898422241211e-01 4.150250256061553955e-01 -1.067412123084068298e-01 -2.284414321184158325e-01 -8.614803552627563477e-01 -4.075682461261749268e-01 4.237729907035827637e-01 -1.016286849975585938e+00 -3.149539232254028320e-01 -3.335508704185485840e-01 4.320556521415710449e-01 -1.780317164957523346e-02 -3.579151332378387451e-01 1.075787782669067383e+00 1.671326398849487305e+00 -4.607186913490295410e-01 4.828054606914520264e-01 -7.012316584587097168e-01 -2.631189525127410889e-01 -1.436835885047912598e+00 3.627044335007667542e-02 -1.129767820239067078e-01 -7.521914243698120117e-01 1.430892229080200195e+00 2.304675281047821045e-01 -5.806289911270141602e-01 -9.704162180423736572e-02 6.621408462524414062e-01 -1.620686650276184082e-01 -6.710669994354248047e-01 4.464022815227508545e-01 -5.844991803169250488e-01 3.470302820205688477e-01 -8.412119150161743164e-01 1.020472273230552673e-01 -5.457177162170410156e-01 -1.614715605974197388e-01 9.603028297424316406e-01 6.306074857711791992e-01 4.337965846061706543e-01 1.791514642536640167e-02 -7.641186565160751343e-02 -1.243045449256896973e+00 1.120314598083496094e+00 3.547336161136627197e-01 7.925318479537963867e-01 -7.449836730957031250e-01 -1.029348254203796387e+00 -8.003187179565429688e-01 3.981741666793823242e-01 -6.428017020225524902e-01 -5.978706479072570801e-01 1.560951471328735352e-01 -2.733993530273437500e-01 -2.227362692356109619e-01 -9.256976842880249023e-01 -6.668502092361450195e-01 -2.265527546405792236e-01 -1.124431937932968140e-01 -3.703934252262115479e-01 -1.841048598289489746e-01 4.805660247802734375e-01 2.963477969169616699e-01 -1.202265620231628418e+00 1.303790330886840820e+00 -1.623686790466308594e+00 -2.771078646183013916e-01 -2.537400722503662109e-01 -5.505554080009460449e-01 1.144703626632690430e+00 -2.637389302253723145e-01 3.393740355968475342e-01 -1.145048975944519043e+00 1.651338338851928711e-01 -3.646264672279357910e-01 -6.333783268928527832e-01 -3.529728055000305176e-01 6.507431268692016602e-01 -1.664203643798828125e+00 -5.535290837287902832e-01 3.619957342743873596e-02 2.419139146804809570e-01 5.962601304054260254e-01 -1.322928428649902344e+00 -1.288418531417846680e+00 -1.440154165029525757e-01 -8.379349708557128906e-01 1.618011474609375000e+00 -2.348100095987319946e-01 1.662817716598510742e+00 2.483834177255630493e-01 1.671495102345943451e-02 2.828820347785949707e-01 -1.035432934761047363e+00 2.946073114871978760e-01 -7.638463973999023438e-01 -2.713152468204498291e-01 -4.465432763099670410e-01 -7.971975803375244141e-01 -6.150449812412261963e-02 1.840785145759582520e-01 1.344843268394470215e+00 5.343155264854431152e-01 4.573458805680274963e-03 -4.402717575430870056e-02 8.139519393444061279e-02 1.239651799201965332e+00 3.556528091430664062e-01 -5.075389742851257324e-01 1.514962911605834961e+00 -6.581159830093383789e-01 8.571630716323852539e-01 -5.586482882499694824e-01 -3.731342032551765442e-02 7.515860199928283691e-01 -6.190233677625656128e-02 3.602555692195892334e-01 5.224583148956298828e-01 -2.477655559778213501e-01 -1.680306196212768555e-01 -5.756624341011047363e-01 -1.983239650726318359e-01 -4.532818496227264404e-01 7.911944389343261719e-01 5.139102339744567871e-01 -4.231245815753936768e-02 7.126392722129821777e-01 -2.807738482952117920e-01 -6.630679219961166382e-02 -4.962874054908752441e-01 2.212911993265151978e-01 5.903123021125793457e-01 5.903217196464538574e-01 -1.589399814605712891e+00 1.463592767715454102e+00 3.717076778411865234e-01 -1.442260384559631348e+00 8.981361985206604004e-01 1.227425932884216309e+00 3.223910927772521973e-01 3.981789350509643555e-01 5.106636881828308105e-02 -1.018237471580505371e+00 -8.528913855552673340e-01 -2.723023891448974609e-01 1.773342788219451904e-01 1.468226909637451172e-01 -2.647275626659393311e-01 -2.464503347873687744e-01 -8.986394405364990234e-01 2.909970581531524658e-01 1.271666884422302246e-01 8.078677952289581299e-02 -1.023205637931823730e+00 2.950603887438774109e-02 7.805403470993041992e-01 -2.692434489727020264e-01 2.904860973358154297e-01 1.737069129943847656e+00 1.533481359481811523e+00 -4.470270574092864990e-01 -5.236979126930236816e-01 -3.266553953289985657e-02 -6.950450539588928223e-01 2.733657360076904297e-01 5.665922164916992188e-01 -1.021461784839630127e-01 -1.363831572234630585e-02 -1.289006352424621582e+00 -5.160778760910034180e-01 -3.604207336902618408e-01 -5.461945012211799622e-02 -1.415012955665588379e+00 -1.604237221181392670e-02 9.755564481019973755e-02 -1.174623444676399231e-01 -9.591869115829467773e-01 -1.252531528472900391e+00 -9.510970115661621094e-02 1.589064359664916992e+00 -6.281888484954833984e-01 4.808347225189208984e-01 6.297320127487182617e-01 3.952805995941162109e-01 -1.531004309654235840e+00 8.568128943443298340e-02 4.172825813293457031e-01 6.839788556098937988e-01 8.620490431785583496e-01 -7.501992583274841309e-01 -4.762136042118072510e-01 5.879024863243103027e-01 9.148798137903213501e-02 -1.823684424161911011e-01 4.110955595970153809e-01 -1.794150173664093018e-01 1.128359794616699219e+00 9.929707646369934082e-02 -4.898321628570556641e-01 -6.180269718170166016e-01 -2.807763218879699707e-01 -6.026943325996398926e-01 1.118529915809631348e+00 -2.865495383739471436e-01 3.088388741016387939e-01 -6.440153121948242188e-01 5.220462679862976074e-01 1.884134411811828613e-01 -1.764052748680114746e+00 1.025003381073474884e-02 -1.404248952865600586e+00 -9.433697164058685303e-02 -2.437428943812847137e-02 -1.264071583747863770e+00 2.127785086631774902e-01 1.201477870345115662e-01 1.602860331535339355e+00 -8.265824913978576660e-01 -5.133788585662841797e-01 3.170685768127441406e-01 -1.193712353706359863e-01 4.873126745223999023e-02 -2.474411875009536743e-01 -6.048767566680908203e-01 -1.467901229858398438e+00 -1.480762839317321777e+00 2.671993076801300049e-01 7.043633460998535156e-01 -3.236154019832611084e-01 -4.730315804481506348e-01 -4.624068140983581543e-01 -8.122223615646362305e-01 2.580443583428859711e-02 -7.198067307472229004e-01 -5.288428068161010742e-01 -3.016128242015838623e-01 6.392253637313842773e-01 -5.756355449557304382e-02 4.252564013004302979e-01 7.908619046211242676e-01 -1.797744631767272949e-02 -1.904067397117614746e-01 -1.171834319829940796e-01 -9.629921913146972656e-01 3.900030255317687988e-01 6.212365031242370605e-01 8.901783227920532227e-01 -4.936056956648826599e-02 2.529001533985137939e-01 -5.120797753334045410e-01 -1.386322230100631714e-01 7.324852347373962402e-01 -8.244145512580871582e-01 -4.068897068500518799e-01 -7.346143126487731934e-01 1.887026280164718628e-01 4.153174459934234619e-01 8.191520571708679199e-01 -4.128882288932800293e-01 -6.098600104451179504e-02 1.316184163093566895e+00 -2.768702208995819092e-01 -5.586630478501319885e-02 -2.216172933578491211e+00 6.983024477958679199e-01 -2.586651742458343506e-01 1.064369678497314453e+00 -1.148596763610839844e+00 1.056541442871093750e+00 -2.275843918323516846e-01 -9.244054555892944336e-01 -6.867654323577880859e-01 1.146724596619606018e-01 4.824315309524536133e-01 -6.530357003211975098e-01 7.219912409782409668e-01 5.804419517517089844e-01 -1.138718843460083008e+00 -1.509168386459350586e+00 -8.997616171836853027e-01 1.589991599321365356e-01 4.097307324409484863e-01 7.653572410345077515e-02 2.396139502525329590e-01 5.759668350219726562e-01 7.285288572311401367e-01 1.368794202804565430e+00 3.103729486465454102e-01 -2.347670942544937134e-01 1.681976467370986938e-01 -6.466957926750183105e-01 2.488662898540496826e-01 8.265970945358276367e-01 -2.488573044538497925e-01 9.423095583915710449e-01 6.083615124225616455e-02 4.236857891082763672e-01 5.291520357131958008e-01 -4.580274522304534912e-01 1.175050884485244751e-01 1.304332256317138672e+00 -3.162114620208740234e-01 -1.343224197626113892e-01 1.220850229263305664e+00 1.262756995856761932e-03 6.228502392768859863e-01 -4.858977198600769043e-01 1.013594269752502441e-01 7.143458724021911621e-02 4.973016083240509033e-01 -1.254019975662231445e+00 1.750560522079467773e+00 5.180979967117309570e-01 -7.073819637298583984e-01 -2.868354916572570801e-01 -1.271092653274536133e+00 -1.624151468276977539e+00 3.938025236129760742e-01 1.588375449180603027e+00 3.894068896770477295e-01 2.534657120704650879e-01 -2.956470847129821777e-01 -2.577978372573852539e-01 1.743621081113815308e-01 -1.002149134874343872e-01 5.691961646080017090e-01 1.261141151189804077e-02 -1.540208756923675537e-01 3.960390388965606689e-01 -8.742563128471374512e-01 -4.625064432621002197e-01 7.172779440879821777e-01 4.181753098964691162e-02 6.433858275413513184e-01 -2.243618108332157135e-02 4.573811888694763184e-01 -7.319041490554809570e-01 1.085823059082031250e+00 7.655004858970642090e-01 -7.818208336830139160e-01 4.445122089236974716e-03 -2.001715421676635742e+00 -2.151394486427307129e-01 -4.056740701198577881e-01 -4.425792992115020752e-01 7.166953682899475098e-01 4.047862589359283447e-01 2.111581563949584961e-01 -7.245911359786987305e-01 1.582298159599304199e+00 5.152693390846252441e-01 7.723730802536010742e-02 1.598954796791076660e-01 -4.073236882686614990e-01 -6.874952316284179688e-01 -1.997012048959732056e-01 8.677293062210083008e-01 -1.428004026412963867e+00 4.155521988868713379e-01 -7.217025756835937500e-01 -3.382411897182464600e-01 2.845483422279357910e-01 1.042603731155395508e+00 -6.023402810096740723e-01 8.063110709190368652e-02 1.135795950889587402e+00 -1.935627758502960205e-01 -2.478714138269424438e-01 2.458087950944900513e-01 -1.036472544074058533e-01 -8.604449033737182617e-01 3.885600566864013672e-01 -2.957255840301513672e-01 2.828874997794628143e-02 -1.069848179817199707e+00 5.304025411605834961e-01 -5.132240653038024902e-01 -4.638548791408538818e-01 -2.654378302395343781e-02 5.697055459022521973e-01 -3.092983067035675049e-01 1.124740839004516602e+00 4.998821020126342773e-01 -4.216437637805938721e-01 9.226726740598678589e-02 3.985866606235504150e-01 -1.416597604751586914e+00 -5.486763119697570801e-01 4.294821321964263916e-01 -1.098523855209350586e+00 3.661952018737792969e-01 6.733453832566738129e-03 1.157135590910911560e-01 4.464184120297431946e-02 2.519730925559997559e-01 -4.386179745197296143e-01 -3.776359856128692627e-01 2.943743253126740456e-03 1.736345589160919189e-01 -6.323743462562561035e-01 -1.317727923393249512e+00 -1.509456276893615723e+00 1.195090770721435547e+00 1.444398641586303711e+00 -2.043327093124389648e-01 8.157080411911010742e-02 4.630594700574874878e-02 -6.962438225746154785e-01 -9.406822323799133301e-01 1.424649506807327271e-01 6.663812398910522461e-01 -2.750845551490783691e-01 -1.351789951324462891e+00 -1.398524403572082520e+00 -7.354885339736938477e-01 -1.111720085144042969e+00 6.837950348854064941e-01 -2.354589700698852539e-01 4.923181831836700439e-01 -1.160378530621528625e-01 5.087008476257324219e-01 2.609094381332397461e-01 7.454184889793395996e-01 6.056084036827087402e-01 -3.960698246955871582e-01 -1.352637171745300293e+00 3.773522078990936279e-01 1.312134623527526855e+00 -2.544782496988773346e-02 7.615718841552734375e-01 7.825186252593994141e-01 2.392808645963668823e-01 -8.051393032073974609e-01 -7.645814120769500732e-02 2.201386541128158569e-01 1.412298232316970825e-01 5.804489254951477051e-01 -4.318677186965942383e-01 -8.295589685440063477e-01 5.195346847176551819e-02 -1.231721282005310059e+00 -1.232479691505432129e+00 3.673754632472991943e-01 8.376007676124572754e-01 -4.580430090427398682e-01 -1.613634675741195679e-01 -3.307535871863365173e-02 7.790130972862243652e-01 4.572195708751678467e-01 -7.894074916839599609e-01 -1.336075544357299805e+00 -2.460134774446487427e-01 1.115424275398254395e+00 9.945545196533203125e-01 -1.822596788406372070e-01 -5.453522205352783203e-01 -6.704467535018920898e-01 -4.331544041633605957e-01 -5.795819163322448730e-01 7.293552160263061523e-01 -1.885228008031845093e-01 -3.564576208591461182e-01 8.468316197395324707e-01 -1.041400909423828125e+00 1.674671888351440430e+00 -4.029736220836639404e-01 -8.151379972696304321e-02 2.660582363605499268e-01 -6.334763765335083008e-01 -6.482074260711669922e-01 7.479193806648254395e-01 2.727141380310058594e-01 6.027634143829345703e-01 -1.521460533142089844e+00 -2.090215384960174561e-01 5.450978875160217285e-01 2.588005661964416504e-01 -7.870440483093261719e-01 -2.509041130542755127e-01 4.330365657806396484e-01 9.580832719802856445e-01 -1.176362633705139160e+00 5.683692693710327148e-01 -1.948825001716613770e+00 -5.212458372116088867e-01 -1.604480743408203125e-01 -2.064670175313949585e-01 -2.945244014263153076e-01 -4.221481084823608398e-01 5.749310851097106934e-01 1.771176308393478394e-01 -1.424337744712829590e+00 -1.703294813632965088e-01 -7.716941237449645996e-01 -1.225742697715759277e-01 8.371716737747192383e-01 -1.160972476005554199e+00 5.029901266098022461e-01 -1.598068773746490479e-01 -5.941491723060607910e-01 6.955106258392333984e-01 8.610126562416553497e-03 1.271265625953674316e+00 -9.406081438064575195e-01 4.443270564079284668e-01 -2.468088120222091675e-01 -2.556143105030059814e-01 6.007148027420043945e-01 2.444711476564407349e-01 5.406780242919921875e-01 1.731631159782409668e-01 -4.075637459754943848e-01 -2.928386926651000977e-01 8.808375597000122070e-01 -4.544375240802764893e-01 -9.253968596458435059e-01 1.328164100646972656e+00 5.518320798873901367e-01 4.411177039146423340e-01 -5.490850210189819336e-01 -7.093633413314819336e-01 2.456314265727996826e-01 -2.215157508850097656e+00 1.481544017791748047e+00 -8.439217805862426758e-01 -4.651766419410705566e-01 -4.591130614280700684e-01 -6.877694129943847656e-01 -6.061382889747619629e-01 3.066071867942810059e-01 6.465219259262084961e-01 -7.043370604515075684e-01 -4.723587036132812500e-01 9.540523886680603027e-01 -2.335347682237625122e-01 6.194074153900146484e-01 -6.175414919853210449e-01 -1.147194206714630127e-01 4.406228661537170410e-02 6.625884175300598145e-01 -8.947334885597229004e-01 8.012287020683288574e-01 -2.249232083559036255e-01 -3.541414141654968262e-01 1.318300247192382812e+00 5.686801075935363770e-01 -9.743953943252563477e-01 -8.629458397626876831e-02 3.210656046867370605e-01 -4.268324077129364014e-01 3.869554698467254639e-01 -5.300102233886718750e-01 1.638055741786956787e-01 3.696020543575286865e-01 -5.561802163720130920e-02 -4.487129151821136475e-01 1.000193953514099121e+00 -6.652549654245376587e-02 -5.057846307754516602e-01 -2.025845944881439209e-01 -8.368185758590698242e-01 -3.293584287166595459e-01 -9.416181594133377075e-03 -2.770720720291137695e-01 -3.097031116485595703e-01 -2.286970853805541992e+00 -1.120624423027038574e+00 -2.098886668682098389e-01 -3.982844650745391846e-01 1.452372789382934570e+00 8.133144974708557129e-01 -1.021766215562820435e-01 3.613268733024597168e-01 1.573576688766479492e+00 -3.244142532348632812e-01 -1.167052388191223145e+00 -7.960966825485229492e-01 -7.967490553855895996e-01 3.494621515274047852e-01 5.527762174606323242e-01 -6.412935853004455566e-01 -4.379116296768188477e-01 9.579470157623291016e-01 3.533893227577209473e-01 -2.035928517580032349e-01 -4.131722152233123779e-01 -4.960725456476211548e-02 -3.500007390975952148e-01 5.870413500815629959e-03 6.483858823776245117e-01 -1.526610404253005981e-01 -2.129466980695724487e-01 -2.093117535114288330e-01 2.118249982595443726e-01 -6.492770910263061523e-01 -6.027975678443908691e-01 3.860255479812622070e-01 -3.056451678276062012e-01 -3.320150822401046753e-02 -6.415917277336120605e-01 4.723526164889335632e-02 -7.608792781829833984e-01 -4.550263285636901855e-01 -1.165370106697082520e+00 -3.433235287666320801e-01 6.043386459350585938e-01 -1.409291505813598633e+00 4.985941946506500244e-01 -2.737088501453399658e-01 3.479650318622589111e-01 -9.281796813011169434e-01 4.961529374122619629e-01 -2.871854007244110107e-01 -1.193542957305908203e+00 -8.703317046165466309e-01 1.726527139544487000e-02 -4.980102777481079102e-01 -5.603668093681335449e-01 -3.437172174453735352e-01 1.925208419561386108e-01 -2.179758846759796143e-01 -3.563738167285919189e-01 -2.125369012355804443e-01 -1.700531601905822754e+00 3.821445703506469727e-01 -2.801366150379180908e-01 -5.928841233253479004e-01 -6.984606385231018066e-01 3.491317927837371826e-01 -9.112433344125747681e-02 1.802521824836730957e+00 -1.559656143188476562e+00 -1.768695414066314697e-01 8.049759268760681152e-01 -4.950758218765258789e-01 4.930812120437622070e-01 -6.028254032135009766e-01 1.252704501152038574e+00 2.536415457725524902e-01 -5.162891149520874023e-01 5.421428680419921875e-01 -6.276168823242187500e-01 -1.438376069068908691e+00 -1.051119491457939148e-01 -3.783849999308586121e-02 9.175449609756469727e-01 6.553587317466735840e-01 -1.283805847167968750e+00 -4.516320526599884033e-01 -5.959564447402954102e-01 -1.390738010406494141e+00 -7.546772956848144531e-01 3.758354187011718750e-01 3.175490796566009521e-01 -5.968556273728609085e-03 -3.013004921376705170e-02 5.855325460433959961e-01 -2.353620827198028564e-01 -4.127033352851867676e-01 -2.103550434112548828e-01 -2.287714630365371704e-01 -2.106882259249687195e-02 1.288590788841247559e+00 5.693361163139343262e-01 1.104895710945129395e+00 -1.467308849096298218e-01 6.211841478943824768e-02 -1.444851458072662354e-01 -5.169180631637573242e-01 -1.283983230590820312e+00 7.871173620223999023e-01 -1.050184965133666992e-01 -6.086796522140502930e-01 -5.627430081367492676e-01 1.311118841171264648e+00 -1.251829862594604492e-01 -7.620574235916137695e-01 8.251817822456359863e-01 6.587291359901428223e-01 5.032982677221298218e-03 7.092777490615844727e-01 -1.162298321723937988e+00 1.016047954559326172e+00 -6.550268530845642090e-01 -3.832660913467407227e-01 -7.916576862335205078e-01 -3.155882060527801514e-01 4.515907168388366699e-01 -1.105023384094238281e+00 -5.047315359115600586e-01 -1.614331007003784180e-01 1.011319398880004883e+00 2.854635417461395264e-01 -1.811250686645507812e+00 -9.477329254150390625e-01 -1.140319228172302246e+00 -1.783493310213088989e-01 -2.640514969825744629e-01 -3.181318342685699463e-01 -3.189698159694671631e-01 8.221326023340225220e-02 -1.096797585487365723e+00 5.213939547538757324e-01 -6.063724160194396973e-01 1.020174741744995117e+00 2.651299834251403809e-01 1.329004764556884766e-01 1.069232225418090820e+00 -3.685364425182342529e-01 1.263494938611984253e-01 -1.054590821266174316e+00 -1.303977817296981812e-01 -9.010248184204101562e-01 1.057329699397087097e-01 7.279754281044006348e-01 5.938364267349243164e-01 -2.096177544444799423e-03 -7.002043724060058594e-01 -7.210156917572021484e-01 -4.555476307868957520e-01 5.475117564201354980e-01 3.490216657519340515e-02 -1.628238677978515625e+00 -9.478025436401367188e-01 3.948559463024139404e-01 3.631851077079772949e-01 -3.186782598495483398e-01 7.129710167646408081e-02 5.512295961380004883e-01 -1.184553980827331543e+00 1.393054425716400146e-01 -1.653579354286193848e+00 -1.980522274971008301e-01 2.403570860624313354e-01 -6.124617457389831543e-01 -7.252759337425231934e-01 1.411276221275329590e+00 2.611486613750457764e-01 
1.359449744224548340e+00 1.427207469940185547e+00 1.889886975288391113e+00 1.104565024375915527e+00 1.089297056198120117e+00 9.905003905296325684e-01 1.466211199760437012e+00 1.562257766723632812e+00 1.178315401077270508e+00 8.499497771263122559e-01 
-6.876558810472488403e-02 -6.210830211639404297e-01 -3.462698683142662048e-02 -4.302308559417724609e-01 -5.408735871315002441e-01 -7.254871726036071777e-01 -2.200733870267868042e-01 -3.104120194911956787e-01 -2.745879590511322021e-01 -7.408891320228576660e-01 
-5.452867984771728516e+00 -3.589466333389282227e+00 -7.017160415649414062e+00 6.614375114440917969e-01 -7.120919704437255859e+00 2.827385187149047852e+00 -4.447685241699218750e+00 -1.759371757507324219e+00 -7.669359207153320312e+00 -3.114509820938110352e+00 
9.240276336669921875e+01 7.631704711914062500e+01 8.424633026123046875e+01 9.246156311035156250e+01 9.632594299316406250e+01 1.260271911621093750e+02 9.571575927734375000e+01 1.063138580322265625e+02 1.098768386840820312e+02 9.065606689453125000e+01 
1.008361652493476868e-01 -8.788964152336120605e-01 5.229753255844116211e-01 -4.747748970985412598e-01 5.804262682795524597e-02 6.225931644439697266e-01 7.350379824638366699e-01 -6.471862196922302246e-01 -6.676928997039794922e-01 8.742189407348632812e-01 -3.265738487243652344e-01 6.397507190704345703e-01 5.465002059936523438e-01 1.765092611312866211e+00 -2.116431444883346558e-01 -8.725466132164001465e-01 -4.830580651760101318e-01 -3.271394670009613037e-01 6.099348887801170349e-02 9.457168579101562500e-01 1.576606743037700653e-02 -1.870257705450057983e-01 -8.909477591514587402e-01 -1.267032474279403687e-01 -1.245809718966484070e-01 -8.631803095340728760e-02 -4.157548844814300537e-01 -7.705861330032348633e-01 2.539145946502685547e-01 3.519931137561798096e-01 4.749237298965454102e-01 -6.556934714317321777e-01 2.735752463340759277e-01 5.415129661560058594e-01 -2.882474064826965332e-01 1.278546214103698730e+00 -6.482844352722167969e-01 -1.604821085929870605e+00 8.255653083324432373e-02 2.194757163524627686e-01 7.983090877532958984e-01 -3.849270939826965332e-01 1.159369349479675293e+00 -2.379919886589050293e-01 3.481030762195587158e-01 5.584204196929931641e-01 7.230120301246643066e-01 -7.733730077743530273e-01 6.918714642524719238e-01 7.755642533302307129e-01 9.663607478141784668e-01 -3.626817762851715088e-01 -9.565694332122802734e-01 4.370142817497253418e-01 -7.136122584342956543e-01 4.487973153591156006e-01 -6.809724569320678711e-01 -9.005666375160217285e-01 -5.468488335609436035e-01 -1.021075963973999023e+00 1.188357234001159668e+00 -7.851039618253707886e-02 -7.911322116851806641e-01 3.196109831333160400e-01 -5.638170838356018066e-01 2.120302245020866394e-02 -5.691634416580200195e-01 2.890104427933692932e-03 -2.832993984222412109e+00 -7.258961200714111328e-01 -2.321091294288635254e-01 -5.398401021957397461e-01 7.633738517761230469e-01 5.948581099510192871e-01 1.641538888216018677e-01 -7.357438206672668457e-01 5.128340125083923340e-01 8.765045404434204102e-01 4.853344559669494629e-01 7.702059745788574219e-01 2.131881564855575562e-01 7.968037724494934082e-01 -1.675469279289245605e+00 5.950667858123779297e-01 -6.621150374412536621e-01 4.548688530921936035e-01 1.204114928841590881e-01 -1.011692136526107788e-01 3.032306134700775146e-01 4.943380951881408691e-01 -1.156716346740722656e+00 -2.468066848814487457e-02 5.140679478645324707e-01 -4.267526566982269287e-01 -1.101089239120483398e+00 6.330361366271972656e-01 5.515775084495544434e-01 6.039572954177856445e-01 -8.511905670166015625e-01 -6.740704774856567383e-01 -5.386610701680183411e-02 -1.543845236301422119e-01 -1.851153373718261719e-01 2.951076924800872803e-01 -3.150227069854736328e-01 -1.174145340919494629e+00 -2.402893304824829102e-01 7.670818567276000977e-01 4.090271890163421631e-01 -8.209981322288513184e-01 2.023088693618774414e+00 -1.330618143081665039e+00 1.306882977485656738e+00 -9.488572925329208374e-02 6.134198307991027832e-01 7.443878799676895142e-02 -1.050504326820373535e+00 1.190890789031982422e+00 5.165830254554748535e-01 7.325991392135620117e-01 -1.193731501698493958e-01 -3.241344392299652100e-01 2.063128352165222168e-01 -1.325541138648986816e-01 -3.911367952823638916e-01 -3.782536368817090988e-04 2.989512085914611816e-01 -1.597626209259033203e-01 -1.848873496055603027e-01 -1.502696573734283447e-01 -2.444000393152236938e-01 -6.568285822868347168e-02 -7.868034839630126953e-01 1.000499010086059570e+00 -6.257205009460449219e-01 1.217636227607727051e+00 1.139871120452880859e+00 -1.502472013235092163e-01 1.273110210895538330e-01 -1.029238224029541016e+00 1.231235787272453308e-01 -4.843119680881500244e-01 -1.963357776403427124e-01 3.399973213672637939e-01 6.752257347106933594e-01 -2.412197589874267578e-01 -1.237593650817871094e+00 -9.416001439094543457e-01 -5.001250654458999634e-02 -6.056988835334777832e-01 -8.257292211055755615e-02 5.963543057441711426e-01 8.586045503616333008e-01 1.540244370698928833e-01 -1.605504393577575684e+00 -5.838194489479064941e-01 8.115265965461730957e-01 6.078688502311706543e-01 -9.047633409500122070e-01 -1.456730514764785767e-01 -2.755106091499328613e-01 6.194268465042114258e-01 -2.200171947479248047e-01 1.457587838172912598e+00 5.510154739022254944e-02 -2.545073032379150391e-01 -3.785881102085113525e-01 -1.668781042098999023e-01 2.297267019748687744e-01 -8.437164425849914551e-01 -6.548445224761962891e-01 1.950342208147048950e-01 9.167669415473937988e-01 3.169722259044647217e-01 -1.829945109784603119e-02 -7.669930458068847656e-01 2.598832249641418457e-01 -6.380674242973327637e-01 1.902325600385665894e-01 3.489618003368377686e-01 -4.391891658306121826e-01 8.097055554389953613e-01 -2.147772461175918579e-01 -6.791805624961853027e-01 5.354964733123779297e-01 2.902078926563262939e-01 -6.857445091009140015e-02 2.660815715789794922e-01 -7.905992865562438965e-02 1.345366705209016800e-02 2.202865630388259888e-01 7.324849367141723633e-01 -4.543430171906948090e-03 8.252112567424774170e-02 -8.531750440597534180e-01 -4.040384292602539062e-01 4.555924534797668457e-01 6.694645881652832031e-01 -1.206337571144104004e+00 3.685320913791656494e-01 4.720499813556671143e-01 -8.874024152755737305e-01 -7.079563140869140625e-01 5.580044984817504883e-01 -1.053562045097351074e+00 -3.552069664001464844e-01 1.666239798069000244e-01 1.070428609848022461e+00 4.644365608692169189e-01 8.512836694717407227e-01 -1.134869575500488281e+00 -5.939483642578125000e-01 -2.050656229257583618e-01 7.453091442584991455e-02 8.807269334793090820e-01 -4.869757890701293945e-01 -4.796911776065826416e-01 1.386759281158447266e+00 -8.456766605377197266e-01 -8.699495792388916016e-01 -8.881473541259765625e-01 3.500984907150268555e-01 -1.528667330741882324e+00 1.623278498649597168e+00 -1.193303942680358887e+00 -1.947045475244522095e-01 -6.944269686937332153e-02 4.299901127815246582e-01 -1.006201744079589844e+00 1.039063408970832825e-01 4.298798739910125732e-01 5.564293637871742249e-02 6.150560975074768066e-01 -6.878196597099304199e-01 -1.730124652385711670e-01 1.354021281003952026e-01 7.391655445098876953e-01 6.373864412307739258e-01 9.313747882843017578e-01 -1.957929879426956177e-01 -1.912358283996582031e+00 2.612971067428588867e-01 7.940320372581481934e-01 3.021327555179595947e-01 -6.466102600097656250e-01 9.615989923477172852e-01 -4.956314265727996826e-01 -1.113734915852546692e-01 -8.255792260169982910e-01 -5.591092109680175781e-01 -1.246552020311355591e-01 2.277487218379974365e-01 1.397805213928222656e+00 1.107492089271545410e+00 5.753024816513061523e-01 8.509145975112915039e-01 -8.615690469741821289e-01 6.519777774810791016e-01 -1.576430946588516235e-01 2.713543176651000977e-01 1.465379476547241211e+00 -1.243501543998718262e+00 6.379799842834472656e-01 1.691150218248367310e-01 -6.528997421264648438e-01 -1.384985297918319702e-01 8.471011519432067871e-01 9.239141941070556641e-01 -1.710703670978546143e-01 -2.593809068202972412e-01 -1.637547165155410767e-01 -1.999822109937667847e-01 -6.983346939086914062e-01 9.513267874717712402e-01 -7.983757555484771729e-02 -3.894075751304626465e-01 5.396136641502380371e-01 6.978094577789306641e-01 5.409637093544006348e-01 7.577601671218872070e-01 1.560314536094665527e+00 -8.266280889511108398e-01 2.100578099489212036e-01 1.116271138191223145e+00 -2.131532579660415649e-01 -5.047314763069152832e-01 8.491466045379638672e-01 -1.140796899795532227e+00 -1.527596563100814819e-01 3.141450583934783936e-01 -9.409692883491516113e-01 7.750265598297119141e-01 2.454153895378112793e-01 -7.932823896408081055e-01 6.192120313644409180e-01 1.658617019653320312e+00 -4.458991885185241699e-01 5.651959031820297241e-02 -1.291816115379333496e+00 -1.900067687034606934e+00 -5.575266480445861816e-01 -3.812739849090576172e-01 -5.521926879882812500e-01 9.105255603790283203e-01 -5.301349759101867676e-01 6.418009400367736816e-01 -3.784651160240173340e-01 2.669699788093566895e-01 8.407995104789733887e-01 -8.003566265106201172e-01 1.233054995536804199e+00 -1.541674975305795670e-02 -9.174873828887939453e-01 -3.902477920055389404e-01 3.744480907917022705e-01 6.593508720397949219e-01 1.099712550640106201e-01 -1.177260279655456543e+00 4.155499339103698730e-01 5.543478131294250488e-01 5.504644513130187988e-01 -7.292034626007080078e-01 5.402720570564270020e-01 -1.541300177574157715e+00 3.484871983528137207e-01 -4.126100540161132812e-01 7.854911684989929199e-02 -3.959352374076843262e-01 -6.930471062660217285e-01 -9.141924977302551270e-02 4.085025787353515625e-01 7.528235912322998047e-01 1.438042074441909790e-01 -1.193413808941841125e-01 3.246729671955108643e-01 1.329746007919311523e+00 -6.419538706541061401e-02 -6.921239495277404785e-01 3.472514450550079346e-01 -3.761473596096038818e-01 7.736191153526306152e-02 4.015583395957946777e-01 -8.368024826049804688e-01 -8.016940355300903320e-01 -1.095500111579895020e+00 -1.144692525267601013e-01 1.641926765441894531e-01 -1.877569437026977539e+00 8.918996453285217285e-01 1.420616637915372849e-03 -6.535381078720092773e-01 1.102124974131584167e-01 -3.104691803455352783e-01 9.696697816252708435e-03 6.259733438491821289e-01 8.339133262634277344e-01 -1.793144792318344116e-01 4.218419790267944336e-01 -2.561500072479248047e-01 2.530582845211029053e-01 6.822934746742248535e-01 3.084806203842163086e-01 -2.748347818851470947e-01 -3.032300472259521484e-01 -3.319040536880493164e-01 -8.920163661241531372e-02 2.089227885007858276e-01 2.295529246330261230e-01 -3.168962299823760986e-01 1.523176878690719604e-01 1.962474547326564789e-02 -1.869495958089828491e-01 -6.263417005538940430e-01 9.768478870391845703e-01 4.131910800933837891e-01 7.498358488082885742e-01 -7.530695199966430664e-01 -5.133230686187744141e-01 -2.614079117774963379e-01 -5.222111940383911133e-01 -2.196121066808700562e-01 1.015450716018676758e+00 -3.502817749977111816e-01 -1.904888898134231567e-01 2.433356642723083496e-01 -4.092935323715209961e-01 -6.690462231636047363e-01 3.463164567947387695e-01 1.805368065834045410e-01 -8.234834074974060059e-01 1.107363939285278320e+00 -1.279558688402175903e-01 -2.520024776458740234e-01 -5.080594420433044434e-01 7.162780165672302246e-01 2.895320393145084381e-02 4.116953313350677490e-01 5.074255466461181641e-01 3.590633273124694824e-01 -1.452307224273681641e+00 1.275123715400695801e+00 8.242642283439636230e-01 1.163627877831459045e-01 8.361818790435791016e-01 4.748617485165596008e-02 1.028425574302673340e+00 1.253179788589477539e+00 -1.353388547897338867e+00 3.717607855796813965e-01 6.502954959869384766e-01 1.923870086669921875e+00 1.076151058077812195e-01 1.096714615821838379e+00 1.069905996322631836e+00 3.991190493106842041e-01 4.085333645343780518e-02 1.230078816413879395e+00 4.288697242736816406e-01 4.368364214897155762e-01 1.992593109607696533e-01 -6.006816625595092773e-01 7.138094305992126465e-01 1.027665495872497559e+00 3.501320481300354004e-01 6.448590159416198730e-01 1.159487724304199219e+00 -1.077064394950866699e+00 1.219491735100746155e-01 3.514309525489807129e-01 -3.648487627506256104e-01 -8.007833361625671387e-01 4.987987577915191650e-01 3.620546758174896240e-01 -1.128505349159240723e+00 6.442331075668334961e-01 3.719008266925811768e-01 5.028327107429504395e-01 -1.993179321289062500e-01 -1.007096409797668457e+00 -6.994677782058715820e-01 -1.828794330358505249e-01 1.218443959951400757e-01 -5.495024323463439941e-01 -1.689751982688903809e+00 1.122094511985778809e+00 -1.355417668819427490e-01 4.090367555618286133e-01 -7.514303922653198242e-01 -8.879817277193069458e-02 3.888642787933349609e-01 1.309668421745300293e-01 1.141307234764099121e+00 7.069747895002365112e-02 -1.806936144828796387e+00 9.954345822334289551e-01 -3.412086069583892822e-01 2.018782645463943481e-01 -3.516520857810974121e-01 -1.088925242424011230e+00 3.343392908573150635e-01 -1.509808540344238281e+00 9.589032530784606934e-01 -3.284041583538055420e-01 5.150110125541687012e-01 1.453806042671203613e+00 -2.880676686763763428e-01 -9.805855751037597656e-01 -5.674158334732055664e-01 1.199674725532531738e+00 4.591701179742813110e-02 -6.048115491867065430e-01 6.612803339958190918e-01 -1.508083194494247437e-01 -4.437514245510101318e-01 -3.487515151500701904e-01 -7.976552844047546387e-01 -5.589652061462402344e-01 -1.055962443351745605e-01 6.049581170082092285e-01 -4.747260808944702148e-01 -8.047047853469848633e-01 -3.113626837730407715e-01 -5.099077224731445312e-01 -9.505909681320190430e-01 -1.240205690264701843e-01 1.299041956663131714e-01 -2.086801826953887939e-01 9.181123971939086914e-01 -5.401804447174072266e-01 3.171705901622772217e-01 5.786920189857482910e-01 -3.684509694576263428e-01 -3.425316512584686279e-01 1.982499510049819946e-01 1.094615340232849121e+00 -4.350806474685668945e-01 8.201450705528259277e-01 -6.813074350357055664e-01 -9.444991350173950195e-01 -4.049665629863739014e-01 -7.607685774564743042e-02 -3.738945722579956055e-01 -9.370545148849487305e-01 -9.886801987886428833e-02 -2.157235592603683472e-01 1.037311330437660217e-01 -2.718445658683776855e-01 7.666806578636169434e-01 -7.642996907234191895e-01 9.465207904577255249e-02 -3.730424940586090088e-01 -1.182682037353515625e+00 8.257584273815155029e-02 -1.243383049964904785e+00 5.354812741279602051e-01 -9.885457158088684082e-01 5.994105935096740723e-01 -7.593342065811157227e-01 7.629435509443283081e-02 5.468268990516662598e-01 1.340023994445800781e+00 -2.848328649997711182e-01 -8.392825126647949219e-01 9.536906480789184570e-01 -4.350102841854095459e-01 9.851266145706176758e-01 1.176221072673797607e-01 -8.208530545234680176e-01 -6.364579200744628906e-01 -7.932999730110168457e-01 1.258866310119628906e+00 1.031148672103881836e+00 -1.540434658527374268e-01 -8.273449540138244629e-01 -1.692383736371994019e-02 -9.385725259780883789e-01 -7.672425508499145508e-01 4.616279527544975281e-02 -8.159987926483154297e-01 -2.979604154825210571e-02 -1.025947704911231995e-01 3.233323693275451660e-01 4.421689361333847046e-02 -3.905293643474578857e-01 8.760838508605957031e-01 3.176365196704864502e-01 1.696744412183761597e-01 4.749432951211929321e-02 1.067211944609880447e-02 4.404479265213012695e-01 -1.053612112998962402e+00 -8.413373827934265137e-01 -1.438510417938232422e-01 -5.542488098144531250e-01 -1.249288693070411682e-01 -3.934876620769500732e-02 6.599707007408142090e-01 4.857672452926635742e-01 9.338196516036987305e-01 5.528944730758666992e-01 -6.415599584579467773e-01 3.669950738549232483e-02 1.199102774262428284e-01 4.575037360191345215e-01 -1.982764124870300293e+00 7.073650360107421875e-01 3.097373843193054199e-01 -1.203538328409194946e-01 4.935715198516845703e-01 -8.191707134246826172e-01 1.119566679000854492e+00 -2.507472336292266846e-01 -2.031363546848297119e-01 -4.963446259498596191e-01 -7.996076941490173340e-01 4.878009855747222900e-02 8.540286421775817871e-01 8.360306620597839355e-01 -6.811253428459167480e-01 7.539079785346984863e-01 6.324954628944396973e-01 2.240329682826995850e-01 -5.873581171035766602e-01 -6.563960313796997070e-01 -7.714236378669738770e-01 -2.897183895111083984e-01 -3.582986071705818176e-02 4.947986602783203125e-01 -4.587906897068023682e-01 -4.375022947788238525e-01 1.560401439666748047e+00 -5.124215483665466309e-01 -9.460687041282653809e-01 -1.838329434394836426e-01 2.889473736286163330e-01 7.515684515237808228e-02 7.747451066970825195e-01 8.140975236892700195e-01 -5.387611389160156250e-01 1.073887467384338379e+00 8.088079094886779785e-01 -1.246869683265686035e+00 7.627211809158325195e-01 1.477328896522521973e+00 5.267448425292968750e-01 1.483662575483322144e-01 6.005713343620300293e-01 1.170361280441284180e+00 -9.328110814094543457e-01 3.972668647766113281e-01 -8.331530690193176270e-01 4.090113937854766846e-01 -6.282842755317687988e-01 7.768471837043762207e-01 -2.980793118476867676e-01 -6.109857559204101562e-01 -1.117171049118041992e+00 -6.417996287345886230e-01 5.922268629074096680e-01 -8.814253807067871094e-01 -1.160922765731811523e+00 -5.848759040236473083e-02 -1.194719195365905762e+00 1.361164748668670654e-01 1.146010279655456543e+00 8.231443762779235840e-01 -1.940670236945152283e-02 5.889999866485595703e-01 -3.958583474159240723e-01 -7.399897575378417969e-01 -7.657158374786376953e-01 6.048850417137145996e-01 -2.005379438400268555e+00 2.572194039821624756e-01 3.222927153110504150e-01 -2.345816791057586670e-01 -9.562497138977050781e-01 6.576324105262756348e-01 1.691783666610717773e+00 5.498511791229248047e-01 7.449366450309753418e-01 -7.021804153919219971e-02 3.513467609882354736e-01 -9.075056314468383789e-01 2.869040071964263916e-01 1.266103982925415039e-01 -1.316709220409393311e-01 -1.707589477300643921e-01 1.099814027547836304e-01 1.116030812263488770e+00 -8.849139213562011719e-01 4.728085994720458984e-01 1.823197007179260254e-01 -8.333718776702880859e-02 3.488760888576507568e-01 -7.638504505157470703e-01 4.282416701316833496e-01 1.238606691360473633e+00 -1.520556688308715820e+00 -7.149412035942077637e-01 3.142780065536499023e-01 -1.038665652275085449e+00 7.738088369369506836e-01 -1.136701822280883789e+00 4.482851922512054443e-01 3.601003289222717285e-01 -1.701377481222152710e-01 1.069539859890937805e-01 8.353599905967712402e-01 -5.339898467063903809e-01 -2.091027796268463135e-01 2.806693129241466522e-02 -7.442257553339004517e-02 2.853624820709228516e-01 6.585352867841720581e-02 -2.303750216960906982e-01 -1.083614826202392578e-01 -7.870395183563232422e-01 2.805077433586120605e-01 -4.241527318954467773e-01 -1.255608439445495605e+00 -2.211087644100189209e-01 1.974576711654663086e-01 1.665034145116806030e-01 1.009809896349906921e-01 -3.985569998621940613e-02 -2.238556623458862305e+00 5.758662223815917969e-01 5.367565751075744629e-01 6.215419769287109375e-01 -6.185318231582641602e-01 -7.679291963577270508e-01 -1.540266513824462891e+00 -2.627379596233367920e-01 1.370013475418090820e+00 -8.523445129394531250e-01 6.762264370918273926e-01 8.891408145427703857e-02 1.114075660705566406e+00 2.446075081825256348e-01 -4.187435507774353027e-01 -5.241380333900451660e-01 6.486876308917999268e-02 -7.079686522483825684e-01 7.857678830623626709e-02 2.676379978656768799e-01 9.461646676063537598e-01 5.286024212837219238e-01 2.514211088418960571e-02 -1.142759919166564941e+00 -1.777543127536773682e-01 1.385899260640144348e-02 4.966282248497009277e-01 9.809534549713134766e-01 7.734768390655517578e-01 1.311096698045730591e-01 -6.465300172567367554e-02 -1.669199943542480469e+00 -4.705234896391630173e-03 -2.113278508186340332e-01 3.472510278224945068e-01 8.693019300699234009e-02 -7.889017462730407715e-01 3.719150125980377197e-01 6.943068504333496094e-01 7.924227118492126465e-01 -5.121198948472738266e-03 -4.249732941389083862e-02 1.170697331428527832e+00 1.824181199073791504e+00 1.039493799209594727e+00 3.877751901745796204e-02 -3.480192720890045166e-01 8.530631661415100098e-01 -1.418001890182495117e+00 -6.865196228027343750e-01 -6.990848183631896973e-01 7.250714302062988281e-01 6.920280456542968750e-01 4.470337331295013428e-01 -1.458098292350769043e+00 -7.221801280975341797e-01 -2.718278765678405762e-01 -3.226594626903533936e-01 1.135485291481018066e+00 2.349065244197845459e-01 -2.025628536939620972e-01 4.526355862617492676e-01 -1.146380454301834106e-01 -1.113161817193031311e-01 -7.023200988769531250e-01 -2.325994074344635010e-01 -1.322823762893676758e+00 4.648374021053314209e-02 5.885639190673828125e-01 -6.953369379043579102e-01 4.250808060169219971e-01 -8.044826984405517578e-01 -1.325667500495910645e+00 6.152600646018981934e-01 8.135373592376708984e-01 3.215014636516571045e-01 -9.495739936828613281e-01 5.426328778266906738e-01 3.115613758563995361e-01 1.718773394823074341e-01 3.620006740093231201e-01 -7.395234704017639160e-01 -6.884034276008605957e-01 -7.477744817733764648e-01 -2.072901010513305664e+00 -8.773897588253021240e-02 1.427354514598846436e-01 1.051836729049682617e+00 -3.087351322174072266e-01 -1.590041518211364746e-01 2.221017628908157349e-01 -9.524170756340026855e-01 6.401802897453308105e-01 1.407044380903244019e-01 8.251799345016479492e-01 -1.787867546081542969e-01 5.613520145416259766e-01 -1.278583168983459473e+00 -3.159716427326202393e-01 3.330214321613311768e-02 5.571389198303222656e-01 4.318369626998901367e-01 